{
  "layers": [
    {
      "activation": 2,
      "biases": [
        -0.251752812652867,
        0.0,
        -0.04104481864072821,
        0.23306406464331994,
        0.5103085975885505,
        0.9329921424416047,
        1.1371365466011683
      ],
      "cols": 7,
      "rows": 3,
      "weights": [
        [
          -0.8625039118845761,
          -0.314716227058589,
          1.254816268824127,
          -0.7769390685574112,
          -1.2966244902704,
          -1.2036233618916683,
          0.3486749348215814
        ],
        [
          1.242433768233239,
          -0.48957059285578725,
          1.158252902765469,
          1.3913009447932956,
          -1.2963172509056746,
          0.5449810523405905,
          -1.0545920210747648
        ],
        [
          1.4426745460568302,
          -0.4471334441798018,
          -1.1738724906814497,
          -0.8339552677675176,
          0.7770683156002632,
          -1.5183827559535545,
          -1.5120985368530082
        ]
      ]
    },
    {
      "activation": 2,
      "biases": [
        -0.018960734217997512,
        0.5413267609581651,
        -0.30714217530864996,
        0.36057224880407884,
        -0.18376292823059137,
        -0.11552394885411991,
        0.4924733149230599,
        0.213070274486431,
        0.003930132960542467,
        1.2102577139357495,
        0.0
      ],
      "cols": 11,
      "rows": 7,
      "weights": [
        [
          -0.16693177514400329,
          0.04340841921143991,
          1.4375348822808653,
          -0.4624015008453067,
          -0.31474991538091496,
          1.06091806738347,
          0.03385903228858396,
          -0.6983909287573008,
          -0.20043455456014264,
          -0.11947012337524521,
          -0.08174938388366908
        ],
        [
          -0.527422341132411,
          -0.3110313335838769,
          -0.510721956706945,
          -0.2632272614588893,
          0.5703969596383461,
          -0.4350583133624614,
          0.0033899037084681822,
          0.43603486623401294,
          -0.03389057127743301,
          0.482419194872433,
          0.13174573848341806
        ],
        [
          0.20832024270295954,
          0.0867434401003478,
          0.7036947779900002,
          -0.3373546095221414,
          0.9582804716015983,
          -0.6320181778470196,
          1.5276720984787557,
          0.38688400290224595,
          -0.18865970748613062,
          -0.7149529229690254,
          -0.46500592059729107
        ],
        [
          -0.5093967816139598,
          0.3487082983708887,
          0.29323893083239966,
          -0.18330974058192986,
          1.1180414985123808,
          0.2085731307430031,
          -0.7258345710455738,
          -0.3537043580620241,
          0.8049198060579177,
          0.8531038339343073,
          -0.34126372789683007
        ],
        [
          0.22730992829464478,
          0.28205087523690364,
          -0.8094669994415086,
          -0.12873972571603548,
          0.29998798741865246,
          1.5839235628833095,
          0.717535892570388,
          -0.44984337069597186,
          0.11113009243893672,
          -0.16151462633779268,
          -0.2219006322813093
        ],
        [
          -0.48326835143823993,
          0.5563841194610651,
          -1.2700262942272567,
          0.5096136377766405,
          0.708159904222863,
          0.7707045111768756,
          -0.15832081613951354,
          0.09577061981433865,
          0.3479201104116313,
          1.1402054496025478,
          0.19881221301689275
        ],
        [
          -0.5260262797156552,
          -0.6860338392106857,
          -0.23236959668288443,
          0.08359128416537491,
          -0.334272593382194,
          -0.1274328967465242,
          0.7372507191672573,
          1.7266006293320049,
          -0.19658006048725013,
          0.4309364123557035,
          -0.26649389463645207
        ]
      ]
    },
    {
      "activation": 2,
      "biases": [
        -0.4505784620113735,
        -0.42149759751926014,
        1.2837866412469747,
        1.1611848808612404,
        0.007574375951315199,
        -0.4026923030270217,
        -0.21263395125621223,
        -0.4908031183964568,
        1.0719799252041895,
        -0.8980461667031812,
        0.0,
        -0.012084738419989353,
        -0.5722354285857643,
        1.1208161612269891,
        -0.231525299730347,
        -0.005256017718490109
      ],
      "cols": 16,
      "rows": 11,
      "weights": [
        [
          0.09838883271224325,
          0.44111815316741493,
          0.3754292747538014,
          0.251488849016994,
          -0.046917781661841,
          -0.2639307829264134,
          0.02745336773893678,
          0.21220032181355916,
          -0.13422445096685173,
          -0.1946234414967952,
          -0.44929359784854317,
          0.13148454761721734,
          -0.41887550137807195,
          0.37615705519157694,
          0.20211295609345312,
          0.20081182983741153
        ],
        [
          -0.042700007039739266,
          -0.019785610975359084,
          -0.21652753182398404,
          0.34857869601531805,
          -0.09877794401060692,
          -0.09519789546943981,
          0.480510217610004,
          -0.46984701586095684,
          0.47357528947778404,
          0.2152258166232358,
          -0.3198850097193093,
          -0.0695820934660991,
          -0.17339020136704034,
          -0.7571178462728717,
          -0.3910477960129393,
          -0.21194478641172806
        ],
        [
          -0.10659036309595842,
          -0.5383587210559093,
          1.0152943787523399,
          -0.6654333875465539,
          0.027624033482441832,
          0.12421871921103847,
          -0.012329916841882204,
          0.44088431102703896,
          -0.22436598460048765,
          -0.5844195584631182,
          -0.4102032515053168,
          -0.30535164863075165,
          0.5097936164883665,
          0.02404390506887866,
          1.7872573999250418,
          -0.22377632708711476
        ],
        [
          0.20774428024958574,
          0.18883613832835983,
          0.01859869279311513,
          -0.0061977162458192354,
          -0.3367066804333589,
          -0.39775495588669485,
          -0.36871667520141116,
          0.5833014706663515,
          0.4293272691550601,
          -0.26642326996461535,
          -0.46633600181187573,
          0.3227786920357963,
          -0.4393300970486832,
          0.08913566403979756,
          -0.2179331047085538,
          0.3560608356321993
        ],
        [
          0.16453428473521534,
          0.8236597688694604,
          -0.02863139003304562,
          0.1616301722311417,
          0.23401842750694513,
          0.6180122433115247,
          0.8909618817959165,
          -0.2067420111729146,
          -0.1020465856953584,
          0.4445183943604304,
          -0.13761978050313783,
          -0.43398251319240894,
          0.8020796735462272,
          -0.9842712798525596,
          -0.4771279872609138,
          0.3054567035190246
        ],
        [
          -0.05961381798978239,
          -0.6013848121931563,
          0.07881594859517028,
          -0.9274353080560273,
          1.3952692208182114,
          -0.6558549724079776,
          0.5186001518889009,
          0.7362768534788813,
          -0.29039308981490114,
          -0.0707491084319198,
          -0.26507191543582237,
          -0.2976765712035015,
          0.24832369867850795,
          -0.5353460811518199,
          -0.22741363248800922,
          -0.3768741128652015
        ],
        [
          -0.5089345494616963,
          0.8897430560020573,
          -0.5360359471446177,
          0.32683801480887537,
          -0.669278091587964,
          -0.19391139751282666,
          0.8472332773791569,
          0.8255676971364058,
          1.0507625579228443,
          0.32380836594907736,
          -0.2909612546167784,
          0.31750358755080643,
          0.23702588079485534,
          0.7091099739659086,
          0.23142468210066386,
          -0.3323783338561337
        ],
        [
          -0.3664932012487177,
          0.44403562211358555,
          -0.006834527656771623,
          0.287869265629686,
          -0.13927485729523872,
          -0.6558991139539647,
          -0.23061070450047738,
          0.7768621498120426,
          0.19877571960687915,
          1.5179715281558481,
          0.16469234196817592,
          -0.46490881795629224,
          0.2543966598634628,
          0.29655188650970027,
          -0.36893408586092413,
          0.2680653912678671
        ],
        [
          -0.03600451476450776,
          -0.17983622061009483,
          -0.40242758951082996,
          -0.0035237370129857287,
          -0.07425395038397752,
          0.024106032787685572,
          0.2897702504039807,
          -0.46980911702555644,
          -0.41851433761540224,
          0.5032230839563161,
          -0.10315462580541333,
          0.3919444284682689,
          -0.33647143442816896,
          0.15360415968515478,
          0.2413964468013734,
          -0.16921320830976364
        ],
        [
          0.20162126913337716,
          -0.4675872467805132,
          0.3795339152308841,
          1.3478542165752845,
          -0.2543232628078111,
          -0.3819148423928919,
          -0.357690111101227,
          0.15411259657255105,
          0.12611701434816167,
          0.6780596590629364,
          0.10603155783230551,
          0.031187758017210607,
          -0.3950839903846123,
          -0.7195324984324319,
          -0.7274423495949649,
          -0.45434903064776766
        ],
        [
          -0.14071914208412012,
          0.011129571436029068,
          0.004166093707478232,
          0.008691935133311218,
          0.06129745651611049,
          0.31632824770853074,
          0.2093633529643581,
          0.36989039191749545,
          -0.3985190207376661,
          0.28937362717463055,
          0.16330389745897564,
          -0.2999713227238766,
          -0.3667907085277634,
          0.05459363586270328,
          -0.4638476321182986,
          0.009637553241713465
        ]
      ]
    },
    {
      "activation": 1,
      "biases": [
        0.038479674780666676,
        0.4015547740491527,
        0.5588063063322507,
        -0.12597028925999812,
        0.3025931483400176,
        0.6483294272992108,
        0.021069933453003464,
        0.1756538493772096,
        -0.3310696215493012,
        -0.678073385993153,
        -0.2227411132683701,
        -0.7289584039903992,
        -0.7392888344064377,
        -0.34121301710094454,
        -0.03745063950664677,
        0.9867183638614118,
        0.5246623696713469,
        -0.5819463682181244,
        -0.4135859742029491,
        -0.8036610570300315,
        0.39287303592987965,
        -0.5039913805080881
      ],
      "cols": 22,
      "rows": 16,
      "weights": [
        [
          -0.23177718111585227,
          0.22553241115696593,
          0.17512796922373192,
          0.43575538624974597,
          0.01805986940233922,
          0.4006305471739791,
          -0.013019921916056361,
          -0.15271694348847084,
          -0.24650640859662695,
          -0.08567790543536409,
          -0.40597216155246113,
          -0.11390657403835072,
          -0.28665433068642715,
          0.06496944141504933,
          0.4582412211659196,
          0.32613432442867396,
          -0.010650955533995523,
          -0.025741732384078123,
          -0.21411927800201463,
          -0.6500244039707361,
          -0.4025794633936818,
          -0.2317542786613436
        ],
        [
          0.14648663344053758,
          0.20795899595985637,
          0.2970053939992798,
          -0.053024814958472825,
          0.006817893731017017,
          0.08254122414784035,
          0.018986274412839007,
          -0.15695377632911822,
          -1.1403313721353179,
          0.1925795938862593,
          -0.007697751835819426,
          -0.5391941501765213,
          -0.37838793569934215,
          0.4733377723847313,
          0.4034827581287747,
          -0.11478358583368627,
          0.07290687985829117,
          0.8498096903987409,
          0.06981615548684934,
          -0.08965522344184904,
          -0.5434087153177243,
          -0.25937785780926115
        ],
        [
          0.6723048961130574,
          0.2729026115457925,
          0.438350508179319,
          0.2338617902296603,
          0.3907095967265048,
          -0.3148445857160512,
          0.5271068940098865,
          -0.30614728271499975,
          -0.6722772469513077,
          -0.33553341493451105,
          0.2489758247189165,
          -0.9737926580462101,
          -0.32058654963092154,
          0.4672241350733622,
          0.0745192927440494,
          -0.017899269400740134,
          -0.5162495321557757,
          -0.14307431427159134,
          0.644020715657423,
          0.42037336988513013,
          -0.5325876809043693,
          -0.614519089504809
        ],
        [
          0.12604496186750955,
          0.2985926112014335,
          0.0980157944255304,
          0.8502823887785143,
          -0.1414156145844685,
          -0.29237593887357677,
          0.517247552407559,
          -0.94857853395012,
          0.4295159701784468,
          0.7202480129739667,
          0.044306697284423074,
          -0.12272642302495687,
          0.2714974819177567,
          -0.3047326600250733,
          -0.028022443822336998,
          0.6095430274323456,
          -1.10282449781368,
          0.6270601182886666,
          -0.4009020071182956,
          0.5737663719474491,
          0.5593127495217267,
          -0.14874148817915508
        ],
        [
          0.22923175597601345,
          0.5035994263816369,
          -0.7102494811988428,
          0.10352089492012173,
          -0.3771170126599306,
          0.46562125844683816,
          -0.3232079070965299,
          -0.463078123269455,
          -0.709425994766675,
          0.29290498979236096,
          0.27096580094691897,
          0.014093019899216786,
          -0.19859736526686284,
          0.001535420132586008,
          0.28863587761817067,
          -0.20654950425541116,
          -0.08926246408988261,
          -0.31093080989576444,
          0.5924793062298002,
          0.4845061444193915,
          0.428893267726895,
          -0.008736563238964986
        ],
        [
          -0.17421663499685627,
          -0.17886088394175736,
          -0.15165779504117255,
          -0.18895555209671908,
          0.31579719738047785,
          -0.41793113634570755,
          -0.2633186947355904,
          -0.44553601028393985,
          0.06197711570470697,
          0.37334942782624775,
          -0.18589282245742778,
          0.017064584056061653,
          0.21843592359627018,
          0.2732033781979714,
          -0.24406250297507706,
          -0.03190692565062541,
          -0.8202292950396428,
          0.2196411215410559,
          0.044996577497172174,
          0.4724572559680507,
          -0.2965268535793669,
          0.5335850525857263
        ],
        [
          -0.2036297862726698,
          0.6062190289461851,
          -0.29086893008737524,
          -0.4088372278295018,
          0.03362786181155357,
          -0.013866520598650588,
          -0.6151733685971107,
          0.6517397669990442,
          0.20408020383734007,
          -0.2669120387254523,
          0.9178330948457576,
          0.7601872942981223,
          -0.10319145218507479,
          0.009666227812498198,
          -0.2753591423259343,
          -0.05630564580300978,
          0.022403451518520707,
          0.04980137985510114,
          -0.09589777056832377,
          -0.43791939609780656,
          -0.09634276752506929,
          -0.14455393717644996
        ],
        [
          -0.1569847914209659,
          -0.5752423497272069,
          -0.6256196507125191,
          -0.598919212962213,
          -0.34618744052427014,
          -0.6305234212851235,
          0.07878119362856617,
          0.6653980303965804,
          -0.3250664398635408,
          0.2721300163600218,
          -0.7332476221939158,
          -0.12344588670073844,
          0.4898824955976736,
          -0.4025202747664795,
          -0.18171690522731818,
          -0.36032436897695025,
          0.36162098983619306,
          -0.37950458642960355,
          0.38070224673333414,
          0.002073286808404885,
          0.6642061703959627,
          -0.2559951533170878
        ],
        [
          0.03586601399299039,
          -0.20712603894394777,
          0.08466994132617482,
          -0.4045336721865591,
          0.02547036779829195,
          0.019844876759609328,
          0.3275560533582257,
          -0.4317955330956232,
          -0.43705333939110635,
          -0.14951077864426476,
          -0.07573827565342593,
          0.9901333452412289,
          -0.4112050870590864,
          0.8177292716699818,
          -0.09076519331854703,
          0.6294122110417996,
          0.40238876671216456,
          -0.3086662808205774,
          -0.28261407899814084,
          -0.0913215122071519,
          0.20110739585185047,
          0.6069988459103436
        ],
        [
          -0.2471605186203767,
          -0.6279688250246429,
          -0.1239536480391119,
          0.41215456935594313,
          -0.08668610190536938,
          0.5564203956974566,
          -0.33839884641207935,
          0.6697280770987643,
          0.7775807543590302,
          -0.5713631692383015,
          -0.5636951141540095,
          -0.2774263924821741,
          0.1450844089897329,
          -0.5544914265711327,
          0.2301020178287739,
          -1.01167423362483,
          0.38398576066431483,
          -0.3123331348636592,
          0.17476260771586097,
          -0.05656738177202587,
          -0.42456989353089264,
          0.46969570253434173
        ],
        [
          0.22783316907731288,
          -0.15099753008561415,
          0.09499395516491917,
          -0.2786263121628683,
          0.2117241275498658,
          -0.32084733099142554,
          -0.17797849703321458,
          -0.34832203801922196,
          -0.14759714128734022,
          0.2749662259558806,
          0.2678624331392238,
          -0.2246443249109497,
          -0.1779025123969839,
          0.20177999257900475,
          0.10075141902005938,
          -0.1294070832794133,
          -0.1782579865291797,
          -0.027107011146647323,
          -0.047703942689825446,
          0.3516228624268919,
          -0.14879754718112811,
          0.045033003438805445
        ],
        [
          0.23396027503800687,
          -0.2742340341075767,
          -0.028345421339416078,
          -0.3868368402138418,
          -0.30557518763370956,
          -0.30957847084683315,
          0.04194633912009143,
          -0.3500932540133575,
          -0.3461683145489696,
          0.06369064516388234,
          -0.12074265493910127,
          0.1138423137030867,
          -0.2734720085938355,
          0.24806287069085584,
          -0.21837660240897572,
          0.20184421421465812,
          0.112709383500138,
          -0.21319765772119584,
          0.11175133844337767,
          0.1905768766916937,
          0.14253373962081686,
          0.2955826292104598
        ],
        [
          0.5277478676987026,
          -0.34919639864789764,
          -0.2627217120620546,
          0.4563498020388479,
          0.3214038493172124,
          -0.15325385922215665,
          -0.24280923763346016,
          -0.23214426725318912,
          0.11643589646039719,
          0.33314097958226707,
          0.38181814961943733,
          0.6774862726108031,
          0.22634299916897443,
          0.25670465900208833,
          0.03859764471058947,
          -0.10640866303824052,
          -0.15959626176270608,
          -0.4036034043838689,
          -0.004903077803551392,
          0.4612346109131934,
          -0.009331795823176624,
          -0.39386390417993916
        ],
        [
          0.6204447219825847,
          0.6828952901819899,
          0.532316380643871,
          -0.05597896059889839,
          -0.2407166065852324,
          0.3333455425651606,
          -0.011395740353666181,
          -0.06385874291722221,
          0.4795346982214685,
          -0.4315031242057125,
          -0.36148808377984537,
          -0.42858532149118717,
          -0.5685294383906103,
          -0.3740913745440792,
          -0.19866684963741374,
          0.08062128461695148,
          -0.8593412830430531,
          0.6826990325222351,
          0.3608604607024112,
          -0.5059263370454028,
          -0.5628067865304422,
          0.5571605842361165
        ],
        [
          -0.1520683426938655,
          -0.2355405127961523,
          0.41191704788513767,
          0.5879545662556596,
          0.28004513536836845,
          -0.8621796110230996,
          -0.22052725929804357,
          0.3811398342374056,
          1.5822135291735304,
          0.02474071943040653,
          -0.382898498727773,
          0.18401040008526076,
          0.45656693683293303,
          -0.46844503698428686,
          0.2580058530243921,
          -0.08149291104655135,
          0.3259032081625426,
          0.5472381800524122,
          0.09950370658103659,
          -0.15568544027473316,
          0.3010420491170432,
          0.14498694430110817
        ],
        [
          0.10072976323004057,
          -0.3841209700808816,
          0.19553875057253234,
          -0.28480524719023576,
          0.30425965763149515,
          0.29497462223495347,
          -0.19943582301389284,
          0.16868007432885143,
          0.22032244574715168,
          0.0976308613728882,
          0.09779967852694371,
          -0.1847388627695939,
          0.14511724981998778,
          -0.3821683849789771,
          -0.16547211605058876,
          0.125942922869318,
          -0.14455146754320136,
          -0.31047819876685495,
          0.09608086921255814,
          -0.1704120363032869,
          0.26855199918580985,
          0.00970945802370494
        ]
      ]
    }
  ]
}
