{
  "layers": [
    {
      "activation": 2,
      "biases": [
        0.0,
        0.5063658973730563,
        1.5412988396249259,
        -0.6202495289016015,
        0.174466749055254,
        -0.25756620596959456,
        -0.01929404201361763
      ],
      "cols": 7,
      "rows": 3,
      "weights": [
        [
          -0.36532690195428424,
          0.9830833778108734,
          0.33301467587953815,
          1.9860886058390197,
          0.7030735084902164,
          1.0806685126028535,
          -0.542599764370845
        ],
        [
          -0.596040737657065,
          1.3944327040550937,
          -2.086500719860057,
          0.774493349581613,
          -0.9037923201029368,
          0.44868091805823934,
          -1.292465196582565
        ],
        [
          -0.5725511714274643,
          -1.9569688687522504,
          -0.5279365642401831,
          -0.934137106836954,
          -0.46155731407970624,
          0.9595794200803257,
          1.4749226354622014
        ]
      ]
    },
    {
      "activation": 2,
      "biases": [
        1.098482467774404,
        0.7712820946922084,
        0.4999822488232671,
        -0.9201949727417131,
        -0.5778827814872024,
        0.0,
        0.12716641730863787,
        0.26630703178142207,
        0.027697183726359025,
        -1.1090686908136806,
        0.08879264231720979
      ],
      "cols": 11,
      "rows": 7,
      "weights": [
        [
          -0.28536692959609833,
          0.41548881849415426,
          -0.5300523221611357,
          0.3775532326787923,
          0.40364262293275216,
          0.2637403180375712,
          0.0779135561655928,
          0.054817721489586496,
          -0.47422088928059897,
          0.5526852041583046,
          0.32466127035045556
        ],
        [
          1.0801301965064407,
          -0.5869349805084891,
          -0.2899590915915503,
          0.6615746179614475,
          -0.8641187077084581,
          -0.2118415804865036,
          -0.0038496531627833152,
          -0.38016676152725104,
          -1.0551073160755955,
          1.2622530427348004,
          -1.3867020855617105
        ],
        [
          0.3151416084471409,
          -0.5160825785949998,
          1.47970099837792,
          0.9152703187475908,
          0.3540582644538734,
          -0.4796834134331898,
          0.37121177423204954,
          -0.5851574685803821,
          1.1773057909845395,
          -0.76277803265945,
          1.1290324988546694
        ],
        [
          -0.43387196434450975,
          -0.3133352743805283,
          -0.08038101912114577,
          0.3095053340078117,
          0.4172512998812847,
          0.08002939231217264,
          -0.49820689345992347,
          1.75683696799723,
          -0.3530281890819769,
          1.1248465816508484,
          -0.6060327297263326
        ],
        [
          0.7378470483862362,
          0.06819309603061172,
          0.08725715800629892,
          0.07256044856169308,
          0.4272663339315767,
          -0.17213062114308506,
          -0.05175755026169227,
          0.07800016033188478,
          0.27002474196270493,
          -1.0021143176343188,
          0.1413632375591737
        ],
        [
          0.17817590906032588,
          1.0265754725859968,
          0.40599771910596577,
          -0.36956531430734063,
          0.6609172200311902,
          -0.47450091180487597,
          -0.5844019179143304,
          0.9302537364032549,
          -0.4978842669484565,
          0.4150531368153174,
          0.1870848556169592
        ],
        [
          -0.17086270772719356,
          0.021711158297393555,
          -0.8045463067597802,
          -0.4819214799588123,
          -0.5851137747922468,
          -0.5749066574404362,
          -0.11611373190152441,
          -0.46740468453370027,
          0.9146642514583481,
          0.1633620814566172,
          1.440650272308951
        ]
      ]
    },
    {
      "activation": 2,
      "biases": [
        -0.06344208098115013,
        0.4032307105450179,
        0.39732538317256877,
        0.0,
        -0.28582395083112433,
        0.0683963140457905,
        -0.11368236585277344,
        0.17289133668801618,
        -0.1961602512654144,
        -1.819024762796017,
        0.5447159393293273,
        -0.7055968859331392,
        -0.29808148800285333,
        1.5820226063019325,
        0.25922727448749483,
        -0.24698313462698215
      ],
      "cols": 16,
      "rows": 11,
      "weights": [
        [
          -0.40284389953584104,
          1.4270673471053554,
          0.5443609970965337,
          -0.4434259184254505,
          0.4173103805266092,
          -0.2223238270262647,
          0.01271283707718085,
          0.3989817729001708,
          -0.12554536642543135,
          -0.37172420023662067,
          0.2582055177590744,
          -0.5975722237541633,
          0.20299067996533754,
          0.5682023831817756,
          1.1624139931914816,
          -0.2748471541095457
        ],
        [
          0.11674439286435111,
          -0.04877498946418309,
          0.4115775528005606,
          0.24606272966387235,
          0.18458684419237034,
          0.31002977652641206,
          -0.5498603906390686,
          0.9455563612057408,
          -0.4280147063800204,
          0.026772833240065675,
          0.3445005162546752,
          -0.10281413931488974,
          -0.8440816457157376,
          0.36089465263563464,
          -0.33636823113782355,
          0.042792783355510476
        ],
        [
          0.12871173978134068,
          -0.9386351109668457,
          0.5590396276752708,
          0.41584108177285917,
          0.6604485745959475,
          -0.9377933269970777,
          -0.7242584612452768,
          0.4244087953722839,
          -0.33392916537404,
          -0.37642583908377975,
          0.05199292016822181,
          0.16783723698728525,
          0.770628992469079,
          0.4885942423622792,
          0.7534979117025318,
          0.19217384898349094
        ],
        [
          0.23655506290130937,
          0.5828875245997978,
          0.11106295226176374,
          -0.002363891391105485,
          0.2770100827093605,
          -0.08912272861686191,
          -0.6443610552814754,
          -0.6523042575255958,
          0.3226794127777854,
          0.37775047487656277,
          1.346764816110893,
          -0.43430371616531305,
          0.02626085455669261,
          0.4257864468410274,
          0.3540585398169224,
          -0.11392580506192007
        ],
        [
          0.27967822501142126,
          -0.13429200776379696,
          -0.5781324804301972,
          -0.13194286386290974,
          0.4289248557971183,
          -0.5666372496164601,
          0.4412280407842736,
          -0.4050224124326284,
          -0.33775496165720076,
          -0.2566960079673172,
          -0.7456316636112802,
          0.5845382388609872,
          -0.47801389393104066,
          -0.39426234335076005,
          -0.21370523579720885,
          0.1546868130078132
        ],
        [
          -0.22505398368894938,
          0.44270122707257054,
          -0.044388125958656946,
          -0.07684714291085964,
          0.4707594764451622,
          0.06849321386847686,
          -0.29004168062658997,
          0.4139487176888269,
          0.41431731514779885,
          0.4046105245121174,
          0.24097153260699936,
          -0.2801665344044533,
          -0.07421465558096972,
          0.09216389289340364,
          -0.3911755255103101,
          -0.04914791751620811
        ],
        [
          0.06757096706564414,
          -0.24070726710985996,
          -0.2876785090211991,
          0.0784560646091978,
          0.038045725281277996,
          -0.12314023297678969,
          -0.40009463924228544,
          0.2739674994851837,
          -0.17883764099140825,
          -0.19248833322900366,
          -0.54333711898259,
          -0.42244195349916014,
          0.2697691266642883,
          -0.08276544666274017,
          -0.3289956227321474,
          -0.12832926902203623
        ],
        [
          -0.4201112580596585,
          -0.9255841602227115,
          0.39324636818723124,
          -0.3787712865192927,
          -1.0558646009648731,
          -0.6251272431723068,
          -0.2640191313133546,
          -0.33411502390943554,
          -0.46364556379962407,
          -0.5063609140767013,
          0.24018498628910429,
          -0.7676429422472355,
          -1.0916907333958263,
          -0.19415480804528004,
          -0.7475808667169465,
          0.22870704025339658
        ],
        [
          0.06942566811118803,
          -0.6306309425783206,
          -0.44077661676363755,
          -0.16236376766050553,
          0.5091689043900506,
          0.6905840371160946,
          -0.6237617718778297,
          0.3004466576870506,
          0.48186718918488564,
          0.0990000953954291,
          -0.5292764891982934,
          0.8449771126059868,
          0.5678214407847689,
          -0.6568781484271222,
          -0.033664345002070925,
          0.053549299057130455
        ],
        [
          -0.3604901845080677,
          -0.42096664199423706,
          -0.7175236318120342,
          -0.3584767316245799,
          -0.06746378385575795,
          -0.5639487180197859,
          1.0758160479159993,
          -0.9078250147653403,
          -0.49699820991707316,
          1.1155737398925443,
          -0.2824571563593666,
          -0.1391589460344333,
          -0.23472107230705722,
          -1.2593361226184974,
          -0.6438628914739878,
          -0.5228758394367018
        ],
        [
          -0.46161241044594525,
          -0.5463696408860189,
          0.5348400135508207,
          -0.3686527049293702,
          0.7745909426836909,
          1.587122724406767,
          -0.5250622361500845,
          0.8543776747954458,
          0.7481552036204019,
          0.6908324871483356,
          -0.2029825060234164,
          0.7215622233924731,
          0.5357526813441152,
          -0.8559929005474508,
          -0.318180619709012,
          -0.02294561273027231
        ]
      ]
    },
    {
      "activation": 1,
      "biases": [
        0.02605829327304192,
        -0.6496723583100861,
        0.5161069696259311,
        0.8419615495349883,
        -0.18243399478548183,
        0.8339700700687495,
        0.48848998068241667,
        1.3644242044299502,
        -1.672964843200008,
        1.207348701233292,
        -0.015614732465432051,
        -0.7053644746914995,
        1.0026693849824255,
        -1.5056918434978412,
        0.5642542982117336,
        -1.117385267240276,
        0.11190052639822262,
        -1.4665087733655089,
        -0.9582895762605492,
        -1.1436321045934894,
        -1.5065139669442569,
        0.4406358748497568
      ],
      "cols": 22,
      "rows": 16,
      "weights": [
        [
          -0.08463972249939448,
          -0.1701231393746915,
          -0.23268244526865975,
          0.28372067055479916,
          0.25753672947773787,
          -0.21477817469321583,
          -0.34000061284312616,
          -0.2760228022699227,
          -0.13573105035282165,
          -0.07396970074398732,
          0.06527051239379456,
          0.2362701426613338,
          0.38589738043243516,
          -0.021699921879170227,
          -0.20477863494648732,
          -0.09701273919200593,
          -0.10149641593274011,
          -0.2981167017695221,
          -0.12208000461991862,
          -0.3108032745869973,
          -0.21980097938821372,
          0.15460695440772
        ],
        [
          0.24642297130986335,
          0.025115666591529067,
          -0.7583722599992305,
          -0.429250920329725,
          0.0899336586996121,
          0.35906352225813815,
          0.014005371761539506,
          1.324649107118797,
          -0.38343440722423866,
          0.022175764576668717,
          -0.24964043663006108,
          0.029961391241788333,
          -0.3064665341170171,
          0.21275247735697683,
          -0.19081333598639513,
          0.9581173332441983,
          0.145930094498672,
          -0.19440822116687598,
          -0.10940542923768254,
          -0.950833636308442,
          0.4813955853040173,
          -0.8477419833738726
        ],
        [
          0.32750529979528453,
          -0.35685414662599246,
          -0.6815630076395275,
          -0.7287536364299145,
          0.5315326238941909,
          0.7295340593219303,
          -0.26493000698397756,
          0.16289743963954056,
          -0.23797388495920277,
          0.11732884415606447,
          0.43279862262318025,
          0.33631594394741066,
          -0.27906140516224126,
          0.5893817207473975,
          -0.5265893518864362,
          -0.08571269747975671,
          -0.006432260152434022,
          0.8018706537521205,
          -0.029762901778937232,
          0.46498630284509057,
          0.5292085108902788,
          0.4331898245352191
        ],
        [
          -0.3688009875247685,
          0.028125170855622363,
          0.058286176892513766,
          0.04816957668867503,
          0.23143137105771147,
          0.12008395807481756,
          -0.18824010364122934,
          -0.22486723735513733,
          -0.15474106820261735,
          -0.2063883922109158,
          0.014674048034005181,
          -0.2328595994853181,
          -0.37625960463058583,
          0.22347164207599027,
          0.2901622113736994,
          -0.2468642879139451,
          0.33616751155320823,
          0.34288237812415434,
          0.03487926189296744,
          -0.2633130145342368,
          -0.3337683702619088,
          0.06399796596001069
        ],
        [
          0.1304059413867222,
          -0.5848053122720807,
          -0.5956361805866699,
          -0.015642818145267263,
          0.5900938561621641,
          -0.07995444434856791,
          0.7771056342733477,
          0.4122459660671977,
          -0.09218065015957744,
          -0.06379132611941314,
          -0.394815528980808,
          -0.0951272096284964,
          -0.8232153515588432,
          -0.598547444918967,
          -0.0658355648841287,
          0.14305972496608382,
          0.25918176028098755,
          0.6570905725112853,
          0.30251795227898864,
          1.1077639159851198,
          0.4106634993917482,
          -0.3640835398807775
        ],
        [
          -0.6828458343975624,
          0.1442165764934894,
          -0.49600329210138244,
          0.024999850162299775,
          -1.1646259521469595,
          -0.5112713824866315,
          -0.4384763066382266,
          0.25623732883084166,
          0.6815412075515079,
          -0.4606340618575099,
          -0.21892886022368474,
          -0.5264205687506366,
          -0.8683512238768669,
          0.08658735729233126,
          0.2438141661409922,
          0.050979686304910315,
          -0.01572438697510895,
          0.5578910757257385,
          -0.0845449487061836,
          0.14934763493304382,
          -0.20992757753853608,
          0.7591476655439562
        ],
        [
          0.6008075839484845,
          0.1198785523883813,
          0.5640145422728723,
          0.3660121276944733,
          0.3706922140750468,
          -0.13418190666473237,
          0.22709143003559104,
          -0.2862530162953926,
          0.5996459232441751,
          0.06525100561771906,
          -0.3025590059934314,
          0.24086926531600886,
          -0.2986723891450091,
          0.60355799683991,
          0.15686822183441262,
          0.13782856591703238,
          -0.7036247196523395,
          0.22372774628276307,
          0.4891115869483172,
          -0.22198967738402586,
          1.0576936638243097,
          -0.10140614499641136
        ],
        [
          0.18044294530608426,
          0.5115129011984536,
          0.8697340584373685,
          1.0738757589652725,
          0.5042091309876379,
          -0.28184217998172933,
          -0.04023941067711909,
          -0.35162003126744684,
          0.16148336428321308,
          -0.05581131598338444,
          0.22070216260704673,
          0.2826792941399257,
          0.4451914264790362,
          0.38274599174474333,
          -0.21118974589831194,
          0.23138352821143865,
          -0.3574346111181076,
          -0.952297857940111,
          -0.14877609564035915,
          -0.7055360097071963,
          -0.004517452064941728,
          -0.10102780975081266
        ],
        [
          0.05536015711538692,
          -0.1647855540043728,
          0.3746466103507437,
          -0.6832899976246007,
          -0.22872704520046552,
          -0.4127007629521587,
          -0.19675088626718298,
          0.13799781539488973,
          -0.0796694873740775,
          0.34964016832088796,
          0.12910304411750176,
          0.1197550666765367,
          0.2475325084653938,
          0.006187766086317701,
          0.24716610123489996,
          -0.3509987187054611,
          0.6014989748701254,
          0.16672440398556318,
          0.19120124884623968,
          -0.7595251611695704,
          0.6307993115990848,
          -0.0554203658955707
        ],
        [
          0.36711860534931384,
          0.46351528840736955,
          -0.47461765712977116,
          0.12793544949577573,
          0.34198274635433495,
          -0.6548893305427755,
          0.4753008472323817,
          0.07039303200710319,
          -0.21883154981201544,
          -0.9037119707508868,
          -0.4912195020213894,
          0.4521965136511586,
          -0.42206852375857556,
          -0.2602452358892075,
          -0.09663265845294054,
          -0.2818682501422505,
          0.4941023554399308,
          -0.10110909313051729,
          -0.7436578609499429,
          0.6555882053005704,
          -1.1437528642530062,
          -0.2969891501490317
        ],
        [
          -0.5634101664006211,
          -0.6143277497286973,
          -0.2634399943062765,
          -0.8399556302713164,
          -0.4416274072776048,
          -0.10314920115756164,
          -0.01237736244159283,
          -0.5873969198831358,
          0.6725960032601114,
          -0.868363661549668,
          0.031053418964284075,
          -0.6502830863366972,
          -0.07351080014383089,
          -0.8170610812810517,
          -0.3024460093634539,
          -0.7367558441115977,
          0.3653205439519044,
          -0.03526695980354953,
          -0.10418008549876992,
          -0.19041791896931703,
          0.573068435977217,
          -0.37034450173448225
        ],
        [
          0.37239257006840426,
          0.3087534500237942,
          0.2867215071677472,
          -0.6207543336061389,
          -0.03955949482848853,
          -0.2821290232241546,
          -0.41720320371473557,
          -0.5787905648458116,
          0.4431492525003948,
          0.02236383441289082,
          -0.669879738235385,
          -0.5324892455682216,
          0.3701659511997171,
          0.4263969225381592,
          -0.4074332298123648,
          -0.13215457247972237,
          0.1777365800626232,
          -0.5467143554658467,
          -0.018804331654651053,
          -0.7046099202440429,
          -0.19168052782373257,
          0.08957669884917324
        ],
        [
          0.32296023141944774,
          0.08708117299915781,
          0.2176230063700087,
          -0.316506963415254,
          -0.03469662883440116,
          0.4697165303580377,
          -0.42741302635574313,
          -0.2982207607330718,
          -0.447377990511752,
          0.7614007854200987,
          0.4697008773246806,
          0.3169168913951497,
          -0.2252980356495033,
          -0.8786329695216482,
          0.5678683625617423,
          -0.4344366927299222,
          -0.023237839376885023,
          -0.5487487545545979,
          -0.466688541449893,
          -0.4746935512726643,
          -0.4594958577328458,
          -0.03428725653972237
        ],
        [
          -0.23106144192338826,
          0.524837600999986,
          1.4134632056940903,
          -0.03230039437237913,
          -0.1619210780645632,
          -0.9012802294482208,
          -0.5662814999106929,
          -0.4203462019779452,
          -0.13209222827718525,
          -0.14890054408633754,
          -0.28535656838028406,
          -0.015302365301607494,
          1.0479280993742264,
          0.7787316249688863,
          0.2253272595277657,
          0.05607607421592454,
          0.12978829542113776,
          0.011118646851576859,
          -0.538307846043753,
          0.06376868182052471,
          0.5326583637725666,
          -0.09676925001331792
        ],
        [
          -0.3826065101326517,
          0.6434492671397143,
          0.04492182742313739,
          -0.06440595503581077,
          -0.9237267266144426,
          0.24148021624003385,
          0.029348532236720237,
          -0.8436882214001618,
          -0.10847913277276798,
          -0.7957318094896294,
          -0.048727656725402586,
          0.3855366610001613,
          -0.12302880128083755,
          0.044098350623707594,
          0.3958228834336221,
          0.5094453321108722,
          0.03918246451170816,
          0.12284586960476138,
          0.707194579485961,
          0.09633237645769982,
          -0.05946648531237634,
          -1.0348543283745624
        ],
        [
          -0.016864230856694036,
          -0.07667597128428082,
          0.1997205837649601,
          0.21620468630143755,
          -0.2925103727988612,
          -0.18300175042951047,
          -0.30410149824992827,
          -0.32284101813214455,
          -0.1936671399636724,
          0.02833990583000618,
          -0.17690749573900347,
          -0.14165407027459787,
          -0.1371948557075487,
          -0.3468667946646567,
          -0.1995836089254438,
          -0.11765060743809669,
          0.07329523094153234,
          0.14861027765257387,
          0.038662078282324895,
          0.12078874415258743,
          -0.24625458839844738,
          -0.1673696899624854
        ]
      ]
    }
  ]
}
