{
  "layers": [
    {
      "activation": 2,
      "biases": [
        -0.06960772342618823,
        0.0,
        0.1270315254192577,
        0.5540506937682776,
        -0.07718656081108101,
        0.919235098567801,
        0.5402393570096062
      ],
      "cols": 7,
      "rows": 3,
      "weights": [
        [
          -0.2821649361691653,
          -0.22660600196028394,
          -0.18889405249756283,
          -0.9010963680355195,
          1.6952107649744232,
          0.6410863862189777,
          -0.581922486411757
        ],
        [
          -0.26527309880036887,
          -0.6498489553603021,
          -0.4429750079380693,
          2.3152410279855444,
          0.3679677214684696,
          0.7062710995651439,
          -0.9422551838649572
        ],
        [
          0.06384889275286655,
          -0.1983564356812864,
          0.5547371741453769,
          0.07261450288406607,
          1.1863686057103986,
          -1.7847525993426787,
          0.8410299850061734
        ]
      ]
    },
    {
      "activation": 2,
      "biases": [
        -0.09140511710157549,
        0.2129660661488728,
        0.0,
        0.4696222141076421,
        0.0782568537433245,
        0.3774765206608309,
        -0.05059193353959707,
        0.0,
        0.07512774591310872,
        1.0659769705557751,
        0.011840821009687046
      ],
      "cols": 11,
      "rows": 7,
      "weights": [
        [
          0.4496273527793012,
          -0.5644572991506199,
          -0.19423000538348503,
          0.4198136107873815,
          0.07883587937026836,
          0.3920755891869585,
          -0.4451255510920103,
          0.01781765939768268,
          -0.4311027924565253,
          0.16692594170513295,
          -0.21147790418749315
        ],
        [
          0.526595007893035,
          -0.13574180060463759,
          -0.08527848208897927,
          -0.2731812554059643,
          0.5531070550996378,
          0.04702720062436669,
          0.07965095575320257,
          0.3939620566275563,
          0.06859153530770433,
          -0.1302661759453414,
          -0.4892085303216637
        ],
        [
          -0.29732901872231876,
          0.7182653875816795,
          -0.2920803408232061,
          -0.22685854173714545,
          -0.3469319964430346,
          0.6174627606946184,
          0.40973244125145614,
          0.2673986727116828,
          0.37506036256116004,
          -0.07505293262770522,
          0.4316678844008361
        ],
        [
          0.2597505673697271,
          -0.6001113968382904,
          -0.36229956542725533,
          -0.2685346607024908,
          0.47908878725757964,
          0.11424362751758149,
          1.098142275529479,
          0.07499689320627252,
          0.4958937121390827,
          -0.6636469829231664,
          1.9792012384911493
        ],
        [
          -0.4182982358079606,
          0.40717769933476416,
          -0.4328572620868731,
          1.608580252466369,
          -0.18564516084301222,
          -0.7319769269492048,
          -0.4382564752044021,
          -0.46020379232096775,
          1.0861815811826572,
          -0.37522589111120985,
          -0.20727728796471384
        ],
        [
          -0.5099169944485851,
          -0.6690669354854307,
          -0.41861210479172656,
          -0.2939056359365394,
          -0.8725911839163857,
          0.37547684096504136,
          -0.5473131999072522,
          -0.4609314742794708,
          -1.4271316576451176,
          0.9388118043295176,
          0.42188695925621594
        ],
        [
          0.012470153435385704,
          1.1303073174707894,
          -0.023264889767962878,
          -0.164041624166235,
          -0.151142885320425,
          0.5559085241379452,
          -0.27936958311950677,
          0.010623771332567011,
          -0.34614804205207667,
          0.5891790350904316,
          0.36121107752081094
        ]
      ]
    },
    {
      "activation": 2,
      "biases": [
        0.0,
        0.46740156749184175,
        0.09227559516273501,
        -0.10384856345662127,
        -0.5527196726619025,
        -0.16387796532620622,
        0.29785688935212545,
        0.4303239885339266,
        0.6503086904533473,
        0.31133129552590055,
        0.9398970765053387,
        -0.1926686213611883,
        -0.09227991014128774,
        -0.06393941411960527,
        -0.0794577029995984,
        0.2629370385074309
      ],
      "cols": 16,
      "rows": 11,
      "weights": [
        [
          0.4424588791812827,
          -0.24690985956342362,
          -0.10645577113112126,
          0.327333169620516,
          -0.35114015396429066,
          -0.4245776019059855,
          0.330351065210602,
          -0.021592870343964093,
          0.19112265219411903,
          -0.031327950295602966,
          -0.2929442634011097,
          -0.43694127660525145,
          0.45999419961470217,
          0.4329045421507887,
          0.35427506268421943,
          -0.04908173188538015
        ],
        [
          -0.47133759949809934,
          -0.47348151737942146,
          0.518670809770694,
          0.6738852969542161,
          -0.5939571977372317,
          0.40592496485017915,
          0.6372314911609404,
          -0.03678046653271335,
          0.35891607089845445,
          -0.3980431646727569,
          -0.2143931673821361,
          -0.10957920045574333,
          -0.38438306957614693,
          -0.11371170181860875,
          0.9794855088427552,
          -0.2581973439694512
        ],
        [
          -0.28946739205880984,
          0.12972516737701095,
          0.19767940010249,
          -0.4564850786128727,
          0.4491067889669063,
          0.18154667922986087,
          -0.08745875394459544,
          -0.18701809749530693,
          -0.12775561616922143,
          0.09546144871251172,
          0.13259735349314675,
          -0.026997470488450734,
          0.06894804334051262,
          0.228743297977386,
          -0.25664031106868684,
          -0.3851846047508472
        ],
        [
          -0.1838037689701862,
          -0.17024673364885218,
          -0.02482182658705295,
          0.5194073446789332,
          -0.09564052652862173,
          0.47896007122794354,
          0.008359124059409355,
          0.47666872076248945,
          0.15487835813169387,
          -0.4960563304695394,
          0.09392460478545601,
          -0.8921566796098949,
          0.5127269220016878,
          -1.0264142486053631,
          -0.16123981260760456,
          -0.8242584791301109
        ],
        [
          0.3952841825023791,
          0.5239258035882316,
          -0.344358410239838,
          0.22200145621316686,
          -0.41812521483326837,
          0.2270009191770196,
          0.19522292523259965,
          -0.2083025659581682,
          0.342890143324314,
          0.13684757784621374,
          -0.2687639568811071,
          0.6140784377974263,
          0.28940158274633915,
          -0.36411374786882755,
          0.2366739772730276,
          -0.3607664821620177
        ],
        [
          -0.4340607113139814,
          -0.5608058779944896,
          0.5472826420142316,
          -0.4621287679766212,
          0.43956800787698747,
          -0.04112025818291201,
          0.016164577103852214,
          -0.40972715394074855,
          -0.12859821813378822,
          0.5624641463865636,
          -0.30919456494085473,
          0.24868438147285696,
          0.23731114874072323,
          0.08916232462914352,
          0.2171092571890455,
          -0.055875979808867555
        ],
        [
          0.1979887079213214,
          -0.3295669157857549,
          -0.4382470829747926,
          0.04420012949789616,
          -0.007761163046760432,
          0.22215840973468692,
          0.28507705488980506,
          -0.056400077118602406,
          -0.6691225021677145,
          -0.027441993646267347,
          0.15978131610232188,
          1.0108317171640537,
          0.3102770594701585,
          0.2612450105167985,
          0.2341543645679641,
          -0.3724276812751342
        ],
        [
          0.4231062905461588,
          -0.18798208065392666,
          0.34640992864446163,
          0.309879604710522,
          -0.29173962832282574,
          -0.21603072976467655,
          0.27117351206340773,
          0.20148309742560103,
          -0.17872570855916448,
          0.03404158347980431,
          -0.37888147769865704,
          0.17474553403969237,
          -0.041771653553149296,
          0.12081849383092191,
          -0.07847752306248558,
          -0.4074334541332112
        ],
        [
          -0.4611754442132116,
          -0.2631019341479714,
          0.6468720486988692,
          0.12604587058258485,
          0.8378418247617154,
          0.01921881859200791,
          -0.045001981175992585,
          -0.35469112400307373,
          -0.4029353043750854,
          -0.14762277055101106,
          -0.17109272183481322,
          0.4630206852702494,
          0.8256379493852398,
          -0.8882077672240799,
          0.17588928892519803,
          -0.6381006952776407
        ],
        [
          -0.14256004530512636,
          -0.20124376748320721,
          0.11765396906879157,
          -0.4804975610736158,
          -0.2614802184887371,
          -0.29072792823788346,
          -0.41203003410260974,
          0.7269085780843347,
          0.2975186529254329,
          0.5761593731599185,
          0.7526309998078371,
          0.6313138009831596,
          -0.7400109783119894,
          -0.707490839680006,
          -0.12478891644788567,
          -0.49284536520946015
        ],
        [
          -0.32890678323552747,
          0.8929442408344437,
          -0.043337376217093104,
          -0.9712022644355117,
          0.24425650485080663,
          -0.7558540095629243,
          0.32311563853116915,
          -0.6896611415802151,
          0.443455736510096,
          0.29589509734865144,
          -0.40971294315390183,
          0.5392025839570835,
          -0.3294251109044265,
          0.7321495832599724,
          0.023733824218754536,
          0.8121173270729791
        ]
      ]
    },
    {
      "activation": 1,
      "biases": [
        0.17978053810155717,
        -0.2930130770153026,
        -0.5084169273811989,
        -0.13116748255675492,
        0.2533471890730255,
        0.36139040388223986,
        -0.11816746085365185,
        0.1849350023609886,
        -0.1396686976290506,
        0.3814799418962038,
        -0.052057204779206494,
        -0.16511502692978478,
        0.23769505110017639,
        -0.001973609334733262,
        0.16759548343576597,
        0.05812282897116205,
        -0.6272606114918203,
        -0.4078870303138343,
        -0.35129230512222487,
        1.1133406367485525,
        0.10848943340743707,
        -0.012474068138649454
      ],
      "cols": 22,
      "rows": 16,
      "weights": [
        [
          -0.22313197252608838,
          0.013303833270171012,
          0.24298715894408107,
          -0.17136083343578354,
          -0.3245151816384607,
          -0.20681874002900522,
          0.15754395149470588,
          0.25924217201843547,
          -0.37235913719203134,
          -0.3047660399079918,
          0.28719092658802414,
          -0.031164691750493554,
          0.29287454296156296,
          0.37746682314421237,
          0.20582418301874764,
          -0.36789423000765775,
          0.3174952267148979,
          0.07988236237522268,
          -0.17668550367977046,
          0.010093735239797157,
          -0.017400125134317365,
          -0.11672194850291262
        ],
        [
          0.060979617579956215,
          0.33797823726045456,
          0.208769234568519,
          0.410608619885516,
          -0.17316010158490924,
          0.4034732676945639,
          -0.35958219134441133,
          0.15656175819820298,
          0.18758398966025913,
          -0.027736443012356955,
          -0.3607230310009029,
          -0.35769046147858347,
          -0.47289003038837113,
          0.306903017066278,
          -0.26271861480936703,
          -0.1394386887498883,
          -0.401983144735247,
          0.038372895539639025,
          0.551670363796833,
          0.7835947986690769,
          0.31396550791643973,
          -0.3679567562356099
        ],
        [
          -0.17400341348888979,
          -0.3686256170114215,
          -0.5719083547848132,
          -0.06934744546676255,
          0.2212623981944473,
          -0.008030894382925502,
          -0.08794221887075267,
          0.46140773693471654,
          -0.4523395694945962,
          -0.029701888160329263,
          0.1713473368813752,
          -0.09125244657674218,
          -0.23077808548664083,
          0.12899508593251857,
          0.2799234671022225,
          0.5373856407958861,
          0.4912361131928083,
          0.20426671050278516,
          0.19386378023031564,
          -0.6377070714951603,
          -0.2954591989759395,
          -0.037049960045882166
        ],
        [
          0.04826988134299217,
          0.439220870163295,
          0.37166637201064934,
          0.41839506702904605,
          0.04833646070279381,
          -0.4296668138916623,
          0.5363217113369505,
          0.11496235669250683,
          -0.12127985873982686,
          -0.47845728872797133,
          -0.007643980647500571,
          -0.1169925321794125,
          0.38697708590775476,
          0.3953502566738501,
          0.1769601172079154,
          -0.1912082652429472,
          -0.21146302257568358,
          -0.3386915845382543,
          0.4829663423809434,
          0.3367380195201244,
          0.18623651948105366,
          0.474875454778475
        ],
        [
          -0.07911131664125043,
          -0.35356161703085115,
          0.00013776669303941104,
          -0.06600805940155323,
          0.083585585886924,
          -0.22647167612419836,
          -0.4842518974679229,
          -0.45715872740900415,
          0.21899737997361243,
          -0.1397729273960314,
          0.4110422116149922,
          0.4236620915718041,
          -0.4330196831964726,
          -0.7365995993272934,
          -0.045234666152276753,
          0.011692191098670951,
          0.4444373666580505,
          -0.1327336836737107,
          -0.22719792892210366,
          -0.38003954159065534,
          -0.34699098236685083,
          -0.1080765248643866
        ],
        [
          -0.13689633505383955,
          -0.278945369072994,
          0.5616206511655958,
          0.3127235948928289,
          0.27450123351190225,
          -0.07287457870498551,
          0.3638005595548464,
          0.2993688774284652,
          -0.059533097386293254,
          0.16862645044217578,
          -0.22562024701198438,
          -0.1763166752478251,
          0.15331952414205965,
          0.5633384836371744,
          0.2890233554563436,
          -0.49677506738210647,
          -0.06000242326377145,
          0.2936261331649772,
          0.35321438123437643,
          0.16758643598372686,
          -0.20266265143799256,
          -0.12953741156445944
        ],
        [
          0.236080358608967,
          0.4862169506227036,
          -0.25398511831670023,
          -0.4688060353016817,
          -0.35945045353721855,
          0.33864298665773096,
          0.10276532674261153,
          0.14662317756340293,
          0.48418273553913305,
          0.5559334033382856,
          -0.3989907160560446,
          -0.29779725931734713,
          0.010608276392026864,
          0.0337216741111419,
          -0.117445137022899,
          -0.359385097477789,
          0.1093333874127753,
          0.11587114807735495,
          0.12069223784298178,
          -0.100722763789204,
          0.43311213688966954,
          -0.10299733453412277
        ],
        [
          0.16658767113747322,
          0.04749657181787295,
          -0.036533421328166206,
          -0.028386318967710364,
          0.06784992289437082,
          0.5096324224051523,
          0.1585836792710288,
          -0.41658064582532844,
          0.7567896876902678,
          -0.010275592122210214,
          0.37083980104634967,
          -0.2222061369369161,
          0.10944340140613726,
          -0.548712060328255,
          0.28171578092413047,
          -0.47485266079173966,
          0.3310506149221422,
          -0.1303764681504773,
          -0.15300996151535234,
          -0.0007129588235946792,
          0.0235570089843872,
          0.5204872065496595
        ],
        [
          -0.18151344818442083,
          -0.17953226522224647,
          0.06972449345071474,
          -0.4269774672693484,
          0.20025937823784234,
          -0.31302198899433853,
          -0.13564724513724669,
          0.07391759327755584,
          -0.1808238012096095,
          0.5005572134045991,
          -0.08438695436688251,
          0.12553338968727967,
          0.005657139588324094,
          0.1260557015863642,
          -0.24424615322246754,
          0.1500602812688015,
          -0.6811457119218032,
          -0.4523873477381535,
          -0.14775469012939857,
          0.3865930773420505,
          0.690683792142565,
          0.40895792254546126
        ],
        [
          -0.3715976260747748,
          -0.1069308458125991,
          -0.10403557561254134,
          0.1395436389799855,
          0.38625412751629473,
          -0.45156249771704393,
          -0.11789789925519184,
          -0.5529768459587647,
          -0.03227256754514317,
          -0.20849939400495518,
          0.2670406063941801,
          0.0034521119529518757,
          0.23134418866096543,
          -0.25673386639567614,
          -0.41779912945147285,
          0.6746417893094947,
          0.08402367160108923,
          0.46243570126958644,
          -0.0860500655797282,
          -0.019407722729593572,
          0.05654820042110819,
          -0.10786943733989698
        ],
        [
          0.4022284132277033,
          -0.042612949938505985,
          0.288752993106613,
          -0.3252736804743784,
          -0.32005272680949326,
          -0.13324810612821136,
          0.13143958378982923,
          -0.12808450220533818,
          0.34622954180243065,
          -0.26627052376474675,
          0.27267971779882455,
          0.24947188978662338,
          0.7274656677016362,
          -0.5120406147962548,
          0.08402649281745612,
          -0.4711727252649627,
          -0.29654963542412055,
          -0.3040111787939892,
          0.10153428584415682,
          0.4946947016229238,
          -0.10046102050851273,
          -0.22896186966851859
        ],
        [
          -0.5785976401518153,
          -0.07075902756149346,
          0.7165939730204305,
          0.32700814920511895,
          -0.0037254023689074775,
          -0.1971924433956697,
          0.6691093645644718,
          0.4290257718215706,
          0.22792153120247216,
          -0.5010415462988383,
          -0.3113427102312323,
          0.16068917527633486,
          0.6273431718547763,
          0.7347703484540871,
          -0.1858324336944747,
          0.15243554936746825,
          0.6632147293443266,
          0.059025651844973194,
          -0.23131884132756003,
          -0.5950350008952007,
          -0.31769882347197903,
          0.2914070627460207
        ],
        [
          0.11185280410968447,
          0.05376237396851822,
          -0.14536530884909568,
          0.3782226016368664,
          0.21992673846194027,
          0.12855486570718153,
          0.20443247121488248,
          -0.4481737021649453,
          -0.2446395441546013,
          -0.4475733150521446,
          -0.06457840653616717,
          0.7121715822606384,
          0.5804545720415873,
          -0.5383134483929838,
          0.3214751372549328,
          -0.053533266670485885,
          -0.09554044242224612,
          0.099830045931855,
          -0.4870037773608787,
          0.17073015689861126,
          -0.17354037260858635,
          -0.45529570699949123
        ],
        [
          0.6452919759554552,
          -0.41192666093884517,
          -0.8218982827866139,
          -0.014533400201169916,
          -0.23453335582033494,
          0.31435011199111984,
          0.2122631416135884,
          -0.03923240690682096,
          -0.1990965278108322,
          -0.05846935258681147,
          0.030089633701103697,
          -0.20299754057712532,
          -0.2825389944137194,
          -0.5993581871494235,
          0.8803634490393365,
          -0.42844205959828335,
          -0.0780829066597733,
          0.21528461880038946,
          0.1735874096745828,
          -0.7296657584790951,
          0.52177488547976,
          -0.25732823602017707
        ],
        [
          -0.15788048852690578,
          -0.1587505526379983,
          0.03269464119921789,
          -0.38493877422371714,
          -0.05330710946889079,
          -0.2863663922433933,
          -0.2246830661001961,
          0.1498477354185531,
          0.016977402432874884,
          0.6254340048008502,
          -0.17887749916002624,
          0.0669734752236209,
          -0.3084163429285016,
          0.5509502202644401,
          0.4754196953768167,
          -0.4494256137591744,
          0.23394263395871584,
          0.261270511498086,
          -0.21351458687430505,
          -0.3532401911456879,
          0.07826728182246649,
          -0.009881331016285756
        ],
        [
          0.44182486176294733,
          -0.2862758009620084,
          -0.17919225345090323,
          -0.11796595524882142,
          -0.27272260927573067,
          -0.13591724065568392,
          0.2602320914877244,
          0.021884824941948617,
          -0.7835816236483294,
          0.15747553621145557,
          0.627138161912776,
          -0.13972410221650788,
          -0.25364810666268994,
          -0.5110168549118398,
          0.31512643015254915,
          -0.0349904392279351,
          -0.007881282672136948,
          -0.2711660713387444,
          0.22097949943964867,
          -0.3813192974447786,
          0.3610998266318599,
          -0.002814849890949929
        ]
      ]
    }
  ]
}
