{
  "layers": [
    {
      "activation": 2,
      "biases": [
        0.0,
        0.9409723549632647,
        0.10745060001455863,
        -0.1041936861507903,
        0.0,
        -0.5389268082037609,
        0.1230690853865225
      ],
      "cols": 7,
      "rows": 3,
      "weights": [
        [
          -0.11947396097817592,
          -1.051726003549984,
          2.268525071930446,
          -0.26761371943725093,
          -0.3117527350609052,
          0.2769072166934938,
          1.3581563192606145
        ],
        [
          -0.24429548627814734,
          0.5205580195251669,
          -0.08871608467723745,
          -0.47552096582349423,
          -0.2563474192397234,
          2.1197066559636104,
          -1.1865846593660816
        ],
        [
          -0.5118908969602237,
          -1.501424466253855,
          -0.08211292609528292,
          0.10336695200763085,
          -0.12440084089979214,
          1.1380811697924251,
          2.2411707047072533
        ]
      ]
    },
    {
      "activation": 2,
      "biases": [
        1.045261878587351,
        0.10082115276830385,
        0.5184060734109404,
        -1.5852288987802405,
        -0.8716884486266194,
        -0.7409008640600201,
        -0.02141455923983791,
        -0.2602907033955672,
        1.1673510485136103,
        -0.009262285054209887,
        0.13014112204006206
      ],
      "cols": 11,
      "rows": 7,
      "weights": [
        [
          -0.5111209747835295,
          -0.32902084034618584,
          0.0968904563558349,
          -0.04461889743999867,
          0.23523231367671094,
          -0.24436161986515983,
          0.1432463552170825,
          -0.32930784005709096,
          -0.24851230173302058,
          -0.087174906793918,
          -0.026072638499890242
        ],
        [
          0.6884632332543112,
          0.04249475592500928,
          1.621068562023534,
          -0.9864691358490334,
          -0.20060316201294573,
          0.0850914360037237,
          -0.013524973396210366,
          -0.7302379411473005,
          -0.030359305129238828,
          0.05372880666373927,
          -0.574489332063176
        ],
        [
          -0.56699849693334,
          -0.24165376664277252,
          0.5687917090038735,
          0.5696922225126894,
          0.8327340171845367,
          -0.011886856699150775,
          0.09510257290999018,
          -0.3501823714668006,
          1.49270683047869,
          -1.1664007183229566,
          0.6397719190888452
        ],
        [
          0.08734990649889847,
          0.251701617509472,
          0.03418036594950448,
          0.4666821408265305,
          -0.43688720796321695,
          0.43955702966817173,
          -0.461490499312378,
          0.09689137474183956,
          0.026475168828559804,
          0.08806437346792757,
          0.5729826101509983
        ],
        [
          -0.4699355110397201,
          -0.4736871398805393,
          -0.5714575995456921,
          0.4907112800683537,
          -0.3333630937346904,
          -0.1980380324326159,
          -0.14730564970521765,
          -0.244092028170368,
          0.40845522559220704,
          0.5537797175109352,
          -0.1124035285881788
        ],
        [
          -0.40809513160806105,
          1.187338705231827,
          0.0922690777585322,
          0.9611778522442483,
          -0.8278213680763673,
          0.9927808422454967,
          -0.10960873190663854,
          1.038116578134954,
          -0.026243307418801536,
          1.39309064637499,
          -0.5090554418671089
        ],
        [
          0.9864695220385346,
          -1.2680161676193125,
          -0.7411982249707856,
          0.4213796431878087,
          0.597475219660712,
          1.07117247278683,
          -0.375846778397761,
          -0.004444965484166556,
          -1.1391020996331285,
          -0.7868381258945315,
          1.4721470828322434
        ]
      ]
    },
    {
      "activation": 2,
      "biases": [
        1.1780759174799964,
        0.2713877414189633,
        -0.44440324844408613,
        -0.40231646216212474,
        -0.4931483813374001,
        -0.7385332235946789,
        0.14047552573913316,
        -0.14842332158308366,
        0.19774828375487855,
        0.5811382876767104,
        -0.700123424193318,
        -0.5608150265632131,
        -0.4058480641956274,
        0.40730810121953454,
        0.02894918558933798,
        -0.8913958065444966
      ],
      "cols": 16,
      "rows": 11,
      "weights": [
        [
          0.44872524354115434,
          0.42809253640467504,
          -0.6462148177580782,
          -0.03687478189987689,
          -0.7355179952843508,
          -0.5246687248057783,
          0.09579702976240857,
          -0.6728246659520667,
          0.3653795598286554,
          0.18349632647631414,
          -0.4476278541467343,
          -0.8581417929369927,
          -0.008092427647072794,
          -0.6960829881918001,
          -0.30396822523360495,
          -0.3229875840926579
        ],
        [
          -0.8953463071241716,
          -0.30417281086282544,
          0.052245629697325206,
          0.48321631624804307,
          0.5004644704035017,
          0.30382008829515755,
          0.387159029573266,
          0.5679295012904128,
          -0.2545872911003991,
          -0.40719962769689816,
          0.18409810577560276,
          0.4843907214604091,
          -0.2698817834705076,
          1.069341033037947,
          -0.007330992012279113,
          -0.35227017550182804
        ],
        [
          -0.46188844762258174,
          -0.019185093254053803,
          0.06208318081538587,
          -0.7425645733578401,
          0.4287539368261643,
          -0.06181582790365956,
          0.982813624290722,
          -0.2178393667364235,
          1.0147505816087223,
          1.0046296544410376,
          0.14878729185629067,
          0.36363512342101734,
          -0.7040804093950602,
          -0.4374470632023151,
          0.33851601682231763,
          0.004579894205647129
        ],
        [
          -0.45388746780971717,
          -1.2969294341325197,
          0.24571250777842898,
          0.15910288509818302,
          -0.5726154971715076,
          0.7344912546062338,
          -0.26877310021849216,
          0.44818896028478655,
          -0.6970833603016394,
          -0.17695313008607513,
          0.3177779185133375,
          -0.2839818751898178,
          0.5433608747845851,
          -0.6489082093448222,
          0.02733389563060778,
          0.369657462804883
        ],
        [
          -0.09049339453914373,
          -0.08629450059258416,
          -0.02163834563598453,
          -0.1519169153975198,
          -0.13831629181935925,
          0.4025881317009646,
          0.4519186115486833,
          -0.3430504578616091,
          -0.0971869574165324,
          -0.6755680938193332,
          0.4594830628217727,
          0.35307339367482843,
          -1.158801115169014,
          -0.0709988046553976,
          0.23007152300639264,
          0.8550937773627989
        ],
        [
          -0.8874821023328786,
          0.14837192483973657,
          0.05348820476855511,
          -0.05927440842028577,
          0.0051388794798723535,
          0.1528793919220141,
          -0.7313152478497206,
          -0.7951440031241848,
          -1.1406859051987877,
          -0.2843244587058845,
          0.043874512645770636,
          -0.5062817708229148,
          0.18300526295320654,
          0.0033696911698077267,
          0.555572835163695,
          0.22363262329069503
        ],
        [
          -0.14790040336902527,
          -0.18647963236600384,
          -0.12022684866304748,
          -0.05544692175212408,
          -0.22767177722533674,
          0.32098511347519626,
          0.39594719041336823,
          -0.04333496414245504,
          0.36794726817067436,
          0.4297788028199554,
          0.0892368529845951,
          -0.3927991571619774,
          0.32645123188800607,
          -0.3615464771564097,
          0.16480817116659055,
          -0.13187363791811532
        ],
        [
          -0.4056146679694024,
          0.33600960357079057,
          0.3015976856411182,
          -0.19910946234601198,
          -0.19202286924177653,
          0.6263442418910765,
          -0.12025963414064487,
          0.44458851299136926,
          -0.14125377447593643,
          0.36041470612080445,
          0.2291994448151125,
          -0.7669167589893401,
          0.6211126759625679,
          0.6117717660766273,
          -0.02433603690789059,
          -0.33682267378296527
        ],
        [
          0.9234818573117268,
          -0.24690820976178188,
          0.35660999144678396,
          -0.8434727228786486,
          0.7648766141949748,
          -0.8113574480492279,
          -0.09624847933710914,
          -0.164460281977872,
          0.619162264828607,
          0.7426096506856301,
          -0.5486839449103611,
          -0.24417129985705258,
          -0.07438110418217324,
          0.34534990931810516,
          -0.15373181358535376,
          -1.101713505970428
        ],
        [
          -0.5805063148437858,
          1.0094540609846347,
          -0.10790403366884474,
          0.15051302037886755,
          0.10498663996928519,
          0.3853989061878174,
          0.6408735581811746,
          0.32874834347072074,
          -0.5800129952049482,
          -0.6644349653801279,
          -0.6101940048285978,
          0.2777551822118336,
          -0.7851369172777957,
          0.907701447136324,
          -0.4680389450234281,
          -0.7368015048137119
        ],
        [
          -0.09219538017142087,
          0.5440419138448964,
          -0.9428220745352777,
          -0.7511002780172655,
          0.5889702108313856,
          -0.6578858962795696,
          -0.11203686610968992,
          -0.5357681666581967,
          0.4546567766868074,
          -0.6499742851014859,
          -0.021589411170660367,
          -0.7004717528800473,
          0.29934515401267653,
          -0.30963586893628753,
          -0.033805526048540736,
          0.6296010026380499
        ]
      ]
    },
    {
      "activation": 1,
      "biases": [
        0.6423745175736256,
        -0.26875395410274727,
        0.25778451717761264,
        -0.13496635193189346,
        0.43636539716500944,
        0.48908484552746073,
        -0.6224920234818058,
        -0.4274533982945109,
        0.1139876984236993,
        -0.22053940359627458,
        0.22836796410626625,
        0.4816376719185353,
        -0.3301036478304767,
        -0.07075303591012727,
        -0.30749196655423316,
        -0.11481023505443297,
        -0.4754804904997403,
        0.5239223052198553,
        -0.4357942377591674,
        0.28255337216850146,
        0.10563786093103349,
        0.16488673421728878
      ],
      "cols": 22,
      "rows": 16,
      "weights": [
        [
          -0.5224997427213153,
          -0.3031219091301063,
          -0.014882703622241962,
          -1.12491717938096,
          -0.6241588222122297,
          0.3228446600782111,
          0.17557045694365192,
          0.32211010120266714,
          0.453044487251894,
          0.39393384522492414,
          -0.17719651452893234,
          0.8833505007950657,
          0.5964074093075526,
          -0.5793122242330077,
          -0.5753007788507835,
          -0.34526604584361886,
          -0.2948442171690966,
          0.09323159466629906,
          -0.24545294015285984,
          -0.40087732917986646,
          -0.15683106056326787,
          0.47179700578920325
        ],
        [
          0.12518097288690236,
          0.06274474195179142,
          -0.1687840271901428,
          0.7331352477500936,
          0.6190397320332413,
          -0.52650558326105,
          0.04013839690417127,
          -0.365515265268404,
          0.23170065984618418,
          -0.359374338482015,
          -0.575928281894349,
          -0.07794141980922407,
          -0.9112694885883433,
          0.42594333899138836,
          0.10368147573151679,
          0.4639828500858511,
          -0.28961910857682394,
          0.17120479983724574,
          0.43635609425630223,
          0.6206914771925838,
          -0.10678776330744477,
          0.25307055286726593
        ],
        [
          -0.03422453951602925,
          0.38237309552007115,
          -0.209445957315352,
          0.14072376414666002,
          0.34577578561651706,
          -0.3115651795627248,
          -0.05781692566005694,
          -0.5171722663788735,
          0.2427246939770014,
          -0.32847247324230683,
          -0.1901421977740596,
          -0.8271980236910251,
          -0.050070053216479185,
          -0.002367144608270866,
          -0.1695697993859625,
          -0.12585276960971886,
          -0.24933491378775924,
          -0.3589542136420034,
          0.39265404213626875,
          -0.41393671645854085,
          -0.14157383496001932,
          -0.5182270937186998
        ],
        [
          0.14489008466666067,
          0.1653615180344583,
          -0.339431559889017,
          0.025310048230678613,
          -0.023750412507946878,
          -0.3971694350783426,
          -0.358898730941478,
          -0.4088869895973567,
          0.10890475061384701,
          -0.6204961838393855,
          0.47345069947155366,
          -0.4863538228174833,
          -0.3355800843108445,
          -0.5047086062925576,
          0.34146173974090815,
          0.06472549768828137,
          0.357001704647711,
          -0.028788962994879735,
          -0.1620330949587983,
          0.7396714220676729,
          0.012071021025989831,
          -0.029599426942599514
        ],
        [
          0.1518496916498441,
          0.47155429433814067,
          0.7388697077950477,
          -0.330937119405154,
          0.5968760136362868,
          0.25350695051681,
          0.4820481191997006,
          0.039650124506310704,
          0.21159357923492408,
          0.2073986099977879,
          -0.007627129034854461,
          0.40563385546072284,
          -0.49968458792453246,
          0.6114154145003884,
          0.18756986786328142,
          0.19940533255002396,
          -0.38226044128632974,
          -0.16971183402161005,
          -0.13363315055172112,
          0.7244665593342704,
          0.10789869142820394,
          0.01790927501102857
        ],
        [
          -1.005081380176665,
          -0.731146028772325,
          -0.11672737509349516,
          -0.02498542266254853,
          0.3078836007202824,
          0.2620957407643065,
          0.0591233705381097,
          0.23045599492795255,
          0.7149726567857719,
          0.22087897244630267,
          0.04918312131717749,
          -0.7027427486859278,
          0.393762751916478,
          0.24066949442607607,
          -0.27369770286997486,
          -0.22841986103083534,
          -0.2906704602594059,
          -0.20072401755949984,
          0.1487843263063139,
          0.006575731471800112,
          0.5161898554371007,
          0.5311261735843462
        ],
        [
          0.2791031119129214,
          -0.13057290834038104,
          0.207222792263632,
          -0.2023721807823638,
          0.36771922965833076,
          -0.3964525009841316,
          -0.13845581852466984,
          0.5749446859796553,
          0.40484204880218483,
          0.1569823926903057,
          -0.2603957558591963,
          -0.2986124404866597,
          0.7964617849118892,
          0.34868855099690177,
          0.1890543038979372,
          -0.6348157410542828,
          0.6619912890260026,
          -0.09939378033313974,
          0.09531978987471842,
          0.2621819285161985,
          -0.1689065404971645,
          -0.9139298751680675
        ],
        [
          0.2578372854942855,
          -0.09248946050763994,
          -0.4914435153442361,
          -0.04612141425417766,
          0.3320720130400013,
          0.11061363657496723,
          0.3938018182075306,
          0.03432235657861869,
          -0.3367246957949077,
          0.18497260894491352,
          -0.41307055764797485,
          -0.5353810800033597,
          -0.25809435901677935,
          0.02517828532165364,
          0.37508097364317505,
          0.6732926450734781,
          0.23959169433332253,
          -0.3278314322333349,
          -0.29027477682120745,
          0.02060079152119222,
          -0.5439485519253323,
          0.2894666679871162
        ],
        [
          -0.32829446351555,
          -0.11599502964898882,
          0.2620845471653075,
          0.15570583957802067,
          -0.38794000824530006,
          -0.08859059675627151,
          -0.44159792858253083,
          0.41575857615913364,
          -1.1357526745146567,
          -0.0515716952649444,
          -0.042234074124194616,
          -0.8670311629890126,
          0.10620200462276749,
          -0.27872850021577644,
          0.1870271965758968,
          0.13697051245744585,
          0.7020593336665835,
          -0.11454906594968269,
          0.14469905679548012,
          -0.6481807212771303,
          0.16350236759959202,
          0.5590855676820043
        ],
        [
          0.3500740078678005,
          0.050928135108297475,
          -0.5594224590784801,
          0.6815277067183368,
          -0.6435574930664367,
          0.2550312294814384,
          0.021613298137859872,
          -0.6045642243092673,
          0.5781540488599366,
          -0.03418208385553244,
          0.3408723807901803,
          -0.7482369022319897,
          0.22597329998294996,
          -0.5938181314664402,
          0.31403378043665386,
          0.2234242652594408,
          -0.3927229138010539,
          0.37271391801114395,
          0.16351180323929387,
          0.40032153194071873,
          0.6626346186701512,
          -0.5001764016473107
        ],
        [
          0.16744831974123012,
          0.02881809775563294,
          -0.30747983618745794,
          -0.49623544385900853,
          -0.7330026693880215,
          -0.13089664049670577,
          0.1676268024090353,
          -0.3620000648303026,
          0.4517919260074286,
          -0.06339348715019462,
          0.03833514679193653,
          0.577761202856755,
          -0.019155599866536414,
          -0.17028075975713441,
          0.5088402664885415,
          -0.004392739491499058,
          -0.1876550225036036,
          0.2878679292396263,
          0.007646061480164061,
          0.4203610303193991,
          -0.06950126936562795,
          -0.4046630328243379
        ],
        [
          -0.3506255845787041,
          -0.42147293035360506,
          0.1074979390537583,
          -0.45079629098822294,
          -0.26934143837649765,
          0.1572378787726258,
          0.9461485070790098,
          -0.6272854491348945,
          0.0064988521949177645,
          0.2284725052338531,
          -0.7035322537297126,
          0.3738806120012958,
          0.10021039690238508,
          0.1785410438929082,
          0.156594218057813,
          0.21995586190305208,
          0.3271827417364773,
          0.1975411585526806,
          -0.6283986572757361,
          0.22166804373048504,
          -0.031445064979738556,
          0.45712025262529016
        ],
        [
          0.166591337535802,
          0.19078154365067915,
          -0.011055129788533822,
          -0.701125195129188,
          0.08022689987796858,
          0.16714254537924658,
          -0.8330161412692358,
          0.2697624601264706,
          -0.9305859373559585,
          0.3613854027655301,
          -0.17446404137097865,
          0.3630494217583571,
          -0.04469880214998045,
          0.5992335974221848,
          -0.11652779801153759,
          0.24709870731529052,
          0.00912718723302946,
          0.03646101559365868,
          -0.6839193747971242,
          -0.08492194994331999,
          0.5020636065938668,
          -0.04820222436334161
        ],
        [
          -0.06545129327163324,
          -0.019426869108300743,
          -0.304907766263231,
          -0.29940462035989623,
          -0.6608165330165667,
          0.24197890438012648,
          -0.06610245742740763,
          0.10802046657360045,
          -0.9624336012364897,
          0.3713814009265032,
          0.305860608909928,
          0.36039239204441254,
          0.29409480220678613,
          -0.5880059272883459,
          -0.6926288388532572,
          0.7686730845826439,
          0.507947803809764,
          -0.016299798409312727,
          -0.3213238986327252,
          -0.5755945341161821,
          -0.058917894724979776,
          -0.32163145916265884
        ],
        [
          -0.121472700148259,
          -0.17988205251083422,
          0.13962781974629937,
          -0.08766833873015085,
          0.10629457592417214,
          0.2126927185219424,
          0.16479450295181078,
          0.3336944475808396,
          -0.31085060523210895,
          -0.20178247705241723,
          0.16269986184423185,
          -0.34989855773419076,
          0.11623239839831302,
          -0.096851839081484,
          -0.33637258921195873,
          -0.17080797520115878,
          -0.016915292968665726,
          -0.0554833725700541,
          -0.09150194298201925,
          -0.17780405655429268,
          0.3598194378836372,
          -0.14215459661522686
        ],
        [
          -0.23731214178306845,
          -0.08150342110123725,
          0.08680024524249959,
          -0.5770817444889537,
          -0.30516010141957706,
          0.5011736106784966,
          0.6615932706914007,
          -0.2528635818100147,
          0.4344749207751671,
          -0.26627746148648485,
          -0.07592857151208891,
          0.3072991192263636,
          0.4885129699234763,
          -0.1277314321772935,
          0.46871432854104217,
          -0.9066970861809578,
          0.5232628033215099,
          -0.6127162340247785,
          -0.803244068467538,
          -0.27967514438901264,
          0.07745303965028479,
          0.3732949906540856
        ]
      ]
    }
  ]
}
