{
  "layers": [
    {
      "activation": 2,
      "biases": [
        -0.23995915812684324,
        0.10513601825002152,
        1.117601847651214,
        -0.017077216724294096,
        0.8319996035659492,
        0.724318649849971,
        -0.15888138953782133
      ],
      "cols": 7,
      "rows": 3,
      "weights": [
        [
          -0.4446152888969222,
          0.938718777570199,
          -1.4461175192210285,
          -0.3603119564838324,
          0.45196619705645397,
          -0.7287521066333464,
          0.25245806608927523
        ],
        [
          0.4243998819378004,
          -0.5681985134017291,
          0.9535538494986157,
          0.016630289422084846,
          0.1380116569562187,
          0.3924352432528888,
          1.9250354704090704
        ],
        [
          -0.703197418755871,
          1.7679161780058728,
          0.28262669381487865,
          -0.48270608257455255,
          -0.9743829172220259,
          -0.014300371546934601,
          1.0849950529841554
        ]
      ]
    },
    {
      "activation": 2,
      "biases": [
        -0.6497133897941463,
        -0.07995731734604648,
        -0.43822471465080237,
        -0.276324663711968,
        0.36577070537894063,
        0.0,
        0.11758946323909782,
        0.09250689027039374,
        0.8585215174138333,
        0.327389801458858,
        0.0
      ],
      "cols": 11,
      "rows": 7,
      "weights": [
        [
          0.28365654586320443,
          0.028019717715876146,
          0.13080488769162207,
          -0.5015711993991484,
          -0.1815896047864839,
          0.06427231373270383,
          -0.3631271005582981,
          0.24627516019073792,
          -0.37043503439888753,
          0.03489223543942994,
          0.015916797597795258
        ],
        [
          -0.4734386661268024,
          -0.7626056833292271,
          1.553020260599084,
          -0.48904532505361586,
          -0.7092920386942655,
          -0.5749270174259228,
          -0.1486287681875513,
          -0.9264914699986603,
          0.34739351195535195,
          -0.46712007643254955,
          -0.3769076778419917
        ],
        [
          0.7615863701963944,
          0.8914387435544465,
          -0.03185944362856608,
          0.23525214938180328,
          0.8327838963106633,
          -0.2642767199084723,
          -0.7839801308121181,
          0.8310360476764448,
          -0.4279957990782103,
          0.9217590920822746,
          -0.00018794178125323925
        ],
        [
          0.17930804967776756,
          0.09922841425108417,
          -0.5256099249769274,
          -0.17208898063084266,
          0.2313075655010368,
          0.4341396432870977,
          0.3803231198494348,
          0.5538593920625744,
          -0.1243965316625198,
          -0.048986359735105414,
          0.30536409761418576
        ],
        [
          -0.4880275416357136,
          0.0831656852608766,
          -0.7733980689151646,
          0.14402743105648919,
          0.32786498616982235,
          0.03228270776228116,
          0.03360537660614105,
          0.16569342274512505,
          0.9609080077230342,
          0.33557253712803226,
          -0.3895044941534152
        ],
        [
          0.31870716804002885,
          0.5693212854778895,
          -0.1832002896319931,
          -0.05536201419109938,
          0.42157990055367695,
          -0.13378367758899862,
          -0.3389585717521259,
          0.16666666241616393,
          0.14329006252068435,
          0.9422182472353373,
          -0.4046811644726471
        ],
        [
          1.0470632600934386,
          0.08012954600477282,
          0.7674158618492196,
          -0.43679955171321244,
          -0.7530487519923134,
          -0.30032101389678934,
          1.5320655275245458,
          0.2945730718980607,
          -1.0614844821214882,
          0.7370555067478691,
          -0.2901602379901573
        ]
      ]
    },
    {
      "activation": 2,
      "biases": [
        1.3105853709847333,
        0.5582919151166508,
        0.10469209014080219,
        -0.9285602371269591,
        -1.16297184115226,
        0.0,
        0.5874826411217208,
        0.38144230539244134,
        -0.14415112067365957,
        0.24185979411255304,
        1.0930810448143038,
        0.03730745231765212,
        0.21340146680110128,
        0.20188602761351382,
        0.8685094471530266,
        -0.6101495778528323
      ],
      "cols": 16,
      "rows": 11,
      "weights": [
        [
          -0.8375457226009734,
          -0.06181847230080233,
          -0.5276608385396473,
          0.30042374461165633,
          0.6499626858401708,
          -0.018031736914739607,
          -0.397723932890454,
          -0.4636721916475147,
          -0.2559588970718412,
          -0.7601942997054927,
          -0.677315486321632,
          -0.20268101019213666,
          -0.18467235554122874,
          0.016045971507329216,
          -0.7585841447638858,
          0.36993147417155714
        ],
        [
          -0.2525892272318106,
          0.2923490552004769,
          -0.823770074352525,
          0.20562333842855451,
          0.4888145560817156,
          -0.41769997818595056,
          -0.0999485003711884,
          -0.3876080125850027,
          0.2298125999387617,
          0.23532086812889935,
          -0.007785499912836357,
          0.5201383343361675,
          0.504993527342117,
          0.36160682261089866,
          0.023471602605179314,
          0.8444253697372991
        ],
        [
          0.4644930299440463,
          -0.24142774195216707,
          1.142304368482413,
          0.6188931191382147,
          0.03693618357740352,
          -0.12740975122764583,
          -0.25114998395458266,
          -0.24523636947254426,
          -0.18389120882447468,
          0.9608817843360895,
          0.023815625670736265,
          -1.2011606815797145,
          -0.5501985631136819,
          0.5430780010984132,
          -0.08154182895115797,
          -0.05908322162045043
        ],
        [
          0.23623822660348606,
          0.3958743425416182,
          0.19055969059188152,
          -0.3566136856008361,
          -0.3267214520876262,
          -0.25635545017812184,
          -0.145534559190624,
          0.008513969656342128,
          -0.008164311515488784,
          -0.4455308295056519,
          0.0791531326758384,
          0.0370798445385949,
          0.3402380845914347,
          0.13642956141335827,
          -0.4285153659132656,
          -0.3745387868044488
        ],
        [
          -0.138830466050453,
          -0.13560590579152432,
          0.015151829155289481,
          -0.06243481927317608,
          0.27500599235941214,
          0.07126888633565573,
          -0.4270319116900919,
          -0.1979758661687971,
          0.21963953670790348,
          -0.24705629597268772,
          0.6679872953258593,
          0.2883903914966342,
          0.2535394155043279,
          0.48716290109131194,
          0.5891911394265358,
          0.680561803489517
        ],
        [
          0.24459130020506387,
          0.31686939787762414,
          -0.188290507340206,
          -0.12120082150386212,
          0.4238512799969029,
          0.44868983414566094,
          -0.016001600051217084,
          -0.17571538922017765,
          0.1951120783858733,
          -0.4579698576469236,
          0.30581933537377365,
          0.09178762514702873,
          0.40596931256696106,
          -0.4569055579643264,
          -0.45995881572234276,
          -0.29452015294594175
        ],
        [
          0.2816240538900539,
          0.11312113766951468,
          0.2965451996709417,
          1.405634341468395,
          -0.19303997495234126,
          -0.39948112880055586,
          -0.2635219199582012,
          -0.3445250888587523,
          0.07926234187618347,
          -0.16215218425456546,
          -0.18184732470530843,
          -0.07127291601215811,
          -0.24816750903765747,
          -0.6880543831351036,
          -0.36892256293078224,
          -0.6112073958213624
        ],
        [
          -0.37545662799695334,
          0.3997513394076185,
          -0.8068328047277764,
          0.3585091972206463,
          0.41425305445732874,
          -0.33614664506973263,
          -0.3810967288159282,
          -0.15221381565604886,
          -0.15804013482508628,
          0.03834117112749911,
          0.43156664557220276,
          0.31304115156527257,
          -0.18206503971695231,
          0.061302137223483905,
          0.16341771546444722,
          0.7510969688798267
        ],
        [
          0.36080528399899237,
          -0.04810863544040707,
          0.16501674079054252,
          0.3049898285573438,
          0.09121225824945771,
          -0.30488652727314663,
          1.0771080092801768,
          0.9385688167531092,
          0.2559326192900916,
          -0.39488380282634816,
          0.5007889128545759,
          -0.3206280105261434,
          0.41037903712415863,
          0.0507126380762849,
          0.3214428182855402,
          0.47910859661960137
        ],
        [
          -0.984504434271086,
          0.8800412183613306,
          0.1397762365333589,
          -0.5963706715906365,
          0.016584430746336035,
          -0.060722881261954416,
          -0.27114954759807575,
          -0.24403671912979907,
          0.050169219980946866,
          -1.0560027297098202,
          -0.27830702872813917,
          0.6605862524700711,
          0.4480374294683187,
          0.22720235737047592,
          -0.03138391257308824,
          0.1393150680561009
        ],
        [
          -0.3946280877796606,
          -0.14346282553229403,
          0.14866736292837004,
          -0.22655455725448712,
          0.42128148215293515,
          -0.4500823778749105,
          0.40818986450184774,
          0.4558835886446629,
          -0.18535833264869148,
          -0.02497742077067653,
          -0.05325703636749229,
          -0.41787376852071784,
          0.2886849415232265,
          0.09932225677150038,
          -0.07589874530560273,
          -0.308641334690992
        ]
      ]
    },
    {
      "activation": 1,
      "biases": [
        0.3253843908501902,
        -1.0274991053491471,
        -0.40383245844202076,
        0.12226091044728796,
        0.20015018911169655,
        0.2109992860683626,
        -0.37237812351967775,
        0.5393979949570273,
        -0.3051510603751722,
        -0.019204866775581517,
        0.027930627356692928,
        -0.33326574606226383,
        -0.06758799088621698,
        -0.4276657149497205,
        0.5153922984571327,
        0.755298438884339,
        0.04212278348666652,
        0.7204818244573746,
        -0.05550665887579595,
        -1.4400139889306764,
        0.9748144234746201,
        0.5135253720004417
      ],
      "cols": 22,
      "rows": 16,
      "weights": [
        [
          0.2605057379177747,
          -0.015093688769089116,
          -0.22451946257346392,
          0.7823999868679817,
          0.994772888447657,
          -0.3287522676868423,
          0.3840428275937974,
          -0.2493983107000171,
          -0.3295938145340026,
          0.43915183985387657,
          -0.489546559455559,
          -0.43228455286152073,
          0.3061854840303699,
          0.17484212824502066,
          -1.0642862526599197,
          0.2305365331555669,
          0.1777650577645173,
          -0.04010493475027796,
          0.6449955093330674,
          -0.2586725486437207,
          0.5907371753354654,
          -0.2901441235904593
        ],
        [
          -0.744749226915706,
          -0.015208177639783904,
          -0.17890313185086715,
          0.6028395608920376,
          0.06412898705593766,
          0.14961202489393646,
          -0.09625192205954372,
          0.2719276177902107,
          -0.4594524551978128,
          0.06108706373859925,
          -0.15671095104214947,
          -0.11041927644150809,
          -0.045236854894744306,
          -0.7707408775304295,
          0.13174969325471883,
          0.2023041364513936,
          0.8824140281259825,
          0.20147847722086293,
          -0.4432057677219559,
          -0.49249961257670777,
          0.42293783624782993,
          -0.16849355908405406
        ],
        [
          -0.24774791944049843,
          -0.4631421810381026,
          0.3826128642523343,
          -0.20178156151716278,
          -0.7975685289907083,
          0.05395035453826369,
          0.2303142997809909,
          0.03487816695301227,
          -0.08494833768273728,
          -0.9866935672745275,
          -0.51530733836901,
          -0.050211605848613484,
          -0.13180822198762393,
          0.29540860490443455,
          0.2556542772421473,
          -0.3692765151091774,
          -0.29651937238890247,
          -0.036882535612135704,
          0.15493660759066827,
          0.34058085044404574,
          0.592585734173151,
          0.14505881504451545
        ],
        [
          0.6269991919650282,
          0.6320565258971054,
          -0.29884703036427507,
          -0.12269164069202464,
          0.675502906493475,
          -0.057471087329610725,
          0.13467913201013845,
          -0.11610353344351693,
          0.30117296147876643,
          0.7760325264320527,
          0.4921475774596682,
          0.39777476784059945,
          0.3042629920055556,
          0.37919852374966667,
          -0.06966604257654843,
          -0.30069514642006107,
          -0.038556136369343436,
          -0.13297855869088918,
          -0.316926648890996,
          0.032867614702696564,
          -0.5779392809621088,
          -0.6535998038521597
        ],
        [
          0.2416759248305624,
          0.4410438973498314,
          0.48934891970218525,
          -0.680058705238995,
          0.06949151480951614,
          -0.16487116801136903,
          0.16900227571928766,
          -0.34717100397162776,
          -0.11121649075098816,
          -0.32139461142337694,
          0.3726990554679271,
          -0.36316704447771236,
          0.3360755977561552,
          0.6001262138458472,
          -0.7920836065920314,
          0.0836812151505919,
          -0.1999886276851499,
          0.06265262274494933,
          -0.011374281022043208,
          0.6621953403524332,
          -0.04914508249251114,
          -0.032623226745260914
        ],
        [
          0.2701355437390337,
          0.04861028387811232,
          0.00711228907025919,
          -0.20534535158121658,
          0.28997612941265605,
          0.05630962416023714,
          0.11515842319944258,
          0.024395044077798494,
          0.02313997217405213,
          0.38673572531271827,
          -0.3829524457414344,
          -0.1309979978385126,
          0.38230596405255,
          -0.08567468646047763,
          -0.15413663128410224,
          0.14692406636353786,
          0.09971731743279615,
          0.3170311743955089,
          0.24277268372732033,
          0.356215260229164,
          0.3426566683203405,
          0.055051432195767275
        ],
        [
          -0.28275372209946736,
          0.041822867492752144,
          0.20450643014962797,
          0.5681005616778398,
          -0.6098026727367416,
          -0.7336827507547975,
          0.27183987742985855,
          -0.040744501662330346,
          0.16041041047351073,
          -0.3086215628998938,
          -0.44205363885684434,
          -0.552100302288986,
          0.3542719171164743,
          0.13527780179224924,
          -0.34562105368416657,
          -0.004065758888544844,
          0.17447160162881198,
          0.01847475557285238,
          0.018623660493281954,
          0.3200096761955308,
          -0.3242185689532671,
          0.38724939133610303
        ],
        [
          -0.17314696670737342,
          0.28340629128854566,
          -0.3601502392188996,
          -0.07033153575967563,
          0.034396729957915304,
          -0.7586813078333299,
          0.014099466395635802,
          0.025451169826699448,
          -0.11380404256204454,
          -0.1131248890369262,
          -0.6202303539370786,
          -0.23666063062169593,
          -0.10579644703036246,
          0.027580697700342008,
          -0.5820372279269143,
          -0.511108075764345,
          0.15789788249911146,
          -0.12703928631894645,
          -0.2742520458976447,
          -0.005083698868374447,
          -0.035484861110722805,
          -0.22093266417607485
        ],
        [
          -0.1849185568641274,
          -0.329338731920356,
          -0.024751156665412548,
          0.06960573137829186,
          0.1608667950790459,
          0.02437836904697492,
          0.22883256920602746,
          -0.30184499598056924,
          0.3709990093819544,
          -0.17595811999522806,
          0.37422016939244773,
          0.10219094700377551,
          -0.05621210707488717,
          -0.36685617782035645,
          0.22340877119661082,
          -0.1601870910975313,
          -0.4243519565764931,
          -0.18660130370678218,
          -0.32682478495552625,
          0.26355602465211686,
          0.3003411282912822,
          0.18123277496383391
        ],
        [
          -0.20718069301591793,
          0.8467739707532482,
          0.1332908362432049,
          -0.00315022517673926,
          0.26015643468746247,
          0.18003688699264275,
          0.07523560146605877,
          -0.6633712860658989,
          -0.015812993011838444,
          0.43257656485049933,
          -0.400269201359254,
          -0.06951855535763342,
          -0.8794695480864042,
          -0.29525045377092096,
          -0.18987025322724882,
          -0.02946521702324266,
          -0.11673519093404658,
          0.23015368268508943,
          0.9863169299116712,
          0.2275455617191931,
          0.3818907150891067,
          -0.3973162935679849
        ],
        [
          0.7101193488841763,
          -0.18334288194320184,
          0.0011483946316945392,
          -0.1588640654511289,
          0.5550501098291378,
          0.5179587275206089,
          0.2890958971650382,
          0.26435944592545885,
          0.19719549072037032,
          0.1099582128611528,
          1.0614847455789465,
          -0.13941405360274392,
          0.3162912765843092,
          0.19454406167818855,
          -0.2254892697868607,
          0.28804261634637096,
          -0.41769050352456677,
          0.44552582155120213,
          -0.20347581402764586,
          -0.3506965257725513,
          -0.3669746233884066,
          0.04165563881646665
        ],
        [
          0.34425601587252885,
          -0.052412056871703985,
          0.1439391909953611,
          0.6860455926111537,
          -0.1429591372651486,
          -0.6765199869552823,
          0.1581474315521794,
          0.10038601000039721,
          0.2727461738542998,
          -0.013084047675352631,
          -0.4783185165040581,
          0.2837547143274035,
          0.1685441559202941,
          0.29042882860271235,
          0.5247084929816604,
          -0.5374871776182064,
          -0.2693226744158836,
          -0.46848555528124064,
          -0.42054688675905816,
          0.12582675824703604,
          -0.11887065517104786,
          -0.36871957134360667
        ],
        [
          0.08368457695975068,
          -0.30634888312054326,
          -0.16516104647774973,
          -0.18240903395901517,
          0.15255058077192818,
          -0.09392850457529006,
          -0.34683873920412117,
          0.0328563265172311,
          -0.09843800501550855,
          0.2810157669153415,
          -0.29994124658690624,
          0.5833743337343743,
          0.3724341393700552,
          0.4492441480385278,
          0.05874167454147901,
          -0.0829223466955789,
          -0.5931030715732263,
          -0.20439294816109355,
          -0.21922280890548845,
          -0.4792851352934231,
          -0.10789857725681606,
          -0.01685760830766408
        ],
        [
          -0.3480593802725282,
          -0.24823878915484815,
          0.017890762810141913,
          -0.40286849808612557,
          -0.3187510744595719,
          0.47676168374126976,
          -0.30900804148307415,
          0.1481882748196902,
          0.23757877373657954,
          -0.1511165592046875,
          0.3144592982092922,
          -0.10983486198872047,
          -0.04537910768433378,
          -0.5170422186941368,
          0.18421219749027298,
          0.1405491901782256,
          0.2300751724886979,
          -0.015818133459202213,
          0.56567824962677,
          -0.23963767414487888,
          0.06796753646436388,
          0.17465292324704737
        ],
        [
          0.6551383771459749,
          -0.5095894469873986,
          0.016989488462167367,
          -0.49666239105846105,
          0.355852245535757,
          0.5585679388792631,
          -0.4138293204159311,
          -0.28974368823296587,
          0.03838048257549035,
          0.4774550958188994,
          0.43501696266148937,
          0.1207925432327636,
          -0.23212296736188506,
          0.5266881467773274,
          0.04863331091298657,
          0.4137721730852328,
          -0.17719726795879837,
          0.08486340107834713,
          -0.08806693988184805,
          0.020016883216805764,
          0.25170568547920646,
          0.14217032541544844
        ],
        [
          0.18565363032304016,
          0.3465215423597246,
          0.40475737489812846,
          -0.7396677336114428,
          0.23326201430582452,
          0.42196427225254524,
          0.24954605519020906,
          -0.14265115121144367,
          0.36075508982764876,
          -0.33532276115184784,
          0.34612580351473576,
          0.3024680339908493,
          -0.34425168707773823,
          0.3661211390782199,
          -0.44851506223834176,
          -0.08077519635320476,
          -0.5993319847695168,
          -0.12388298958586462,
          0.6178415084476531,
          0.5095832361530297,
          0.20209651416390387,
          -0.22902463916529767
        ]
      ]
    }
  ]
}
