{
  "layers": [
    {
      "activation": 2,
      "biases": [
        0.0,
        0.22777686543798129,
        0.6487986764185508,
        -0.04030212424075499,
        0.17623445414640193,
        0.23065913015231115,
        -0.029535928912600415
      ],
      "cols": 7,
      "rows": 3,
      "weights": [
        [
          -0.48745824750545014,
          -1.338156905972448,
          -1.716104508034534,
          1.1075630981912756,
          -0.9510199738537357,
          -0.49421554580185145,
          -0.3537678860291681
        ],
        [
          -0.5763919261722926,
          -0.2690500951281499,
          1.0807675023756405,
          -1.4560456454151276,
          2.233710265119229,
          -0.6773849386367928,
          0.22270820158957275
        ],
        [
          -0.31315764373132204,
          1.2601385051701701,
          1.010521433794401,
          1.3214214679263303,
          -0.8718208122962195,
          0.26316557418419956,
          -0.3220559108375113
        ]
      ]
    },
    {
      "activation": 2,
      "biases": [
        -0.0012236056881701931,
        -0.5454294769928375,
        -0.2516330039555985,
        0.0,
        -0.3433643041521214,
        0.1076898154755524,
        -0.6393146633895702,
        0.5976634487854056,
        0.8859825311491908,
        1.7405874652143976,
        0.4626649503331584
      ],
      "cols": 11,
      "rows": 7,
      "weights": [
        [
          0.06546552126138322,
          0.40947284256230904,
          0.28926778559688376,
          -0.03447794919650723,
          0.3492231498031458,
          -0.17123752619910088,
          0.010309319381888296,
          -0.23439757846822865,
          0.2479454553255224,
          0.3600010550710007,
          -0.15974503248935681
        ],
        [
          -0.1505971058785087,
          -0.48246176571321403,
          0.36094644651656826,
          0.18877812068772304,
          0.5672059116282298,
          -0.05961996716218824,
          1.3205241479029513,
          0.7476256485887728,
          0.030054270014310547,
          0.09324166127572239,
          -0.25325519174191224
        ],
        [
          0.015815148976562665,
          0.556738187916128,
          0.20664442226736907,
          -0.3232050676224801,
          0.515938239254811,
          -0.004840965889997089,
          1.2303995639897296,
          -1.2670903523513517,
          -0.5894242609976261,
          0.12860138396658288,
          1.3935963523183494
        ],
        [
          -0.4211789685211943,
          0.9776986446609331,
          -0.4359414489263767,
          -0.3962389950240132,
          -0.17931704693349504,
          1.5981513974559545,
          -0.5175860431621203,
          0.6495611887662535,
          -0.8274978663590653,
          -0.5053212052885745,
          -0.20428116180232908
        ],
        [
          -0.4406236709006159,
          1.6334581503558607,
          0.7082237221009915,
          -0.4307845354471309,
          0.1992971016682625,
          -0.5742630663626457,
          -0.3615354303167374,
          0.6142731167708798,
          1.3201282843038487,
          -0.6445679544249993,
          -0.3649725924958368
        ],
        [
          -0.4674842005113889,
          -0.5044193750406527,
          -0.2713257785214635,
          -0.22331162202263138,
          0.5382451648106106,
          0.03670080347433668,
          -0.28629382490293037,
          -0.223589303591987,
          -0.10470976624896315,
          0.3025649013242397,
          -0.45451693857160336
        ],
        [
          -0.4244948624860375,
          0.06539852616742846,
          -0.12769672380997635,
          -0.4216816017981818,
          -0.1266224650098459,
          0.28186205691167215,
          -0.009132235455699259,
          0.48387544403786226,
          -0.06864098636353311,
          -0.6259641265092631,
          0.09374792672350052
        ]
      ]
    },
    {
      "activation": 2,
      "biases": [
        0.032097708073601294,
        0.1471197733674923,
        -0.30213629298618966,
        0.546228177430553,
        -0.7411919777027577,
        -0.756427180399002,
        0.12949308176861812,
        0.2368588876631592,
        0.71457648954345,
        -0.04136146309533657,
        -0.24698776772558603,
        0.9316648601714075,
        0.7061795211059244,
        -0.16786105837603238,
        -0.6833968719698351,
        0.8588126792295918
      ],
      "cols": 16,
      "rows": 11,
      "weights": [
        [
          0.08547672841232111,
          -0.2088666514763666,
          0.2687615526856717,
          -0.02630922913507486,
          0.034777599255553016,
          -0.008514377923956554,
          0.06004329406147676,
          -0.1514944277699462,
          -0.08992609358215299,
          0.057859619737830034,
          0.29937552425220854,
          0.1675934330007779,
          0.2738862401987143,
          0.3941989051039853,
          -0.3367982919828422,
          -0.2308755619232541
        ],
        [
          0.1854836876580755,
          -0.4158628418842446,
          0.07172986824144993,
          -0.36870893983075215,
          0.7703198373209433,
          1.0387621073198434,
          0.7115694918264251,
          0.7893187890314521,
          0.19263665822827328,
          0.9849912713944009,
          -0.17957033864155364,
          -1.168208487156887,
          0.5301089171140195,
          0.20368926589420516,
          0.38179267519494353,
          0.20912833956528462
        ],
        [
          0.04839906222131473,
          0.10932490865608491,
          0.17603721930926458,
          0.3184083272461746,
          0.6533642863885575,
          0.15480930133313223,
          0.3234414473035011,
          0.38338589469363754,
          -0.2804199637687808,
          0.11149747470105414,
          -0.41459937905098765,
          -0.6358978093502567,
          0.13445752169008926,
          -0.13746204830680903,
          -0.1386836477862594,
          0.3261848683043041
        ],
        [
          0.22697240154984832,
          -0.24710638704934232,
          -0.02591782759686982,
          -0.10229084590111559,
          0.15615671303245166,
          -0.1467651571161762,
          -0.12582580109803232,
          0.021348449354564168,
          -0.2963410175356201,
          0.057582863777208365,
          -0.13618720165808104,
          -0.30314915646846663,
          -0.07406714951364701,
          -0.10111271680026067,
          -0.13714099932830587,
          0.40501948504206187
        ],
        [
          0.2553113719752302,
          -0.13641343678783685,
          0.15489253999002317,
          -0.5463323196305414,
          -0.060228073158528427,
          -0.13625421843199645,
          -0.0011951358542607164,
          -0.27862257784244826,
          0.31396996609235717,
          -0.4557445228247332,
          0.491157960979215,
          -0.16175378371148771,
          -0.5369365358223541,
          -0.753564578033518,
          0.3445419611123353,
          0.20795190213660605
        ],
        [
          0.17266241025377094,
          -0.41784863160774094,
          0.3243072352191058,
          0.6462114722175315,
          -0.2819116957358617,
          0.8408486945492227,
          -0.49415848824774183,
          0.41744707564191436,
          -0.15988689480200488,
          0.1217461964758023,
          -0.006648235835612664,
          -0.6563308112196489,
          -0.10212471497366066,
          0.2630211166750374,
          0.7683113370186184,
          -1.005301426296614
        ],
        [
          0.4100660640898446,
          -0.09912796676966953,
          0.9497587970457333,
          -0.2872784508601565,
          0.17435988894416743,
          -0.2589658531343413,
          -0.4716977599424157,
          -0.6458846817449678,
          -0.18489933613045223,
          -0.42998298947595487,
          1.1449749381539778,
          0.010221316428583352,
          -0.45893192924381215,
          -0.602081771607907,
          -0.28834362212525805,
          0.3702732299613833
        ],
        [
          0.6767614488528897,
          0.34474521347362075,
          0.2893590736525535,
          0.12233972029967793,
          -1.0531389343550992,
          -0.24893328211900767,
          0.003004020986380624,
          -0.2654758902920372,
          -0.3786969639159994,
          -0.2336475569473553,
          0.917014774426588,
          -0.4399189822397797,
          0.3345789394090865,
          0.5718176497123543,
          -0.1992321258408209,
          -0.235333989988606
        ],
        [
          0.5829158576503976,
          0.6245066152368801,
          0.45511711036870445,
          -0.25224181399556844,
          0.30640565560323324,
          -0.2074663336104747,
          1.054812909798555,
          -0.31745539834154646,
          0.04692292891635127,
          0.5386984621839672,
          -0.3003287553696707,
          0.09989121952391686,
          -0.2462286397337672,
          0.8146519926022343,
          0.28848607390540754,
          0.8909932115277829
        ],
        [
          -0.1704268607588054,
          -0.2587229026721094,
          0.03814317845540905,
          0.4327210846730528,
          -0.621175777480869,
          -0.8219964929922919,
          -0.2930506494388319,
          0.1756309585233882,
          0.4109894577114672,
          -0.29781739167891125,
          0.45917575159278695,
          1.2406317224823087,
          0.7013284141754355,
          -0.8196032970807313,
          -0.6203358742810581,
          0.10859564933858666
        ],
        [
          -0.6504163656965057,
          -0.07492574763798426,
          -0.5234500985172801,
          -0.6867884344931383,
          0.3022431753477731,
          0.2925360016171791,
          -0.614168633923183,
          -0.017287527198553164,
          0.7535113673956862,
          -0.26265186920267686,
          -0.06192334682193656,
          0.6704159868568731,
          0.16879710897432293,
          -0.7935098588629356,
          0.2530273140980419,
          -0.13089743101791199
        ]
      ]
    },
    {
      "activation": 1,
      "biases": [
        -0.4129367731339738,
        0.0021376970484491583,
        -0.08521739325279319,
        -0.2504423797475239,
        0.14568623986437523,
        -0.20415596536782377,
        -0.08933128291640213,
        0.922759636738117,
        0.479330453909156,
        -0.27193638929195657,
        -0.17488607123352792,
        0.3057172227454604,
        -0.5715797022300444,
        -0.1581751808422688,
        -0.5079050757582775,
        -0.7635078999571888,
        -0.007918939119091995,
        0.8962318883815603,
        -0.22620641583252024,
        0.012879118039973948,
        0.9863018359222563,
        0.2948427861337053
      ],
      "cols": 22,
      "rows": 16,
      "weights": [
        [
          -0.34708348165514497,
          -0.3841303692671764,
          0.4993110242904919,
          -0.21979600758434703,
          0.0374544181556116,
          0.4207262449220913,
          -0.18697475025649646,
          -0.4744038999014186,
          -0.09192825878426866,
          0.032126615632968675,
          -1.0326642326768427,
          -0.018071509887741404,
          0.2260718668428477,
          -0.0037431938588694483,
          -0.08828029616496216,
          0.3730510432244701,
          -0.18374268705447644,
          0.3393553993474472,
          0.2357143574761063,
          0.023633780323076364,
          -0.059709752154835594,
          -0.3436524569831202
        ],
        [
          -0.07731795014879848,
          0.21977841097311768,
          0.21130029290209312,
          0.25757999727337044,
          0.10966880824605695,
          -0.2989286483376342,
          0.1252131545387574,
          -0.42653207319055736,
          -0.36996243579328436,
          0.20584552751250806,
          -0.19190874563223229,
          -0.2465428744208261,
          -0.4237295955314076,
          -0.12335746059754531,
          0.0003945239852759821,
          -0.271704123503193,
          -0.027496509308183845,
          0.012119424423012816,
          0.1669746714217559,
          -0.40550229447665254,
          -0.17426016991771626,
          -0.38832705118923594
        ],
        [
          0.46242168686195173,
          0.21905045931075814,
          0.3427864297578001,
          0.13087065068163584,
          0.08177672292087675,
          0.2355834230497633,
          -0.05625864739678936,
          -0.6662613288783455,
          0.0133204318019272,
          -0.24781815584223604,
          0.03968784984468446,
          -0.3957934135465961,
          0.7364252387746655,
          -0.1577711035462496,
          -0.3729758034833448,
          -0.18245231875557144,
          0.10058067536794355,
          0.5937924486372603,
          0.2984320149474782,
          0.1257453791606137,
          0.02363094069694995,
          -0.1980825747088073
        ],
        [
          -0.45747137937372434,
          -0.03597552867366072,
          0.26199341125846987,
          -0.2766351407281885,
          -0.3869750579489975,
          0.6576226194666138,
          0.08906335379930544,
          0.4427431516961426,
          -0.2207631778489922,
          0.15223958404171256,
          -0.07729444736497748,
          0.5721564239797445,
          -0.0016953823188898666,
          -0.09190649833066941,
          0.23012216200717686,
          0.03281865287111627,
          0.1641826552833518,
          0.3589707610697287,
          0.28975997513091967,
          0.6279979601354903,
          0.27243902544864274,
          0.2849610215853489
        ],
        [
          -0.27535770409035715,
          0.26215186560199516,
          -0.06626366228955446,
          0.13270231904111776,
          0.048264120534509306,
          0.1252043693321578,
          -0.12075948388763781,
          0.19003300466076312,
          0.16848513774155918,
          0.031236951039143243,
          0.5835644810100546,
          1.207811812029532,
          0.08992495176158244,
          0.05796192384839266,
          0.8902374220645181,
          0.5791508236689875,
          -0.1062647998179429,
          0.5925454126840084,
          0.4643640646751061,
          0.12533895690484917,
          -0.17969943447556966,
          0.0598531408048288
        ],
        [
          0.2698416389362612,
          0.22350386232895844,
          -0.027516665902520016,
          0.45637542631084804,
          -0.7686963243620719,
          -0.014897638573953034,
          0.7043736696619747,
          -0.34999834255493406,
          0.3367675961055559,
          0.23975362341743525,
          0.5634738215871937,
          -0.6319387079235061,
          -0.19033556409819147,
          -0.20354633876605602,
          0.05687677663692173,
          0.5110275926013204,
          -0.4355402385346513,
          -0.09084402988560632,
          -0.2076028408325317,
          -0.9015097358172564,
          -0.13345487708147044,
          0.1053304616161203
        ],
        [
          0.3975590523367438,
          0.07503739783869895,
          0.5636220915190232,
          0.7483055743658993,
          1.0910782129809928,
          0.21074559390702896,
          -0.002746271587468783,
          0.5068535626751985,
          -0.5163847952795112,
          0.24282262155346074,
          -0.45084846830664727,
          -0.42742783309168914,
          0.22380809829209447,
          0.3301456837895831,
          0.06729778287370136,
          -0.24722212543043276,
          0.42777373456766166,
          -0.0811079705644711,
          0.1464222019877584,
          0.17509585325557878,
          -0.15712919247122853,
          0.3543995657889796
        ],
        [
          -0.4877729108252166,
          -0.21079171188366352,
          0.07685778292035819,
          0.07793762924211976,
          -0.13868737566158065,
          -0.29397093578146155,
          -0.19590189944495903,
          0.26472933662612674,
          0.21573045146488257,
          0.10662320532416678,
          -0.44509894987418136,
          -0.016941302216104175,
          0.07835558713067661,
          0.42919642299797306,
          0.766988047566291,
          0.4173226046177745,
          0.3521645830656883,
          -0.7826325259233633,
          0.020707080864254077,
          0.17076282909673482,
          0.29901180554267603,
          0.20661976266452522
        ],
        [
          -0.11000466345141731,
          -0.21207940420717852,
          0.09497964684374924,
          0.17440528502283867,
          0.5936926105078294,
          -0.47720526134511587,
          -0.20245528883344105,
          0.11246124466489264,
          0.325516743899309,
          0.10612051055088577,
          0.8752587690023436,
          -0.14889063399965782,
          -0.7733993551743289,
          -0.23013495065092499,
          0.12145360236912608,
          -0.23948688311848573,
          0.07874288510893383,
          0.14772630799064057,
          -0.15955125925196048,
          -0.04627329364632777,
          0.09003742790097381,
          -0.22008404266924064
        ],
        [
          0.447316545343552,
          -0.7074008007689221,
          -0.05282124344289955,
          0.47680858387419695,
          0.3726950454475083,
          -0.3626644050511815,
          0.35750458223772974,
          0.22296977288880268,
          0.2585900793354758,
          0.2965576546573432,
          -0.4607087796919654,
          -0.33850684463164293,
          0.45827879427759,
          -0.03721687139662385,
          -0.3193950565700515,
          0.33305174222743683,
          0.001416042727927625,
          -0.4415500938363961,
          0.19131689034990032,
          -0.07862375786623664,
          0.24022554796969506,
          -0.25532897651295333
        ],
        [
          0.4845538524398171,
          -0.47199436189555394,
          0.25163345577680796,
          0.5019617255726365,
          -0.17149159415167375,
          -0.04801531052737993,
          0.1683899254489208,
          -0.2477545869757083,
          -0.22326539948862706,
          -0.24970481484415696,
          0.5763518321435019,
          0.65595187709833,
          0.5826974277063701,
          0.13322606254539268,
          0.1324236659358274,
          -0.12306617980397083,
          0.6975757165510691,
          0.6813445974880671,
          0.5210007899454764,
          0.09553353886094133,
          -0.007841666342744413,
          -0.3215803129999394
        ],
        [
          0.5928332037645783,
          0.25192730427848564,
          -0.21653407892631069,
          0.437024438411711,
          -0.5849823190542502,
          -0.0744353439677753,
          1.1751745331595187,
          0.16611377617829146,
          0.2637376591353051,
          0.2932070525004408,
          -0.11638117315225521,
          -0.21337228014378373,
          -0.2645713009906214,
          -0.16302202126689486,
          -0.08882774579874703,
          0.7182386520889343,
          -0.5538989620282021,
          0.5071809010097557,
          -0.7007799262320052,
          -0.553355595331417,
          -0.13922144986807122,
          1.024866471259402
        ],
        [
          -0.11378690323609378,
          -0.11155618996807369,
          -0.2565516687015412,
          -0.7504202504472305,
          -0.22791288560045922,
          -0.16786694410743191,
          -0.1157689010291695,
          -0.045729938828133684,
          0.24952664666304267,
          -0.2727411996534731,
          0.21067437186546933,
          0.2991020371101227,
          -0.25802924758361245,
          0.1524355965479971,
          0.30801309224397094,
          -0.7424510636323997,
          0.6293340121488016,
          -0.37698404088892995,
          0.03866109984121096,
          0.7365294400906636,
          0.2549127992253816,
          0.15426871603225328
        ],
        [
          0.2284814675224286,
          -0.0032272775070119656,
          -0.33085449961498853,
          -0.02958635340512089,
          0.2907991204680106,
          -0.5323240202178835,
          -0.2125130955511713,
          -0.746820559698947,
          -0.6030013760705457,
          -0.40987541414654155,
          -0.2472704729881028,
          -0.4023655688361706,
          0.13002535670521495,
          -0.467599647008131,
          -0.5877267152755986,
          -0.2814599069277346,
          -0.3711513391495574,
          -0.15268219388271698,
          -0.4814206867508308,
          -0.5706247473602097,
          -0.20904128613199288,
          -0.6243430590721296
        ],
        [
          0.7435197639594315,
          0.2517436518206323,
          -0.3720743397681751,
          -0.11360693461352517,
          0.0356559738409646,
          0.0618913251966209,
          0.02154265066357938,
          0.02157410502500906,
          -0.0034245277358938243,
          0.3482477944922874,
          0.3163466173535158,
          0.1669498106977775,
          0.23655409551945222,
          0.24442528422781584,
          -0.16864816109608893,
          0.33065594327461517,
          -0.3792016843765886,
          -0.5705462992829929,
          -0.38235138453516987,
          -0.7292977908196556,
          -0.40554960651847755,
          0.5744012682204912
        ],
        [
          -0.6328280427657762,
          0.5627551755750888,
          -0.47527279510192544,
          -0.5904173759693233,
          -0.3600242794616364,
          0.46019976504314136,
          -0.19338408165794582,
          0.09645801175233727,
          -0.3814703243426439,
          -0.02787688727951797,
          -0.9095710306001418,
          -0.0012214526841992804,
          -0.31371558894201484,
          -0.09678755148181019,
          -0.6375704411718062,
          -0.34190817348371616,
          -0.40685337984072945,
          0.25234485018426694,
          -0.46163730924026586,
          -0.18944302972934493,
          0.3383411205899365,
          -0.34177801755358433
        ]
      ]
    }
  ]
}
