{
  "layers": [
    {
      "activation": 2,
      "biases": [
        0.5384892642144785,
        0.6786823750381022,
        -0.08267452416765814,
        -0.06704356208477584,
        0.5288867658804666,
        -7.701437044520902e-06,
        0.6487185813597972
      ],
      "cols": 7,
      "rows": 3,
      "weights": [
        [
          -0.9398130113864953,
          1.2462470548872486,
          0.4973952639846887,
          1.3307677967108045,
          -0.5390881219760709,
          -0.34721056563237374,
          0.25899680037347955
        ],
        [
          1.3760485509782794,
          0.7095326314802676,
          0.7329008113499099,
          0.29687058068721084,
          1.692888416466049,
          0.2735750790373854,
          -0.9077738685433361
        ],
        [
          0.41329795799079677,
          -0.7005555827654555,
          -0.9798714793115959,
          1.615002697984273,
          -0.37231796840632214,
          -0.271736022495388,
          -0.9078267864638613
        ]
      ]
    },
    {
      "activation": 2,
      "biases": [
        0.8925329622587322,
        -0.12287097660855895,
        0.19217467003321495,
        0.47307420545864104,
        0.24767151114715685,
        0.11225057147903153,
        -0.3528131057440563,
        -0.41896976857505974,
        0.012042545062048812,
        0.8640886907900112,
        0.0
      ],
      "cols": 11,
      "rows": 7,
      "weights": [
        [
          -0.20619482506142445,
          0.49597415328721745,
          0.4365142217945204,
          0.07780190130790444,
          0.7931945094339246,
          0.9557525436515034,
          -0.8578054740960934,
          0.483660861761667,
          -0.9038101550884715,
          -0.6309679805663061,
          0.02450960620486075
        ],
        [
          0.4247094577321327,
          0.9555676505839704,
          -0.33460654861981004,
          -0.2814708653030752,
          -0.6799903548976238,
          -0.5118322120075371,
          0.372877579211692,
          0.25501137011932407,
          0.9201071225786587,
          -0.7091598406633773,
          -0.29514071629806776
        ],
        [
          -0.3291844638600647,
          0.7026992950619603,
          -0.8081607746792365,
          -0.4237660661111677,
          -0.5273723116964963,
          -0.2672628051995024,
          0.7168006417506801,
          -0.24003529666181148,
          -0.09426299194403501,
          -0.15072211822058762,
          0.16349405563917727
        ],
        [
          -0.5000832224547015,
          -0.5427220296904286,
          0.439654740546199,
          0.0911863383230025,
          0.6756648823620853,
          0.015130336219381963,
          0.797007956487139,
          1.0802809844757013,
          1.0331108759471408,
          1.0035982667910284,
          -0.34268821496697
        ],
        [
          -0.299175724518433,
          0.9085244551696129,
          -0.02798435244173583,
          0.5533939615515945,
          -0.308217395031043,
          0.9434332273377741,
          0.37536918505311134,
          0.1334406491818586,
          -1.23056768281403,
          -0.7379068674756267,
          0.08545648584219194
        ],
        [
          -0.46908205454859997,
          -0.22990059673306687,
          -0.22720901460939158,
          0.1006925283099139,
          -0.10023396405713086,
          -0.4433025588275828,
          -0.01942450475234269,
          -0.18003006443178687,
          -0.28848144674266535,
          0.3292121249297994,
          -0.18031219406917606
        ],
        [
          0.6856403411243974,
          -0.19598394824224227,
          0.5196192625399255,
          0.18669969976659861,
          0.20298963255021854,
          0.09918967004712298,
          -0.8440320743870026,
          -0.5883300207913243,
          0.300964535223113,
          0.2319556805191058,
          -0.572833013485621
        ]
      ]
    },
    {
      "activation": 2,
      "biases": [
        1.2186832346260765,
        0.0,
        -0.05450908608249518,
        -0.5270640003173326,
        -0.358153877609205,
        -0.6060239050824945,
        0.28442252194545015,
        0.1372135987775763,
        -0.06300671645379609,
        -0.8114759640584827,
        -0.220706364063385,
        -0.21613267408652348,
        -0.1836750621820826,
        -0.014253579004903365,
        -0.07177364839941007,
        0.0
      ],
      "cols": 16,
      "rows": 11,
      "weights": [
        [
          0.873743548141824,
          -0.45776299432889067,
          -0.015322256073177866,
          -0.08641683253541116,
          -0.3373135282408378,
          -0.22300106657733018,
          0.17801074956763732,
          0.2149333581274261,
          0.08322108463651412,
          -0.010876340534980064,
          -0.8028885012103141,
          -0.48588488673755487,
          -0.7407953848279984,
          -0.2131720629920774,
          -0.12292621118878796,
          -0.37664044459053286
        ],
        [
          0.18549299237732242,
          -0.3008663760288137,
          -0.14406247508561557,
          0.03193138529931121,
          1.1913342346301814,
          0.4290265719321434,
          -0.5354432255878688,
          0.8254619631142802,
          -0.36087695113886303,
          -0.29839202555174116,
          -0.5681595077326902,
          0.7266531965413222,
          -0.020992432921849463,
          0.2722821816796288,
          -0.3276907979521187,
          -0.1760470511128281
        ],
        [
          0.169355016892039,
          -0.3762919116656394,
          0.07586764946668353,
          -0.008358769841481052,
          -0.6825456980315634,
          -0.49702263363405136,
          -0.19582090727490545,
          0.23140634209840164,
          -0.4426091707627769,
          0.22384599496127053,
          0.32408287478042913,
          -0.46409228181730144,
          0.21328620672099763,
          -0.37403927021285327,
          -0.4134126433449457,
          -0.28801556878710216
        ],
        [
          0.5364476467114406,
          0.024891568079249526,
          -0.15026212734058472,
          0.2608051011605424,
          -0.516037734779044,
          0.4214771072352885,
          0.4038212710786695,
          -0.013293446534872518,
          0.004144943716183887,
          -0.07569518360220816,
          0.34273950958964083,
          0.37130784726497595,
          0.49501484830735587,
          -0.10084504963150595,
          -0.0645910341876663,
          -0.29604512251230386
        ],
        [
          0.4142599295560297,
          -0.2546297544895144,
          -0.007156159501770742,
          0.21833781185404869,
          -0.5333554922910956,
          0.25821841297293513,
          0.4962512967087652,
          -0.09234401888415816,
          0.0023718169229756617,
          0.27341646606977693,
          0.12002598297398014,
          0.04589177903443471,
          0.9166869659236032,
          0.06910287637403459,
          0.22931614452735113,
          -0.42706163574252004
        ],
        [
          0.18606555661635252,
          -0.15204396428383776,
          -0.3131667728875767,
          -0.21910999457678262,
          -0.35002816799305003,
          0.37388095925456066,
          -0.36691350930387856,
          0.8044232106566911,
          0.3912239462471218,
          0.8675166147557896,
          0.5999768154036814,
          0.012815641300005969,
          0.6820853499053674,
          -0.11527336527892203,
          -0.212594581280933,
          -0.01967836028617731
        ],
        [
          0.4333212509060267,
          -0.3904050310697895,
          -0.20483017799791953,
          0.5505455977983912,
          0.9066715644170489,
          0.5033623007574919,
          0.008433972137947676,
          -0.2398100880789112,
          -0.4024725886405279,
          -0.1680074429668884,
          0.5730300957132008,
          -0.6666917315875625,
          -0.5154963699462617,
          -0.1899136182251456,
          0.13252009029698292,
          0.191772265521787
        ],
        [
          -0.35656706444627523,
          0.4135722212079928,
          0.4330637023363878,
          0.6077377104469464,
          -0.10554264657223532,
          0.42058797964152084,
          -0.39117488492326496,
          -0.5358461065177856,
          0.054389598288644106,
          0.4290951731941673,
          0.43527949386103876,
          -0.45510743510600743,
          0.3620325632482385,
          -0.41159828844888796,
          -0.3930214754746302,
          -0.3476465444001867
        ],
        [
          -0.9845748410835486,
          -0.42274174181882374,
          -0.4472686165337943,
          0.7354312598215161,
          -0.20733820441600653,
          0.034202343927738854,
          0.4730880907520183,
          -1.1192942204710377,
          0.3678477981717664,
          -0.7396006201801751,
          0.05025112239291017,
          -0.31326162025489357,
          -0.6869326008601545,
          -0.3524346020540079,
          0.25706795389159,
          -0.30784104989206484
        ],
        [
          -0.057622902143479565,
          -0.011517386540842068,
          -0.030461518801668,
          -0.17446456927592308,
          -0.38618086701139376,
          -0.3710425977338551,
          0.96758982464104,
          -0.12563024791796162,
          -0.43975529056537516,
          -0.7555902707264478,
          1.090649623971729,
          -0.12137660353116381,
          0.5086518671029785,
          -0.46190113962695195,
          -0.05219201872116711,
          0.25149466642992774
        ],
        [
          -0.45569676966534356,
          -0.2968620676092314,
          0.3379642129856025,
          -0.10227352003413218,
          -0.29074791561108065,
          -0.3369103240136221,
          0.2936695044191393,
          0.4311609576466693,
          -0.26509317456963893,
          0.33655644282926195,
          -0.29373261010519064,
          0.3182625676631863,
          0.24350097572155843,
          -0.08280532347154841,
          -0.2854960345722444,
          0.2579252754060919
        ]
      ]
    },
    {
      "activation": 1,
      "biases": [
        -0.28345682390507937,
        -0.889229629704509,
        -1.0627686933637028,
        -1.5055362428747574,
        -0.018022503026030624,
        0.6534274926210218,
        1.7365163998459752,
        -1.2533784947490945,
        -1.0628011695763455,
        -0.9172117182377689,
        -0.08868698220924989,
        -0.035134635715771696,
        -0.9186254357497088,
        0.02403196451536622,
        0.21100218397155132,
        0.458765243218919,
        0.21127578875985312,
        -0.44586668101910265,
        0.9383058266292901,
        -1.1628787283001236,
        0.14585797553726848,
        1.0482009053309003
      ],
      "cols": 22,
      "rows": 16,
      "weights": [
        [
          0.03388457338464549,
          0.11750281842142474,
          0.3529558906299187,
          0.29335129385659253,
          0.2109261456447925,
          -1.0497691599919663,
          -0.3271965237219262,
          -0.21998317648005722,
          0.19380598637235294,
          -0.4185221655564583,
          -0.03763688522688834,
          -0.0738070369335766,
          -0.1572697445242097,
          -1.1330210601681006,
          -0.0797303610966665,
          -0.5814601805614961,
          0.16981843132720095,
          0.4756728139735603,
          -0.549477999736014,
          0.3495649690781787,
          0.6498178468974352,
          -0.029545227710293123
        ],
        [
          0.19631352776894154,
          -0.2061987879229875,
          0.2570274610654764,
          -0.32898986866445945,
          -0.3419243714540013,
          -0.11801484230750908,
          0.2813534998434475,
          -0.15596608338570125,
          -0.065312097345535,
          0.009971034438758375,
          0.04156614820638948,
          -0.23134921994397684,
          -0.05132635539405937,
          0.043945838244968026,
          -0.27893862169267614,
          -0.2549028551421732,
          0.33904685354128156,
          -0.20972543352556106,
          0.22410994558649378,
          -0.1643632777430846,
          -0.3275964875145152,
          0.16140487065555403
        ],
        [
          -0.2336711053218472,
          0.1901031250839349,
          -0.2311554777280638,
          0.3251574212328887,
          -0.10660055852755247,
          0.1446329641489383,
          0.12650893786072778,
          -0.33638768070782465,
          -0.19598286583074825,
          -0.10113857646940715,
          0.04505008364556733,
          0.2777381490637477,
          -0.3699532755359884,
          0.30355983548472487,
          -0.07379068492644413,
          0.18129834239101303,
          0.21948500003551794,
          -0.2765846345750358,
          -0.35221569535938807,
          -0.006428571144026714,
          -0.09817942398356536,
          0.3537179236146305
        ],
        [
          -0.08242525623632571,
          -0.18968722517060635,
          -0.16942329053416025,
          -0.3134442906543375,
          0.06363375316298411,
          0.004031616732852147,
          0.5153446234176959,
          -0.28642536400917934,
          0.317865623733182,
          -0.6517196152216352,
          0.1627999503944552,
          -0.21334090112148493,
          -0.5226990623103248,
          0.33963388223724356,
          0.5294753783520998,
          0.41731963370131686,
          -0.2394748334820302,
          0.19213024540871967,
          0.3215959048023255,
          -0.5616847278224751,
          0.23561808583226904,
          -0.028240546002886013
        ],
        [
          0.21711266664539,
          0.530704767849815,
          -0.29404572867621454,
          0.47265494196975766,
          -0.3497208485665993,
          0.1558519200086626,
          -0.2579082120161901,
          0.41104444761133213,
          0.284786289155053,
          0.86747206553218,
          -0.6497799266479491,
          0.5937656202821617,
          0.187050961167932,
          -0.5572882279006541,
          -0.47197567521217804,
          -0.46832581280395386,
          0.449088709121729,
          -0.5078616747624517,
          -0.22110917696579474,
          0.2730573375238151,
          -0.6754894729994585,
          -0.4236512769688228
        ],
        [
          0.06620342454013961,
          0.04250810033455714,
          0.4186740902075814,
          0.3184909457055663,
          0.4705225816617101,
          -0.08294486525861607,
          -0.38510849063519853,
          0.21025976069010316,
          -0.43199920241805834,
          0.245831873211442,
          -0.16959664600646476,
          -0.5331084272522996,
          0.32417833354602366,
          0.5409953406408679,
          0.7267993440042909,
          0.359876146671893,
          -0.1676344661345689,
          -0.13495013528587926,
          0.5432174955927016,
          -0.08555652174789799,
          -0.11733221952004082,
          -0.5365718422830299
        ],
        [
          -0.3635648573692752,
          0.3066825103713451,
          -0.6718573181721473,
          -0.41273321778175837,
          -0.07259128305808248,
          0.7631361371925827,
          -0.09800284923136865,
          0.3005256602465269,
          -0.21891020805694306,
          -0.025744769237155074,
          -0.3370304588482031,
          0.247265172167006,
          0.019491266784381445,
          0.1554075133283456,
          -0.5807768525067248,
          0.11019632731022296,
          0.09921952124671415,
          -0.49038110781178385,
          0.09415665190515946,
          0.029159456329953252,
          -0.6583587025745511,
          0.10403226261191251
        ],
        [
          -0.5078432475248608,
          0.13552437818865032,
          0.41528811516024416,
          -0.20106515832525856,
          -0.20632025672516638,
          -0.05554803022237083,
          -0.42933156047977855,
          0.2985474658592591,
          -0.4509878772421358,
          -0.5990737439318038,
          0.34590248623337183,
          0.09886024700366454,
          0.014028078338035547,
          0.9375906298017604,
          -0.5224543207389517,
          0.4494382103573711,
          -0.4605890338818415,
          0.5551509812213705,
          0.2519029247120519,
          0.3031688644601383,
          0.5132440319708568,
          0.27831884801470863
        ],
        [
          -0.1470431261774846,
          -0.041304788214489456,
          -0.15714567238862295,
          0.21036278727614052,
          -0.38179749948777253,
          0.13087778465507127,
          -0.01654363619470281,
          0.08236420473278616,
          -0.34370253418167085,
          -0.2466683684658952,
          0.2741721326189579,
          0.0319084617263121,
          -0.3197687733093008,
          -0.034071009795241726,
          -0.07864571897645665,
          -0.32042412163487477,
          0.1759882771769036,
          0.2357998821399905,
          -0.17269513126430672,
          0.02521637542878734,
          -0.12935506237610805,
          -0.17409027316626338
        ],
        [
          -0.35982539476888525,
          0.757576759486207,
          0.28467744957651575,
          -0.5238324850924524,
          -0.04164173532281141,
          0.6833099407011411,
          -0.37409660355278834,
          0.28370838710353785,
          0.5510866395065339,
          -0.4607319627733758,
          0.4371324436203549,
          0.4824532119495612,
          0.18197518836634954,
          0.20422868924448592,
          0.09972743556417557,
          0.46998183804215116,
          -0.761725413587376,
          -0.2560510124002468,
          -0.061442971654433715,
          -0.23819714174146375,
          -0.014752931310647786,
          -0.46376015209833993
        ],
        [
          0.09541826019170008,
          0.25115417162681447,
          0.5400450487144054,
          0.8304828992526866,
          -0.6075145593666195,
          0.1719156472565162,
          -0.5822939962546686,
          0.317366915825317,
          0.38576583557695165,
          0.5161947385773009,
          -0.05187847053914438,
          -0.1320218958711347,
          0.3476971779343375,
          0.11101729476132241,
          -0.22296866123674378,
          -0.31413966761339973,
          0.10992092118933675,
          0.2769964100801528,
          -0.5235078498980545,
          0.6741199957839991,
          0.4966110388530821,
          -0.3829897850754455
        ],
        [
          0.16240389498877708,
          -0.20656477471394602,
          0.47322466860582746,
          0.14028053690434358,
          -0.20713262404890925,
          0.6557957868920994,
          0.48154429828203554,
          -0.04829903516078141,
          -0.25489517380993815,
          0.44392606975776533,
          0.21736482677968302,
          0.09656943676030678,
          0.016186211746505474,
          -0.19754140611735652,
          -0.34799677505522536,
          -0.06378468418592818,
          -0.14630523918024552,
          -0.5475513418207151,
          0.19129517262395607,
          0.14032433241158052,
          -0.3187109530525652,
          -0.04864909953592574
        ],
        [
          0.6391971346337294,
          -0.3785028026639243,
          -0.6403111646581089,
          -0.1766339379848956,
          0.2921262474090863,
          0.056952118322181944,
          0.6778007328913128,
          -0.4650335834771124,
          0.17686873996372465,
          0.6793379149503181,
          0.10012080498855502,
          0.1330358322812435,
          0.02593040689222988,
          -0.6171875560476239,
          0.4230106132146276,
          -0.1859359918161335,
          -0.19426694924669832,
          -0.4884184133222448,
          -0.29583360462769237,
          -0.03614488885158718,
          -0.4785038618082132,
          0.2841379842052351
        ],
        [
          -0.22792209196508478,
          0.28442471290881244,
          0.17065839617363654,
          0.346038999477022,
          -0.26617623281204145,
          0.013782485485020151,
          -0.15184181140374772,
          -0.08097360490198953,
          0.028172149902351624,
          0.3821167815880035,
          0.228739167601003,
          -0.37153314116329667,
          0.32494060093275656,
          0.2946676993874204,
          -0.010768261188670214,
          0.34948989497787375,
          -0.13326766935564768,
          -0.20644399343636705,
          0.24518424876664335,
          -0.05143007748841441,
          -0.3102116402898706,
          -0.3374060448272422
        ],
        [
          0.3927468895427003,
          -0.25010548098557345,
          0.25368046693197627,
          0.05845952523617176,
          0.2153517048847476,
          -0.001392633141776857,
          0.3868743743844798,
          -0.2820024467894,
          -0.30897619065073073,
          0.17713934386014096,
          0.16095802558567965,
          -0.313139790167478,
          0.23233036011182256,
          -0.2759680431235633,
          0.24004849536917774,
          0.27875677845577,
          0.07224422709727826,
          0.12250066764676647,
          -0.2156213754287601,
          0.04513459019248971,
          -0.1298647148267261,
          -0.3488960931392555
        ],
        [
          -0.1672032390951913,
          -0.15933599062287734,
          -0.3916522634147271,
          0.23112940609644894,
          0.21731381532983038,
          0.25056578459120954,
          -0.08307521477046699,
          0.3603155951087777,
          0.19621526972566933,
          -0.013664345166170573,
          -0.3198696676796651,
          0.18032807225013026,
          0.3937681793527486,
          0.23991260462630454,
          0.07791490263452937,
          0.09967252082141859,
          -0.22234729853314686,
          -0.003992372303974646,
          -0.3695280112627421,
          -0.14887310549664312,
          -0.33450418316394176,
          0.380050202337418
        ]
      ]
    }
  ]
}
