{
  "layers": [
    {
      "activation": 2,
      "biases": [
        0.0,
        0.0,
        -0.00012056583529740809,
        0.0,
        -0.11239145856407032,
        -0.017914715735193643,
        -0.0003089338177579811
      ],
      "cols": 7,
      "rows": 3,
      "weights": [
        [
          -0.7393377652662089,
          -0.25523728517068167,
          -1.346528524275286,
          -0.623049392426004,
          -0.11955956160291487,
          -0.4489916347627875,
          0.6331287349026872
        ],
        [
          0.029947142703945242,
          -0.05669760431188978,
          1.3359394776394875,
          -0.5933636974762868,
          0.4560358419212212,
          -0.08165370763822771,
          -1.8763922464066232
        ],
        [
          -0.16620758175581365,
          -0.16273250290611357,
          1.48177954823968,
          -0.5061436690943348,
          -0.22441595406051598,
          0.21684997708021525,
          1.592227368473241
        ]
      ]
    },
    {
      "activation": 2,
      "biases": [
        0.2062528728819843,
        0.030214462613265772,
        0.0,
        0.0,
        0.061466411414116844,
        0.5161667043276248,
        -0.18274361829841868,
        0.0,
        0.5827559697636475,
        1.8465315532454958,
        0.0
      ],
      "cols": 11,
      "rows": 7,
      "weights": [
        [
          -0.38773775553905004,
          0.11900675016506064,
          0.021941419735017977,
          0.4639213159680871,
          -0.07904384050447683,
          -0.41465597168575197,
          0.27880281865606693,
          -0.35610713055239956,
          0.01866080045993791,
          0.09659136862608056,
          0.06029178843389643
        ],
        [
          0.4213812676813587,
          0.20511755131054055,
          0.41996974346689325,
          -0.5671781994460687,
          0.5704923157768959,
          -0.5051670036510081,
          0.06418840951468471,
          -0.2796527745197498,
          -0.44647310897996184,
          -0.09782446269175717,
          -0.5029844884847471
        ],
        [
          0.48536906909864264,
          -0.5192691574935296,
          -0.252912664289135,
          -0.5110537693561951,
          -0.11763711147652649,
          0.6352000123869015,
          1.0952544189983775,
          -0.49299014988083767,
          1.7731755182809505,
          0.0031055278325307703,
          -0.09765648864432247
        ],
        [
          -0.0018197097959371917,
          -0.3614106441055437,
          -0.2504669334668488,
          0.5366034336819375,
          0.3128795718248154,
          0.32097115216326716,
          0.25409696052666236,
          0.4456143622697791,
          0.29702720270611627,
          0.17043909806311353,
          -0.48313960821126584
        ],
        [
          -0.5606563612547204,
          -0.503863607009802,
          0.4404121534229767,
          0.4827051503712211,
          0.05648271238446602,
          -0.11210718373599048,
          0.47030513049738637,
          0.0528947403519738,
          0.532165175638719,
          -0.06104815130038155,
          -0.2732093238491807
        ],
        [
          0.03347320626498485,
          0.13810448051762592,
          0.37661156896657766,
          -0.10052036350869584,
          -0.34535920087301314,
          -0.03740145006495637,
          0.08952601648711993,
          -0.11751345639895357,
          -0.08373799500661609,
          -0.20642405801171357,
          0.4149352011035034
        ],
        [
          -0.5457219290190998,
          0.2603209875428479,
          -0.3577117737862078,
          -0.11886184180618845,
          1.8061085329374345,
          -0.8149606131389241,
          1.0569059648055585,
          -0.5107410686922649,
          -0.3114790361185475,
          -1.004983964327173,
          -0.5753268640971894
        ]
      ]
    },
    {
      "activation": 2,
      "biases": [
        -0.016005945621829262,
        -0.3264328561412998,
        1.0586772303242045,
        0.23982359346516074,
        -0.1008176728100151,
        0.0,
        -0.05030924099812864,
        -0.2624298419523443,
        0.0009964586968295053,
        1.1986517857127126,
        -0.052411318355675356,
        -0.13373846237101225,
        0.9094680161838241,
        -0.09586517593190456,
        -0.07066743850460727,
        -0.435833965404403
      ],
      "cols": 16,
      "rows": 11,
      "weights": [
        [
          -0.045965894550485976,
          0.07496013979071166,
          0.10041418424069795,
          0.20576755139093753,
          0.47558131518240887,
          0.23497845928505362,
          0.28586180245990683,
          0.45858258871396085,
          0.42975819350420275,
          0.20081434818235455,
          -0.4589309392584398,
          0.5450187675730206,
          0.14317389526276397,
          -0.4863602709526989,
          0.22834284089707765,
          0.08763119049851402
        ],
        [
          -0.38820364429182297,
          -0.3105369808871092,
          -0.49318905395658713,
          -0.12474854464929358,
          0.20564235210641418,
          -0.1441099833670054,
          -0.4230077393604933,
          -0.16859413182850538,
          -0.05922357956537707,
          -0.08588027216124942,
          -0.13153429982953233,
          0.1116595943327015,
          0.15480791107247924,
          0.2740561392417814,
          0.05050791038382818,
          -0.04831158814151088
        ],
        [
          0.01908279765757171,
          0.07835833879931599,
          0.33579851473504857,
          -0.16647059214272283,
          -0.14768356197034754,
          0.01993737506091066,
          0.23190713852923434,
          0.05241621244669421,
          0.23564615536685982,
          -0.44959186143694085,
          0.31402719353683217,
          -0.20839150897945782,
          -0.27394170785526917,
          -0.13134907315806107,
          0.3431841993968133,
          -0.12867882400800654
        ],
        [
          0.16950609290661764,
          -0.13563089003828815,
          0.1107142417304701,
          0.38599327282136486,
          0.2985804499415594,
          0.39025288709300976,
          0.09069936059074532,
          0.3756377539418346,
          -0.23585043543430154,
          0.32405310957287453,
          0.010026997146610173,
          0.09949805961828492,
          -0.40173387829354185,
          -0.46790622392266945,
          -0.20887713682202758,
          0.09894628668724316
        ],
        [
          -0.2800583365754262,
          0.4602338890633783,
          -0.5993472589574244,
          0.7152801883562269,
          -0.5736156192278952,
          -0.14222891419934958,
          -0.1460257757400414,
          0.15702177962392222,
          -0.36905753331203994,
          0.11060058327436996,
          -0.25286640382111475,
          -1.2876024075336114,
          0.7425605237810204,
          0.0034409067479848213,
          0.3463829924106186,
          -0.248543894233655
        ],
        [
          0.20333423516734714,
          -0.6146719311202199,
          0.2605771906309592,
          0.3343749923348104,
          0.2648709410805259,
          -0.42044053793800684,
          -0.2372154755162022,
          -0.11662260826886596,
          -0.00926734021923069,
          -0.24570492727905516,
          0.07750142308572977,
          0.7496547264848172,
          -0.4152989352823494,
          0.14563653892310457,
          -0.3830095491840271,
          0.38795329522111616
        ],
        [
          0.10120092664199767,
          0.8087514359861726,
          -0.6080580056283764,
          0.3640655653311209,
          -0.16865171327655898,
          0.009645533484064864,
          0.16831463761717894,
          -0.061374038400609635,
          -0.36860922711196853,
          -0.581915171130367,
          0.2626655701850642,
          -0.4728654087664958,
          0.012696907559219721,
          0.5159076814525849,
          -0.530326209806199,
          0.6875748786316483
        ],
        [
          0.056463058012185534,
          -0.1097174419819133,
          0.09517847038118107,
          0.32299349214173134,
          -0.12018736277439397,
          -0.05067388543604477,
          -0.2585590819094422,
          0.04555660123605001,
          -0.05351612533824026,
          -0.3386871104632419,
          0.2429847027298103,
          0.09019494754656174,
          -0.4647673215732908,
          0.03558974873986701,
          0.012311797122755305,
          0.14256655392001658
        ],
        [
          -0.434088862335592,
          0.01242201433014247,
          -0.4790094310969313,
          -0.6440671607278842,
          0.7705742900239438,
          -0.31942797500123,
          -0.2017087083416807,
          0.03422566313637242,
          -0.0056743551537629935,
          0.34072390859759566,
          -0.4069466877026473,
          0.7158240921334265,
          -0.9533541274561125,
          0.9741359146117764,
          0.27790187974731073,
          0.7257568046418261
        ],
        [
          -0.2751455122894133,
          -0.5176060879297061,
          0.9671889752236058,
          -0.8351968548247195,
          -0.11448825760836306,
          -0.2712930774043327,
          -0.16541147106744983,
          -0.479992057089484,
          -0.4566943417707756,
          1.0381607330443312,
          -0.39167933596223264,
          1.337180389094376,
          0.4156069700505363,
          0.37420512899123703,
          -0.4141417065233428,
          -0.20958294471614106
        ],
        [
          0.10772391185148791,
          0.44468231729723434,
          -0.14241623498958414,
          0.020888365136381874,
          -0.0008835584105448672,
          -0.1982268437619342,
          0.38058404310898497,
          0.14868053250144686,
          -0.30969290734242194,
          -0.4073980002920332,
          0.3064756276598447,
          -0.1433703834445171,
          0.33481205852556867,
          -0.3563655727131135,
          -0.4250348934564229,
          0.11995337005679754
        ]
      ]
    },
    {
      "activation": 1,
      "biases": [
        0.2842338463015438,
        -0.6764003905361637,
        0.5434089621581938,
        0.2708140817632957,
        0.34814421085660874,
        0.12429053459588746,
        -0.4235180729435253,
        -0.4707445806139128,
        -0.45447415856660883,
        -0.5111238039957963,
        0.04055400024987901,
        0.0004846099092190351,
        0.025582241370858124,
        -0.19250950378686485,
        -0.27737581052692256,
        0.6409565682226958,
        -0.042304187711270286,
        0.3704311891139314,
        -0.013528566607537021,
        1.0661454823080287,
        0.3722111565134791,
        0.3450586905829405
      ],
      "cols": 22,
      "rows": 16,
      "weights": [
        [
          0.2786288953409874,
          -0.34274318115753505,
          -0.36359095771302175,
          0.04208266773815439,
          0.10973167901151264,
          0.16939470705402498,
          0.2713199754000813,
          0.012014372212837248,
          0.1369098673002135,
          -0.29769532917612745,
          0.24236919772596122,
          0.371519977388493,
          -0.14446319648178993,
          0.2635915394742006,
          0.28002329054753944,
          0.07873226113888702,
          0.38625797577913057,
          -0.2489150183908595,
          0.08118923952687708,
          -0.23360413601273777,
          -0.22443390649829603,
          -0.13238890917838053
        ],
        [
          -0.239137836984716,
          0.10505253340052785,
          0.3486903026424898,
          0.03937017676376895,
          -0.3177648661130984,
          0.5524234606039267,
          0.07858477382012698,
          0.6122372461452275,
          0.014010703722946603,
          -0.25962835552686814,
          -0.2552835762874596,
          -0.4155478043466869,
          -0.03473043608700105,
          0.31681132947221285,
          0.328115764777596,
          -0.7213752526992269,
          -0.01524330631594018,
          0.39014180216753674,
          0.1819822533965122,
          0.41235139326598325,
          -0.09925703725831612,
          0.2765057037044515
        ],
        [
          -0.22242959398224924,
          0.16191726310120272,
          0.30767804260575066,
          -0.27944192005117013,
          -0.4645655384888796,
          0.21694157951086887,
          -0.2794798189491545,
          0.34710701096379976,
          0.21784701294500985,
          0.05928673393379659,
          -0.6647315599711915,
          -0.02238663898395971,
          0.3444449632767578,
          0.10433196116525664,
          0.5504262054160189,
          -0.9018406719557515,
          -0.2689752588327522,
          0.8985506726473139,
          0.37598019968529356,
          0.7441205070247245,
          0.6120286133297025,
          0.03262339587616802
        ],
        [
          -0.2900293208229896,
          0.18108359242981006,
          -0.5515118275680337,
          -0.0939607068702665,
          -0.05575028423486388,
          0.26149565848082473,
          0.12824627035835587,
          0.26417523555072936,
          0.0680938988549113,
          0.0737969793353002,
          0.14988087928625382,
          -0.5783615689865048,
          -0.732917007828696,
          0.3325099080909412,
          -0.20697098421323595,
          -0.14453085965437812,
          0.3240464095103717,
          -0.4530979002328824,
          -0.7116728949393601,
          0.4948055025978459,
          -0.09811730094210386,
          0.01428487350449469
        ],
        [
          0.25154017895048625,
          0.3683375909849862,
          -0.47583108693811627,
          -0.20061903639125026,
          0.14442619264274045,
          -0.15401615417342862,
          0.06712975858401092,
          0.057964343033669145,
          -0.046234063693637445,
          0.1848954349114553,
          0.6269258521303134,
          -0.39128151100503294,
          0.1803941395110576,
          0.5198160083969449,
          0.08002039257041439,
          0.3499330849121666,
          0.04606086615890212,
          0.07182904734663877,
          -0.6259355963685661,
          -0.1425880621758289,
          -0.015161134250518297,
          -0.36889380353507
        ],
        [
          -0.1838967740952452,
          0.1703302730489785,
          -0.26126785266213803,
          0.20906545871201276,
          0.03704305897636367,
          -0.00699268464545976,
          0.14517298399974266,
          0.3722143694830476,
          -0.02792797013945633,
          0.3079390313829524,
          0.363653510528918,
          0.10746280619224827,
          0.16560879591801597,
          0.17047587896666086,
          -0.11061393725836062,
          -0.0852156071426309,
          0.38932122204683955,
          0.0771402449579848,
          0.010025567593563295,
          0.11371846651131519,
          0.35748224431825376,
          0.3919361404613907
        ],
        [
          -0.08912497862444696,
          0.16127988412687946,
          -0.3038983929733485,
          0.3090671128795944,
          0.3175760685907709,
          0.09271736345600494,
          0.13338644110022846,
          -0.22423324277862866,
          0.29335343444772727,
          0.3183572250339928,
          -0.26242370712399476,
          -0.26968373002276164,
          0.27914085276578726,
          0.2244498021793723,
          -0.2394058142550806,
          -0.13446879796358002,
          0.3971781397792419,
          0.30848308263669116,
          0.019294765066612596,
          -0.033441328411847535,
          0.12539922497384334,
          -0.15861731039629604
        ],
        [
          -0.0976271125703116,
          -0.06797348869952873,
          0.1162296521590354,
          0.0889601711472312,
          0.23714971677580016,
          -0.326463081420566,
          0.3053641440179007,
          -0.016235754091129755,
          -0.03940494804505283,
          0.17591526645589828,
          0.265604780614715,
          0.18056906437680342,
          0.0037127101099811363,
          0.09051152565140151,
          0.027053607800560923,
          0.1974216217822281,
          -0.36082815954304637,
          0.13034410508654867,
          0.01686091457915147,
          -0.35084629772584586,
          0.05287221002108659,
          -0.21592723625691196
        ],
        [
          0.06790642864764791,
          0.083854436129487,
          0.27600903234212965,
          -0.03894594632330835,
          -0.2640130416038797,
          0.09529047794425549,
          0.3367753022850805,
          0.07321647768892978,
          -0.2755736569926093,
          -0.02645558157413864,
          -0.20043910171663665,
          0.21038883357695523,
          -0.168184609839128,
          -0.16085993180058156,
          0.12093716610313185,
          0.0388622546750455,
          -0.10281968154275933,
          0.005560385482164935,
          -0.27802206988369965,
          0.25390667335362094,
          -0.21363685234489185,
          -0.09718643078463947
        ],
        [
          0.13562642942826364,
          -0.8387801582177733,
          0.6614629725831409,
          0.22792369015796998,
          -0.03411429975945284,
          -0.2843399254356243,
          -0.09392105646734561,
          -0.22446371479521507,
          0.12929115925529608,
          -0.4287473502359167,
          0.11540278560455895,
          -0.25590177452102786,
          0.950508173102946,
          -0.28993758967172173,
          -0.4431508683709642,
          0.5718689414335429,
          -0.2856942369100913,
          0.7115265397013176,
          -0.3128089576683968,
          0.6049220686561386,
          0.5395776846042148,
          -0.07931197259717916
        ],
        [
          0.21184736246944322,
          0.00011234945821236836,
          0.013639847667124397,
          0.3817812118226872,
          -0.24551502459473454,
          0.11034369524297467,
          -0.19536045846265868,
          -0.021598382430785254,
          0.12886357332541684,
          0.19441764353326024,
          -0.016467086817259724,
          0.30695088697610007,
          0.13663099183494196,
          -0.051641797025691986,
          -0.029955040333213848,
          0.2292248696709122,
          0.18415780161897818,
          -0.22122178507789508,
          -0.05671264857731858,
          -0.07316292777140644,
          0.39179791063480773,
          0.25999137292198515
        ],
        [
          -0.41194805293455383,
          0.33679864240580065,
          -0.611546083962389,
          -0.504270349297338,
          0.3481472393657863,
          0.948648624488301,
          0.7483427068093443,
          0.06745204717609495,
          0.7166560124894534,
          0.1175771971885311,
          -0.301354684774866,
          -0.8950371759692545,
          -0.6720488283577668,
          0.48577220981193076,
          -0.4933115219843174,
          -0.1929210689949308,
          -0.10115419149562437,
          -0.3246265642288232,
          -0.5038099715527842,
          -0.6166728892325575,
          -0.10329441962585942,
          -0.03477634555391279
        ],
        [
          0.23837346410506027,
          -0.4652745434361028,
          -0.2419694619332107,
          -0.009285360962161546,
          0.024424811515102545,
          -0.27137629138687464,
          -0.21007896578903043,
          -0.4136170999291208,
          -0.2831155900266959,
          -0.5004182963987193,
          0.16135944122770554,
          -0.18446366001359668,
          -0.4464456855060418,
          0.5980256704033117,
          -0.3222131697730184,
          0.8775979617297949,
          -0.33690758653077624,
          0.6965154848316185,
          -0.043219568462860763,
          0.9613894904998601,
          -0.05713537601356381,
          0.07601981761440968
        ],
        [
          0.11214011326722628,
          0.06644618383452493,
          -0.05842126890656273,
          0.33235613373673656,
          0.23698892905740263,
          -0.2710007527931215,
          -0.2111702749546838,
          -0.3877624640325354,
          0.08587245748772886,
          0.39783941354292185,
          -0.274361718132473,
          0.44826563673945413,
          0.23928517131753335,
          -0.6684914192638571,
          0.5237679173934032,
          0.10552754858996383,
          0.010468117268536229,
          -0.6742180956342,
          0.16284363031289525,
          -0.11070409127626793,
          0.35937674926616814,
          -0.3720227693124462
        ],
        [
          -0.13087449253969125,
          0.05782002267521348,
          -0.3618710467300096,
          -0.4426271934974267,
          0.008141840661918427,
          -0.2603741799467945,
          0.23754339975642344,
          -0.3527236979756931,
          0.43880784975228365,
          -0.31452960579541034,
          0.1271014385166761,
          0.34772747836924406,
          0.16939634270151166,
          -0.28237987021323013,
          0.08237504838913398,
          0.11973757182719966,
          -0.2654104319072558,
          -0.2111268126305337,
          -0.11443937998308158,
          0.3794242010050307,
          0.022481015575358015,
          0.11763582624504083
        ],
        [
          0.5120673929215337,
          -0.25795405999812876,
          0.3896111646424578,
          0.288183906022959,
          0.4310990268075007,
          -0.0008289503382455811,
          -0.17464747160881738,
          -0.01429529187972696,
          -0.3578920692896812,
          0.06289638834876642,
          0.48783909205186266,
          0.6501155107256533,
          -0.3056211716774283,
          -0.34357364393164586,
          0.02335030424133072,
          -0.0423383107024318,
          0.44033599598790696,
          -0.16393623635429214,
          0.3130207845329249,
          -0.008572593118078647,
          -0.24318122960784805,
          -0.5283092037570262
        ]
      ]
    }
  ]
}
