{
  "layers": [
    {
      "activation": 2,
      "biases": [
        0.24859874127962212,
        0.17674353531826703,
        0.5656552955154678,
        0.0011031377571476984,
        0.35908034156711816,
        -0.008707574596835474,
        -0.007451009369816683,
        -0.03099812732977447,
        -0.034614141002700355,
        -0.0250953253944327,
        0.6023331335464287,
        0.6077150562231947,
        0.11818621450351505,
        -0.012433729055478297
      ],
      "cols": 14,
      "rows": 3,
      "weights": [
        [
          0.9482542765200538,
          -0.3978588911933302,
          1.195282288684802,
          -0.8193807881900581,
          -0.8331185890871305,
          0.27618403570910566,
          -0.439523890788548,
          0.025435082971880716,
          -0.09871282360459051,
          -0.1771376764313848,
          1.1256404187939584,
          0.12974189123210014,
          -0.1308311274475959,
          -0.3741538711918126
        ],
        [
          0.7962913924341083,
          0.9774643807802618,
          -0.5766225313255989,
          1.2356772592467562,
          -0.22818698051523773,
          -0.28866026037763687,
          0.005258860319652168,
          -0.5462824507433612,
          0.19942465815442492,
          -0.4853726751176801,
          -0.5823355467548205,
          -0.6990932589010177,
          1.4399421890650506,
          -0.07013474078275643
        ],
        [
          -1.2016571022119564,
          -0.6232169109735318,
          0.023150735100588293,
          0.48339137759438067,
          1.1489932218561174,
          0.2953895355870176,
          -0.009031098763954836,
          -0.011200765298305429,
          0.1321892769490834,
          0.02391345589251438,
          0.7117779234780566,
          0.48191224158829643,
          -0.1317038198012137,
          0.8648086006537667
        ]
      ]
    },
    {
      "activation": 2,
      "biases": [
        -0.010842192331417373,
        -0.06386425348191337,
        0.19020626819512793,
        0.19973136413919093,
        0.013107847537354613,
        0.23087338593928167,
        0.003857268356053886,
        0.07718287471291495,
        -0.07625966115450025,
        0.0,
        0.14941426565831425,
        0.4573369676974337,
        0.368501401699258,
        -0.1857377560268078,
        -0.013481988306497742,
        -0.570415234318849,
        0.26642344179312577,
        0.20697517872634927,
        -0.06588931284070344,
        0.11408679755927771,
        0.0,
        0.222839977684095,
        0.8241478068259551,
        0.7964832560105749,
        0.4744821361521969
      ],
      "cols": 25,
      "rows": 14,
      "weights": [
        [
          -0.35472095931602543,
          -0.051375326845267355,
          0.1289728545046308,
          0.07783329557268441,
          0.2728881779350264,
          0.22000973974571283,
          0.09714495471915377,
          0.1518613798370971,
          0.381931736991658,
          -0.038568869815732286,
          -0.3248798948176262,
          -0.15428974530446232,
          -0.059314613433459056,
          0.8559502264495111,
          -0.2677165277499804,
          -0.17192701143351363,
          0.19909930235998363,
          -0.3529279104832922,
          0.27977390876011643,
          0.5669747804067576,
          -0.2446769869883932,
          0.30928303089651776,
          0.9407402653354539,
          0.09154820528146523,
          -0.5120442638715955
        ],
        [
          0.1323799765476859,
          0.30776708576076656,
          0.7223153439124449,
          0.26593750082793866,
          0.44088904276233215,
          0.45906159111988654,
          0.10820081812578147,
          -0.055124469716313,
          -0.05922773290571664,
          -0.2592844964525592,
          0.2554001699434247,
          -0.33537659947849696,
          0.3670919881598578,
          0.37482118212487736,
          -0.130985589937494,
          0.3796615835428868,
          0.3045967489100488,
          -0.17481175752708172,
          -0.16613314519858235,
          0.2628999192550075,
          -0.12299873648152057,
          0.49889680099653655,
          -0.24034466171031027,
          -0.2729403363042171,
          0.11249419473108584
        ],
        [
          -0.2041499993175606,
          -0.3175893011692875,
          -0.28688776386673126,
          0.11681574033767067,
          -0.03930564538776231,
          0.14471727111616065,
          0.21448772667102292,
          -0.1277011182177819,
          0.542607226403107,
          -0.09400910771267976,
          -0.5007821107434854,
          0.09987043246098584,
          -0.5041679266520542,
          -0.003727691272290656,
          -0.5447819530945986,
          0.4923484297576393,
          0.014266823242473376,
          0.09407754944097801,
          0.4565365545152997,
          -0.41844572302845384,
          -0.17569968845649941,
          -0.3542221087071634,
          0.6364671613308145,
          0.4506875933206999,
          0.21194440605503007
        ],
        [
          0.0919478508896589,
          -0.15993583152202295,
          0.3355140341381635,
          0.715971170381974,
          0.3961579629918159,
          0.025047067080299985,
          -0.115773311970258,
          0.4496753758351536,
          -0.13609710371545472,
          -0.0994886537977631,
          0.5455638828073506,
          -0.3524011810778861,
          0.30051962354713835,
          0.2773029978244063,
          0.7687847576032886,
          0.31725774728999967,
          0.6893793634979142,
          -0.20848831668120274,
          0.24943511428160184,
          0.3308083732802148,
          -0.26013324788709713,
          0.021357043878351255,
          -0.39507114705291635,
          0.10676627046205052,
          -0.34658843983437676
        ],
        [
          0.06917068693769263,
          0.1539454080952265,
          -0.5111224764261137,
          -0.04676880006182994,
          0.008361270530325267,
          0.2530325850130415,
          -0.35054526210664977,
          0.05700159957461544,
          0.16748614918496993,
          0.37259607942919243,
          0.8160304214185272,
          0.49689466937824334,
          -0.20572327499020882,
          -0.6502455208008658,
          0.49009536557704403,
          0.38555237632945105,
          -0.29736053469402524,
          0.03688685062950422,
          0.13582815253930247,
          -0.15168397084589785,
          -0.23861273804296787,
          0.17452388911225553,
          -0.018504868909158076,
          0.08698894200984189,
          0.5909425277996614
        ],
        [
          -0.3435979898494272,
          -0.16192076066900166,
          0.24554201722609723,
          0.18525874086044172,
          -0.28223561282466825,
          0.31732555310923144,
          0.23260750522243756,
          0.062332032658287614,
          -0.3083830001443503,
          -0.15812026605622548,
          -0.10359149643053515,
          0.3020927985939587,
          0.37192673361563117,
          0.11116681501075029,
          -0.05123194023408636,
          0.25057661528844616,
          -0.23891797469724038,
          0.14057651703486024,
          0.1822073075529841,
          -0.18988741037352952,
          -0.18155698257348887,
          -0.2802944682546303,
          0.1958214231100297,
          -0.370400999465264,
          -0.15561714375929897
        ],
        [
          -0.3386453137009086,
          -0.0925921087215538,
          0.256111106818298,
          -0.1632956477997501,
          -0.3550661376168058,
          -0.014660666781325457,
          -0.14019364560531605,
          -0.31414825290301723,
          -0.37084874464851036,
          0.23855178568857371,
          0.20326793481445157,
          0.3477801151483493,
          -0.23672073547504363,
          -0.3571938860319777,
          -0.3338428777031553,
          0.3329909671145268,
          -0.15089651159115292,
          -0.3355897719663597,
          -0.11518203883978757,
          0.024233565937788915,
          0.13885663751642974,
          -0.0386147540046437,
          0.1590588131969367,
          0.03396547402275475,
          -0.18793056246410908
        ],
        [
          -0.013896568585850672,
          -0.0759952059071495,
          -0.3603016041402454,
          0.16196121750957992,
          0.1377503416196452,
          -0.289289029221832,
          0.21542059984174572,
          -0.30535150043095294,
          -0.22065133022300545,
          -0.05840469717596237,
          -0.12493300588504655,
          -0.047925227334006365,
          -0.25981029299870456,
          -0.018329811052318075,
          0.26113579755132016,
          0.06373210199650747,
          -0.2194555111020077,
          0.19642143754343344,
          -0.3717507292555934,
          0.061952286538695785,
          -0.01850140575547878,
          0.29727290618732527,
          0.035568125514991805,
          0.01680583257075205,
          -0.22482138128931228
        ],
        [
          0.2100279500392871,
          -0.15098854088132335,
          0.36853009233651707,
          -0.30451061789619777,
          -0.09205451630212517,
          -0.07909113995284923,
          0.10244961945795203,
          0.34929723426749926,
          0.21567914370113994,
          -0.24260520492652785,
          0.30713824015658636,
          -0.3685768640965839,
          -0.37646213228855335,
          0.1219841317589269,
          -0.1213125508196576,
          0.08082270948521414,
          0.22916876451149681,
          -0.04962588560948939,
          0.0832841728923533,
          0.25082737995933585,
          -0.30516847344852605,
          0.4028426157407577,
          -0.19650204402780508,
          0.290934477417402,
          0.17689274794307838
        ],
        [
          0.35545593092800437,
          -0.030844751764111725,
          0.29384675681514205,
          0.17305362322446882,
          -0.34713890768732175,
          0.07153342044246358,
          0.13557160632523899,
          0.0622034639706809,
          -0.22042285400025358,
          0.1810025929688774,
          -0.0171978827833199,
          -0.2768302371379729,
          -0.0823685465981214,
          -0.2807054753085092,
          0.025909397253709502,
          -0.09945458519550722,
          -0.12575307035616096,
          -0.2658732156896241,
          0.3816362474722123,
          -0.37509840995931587,
          -0.13736711558879297,
          -0.07218833552837123,
          -0.33939426419902813,
          0.15495117207036904,
          0.13414104918250067
        ],
        [
          -0.33751416711204096,
          0.10997093576631513,
          -0.8300701297409545,
          -0.20554718640215494,
          -0.5176291670972358,
          0.08212792777409669,
          -0.32953138790615866,
          0.3405555731919459,
          0.620935268974656,
          -0.04290823558804321,
          -0.032750163105002984,
          0.4840631518237521,
          0.07528293763203105,
          0.13990636310763033,
          -0.32614249105070087,
          0.3604866215019082,
          -0.06760607361280759,
          0.7085266290318301,
          0.4419465671898441,
          -0.42099188265232307,
          -0.04996885414080703,
          -0.02563138942464061,
          0.4945453321896324,
          0.1545592210544152,
          0.40788803572119076
        ],
        [
          -0.18526376995316748,
          0.057132375133824014,
          0.31331866078490106,
          -0.3315388145914975,
          -0.23961920562036926,
          0.10362212832210903,
          -0.3357779228158603,
          0.30164326492363314,
          -0.26773236420323965,
          -0.2358027602775015,
          0.1592635582837484,
          0.29646161119296394,
          0.4861248403709373,
          0.0324962619594117,
          -0.21924716879045034,
          0.18308274859855422,
          -0.23526029541310253,
          0.2616748620658314,
          -0.13650752516188366,
          -0.20501309569777595,
          0.3349913874367238,
          0.19337770320620423,
          0.40428466841592214,
          0.18608623715308245,
          0.4591560597828833
        ],
        [
          -0.1917558165555599,
          -0.006685666103868134,
          0.1563068562762543,
          0.578350698410282,
          -0.22049188885213541,
          0.3804189232760867,
          -0.09964112792642867,
          0.4310508052664709,
          0.35622149488019467,
          -0.022133111544432933,
          -0.12979765991517403,
          -0.295065627515886,
          0.6232225669635014,
          0.37885501904440877,
          0.6048547213006998,
          -0.17010783275190525,
          0.4697306310496793,
          -0.15886035156901765,
          -0.4224644240908029,
          -0.09673314713680728,
          0.09824110202854615,
          0.49969034404881607,
          -0.40751863970169283,
          -0.38810979108679,
          -0.315899886836784
        ],
        [
          0.09733989674804612,
          -0.38376995016473,
          -0.41961790728799303,
          -0.057037624043576284,
          -0.15062291093448857,
          -0.40481118259292775,
          0.3694143100488989,
          -0.08303051260805061,
          0.34092532189178953,
          -0.15501350528711047,
          0.2789132077263811,
          -0.23978978864742645,
          -0.0741103360643884,
          0.23629061336582294,
          -0.09757827607272788,
          0.507600841249928,
          -0.2719021695383837,
          0.10966035743403157,
          0.3690904392284885,
          -0.2097117950324088,
          -0.1596560697350799,
          -0.094656153250374,
          -0.1706543142783729,
          0.05986060537442928,
          0.28547837336816156
        ]
      ]
    },
    {
      "activation": 2,
      "biases": [
        -0.048840458182740104,
        0.16742460717382376,
        -0.015004880795980705,
        0.6813083152329731,
        -0.25111061596616685,
        0.004403001644267213,
        0.0,
        0.028658400263991406,
        -0.00328083565498518,
        0.09941086137009537,
        0.04986597520963238,
        0.2903043851382712,
        -0.23104701663630758,
        0.4090176239824551,
        -0.011359366298691753,
        0.15976635957422036,
        -0.24101257276656948,
        0.7197738135464342,
        0.03033341449131099,
        -0.22687824597051398,
        0.0,
        0.05415047131671995,
        0.22322926084660374,
        0.26474794060656004,
        0.04186025700936638,
        0.09213300568994748,
        -0.028914827769184512,
        -0.04872100230692827,
        -0.018563782280238302,
        -0.012798393091178133,
        0.32548582654452096,
        -0.051457508639138144,
        0.42731507971908195,
        -0.014385426058467899,
        -0.18068654345063073,
        -0.03502381541938666
      ],
      "cols": 36,
      "rows": 25,
      "weights": [
        [
          0.20189147609791627,
          0.18155729858438605,
          -0.29683116687948996,
          -0.2637983485291434,
          0.28572166726193576,
          -0.01792140595959388,
          -0.2722851819310665,
          -0.1345102716453001,
          -0.30898546740635563,
          -0.043005626309848645,
          0.2196432161090753,
          -0.07643360769237238,
          0.13895601097499422,
          0.10918879446694178,
          -0.20193041611857263,
          0.10242979523085541,
          -0.12286631962050017,
          0.10884812862501037,
          -0.15210896361098009,
          -0.24161617664729834,
          -0.06142130781760708,
          -0.019865421276217075,
          0.03466519845380204,
          0.07728942706287419,
          -0.3067445105215185,
          0.08959062893430052,
          -0.10213743085727725,
          0.1447595591776689,
          -0.13704012105361751,
          -0.23291532328886452,
          0.15379933577001462,
          0.16347765222423985,
          -0.22463942641705864,
          0.21223364691182928,
          0.17549023580529535,
          0.26485248477501855
        ],
        [
          0.1364825226947382,
          -0.13796248969022457,
          0.30546153724165537,
          0.0576600560622802,
          -0.10609813553713701,
          -0.12504683304805944,
          0.11929885823028996,
          0.31331393568308,
          -0.1156017569556078,
          0.2510213115927003,
          0.17778256218248298,
          -0.01255198927004194,
          0.13102929675013614,
          -0.1949898128463992,
          0.20401798114022562,
          -0.17224381132988886,
          -0.17709962062784013,
          -0.1222241147389225,
          0.1758450012032029,
          -0.02626894734037986,
          0.1456588255763002,
          -0.1811097538004354,
          -0.09963372124047296,
          -0.190800789332186,
          -0.262038363559673,
          -0.2345677726085322,
          0.1595814700530904,
          -0.12998687916086593,
          -0.22408618199852245,
          0.05971222024395513,
          0.0018838811226552926,
          0.21368987295020256,
          0.012566679466874528,
          -0.1601203933783162,
          0.14081954351867612,
          -0.21777707873348343
        ],
        [
          0.1335941538620694,
          0.121145102167719,
          -0.14958799156634417,
          0.19005786464871915,
          -0.18379561398209698,
          0.2528861176464418,
          -0.2624937779308682,
          0.6059202266665679,
          0.3031349974299688,
          0.03417096243028419,
          -0.46448129502511787,
          -0.3655195411043443,
          -0.3497151035743805,
          0.06361947970878287,
          -0.3093895736003082,
          -0.0007539643652750309,
          0.3829125993976461,
          -0.2221537171153806,
          -0.17523391613741732,
          0.07674170041798686,
          -0.0690566136856158,
          0.13602121526880265,
          -0.31882223830770423,
          -0.18682247750373432,
          -0.23317333998103498,
          -0.10904699126760176,
          -0.03782913987449232,
          -0.17923444735164334,
          -0.30252046933660776,
          -0.016739125586169704,
          -0.017785091609991643,
          -0.14911959296598243,
          0.7131106147998881,
          -0.2407447863585422,
          0.14658046517761583,
          -0.0297112712268298
        ],
        [
          -0.22096867926934344,
          0.046817610553723556,
          -0.10718112132913193,
          0.00067076407805998,
          -0.04990031110642718,
          0.2506759771998328,
          -0.2833367836646366,
          0.3823934817106088,
          -0.2115115098277293,
          0.42549073741590415,
          -0.18618772057624133,
          -0.007478327975720245,
          0.10445004473121043,
          0.2991346530055706,
          0.2595420843092427,
          0.09936753015968584,
          -0.0058320117398355555,
          -0.43740042106507315,
          0.06282978128562652,
          -0.29743108137851293,
          -0.22191706786212703,
          -0.3261417762384098,
          0.07341434136671218,
          -0.10972797957421059,
          -0.0885340920506025,
          0.4315379528505132,
          0.2884442024908953,
          0.16651478386489846,
          0.22262011627340295,
          0.04525149315199385,
          0.14544401154314218,
          0.08839130606654783,
          0.02326215597691388,
          0.19243652747918993,
          -0.236675881272019,
          -0.22329695059457966
        ],
        [
          -0.12935571978765967,
          -0.31286898682765124,
          0.06903221486034497,
          -0.0010594372099114527,
          0.30611688561638106,
          -0.1274248756976293,
          0.04104278552287296,
          0.3686040956734773,
          -0.01880355077902328,
          0.031806786431218495,
          -0.2655233811294704,
          -0.24324634132878845,
          0.14920781646793088,
          0.17793034150233536,
          -7.207722676772082e-05,
          -0.22426834712228252,
          0.2546976919222024,
          0.11939683615049028,
          -0.03169965767644968,
          0.2391692146375137,
          -0.1313730377969991,
          -0.3057168025304719,
          0.13327244381821332,
          0.21638503129399245,
          -0.2644825209468846,
          -0.1161171409098582,
          0.26569347278167005,
          -0.19384581909803636,
          -0.34151237813406043,
          -0.2521822990095025,
          0.2497583920660787,
          -0.16690178032640843,
          0.21623263781816984,
          0.1794688896452528,
          -0.11688724072859763,
          -0.23304999405213161
        ],
        [
          -0.24521487628077338,
          -0.22609808380662103,
          -0.19571553800538058,
          0.27122611229358184,
          0.16296112160467968,
          -0.19821524722740133,
          -0.16895672297169448,
          0.1427579671203059,
          -0.19284494795592005,
          0.10796867232609203,
          0.18465614548026188,
          0.04606053745355046,
          0.049900873974252156,
          0.3518126815718151,
          -0.20044484121208828,
          0.37082065255466623,
          -0.22081056638766372,
          -0.17948954929630676,
          -0.20044194275164123,
          0.09157496775862271,
          -0.06647663529037899,
          -0.1636021516004902,
          0.12929805228493954,
          0.16660825740914517,
          0.06624205967437237,
          0.23102754344285453,
          0.08850985155516126,
          -0.0954684865850592,
          -0.3460772650490607,
          -0.13326305307642888,
          0.12411537116936233,
          0.10661519741727474,
          -0.07379799918834559,
          -0.1300303844398587,
          0.2610769337730598,
          0.16236548005709123
        ],
        [
          0.011679344127580055,
          0.2282469455718546,
          0.2906588199257397,
          0.2599366911154652,
          0.17425781027616477,
          -0.18102371285526703,
          -0.09467484190541929,
          -0.07041236388106278,
          0.25936028170601,
          -0.20977420190407983,
          0.00899702482804597,
          0.10236693189585075,
          0.07456283929035919,
          0.21093301549238538,
          -0.27940508001582687,
          -0.1427888720652251,
          0.09078163689863192,
          -0.30382814884180953,
          0.09039523715232574,
          -0.1467032322462992,
          -0.14047350403193856,
          0.2997675842511337,
          -0.14820383522694033,
          0.2600312514841653,
          -0.055322065585432796,
          -0.2411970557246163,
          -0.138826698554107,
          -0.22743399705281567,
          0.30945449445353024,
          0.11186757457994616,
          0.12701859670343815,
          0.22400207104075137,
          0.23498455240764432,
          -0.052781503075540914,
          -0.10461859179841095,
          0.2725302823227848
        ],
        [
          -0.302134878230369,
          0.22909201252072087,
          0.07466271803383236,
          0.40812971640603035,
          -0.11247928694804711,
          0.0668724833934797,
          0.1333043464935349,
          0.129791536274313,
          0.01581357036892549,
          0.16792082413402928,
          0.23491733127580944,
          -0.29453727944123237,
          0.20697126045247932,
          0.3263420013848758,
          0.10438659665923641,
          -0.07767693449788277,
          0.39943129575308906,
          0.048114697832184056,
          -0.05394877975687791,
          -0.12258798025768593,
          0.030999111753763818,
          -0.21820391191565314,
          -0.043631909219348945,
          0.03224104802499671,
          0.09181963659103298,
          0.30809369476819826,
          0.11730767483830574,
          -0.0772125216204488,
          0.09055471364933738,
          0.020540430649395692,
          -0.2649138483368652,
          0.06931035027229367,
          -0.13226548133703922,
          -0.17950048207662858,
          -0.23636438127421042,
          0.09692266404775844
        ],
        [
          0.18436004131021175,
          -0.3104146142140843,
          -0.1330236164756454,
          -0.13974306057685373,
          0.34923697717886437,
          0.016068867325163824,
          -0.09102060776581433,
          -0.5778305281107561,
          -0.13505694647973132,
          0.347246797375202,
          0.4424873443811875,
          0.18321727612235605,
          0.3610032541890213,
          0.3031410287817031,
          0.21343266494384944,
          -0.018042979823459034,
          0.3598776202116465,
          -0.05334901479889913,
          -0.21237228476750825,
          0.03177417879950415,
          -0.24271879803778665,
          0.05647189390992386,
          0.23283623235733716,
          -0.00517545346397939,
          0.2533796730449629,
          -0.10178367419585176,
          -0.27167926918948737,
          -0.25070687957260557,
          0.3207878677558114,
          0.031084637791499812,
          0.10651847145163722,
          -0.14515477829701023,
          -0.3527748240190811,
          0.07381461085829012,
          0.10622632541342755,
          0.031304682782909134
        ],
        [
          0.24587255000709948,
          -0.07726541447759448,
          0.19127148992537749,
          -0.2111935030227388,
          -0.22967177968186786,
          -0.27531763464677367,
          0.07951280849070286,
          -0.25056510045328595,
          -0.036474352376647645,
          -0.09362032475315434,
          -0.10699646627133087,
          -0.1453964285993424,
          -0.28498543746308774,
          -0.2989146459900175,
          -0.2936242692664712,
          0.16174582516625252,
          -0.10194962273040406,
          0.14649153257077482,
          -0.3043748453488961,
          0.23559297351173392,
          0.25947478833815685,
          0.26342975136946506,
          0.07697525442806864,
          0.2691096225240519,
          -0.23342781808275356,
          0.07952030780042271,
          -0.040490398490479154,
          -0.12250791143846868,
          0.07218263033053682,
          0.054053055946777145,
          -0.11480765848138218,
          0.09829818531487187,
          0.050485297975931785,
          -0.22750736907235333,
          0.23581319238464202,
          -0.23013607589373455
        ],
        [
          0.049210381778090465,
          -0.32705081838421435,
          0.04338805255599431,
          0.07700946900013589,
          -0.23900463366004732,
          -0.039865578330183074,
          -0.29808038363724665,
          0.05608277891200833,
          -0.11495848985095178,
          0.5068958128045858,
          0.3603486116305706,
          0.23421782523604667,
          0.13417761833208286,
          -0.2721183425856802,
          0.26028557514970846,
          0.05676780530266703,
          -0.026997598683102645,
          0.34542595197608805,
          0.2526721556067159,
          -0.07928930161993344,
          -0.2768174460598581,
          -0.33431861451387773,
          -0.5071913306340802,
          -0.09453487606783363,
          0.3629812766480248,
          -0.11865367075087067,
          0.08057618883509275,
          0.5411157409948992,
          0.31830567928354275,
          0.2116415224465451,
          -0.27691782072860105,
          -0.08695392610549015,
          -0.3158638368241258,
          -5.824999373550425e-05,
          -0.29617864662551885,
          -0.2751723278663969
        ],
        [
          0.452381490434375,
          0.4244243359570741,
          -0.12978223276998108,
          0.08822659539867429,
          -0.23884335226626138,
          0.26661212660480743,
          0.009127079802798505,
          0.21207321034563897,
          0.37578589406179624,
          -0.051614381802012485,
          -0.14823746705461988,
          0.0028896067002960805,
          0.22291307387670453,
          -0.24328631561455782,
          0.177432640682869,
          0.24018252152048206,
          0.21712430993493978,
          0.3960071459227163,
          0.06717731648295489,
          -0.03045108073335008,
          -0.15720852372118327,
          0.38141467228676906,
          0.0896075728171838,
          -0.22439266146913567,
          -0.5026064709740727,
          0.06499540727222744,
          -0.23135531388413347,
          0.27595843931571007,
          -0.19321284724311164,
          -0.08691399626835361,
          0.31880614953469677,
          -0.3038151840986535,
          0.07130784728548717,
          0.256501284233231,
          -0.18520835761631452,
          -0.0881142999481723
        ],
        [
          0.07236704709458881,
          -0.24674676628102452,
          -0.10555033272503041,
          0.1859890177805422,
          -0.3670798509857284,
          -0.12427325507713087,
          -0.2774315602245487,
          0.4523163802276491,
          -0.2064106068702031,
          0.29424696422192514,
          -0.3222998238314537,
          -0.005382705879105588,
          -0.28369297613331074,
          -0.19068591572997862,
          -0.13448196123092424,
          0.12096785201518177,
          0.34296615992230034,
          0.06544522235453866,
          0.3073395458375263,
          -0.4311810724535282,
          -0.22645521752512918,
          -0.0021116497975108206,
          0.29147225339986743,
          0.17060990689314162,
          0.3609129899999922,
          -0.012772449476308262,
          -0.1830223142783688,
          -0.25042459590787947,
          -0.003241838623952298,
          -0.13661829317727736,
          -0.12415066823424774,
          -0.2536354393115362,
          0.4005272539081406,
          -0.1648081009419819,
          -0.3169202903164246,
          0.07810525476090673
        ],
        [
          -0.34125353935187525,
          0.11915895207671993,
          -0.2610426554926683,
          -0.16950053161472384,
          0.025549620622720617,
          -0.28476014878267614,
          0.18462552950637184,
          0.13175352268475818,
          0.09844258225428648,
          0.4046678994885841,
          0.2664886971394854,
          -0.22567056853802162,
          0.32379368043314766,
          -0.04512021226635679,
          -0.057316508149531945,
          -0.4073624792061799,
          0.5274057118581522,
          -0.47954617650630593,
          -0.2254846439900314,
          -0.06264218297391441,
          0.12045145496233424,
          -0.10573822102516078,
          -0.22906470025693573,
          0.10545402763057903,
          0.24688018474996865,
          0.2295930062058477,
          -0.2225665392059414,
          -0.5062672611785687,
          0.009310008720607119,
          -0.2904788893502613,
          0.0007621292686528488,
          0.15739187103162988,
          0.3256005139227861,
          -0.3021080606360246,
          0.3051467708103089,
          -0.16997374627381373
        ],
        [
          -0.21526217506541515,
          -0.0073312883829782525,
          -0.21367147941442888,
          -0.3822185258709604,
          0.19814040674896502,
          -0.2710162560818993,
          -0.004713968387120616,
          0.21535229119067686,
          0.10984953195443103,
          0.5706132205471514,
          0.10142102271461115,
          0.19853296326198247,
          -0.3082542570258931,
          -0.11660953943086966,
          -0.18700439777907116,
          0.08591771027981257,
          -0.3318635991453973,
          -0.240854142602128,
          -0.042696260067850905,
          -0.056116992443807474,
          0.2916980519221351,
          -0.31517427013503513,
          -0.331518660218485,
          0.2562461210243612,
          0.3820685215159144,
          0.028861810006618912,
          0.07849547386311514,
          0.4942305240083717,
          0.5727962499821078,
          -0.11711331283051173,
          0.019423263931493094,
          0.21507036086855336,
          -0.18979077421564217,
          0.03187423577868938,
          -0.27841821748872825,
          -0.30234092582450456
        ],
        [
          0.019283320629854415,
          0.01654944241187006,
          -0.17167179046555792,
          -0.19711145250476073,
          -0.04358632258749845,
          0.11963396682019248,
          -0.19416061075142094,
          -0.2675176607956238,
          0.3174128432385838,
          0.1420470550124761,
          -0.02462033822047314,
          -0.14852152216308617,
          0.456631482744163,
          -0.2560912122333082,
          -0.08286773325482545,
          -0.06188556691871001,
          0.33820869824661803,
          -0.11156481421765767,
          -0.12286939410483702,
          0.051319821289001054,
          -0.01721797567333333,
          -0.26515325727390776,
          -0.4472008965328756,
          0.019539293839568025,
          -0.13660086313798006,
          0.28399362583467963,
          0.2947056467573765,
          0.5409727379079541,
          0.2831291739501556,
          0.13548515074455345,
          -0.5581252710634526,
          0.0056216708998209925,
          -0.38686967146363255,
          0.026281575199150704,
          0.21462601974395612,
          0.09786823215005902
        ],
        [
          -0.3813836023734701,
          0.0811273194960329,
          0.07915783953128973,
          0.129920117956592,
          -0.023669200360022482,
          -0.2755484336740954,
          -0.30263422942121176,
          0.5274480028589986,
          -0.03519392109775933,
          0.3019950031675343,
          0.22666670199316863,
          0.08242712883900943,
          0.11850762532774133,
          0.16394104964771375,
          -0.2444308175333293,
          -0.17980301126884826,
          0.3378203195689866,
          -0.2282589606016354,
          0.24458602888782255,
          -0.41285149157970147,
          -0.22024492742318616,
          -0.30962709785040565,
          0.19890661110824912,
          -0.09320016692409237,
          0.38423757684293713,
          0.3673449757222839,
          -0.12263920006456668,
          0.14066436461323412,
          0.03331177437060923,
          0.0955297428232976,
          -0.14630595417622677,
          -0.19575500097056686,
          0.12933216855260155,
          0.010580801787336261,
          -0.020973459346241986,
          0.24389616748510806
        ],
        [
          0.25699226414644544,
          0.09073765854465572,
          -0.007681734911771729,
          0.2051904833915199,
          0.10634138060404456,
          0.03981268819437198,
          -0.0028531324638409678,
          -0.2964315814971749,
          0.015914308141892125,
          -0.37447741665449286,
          -0.28822183966836146,
          -0.07204385143110327,
          -0.40919167124347383,
          0.01003863229535233,
          0.2503933313736369,
          0.2505033091739395,
          0.26923943326511574,
          0.21293728376151613,
          -0.23206417465308304,
          0.017212939435298558,
          -0.25396084894043003,
          0.3100007880308206,
          -0.13338271327395068,
          -0.2716440603252382,
          -0.4070941505685232,
          -0.12169626276807054,
          0.07720492111945614,
          0.3036536564129916,
          -0.0761927215609579,
          -0.21746671254809932,
          -0.05797504293435144,
          0.2872911179797836,
          -0.1965459701535012,
          -0.32089925203796044,
          -0.010283867264707433,
          -0.2816820497195171
        ],
        [
          0.22229942790518117,
          -0.020483551863739558,
          0.26837393631178985,
          -0.02855984200684412,
          -0.0854514994675304,
          -0.3023591079795198,
          -0.2815936575493094,
          -0.27192145789622946,
          0.11061276261960279,
          -0.055549172423899465,
          0.1757807444696304,
          -0.24100437644305325,
          0.4944785161231292,
          0.16393212386327527,
          -0.2886160972443033,
          0.18671942850676213,
          0.15736391843071063,
          0.06267542899551967,
          -0.04191623455685059,
          0.45010326843240744,
          0.11658977195258473,
          0.2611176599097006,
          -0.04414751981250738,
          -0.06207412108344953,
          0.037626990966864386,
          0.2214961769974826,
          -0.1420303305090806,
          0.10380966477708374,
          -0.03508125583229989,
          -0.04792969542967885,
          0.053955756688014986,
          0.0057360719777750325,
          -0.302602867618667,
          0.11160208976042121,
          0.19497946860228663,
          0.07609315203975135
        ],
        [
          -0.04342159470405204,
          -0.2716808513696784,
          -0.25458850947264494,
          -0.10054997502306325,
          0.099438294036761,
          0.1725526906147013,
          -0.14298885896945776,
          0.11142646443838168,
          -0.2506980573422477,
          -0.324029663516739,
          -0.31101535600324215,
          0.11286358146962845,
          0.17106082906223788,
          0.029790851323189704,
          0.26915947818821173,
          -0.24205636298956457,
          0.41178915762346696,
          -0.1016171546786931,
          0.19506968409221384,
          -0.21364897768483085,
          -0.004853329658816147,
          0.30408117601968376,
          -0.18644759761508314,
          0.13110134300951637,
          0.17618145578877287,
          0.06772976625264898,
          -0.2610800550080711,
          -0.30101810328595796,
          -0.27629473162539286,
          0.18820992765889408,
          0.00054922418980355,
          0.21536529838272883,
          0.42199963274228613,
          -0.24084832531896322,
          0.15803575679419893,
          0.25223899175318315
        ],
        [
          -0.2746742537504523,
          0.2497435406313975,
          0.2307500261981426,
          -0.11076270723846836,
          -0.17285827310054722,
          -0.3111516562358341,
          -0.21881809458970983,
          -0.018069878564002235,
          -0.18537939721434335,
          0.007404494347909006,
          0.2331667924498711,
          0.23198969729120775,
          -0.22093120933656832,
          0.0874765569604378,
          0.20872810327283714,
          -0.22092826656946302,
          0.16991093368002025,
          0.11144910686253469,
          -0.0923473552645027,
          0.23310758163902465,
          -0.027405311389359612,
          -0.22778038600654996,
          0.211416408211187,
          -0.13643856345473182,
          0.23003722140962465,
          0.04201728452927634,
          0.24145852290160766,
          -0.2053599881720482,
          -0.289125217075791,
          0.16260867515055302,
          0.13666691049865778,
          -0.00945734531365661,
          -0.2247290078663447,
          -0.2932426839418998,
          -0.2948314501660918,
          -0.12070297932760712
        ],
        [
          -0.07529675457731903,
          -0.21451343963127392,
          -0.07484830195285205,
          0.25077369039705877,
          0.16751818421735246,
          -0.1422102993581235,
          -0.10868324781636789,
          0.11791073162453829,
          -0.2447122076913995,
          0.6026272527074626,
          -0.13045681768275863,
          0.1266935183319835,
          0.024350349436076894,
          0.029450092924801503,
          -0.12247237354207224,
          0.2564198121106175,
          -0.07941263358048624,
          -0.011481131497218336,
          -0.25136648490268454,
          -0.19429851634233952,
          -0.19953315157714863,
          -0.3075788230314061,
          0.0044758543372454655,
          0.26273379846298306,
          0.07062668881650634,
          0.10654021104237826,
          -0.09558962251577038,
          0.16129581230566647,
          -0.02700100405376338,
          0.024899353181442225,
          -0.003527327462183853,
          -0.29165617436144975,
          0.37966366140209973,
          -0.23130650878763406,
          0.12033895703995738,
          -0.1301178437907848
        ],
        [
          0.1382047806402195,
          0.16809644817609992,
          -0.02760502485677527,
          0.42932639836246533,
          0.3469013612744164,
          -0.08728841023399886,
          -0.08720572862712658,
          -0.2829077017090009,
          0.1691591519803153,
          -0.6085482478190376,
          0.6076317590998477,
          0.47871782116902967,
          0.12220523915835826,
          -0.057859649713995445,
          0.06049605250662723,
          -0.09177053293830878,
          0.044388058483542395,
          0.45612219660000697,
          0.15451513358978142,
          0.5433304078171871,
          -0.2749209484726397,
          0.4846853190216059,
          0.3765867624239059,
          0.08213061294691844,
          -0.1940715798358861,
          -0.40547641915703925,
          0.09862759710658181,
          -0.1629959584536477,
          -0.5650721962759669,
          0.1985125446555901,
          0.25553421570395535,
          0.2848909519641767,
          0.2833792944245654,
          0.016722229572346897,
          0.5453723603379076,
          -0.16364469058021794
        ],
        [
          0.164817102294255,
          0.36004321509605036,
          0.2760231614334364,
          0.3351109666020407,
          -0.3462500190393881,
          -0.2864790262629941,
          0.21668157732314827,
          -0.5080659210181391,
          -0.12336478897116891,
          0.10159126960755815,
          0.2964236324928476,
          0.10692365063365435,
          -0.08140181433514262,
          0.40200085433904803,
          -0.07285609863532867,
          -0.27764887641850494,
          -0.31374190371796096,
          0.5708008764062725,
          0.1020652004166626,
          0.21314128515087338,
          -0.2725260328873507,
          0.016521586045900677,
          0.4703405755872528,
          0.03206037279508728,
          -0.40799629180193625,
          -0.07758473771686171,
          0.3059002784278669,
          -0.028562186455777263,
          0.10435618866439414,
          -0.03715251736729092,
          0.10451492019382556,
          0.1678429166677228,
          0.19666566778194147,
          0.08081105471649119,
          -0.02078545922692642,
          0.107571423913136
        ],
        [
          0.08741668089418562,
          0.24050345065657389,
          -0.06870767105552984,
          0.509603556482587,
          0.2961993202539092,
          0.1351872063478153,
          -0.04650970461376384,
          -0.29438405391126354,
          0.21799380886195652,
          0.032347913169432294,
          -0.6477209473456819,
          -0.09926094545743473,
          -0.034643677356990234,
          -0.30940241864378826,
          -0.2989047854791496,
          0.17761211162435517,
          -0.09924814397292263,
          0.45887274248295135,
          0.20287377256490036,
          0.3680476287416572,
          -0.16518287491507913,
          -0.09263444976600899,
          -0.1738989268915906,
          0.32163354366756247,
          0.0014580418368445249,
          -0.32122330006209554,
          -0.16151398931483218,
          0.36667363521068463,
          0.09305740764317,
          -0.27668534335348416,
          0.01718881892130963,
          -0.2646510286017986,
          0.2338926551821169,
          -0.09687293757106037,
          -0.29586909736073563,
          -0.28673219543564316
        ]
      ]
    },
    {
      "activation": 1,
      "biases": [
        -0.24674738353548337,
        0.06609537540856843,
        0.2056508827244721,
        0.021027131903393274,
        -0.4376674692722083,
        -0.49496377072606745,
        0.3076827260123888,
        -0.1618533986602826,
        -0.0049800028429826315,
        0.16327972920237072,
        0.15143061579355138,
        0.10430287773345794,
        0.12265583430371382,
        -0.13335300318012402,
        -0.12137272717614571,
        -0.09295612098382439,
        0.44583471055818097,
        0.2513038028957982,
        -0.26197739763298017,
        -0.39976760713570436,
        -0.23096869671520748,
        -0.16256240376316464,
        -0.10931763208978083,
        0.06206653521859735,
        -0.07252489323859464,
        0.122650423079395,
        0.45603642419281504,
        -0.3942931163648838,
        -0.16362625692675278,
        -0.14283873375943063,
        -0.1801059077473225,
        -0.30237368221496824,
        -0.2343019773267644,
        -0.25270029443069736,
        -0.15843806791606663,
        0.004114536317049219,
        -0.15821733102122143,
        -0.1867230577312055,
        -0.07283577884102238,
        0.20163122205409814,
        -0.20598334585060185,
        0.16239642690309758,
        0.3129635847565116,
        0.17758448132390262,
        -0.07975788734940231,
        -0.11221749186403855,
        0.38647262425684475,
        0.14505511029842866,
        -0.3524565744735951,
        0.2274047710348794,
        0.13007250172451312,
        0.019477802024359503,
        0.09825070628690957,
        -0.410072400676609,
        0.2724768801020246
      ],
      "cols": 55,
      "rows": 36,
      "weights": [
        [
          0.4240013524331442,
          -0.4369559931689075,
          -0.5151870523848403,
          0.0024173437587112446,
          0.14417826939855632,
          0.07269527369423512,
          0.06337263651792463,
          -0.04948062218746664,
          0.17641815407620184,
          -0.15873425877779776,
          0.07629036187965031,
          0.050071195429155314,
          0.07408983562648574,
          -0.03137950823641004,
          -0.18576069540072485,
          0.012073186669475442,
          0.14497850362794726,
          -0.05332983388677058,
          -0.13642401394966258,
          0.09607394382236877,
          0.24545529768579588,
          0.19555202860909526,
          0.01272943475269736,
          0.17273916422868282,
          -0.18533863623862298,
          0.0016902138667306348,
          0.11550021540224821,
          -0.24468199746251745,
          0.18857260547511,
          -0.3633324100485825,
          -0.1269341853818762,
          -0.24740761078536957,
          -0.11507308914572215,
          -0.052759610127702465,
          0.20885989924754111,
          -0.1815937635901407,
          0.002984208063429606,
          -0.01606173642003564,
          -0.01670569336349018,
          -0.24389972126268816,
          -0.1916547270423604,
          0.036293674130738154,
          -0.06524936869666242,
          -0.048626696762268065,
          0.2128445568359173,
          -0.061095115602529504,
          -0.18247182971808185,
          -0.19917074683171576,
          0.1982031398893542,
          -0.03525769300569428,
          0.11081634149719462,
          -0.021692880421190462,
          0.07035460267033626,
          0.14642842475279932,
          0.08984524289847497
        ],
        [
          0.34484478603088425,
          0.3969180719284652,
          0.1042327135035263,
          -0.2611723861649913,
          0.11992612039983962,
          -0.36129476071759087,
          -0.15230385024302312,
          0.04844768368336856,
          0.18618500123058415,
          0.18685208784944662,
          0.1793959972210146,
          0.15545448317534166,
          0.20673146354507363,
          0.09235183181435117,
          -0.061980278827722064,
          0.019635109843808733,
          0.2577385992090143,
          -0.17332220409298688,
          0.07499841628564535,
          0.03763412012254594,
          0.12584926181337922,
          -0.07707135622802253,
          0.06347077225396221,
          0.35138956115193204,
          0.15028916056751968,
          0.15950256994482362,
          0.01507309569457913,
          -0.1041091916425711,
          0.0019489085641377977,
          -0.07123210312490827,
          0.018093773157981222,
          -0.25335170388663397,
          0.18753855940332562,
          -0.00629584613313902,
          0.17671672090958726,
          -0.0399377869165887,
          0.12928781976462517,
          -0.20640274672422082,
          0.03296670950412054,
          0.08016928613103665,
          -0.008265705712467855,
          0.08077817890420615,
          -0.0326354180494286,
          -0.2125296705524349,
          -0.31102629770761414,
          -0.045794645497382554,
          0.09662822373748203,
          -0.04647065790375276,
          0.05677544727246523,
          -0.02547940188452479,
          -0.21758436456401897,
          0.2036124331276556,
          -0.13648869503192046,
          0.19075490717224353,
          0.023626618896281548
        ],
        [
          0.23946632961054579,
          -0.023160342018986348,
          -0.0822773722680172,
          0.2417866917636124,
          -0.08098512234611056,
          0.08393720497721499,
          -0.2302239180036952,
          0.1610043643538079,
          -0.13426076421119965,
          -0.07120753763439958,
          -0.1413260951742592,
          0.14451737916738575,
          0.09247685797212733,
          0.06539302447594425,
          -0.008316228152590897,
          -0.010113251043067253,
          0.014215247570135071,
          -0.24362365972397068,
          0.19384490305267865,
          -0.1873545600916012,
          -0.0051544785953153895,
          0.18560382603081174,
          -0.21198975892896169,
          0.1418890978399243,
          0.18707179409190278,
          -0.1390830558010819,
          -0.03534673874929056,
          0.03152146172241038,
          0.18033510649991738,
          0.16226401369298402,
          -0.17478342626200288,
          0.1954773054853142,
          -0.15623556707612873,
          0.13738457539485757,
          -0.23700750062641915,
          -0.20775030552764223,
          0.144604052626796,
          0.1299140833040406,
          -0.0036260732500178307,
          -0.037586795630365114,
          0.17007028615892553,
          -0.1404152962317259,
          -0.2014921442185262,
          0.13024754316433654,
          0.23143522187612406,
          -0.09412262531737,
          0.1653744857608413,
          -0.20913034105975006,
          -0.12944412201476893,
          -0.24089705118403298,
          -0.17817323811397504,
          0.14447953697245733,
          0.19845070933513478,
          0.23173169230285473,
          -0.13896783183246592
        ],
        [
          -0.34560704880489673,
          0.001787511062884713,
          0.384124354544316,
          0.04620160996597134,
          -0.8487152260626099,
          -0.7531362636260509,
          -0.05747854358892316,
          -0.12436487191708798,
          -0.01635939952692472,
          0.18374054442358828,
          -0.0503348768146919,
          0.1369158013215004,
          0.08990760149373242,
          0.15008230174607,
          -0.005117429323067615,
          -0.024482843231604844,
          0.0214518882886741,
          0.2860841760149133,
          -0.1558687730645262,
          -0.39290781367519245,
          0.05478077033438413,
          -0.03414443861279825,
          -0.18541456067707232,
          0.08151740395175397,
          -0.10260233656507148,
          0.08150646366273397,
          0.49140699360054346,
          0.03131963504475438,
          0.07822946628045824,
          -0.1351512874229402,
          0.12859293654200457,
          0.09147970651721485,
          -0.2868957515391944,
          -0.17145868055424573,
          -0.28670835359107366,
          0.04082227401248129,
          -0.16014036614599225,
          0.1337085724483933,
          -0.13029398559693198,
          0.26801708861000406,
          -0.18559924024307478,
          0.2165230433945033,
          0.3344252778040706,
          0.2225528702986917,
          -0.08556411702387909,
          0.0977531398893086,
          0.2655619429383909,
          0.32482290236551525,
          -0.03449370776407385,
          0.34220999580274325,
          0.3084779118354807,
          0.026607627969021996,
          0.044444969057684136,
          -0.3279160789092834,
          0.24242360921853887
        ],
        [
          0.07192158247310075,
          -0.2396104309135485,
          -0.4238289597634166,
          -0.19093914139295068,
          0.06748954546128458,
          0.28203822460601025,
          0.16662538113226802,
          0.23475345683498916,
          -0.04264400318111287,
          -0.14382306455973431,
          0.06923403879800599,
          -0.21861331762105884,
          -0.061590972193769924,
          -0.024154900482525655,
          0.1945730848506266,
          -0.26486796088783376,
          -0.03374428293854732,
          -0.13497798097891783,
          -0.1876533758581455,
          0.04622520842879556,
          0.28737972719145716,
          -0.042749081349542785,
          -0.10074847228864962,
          0.029697558762570863,
          0.07769242040439263,
          -0.009273343801114227,
          0.031303684797623806,
          0.29861632817917677,
          0.049379578360314313,
          0.19984215147394346,
          -0.1266665170379567,
          0.11859123321273729,
          0.17464815645347137,
          0.0944187899971604,
          -0.16682617289166696,
          0.16493849856112966,
          -0.09631791513465181,
          -0.02316502206037168,
          -0.022182045887111753,
          0.24212393577613225,
          0.09200576141844616,
          -0.28222341183950816,
          -0.1996854178720398,
          -0.07851263426106654,
          0.05836241784108138,
          0.21697012694313417,
          -0.08057145035414343,
          0.23011866279799814,
          0.22666272763075387,
          -0.05070122975637029,
          -0.1367695058438592,
          -0.05832099859982162,
          -0.05601303863881439,
          0.028260274217002432,
          -0.004182190352917954
        ],
        [
          0.2086566894228596,
          -0.09746538912292727,
          0.10592673086504578,
          0.24468096428156116,
          -0.13122818875631745,
          -0.10915383500612905,
          0.038246251318135346,
          -0.18899692622114947,
          0.16628788062288888,
          -0.1065212237876018,
          -0.21694428358414455,
          0.2253771877829933,
          0.007623133903609028,
          -0.18040950808750436,
          0.187269058935617,
          0.2134588072415588,
          -0.016968640949255615,
          0.1238977873801745,
          0.019040360531603972,
          -0.021484275810966038,
          -0.027561308614335388,
          -0.08019451851172285,
          0.18478550206594843,
          -0.003289879552439382,
          0.08692228745707614,
          0.09253644036463661,
          -0.1437567541398188,
          -0.15794971546044723,
          0.2399656486572259,
          -0.1702369860858831,
          -0.2248093208415068,
          0.10676355813368137,
          -0.03758000252611921,
          0.11301216211996054,
          -0.21169379826525192,
          -0.018412740006478044,
          0.11946689383746176,
          0.10670446957547756,
          0.04423482243013469,
          -0.05993651887531037,
          0.005153059858306188,
          0.2309720699764355,
          -0.061156345471924264,
          0.03062776357423062,
          -0.0915877004599175,
          -0.09067295188399335,
          0.11704327408718612,
          0.034122138484730336,
          -0.25483788053502426,
          0.0033212484421067602,
          -0.17527016907328377,
          -0.057772423594397264,
          -0.011350417362040595,
          0.19162743820832015,
          0.05384688045217893
        ],
        [
          -0.13565305834256264,
          0.11908151264100514,
          -0.17155582757330595,
          -0.1430562939706263,
          0.20845946019488285,
          -0.08619191320540982,
          -0.18855422039461506,
          -0.1264571212011224,
          0.04894332318700963,
          -0.07673666889111722,
          0.037755040309046986,
          -0.06519677426326208,
          0.23602851192032956,
          -0.12307860097341716,
          -0.11719216087014657,
          -0.06410028892365768,
          -0.20580520553289244,
          -0.15526265795351285,
          0.09110991823090825,
          -0.013793576533802004,
          0.009898223565019543,
          0.2540627217804151,
          0.24156161558477154,
          0.11808050074326229,
          -0.10819249414271315,
          0.20050665717234128,
          0.09391954651289507,
          -0.06420870757648538,
          0.18543781055713723,
          -0.14965466089164367,
          -0.13917097107718454,
          0.047254047528955546,
          0.09095185618148596,
          -0.2095423730552073,
          -0.01967614756576135,
          0.21437585899631711,
          -0.09939317447547255,
          0.07633871294160208,
          -0.15698730647466574,
          0.21063118840753395,
          -0.14295683069096532,
          -0.03657519404763267,
          0.2393597966678153,
          0.14598094169080042,
          -0.17707936414046888,
          -0.21040323412814432,
          0.19472163150472574,
          -0.17182697775367098,
          0.0003126377736012494,
          -0.20559235734761183,
          -0.05193521703578147,
          0.14400010368532254,
          -0.25663286198553764,
          0.2389659922157947,
          0.10181240726838714
        ],
        [
          0.6425244896033208,
          0.3440455878634694,
          -0.7105133620843339,
          0.33834276306924205,
          -0.11229992379694426,
          -0.3719348049962755,
          0.05131889331635805,
          0.31241900681399254,
          -0.10181268515547855,
          -0.23002324137496805,
          0.23348632577002812,
          0.4192513198275881,
          0.37871497464548715,
          -0.17628422264846882,
          -0.4143973854430878,
          0.062174632792844665,
          -0.217650991738842,
          -0.13495185156075148,
          0.044009468570953614,
          -0.07510079385374477,
          -0.19509092232815559,
          -0.011049051810134455,
          -0.06392928071749204,
          0.21070395916343312,
          0.09826313917008471,
          -0.1144445499545904,
          -0.1011978421883265,
          -0.19274860723904383,
          -0.12866595199508335,
          -0.03931141278097678,
          0.05143746395490026,
          0.1550175700752489,
          -0.1927030158624119,
          0.21889485917438745,
          0.19950333891814417,
          -0.016485912466626982,
          -0.279797700497627,
          0.2961535830633584,
          0.07564583559472966,
          0.02023441921732844,
          0.24190000034681966,
          -0.15265907565027062,
          -0.32469773166783733,
          -0.40166623726079115,
          -0.09495402359039777,
          0.1348166648411211,
          -0.09304016049670152,
          -0.29528027569565496,
          -0.01205319949143899,
          -0.1937902063917682,
          0.027099043823365393,
          -0.12075768495871464,
          0.02875694194084568,
          -0.026243195778397024,
          -0.00947547628281224
        ],
        [
          0.2599839373237089,
          -0.38647942888162273,
          -0.03513218382518188,
          0.13245842270522287,
          -0.19235105216697804,
          -0.36667666054829545,
          -0.2635667798164984,
          -0.14748471515655293,
          -0.05023728635692218,
          -0.09560632511196342,
          -0.07807706978782002,
          0.09524995555936087,
          0.014684329529043225,
          -0.027962779882564365,
          0.11387847913464821,
          0.193311153778598,
          0.10111491185990099,
          0.18069532926767148,
          0.19562735603675946,
          0.1594438634092149,
          0.09211104578370352,
          0.1359291590473816,
          -0.03580527570585707,
          0.34616206523131615,
          -0.13046313119891073,
          -0.06105149331663053,
          0.20643842742712012,
          -0.030071176209997934,
          -0.12642060377707506,
          0.16570241793391924,
          0.14679686398698125,
          0.15087907960124256,
          0.18820357063198126,
          0.1569654451837871,
          0.0275910073403223,
          -0.0590484215234553,
          -0.03427790847969919,
          0.10728158399095168,
          -0.06475109427255007,
          -0.24423049582418607,
          0.1138947099963309,
          -0.21817199879193733,
          -0.13981689696857214,
          0.16299065958167605,
          -0.03619365300866924,
          -0.06806462595810049,
          -0.1719278232299125,
          -0.21079932825731915,
          -0.1508383797939975,
          -0.0907885730829979,
          0.06556267208372774,
          0.09282913842059594,
          -0.12188440101647618,
          0.16709854691918619,
          0.16117739307235546
        ],
        [
          -0.18139654695279983,
          -0.26501784744077683,
          -0.04171171915379684,
          -0.10523948534249299,
          0.556236215342251,
          0.11440320501495554,
          0.04533409346485831,
          0.18638991918033046,
          0.010240866094454078,
          -0.027764874253627943,
          0.19903250152992216,
          -0.0731023355038483,
          0.1567990689835088,
          -0.05626732129108251,
          -0.051449155087554856,
          0.05281605635526318,
          0.08764792477587637,
          -0.24602943325695004,
          -0.026526086857970987,
          0.08334730165133691,
          -0.06004930841827778,
          0.12597390105716239,
          -0.19625585963105344,
          -0.9979562378274458,
          0.8666546695632652,
          0.04357872192079335,
          0.14807810147549313,
          0.26988483295218435,
          0.21258025041777823,
          0.18996292778104698,
          -0.014934124927372637,
          -0.14010431494580505,
          -0.04475933560375194,
          0.1010980427631484,
          0.17010423023068982,
          0.03529462524261539,
          -0.00036390720333479676,
          -0.07909631086658875,
          0.017336482646188915,
          -0.3567725413834094,
          0.08099175806048226,
          -0.5268383998785469,
          -0.25579835518648947,
          -0.1462701361239509,
          -0.06362682994156728,
          -0.24717651523721224,
          0.07026778549981941,
          -0.24846805033957248,
          -0.19587461052645788,
          -0.09104057029715643,
          -0.2816294428625374,
          0.1430307289010115,
          -0.01638450981720176,
          -0.2563449610425174,
          -0.03312173280029063
        ],
        [
          -0.9003064222433697,
          -0.11823136991536934,
          -0.1481386591838947,
          -0.581542144127032,
          0.08483109636280581,
          0.3245859397041656,
          0.07200359888354203,
          -0.1943968011368027,
          0.043130214571457146,
          0.16314083753800954,
          -0.09066646881687034,
          -0.15140075506944384,
          -0.10088561637857778,
          -0.07759941058254181,
          0.1651811976399788,
          -0.1893353503154214,
          0.21974277297901737,
          0.22499901477699918,
          -0.022449571757629978,
          0.02930987807491973,
          -0.4589943262379579,
          0.08438452267399725,
          -0.4734131994980217,
          -0.1483200265344185,
          -0.021044136256165438,
          0.03630813779445823,
          0.10811126499198948,
          -0.033512863197122635,
          -0.010425745152242007,
          -0.0631791941190006,
          -0.1421380881634794,
          0.46114595776405476,
          0.07990284873971593,
          0.19128801383445043,
          0.3735685166242472,
          -0.008629666895998984,
          0.01168532407748351,
          0.21223303281712738,
          -0.2188199180492319,
          -0.019427693599891542,
          -0.2747562108079279,
          0.27214187469374046,
          -0.022344322115123365,
          -0.006138378785904939,
          -0.08027472943374288,
          0.0738849066919147,
          0.05425067050639065,
          0.1364912892919151,
          0.09141221229183771,
          0.387742468941407,
          0.13710078419560962,
          -0.01564172655553783,
          0.04098881230272337,
          -0.033846108565039924,
          0.021508874780738454
        ],
        [
          -0.1702898446038491,
          -0.14234331572421707,
          -0.1351161972916463,
          -0.4044502847604563,
          0.085083127978486,
          0.19854102967005474,
          0.07360372755329843,
          -0.19024985691180452,
          0.15920737689270983,
          -0.054882000954227066,
          -0.19240227593085088,
          0.03518018309867952,
          -0.10143843353930823,
          -0.16669668352145,
          -0.17613908047832078,
          0.21786476708912714,
          0.17028651058678318,
          0.37025309284489216,
          -0.0454553919716455,
          0.08175571132771095,
          0.14387565058163934,
          -0.1077862361796314,
          -0.3031959125312368,
          0.3832494125808102,
          -0.2931625261950333,
          -0.09627674350225157,
          0.04095478835938829,
          -0.31630620295888257,
          -0.04777630784416712,
          -0.0795254015677428,
          0.0745007765671183,
          -0.05599173937328478,
          0.10657235037678268,
          -0.12881769872317417,
          0.03174033106840871,
          0.19975395854500028,
          0.15088733070087892,
          0.006992339477873522,
          -0.027649764907955014,
          0.20386050890478624,
          -0.1228704851022757,
          0.3116170764677904,
          0.1094646455932229,
          0.2663473000746085,
          -0.06665719120539962,
          -0.17260718831787827,
          0.11087334749312197,
          -0.15419041867179262,
          -0.036659535568022074,
          0.2503267772164493,
          -0.14266871837551362,
          -0.00969132723146793,
          0.1587281820871096,
          -0.19120781311657778,
          0.10148720265238004
        ],
        [
          -0.4862507001561044,
          -0.4036000944068844,
          -0.04811128747077305,
          -0.16065450111890803,
          -0.07459103080248469,
          -0.14356182543998894,
          0.026784965287278303,
          -0.00591352310327516,
          0.13974762821101236,
          0.012112221808361964,
          -0.19517359807028015,
          0.06141853420453623,
          -0.04703934242181538,
          -0.14964093823310648,
          -0.03604010401947911,
          0.14423663607005194,
          -0.3265373207114119,
          0.11035245327677133,
          0.005951772153185641,
          0.03491733521495813,
          -0.2349536640648113,
          -0.06901842003173006,
          -0.21892731416051947,
          -0.196108455327248,
          0.3476406240329141,
          -0.10759701349797947,
          0.23570577558059322,
          0.12338202753619883,
          -0.08695674671497437,
          -0.07419220504843292,
          -0.09934395423904059,
          0.275820648552395,
          0.10361675989788878,
          0.12641318798343293,
          0.4008836544148039,
          0.03398677648278005,
          0.20914743952712445,
          0.1803398855168161,
          0.2631568442205638,
          -0.04841301783795816,
          0.07267512392524246,
          0.15154362123496087,
          -0.17380049083444224,
          0.07973947798003019,
          -0.01847334993561058,
          0.03391107177831086,
          -0.1199501495593907,
          -0.22011382438321708,
          0.011047054917915388,
          0.19074618914738453,
          -0.0260684970868858,
          -0.07084918929960467,
          -0.08232496493153574,
          0.045250984830457384,
          -0.044620211850487014
        ],
        [
          0.07836812729222932,
          0.255050886559322,
          0.35326970772626676,
          -0.3743619768489955,
          -0.4341230674922768,
          0.2452490923924123,
          0.1928196609748391,
          -0.1459134034298929,
          0.031014893262254532,
          0.012996480217012352,
          -0.09164552209838159,
          0.1521286655028318,
          -0.13441508611051595,
          -0.03129234744009994,
          0.20367250748392327,
          0.03929139144438764,
          0.10884343638563374,
          0.19350013917192302,
          -0.07032124913745894,
          0.2222819684696875,
          -0.2248784486377758,
          0.2604858269491408,
          -0.09320524271705875,
          -0.6058385648428928,
          0.06519252912134194,
          0.2274676378741042,
          0.10273248106328818,
          -0.0587362798495323,
          0.1840350472901028,
          0.08493320795849725,
          0.36017202893659894,
          -0.2155353085059103,
          0.21767252987326033,
          -0.25524003672364437,
          -0.02550236963458332,
          -0.20144237046534225,
          0.10238641029693761,
          -0.11532467289483968,
          -0.01858060305261705,
          0.10465879692258899,
          0.13636912406886725,
          0.004424826846198806,
          -0.10908520484684321,
          -0.07284117202662369,
          0.14199872934014243,
          -0.11152208117120449,
          0.13696664579747087,
          -0.06932417073236702,
          -0.1290538162058459,
          0.05379511062684878,
          0.1405351616401106,
          0.13115451095713376,
          0.07709828122104585,
          0.14040041318905855,
          0.19976724719184727
        ],
        [
          0.058331252468749026,
          -0.06822949856167894,
          0.026322808328116412,
          0.04743501887477431,
          -0.15175451556158628,
          0.07013914270085801,
          -0.05276191812689442,
          -0.18685882063119724,
          -0.014428328919640462,
          -0.18367757866539028,
          -0.22248913314824775,
          0.1395007847539209,
          0.024889148664394116,
          -0.15589047046080654,
          0.10351921914142012,
          0.21413419872906905,
          -0.20490051645321186,
          0.04741011190085491,
          -0.11995390223330468,
          0.08952749461172725,
          0.1734433827717901,
          -0.10215128728396876,
          0.18309892475734538,
          -0.20661491514622443,
          -0.1212471504008023,
          -0.23603129029215894,
          -0.0082093048920922,
          0.12129813092788022,
          -0.16485240737140247,
          -0.2376121367678139,
          -0.18682968056125734,
          0.1621884159323859,
          0.03005284442590879,
          0.059585364945943076,
          0.011590805169739472,
          -0.17078166128579486,
          -0.12470566116271209,
          0.1157868189308878,
          0.2472127483704261,
          -0.10148740299160047,
          0.07589543025203993,
          -0.021470852680705442,
          0.03684544953435672,
          0.16897116692228503,
          0.20769339744518436,
          -0.028579784876731195,
          -0.02669320247884198,
          -0.17940617770467027,
          0.0440622620484803,
          -0.0918063483093796,
          0.10593603947361921,
          0.048153595423310644,
          0.19229340145114746,
          0.014751871771137409,
          -0.18773523097362055
        ],
        [
          -0.07114457384121027,
          -0.2949653782513448,
          0.04307764145354786,
          -0.015769949263323185,
          0.10945373277435964,
          -0.07887901592139451,
          -0.09114815323632264,
          -0.13220411740447593,
          0.009459985610019817,
          0.17265654641676687,
          -0.1217672677494082,
          0.03199868661450973,
          -0.08958169358608026,
          -0.21493306511243396,
          0.05969929328168346,
          -0.2682836505240142,
          -0.14018771426304077,
          -0.12029215723595399,
          0.08949835018143981,
          -0.07552712075528081,
          0.03069457558106877,
          0.07856853405005382,
          0.3719919589242134,
          0.2483225087364113,
          0.23290842307825899,
          -0.13101117298084775,
          0.3347364439584135,
          -0.14674524385031998,
          0.1744310516990117,
          0.14513861343238607,
          0.16437730868967504,
          -0.07216604995241024,
          0.08215375989309003,
          -0.07946962523634474,
          -0.11641913264177792,
          0.008875051322972172,
          -0.11128040896083155,
          0.17329750406109992,
          -0.14380588445157716,
          0.2696810645437437,
          -0.21323907822781266,
          0.30869240398200604,
          0.28989105808116283,
          0.009380278799699639,
          0.06799971228954191,
          -0.10318726492310394,
          0.2305713644236305,
          0.02417111275470188,
          -0.10332871202906069,
          0.08712679615327636,
          0.15244056024031796,
          -0.043475748597734634,
          0.07367421619859357,
          -0.3369094161610917,
          -0.052924995904239186
        ],
        [
          0.16951513112232128,
          0.1682707275529287,
          -0.1520664633401755,
          0.12329437832873465,
          -0.4404702795715156,
          -0.33185081008235595,
          0.1206682210996754,
          0.361934692350777,
          -0.14747268089821958,
          -0.19191391585933873,
          0.13641481814536618,
          0.036983711811263725,
          0.08643360299929023,
          0.14634821912743964,
          -0.1326363809661394,
          -0.1072067760065253,
          0.10674523627400948,
          -0.12141573864759607,
          -0.0037089796029751987,
          -0.10071674832441234,
          0.09351387599299713,
          -0.18793092038735734,
          0.1067651448049052,
          -0.6493180556755498,
          0.5874093733255076,
          0.004704760206948337,
          0.17398768967657305,
          0.28939866514382767,
          0.07925157089442209,
          0.22205087801965556,
          0.2526597402964952,
          0.2579432674565625,
          -0.17510056680174352,
          0.35938735067170346,
          0.33901414985366435,
          0.24271481657003827,
          -0.2667709613846135,
          0.3694106588185419,
          -0.11602663658125405,
          0.08063683956388278,
          -0.10232764832448843,
          0.17897199798937183,
          0.23565310638733822,
          0.05385554349501017,
          0.08990974503194417,
          -0.03424001414122038,
          -0.027729273724366982,
          0.13379156268544337,
          0.180584329719383,
          -0.1587376719425521,
          -0.06894555688363856,
          0.008537590416910545,
          0.053513041479452614,
          0.12023977334898618,
          -0.19306396847271093
        ],
        [
          0.18147433863902046,
          0.5815110122265036,
          0.10423847674585936,
          0.4246393204499797,
          -0.27583124636319134,
          -0.9432940098412487,
          0.2760954269013317,
          0.07278888964587366,
          0.06906940375308067,
          -0.11539646648574382,
          0.2357457794670862,
          -0.17829132590292737,
          -0.007296016642981701,
          -0.07504253232303462,
          -0.16227122774114314,
          -0.1525424947853561,
          0.1893829886424844,
          0.41153737204151014,
          -0.13981264254896156,
          -0.09803224122474594,
          -0.03369104176381245,
          -0.022111647900686753,
          0.276907608618626,
          0.693114793312845,
          -0.5087411768482177,
          0.1149972299973669,
          0.1668327440614238,
          -0.1889730854517762,
          -0.17135946731428103,
          0.07070867514113967,
          -0.2970903158014712,
          -0.07998938667210771,
          -0.12810784660757707,
          0.08357359847667824,
          -0.00786106965766995,
          0.010645319902570255,
          -0.04471786145764482,
          -0.13905405692256856,
          -0.05170821999307596,
          0.08858705047330293,
          -0.2398881959312947,
          0.09244147540691228,
          0.04827609062510461,
          0.22416116586878856,
          -0.028577693851526618,
          -0.17308872954841487,
          0.34862205133798635,
          0.05265482977327566,
          -0.352293601484328,
          0.12310117747879087,
          0.0929738288329119,
          -0.08318823287253115,
          0.11101345876058955,
          -0.2547495130620125,
          -0.07325394973313772
        ],
        [
          -0.23657572874551352,
          -0.15019067630495955,
          0.21478456148684053,
          -0.061660914878007234,
          -0.031077861429003532,
          0.19170516285806494,
          0.005314261820067793,
          -0.15122878813479373,
          -0.2066623668054037,
          -0.17384607847940498,
          -0.009956453980599751,
          0.16437771797270997,
          0.13570787909217927,
          0.17790760310650078,
          0.24965319081056486,
          -0.16510667197545484,
          0.0925472966414474,
          0.12058715281579505,
          0.061886563769671055,
          -0.16302826199784037,
          -0.0633228538379003,
          0.058806216223682414,
          0.10728087050605611,
          0.04002860713541108,
          -0.24169836069320128,
          -0.12790949630001391,
          0.16912369159514157,
          -0.09261444269249387,
          0.032035377467871363,
          0.00025004893571893176,
          -0.1206738224777094,
          0.2525386742653555,
          -0.11656880765900325,
          0.14330865258679437,
          0.14795468950745,
          0.22261046932906148,
          0.02474434976855334,
          0.235542232936185,
          0.043776051056779446,
          -0.10668772183055883,
          0.22113502835393944,
          -0.23635204210540917,
          0.2150251465608206,
          -0.012452484073684541,
          0.06488247905297234,
          -0.11977014142880195,
          0.11078323817693424,
          0.03985002595885497,
          0.21257669681716002,
          0.1466417654396225,
          -0.17991776049404745,
          0.21850064965546398,
          -0.17283277737182653,
          -0.24240376813370473,
          -0.1692611713807724
        ],
        [
          0.17975449322623138,
          0.002954947375544079,
          -0.31503569730310343,
          -0.17846878246117287,
          -0.2927161469389507,
          -0.4945985624248863,
          -0.27121705885738373,
          0.15185451718918463,
          -0.20294705978845207,
          0.19319496592949925,
          -0.0887656879027363,
          0.3812493135189283,
          0.17463215986955316,
          0.10112303453774263,
          -0.036084849290473904,
          0.1707001302181868,
          -0.168489236601872,
          -0.10419223565568518,
          0.15671284395065455,
          0.03618945258704572,
          -0.3087595255944361,
          0.0980989700162782,
          0.08409778480384773,
          0.404055706032413,
          -0.08386793182628635,
          0.13952957129786267,
          0.1828079085346093,
          0.01247741321916566,
          0.16199451562466557,
          -0.12192796315117876,
          0.012849851005523681,
          -0.05879100844919148,
          0.18154904475744763,
          -0.055712457968732525,
          0.29662618905298516,
          0.2067677940270373,
          -0.14080222819075083,
          0.3469897106267155,
          -0.04176111058572024,
          -0.1670518428549445,
          0.302566979202551,
          -0.33948399190052836,
          -0.040212950690025576,
          -0.10955491051880822,
          0.029313864435148683,
          0.09975792889722307,
          -0.046935604994408596,
          -0.05517228818934054,
          0.028852877651511514,
          0.1957934291810274,
          -0.28390930799678155,
          0.11268094424209373,
          -0.008555903865281786,
          0.06453208741877871,
          0.012987610170383777
        ],
        [
          -0.18224348768174473,
          -0.24412395834016454,
          0.056974315216826985,
          -0.011435311207807866,
          -0.10492906437823875,
          0.2167652906853566,
          0.01880640142727647,
          -0.11010308359729813,
          0.0124027177377273,
          -0.017301224116928998,
          0.1713040739257912,
          0.15795859833752257,
          0.08900756378932084,
          0.09834730559947338,
          0.22584385858363368,
          -0.2509903924285458,
          0.15860695965443297,
          -0.10686833144964646,
          -0.23846985430710105,
          -0.06275599385915834,
          0.24189815041582552,
          -0.11120417528164554,
          0.22433757333043522,
          -0.16283470839213604,
          0.12661120178269986,
          -0.2494675435134257,
          -0.1928962096864421,
          -0.1582743230699607,
          0.1106748304149687,
          0.10820948730287795,
          -0.20262527945773978,
          -0.21876609581544867,
          -0.05558647845265537,
          0.07229112221610921,
          -0.014527060528400347,
          0.05118183694161245,
          0.18942017685678686,
          -0.24885920229756403,
          -0.21904741022956994,
          0.11894831366137014,
          0.07230784084176232,
          0.07944432218963052,
          -0.07119243366530573,
          0.09750574731589483,
          -0.031183957048694762,
          -0.2254463457634306,
          -0.255295191620554,
          -0.20923971143052472,
          -0.11387604869812368,
          0.12858830989725484,
          0.10266685623865596,
          0.14599532342512195,
          0.17117360761677083,
          -0.2491046213242763,
          0.102145855260175
        ],
        [
          0.02785889893998141,
          -0.2206530054766956,
          -0.7284068762912365,
          -0.43649180592874665,
          -0.0670600921509766,
          -0.12843384856705722,
          0.2368261283039667,
          -0.18051522487914357,
          -0.03360527238110713,
          -0.15722218580382455,
          0.09313736535947001,
          -0.11555022244544873,
          -0.09523926943598576,
          -0.20124427697786676,
          0.06814899663703784,
          -0.12874714756728153,
          -0.0958998909830782,
          -0.2586086839681586,
          -0.1371968350342216,
          0.08130120611146315,
          -0.15985741874457574,
          -0.08662887916361514,
          0.04692238987197276,
          0.21644303443186125,
          -0.33074618040860587,
          -0.24390767796468726,
          0.07529197212724112,
          -0.014125498656509089,
          -0.09258280585978595,
          0.04853966643210493,
          -0.15863658529185845,
          0.09841233080270446,
          -0.15893736252849044,
          -0.08451235684309949,
          -0.22044419752268196,
          -0.012844055357108095,
          0.004452976560871896,
          -0.22639991842767096,
          0.049687793579490595,
          -0.12903131706431173,
          0.24928169741680167,
          -0.16498348209847732,
          -0.214333532326874,
          -0.14546467016802764,
          0.13752809316182393,
          -0.03735697579755094,
          -0.018703753310881043,
          0.08368615371553165,
          0.01912864663914937,
          0.15301919309588327,
          -0.006681361447506041,
          -0.046063639541241756,
          -0.06701849798555981,
          -0.08417423540141669,
          -0.048045323219940914
        ],
        [
          -0.4034170584184737,
          0.1388456239313114,
          0.15222300304718345,
          -0.409982947453395,
          -0.2098276112695152,
          0.5135050831693692,
          -0.18049042236574636,
          0.08526631553875437,
          -0.04973951112939853,
          0.15253483086758876,
          -0.3897364049921267,
          -0.13923445787164582,
          -0.17517137472396024,
          -0.035129791869267714,
          0.08933989287939506,
          0.2126409174375087,
          -0.06289560657753543,
          0.10210142649480969,
          0.04541745768272745,
          -0.2689262307215896,
          0.04762408845447057,
          0.11062464240952363,
          0.1947495852117905,
          0.03058138823079144,
          0.08735968079506877,
          -0.18101141247820493,
          0.09752533656640128,
          0.10172722798425246,
          -0.00406815643759015,
          0.152993037723388,
          -0.020082620810987054,
          -0.2674469733959813,
          -0.14597534366944526,
          -0.14937848420191216,
          -0.3831387567783864,
          -0.2843036895874068,
          0.38721823960561486,
          -0.40979955149894065,
          0.08271789791061676,
          -0.1889359812772589,
          -0.09614884077150929,
          0.00025811280059601983,
          0.18617995955318772,
          -0.08290074597342886,
          -0.16614886134157028,
          -0.07256534848768487,
          -0.031645303181976316,
          -0.16659288588139678,
          0.04917969660180631,
          -0.11209527686443721,
          0.07444638717273655,
          -0.09676196778754781,
          -0.12760725959320682,
          -0.09239645432055797,
          -0.07221338859438971
        ],
        [
          0.09740809551732531,
          -0.13562111260804566,
          -0.10071200508568227,
          0.16877798238976588,
          -0.15594596393498408,
          0.0686658402798136,
          0.1382417283796395,
          -0.08877767627395446,
          -0.12270339979193573,
          0.017950667093778325,
          -0.13576722460257928,
          0.19715000839485336,
          -0.06872583520346755,
          0.060371039912344174,
          -0.22534211453476005,
          0.01680342060303821,
          0.0513889152800498,
          0.32593482168134447,
          -0.1003397853306809,
          -0.35633525722065595,
          0.05404015078169284,
          -0.15874261418054944,
          -0.18609360501333538,
          -0.10332380705607472,
          0.26604516207115225,
          0.17902561322693522,
          0.23676937270724577,
          -0.27076010368106945,
          -0.12278394446454147,
          0.003849135267727379,
          -0.11279292414935187,
          -0.3088445308395892,
          -0.24064499747854956,
          0.07087613235498331,
          -0.17889574321086393,
          -0.0554940127712651,
          0.1276541726751515,
          -0.003180606131444796,
          0.24546878184846563,
          -0.05975439447240003,
          0.0037356787285777217,
          0.06303017282412798,
          0.1409727982779101,
          0.3109158100248807,
          -0.044512978338680724,
          -0.1389187847474927,
          0.07470840119478717,
          0.1745798168153594,
          -0.034163308093796606,
          0.08227387829107304,
          -0.06329935023540215,
          0.07335098263939024,
          -0.1433846449872176,
          -0.1306280708778551,
          0.20865677381923084
        ],
        [
          -0.2985213067953617,
          -0.45712141727298156,
          -0.4484758658765117,
          -0.32000070017993626,
          0.22421227545646324,
          0.21826749157310243,
          -0.10507845690359431,
          0.08207931848577005,
          0.21094764161811078,
          0.2099496753006097,
          0.13268461428705772,
          0.09672125755716499,
          0.05764019414804266,
          0.22285899258280747,
          -0.055536540442107964,
          -0.05163570641040979,
          -0.06482943972252055,
          -0.1701510694687652,
          -0.042689967913444794,
          -0.05312296068612148,
          0.012729027427255936,
          0.02595556830179241,
          0.008894307247654257,
          -0.5043270862209437,
          0.48303941441145,
          0.07908141354342119,
          0.3941703011797557,
          -0.14542326391641552,
          0.01572516852844923,
          -0.012580657614353834,
          -0.1656503113652733,
          0.0019549153440178296,
          -0.23160146223663772,
          -0.07033397472853863,
          0.012848499426707852,
          -0.017784151513516217,
          -0.05435541526433605,
          0.12880500419378774,
          -0.18939397544693415,
          0.029723883747663982,
          0.22765651871223413,
          -0.22469700983102925,
          0.10379592646484351,
          0.04881878616209895,
          -0.05757755431235239,
          -0.01172940536551131,
          0.15343575758048353,
          -0.02883502134920204,
          -0.1019450149081866,
          0.11096840238243118,
          -0.045813018901332055,
          0.14511188996029928,
          -0.25446634479219016,
          0.11759775528667425,
          -0.17972893698022818
        ],
        [
          -0.17568532828103858,
          -0.21740946846516657,
          -0.06987405365600416,
          -0.31205860525051526,
          0.10614755300334132,
          -0.01226133612658945,
          -0.20645200251094403,
          0.1392116688341724,
          -0.050449532271668665,
          -0.09897111699214213,
          0.29162822772074437,
          0.028727438739032503,
          0.040149809216855806,
          -0.12059043729366208,
          -0.12075251521371196,
          -0.09684487401074485,
          0.16086913894754334,
          -0.0779327115497425,
          0.1338564300781409,
          -0.03787306856242123,
          -0.05193447204674442,
          -0.04219820736169683,
          0.12725850196977403,
          -0.5447281066014418,
          0.19863874717162225,
          -0.20104243412346343,
          0.2094985466656013,
          0.21620935985062467,
          -0.17844247517209597,
          0.15797527896382943,
          0.3231827116626666,
          0.06968962419346575,
          0.1542099103531474,
          -0.18874129503583448,
          0.14483948135711375,
          0.13624168986285579,
          -0.1413988849270425,
          -0.13394407406537936,
          0.10429344082554859,
          -0.10039060554051059,
          0.020126106122126064,
          -0.08382711397222412,
          -0.0683723195143132,
          0.08537342675834643,
          0.03187179473602438,
          0.1527236102325899,
          0.20033329176393896,
          -0.0381605541544395,
          -0.2471084940786855,
          -0.25304403421547267,
          0.04562349362268405,
          -0.2680562957303987,
          0.12806666563337835,
          0.004932136792341095,
          0.11879341433258374
        ],
        [
          0.012570320688250121,
          0.24508240738734544,
          0.019296927539691325,
          0.22797720361146592,
          0.17655498363942693,
          0.09284945046573735,
          -0.043732146042792734,
          -0.021666285391347156,
          -0.1450442004361808,
          -0.09768523904836904,
          0.02900682187301887,
          0.06709546127660304,
          -0.205047363710328,
          0.013416332415087006,
          0.25400641712913025,
          -0.13078083837180865,
          -0.028515663023307596,
          -0.05587126100848181,
          -0.06076953665017126,
          -0.21111437481334974,
          -0.07393820421716416,
          0.0031255634491303753,
          0.15680934180402997,
          -0.2185316838292994,
          0.023845969301239448,
          -0.16073370103222226,
          0.25536029249463293,
          -0.13199384643241796,
          0.12377539723070288,
          -0.001371046571525582,
          0.24912627077049204,
          -0.09141604532837552,
          0.051319353920771346,
          -0.16056496614022758,
          -0.19897801993687608,
          -0.2494531849205341,
          -0.10517012710751619,
          -0.06015955602779586,
          -0.01392815034509772,
          0.04716127281819015,
          0.17498457389197794,
          -0.1675408483493975,
          -0.030384458115088612,
          0.07277981372568439,
          0.21728295826108557,
          0.10292449158049113,
          0.24634549404041786,
          0.05939336165106486,
          -0.20929798584209222,
          -0.029222357959476666,
          -0.10415026282013287,
          -0.03562363159159186,
          0.24205524097358624,
          0.008774846680496988,
          -0.1326532652792965
        ],
        [
          -0.19842343320010067,
          -0.7955821437258853,
          -0.29485569670365547,
          0.10601147373318796,
          0.37829890056314514,
          0.4543374380348539,
          0.03918341592815231,
          -0.163350636970328,
          -0.15590268359857218,
          0.1085003836254997,
          -0.24552735746244622,
          -0.21933093041264254,
          -0.22596585302103173,
          0.006666533254696043,
          0.2900675752760604,
          0.07869103932390055,
          -0.027559342390091182,
          -0.06980283022219261,
          0.10095740153509104,
          -0.1161528135139338,
          0.1257031965943066,
          -0.06518079864957624,
          -0.19491901505068174,
          0.00302015250580116,
          -0.14075010380454403,
          -0.011741695596250976,
          -0.03743713848227154,
          -0.07534231478661234,
          -0.1467675625148927,
          -0.006893660751666801,
          0.024801897725886295,
          0.3429392397430938,
          0.217961374688423,
          0.12772673842254947,
          0.16446467394016515,
          0.017847470912872,
          0.25124880648909387,
          -0.04702195827147936,
          0.14582613967512784,
          0.10059170682441465,
          0.014980756406525757,
          0.16767442319056292,
          -0.028394648717955245,
          -0.21322085949333747,
          -0.1360785774779023,
          0.12985138467682364,
          -0.1867087295702975,
          0.08678620717231098,
          0.11116183046489496,
          -0.0885237750088983,
          0.002195912186522409,
          -0.08719458921184361,
          0.05817083703681364,
          0.10464189126626913,
          -0.016381142554247014
        ],
        [
          -0.34656083972097973,
          -0.11691887800881316,
          -0.3535777067856466,
          -0.48977953122817985,
          0.4894451087915889,
          0.22500309964694704,
          0.14469342823437353,
          -0.17267552873780168,
          0.07929943717880368,
          0.026434808143834497,
          -0.44399676626384404,
          -0.10183566942907113,
          -0.21991168537785502,
          0.04693008374462051,
          0.06042239134340518,
          -0.04789168755768268,
          0.008891460455394518,
          -0.20857743819121866,
          -0.16298008912029033,
          -0.14928689560221212,
          -0.14768458784911204,
          -0.1590335709880018,
          0.0960825845950184,
          -0.08307063232839584,
          -0.15580975420343982,
          0.2191297266222272,
          -0.19692595826062934,
          0.09627694483610963,
          -0.0867048165196567,
          -0.20390067912767837,
          0.01737132723369523,
          0.0036935967656613914,
          0.12714297806044164,
          -0.03546118752259148,
          -0.22479126296378693,
          0.0028135109282377375,
          0.07617662125022426,
          0.020004687376870015,
          -0.1613447519718048,
          0.12520654177267437,
          0.029331974694804534,
          0.104537897770809,
          -0.23871783021874188,
          -0.24503115130570022,
          0.10175309719064522,
          0.10608061877807823,
          0.054380825241285034,
          -0.04906761385280822,
          -0.18237436926689948,
          -0.252505525685929,
          0.23095960097162882,
          -0.13870540527032002,
          0.23080081147138515,
          0.07363796806299706,
          0.18678621734569828
        ],
        [
          -0.20323119003845458,
          0.1980843135823594,
          0.0024163480254121134,
          -0.16397536921639416,
          -0.1744056940767762,
          -0.16696260876356553,
          0.17766721291096305,
          -0.09972559047673749,
          0.2289759014464026,
          -0.013835040690760681,
          0.24769094258298074,
          0.0036010807508636182,
          0.20264331789134335,
          0.06316850758801922,
          -0.13218552594730162,
          0.17057015926475977,
          0.2366997777155913,
          -0.2512612103601832,
          -0.06603185199117032,
          -0.03679051753508381,
          0.21962967511089013,
          -0.14340478219367497,
          0.12256479575639358,
          -0.22520125016673243,
          -0.13995138145905792,
          -0.03140525621673286,
          0.18840938091746132,
          0.17762321698801,
          0.21488082128575056,
          -0.15052781858335576,
          0.23699886503852763,
          -0.25414806111959964,
          0.11552280234452056,
          0.19621554779880182,
          0.1879560593653396,
          -0.04027192005751095,
          0.11276988681293355,
          -0.09247999731419303,
          0.2550183841713639,
          -0.15428486441056144,
          -0.16976432728269053,
          -0.16441310950318244,
          0.23505107939102757,
          -0.13917415125247626,
          -0.12479086356624897,
          0.01419550444627035,
          -0.11905336823110683,
          0.010240579741471235,
          -0.05383336143074205,
          -0.1480144487197649,
          0.045837674463669875,
          0.054591138262763364,
          -0.07403992242513033,
          -0.061812662063960445,
          -0.22550998555455468
        ],
        [
          -0.02290026816133317,
          0.09672249078559662,
          -0.009281322958387253,
          -0.5003165401568836,
          -0.039889742680962494,
          -0.00439466000425666,
          0.20712973929178627,
          -0.16266815742907267,
          -0.1316590390407055,
          0.01830590526799468,
          0.020518959120325524,
          -0.18452047498405344,
          -0.07707714830656806,
          0.27636476366486695,
          0.2281072435525135,
          -0.11373866801279994,
          0.006707592279303299,
          0.20787373016889485,
          0.22569314647850527,
          -0.13286673569941454,
          0.07331275845464257,
          -0.1723715402914807,
          0.15341178636404149,
          0.14331859913501643,
          -0.3134266865674315,
          0.16051770885441902,
          0.13912039636757803,
          -0.39040597494627743,
          -0.11963269924153835,
          -0.12122029527099559,
          0.04145887894647255,
          0.17758225735696678,
          -0.08387775176491921,
          -0.19852156168829094,
          -0.2263687900941972,
          -0.2790910575572122,
          -0.13703029992358162,
          -0.2229641944814866,
          0.1761329460428734,
          -0.060898862487092136,
          -0.18570193292002582,
          0.12469122845949727,
          -0.0031661747981022417,
          0.19637906507220818,
          -0.07540432174419458,
          0.06443133762448885,
          0.10078727256159281,
          -0.12926711680668204,
          -0.04867634681291738,
          0.012856350354691622,
          -0.1628308013057071,
          0.02139913225098327,
          0.15916380093785004,
          0.08626924296124612,
          -0.20893298464888652
        ],
        [
          -0.30682959707973095,
          -0.12016756171821516,
          -0.35658291412228654,
          -0.10495299071727808,
          -0.1287129023614194,
          -0.2162207774326291,
          -0.24894445064409187,
          0.005043053291048718,
          -0.22529236292804836,
          0.02930488343370971,
          0.2741993038060537,
          0.11088978384329014,
