{
  "layers": [
    {
      "activation": 2,
      "biases": [
        0.14899194027358417,
        0.3937426678649164,
        0.12778235218451078,
        0.17019946586909565,
        -0.00380314023559306,
        0.5917007695037283,
        -4.025793889246322e-05,
        0.3054999084662298,
        0.5154762557412763,
        -0.0028713379542984223,
        0.29511302233519027,
        0.46272263533179936,
        0.0,
        0.1751636062604717
      ],
      "cols": 14,
      "rows": 3,
      "weights": [
        [
          -0.5476330891351054,
          -0.34552568876161477,
          0.007376195641650365,
          1.5363714175029577,
          0.31891727848235685,
          0.42742737009363607,
          0.12567575714827092,
          -0.23648654056242857,
          -0.7221297016181265,
          0.3732095396921859,
          -0.3740339826478811,
          -0.6871324331924045,
          -0.15510708626680325,
          1.0252122816090283
        ],
        [
          1.1590696737341097,
          -0.39531298070859483,
          -0.5438510710983224,
          -0.1284404354363734,
          1.181556827935512,
          -0.8646280495786873,
          -0.4770171341658265,
          -0.27866824107852584,
          0.8105098319458296,
          1.1584731294675854,
          -0.32339006219280786,
          1.234196201027346,
          -0.024347737174287985,
          0.4319627337660921
        ],
        [
          -0.29810771779667417,
          1.2431968101793713,
          0.5503015341421639,
          -0.027762878288943717,
          0.20644456348960694,
          0.6430782157415096,
          0.1611089512683746,
          0.804954950624917,
          -0.6055995328745705,
          0.4695527721139033,
          -0.2888470350994245,
          -1.0128054002508378,
          -0.47951294748656864,
          -0.595640885318908
        ]
      ]
    },
    {
      "activation": 2,
      "biases": [
        0.4526404102836047,
        0.07492974515412049,
        0.005703555490849189,
        0.3014786347947576,
        0.3682823139859759,
        -0.048403217680478484,
        0.047933161098867944,
        -0.08314673897255738,
        0.024174857162550634,
        -0.09627363995609013,
        0.23449587920666545,
        0.05444284665570501,
        0.1149463654390786,
        0.17473564796340607,
        0.5493870461579234,
        -0.12968766543449325,
        0.023068953374103765,
        -0.0842158395726934,
        -0.13753979052256368,
        0.0,
        -0.011761689181219826,
        0.31753536287527123,
        0.0,
        0.5845548395869952,
        0.0
      ],
      "cols": 25,
      "rows": 14,
      "weights": [
        [
          0.16106115603699936,
          0.8220810305346635,
          -0.022228678845699665,
          0.21780731153140084,
          -0.6218124494116949,
          0.23410125791666783,
          -0.14353524523583772,
          -0.29097542167647583,
          0.28229285616739763,
          0.480048691911485,
          0.018663611468176123,
          0.017570764210189545,
          0.04549960818837182,
          0.18265407695629887,
          0.5404030001545654,
          0.38690536155842914,
          -0.08688556172460278,
          -0.323030168083442,
          0.3255930578045805,
          -0.06659825589919745,
          -0.25338960674849,
          -0.27928655434715294,
          -0.3071906236408567,
          -0.09467243428439147,
          0.13011334633158006
        ],
        [
          0.5152922593341446,
          0.0035648123297421777,
          -0.26767316697219257,
          0.1376315915097351,
          0.5370936615369277,
          0.5546879015476,
          0.45502371812609343,
          0.40960630579429086,
          -0.5446546380892234,
          0.43663382079265184,
          0.37062057936888176,
          0.438436771304662,
          0.3773461226296917,
          -0.23423702820912867,
          0.33786168288294877,
          -0.36807833943358087,
          -0.5927970567038623,
          -0.0787549379449335,
          0.0975708645518711,
          0.114012470942934,
          0.22187521683491332,
          -0.03367809448640999,
          -0.39167015432211927,
          0.2856159927007461,
          -0.27212726616206695
        ],
        [
          0.2238490783499671,
          0.03988499026218586,
          -0.00027349642769531197,
          0.2666054052901265,
          -0.21177627355661358,
          0.3981854195899362,
          0.04008193360316014,
          0.184845173685733,
          -0.3268813972928566,
          -0.1962097233285406,
          -0.400936013801178,
          -0.2041151785766373,
          0.20920865542468173,
          0.1876810345254451,
          0.1750582497363996,
          -0.2395105977298181,
          -0.32441257878551305,
          0.008785797063995869,
          -0.09876171305352043,
          -0.23927343244330135,
          -0.09473665721853992,
          -0.05315583946105313,
          -0.3583239138496769,
          0.42256219026714237,
          -0.21469096340687488
        ],
        [
          -0.12111375323609831,
          -0.305859552511503,
          0.0866058185838419,
          0.6484530564948041,
          0.34376666484165325,
          -0.2769481608898539,
          -0.3865070076315348,
          0.646391896684245,
          -0.06070657660876823,
          -0.44125024214402664,
          0.02209002875994915,
          0.008852799116471239,
          -0.23778314730137573,
          0.7241478961686558,
          -0.41866585792792504,
          -0.01303285699153507,
          0.2214571843027466,
          -0.391520358000672,
          -0.2762579676350906,
          -0.30334420124023687,
          -0.2493889730998327,
          0.6269592675459226,
          -0.01574224816342732,
          -0.3622024716061401,
          0.22586456324010007
        ],
        [
          -0.1561512937748211,
          0.6320331197767375,
          0.03448575655128092,
          0.005411615825787293,
          -0.5052273254716251,
          -0.04876993782736879,
          0.00012667190668888483,
          0.34124541616392556,
          0.05987855977577539,
          0.47216735075293254,
          0.40608273243634124,
          0.6718220793576106,
          -0.2684858413134988,
          0.4203929970817204,
          -0.07541538411344283,
          -0.09408751855099635,
          0.2724738801800953,
          0.08766370098229537,
          0.3104563842859265,
          -0.07094119242786529,
          -0.10270052667518274,
          0.07535118552948264,
          -0.21541471645123464,
          -0.3334364364180264,
          0.08180264167184806
        ],
        [
          -0.22125458666503675,
          -0.4481906659051658,
          -0.38632972065199017,
          0.030972589345508957,
          0.71090849731696,
          0.4972959986233341,
          0.2816754802913455,
          -0.05193020693126455,
          -0.4590366037129503,
          -0.22231664724649627,
          0.17042153301110385,
          -0.34013763724106666,
          -0.05813568485719626,
          0.3407655463684172,
          -0.2435545247106003,
          -0.527028565059387,
          -0.14044809509465794,
          0.06106518301302979,
          -0.48605506831175943,
          0.07748050502726854,
          -0.27053462581674864,
          0.2438004697987588,
          -0.17128474502316915,
          0.6756466326863183,
          -0.30934101019618887
        ],
        [
          0.20785765546166035,
          0.2786397443154017,
          0.11645690778467516,
          0.1520002872141967,
          0.34335483867043876,
          0.3556476204199652,
          -0.20213299476277283,
          0.030252237786476573,
          0.3551781404016244,
          0.1947131767862417,
          -0.34312255420052784,
          0.358164661392855,
          0.3236517010341429,
          -0.005747720685042438,
          0.365585323729392,
          0.15823870379376065,
          -0.127107141404412,
          0.04817363807985979,
          0.20711141675595346,
          0.0037106757598362934,
          0.06884416484458547,
          -0.0910880244794849,
          0.202154224138067,
          -0.05502068604394301,
          0.33661641618912896
        ],
        [
          0.5963174511120664,
          0.019424988508964066,
          0.12367999049220807,
          -0.13521013181152586,
          0.03188012972347414,
          0.2620761153075346,
          0.047621796510229616,
          -0.016879229023209673,
          -0.5036298207188338,
          -0.10632899386110338,
          0.25157956505489837,
          0.43600263698035496,
          0.19294863808013668,
          0.07743371801273811,
          0.07949049836015452,
          -0.4615531954496083,
          0.09973954576772093,
          0.06054599720935526,
          0.018723756172686817,
          -0.3918357486504517,
          -0.024725935641837154,
          -0.15433940110698643,
          0.09011995459128164,
          0.4921579464538463,
          -0.04615957564278399
        ],
        [
          0.6698958377694183,
          0.15201163030009582,
          -0.35314209140226965,
          -0.4625438498594215,
          -0.26626580562726504,
          0.2554389758962162,
          -0.39291972531498676,
          -0.2018406921194187,
          0.620222878972336,
          0.1760954164999496,
          -0.24367219825700925,
          0.3458541532426486,
          -0.08798523031646047,
          -0.5465115670696058,
          -0.016740296565688775,
          0.17647566449105137,
          -0.4319331395050195,
          0.2391861017412709,
          0.5165853617736044,
          -0.0036096279211200897,
          0.1920769607421153,
          0.09775320210894686,
          -0.15495099166287804,
          0.5661404305339386,
          0.03144277838582065
        ],
        [
          0.2200500715766936,
          0.5613854604386089,
          0.003616047647254496,
          0.19788965583175444,
          0.3200232938492701,
          -0.1927252899109627,
          -0.26688418005706355,
          0.39946107276249015,
          0.09363912885528582,
          0.512314657826273,
          0.4744074434673389,
          0.3555161846441633,
          -0.16434801727155007,
          -0.0770613302668397,
          -0.12296657571230706,
          0.20931612338354957,
          0.4630398809283141,
          -0.2898217444289895,
          0.5051813332686931,
          -0.2632468477048581,
          -0.3263277847795681,
          -0.38804731027961553,
          0.16095775709302587,
          -0.19617160346854004,
          -0.2703240020558837
        ],
        [
          0.13231938919752614,
          -0.005074223645592149,
          0.0621503658001543,
          -0.3607679508679287,
          -0.21895157574257457,
          -0.052133518310811616,
          -0.2063336703723824,
          -0.2611872991610812,
          0.07566292794148666,
          0.05457565710953959,
          -0.24830000421048923,
          0.27958226967119804,
          -0.141818282503695,
          0.35373894485236074,
          0.3923813269681194,
          -0.2022681592109024,
          0.07964901686111095,
          -0.0937901386495205,
          -0.13026161362600555,
          -0.009760658118098522,
          0.3252710550116431,
          0.24897989303655974,
          0.38328763665189763,
          0.3769044469531814,
          0.2831163282108823
        ],
        [
          0.5446327941952196,
          0.7299609046886811,
          -0.3459062789485947,
          -0.3675611885024139,
          -0.4554381474619592,
          -0.1572346458696687,
          -0.02469792606866129,
          -0.1269634960976256,
          0.45954909994073484,
          -0.043256450000108554,
          -0.47400634766907157,
          -0.3630695351144072,
          0.09467456901249015,
          -0.5460365427023427,
          0.445147798542468,
          0.6819073498496189,
          -0.306451046682972,
          0.2031777949284578,
          0.6143796632078472,
          -0.09429201535986176,
          -0.19171882386050507,
          0.1702223971122728,
          -0.10749781062624203,
          0.3603161245933053,
          -0.22577475259903623
        ],
        [
          -0.03672409580388541,
          0.2961336879976785,
          0.18024889890415563,
          0.08333023571608714,
          0.0007989027625585091,
          -0.0003243779183633435,
          -0.13425422261640804,
          0.2570123297539546,
          0.1275695164893412,
          -0.11425203892295958,
          -0.31725575440011705,
          -0.06171987979730148,
          0.30439436926923347,
          -0.013285260211673037,
          0.12131013730711918,
          -0.24087731537747303,
          -0.23187414034407705,
          0.24687215722109956,
          0.15599677980760668,
          -0.14753023666956158,
          0.04255251519594056,
          0.01990544103622022,
          -0.09386630229844725,
          -0.0335111621104596,
          -0.14128427841711477
        ],
        [
          -0.1302510648509833,
          -0.35405967907523195,
          -0.15912313240512216,
          0.4802941925281735,
          0.19211114439539398,
          -0.2521826493213454,
          -0.38219626844255866,
          0.5805389739049738,
          0.24708714824941486,
          0.0850928437038796,
          -0.1779266879618763,
          -0.31228125423942765,
          -0.3843106667082244,
          0.5169710472882237,
          0.04474315887911431,
          0.2702225039897371,
          0.4468436886923978,
          0.14411971099249274,
          0.3110097860388855,
          0.15172498187793787,
          -0.2516442533464223,
          0.6547962068861717,
          -0.052751678450285805,
          -0.15729902204387541,
          0.009296896684241666
        ]
      ]
    },
    {
      "activation": 2,
      "biases": [
        0.5106758446033003,
        0.1389654043113782,
        -0.09223341684905377,
        0.004332942761420855,
        0.2231715546881868,
        -0.03879357674477667,
        0.03241650289135875,
        0.0,
        0.19111743784779034,
        0.26082926758678693,
        -0.10745087086579737,
        0.08483307692909423,
        -0.005731805762720292,
        -0.14001464545083164,
        -0.027445382746966118,
        -0.02652860138271749,
        -0.15760431082047538,
        -0.049719922404655545,
        0.183545228265081,
        0.029354377858180396,
        0.07659703860157976,
        0.0,
        0.1817575403708949,
        -0.005796113146000846,
        0.0,
        0.3108732102539517,
        -0.11877013102367778,
        -0.028672036773108926,
        -0.21079104019014103,
        -0.11933400443280731,
        0.0,
        0.0,
        0.5975575784424648,
        -0.26056310994866055,
        0.23808898321764196,
        0.4257663846469534
      ],
      "cols": 36,
      "rows": 25,
      "weights": [
        [
          0.34756419022888413,
          0.5279731370873658,
          -0.149506062883916,
          -0.06374564352615611,
          -0.17613244516426432,
          -0.38583333576390166,
          0.11029312966818558,
          -0.22557639423018988,
          -0.032351448251071835,
          0.1791339182346735,
          -0.2081071069901949,
          -0.010947985966122486,
          -0.3777828068121403,
          0.5071254136762607,
          0.308830017032399,
          -0.303506337143249,
          -0.0934047820422506,
          -0.2528354282026195,
          0.2576790681017612,
          -0.4755615264907884,
          0.023259839688367312,
          -0.1733698834578313,
          -0.17369371446963056,
          -0.14109931189529265,
          0.1316150623550926,
          0.42494312650076044,
          0.02029576636854917,
          -0.01881277850140922,
          0.25453587166500335,
          0.11804238401098159,
          0.09508531308139279,
          0.03603519864117348,
          0.629016436510272,
          -0.04670211460533645,
          -0.21131682063492868,
          0.349034789473409
        ],
        [
          0.025780164041432903,
          0.26958147970212554,
          -0.08284923159908768,
          -0.04800406190375583,
          -0.6965303019109511,
          0.12374780937089407,
          -0.3531864841432557,
          -0.16316658348583427,
          -0.3875270126068436,
          0.15166474884216924,
          0.5856121077987796,
          -0.25160122498500326,
          -0.37554769663531135,
          0.6123107912780628,
          0.2819326382693192,
          -0.307442187452986,
          -0.20651236238134846,
          -0.2694596984056251,
          -0.31147449083433354,
          -0.0002592864927561984,
          0.033986706790405656,
          -0.2511574463198074,
          0.16980845754368723,
          -0.312571267661569,
          -0.2565669541420985,
          0.3698294632128419,
          -0.17461486760773695,
          -0.112850286257429,
          -0.07761802373689577,
          0.028353167086055224,
          -0.1342658219664703,
          -0.27996298661362445,
          -0.07741506254028306,
          -0.03661496281129883,
          -0.31148264392162617,
          0.31580569700570743
        ],
        [
          0.029934049349920066,
          0.23184756760262795,
          0.07198724224663544,
          -0.16070644771099674,
          -0.16653687477115448,
          -0.2469931530359814,
          -0.009426521678040181,
          -0.003557972065365334,
          -0.07978240963006387,
          -0.2955828158648301,
          -0.03487621323212429,
          -0.18303284987159213,
          0.190281931044903,
          -0.09784279372001169,
          -0.14579587383350934,
          0.10505244365255606,
          -0.2716122084296582,
          -0.07379430151618692,
          0.14766484002008387,
          0.18510362916652467,
          -0.27773029153965306,
          0.18962400271867005,
          -0.28261497721041445,
          0.20223484836949449,
          0.22328302061289526,
          0.17278333461063933,
          0.07086001760218513,
          0.10856598373175072,
          -0.18181410115214672,
          -0.20785882064150704,
          0.2400035870073836,
          0.29194548503789497,
          -0.09712011280735618,
          0.23157943504652795,
          0.08047604973387074,
          0.06330393191061734
        ],
        [
          0.00917326585114033,
          0.061972423457939685,
          -0.031658683684820915,
          -0.051385419810757754,
          0.28908365588006146,
          0.22773983976452317,
          0.21444121270579755,
          -0.2100819248130661,
          0.04299509041286739,
          -0.05331052547133754,
          -0.41209789405845837,
          0.3577930744452143,
          -0.09638238670779667,
          -0.3131670094094274,
          0.160930263957705,
          -0.09532387364713016,
          0.18705432401544833,
          0.08193490211885524,
          0.2654926293974433,
          0.29399682739971283,
          0.1568360734272102,
          -0.04688114637346866,
          0.15835116105591152,
          -0.11160143929091265,
          -0.11931086296756306,
          -0.1539652941010015,
          -0.22677362910886031,
          -0.006847460432773056,
          0.07780983058820179,
          0.2990352292392902,
          -0.10477305865796953,
          -0.24935993640794452,
          -0.6068623292476405,
          -0.14059329180178068,
          0.3246270080287955,
          0.0746734601473279
        ],
        [
          -0.0023437910575784646,
          -0.2604511498688724,
          -0.23881512722091838,
          0.06660098207790867,
          0.40872652595737424,
          -0.3972182465721293,
          0.5611724021697188,
          -0.05638908756552644,
          0.0297619539483455,
          0.04767657803573057,
          -0.016923298219648216,
          -0.2907434592557575,
          -0.15841486050191017,
          -0.7326192263894478,
          -0.3251548494670193,
          0.24134150237243776,
          -0.06503057412256055,
          0.12133923355965602,
          0.07211887502927414,
          0.31154609526501637,
          -0.22274406028053745,
          -0.10536657578961174,
          -0.3991394813998173,
          0.15334606533692888,
          0.060730158582037105,
          -0.007383191721468413,
          -0.2791253139554188,
          0.02314857372261572,
          0.2864797274397748,
          -0.11756271823827641,
          -0.22991160307937528,
          0.2923707784133249,
          0.2302527269126957,
          0.2063334398066229,
          0.5389318675163175,
          -0.3692788678489041
        ],
        [
          -0.35491011409710155,
          0.31783128266661487,
          -0.3868043491458153,
          -0.30039794956252275,
          -0.022636001612576846,
          -0.4798504605188449,
          -0.1726687684587108,
          0.04342809702625745,
          0.03360865790244908,
          -0.2645703943777754,
          0.009182703003589662,
          -0.48631343943771077,
          -0.039078678217125164,
          -0.024411443487704777,
          -0.31914113830374674,
          -0.1262055632356395,
          0.1384454156068365,
          -0.16627280301655414,
          -0.03409679925996282,
          -0.07004001068944267,
          -0.21591164017840636,
          -0.1691532635956541,
          0.1845858168533448,
          -0.25885211983129547,
          0.15594688775602727,
          0.08731302309911317,
          0.1953540978052378,
          0.2735832244914659,
          -0.01722321808477407,
          0.5140916465562803,
          -0.264016122031354,
          -0.0012047056162623475,
          0.06932951539787074,
          0.00458910927178057,
          -0.06488700867843236,
          0.0920314599089721
        ],
        [
          -0.3735406575116856,
          -0.09587351527799785,
          -0.14091351668879565,
          0.010273993416275324,
          0.053564849369564474,
          0.0616366508022262,
          -0.10572123243886483,
          -0.22302936956898287,
          0.26718093156012146,
          -0.22680347195608855,
          -0.12120382297731516,
          -0.02681861536922033,
          0.010470478519513868,
          -0.31557163584677966,
          -0.03046110796258289,
          0.1566964353630652,
          0.08797360906698307,
          -0.050694804941005395,
          -0.38386306101636225,
          0.18246510793752335,
          -0.2370828328771546,
          -0.26168286785899714,
          -0.07064474865072157,
          -0.1186018760360012,
          -0.2786088586751133,
          -0.18394481351182346,
          -0.3159296516889916,
          0.30248698729929774,
          0.02348501731426699,
          0.10332456552924595,
          -0.15212210485513225,
          -0.17548575053168067,
          0.23845396017517972,
          -0.0075986473234914125,
          0.11846502573848429,
          -0.09378494916106847
        ],
        [
          -0.281797456846226,
          0.24083086274854146,
          0.22366857732963802,
          0.18508134293058812,
          0.12623888601057096,
          0.47734133089487263,
          0.4909571450478401,
          -0.008326379307244829,
          0.07539857926008407,
          -0.31863409375594176,
          -0.16018818654942746,
          0.28863982920066944,
          0.26100207066318293,
          -0.11816151820428442,
          0.32394205839420803,
          -0.20662021214090817,
          0.21988105595573187,
          0.25602940814826575,
          0.16245125520992193,
          0.025934572079904884,
          -0.17656691777179073,
          0.17337778234128817,
          0.383943092931593,
          0.052298784119012544,
          -0.1574780353305133,
          -0.05366249552666819,
          -0.3063205003912871,
          -0.06360113326287757,
          0.4916724896460486,
          0.12879944877841262,
          -0.04501988926208321,
          -0.05928260983648396,
          -0.5467374226214766,
          0.05496976713891813,
          0.13819246170710836,
          0.16402246552641064
        ],
        [
          -0.14933475896711845,
          -0.2871661983881913,
          0.19107123335806533,
          0.24402734185365596,
          -0.1746642843948109,
          -0.20472915999183483,
          0.2192579357436841,
          -0.06469627112261996,
          0.23272416021778158,
          0.3633218809302982,
          0.5555106423444832,
          -0.07270290708544445,
          0.31639991547449103,
          -0.17630998451759985,
          -0.27431552853083063,
          0.1898920211840357,
          0.04347577118012154,
          -0.08697223220930615,
          0.1453543980522152,
          -0.32991078818266995,
          -0.09584861944705633,
          -0.24333606760823787,
          -0.15871230401681782,
          -0.11565787369876727,
          0.26186354996214156,
          0.28462880096041915,
          -0.12967681098148515,
          -0.03516650284636729,
          0.3375576406615824,
          -0.1211799701824794,
          -0.18572071409355825,
          -0.28974700054429126,
          0.3305280756074511,
          -0.3831580533547198,
          -0.427161069911783,
          -0.046899066056484584
        ],
        [
          -0.08903523695332834,
          0.48860796737664,
          0.12035026636855664,
          -0.14855158667097226,
          -0.2810809361966638,
          0.18962064612331944,
          -0.4063776075974816,
          0.3013547986967154,
          -0.023284618709711793,
          -0.30759826994978423,
          0.16413989030853665,
          -0.15182837377520736,
          -0.05186358291454295,
          0.41802001239678405,
          -0.05402100803650396,
          0.06825464865391014,
          0.1740981725113366,
          0.12422575441391566,
          -0.2633395647043439,
          -0.17416376234916378,
          -0.11043761547101098,
          -0.07897411124009135,
          0.35823615202074405,
          -0.014508515892801143,
          -0.2729039157289617,
          -0.11146110920621827,
          0.22395811200336296,
          -0.179128674986039,
          -0.15080361964117756,
          0.09416875099218738,
          -0.21180199102564462,
          0.19153597736230274,
          -0.0881640912204575,
          0.32380214174847544,
          0.06085769706702488,
          -0.008868211300735594
        ],
        [
          0.3059608673305684,
          0.4240824411053363,
          0.29443506775003214,
          -0.24961214624577546,
          0.012466399476776496,
          -0.1274279486022489,
          0.07576819553434751,
          -0.17403741578252652,
          0.16047525680062305,
          -0.2772794837097927,
          -0.589870178358218,
          0.015614707869407113,
          0.0345422497792457,
          0.05064446936670305,
          0.1405514115175461,
          0.011258560855114312,
          -0.32169571441883604,
          0.235136816464449,
          -0.05637299893359107,
          0.3763789799794058,
          0.03707463098880307,
          -0.056785648142652426,
          -0.02553531681627434,
          0.1871727067114596,
          -0.24375931199992154,
          -0.03088767053548173,
          0.07118053140138193,
          0.14969955657511458,
          -0.10083462386402893,
          0.10007188915618928,
          -0.11203970576230116,
          0.09792423161500771,
          0.020379434226613393,
          0.3161033004309083,
          0.35767406554271797,
          -0.1504070380178327
        ],
        [
          -0.14903611365777103,
          0.4212904954157915,
          0.03816533312429695,
          -0.12394190927755756,
          -0.536752043903722,
          0.3070229119968888,
          -0.2570261156079749,
          -0.17987236010241942,
          0.1315755167186179,
          0.1238432489116671,
          -0.1607373623416673,
          -0.24389111360170948,
          -0.1401795960770008,
          0.4617824294886452,
          0.31142666892695836,
          -0.05220247707763837,
          -0.004677120661872036,
          -0.21074746542036674,
          0.19124771520881476,
          0.29750263267600935,
          -0.14990555953862778,
          0.2781850073285865,
          0.1541961540376042,
          0.03310390356974001,
          -0.29269207220860927,
          -0.25570660243396504,
          0.19862446581559406,
          -0.012100747992927976,
          -0.26366097355841983,
          0.3572074561203081,
          -0.046690089081208,
          -0.09156568972572152,
          0.17875686479820602,
          0.36166428438625364,
          0.12535777305892457,
          -0.1835438876196134
        ],
        [
          -0.05140436031637676,
          -0.1380198207056354,
          0.08607795609950492,
          0.3050339857488566,
          -0.003788199548829924,
          -0.04324052940835881,
          0.04929376200299396,
          0.23047602084470195,
          0.3563855953808411,
          -0.01999524809296803,
          -0.31174348629197507,
          -0.13039112782041012,
          0.23014983176006726,
          0.0889458765811022,
          0.23528161192751787,
          0.24482797167299555,
          0.20450267112519058,
          -0.25331849053461697,
          -0.28086122613822173,
          0.22276213362823558,
          -0.14002587856666854,
          -0.06644101568683357,
          -0.03154483856122879,
          0.009406448148479345,
          0.24647032195645113,
          0.047715006365558074,
          -0.08580661624087398,
          0.007606869214383314,
          0.130131044186818,
          -0.2059645470725245,
          -0.0305169057006472,
          -0.30017901704908656,
          0.3472780660675456,
          0.01660892414500388,
          0.37925400666273673,
          -0.15100046422070706
        ],
        [
          0.24653273865876055,
          0.12370713306616737,
          0.5226726038990098,
          0.19412959056273082,
          0.2149770920119455,
          0.4482187555353474,
          0.294130104806961,
          -0.28581526711773564,
          0.18142796080987933,
          0.14076961243148164,
          -0.2709846188370687,
          0.25325141359153014,
          0.374088460375243,
          -0.48457027002696984,
          -0.14747044413243288,
          0.00717584079789844,
          -0.3335698906002662,
          -0.008884076359115433,
          0.16804539485911638,
          0.009830652693124843,
          0.11662583437444415,
          -0.16906487543151275,
          0.05567490575191527,
          0.021805965961261633,
          0.06738289393732128,
          -0.4916543698502501,
          0.21988623828976778,
          -0.10456977817978973,
          0.3092263972893144,
          -0.08155197033616368,
          0.19290530633589678,
          -0.13660197450885053,
          -0.2641506750728852,
          0.4146028081102213,
          0.09784125010730231,
          0.1379013546480527
        ],
        [
          -0.01999912772241829,
          0.044579248294795655,
          -0.22604884174242987,
          -0.2155416612155316,
          0.1208067514628179,
          -0.26687621114887616,
          -0.025879291904272204,
          -0.2163254303581532,
          0.30034118124016634,
          0.22241879673579684,
          0.4239617762388001,
          -0.32999158597492495,
          -0.13628169136656698,
          -0.030471388877288123,
          -0.06732821325790211,
          -0.1532815944084528,
          -0.01857321644443777,
          -0.01008378826762821,
          0.10429447027636932,
          0.08973533189676022,
          0.2592240095326295,
          -0.030643089509518485,
          -0.07917732743503708,
          -0.12818482379508533,
          -0.3092886214886568,
          0.3815498111671493,
          -0.026884968409366345,
          -0.15052087432121997,
          -0.07066981306675418,
          0.3032647478474801,
          -0.09601549211663138,
          -0.13420920517196747,
          0.473218067422738,
          -0.1209002959632698,
          0.0816074800786561,
          0.3055062718357096
        ],
        [
          -0.13757870422861448,
          -0.32531095745900784,
          0.4480839617007659,
          -0.2395956226133458,
          -0.46785871932233947,
          -0.27616257662222876,
          -0.3699126309350295,
          -0.24022873658515562,
          0.05343668381884003,
          0.012623573695803098,
          0.2664441867446242,
          0.004668986129889331,
          -0.14653356477974283,
          -0.3665689202273936,
          0.25377785291009874,
          0.038248277507102905,
          0.039764467888282376,
          -0.11854641575668735,
          0.1486151070061853,
          -0.2609667581625278,
          0.10478717275225004,
          -0.04611582480254279,
          -0.07718286757162755,
          -0.3115262168905414,
          -0.1927120326945746,
          -0.09425081897752387,
          -0.17740571305909095,
          -0.055827151947580415,
          0.39364423387658765,
          -0.15292642899868314,
          0.18199798139041073,
          -0.06293804415773019,
          0.2780403623220035,
          -0.02681317060550269,
          -0.455150187040666,
          -0.020236623544436037
        ],
        [
          0.0045734826187387514,
          -0.28009240113050676,
          0.35954368388137103,
          0.036522189398318354,
          0.32155657718544706,
          0.5052057986797134,
          -0.10796837185552222,
          0.08418439416748513,
          0.3120463101035107,
          -0.0056641562802558255,
          -0.053958598252297645,
          0.2615016726363562,
          -0.17428000989636802,
          0.07987647052354838,
          -0.0691855450857593,
          -0.09249932998083087,
          -0.02786350340075562,
          -0.2556742872899111,
          -0.18299130779110676,
          0.29004970250256706,
          -0.12355297831067383,
          0.2123921030179406,
          0.17669722313001934,
          -0.1669265737541006,
          0.20811534088245554,
          -0.47913827597071973,
          0.12169973129497799,
          0.07781988529464848,
          -0.31871714886306857,
          -0.07824173985680355,
          -0.25841178024398126,
          -0.25612691538584725,
          -0.33593038380231216,
          0.18688463676045264,
          0.47624265776959185,
          -0.25871245853580366
        ],
        [
          -0.0607240828097876,
          -0.16897974551619568,
          -0.21928567058494128,
          0.15054206733090789,
          0.2548147273174489,
          0.15021602538455026,
          0.045775996780780044,
          -0.188995937355169,
          -0.024266885201438125,
          0.13745515641877618,
          0.1381283314191531,
          0.23938504306543065,
          0.19021084422329584,
          0.27903921739121773,
          0.31214475036842837,
          -0.31061957999214485,
          -0.12676299173325983,
          0.19884138224286257,
          -0.11434628913794356,
          0.18198067963373044,
          0.22274301194766363,
          -0.005948810713358492,
          0.014223894596076422,
          -0.29063618676073205,
          0.24826551971502314,
          0.22650493922182477,
          0.22242255165611802,
          0.15612759906777818,
          -0.19064571165112634,
          -0.257029842949281,
          -0.0474569125586803,
          0.09201381868180222,
          -0.3104690056493467,
          -0.23671404585814582,
          0.2867762519934924,
          -0.2697250513587832
        ],
        [
          -0.07165753606407181,
          0.292382712728331,
          0.26541701983454824,
          -0.16616663346779903,
          -0.626684663026476,
          0.005175340278278937,
          -0.3625536480855606,
          -0.06047510844587322,
          -0.3011625839358871,
          -0.23338069119631208,
          0.5529344495975904,
          0.10701952321825457,
          -0.29714884846221146,
          0.41218949647821834,
          0.3155873239376203,
          0.01884392565283583,
          0.18766869561459823,
          -0.06903678585987752,
          -0.11106503816580575,
          -0.1990530916283688,
          -0.09912481073209051,
          -0.2489039976546568,
          0.1538277824049323,
          0.30057569701626047,
          0.1312693092727219,
          0.33331028170783134,
          -0.1311392305404406,
          0.2444772636677563,
          0.2673036592105473,
          -0.21281219205240853,
          0.25373192035314857,
          0.3048818036514223,
          -0.1095817475390234,
          -0.20901638960105887,
          -0.1736419206516565,
          0.24379062309093885
        ],
        [
          -0.03274586587010493,
          0.034243329203312564,
          0.12900267701093976,
          -0.28107622562466295,
          0.018273943909169352,
          0.06351727886496415,
          -0.035169515129956024,
          -0.2600695865592804,
          0.15526351472776684,
          0.2628438775459727,
          -0.2675865254256904,
          0.053240575036048315,
          -0.29345868479994264,
          -0.12131331565113247,
          -0.14265951820308154,
          -0.23818358267139392,
          -0.019757918707893507,
          -0.23491522372439763,
          -0.13973425260274774,
          -0.2708247407986886,
          -0.28513516516131754,
          -0.19891722151339167,
          0.31310978865615274,
          -0.12692640892118587,
          0.20486147232514582,
          0.027431934742101826,
          -0.23268201399477964,
          0.07913440193877723,
          0.10205765105364467,
          0.27415582698066837,
          -0.20069224926874246,
          0.1428303283813998,
          -0.18799012789093777,
          -0.1235333882258032,
          0.29597690773053437,
          -0.3126254389834048
        ],
        [
          -0.26138985053375485,
          -0.28793688571905096,
          -0.2554240602170487,
          -0.22801117605832386,
          -0.2223631707097574,
          -0.044676131127536725,
          -0.22454356939863335,
          -0.3112055335551329,
          0.15373718579352671,
          -0.10498289558579081,
          0.05602068768822648,
          -0.2714741322420564,
          -0.09298653683946702,
          0.27698913597751945,
          0.2984166296725426,
          -0.041666427535005116,
          -0.2560642325479457,
          -0.308361845840248,
          -0.08928838054035337,
          0.20218109080548227,
          -0.0763527162091763,
          0.04101486209505531,
          -0.19168634648153143,
          0.025259146227983805,
          0.1312508692952639,
          0.019669723991662856,
          0.21741109823509766,
          0.24179122820736704,
          -0.245943462194046,
          -0.041917553852395484,
          -0.31112435728802346,
          0.06339469384850017,
          -0.09152289537714872,
          -0.02799641150881369,
          -0.2362543458281105,
          0.1778921039435664
        ],
        [
          -0.08257171802990788,
          -0.49604307303728196,
          0.11029673266022394,
          -0.3105058148479741,
          0.34545940226932764,
          -0.024264254439844195,
          -0.025468755249942403,
          0.20674937177486769,
          0.009738697667993413,
          0.5810480226638347,
          -0.5106523516213657,
          0.15763481938598542,
          0.42372485800901016,
          0.051671871873896484,
          -0.13687688000127418,
          -0.29073456091762145,
          -0.10975502062641053,
          -0.3090049881953482,
          0.43318966450845353,
          0.19788038987146037,
          0.13385340884925961,
          -0.011015726116588683,
          0.05231551816150989,
          -0.1220707832865467,
          -0.10505922881184693,
          -0.15268545381442308,
          0.16491432457350547,
          -0.1694158578863552,
          -0.029330523612979595,
          -0.022579244338686168,
          -0.31067125147748054,
          -0.2232123582757829,
          -0.07922664565337723,
          -0.21678578518677882,
          -0.00028825012970586127,
          0.03809084185145878
        ],
        [
          0.05641812793045681,
          0.1308571778795548,
          -0.20055330129882898,
          0.2716153906127443,
          -0.29250825485364274,
          0.2546400936242472,
          0.2691185329015519,
          -0.12857553677532058,
          0.18385757770043032,
          0.25682113590639105,
          -0.1048553746449048,
          0.0020105100237165358,
          -0.1812649738850322,
          -0.1994126164206891,
          0.23534195445535364,
          -0.16195567527593774,
          0.013515798819098989,
          -0.19894484292421816,
          -0.07463601482806702,
          0.07317463551524822,
          0.14713431907195385,
          -0.10254462628803131,
          0.028682761186162885,
          0.16263919756017742,
          -0.021572993799449606,
          0.06522789258830591,
          0.11595953317667371,
          0.27538356927883734,
          0.030483474697987102,
          -0.25030820112024427,
          -0.22232247192904422,
          0.05243266644058156,
          0.09022247938014938,
          0.025479574526600497,
          0.08175658414163758,
          0.11953182023404355
        ],
        [
          -0.04175568081950031,
          0.4241730832192805,
          -0.12942579414372926,
          -0.08580804461580242,
          -0.019780385807298337,
          -0.24345748973423154,
          -0.06689225600306227,
          -0.09263057797789781,
          0.32370741334224873,
          0.37218974212879546,
          0.1959621103203966,
          -0.41142181898427793,
          -0.07128351654180702,
          -0.1978363224968279,
          -0.19454601456999496,
          0.24139951095385967,
          0.09437344243391306,
          0.20944391316793048,
          0.36204674848934154,
          -0.5038362203821976,
          0.399473072672628,
          0.21559839542863257,
          -0.35754335463919645,
          -0.07871660582846475,
          -0.026778935159572647,
          0.01204448961143967,
          0.024547932684885598,
          -0.11680750270966526,
          -0.07505268880392726,
          0.14046588447655806,
          -0.04524866041497562,
          -0.050492836133098275,
          0.8254629932759266,
          -0.43082476622680527,
          -0.3116954317105339,
          -0.048441292417333186
        ],
        [
          0.23121394532689932,
          0.19503875523834505,
          0.13446289068203549,
          0.10685752355896652,
          0.16150865478647386,
          0.298806532961818,
          0.2566041384506943,
          -0.007504473947541458,
          -0.04234894270649253,
          0.11795477308695305,
          0.2936140036096294,
          0.2261871196123539,
          0.029650892132176268,
          0.16594247539624907,
          0.01636733254986291,
          0.018997344703868792,
          0.15930831408592683,
          -0.012567258377553816,
          0.039468390517253045,
          -0.23202757442794983,
          0.07664652996328969,
          -0.06129640831116373,
          0.05313654361852165,
          -0.11964253224404975,
          0.29197137145749513,
          0.14589430857488114,
          -0.14663370312624385,
          -0.30068304835715504,
          -0.08530977256747274,
          0.17589840914019522,
          -0.2671771916328542,
          0.0362183082716044,
          0.013925529264811462,
          -0.15660585202809058,
          0.011133778541495347,
          0.2868756779826209
        ]
      ]
    },
    {
      "activation": 1,
      "biases": [
        -0.542584102621072,
        -0.24289062692014807,
        -0.6207468773636966,
        -0.8722995268778184,
        -0.5127199519674478,
        -0.49397606030358576,
        -0.08152589800071822,
        0.27369267159025434,
        0.24652555202931273,
        -0.4797631262716791,
        -0.5078277035163884,
        -0.14500265323643044,
        -0.33531175917773465,
        -0.1937154521972947,
        -0.3897916487779845,
        -0.24744995683639762,
        0.21446162504021243,
        0.13009512447075328,
        0.3874954466891433,
        -0.33061719475673507,
        0.09369215861615983,
        0.034807404265167596,
        0.1238646395789679,
        0.07552981413307178,
        -0.04904357991814939,
        0.26423928127625934,
        -0.17292469620827106,
        0.09709633748294237,
        0.013742730668332872,
        0.06395052772848969,
        0.289616394808241,
        0.26105262562750375,
        0.04008054010723201,
        -0.06936477072300586,
        -0.009148078921569948,
        0.07886935322436327,
        0.3202799882075146,
        0.18397338951349188,
        -0.18195910743839844,
        -0.024872316129674485,
        0.17556360765085915,
        0.021505235268931205,
        0.17245309666528644,
        -0.13603378497630345,
        -0.17323554402589364,
        0.15462537013653474,
        -0.3454798278415031,
        -0.08750163146788573,
        0.11399508875955856,
        0.1701129115991798,
        -0.06297102890352765,
        -0.03669408817598171,
        0.3782679853580183,
        0.14379583771154503,
        0.013845777490963877
      ],
      "cols": 55,
      "rows": 36,
      "weights": [
        [
          -0.24939626500026874,
          -0.23305018215473464,
          0.27878289426548286,
          -0.17565081443818814,
          -0.2999327264232986,
          -0.212249416793903,
          -0.0385596166001905,
          -0.4054371981719728,
          0.03725316017994377,
          -0.1823183493955153,
          -0.26253878837051764,
          0.09264734287133038,
          -0.35169178977772286,
          -0.24327953760099671,
          0.042781535067521984,
          -0.22181310716544098,
          0.23786252483335907,
          -0.0354935383343811,
          0.12141688867875255,
          -0.2577856518674329,
          -0.13076912205990482,
          0.1588176974161922,
          0.06176174177996397,
          0.059255105086145815,
          0.09942899019718107,
          0.05928267762029265,
          -0.25507016172823394,
          0.058656199017249916,
          0.1718120227633458,
          -0.05442060145378806,
          -0.11263170253072682,
          0.15928312872344447,
          -0.07185899104645058,
          -0.21011697251903255,
          -0.2373118752849085,
          0.21440423056939004,
          -0.03771541837429712,
          0.10150626769545502,
          -0.09045127231147936,
          -0.10142664229807936,
          0.22065060867620728,
          -0.06269492688925656,
          -0.1424012331827909,
          -0.18030611147801634,
          -0.02433315856114539,
          -0.02478199960577486,
          -0.03552679639197298,
          0.19791450551489942,
          0.27728472463114157,
          0.13784401806988025,
          -0.0034249724016600074,
          0.19222575361080108,
          0.0648393224636051,
          -0.12802456716838803,
          -0.1894437643331467
        ],
        [
          -0.5438697643455858,
          0.32024904749959066,
          0.5565134144602407,
          0.45857824242806594,
          -0.060097235953809176,
          -1.18265631350847,
          0.04152518632276584,
          0.059130171921493224,
          0.02233345752400195,
          -0.014902131116705224,
          -0.07750503522182219,
          0.09165654366292038,
          -0.07009547204530045,
          -0.09111418313873648,
          0.23958921098142694,
          0.11002767327809472,
          0.05616933242003918,
          0.1651609651323613,
          0.025916126720797936,
          0.02312789247483416,
          0.0008967256891719178,
          0.1957815337794839,
          0.1601631121864393,
          0.061737160668285336,
          -0.16700992351907673,
          -0.11767555290471894,
          0.05116327658133698,
          -0.0976462117564735,
          -0.03414351366249535,
          0.2987561070178057,
          0.0776352196144789,
          0.08383214677449219,
          0.30008578073157766,
          0.04047132464115856,
          0.3233170284879787,
          0.11833131879160622,
          0.2988748198331555,
          -0.17490590910717044,
          -0.28830061775902194,
          0.09623860297474394,
          -0.1439361750175901,
          -0.019963324064899396,
          0.14712646604958388,
          -0.0206347344671858,
          -0.07353691574568826,
          -0.09663096000011989,
          -0.12459678271509791,
          -0.015231435285393351,
          0.18908821688383196,
          0.41568586165249116,
          -0.04972698364338707,
          -0.04627175445249759,
          -0.07133046609807957,
          -0.6035495917285584,
          0.04138368453399345
        ],
        [
          0.4464589145878847,
          -0.09219677230569381,
          0.24713014717508336,
          -0.5398981555025294,
          -0.01869031439389365,
          0.35425792683177887,
          -0.07015420615120448,
          0.3443797505599623,
          0.036449562416916284,
          0.036585819445518974,
          -0.03591558955832614,
          -0.11453001316885295,
          0.09303743225116767,
          -0.012125093428529092,
          -0.1296055708976537,
          0.09339454883191475,
          0.1968790120260035,
          0.127256012295399,
          0.23279726280050012,
          -0.024099285504615525,
          -0.10421831945800594,
          0.3766454980187923,
          0.189310997864,
          0.0622144683766363,
          0.11145968641857124,
          -0.11739334517381216,
          0.1526178733092644,
          0.05447190831142779,
          -0.20229109323523015,
          0.12089525976986124,
          0.03998562679578208,
          0.07264830145097026,
          -0.19963491501501313,
          0.0448431570573762,
          -0.22539320404367527,
          0.08300591922693921,
          -0.04144781695530747,
          0.20052365075225267,
          0.34527477110813487,
          -0.0038929622838610694,
          -0.08555814115425037,
          -0.0712172113407888,
          0.12541877314858418,
          0.18096332118241285,
          0.009757636129151724,
          0.06463311054970189,
          0.32645210901537014,
          0.13351173744821326,
          0.36514055647406474,
          0.25218915522678065,
          -0.07790273313634408,
          -0.11725612831306104,
          0.2603633856997108,
          -0.2374993837717637,
          0.1756192867343768
        ],
        [
          -0.16559956262769282,
          -0.21808975035254538,
          0.022213472353503117,
          0.1867332525684203,
          -0.20733500829269386,
          0.1802328052683266,
          0.17447393739021078,
          0.25221455742731846,
          -0.12545136817540056,
          0.17848628888213236,
          -0.22112593836809602,
          0.11653513933444903,
          -0.11818163678211398,
          -0.1502084978184509,
          0.20168919791375417,
          0.08453039569434052,
          -0.2022277235963696,
          0.14395156586852348,
          -0.036259884827504675,
          -0.23798787486303846,
          -0.0856962554408134,
          -0.1504693506842448,
          0.04402023160950666,
          -0.086516905811555,
          -0.0837997607294513,
          -0.06416913624076581,
          0.07768815261896975,
          -0.17261003243569872,
          0.09242728329370448,
          0.014440231979653185,
          0.024401079581536478,
          0.21365281368445455,
          -0.06999889085724798,
          -0.1195734229034249,
          0.1667776300139577,
          -0.1593012141447296,
          -0.10314378008609688,
          -0.22360505281610385,
          -0.16548513922805164,
          -0.15279219382345016,
          -0.08544471977147652,
          0.024685003364296926,
          -0.07136624598752729,
          0.05258589093351614,
          0.14763515057494098,
          -0.1254997529938483,
          -0.11001419802519609,
          -0.21695944200685047,
          0.12964299843996005,
          0.057116769634231596,
          -0.051877855015139765,
          0.21716308600497392,
          -0.0783300137329823,
          -0.08987017226254009,
          0.07447843886574879
        ],
        [
          -0.7296138120359119,
          -0.04963107624377346,
          -0.4423957210754386,
          -0.03119464670188704,
          0.21590408465344127,
          -0.08972985626776571,
          0.28405016872755934,
          -0.18946820230845396,
          -0.17029496304048466,
          -0.2620102913121239,
          -0.2514839669798476,
          0.01856763430522931,
          -0.25329791907820354,
          -0.11009317240937759,
          0.042998889072477425,
          0.05067413279669843,
          -0.14169854171679977,
          -0.02094775656684798,
          -0.23583856949020227,
          -0.00568327016209332,
          -0.2904327045875512,
          -0.26134799889283367,
          -0.02352663736428821,
          -0.08865024359121343,
          0.0545321551771592,
          0.31057131612765154,
          0.01806376531554846,
          0.12048291392303463,
          0.12302890913943407,
          -0.33721954573144525,
          0.13965000722904983,
          0.08310736236144385,
          0.4510363281788026,
          0.057568300160394374,
          0.2916046251001617,
          0.09727891526377157,
          0.45959671335139207,
          -0.14655733657800646,
          -0.2995463814218723,
          -0.11568085901792273,
          0.40102968482971424,
          -0.1118218601185166,
          -0.005545046188230121,
          -0.04196107076236601,
          -0.09749250739334203,
          -0.11052888423517124,
          -0.4172384086299274,
          0.08227870950834881,
          -0.1703195629332424,
          -0.13782813204172129,
          -0.13414204496259718,
          -0.013665774363936671,
          0.40043055105263153,
          0.3485878295601894,
          0.169277709697058
        ],
        [
          0.16812185459561824,
          -0.5628074744695577,
          0.4821772070891791,
          -0.6762407989955569,
          -0.661056315847511,
          0.29053282002235736,
          0.2268750618858288,
          0.02018089088219808,
          0.21057418181366525,
          -0.10037125575731456,
          -0.23377396257330232,
          0.26651157184329727,
          0.007989667909204882,
          -0.026316097383916166,
          0.15431443326039268,
          0.11766241135716177,
          0.06319183456044507,
          -0.2082662011424489,
          -0.032241943543328946,
          0.17824428694864777,
          0.16024612395773685,
          0.07753870851829481,
          -0.06209264783455242,
          0.035986282005852924,
          -0.22805261540624616,
          -0.1252379275807172,
          -0.26704969195421496,
          -0.10240353740180147,
          0.07048846339988413,
          0.030086277834192175,
          -0.11473652877317035,
          0.04054453642659513,
          0.061734724000713864,
          0.14177393592593443,
          0.08175769516093029,
          -0.0028047807513404115,
          -0.10977394942686891,
          -0.17345259933168905,
          -0.0014904949238029183,
          0.10785699347721034,
          -0.17572848223929363,
          -0.026280225645233215,
          -0.2061236542750698,
          -0.12443470648865615,
          0.2229346608453105,
          -0.1299296225907319,
          0.049254431222716395,
          -0.23368478432070056,
          -0.155245967944752,
          -0.10629304481451081,
          -0.12621272131941277,
          -0.07634541692274276,
          0.025482394758853704,
          0.1765158799889021,
          0.0482358174039191
        ],
        [
          -0.4601620630913993,
          -0.05233394883027982,
          -0.6971172558022384,
          0.38242706907333307,
          0.33480361083835913,
          -0.18524993180006252,
          0.07003905534534129,
          0.06488484225175768,
          -0.21123267594289233,
          0.13603470314371854,
          0.21844392278971705,
          0.11963804925557181,
          -0.2027571262349307,
          0.02153907388916579,
          -0.12044042993730499,
          0.0075373501764371496,
          -0.1376504263896706,
          0.09420031593271172,
          -0.05779035949705378,
          -0.19233928201006992,
          0.12227098449515934,
          -0.197003080273366,
          -0.21446129101907171,
          -0.042295888708158695,
          -0.025762472839923146,
          0.07923478902944633,
          -0.02619462146306934,
          0.007075319205028396,
          -0.16365600735264707,
          -0.058246250869780886,
          -0.08574600467804419,
          -0.11945275000742968,
          -0.025619857978103778,
          0.07020168845496905,
          0.1328781803753606,
          0.19659359184255248,
          -0.034851593687075307,
          0.16785476013758344,
          0.06417354613648524,
          -0.2731620827832023,
          0.3276071362627766,
          0.03368018115720746,
          0.2757244442804425,
          -0.23147857445213785,
          0.06163940671455359,
          0.07250716052857466,
          -0.1568407131216933,
          -0.0924690469057416,
          0.029461074076519312,
          0.08191403004195331,
          -0.15803392102332506,
          -0.21263302329606806,
          -0.06892616443346031,
          0.2108481399577057,
          0.05362155136088417
        ],
        [
          0.19232309760960128,
          0.09456529783881153,
          0.07457503293061259,
          0.09132380333399627,
          0.20436653468629531,
          -0.12190881754973736,
          0.17611438131026758,
          0.15488363866762672,
          0.07490050315993409,
          -0.005040410470360053,
          -0.2277342472722996,
          -0.14173875238995193,
          -0.13860082459483844,
          -0.11121941577331168,
          0.03574500383642715,
          0.15603347385887564,
          -0.13826204542023693,
          -0.0949169617215643,
          -0.05588897506966101,
          -0.09972640771813888,
          0.10108871946868303,
          -0.2499473564234753,
          0.23509612121515874,
          0.019741367447914906,
          0.13449136507788273,
          0.18532038894197225,
          0.22417321253144457,
          -0.03056824142452448,
          0.1381021685255102,
          -0.08519010185742945,
          -0.10451874050548515,
          0.13966999327224228,
          -0.09396022114439555,
          0.0402845740380139,
          0.22469123834976834,
          0.15948034002721645,
          -0.1209949103349379,
          -0.24996672354191357,
          0.04146760351274327,
          -0.050101622315517874,
          0.1902877728734991,
          0.08137093412878527,
          -0.04067174015944984,
          -0.035766908007683354,
          0.04222741579747156,
          -0.11853892387555277,
          -0.1919701074477526,
          0.08550280120998259,
          0.16613458978728976,
          -0.23443389638368897,
          -0.012991384299103525,
          -0.2203841034621364,
          0.1383622376033751,
          0.08504894902948418,
          -0.20130429997798815
        ],
        [
          -0.05283898165884903,
          0.0024370445763354774,
          -0.5826490876989557,
          -0.11449516635947551,
          -0.12263970616001843,
          -0.03511948372814164,
          0.06846972232121086,
          0.008220402058087505,
          0.18525985602903997,
          0.0011926356406816803,
          -0.0679486525095381,
          0.13369893748197192,
          0.02399736064644575,
          -0.04219248171174878,
          -0.0449828681526188,
          0.2005566464033277,
          -0.06211325508265425,
          -0.25281067683239866,
          -0.2872596643017222,
          0.27425650824675957,
          0.21220668593403885,
          -0.08124042638366756,
          -0.04615836556852364,
          0.08950412148011644,
          0.2686250712994331,
          0.08716086134371324,
          -0.25132664434731705,
          -0.09242332439732258,
          -0.1286122968408364,
          -0.08016896756088754,
          0.1739265682798553,
          0.0007327996179230667,
          0.09492370796855251,
          0.1382226169641349,
          0.23597433941797663,
          0.17290781243516534,
          0.16412268527074086,
          -0.08119237706427503,
          0.1869419383527948,
          0.19615554610410624,
          -0.11107169549126107,
          0.06295134267632621,
          -0.23467392883193947,
          0.1565103581799954,
          0.038802149759682075,
          -0.18805100214831966,
          0.212075475838873,
          0.06145460079410878,
          -0.0290498327836035,
          -0.2179507627308075,
          0.07171502308598905,
          -0.1962860900468199,
          0.11749849008650849,
          0.4213668182006936,
          0.012546985938733782
        ],
        [
          0.14337050790236341,
          0.18202145095989067,
          -0.5211231704167121,
          -0.6514234831587732,
          -0.20023647748092985,
          -0.0053676930821781425,
          0.02851041061982298,
          0.26744306743225577,
          0.13604555199858046,
          -0.08431465293590959,
          -0.15831724108603012,
          -0.028419718879120547,
          0.019431460301015956,
          -0.009335601389205887,
          0.016546606063307136,
          -0.3336804941658484,
          0.21136145384830762,
          0.012590705970691089,
          0.2530204063770912,
          -0.2046414091678696,
          0.08619763538208046,
          -0.206136209355348,
          0.252762593464066,
          -0.128355190851835,
          0.00188846954547377,
          -0.029910035707821022,
          0.027917162615155203,
          -0.12931778560005358,
          0.011860864340565191,
          -0.1801589777753627,
          0.004308676017889945,
          -0.1906847213687545,
          -0.23912993687690207,
          0.12574714227581066,
          -0.2605893298452455,
          -0.22421073330170227,
          0.050854429863064876,
          0.1255243583773675,
          -0.14190932518389748,
          0.11592664634598628,
          0.06719942808164672,
          0.12502633372257427,
          0.011255889950933618,
          0.20841270661116026,
          0.04905894786732035,
          -0.13089144594069668,
          -0.005312962447903196,
          -0.024873899473328454,
          -0.07854569365585597,
          -0.004771773067904198,
          -0.03131547981181321,
          0.051732194067414645,
          -0.004901471909719448,
          0.19826849243403769,
          0.06788078556151159
        ],
        [
          0.09661683764947551,
          -0.6680799346121443,
          -0.4425171642233657,
          -0.23230313658339594,
          0.5482830801414671,
          0.07459599272872089,
          0.0784026300157626,
          0.4149702252070201,
          -0.10076679268795284,
          0.2635006288750199,
          0.11980928556865494,
          0.17927222760621042,
          -0.07822121657328947,
          0.0738167503582561,
          0.0071711298429214775,
          0.1837230834756377,
          -0.07237093211742708,
          -0.10749057084750974,
          -0.04627415889501185,
          0.0997344604500561,
          -0.12715873361301627,
          0.10167407790143274,
          -0.15012144871189134,
          0.1038415855339592,
          -0.0003448657604672819,
          -0.10852889468818118,
          -0.0779526738325434,
          -0.08974932576304226,
          -0.18746868983685464,
          -0.1748830110401112,
          0.035098541653079095,
          -0.040162229674820527,
          -0.15097870030359226,
          -0.19230554423365726,
          -0.12198219375844055,
          -0.11063494779361797,
          -0.32035851100771173,
          -0.1959701214181889,
          0.45677009918065337,
          -0.11418525492627858,
          -0.016150206628682138,
          -0.02753820955644611,
          0.23940520139180188,
          -0.08493918969975338,
          -0.4041093926919984,
          -0.06129677066814499,
          -0.7229294093423677,
          0.04559947408253727,
          -0.10161964378241253,
          -0.013526317728779736,
          -0.10039814301558057,
          0.16390616402062347,
          -0.21272469128430932,
          -0.14266239473731424,
          0.1279048389132995
        ],
        [
          0.018425624022162895,
          -0.27785813570674234,
          0.2511863188170686,
          -0.35084709966911465,
          -0.6837964451473778,
          0.24217401114606407,
          -0.18714087101667948,
          0.12411600014483994,
          0.23616513530650474,
          -0.013550537088344826,
          0.16428372887528253,
          -0.19130655391777282,
          0.18763302410013707,
          0.10789221385954849,
          -0.10210609286019373,
          -0.1621448031863475,
          -0.13846240244464567,
          0.14265864631611655,
          -0.09014808110631142,
          0.12212705588651471,
          -0.04711249434766814,
          0.055937430409894656,
          -0.008722787095623057,
          0.032447755274508674,
          0.0069894907553358036,
          0.19417659892643507,
          -0.06460182926081978,
          0.10483845210704132,
          0.05058857962541339,
          0.12662193714580822,
          0.20322131011235414,
          -0.06191833200530439,
          0.14393896219205057,
          -0.1998586509507616,
          0.04724094550985327,
          0.020498148275147666,
          -0.14910386440575896,
          -0.1787936569729719,
          -0.15226951092930188,
          0.1789734240363235,
          0.007009673993205816,
          0.14086811846541258,
          0.19443201470431426,
          0.08359092051347874,
          0.10633763149578046,
          0.15622908704299412,
          0.08806398163920628,
          0.163256667452152,
          0.17127081681416395,
          -0.265041851164067,
          -0.09241292289687751,
          0.0015393410523879933,
          0.3239106564241824,
          0.13951163747272247,
          0.39752795180295625
        ],
        [
          0.16527794065494822,
          0.214839181836133,
          -0.016562095986513304,
          0.03707189807529807,
          0.040159209258768654,
          -0.09526823710819127,
          -0.2734049231602329,
          0.18326238457320979,
          -0.05839733775826214,
          0.2142955601862382,
          -0.08318310727568569,
          -0.08584900780572126,
          0.10816377096920311,
          -0.11354485972510205,
          0.11434973245984463,
          -0.01575981360503247,
          0.09447306925022966,
          -0.2062832561320982,
          -0.13627722971763193,
          -0.32924641505196306,
          0.010663753738679114,
          -0.0921845216290216,
          -0.18919167647164456,
          -0.0951695217685881,
          0.09912804898672854,
          -0.1566372523934273,
          -0.09449081036503314,
          0.10899272062533413,
          0.06942683565904172,
          -0.11271036289662198,
          -0.0699812310204827,
          0.18295522882412418,
          0.1213165014526457,
          0.26266204121183195,
          0.30141437364583956,
          0.1611932113997684,
          0.3084202938208536,
          0.17952526771835228,
          -0.11114896800127179,
          -0.2964430739458194,
          0.014805796610218917,
          -0.166510542429479,
          -0.07872315536398282,
          -0.008125891064244299,
          0.11142553620445189,
          -0.02962528466290271,
          -0.08958777002283705,
          -0.11614539766967928,
          -0.04557883632227984,
          -0.28130247104255546,
          -0.06020968781160322,
          -0.021819724916083652,
          0.28025533820546944,
          0.27126734750940357,
          0.03895776719587719
        ],
        [
          0.1163396137730023,
          0.10294254640228878,
          0.06408314432004977,
          0.27084675941781494,
          0.5368567645629476,
          -0.0590163763039606,
          0.014796015154740825,
          0.2647492982382193,
          -0.41024395374673384,
          0.0005666230964893566,
          0.210231157766545,
          0.08921518561989156,
          0.37613126596810387,
          0.07818242145770705,
          0.14551018072388847,
          -0.003289168614869236,
          0.09205183027537145,
          -0.16094916467569997,
          -0.13367673044852893,
          0.0881051770939318,
          -0.06810542021082269,
          -0.22775135568109595,
          -0.4626173149815576,
          0.06661664257623738,
          0.043032264133711556,
          -0.10439189408694118,
          -0.0663571006339646,
          -0.09066769993697027,
          -0.07871755283769281,
          0.1730208724019892,
          -0.12058869676109572,
          -0.08887475265668505,
          0.3301968703650662,
          0.2397838148308389,
          0.2735717196687311,
          0.4269005797679708,
          0.19543661951600666,
          0.03657340768332733,
          -0.5320092659339907,
          -0.09019271179751773,
          -0.024630924576510525,
          -0.08641986546169124,
          0.2822570769721363,
          0.001358638860109907,
          -0.4996692558649568,
          0.29951848231523603,
          -0.33631701743289827,
          0.011954509419274752,
          0.08385187555962526,
          -0.3432701400101815,
          0.09733645410317716,
          0.06306610224474851,
          0.149592891157973,
          -0.48285983145267836,
          0.13105323538641886
        ],
        [
          0.004690656594976287,
          0.19046556932326403,
          0.2562568405115039,
          -0.06731679096257173,
          0.4765953172537802,
          -0.233632120148991,
          -0.1864555444988514,
          -0.018990958179272096,
          -0.016369980230165514,
          0.11956253179261983,
          -0.20355224989571602,
          0.07285296591619127,
          0.11900856645222489,
          -0.007963413103380054,
          -0.16908235594206472,
          -0.17040711136277809,
          -0.05914499151602821,
          -0.26234119088256674,
          0.2532101174194116,
          -0.2095657782854086,
          0.2555757484635088,
          0.13500051660855145,
          0.026827732432296487,
          0.08562478006654822,
          0.00579214509303271,
          -0.14067358174508587,
          0.09397399993145822,
          -0.11062498102536843,
          -0.2220503958229611,
          0.33509571090788864,
          0.04205100577105014,
          -0.1605251757262445,
          0.19304661319606686,
          -0.07333442849407214,
          -0.060362821248416014,
          -0.016214440417508535,
          0.31246675556848696,
          0.08891002126056421,
          -0.00790171748490108,
          0.08152129487116709,
          -0.12840674645350364,
          -0.05736719078309099,
          -0.024200931203115415,
          0.1144899377215538,
          0.07002982974070748,
          0.07719550853830857,
          0.15265027703332823,
          -0.05445239637191222,
          0.2531402684816122,
          0.023127667241195974,
          0.08665468304323061,
          0.14397244644234417,
          -0.05551235970035764,
          -0.6277795270623285,
          0.02035896425151656
        ],
        [
          -0.1584919006775708,
          -0.04658607242060157,
          -0.1488604344264778,
          -0.2291746184858424,
          -0.08359099883698,
          0.13982729296554366,
          0.04335256976690679,
          0.19098266189660978,
          -0.2518067419356639,
          0.16281929378238988,
          -0.20183310889881437,
          0.06764256305523411,
          -0.10050595198374475,
          -0.2110662488122634,
          -0.004582097188508615,
          -0.12728339386372703,
          0.24002850354006497,
          -0.06716403988434377,
          -0.027816422425252774,
          -0.18210751200785025,
          0.008272357797115432,
          0.1703857780419302,
          -0.17954881038166948,
          0.18424562405464417,
          0.15584212892066462,
          0.1426682437087895,
          0.013946329840683074,
          0.09921653938353267,
          -0.041023734306090284,
          -0.07632810489520908,
          -0.17939465487327022,
          -0.007871990275204114,
          -0.18928867112351083,
          0.24806614936726282,
          0.15628860509721512,
          0.16000965846967433,
          -0.23780713115044982,
          -0.1047302746558092,
          0.193409678202833,
          -0.21891167215310903,
          -0.058468314565520416,
          0.014227103220591203,
          0.04056314794091399,
          0.2045848138423324,
          -0.19702746728595286,
          -0.1812239820000968,
          -0.25273401535992057,
          -0.23437670795250415,
          -0.17587234964387588,
          -0.23196357001333137,
          -0.10849127634347916,
          -0.06508465973679683,
          -0.11839182924217785,
          -0.19987987863315915,
          -0.21900183052641628
        ],
        [
          0.14670119723480568,
          -0.015634302903198432,
          0.06177693244642732,
          0.09887816520634302,
          -0.10852171366672345,
          -0.13927032600316666,
          0.19330019424053801,
          -0.12072093461760436,
          0.23622650896139874,
          0.024280870233633296,
          0.07858170975031446,
          0.19604405844427145,
          -0.23596704621251882,
          0.08002726861359712,
          -0.017194600572044777,
          -0.12199083243006593,
          -0.13415886602915064,
          -0.006900763162598622,
          -0.07134325329910397,
          -0.027575406712231673,
          -0.04243604399453458,
          -0.16409413992020477,
          0.22979756922669925,
          0.1061665082464318,
          0.17509556885487512,
          -0.06620458362195707,
          0.11331020315485012,
          0.052863447843734916,
          0.016294479387969803,
          -0.23815630355131884,
          0.014508631866741182,
          0.151209696104179,
          -0.08157326774980339,
          0.06065325356461534,
          -0.18466162738581787,
          0.2521637156698277,
          -0.10939574673664627,
          0.07858114995712481,
          -0.2226892817388356,
          -0.21122509305384465,
          0.20958379335823613,
          0.0761991356868271,
          -0.22156605571464538,
          -0.06699925007403061,
          0.19137485871460475,
          0.18056154268807667,
          0.03947634417448053,
          0.1756286455777812,
          -0.0933910770903359,
          0.09440639261548059,
          -0.12054399848751417,
          -0.18628627297886538,
          0.18560785581686892,
          0.06582818574378498,
          0.2360362673853161
        ],
        [
          -0.08000333885009094,
          -0.03687233461550145,
          -0.026628270268943533,
          -0.11906524613389227,
          -0.04800373084333335,
          0.2293338951822249,
          -0.10444222059258754,
          -0.23688641038099223,
          0.19651717668135837,
          -0.09733258980639574,
          0.20680255128654887,
          0.008310184432602391,
          0.047483262959729766,
          -0.1940915492470877,
          0.039458486754761234,
          0.1906795858005322,
          0.021320688668531623,
          -0.06390134071409918,
          -0.22330568243066304,
          0.08184513031132483,
          0.23418960390394802,
          0.19319385954803597,
          0.2283037408048781,
          -0.09204241458676912,
          0.019911775253840133,
          -0.17067291351942918,
          -0.20252948273248736,
          0.12431884262824583,
          -0.1579762036523085,
          0.1803403069719522,
          0.035461116187350074,
          -0.0779350225607929,
          -0.0893966472684972,
          0.039388656363170946,
          0.025341106209622932,
          -0.21189180047501024,
          -0.10624452686206343,
          0.18099406869367551,
          -0.050189445976953254,
          -0.013104479432443611,
          0.06078422555506279,
          0.0654909375340501,
          -0.0026255412732910386,
          -0.14769342707257177,
          0.00682994944077013,
          0.045073246284568755,
          0.08245541856508114,
          -0.16631550303796705,
          0.18936746987979658,
          -0.11938572388846504,
          0.051698770913342094,
          -0.197213762282616,
          -0.26473595856355364,
          0.021834880759110133,
          0.13869910226614357
        ],
        [
          -0.02050928216963719,
          0.520460144323636,
          -0.18838497008279526,
          -0.23152039372580221,
          -0.08117451420724499,
          -0.3490957260534322,
          -0.2146778701925417,
          -0.021220259273702816,
          0.18149803091279387,
          -0.07428895558577504,
          -0.24360395466104717,
          -0.004298930694335175,
          -0.01153457647805647,
          0.068753389073294,
          -0.2498571219978804,
          0.01003539443639021,
          0.2579989141356088,
          -0.0700225065851084,
          0.18637737690725986,
          -0.023258618335838935,
          -0.3419847158489442,
          -0.06260806078956212,
          -0.07003695552440907,
          0.233688283598894,
          0.09008419640593895,
          0.24404522290052863,
          -0.15943865091022183,
          0.13546093538802909,
          0.13433586416772597,
          -0.018219084243456217,
          0.22150755310776904,
          0.02465578326718693,
          -0.10035273088404047,
          -0.14152628574528178,
          -0.34316881009743555,
          0.16019079848873802,
          -0.1883748778898357,
          -0.04625755123939065,
          0.14049056705226973,
          0.19731768661368004,
          -0.004084320293501661,
          0.09187781511583783,
          -0.26772193027088637,
          -0.20904648178378446,
          0.20525234848235213,
          -0.06595744153811214,
          0.20720251859121722,
          -0.11818757837737003,
          -0.2671838498383595,
          0.21003293385167263,
          -0.1991204380324581,
          0.07477586492530919,
          -0.037617448335295414,
          -0.041860489108165914,
          -0.37790907858224304
        ],
        [
          -0.529370268320865,
          -0.7039934738260232,
          -0.3344583506365592,
          0.03827901429994248,
          0.20619460595019462,
          0.3889306945933006,
          -0.32875773093066885,
          -0.12407199698824369,
          0.041532824781321774,
          0.19896959775532513,
          -0.06645436221641306,
          0.1342800526562666,
          -0.14318865061869537,
          0.19765374264988878,
          0.03820813503894487,
          -0.08204864349384343,
          -0.11434346113618536,
          0.049706699671975614,
          0.2692225882113425,
          -0.04049980364727293,
          -0.03284600739222891,
          0.019071693004876645,
          0.18871445877414805,
          -0.11460721921681061,
          0.12296849700146105,
          -0.08583986006513529,
          0.027925476842958073,
          0.12633799590632352,
          -0.04262902528338054,
          0.11216169725799048,
          0.24898243264653602,
          0.09841914722508067,
          0.003894545735607013,
          -0.197627046380871,
          0.10754396646090192,
          0.011374585305747873,
          0.18850156034067864,
          0.26492563230483424,
          0.1240022003945615,
          0.10327670490796874,
          -0.12294295925328717,
          5.8273379929593214e-05,
          0.009849692416547873,
          -0.06819056899817667,
          0.11163881909792796,
          0.05073502943897373,
          0.013887083287631191,
          -0.10854622250865303,
          -0.14138072339989285,
          -0.10165258046275132,
          0.08411440646375525,
          -0.0027310621672877035,
          0.1352480082919682,
          0.13170198965602836,
          -0.013442821192323273
        ],
        [
          -0.05250203009186718,
          -0.10655113916903057,
          -0.144475013224396,
          -0.41698333591329184,
          0.0984446832524481,
          -0.25214638029204994,
          -0.2926835371656269,
          -0.16981576684018726,
          -0.15914867925274956,
          0.08524729194817167,
          0.18628091291696128,
          -0.03676143848053126,
          -0.03526514650814426,
          0.09230997800617702,
          0.16222622989746305,
          0.10569775982203783,
          -0.06549781742604724,
          0.04652127571456693,
          0.18960785042630676,
          0.11412384131244785,
          0.0013263017961486828,
          0.004931461863221018,
          -0.10958266644492247,
          -0.19319632642361614,
          0.15337726792468742,
          -0.1742313387476587,
          -0.061093136555039784,
          0.14357328411067297,
          -0.24305502135735085,
          0.06910186077274341,
          -0.14223681601078894,
          0.19277971393789362,
          -0.009119274308484892,
          -0.11924710719480446,
          -0.0926045674837018,
          -0.20123657505867842,
          -0.04988567556302905,
          0.32664319701574485,
          0.002453797558436214,
          -0.1521763885003287,
          0.20677916580219458,
          -0.1957375501263568,
          0.2032557445167448,
          0.17754678880180216,
          -0.006346874115738825,
          0.02958125057085165,
          -0.06126732447770144,
          -0.1575078022936137,
          -0.217890120588035,
          -0.08479488196315149,
          -0.09639596099595725,
          -0.09729053818225654,
          -0.19025986470932502,
          0.06612587612553937,
          -0.11600976486264548
        ],
        [
          0.16647703930656557,
          0.16133392506882566,
          -0.20030645742334988,
          0.19610775888502116,
          -0.2230531865748838,
          -0.041121526455132534,
          -0.07539867568502653,
          0.16277944803856273,
          0.02308646070740113,
          -0.16100505520307662,
          0.1952306665569318,
          -0.13274518448974215,
          0.14784802938235383,
          -0.21062824935775243,
          0.14225795669788702,
          0.09152490345096384,
          -0.12091335277963751,
          0.25597608288568907,
          0.036633921236412084,
          -0.1776914314209885,
          0.21761450986883357,
          -0.24622584693399163,
          -0.13887641348171242,
          -0.1504036398245288,
          0.10319525266990291,
          -0.07199912343533708,
          -0.2376799733190912,
          -0.20378051900911992,
          0.114939410301008,
          -0.08300695248297882,
          -0.09020502880522285,
          -0.09616157158303429,
          0.073756541285417,
          -0.08327080956316589,
          0.13491854221298813,
          0.09736463012004214,
          0.1287336897914278,
          -0.17275864481647898,
          -0.2488270265179908,
          -0.2547787967476745,
          0.2080958423429332,
          0.2178950587908189,
          -0.25527234403584065,
          0.046491230191374945,
          -0.14426706864923305,
          0.10583450550350477,
          -0.2053373116773719,
          0.17574259175204582,
          -0.10169585493279545,
          0.25399943774919576,
          -0.0785155817412429,
          -0.15750772729572035,
          -0.11590667501998193,
          0.02184560536843476,
          0.11107439650461233
        ],
        [
          0.22202805534569425,
          0.0011776999989934324,
          0.3332149821554874,
          -0.2599293867934978,
          0.0821112720154896,
          0.25345474111194577,
          0.23158561371474792,
          0.1053238618031047,
          -0.3240673461995857,
          -0.18323828821619534,
          0.07472086591515195,
          -0.11957509181492282,
          -0.2266139279259812,
          -0.049842509565942605,
          -0.11227115151732082,
          0.19203015552438615,
          -0.046121595554624945,
          0.16659250379929635,
          0.0399926409517179,
          -0.10658157047697081,
          -0.034107931692747194,
          0.01651003036936245,
          -0.057066062539685755,
          -0.09685481538248164,
          0.1442166580773759,
          -0.12764162778525626,
          0.21684614147131054,
          -0.16422362707311008,
          -0.22035544035885526,
          0.2744025717383372,
          -0.01160757576854173,
          0.047698640399883946,
          0.03842838097267826,
          -0.050481370723222826,
          0.3361145701998363,
          0.294762518920098,
          0.16936868822090553,
          0.14163269368185913,
          -0.18401400343166327,
          -0.08707890365040845,
          0.18570471174876305,
          0.03595282121328473,
          -0.11124515379087153,
          -0.2001185237684185,
          -0.27087410127420175,
          -0.23408875936908605,
          0.033782252540559866,
          -0.16385764700695973,
          0.011489245553747926,
          -0.07768736113758998,
          0.3417913581218741,
          0.22160824061423823,
          -0.10438007321925521,
          -0.34843108876171947,
          0.19564899502687894
        ],
        [
          0.07545950997065333,
          -0.12252502780067881,
          0.1075628703944354,
          0.1304112767729456,
          -0.16576715317313392,
          -0.007635853529866491,
          -0.18575595430371825,
          0.2139102504237925,
          -0.0029044825452187806,
          0.16428304867763224,
          0.028077128553574436,
          -0.18987638300233506,
          0.08583494955766044,
          0.030838124690792758,
          0.03981069508371273,
          0.11953234494453245,
          0.18330951137767193,
          0.17034874575305922,
          -0.09820697575950567,
          -0.23555977460565508,
          0.157770205343848,
          0.15140483452821948,
          0.05194288792928085,
          -0.013099371632738915,
          -0.059389774310960985,
          -0.23966386078953567,
          -0.19080073578168844,
          0.04425987938701408,
          0.1167016765469416,
          0.2492327332277487,
          -0.1916938699546383,
          -0.11871285300970211,
          0.13179077498568176,
          0.0694852345338841,
          0.18517639472581715,
          0.19538353275590037,
          -0.14441294317575917,
          -0.00252561165392359,
          -0.24832182493881252,
          -0.12416011493769025,
          -0.03574659362035085,
          -0.0700828371267635,
          0.13176822255155496,
          0.017099342699805824,
          -0.0379131546983299,
          -0.24088598965881275,
          0.24472196190070783,
          -0.14379428739705585,
          0.06656107638280011,
          0.22149151348293464,
          -0.05861996668676531,
          -0.0583035012848036,
          0.007404452005251868,
          0.01806563212870012,
          0.07950884660580577
        ],
        [
          -0.21279309698941784,
          0.17599220460430878,
          0.21577702359795198,
          0.03843938382175298,
          -0.037882491042986396,
          0.18893714749274532,
          -0.20620666681940494,
          0.1069274594396817,
          -0.151498933521736,
          -0.17849021086647357,
          0.052790581439944834,
          -0.08297325982848579,
          -0.1312278850936806,
          -0.20542770479591702,
          0.044717402447396824,
          -0.045477618881362834,
          -0.2537076754794272,
          0.01958424905109133,
          0.04774734610989851,
          0.06583122399815938,
          -0.10817968261187945,
          -0.060277163641324794,
          -0.08721252442804642,
          -0.17267957839881687,
          0.14622252177803804,
          -0.058688079209842654,
          -0.0843234786685863,
          0.09381470972236419,
          -0.03643819917400404,
          0.027270326729566308,
          0.1742560404604399,
          -0.07088332358843775,
          -0.08096423253325227,
          0.08486565443656326,
          0.1278481538531118,
          -0.23346396619287904,
          -0.2092819390473207,
          0.09172470765981378,
          0.2207721979311112,
          -0.22187176556629198,
          -0.16359723110731383,
          0.08888744680962474,
          0.20103856037543494,
          -0.007656651189854793,
          0.07153896796158057,
          0.07682668464427947,
          0.11709445288954141,
          -0.08156570249464909,
          0.19011391432828198,
          0.1363349068913654,
          0.18160646191395508,
          0.2502692820965835,
          0.13705384797023032,
          0.18757294939357,
          -0.11464802683147163
        ],
        [
          -0.39135511517053184,
          -0.7555076196571815,
          -0.39730257944292535,
          -0.4366288367648352,
          -0.024946547677514978,
          -0.08062237671168472,
          0.027337023153050855,
          0.1780503113709686,
          -0.03414353914913769,
          -0.3874019553951054,
          -0.3855465701115883,
          -0.2766439151551511,
          -0.19283922638370787,
          0.007018884525747492,
          -0.03458429524810517,
          -0.22664192020423568,
          -0.03545249571417075,
          -0.007630980666176335,
          0.12618992046696645,
          -0.05630639123345819,
          -0.05468520945896558,
          0.2226957863363079,
          0.08091952930709313,
          -0.05578989594092256,
          0.073979387098943,
          0.03515073019211463,
          0.04503013370559228,
          0.07496977878400972,
          0.20636166801323125,
          0.21489814261894868,
          0.030163750122082666,
          0.11699355853136842,
          -0.06948870775478369,
          0.08492661830131852,
          0.03397222335704253,
          0.09050103857025778,
          -0.016217838120381457,
          0.08681632492325728,
          0.08457846290664936,
          -0.14628860125992493,
          -0.12189030356526095,
          0.019397767670114873,
          0.4829727653326439,
          0.0472486788017109,
          -0.07670464564741436,
          0.22854672700333292,
          -0.22846559215449336,
          -0.14817466125771397,
          0.05915091835586459,
          0.020397696131528305,
          0.12843683135575598,
          -0.2463427700393085,
          0.32349908452222115,
          -0.21818530137683242,
          0.004280690992965747
        ],
        [
          -0.017048734115904535,
          0.07968169818885153,
          -0.2227410113940286,
          0.10096589137878782,
          -0.02172593446403863,
          0.12366857426090894,
          0.026506830593827097,
          -0.2137246514369959,
          -0.020065348719899873,
          -0.16701296349985834,
          -0.11315500381262722,
          -0.08073732845560104,
          0.15499227944149135,
          -0.25335617354431844,
          0.061216337750381836,
          0.14023356800045897,
          -0.03392582451080349,
          0.08367363877678417,
          -0.025184638417920055,
          -0.17089602638130455,
          -0.1621328067026413,
          0.07612821682351499,
          0.14863253922183686,
          -0.09771875221688861,
          0.2508692003565133,
          -0.2251659247254986,
          0.21479991564438988,
          -0.1240810068987376,
          0.23060003815521243,
          0.0183334942726048,
          -0.10933398173482865,
          -0.11127571811802661,
          0.1448138345362888,
          -0.11765621214245113,
          0.09660272087078531,
          -0.19966250201787386,
          -0.18544607332206914,
          -0.07828861815715059,
          -0.07711808389721085,
          0.14655261855328977,
          -0.03260298253652419,
          -0.222870538076587,
          -0.0932002416141782,
          -0.04034971469158986,
          -0.08113387696664451,
          -0.21065528075535603,
          0.06504618772398625,
          -0.09111710726587294,
          -0.06488406481215711,
          -0.12912804459694785,
          -0.10610192808635624,
          -0.031817806657398744,
          0.0985662735666828,
          -0.18330334683247856,
          -0.11165530481684213
        ],
        [
          0.24802879360637078,
          -0.05856709178663804,
          0.1577545945922592,
          -0.05424714044851739,
          0.22427324423465855,
          0.06185629803966426,
          0.13063476057431475,
          -0.06473234997038953,
          0.08657739904026274,
          0.0217708262801896,
          -0.1639355168227576,
          0.11983662568438476,
          -0.1491698855963917,
          -0.0017194371898869637,
          -0.1662839047896509,
          0.10541495149569487,
          0.16481487697819028,
          -0.08762004268271624,
          -0.33415322197359615,
          0.10785929477276579,
          0.24351512983656687,
          -0.01652566096342955,
          -0.05195541152353941,
          -0.030791436509276585,
          0.09348949057823533,
          -0.09638103097433624,
          -0.10279514290760677,
          0.2861894712863631,
          -0.2396950684754772,
          -0.24284407339505362,
          -0.26779527803643544,
          -0.11009415427439374,
          -0.16100861849500717,
          -0.12855544872380611,
          -0.09885094037308673,
          -0.18661076107346986,
          0.26921931333481947,
          -0.2423251603131059,
          0.12068432743182808,
          0.07923879640695448,
          -0.12633475473041544,
          0.2266217449138986,
          -0.08040824434908421,
          -0.03853665774459075,
          -0.2209686879684286,
          0.050273932584576554,
          0.2218544556595527,
          -0.12515390639665264,
          -0.12956044073969583,
          -0.08470716228549378,
          -0.13026514716828888,
          -0.1810117659884619,
          0.07794020937717354,
          0.009605567430418339,
          0.013936752876583735
        ],
        [
          0.13073552820237386,
          0.07288513372576956,
          -0.2818239422992887,
          0.014505858249605463,
          0.04179038347732212,
          0.26118591610575914,
          0.09933046635029,
          0.24614891968743405,
          -0.43970708586479906,
          -0.2803225561481166,
          -0.031047639052723196,
          -0.10133557728068092,
          0.10004346576915805,
          -0.032200168584450094,
          0.37849917419612306,
          -0.10922662487731863,
          -0.2976446834868287,
          -0.006526213330210713,
          -0.23436504280601408,
          -0.0273257858788043,
          0.03259192765205524,
          0.015533344575526404,
          -0.28467800143879674,
          -0.1737433115784263,
          -0.0813411323355472,
          -0.20734799373542387,
          0.08952834699098379,
          -0.06310467277367861,
          0.1106838439143773,
          -0.02101924712629261,
          -0.09802752241586536,
          0.11717643217118645,
          -0.27929564364675047,
          -0.17278914198125556,
          0.07260551246202107,
          -0.19110105749005282,
          -0.2968330869208477,
          -0.34448194241769464,
          0.12874446029106007,
          0.18290559072081625,
          -0.10389820235877192,
          -0.2317990919944361,
          -0.022891799229751535,
          -0.02059866607240802,
          0.4420223956567225,
          -0.11807058245494738,
          0.2581148316576248,
          -0.03363380203371785,
          0.11626054821205008,
          0.16131948948348726,
          0.35466841801195165,
          0.16169560801853766,
          -0.2595875234932641,
          -0.06796055691081106,
          -0.2319456162672988
        ],
        [
          -0.4843089470180057,
          0.3563962308378904,
          0.0528497097778387,
          0.4539669867323483,
          0.10189695684188822,
          -0.28708829205355985,
          0.04025722481839716,
          0.14843499779758507,
          0.1492357198923093,
          0.048870034651705224,
          -0.16538684902012057,
          -0.23138902910097187,
          0.07145588226809618,
          0.23640676548846593,
          -0.20817504754927596,
          -0.16841712319602017,
          -0.22264930793025664,
          -0.20087019336957354,
          0.11056626354419805,
          0.057736036773536795,
          -0.1568639694920121,
          0.1706577176162623,
          -0.04085035672734276,
          -0.21451735619639217,
          0.17538217900727565,
          -0.06482790347469342,
          -0.05705096349577756,
          0.14726038272710393,
          -0.01530360592742479,
          -0.030960609744752173,
          0.03570962235775637,
          0.17415417924891322,
          0.22282318064352827,
          0.05542901485272812,
          0.24837010258241282,
          0.22489180420369298,
          0.04853564905859186,
          0.25349636604235165,
          0.026320196105254937,
          -0.1515866175222886,
          0.06867768132958578,
          -0.05525812197655072,
          -0.0815863437058593,
          0.20092144822058602,
          0.1630048188635677,
          0.0881947799072697,
          0.1698583092434583,
          0.02074652517838099,
          0.0149910201682708,
          -0.15547614192066458,
          -0.0813494869125285,
          0.09754448845521863,
          -0.14369938361301068,
          -0.09853658800136159,
          -0.0507713570533189
        ],
        [
          -0.07229761706175745,
          -0.24910386085411312,
          -0.00835058571399594,
          -0.03890570221267141,
          -0.08406487385449783,
          -0.13557571015701445,
          -0.1857973374144072,
          -0.006963106227316114,
          -0.1741930034624528,
          -0.15646373544183148,
          -0.06396438142670573,
          -0.1513743426817215,
          0.029981302900066148,
          0.04559165688258487,
          -0.21567462485563288,
          -0.24489301631591429,
          0.026988933877013108,
          0.009421840423234145,
          -0.07016023962117457,
          0.09433773646900616,
          0.17114144068543533,
          -0.13907944729734018,
          0.12251828344835915,
          0.14980835167247716,
          -0.07254283712269118,
          0.11875908190092063,
          -0.1486223864959481,
          0.004896535494028841,
          -0.22711972065996933,
          0.2317868979940762,
          0.0547374029932564,
          -0.18278398419768213,
          -0.02375367785809296,
          0.04245226386712874,
          0.22371011944275593,
          -0.2064346144028309,
          0.15302438357961232,
          -0.06841379071620281,
          0.05713290839965566,
          0.18853295401390135,
          0.016936231201005097,
          -0.0453172677689211,
          -0.1308769187868605,
          0.05359615800601091,
          -0.22555713909195646,
          -0.051943336370051815,
          0.036952342289947544,
          0.05447235116183185,
          0.11516455610190829,
          0.08032629037500187,
          0.027300275144642824,
          0.049381078031629784,
          0.06963657891025501,
          0.13515004487485607,
          -0.19009911050910575
        ],
        [
          -0.04061961997371065,
          -0.20786743632513535,
          -0.14843674855487343,
          -0.13568872869776302,
          -0.09515699551947018,
          0.011885716162708173,
          0.2174560266911228,
          0.061064388484019495,
          0.10151217221312145,
          0.21681700720014124,
          -0.18378564823446106,
          -0.009041572818400937,
          0.10066605756538602,
          0.03851143406516451,
