{
  "layers": [
    {
      "activation": 2,
      "biases": [
        -0.45074994902287197,
        0.09301148815986372,
        0.0,
        0.0,
        0.18013823258218628,
        -0.3695222688388019,
        0.31354570643341734,
        0.08143535492846052,
        -0.0711499795959471,
        0.0026849465991207358,
        -0.03637866153322426,
        -0.15436222349823,
        -0.18144209149764304,
        -0.24626768494098414
      ],
      "cols": 14,
      "rows": 3,
      "weights": [
        [
          0.6997558516468828,
          -1.0613648293743536,
          -0.14713001810099435,
          0.36617622927977633,
          -0.5677512808585413,
          0.5151481802261388,
          0.4391263986488202,
          -0.8718815521150343,
          0.08321927053350636,
          0.8700225545917151,
          -0.031189264801040485,
          0.06315306274336084,
          0.6239965771759365,
          1.7527888826500817
        ],
        [
          0.2727003241286303,
          -0.5470477115377052,
          -0.21776990206073626,
          -0.43324163780593417,
          0.35601196168564586,
          0.7671154010908694,
          -0.8112188917205131,
          -0.5255152353947143,
          1.0425741615227282,
          1.0077327187643712,
          1.1590465336760576,
          -0.2604009232707227,
          -0.04236088908555024,
          0.001990486343649698
        ],
        [
          1.0197691235300217,
          0.894259484819896,
          -0.4734250930057991,
          -0.34323457106396865,
          0.6873702433508381,
          -0.08278714420528512,
          0.355971360087475,
          0.7467421735994492,
          0.030603892143276985,
          -0.2846257540526888,
          -0.10010838004126603,
          0.9941504103552836,
          0.6243232819426943,
          0.3217773710239216
        ]
      ]
    },
    {
      "activation": 2,
      "biases": [
        0.13960434014738793,
        0.3503076094568683,
        -0.057006145038122284,
        0.1319622510546082,
        0.22719710731263412,
        -0.059736574397487564,
        0.036013761497617786,
        0.1004068231303345,
        0.1664277147697138,
        -0.16959227624382842,
        -0.049736131137151855,
        0.0587781648098468,
        0.6325029710515334,
        0.103729296896035,
        0.0,
        -0.06798993183138735,
        0.0,
        0.02333439310145876,
        0.0,
        0.0,
        -0.39917929275789626,
        0.0,
        -0.4044143556917202,
        -0.3757069939275242,
        0.10902630268424025
      ],
      "cols": 25,
      "rows": 14,
      "weights": [
        [
          0.23516252495371442,
          0.5297106249845445,
          -0.17410356182874034,
          0.7037633015260247,
          -0.13746581999600674,
          0.10956048389114177,
          -0.12093757685829042,
          -0.016838868803420178,
          -0.27257711248096994,
          -0.3424684998955817,
          -0.37039942090161343,
          -0.3810276999632219,
          -0.22345891403724974,
          0.059865648510213226,
          -0.1545123727373111,
          -0.03910462104913921,
          -0.3608481269975809,
          -0.35664405601069776,
          -0.3022767207963017,
          -0.13648612652568676,
          0.32470993862168107,
          -0.267878953033031,
          0.8043199959426237,
          0.3447066366806781,
          -0.3177728403951054
        ],
        [
          0.2953987349169703,
          0.3926838477819768,
          -0.13878028820834168,
          -0.628103157333823,
          0.007187437925477291,
          -0.34464507756644897,
          0.16952278857382524,
          0.6744360435163375,
          -0.262929060700565,
          0.2862228474659859,
          -0.27814539000904576,
          0.07667089401213996,
          0.19332213675246812,
          0.6041782321614325,
          -0.3118193664306904,
          -0.14832334773301833,
          -0.07910743513894102,
          -0.04718761711131676,
          -0.1724818039230833,
          -0.14801194101712642,
          -0.2064703883683333,
          -0.1995653939986565,
          0.6978441311881194,
          0.19184864480310695,
          -0.0733460097857238
        ],
        [
          -0.26728810664528124,
          0.038689818913407524,
          -0.031412956451553065,
          -0.3699593240774032,
          -0.3559123787953117,
          0.03634878209631307,
          0.23745681900511742,
          -0.1784272352658045,
          0.15756774931788942,
          0.0043775608106026275,
          0.16420039363462502,
          -0.30876244574912787,
          -0.062277167285307224,
          -0.18518588399450928,
          0.259503832216566,
          0.11088193532914029,
          0.1087338567061522,
          0.28947333899515043,
          -0.30520119290089326,
          -0.09963458211696696,
          0.20763327378756066,
          0.27479846807988634,
          0.1365616417213008,
          -0.2409329950671863,
          0.066712645764019
        ],
        [
          0.3172153582782009,
          -0.06131764057767675,
          -0.01292328926079563,
          -0.2404113479285124,
          -0.27722869818988666,
          -0.18389639784710826,
          0.36563922723880804,
          0.18139542073410014,
          -0.11112612026973832,
          -0.16600226815951089,
          -0.030237847383656747,
          -0.1374899492421762,
          -0.2166534668083121,
          0.33614461753978725,
          -0.14193740938927743,
          -0.2950612764396705,
          -0.31244982757484757,
          -0.07067201657630603,
          0.09718158902879523,
          0.2733724402276392,
          -0.3903083715913048,
          -0.38936175586195354,
          -0.1517332474026528,
          0.04511023902467918,
          0.2396089060075944
        ],
        [
          0.4513748184207493,
          0.5647429424117179,
          0.0782676759539232,
          0.0034208052569662272,
          0.4060073499379593,
          0.03365917960619471,
          -0.10585475590256552,
          0.5041227121553897,
          0.16556913081872474,
          0.29252461944909564,
          0.11015451692883728,
          0.2614925124644277,
          0.4665718958779154,
          -0.020088632594178778,
          0.014628215284851519,
          0.27163575890225206,
          -0.13861759044674324,
          -0.09650187152928211,
          0.07579337616430819,
          -0.03821111144411912,
          -0.18141253797611298,
          0.00016651907203747495,
          0.30276933404071205,
          0.359834958995799,
          -0.2970669749444424
        ],
        [
          0.004982101041012085,
          0.22120311205917287,
          0.3073493698589661,
          -0.4089906460389634,
          0.3383774586752367,
          -0.2791286313293399,
          0.5306146743449152,
          -0.22055653490089264,
          -0.1064955085462171,
          -0.16905835241106335,
          0.21119999357275362,
          -0.26496086938596736,
          -0.2285648887746912,
          -0.3012030544725789,
          0.3190130994927872,
          0.13047645325031829,
          0.1138428032126439,
          -0.27485483207568756,
          -0.11114066411563035,
          0.26230867138053127,
          0.13273134165074282,
          -0.33917211847662165,
          0.5942659980998697,
          0.41646202843191976,
          -0.2703418392886571
        ],
        [
          0.24763808598011833,
          -0.4038792862476473,
          0.35628012645310847,
          0.7612450194787924,
          0.3294141740376999,
          0.23539772304922,
          -0.4215512224989459,
          -0.12065343975633669,
          -0.06454740360916271,
          0.23721008380931935,
          0.2022555088923479,
          0.03291967257409404,
          0.22371676516539576,
          0.16381492128838412,
          -0.16197150267659247,
          0.29250545183263643,
          0.046979186783091334,
          -0.26356293178167944,
          -0.13107073533422836,
          -0.06887801378837517,
          -0.5327070144356317,
          0.2380209601535598,
          0.15723198592959867,
          -0.38457163500613656,
          -0.27587291012133136
        ],
        [
          0.7418727962256607,
          0.5415364960433855,
          0.031095590271135187,
          -0.24305346992336666,
          -0.17413705430836454,
          -0.36962083828941295,
          0.12464881099374833,
          0.5405783802630119,
          0.2782760709341795,
          -0.009029600479994774,
          0.34403203900307505,
          -0.34373686145127386,
          0.29902128104005515,
          0.18886718053415616,
          -0.16308976749505524,
          -0.06522929558318746,
          -0.3766000731891557,
          -0.08312748224449978,
          -0.12941889029290637,
          0.2368841146167242,
          0.02451708510532076,
          -0.3508795180748616,
          0.6456297313894422,
          0.19271611006162384,
          -0.18458759079146922
        ],
        [
          -0.12753647516082614,
          0.3217134776510861,
          0.14220640366529902,
          -0.11009272148656296,
          -0.07896921746580596,
          -0.020210064656547448,
          0.7134768940489157,
          -0.2327619090610128,
          0.42822071917997134,
          0.31772007651634004,
          -0.18351297359162566,
          -0.2759382123345852,
          0.3990090550414688,
          -0.06419594273023312,
          -0.13061759813340318,
          -0.35476241035520245,
          0.3269476298878226,
          0.36683015406695624,
          0.176881799859803,
          0.1537710581469811,
          0.07046895551480273,
          0.37235559127164625,
          0.24316555812649224,
          0.525977175906518,
          -0.16335805458279182
        ],
        [
          -0.49844802533767396,
          -0.28625250154053716,
          -0.20496989479294286,
          -0.06083875214115669,
          -0.25878549914643434,
          0.21084696441479717,
          0.563838713288999,
          -0.5700636406792168,
          0.02128945527295362,
          0.13652219529633755,
          0.30131062481423365,
          0.3765543510850914,
          0.3383496501231765,
          -0.31915234122732683,
          -0.3581873615512825,
          -0.13638507976361902,
          -0.1652910472827559,
          0.08871078959558021,
          -0.26819845116123636,
          -0.3804868449539614,
          0.49938149089054645,
          -0.2776820271704651,
          -0.019277322319487162,
          0.6205568411268007,
          0.2271795313360806
        ],
        [
          -0.22675037498634384,
          0.656372912788366,
          0.06536281408993398,
          -0.47406361050387846,
          0.30250361585977276,
          -0.23656946743383486,
          0.38946104619069133,
          0.024456215536388298,
          -0.18991224531954506,
          -0.3983206647056652,
          -0.3190144366631204,
          -0.260412901480724,
          0.2342259911056368,
          0.14502651856770532,
          -0.0741013907074077,
          0.2838252520384503,
          -0.2576935840397139,
          -0.1571834325905181,
          -0.07811865087745944,
          0.11253144467571591,
          0.6125265861437722,
          -0.22227890577900689,
          0.3330289267524,
          -0.0856054621091197,
          0.36465349530134145
        ],
        [
          0.514923468772563,
          -0.0681430671501488,
          0.14520558402939365,
          0.23771281989611737,
          -0.37079636740331307,
          -0.37233344795251155,
          0.17312437373069256,
          0.37185319068363265,
          -0.23789445903118264,
          0.15355752129000177,
          -0.20202873717825973,
          -0.3674182885470081,
          -0.003494694307085143,
          0.45044564282091354,
          0.30761677834364576,
          0.14757290787626964,
          -0.027338563814495873,
          -0.0841315350288823,
          0.25347558781935614,
          -0.028016607889834132,
          -0.3161608330162821,
          -0.221427315638827,
          0.6642449438307447,
          0.22245399719845416,
          -0.052237361767661715
        ],
        [
          -0.12542558489906214,
          -0.07194786567213005,
          -0.37604726959209067,
          0.45479357112871854,
          -0.3348007753490705,
          -0.38751498960673364,
          -0.1020001848438923,
          -0.17800515157850014,
          0.25845453488821585,
          -0.2676610317106841,
          -0.3877778055442434,
          -0.32988296694769786,
          0.041890836142082354,
          -0.2975734883419045,
          -0.29059316143050384,
          -0.385002164944572,
          0.21697873367149328,
          0.29396892424401966,
          -0.262715261991432,
          -0.19640447280076828,
          0.19531139159068625,
          -0.02911355958505963,
          0.6306227958404416,
          0.1438254352904325,
          0.3827586601573632
        ],
        [
          -0.5886110148955227,
          -0.41618207262514056,
          -0.20937654419695773,
          1.0622708082333254,
          -0.33243684261948564,
          0.13095229487461363,
          0.3038146201850947,
          0.013151236781111492,
          -0.26163986183829024,
          0.09185505269790449,
          0.3386603048483938,
          -0.18872137198271086,
          -0.7756102679340223,
          -0.16246294911541065,
          0.07696531885715573,
          -0.33217146682444765,
          -0.2140722128823894,
          -0.28517500669271434,
          0.2954904813537721,
          0.05681228340162071,
          0.4017022834140349,
          0.19427735880980884,
          0.3775664253158904,
          0.49177546081743956,
          0.39004525460385187
        ]
      ]
    },
    {
      "activation": 2,
      "biases": [
        0.0338897370381073,
        0.26142933268204077,
        -0.102789689267512,
        -0.24955590131630692,
        0.2601847167760276,
        0.6645140852720084,
        0.2376221332604007,
        -0.2030686538770786,
        -0.10830389222436382,
        0.4944399931801034,
        -0.5926260253204636,
        0.7373483431211554,
        0.0469496102726293,
        -0.014665789466342782,
        0.20136243815521526,
        -0.09060150051612745,
        -0.001885769974974295,
        0.0,
        -0.46353891050666796,
        0.0064348065864846,
        0.0,
        0.704752246082438,
        -0.17119543060287565,
        0.005133344686888569,
        0.4931098354637332,
        -0.4418606581989177,
        -6.20880913337064e-06,
        0.0,
        0.0015560051774922733,
        -0.02038163096445916,
        -0.048875755733515276,
        0.10957201413261078,
        -0.4180418168825549,
        -0.08361623319025954,
        0.061370656880860006,
        0.05143017321361266
      ],
      "cols": 36,
      "rows": 25,
      "weights": [
        [
          0.24471212978483745,
          0.25557369305060407,
          0.3993064567850358,
          0.13011222376007753,
          0.3940863406581977,
          0.4288991676239258,
          -0.1189143671839729,
          0.19660368206929552,
          0.11901432571517695,
          -0.26703479865196544,
          0.3958127950212054,
          -0.1894492216578516,
          0.22182769677247746,
          -0.023285499925834088,
          0.3255477085146972,
          -0.1507055901785523,
          -0.13435261067543797,
          0.30259164502544555,
          -0.31255320154271177,
          -0.22756929675563864,
          -0.17286898389655223,
          -0.5785445383625518,
          0.4139487170423829,
          0.08424206534274101,
          0.1954435554946575,
          0.39226713144837005,
          -0.2865248377067765,
          0.29412943094761146,
          -0.003385877876705168,
          -0.035968258176253674,
          -0.049109532169854156,
          -0.06702454002039189,
          0.020358153226393408,
          -0.29496960080487833,
          -0.41615457148704127,
          -0.019515784341653006
        ],
        [
          -0.19052895745113885,
          0.3384722797643553,
          0.19255674650233606,
          0.419342675164447,
          -0.1412745437483553,
          0.5012887199769005,
          0.43050697779792385,
          0.23962952731210566,
          -0.15540225086223203,
          0.47488111421703944,
          0.38747448912669,
          0.43348838719864297,
          -0.08347233696835962,
          0.1408988846067171,
          0.24222288611316567,
          -0.22103107825350035,
          -0.07645491271454982,
          -0.08561275899237261,
          0.19662891038501792,
          -0.20327618467993394,
          0.01321085366504697,
          0.26683800382518896,
          0.26484104456509233,
          -0.2546455624103026,
          0.24883028693816847,
          0.4220048803274573,
          -0.22369791193272767,
          0.07571617333972352,
          0.17411762297747455,
          0.21743865189319123,
          0.06023251833826845,
          -0.019813753180657163,
          0.36306563549352117,
          0.304322663618647,
          -0.33211585046630676,
          0.1729351452074075
        ],
        [
          0.2325793288019268,
          0.08567751160788449,
          -0.053742331886231565,
          -0.2338524019066759,
          0.01229557375218904,
          0.1285292784348784,
          0.06430060354365905,
          0.1440931862042562,
          -0.27458930382944613,
          0.11211477661406019,
          -0.2742094756389402,
          -0.22912752485083535,
          0.282602621543043,
          0.18339111002113115,
          0.24390004377567187,
          -0.14760430734703273,
          0.28769514588411155,
          0.017970156584279164,
          -0.05472901881655897,
          0.28913577160575116,
          -0.01169950981785656,
          -0.3032444260809403,
          0.27220797312872097,
          -0.2241099150946755,
          -0.22235156202228085,
          -0.03950365780809251,
          0.046640890104412885,
          -0.128622451054915,
          -0.2135695252626293,
          -0.07399667573076363,
          -0.08564162436508213,
          0.0944273431481701,
          -0.06817909859420666,
          0.2828207390092653,
          0.17982059903281242,
          0.31097725366337164
        ],
        [
          -0.06956137434606403,
          -0.3464470632431903,
          0.10436246612127105,
          0.06280629608867105,
          0.4663530050071606,
          -0.10746977825561257,
          -0.4479537367845349,
          -0.10008507718879794,
          -0.2354117959271052,
          -0.34428432661013597,
          -0.36825466820136377,
          -0.3440694083786022,
          0.33457400980229224,
          0.5971300299158228,
          0.4167368163578482,
          0.634555773091418,
          -0.17903441140450463,
          -0.31010151424073734,
          -0.12198367903810794,
          0.3759871910881559,
          -0.3043964261278115,
          0.33516599419901494,
          0.08568690438984918,
          0.023470801146078846,
          -0.5150977458014809,
          -0.3994796728425438,
          -0.1691221355378055,
          -0.2538688269335535,
          0.10604407764313674,
          -0.25307703564715567,
          0.006747575366756026,
          0.1123772423950223,
          0.06535314188562194,
          0.03112474756793312,
          0.7069847418617833,
          -0.1569718554920465
        ],
        [
          -0.277520315295916,
          0.17844390870668164,
          0.28524876331301396,
          -0.10067397303771254,
          0.25512068139734795,
          0.09875616556280042,
          0.23045353297155854,
          -0.15895617921914224,
          -0.18771688540759193,
          0.24541245817481488,
          -0.3164281575134722,
          0.18926227816136976,
          0.20565610888003824,
          -0.0933704545628871,
          0.19212750733893103,
          -0.12143301613621925,
          0.23530613856997248,
          -0.055499456794094675,
          -0.16529988810603466,
          -0.296514142528961,
          -0.1393409154874355,
          -0.16481515472137545,
          0.03639155241412952,
          -0.030673685524831282,
          -0.09246538193041519,
          -0.24457961985086432,
          0.29319163080276384,
          -0.21854650303551063,
          -0.1783363464575445,
          -0.0848132568116222,
          0.06535441637601215,
          0.2557730470339185,
          -0.12100411283096414,
          0.051892139380338154,
          0.2939378157312112,
          -0.021920404614685692
        ],
        [
          -0.176169422690819,
          0.07441088706130466,
          0.28035730755013333,
          -0.016591781690201018,
          -0.2833888289895807,
          0.2214431962585791,
          -0.1766657230963434,
          0.11221761675645806,
          -0.017534806393543906,
          -0.009489277018737042,
          -0.23315540669632967,
          0.05801456988435201,
          0.2200519011856391,
          0.1872913249474446,
          0.28487579412643665,
          -0.24585496993071104,
          -0.021282874641972878,
          -0.05854868401251697,
          -0.12770444832549546,
          -0.3051959235598644,
          0.24891333360155363,
          -0.057741812670644786,
          -0.2898531495202162,
          0.06690699402234883,
          0.011335066690694949,
          0.11001332011917815,
          -0.004639656434625594,
          0.06520566629918677,
          0.0723447988505348,
          -0.17994540732225278,
          -0.04969094540217319,
          0.09230150744943517,
          0.3098825956446275,
          -0.2704836664212867,
          -0.27346936968979124,
          -0.1927001393944276
        ],
        [
          -0.1440991192575771,
          0.27920872501713584,
          -0.40480307608861127,
          -0.24317763713407614,
          -0.5386205176923041,
          -0.31276244749192417,
          0.37792384973596516,
          -0.24236637829504745,
          0.05188842025551711,
          0.2558783170900112,
          0.2828594085114019,
          0.48696466846476305,
          -0.16747128230663125,
          -0.059636969388974524,
          -0.1847045104167117,
          0.10393696411485191,
          -0.16874664094567357,
          0.12759340731255414,
          0.37412845212106144,
          0.06436044001283117,
          -0.2714235671787351,
          0.014890832657471369,
          -0.3158217007394215,
          -0.15345091970289113,
          0.03272242179962043,
          0.4205583904500671,
          -0.19969984904816035,
          0.10579930742877394,
          0.289122968058215,
          0.2484913675234239,
          -0.1295559366680167,
          0.06275884911198379,
          0.29605650686015017,
          -0.2213197981772565,
          0.12587008874892416,
          -0.26559418745974334
        ],
        [
          -0.16810002660342935,
          0.26481229049047494,
          -0.09403871716046161,
          0.1725275051407018,
          0.17302367064043195,
          0.45572595553463097,
          0.09518685399753857,
          0.4243988229966059,
          0.2002717665917637,
          -0.2955657400659138,
          0.2867914089840551,
          -0.3088814065948383,
          -0.18478874594235403,
          -0.2488190299668549,
          0.07973377585065881,
          -0.34450825939176777,
          0.2994710205504016,
          -0.10551804987042443,
          0.259782376841911,
          -0.0913386984019691,
          0.173706892359673,
          -0.47456352444071653,
          -0.05605793299708266,
          0.2097537951824016,
          0.10899670857640993,
          -0.09531305039113043,
          0.06178690703655319,
          -0.08492665525149014,
          -0.18951389415847425,
          -0.29984129837810686,
          0.11602119723853013,
          0.11981149599104288,
          0.17861598231584466,
          -0.30270121181724974,
          -0.4828820463127195,
          0.3939105247317931
        ],
        [
          0.09902150461755907,
          0.09130331013754014,
          -0.06437908931011717,
          0.027713157729205403,
          0.07541390351194056,
          -0.04440908342259395,
          0.16470306942844737,
          0.10429320172407862,
          0.14646718764800293,
          0.19554142879404604,
          -0.08040021384201793,
          0.11876283648331612,
          0.0702085932398047,
          0.10562925093275323,
          0.03452423576209038,
          -0.23537631740374076,
          0.2333561284789505,
          -0.20597794706561287,
          0.1307267878876122,
          -0.0031355420096310033,
          0.2700156258877733,
          0.3268334566242559,
          0.09733102083447501,
          0.0011686905281849038,
          0.12189921591714109,
          -0.034529814214671016,
          -0.2569758270231241,
          0.2588148622266814,
          0.0157083851752397,
          -0.10654897827655999,
          -0.011263164447799805,
          -0.16800806568687512,
          0.014118983685999942,
          0.0897785113419193,
          0.006649399939144772,
          -0.04274741586254398
        ],
        [
          0.16935780899937844,
          0.27559596006685677,
          -0.126751018456144,
          0.022465720887779764,
          0.2146286049938247,
          -0.18493136605013497,
          0.2537688330452315,
          0.2901247263785897,
          0.24867149631224572,
          -0.0598496480678221,
          -0.1341201743490006,
          -0.15400725625069417,
          0.13061588257715878,
          0.08100781842014701,
          -0.2601270206428878,
          0.003957462671669359,
          -0.17818337158179856,
          -0.07834038670908015,
          0.2757589711197873,
          -0.017432923381813244,
          -0.0014743384413093909,
          -0.3349191955207103,
          -0.23793292001701274,
          0.19743021340088215,
          -0.12123200943892017,
          -0.11078083646331448,
          0.2511067780868965,
          -0.07769473425943095,
          0.2274355156082678,
          -0.173860959288485,
          -0.15647826283623967,
          -0.029553761127970195,
          0.1772345890398131,
          0.23528961073087487,
          -0.11736729877140492,
          -0.1988541200117143
        ],
        [
          -0.3171550721617735,
          -0.10776669251531233,
          0.04351837343510267,
          0.10999814484759525,
          0.13165024173937837,
          -0.2335664233682117,
          0.1034500380138173,
          -0.06790570933757788,
          0.1734824460383575,
          0.17411491335074308,
          -0.3440317177393909,
          -0.11416845014883327,
          -0.18041692591452624,
          -0.28369419045860844,
          -0.11117418837481127,
          0.09526857457692547,
          -0.08894425876822044,
          -0.06902827461932756,
          -0.08705315786546125,
          -0.17757647343389513,
          0.3107957444001213,
          -0.21195537238402382,
          0.18255578816190335,
          0.05684171844412759,
          -0.2684015421461111,
          0.24519266391350097,
          0.21768489237238406,
          0.11920162745261563,
          0.04691717548167722,
          0.27678290561236674,
          -0.03445756375252615,
          0.02955969819101032,
          0.17681621284090462,
          -0.28748079100872376,
          -0.11593888021795645,
          -0.15960858457889843
        ],
        [
          -0.051943496471502294,
          0.2982538194464589,
          0.13371240335000512,
          0.12416524721579451,
          0.17581289247415924,
          -0.19561555093941782,
          -0.019855525773724274,
          0.0648263873775086,
          -0.04489476488959564,
          0.1372972371873539,
          -0.22251072602546312,
          -0.19173359864325726,
          0.05982371504461567,
          -0.005010141904553467,
          -0.08329670244778946,
          -0.21865189291441534,
          -0.14929228743121783,
          0.25437761924448216,
          -0.04399775134060948,
          -0.13945593080143795,
          -0.19432516999586127,
          0.3293395190925322,
          0.1622822920006839,
          0.036938501377137556,
          -0.26709527453372545,
          0.06594128042023087,
          -0.1195449731616383,
          -0.014901313741987075,
          0.08365774926417534,
          -0.22976118109256885,
          -0.22637126909357305,
          -0.15074922226932902,
          0.027200238490912895,
          0.2347483639913499,
          -0.26185751195900503,
          -0.13597920034496203
        ],
        [
          0.15793873363409996,
          0.4023552912939998,
          0.18615119773164865,
          0.10331172327259672,
          -0.05519650782482169,
          0.5899877531055748,
          0.0947133188833923,
          0.11966691843545955,
          0.2127675689106703,
          0.36007380167983555,
          0.07169155702609406,
          0.6582528902292256,
          -0.04951982848077304,
          -0.23302552794827178,
          0.28984340327823316,
          0.1707908291638243,
          -0.155489050824379,
          -0.011681801808077518,
          0.014360179522762907,
          0.16454738711254654,
          0.06786879020578361,
          0.5509182362073166,
          0.16656437917428335,
          -0.15166800064069608,
          0.34951125244203046,
          -0.14549143614993787,
          -0.11046041812643535,
          -0.17361083489172185,
          -0.2580124418723225,
          -0.25768636768149983,
          0.0694195836458856,
          -0.147793010861081,
          -0.03128831905883146,
          0.15328740129950394,
          -0.32399990813761537,
          0.04546592841191165
        ],
        [
          0.237117974746279,
          -0.07450896479837775,
          -0.17680645988383348,
          0.3034432154188388,
          0.27307185610045004,
          0.22260556425683742,
          0.0313426539795924,
          -0.05253405313161848,
          0.29141665485582663,
          -0.2339464223401345,
          0.4062455716491686,
          -0.001031165869163632,
          -0.30933418749750663,
          -0.05142463356679891,
          0.36805830017508845,
          -0.0596496041913269,
          0.1610654127223473,
          -0.006777905771552784,
          -0.07239914699431065,
          -0.23234192781981833,
          -0.2970806638753854,
          0.015504414739772602,
          0.19638375740138495,
          0.028357114724337346,
          -0.17550488067196465,
          0.28775106440238923,
          0.16591237475890258,
          0.0899221415916873,
          0.056010430333605886,
          -0.20958787067962123,
          -0.010195815101715685,
          0.2446437707892031,
          0.16495693966694608,
          -0.16524950711694172,
          -0.43677153349555664,
          0.11875773091409876
        ],
        [
          -0.29425277188281174,
          0.022293453579560113,
          -0.00357213794743363,
          -0.23539397323102063,
          0.007527821262978188,
          -0.17213355236891992,
          0.3041142000120703,
          -0.10642992533239741,
          0.23660222345772525,
          0.16012553818226585,
          0.10595242244910001,
          0.1868309527965367,
          -0.30990106608939966,
          -0.16786620533565533,
          -0.1544221205095459,
          0.050242235051877006,
          -0.18481635137726413,
          0.24324646757901267,
          -0.010994777996090178,
          0.03638217205912391,
          -0.12433418364932804,
          -0.13433400332454623,
          -0.21164575010025052,
          -0.1120094503193402,
          -0.30904410514434244,
          -0.1907166178247423,
          -0.2644316673264493,
          0.276067648571203,
          -0.20322052726212322,
          -0.23564879086667676,
          -0.03781045334739677,
          -0.12744728366428085,
          -0.20066121249555752,
          0.04724905681264716,
          0.21316957186413932,
          0.14512194305641077
        ],
        [
          -0.26695712668930244,
          0.2179316697372852,
          0.17894610113297302,
          -0.2005202540855977,
          -0.18445525227271448,
          -0.17098938765060767,
          -0.21320001013571255,
          0.1492916163131523,
          -0.1918403017434807,
          -0.29977366501685787,
          -0.021047491272988623,
          0.05456711646203165,
          0.17718238180300294,
          0.04337306291061762,
          0.18812158325064732,
          0.14267965695309381,
          -0.06617897476278903,
          -0.1724334835735795,
          0.2492148340431533,
          -0.09363118480513857,
          0.3125359654274457,
          -0.27821411779998956,
          0.004660370806314053,
          -0.16543690742339248,
          0.15356067936177142,
          -0.1267550507344147,
          -0.2364413494631675,
          0.10036309563798665,
          -0.15088931530975944,
          -0.0924610344306475,
          -0.07614131484352744,
          0.05241801365104282,
          0.21034373296678216,
          0.01626409861355833,
          -0.11136753949208118,
          -0.31099625887785187
        ],
        [
          -0.028833584207136626,
          -0.14157454728141747,
          0.28785379564328406,
          -0.07334771111308691,
          -0.2669207970245329,
          -0.2602684393365309,
          0.0853928663795992,
          -0.21247998266024276,
          0.3062707044359763,
          -0.25102146010259335,
          0.0624844087951514,
          0.07802015990419135,
          -0.27893782966053116,
          -0.0063314685779607945,
          -0.23474345083040907,
          0.04006019105909104,
          -0.15569340232491374,
          -0.19433579637899343,
          0.06419769627433246,
          0.11104788167095002,
          0.20006741963466987,
          0.06185687561246076,
          0.2069741042537388,
          0.1013605488119832,
          -0.24294606874456295,
          -0.11432197426740304,
          -0.240705161670873,
          0.12716881231490576,
          -0.024777590358447944,
          -0.2963996015399855,
          -0.09285027722969615,
          -0.2967622699105547,
          -0.264361189295644,
          -0.1621639881366627,
          0.1611442353599447,
          0.27124411329749415
        ],
        [
          0.2582374793450998,
          -0.28231484047576444,
          -0.02210026674501596,
          -0.2089435896642576,
          -0.04549095661310961,
          0.11621980196429295,
          0.05240599731432072,
          -0.22085522025070747,
          0.27667454619808274,
          -0.02525965162626222,
          0.15190531440727326,
          -0.27833473210400717,
          -0.041242953563674335,
          0.21951580203369805,
          0.07042682635500606,
          0.25230204405972695,
          0.1481881620895807,
          -0.11072883109664518,
          0.09586203142905536,
          0.3128538867970232,
          -0.15438653157503732,
          0.2904738836933034,
          -0.1159951836197876,
          -0.04438699337923852,
          0.20521797112713186,
          -0.1493313972598801,
          0.23115860494850068,
          0.28531440289887033,
          0.0570708418528144,
          0.03177139670693873,
          0.05971396701246955,
          0.2086949934099412,
          -0.30920281168380215,
          -0.0880541045853869,
          -0.11454437765199153,
          -0.05438719688310997
        ],
        [
          0.25423194599292115,
          -0.16313184247717247,
          -0.2686606535284481,
          -0.21731192533924762,
          0.051300943639175305,
          0.08804641249203736,
          0.15282686909845186,
          -0.15428031915086302,
          0.30720796363743147,
          -0.09926403623706151,
          0.05833068294910074,
          -0.04412593181977005,
          -0.05901729784059704,
          -0.08269865662935852,
          -0.26137159962580914,
          0.06307520602135597,
          -0.2115011117096179,
          0.03142873004755878,
          -0.30880840395747094,
          -0.10187855556200558,
          0.1590131687114429,
          0.2116622395269662,
          -0.19807990890584362,
          -0.21189043030484736,
          -0.2111225734268769,
          0.06849612272534752,
          -0.10412510194135322,
          -0.047448869676793376,
          0.12431534205353055,
          -0.29696691621490523,
          -0.15877321241477593,
          -0.14837776158029073,
          -0.23068381291597295,
          -0.2539353498269521,
          -0.1169573105662024,
          0.29009112115764446
        ],
        [
          0.04898805195475655,
          -0.046915887674216505,
          0.19349304688143074,
          0.11550141721385715,
          -0.25385651375339574,
          0.11319108011416329,
          -0.02775838882189724,
          0.06237523724705221,
          -0.27815182255447923,
          0.15447114160592743,
          -0.028036991025829492,
          -0.21497913762833665,
          -0.2213986229830071,
          0.06978481316227773,
          -0.2403874561528976,
          0.052406164595642415,
          -0.07316142679921507,
          0.07812533571492086,
          -0.2759466124871419,
          0.11974822037373728,
          -0.1781287923529618,
          0.27223646022290166,
          -0.31302325114931945,
          0.2833114732387568,
          0.016431009356643815,
          0.21049622144023336,
          -0.002953886091545726,
          -0.2383414119608097,
          -0.0019566178080283663,
          -0.09432739852099019,
          -0.17967606687535684,
          0.1611527122817243,
          -0.0702958337977965,
          -0.0820966760118957,
          0.1001323324581307,
          -0.05315126241951109
        ],
        [
          -0.23762529368835802,
          0.0038986368985718446,
          -0.2740089059909213,
          -0.026822775877235982,
          -0.17171181687384648,
          -0.2691556635152675,
          0.2738847123031332,
          0.3055063485199149,
          -0.006948393422404384,
          0.03753462570772236,
          0.07918169428222682,
          -0.29179094136551337,
          -0.19775343903596798,
          -0.1366413838007644,
          -0.19106074433691891,
          0.22572394766538775,
          -0.21408895431793445,
          0.2181665049066166,
          0.32611579276831737,
          -0.23764965614636654,
          0.05386692118097056,
          -0.40359604570571644,
          -0.25837632408021777,
          0.16197833245043822,
          0.24635622808314508,
          0.41771151729218253,
          -0.09320973382189421,
          -0.1853031019974667,
          -0.26767312633492696,
          -0.30121056547782876,
          -0.15506684079032523,
          0.0959776971103156,
          0.487532886842166,
          0.22793318908366034,
          0.13199429872170704,
          -0.14233612157441164
        ],
        [
          0.20262599425514674,
          0.2275213450984794,
          -0.08555924152310589,
          0.13564022827213285,
          0.13231951669509723,
          -0.007984119282125923,
          -0.016681291479882038,
          -0.08053327629410807,
          -0.20557633018661498,
          0.3090862905505438,
          0.31093685000979726,
          0.2810508930002422,
          -0.05240500793482488,
          -0.03918757868223876,
          0.04052928420040385,
          0.15029527475988863,
          -0.14315864830697866,
          -0.17933373674958233,
          0.0524377820359247,
          -0.05597673155817527,
          0.2195247544715915,
          0.07915548295843534,
          0.2583404916743455,
          -0.0038467499636314025,
          -0.2079730458983228,
          -0.050999634956633,
          0.29462402699952095,
          -0.0927460220742437,
          0.2594391003864723,
          0.1322196989111448,
          0.04261658730169484,
          0.19019919174181718,
          0.2932647341031217,
          0.18876238387713373,
          -0.14911777915123017,
          0.028297131345848877
        ],
        [
          0.2415416067395303,
          0.3769009215733958,
          0.43956884792382206,
          0.3080069826152052,
          0.6283743093019662,
          -0.06080599696165008,
          0.19311374745689727,
          0.2927987394982402,
          -0.23829038855472978,
          -0.08617002178245664,
          0.7174731395953685,
          -0.48698884511543467,
          -0.04160688815534718,
          0.05081243750822258,
          0.11343571803501556,
          0.36957594923661036,
          0.06276945023465576,
          -0.12563201083045875,
          0.3371791942672943,
          0.11744376627882899,
          0.06776496704562136,
          -0.3391246812235549,
          0.17896412118087535,
          -0.04286006129258474,
          0.4390143778922106,
          0.7040142406088185,
          0.23413839142273082,
          -0.06602325667145131,
          -0.24900377087056405,
          -0.13400058527932107,
          0.21275837157860322,
          0.40009914822636433,
          0.16502361928296366,
          -0.0253355405583443,
          0.6928508640138836,
          0.3097287827162566
        ],
        [
          -0.27393897381474036,
          -0.20238380819458848,
          -0.3045628522267379,
          0.07993562146457904,
          -0.13518022290405676,
          -0.45087129517130675,
          0.4951659040600235,
          0.31756473442273214,
          -0.216156730462795,
          0.15916696804027372,
          0.5393084929811912,
          0.0737396192180243,
          -0.17357616388025957,
          0.2804333235940749,
          0.06087086021551626,
          0.3476159995270773,
          0.02562017210750815,
          -0.1735438294721438,
          0.17650022820118433,
          -0.16979110375018644,
          -0.16028637216103264,
          0.18484142306879708,
          -0.32137607660416495,
          -0.0486466091297557,
          0.04338472457633416,
          0.3487021534593474,
          -0.15244013232001488,
          -0.047539633961073836,
          0.04299965442324789,
          -0.08998357318012878,
          0.3981353420736733,
          0.11871934045710834,
          0.17321713657068055,
          0.168248074116471,
          0.5104602274009309,
          -0.06841217662174903
        ],
        [
          0.2682300898176939,
          0.13269408456048867,
          -0.2098059905717551,
          0.0619821410538046,
          -0.18691798903561688,
          0.22606733218484745,
          0.009710398826551022,
          -0.16792310557097226,
          -0.03778284502787729,
          0.15629180284869265,
          0.24556592159471263,
          -0.0316990905763444,
          0.05999850035162138,
          0.27426262698935616,
          -0.14949925377971288,
          0.18766880905525365,
          0.15228671317003153,
          -0.03841786793401354,
          0.09351756893487667,
          -0.061072876559224554,
          0.10590005346224104,
          0.3577639634112189,
          -0.025431459808577653,
          -0.16731547479764972,
          0.2536072076347769,
          0.2028106277692697,
          0.29246299202866005,
          0.1179334066992094,
          -0.3049157448768504,
          0.2691856996133588,
          0.2955046346802235,
          -0.1590330345794736,
          0.005029937939244352,
          -0.180393599913012,
          -0.022202830138908333,
          -0.299282079095977
        ]
      ]
    },
    {
      "activation": 1,
      "biases": [
        0.16874385516762827,
        -0.17684776734674768,
        -0.12114274155393322,
        0.09877912758044997,
        0.05881447565670181,
        0.33617148986979145,
        0.11965261153267498,
        -0.08295359521000932,
        0.5754175251045774,
        0.17933940845675758,
        0.07572436712841504,
        0.18711250269234406,
        -0.1788698675532958,
        -0.32883619518250845,
        -0.17332080260126212,
        -0.02631801735834883,
        -0.1626266496993691,
        -0.3566332850817074,
        0.1314266698233037,
        -0.39341094627923856,
        0.313669739190428,
        -0.551712686977091,
        0.26262118562875586,
        0.3826183408946946,
        0.07730674565189775,
        -0.3562462277497775,
        0.12386172056691629,
        0.0614745726919178,
        -0.14681575633595356,
        -0.2336234672161806,
        -0.08004965646203321,
        -0.05435041465004528,
        0.23546871478616843,
        -0.18308345044845384,
        0.3114399712565895,
        -0.30592665388550705,
        -0.4530289490338882,
        -0.34746374808138397,
        -0.22476545705177647,
        -0.07203580079708838,
        0.2179884426199921,
        0.005160308391823052,
        -0.5003369132959342,
        0.45824501344114726,
        -0.24760640664010178,
        -0.09958873561287562,
        -0.08759904389736496,
        0.2766460791998945,
        -0.007660290006008997,
        -0.44581848573199845,
        -0.5119068556602308,
        -0.44261543010450166,
        0.07668520054724176,
        0.3125438129903049,
        -0.14663226247998568
      ],
      "cols": 55,
      "rows": 36,
      "weights": [
        [
          -0.20814904624210687,
          0.004558795388370602,
          0.04198198485891326,
          0.07079213138602351,
          -0.03990226876888562,
          0.1876038513564991,
          0.10626668518299802,
          0.15310455008580492,
          -0.1471043602697251,
          -0.008899957277365396,
          -0.21854583061871005,
          -0.10007920103427959,
          -0.005672839636337336,
          0.060730689154116294,
          -0.16064187959173248,
          8.691721326993402e-05,
          -0.04443370237184727,
          0.09551964467432816,
          -0.02492027720243643,
          -0.029210669045167663,
          -0.07087645359965608,
          0.0923190838725926,
          -0.2161488177263019,
          0.06744519466978065,
          0.016746998565116644,
          -0.053174273191958235,
          0.04034151306249494,
          0.12539601903417277,
          -0.008719341130463173,
          -0.07561110827202584,
          0.03504623213051299,
          0.06953364337137523,
          0.151625805245396,
          0.006656129182344765,
          0.14844063110747538,
          0.022555021449690092,
          0.004962547186578726,
          0.1603989596414846,
          -0.16724808604471011,
          0.16076048037761795,
          0.05992387502772125,
          -0.17363481060961825,
          0.11124358938325206,
          -0.15875779789740194,
          0.25423273546936387,
          0.13037073272129698,
          0.19411842605130877,
          0.11119107641124353,
          0.009348690602271505,
          0.20694660880628946,
          0.02118951865230101,
          0.003240979333481516,
          -0.09064468895023742,
          -0.0078207614842761,
          -0.08962477202000987
        ],
        [
          -0.3309701729318647,
          0.11310662110280384,
          0.2300766131617386,
          -0.020835568817906585,
          0.17038103603638505,
          0.2562332271501372,
          0.18389664438316447,
          -0.24133149343475524,
          0.05736553519142331,
          0.13041656929785028,
          0.01591072645560513,
          -0.1845488346665849,
          -0.2612374255157192,
          0.010457006092916913,
          0.08502501955158057,
          0.38473784768192326,
          -0.11844271363450154,
          -0.08186137974022693,
          0.002586127975225999,
          -0.128227547597215,
          0.1481194107827297,
          -0.12240038586449456,
          0.14325408053043792,
          -0.06092983401616541,
          -0.268919480914015,
          -0.2853229075470308,
          0.3167011034735597,
          0.26148737004920275,
          0.06967857931247233,
          -0.20406630086038888,
          -0.16725643958061703,
          0.16648428212587255,
          -0.27684042295626893,
          0.12640387292631117,
          -0.08322543328221257,
          -0.17358951815667056,
          0.2502747231525576,
          -0.05142440974035692,
          -0.157312417022632,
          0.13359293957792345,
          -0.04645664508911943,
          -0.18103681075325714,
          -0.04282490932148615,
          0.29683387267260836,
          0.19631704180567638,
          0.05025896479920896,
          -0.06459558289161052,
          -0.0015172448810322594,
          -0.2661895063265096,
          -0.09156824515585671,
          -0.2126083990695905,
          0.024295966463785026,
          0.09988248399019437,
          0.07356501905082717,
          -0.18668509862106325
        ],
        [
          -0.23388846979182817,
          -0.16018168243839112,
          0.10275174116212644,
          0.050157597831277954,
          0.21858369176153553,
          -0.20910527230785403,
          -0.08866174110896172,
          -0.07886344544531888,
          -0.13779747016355504,
          -0.11196138842057426,
          0.12359530613203598,
          0.2224448144855547,
          0.06633988454595773,
          0.15642185982347737,
          0.10845151919067435,
          0.15871486264919865,
          0.11003158920725309,
          0.058314112067213694,
          -0.0974723488857437,
          0.1738165343567446,
          0.18591723857142092,
          0.025154508018746836,
          -0.2814459376264406,
          0.033700059802718806,
          0.07905652905925399,
          0.15714234351117254,
          -0.2658599948057304,
          -0.2664533508225047,
          0.2820874676888559,
          -0.10959504712515779,
          0.04764381202816528,
          -0.25058273709304363,
          0.24590162743542018,
          0.07376186156282452,
          -0.2384552907460604,
          -0.005438115402174461,
          -0.1881097205744774,
          0.0303577386725177,
          -0.0915123482939961,
          -0.23405895747467004,
          0.22237772147821236,
          -0.16027529370439192,
          0.03885812100280117,
          -0.0003927475457072707,
          0.043830925519742665,
          0.2846207608021018,
          -0.2537557855336514,
          0.15769463709597425,
          -0.11693287146365246,
          -0.0073175856722707084,
          0.06654172486404415,
          0.2775463344989213,
          0.05617313030353885,
          -0.18144970183131315,
          -0.21664826315415137
        ],
        [
          0.026894054188258618,
          0.24088753061822926,
          0.05521166761513673,
          -0.08257194809857439,
          0.29720633084096304,
          0.08072846466770126,
          0.11838366388071996,
          0.023198171362321596,
          -0.1983719000739869,
          -0.16841390725363484,
          0.05561403746751592,
          -0.2109925229463097,
          0.014376346603332008,
          0.05883066920647195,
          0.23388643369053125,
          0.022645334417818592,
          0.1962939275373511,
          0.07141798102187889,
          -0.12236821464313662,
          0.016343576282654777,
          -0.09162932471951818,
          0.21747522590020632,
          -0.06155179917231022,
          0.11101982641137356,
          -0.022711808824877923,
          0.1566736139936333,
          -0.21371140496158814,
          -0.2987529110628122,
          0.17538961455586832,
          0.010598104386103029,
          0.17030923946729062,
          -0.16770772113907093,
          -0.0007099960432714436,
          0.28798198456344787,
          0.18427116332847998,
          0.09964006332646445,
          0.09059954955250696,
          -0.016374136882336753,
          -0.027562091624450252,
          -0.025788838223981633,
          -0.16733898970686562,
          0.17632858381911337,
          0.024473042141711955,
          -0.13303790544955832,
          0.2240171251753232,
          0.1979814790230467,
          0.19208075314509732,
          -0.1180898090756253,
          -0.002241678882827495,
          0.12583208416643055,
          -0.2219141338132552,
          -0.14676202420972695,
          -0.09326844308159836,
          0.13150169643246853,
          -0.16982475482897186
        ],
        [
          0.128785321903129,
          -0.0031276750729445106,
          -0.21165153094470954,
          -0.09592912236494512,
          0.39337526518903043,
          -0.30863240334612724,
          -0.2183604957050267,
          0.3855316534295253,
          0.24808183787110719,
          0.26463282215133477,
          -0.3265147987699993,
          0.028472468866130512,
          -0.19078956875431005,
          -0.09310170010285473,
          -0.042063441102671635,
          0.12490706468341724,
          -0.27398664003276146,
          -0.024346452783156756,
          -0.11082348548891126,
          -0.08864801732383254,
          -0.315949260140509,
          0.04540344683082082,
          0.23921052942744053,
          0.014444098629938174,
          0.17535351574666824,
          0.5961884444807055,
          -0.03410034097172366,
          -0.434342399266447,
          0.1922413416670797,
          -0.03806438029252789,
          -0.0702882282204122,
          0.10344128355407003,
          0.2012034089124475,
          -0.025658677114605007,
          0.03402357632695719,
          -0.1179405892638031,
          -0.5350128365668771,
          0.034998125601610516,
          0.08333960701357448,
          0.1592657604974378,
          -0.051811188491701646,
          0.1931849449044868,
          -0.2799799238755641,
          0.04653847588684521,
          -0.3207461237886247,
          0.12812767314656703,
          0.27993320102206504,
          0.04816021146217957,
          0.1194162392797141,
          0.0776271003130816,
          -0.0468366667839069,
          0.16965715775385284,
          0.1689378282320495,
          -0.15228696163202693,
          0.11423770166178165
        ],
        [
          0.05249463298103834,
          -0.19203881842243825,
          -0.06793318021249614,
          0.11520235243202952,
          -0.1053812419780409,
          0.1355456070215017,
          0.1664744919377406,
          0.20997669007757672,
          0.3280054080916549,
          0.15102340275701862,
          0.009850529103372998,
          -0.025084541531565124,
          0.2515995657067339,
          -0.44075910866214296,
          -0.060276661913287954,
          0.15095215331825101,
          -0.29208375708269085,
          -0.15168559238882903,
          -0.17120882956544517,
          -0.019820732744955237,
          0.06764713975495072,
          -0.21511969821767105,
          -0.04020098840662909,
          -0.015930585097332892,
          -0.25515246500084465,
          0.0699854696422671,
          0.2591159348955744,
          -0.15142034349388922,
          0.10047607342460076,
          -0.296971887794736,
          0.2060337295716586,
          -0.197685039681871,
          0.16065433732425224,
          -0.1287848748385679,
          0.1764605626793585,
          0.09652374004107969,
          -0.19308385501842318,
          0.009618914415663895,
          -0.218563404586126,
          0.05996815299953665,
          0.1989517250010515,
          0.22495099151891573,
          -0.23733654774085755,
          0.18450149924637443,
          0.10457820529760989,
          0.24776963673130298,
          -0.04992798786883596,
          0.11406665420669822,
          0.09263275344964271,
          -0.4022575808624886,
          -0.6276262394831843,
          -0.27294107347406127,
          0.05008725535579703,
          0.4158277604575825,
          -0.4059326898604377
        ],
        [
          -0.24267733941127773,
          -0.052222110423803834,
          -0.013900400022201161,
          0.14810097903412797,
          -0.4000270796486661,
          0.37373963247883896,
          0.3525095957642922,
          -0.5070447613446949,
          -0.062249665463488646,
          -0.027525374319482435,
          0.08966092623006372,
          0.028713018535657643,
          -0.15175123402193397,
          0.0761585524451058,
          -0.16085296113947564,
          -0.21636528093101084,
          0.018097995739425728,
          0.09127121761340853,
          0.003527548337678899,
          -0.12506474340151966,
          0.04007485512326305,
          -0.12520064776627982,
          0.12493217350425856,
          -0.04451383915030357,
          0.12889374372111503,
          -0.12464927161998435,
          0.3422423653625988,
          0.17432207583662745,
          0.1680527988967843,
          -0.0938886041934643,
          -0.03883261209319486,
          0.21045010653113944,
          -0.35317448449570593,
          -0.015419159956303007,
          -0.11690021238476105,
          0.1681984096779212,
          0.28123908419101273,
          0.12369841603065344,
          -0.12545846275247452,
          -0.06310836899995688,
          0.17712644452361967,
          0.09111678287334253,
          -0.14166678436527128,
          -0.17910060059222846,
          0.060587693681339386,
          -0.22999173351727556,
          -0.29574646711051106,
          -0.31301067982583675,
          -0.22560088027888026,
          -0.09962736659739527,
          0.019604595440602928,
          -0.3476139526621075,
          -0.055897009844986974,
          0.2716425486535104,
          0.0856123707688666
        ],
        [
          -0.03482209965214191,
          -0.10989288480052058,
          -0.10597215457195126,
          0.1886808330915361,
          -0.05770328776246519,
          -0.08528150356528878,
          0.26899408526494656,
          0.1103796913143525,
          -0.21100297786704128,
          0.04121654645707119,
          -0.2589861002832864,
          -0.15171909821502783,
          0.008140166315958671,
          0.15447723798847046,
          0.1369082586330398,
          0.07151640663272112,
          0.14742893789298667,
          0.015856391949993123,
          -0.1336180136040861,
          -0.09391351403129124,
          -0.07722793752904954,
          0.47985153616459303,
          0.022803211427767086,
          0.24729743815443217,
          -0.20510126791728733,
          0.23035172221425335,
          0.02622053104138281,
          0.010842119185073846,
          -0.16737470987525394,
          -0.026086215861652745,
          0.30072874124503435,
          0.25850493241457184,
          0.0969972745572938,
          -0.16109668454867243,
          0.11957756387952385,
          -0.036494854332148406,
          0.14773660379177664,
          0.3785375182223129,
          -0.17328858634442754,
          -0.11995340547487696,
          -0.09658167546781099,
          -0.04824647571559371,
          0.08203275139885828,
          -0.07202208657976951,
          0.10906453609993728,
          0.2309987530218357,
          0.05553854137598875,
          -0.22410049465873375,
          -0.051279381333849905,
          0.021098062016712982,
          0.030482861453632375,
          0.06936053117118433,
          0.28928105248510333,
          -0.10467354073710793,
          -0.037309064014149726
        ],
        [
          -0.10306848791958308,
          -0.05817422219625445,
          -0.09321037332145049,
          0.11550607139406541,
          -0.06334588518326037,
          0.020761823353739443,
          -0.2024322003598948,
          0.2501372461156534,
          -0.23383065890720314,
          -0.14715125156025527,
          -0.11576062026364123,
          -0.12335860838701361,
          -0.1792593334156127,
          0.1929848842198156,
          -0.07945233990425793,
          -0.11225595008989346,
          0.053601365834530346,
          0.21991500275665818,
          -0.037957136720629586,
          0.11331637617537224,
          0.06750983506338883,
          0.1889769146387159,
          0.10814887954077537,
          -0.23572298988613136,
          -0.1531920727393526,
          -0.1135412965100951,
          0.23025243648025356,
          0.19959588682097093,
          0.18112326387059663,
          -0.18545149919125423,
          0.14598770160234148,
          0.07157859455915093,
          -0.1864059262857616,
          0.2168724336915223,
          0.13752474435558373,
          0.1701435052647148,
          -0.07674769688050725,
          0.03554060800752151,
          0.23204002479608626,
          0.17645540765656245,
          0.2417451204706409,
          0.023063458720627563,
          -0.2494574128007801,
          -0.004464178144758216,
          -0.22827949828680577,
          -0.2100662680270899,
          0.17537203008729194,
          -0.05740118566028472,
          0.04121219509997814,
          0.01825620376042805,
          0.13967840814171553,
          -0.24303543269528494,
          -0.22198115372259583,
          -0.2051494941981292,
          -0.08722974104093928
        ],
        [
          0.17370083056717994,
          0.1877925512418059,
          0.026476906155510075,
          0.16538825395380333,
          -0.2771411209669908,
          0.2197654004358314,
          -0.19684496921575503,
          -0.0672547188106481,
          0.29054223858188705,
          -0.13884286031526338,
          0.3088076554776975,
          0.2839323539708978,
          -0.0689725436128872,
          -0.07339372435478224,
          0.09395006187504364,
          -0.06880273274247348,
          -0.04332022810559011,
          -0.02890617238700485,
          0.33172984001886685,
          -0.1893730475880248,
          0.4605491278462093,
          -0.13757068324625452,
          0.08355375637780331,
          0.26229531569228626,
          -0.08693143114753049,
          -0.6018892924772669,
          -0.07260430988950874,
          0.24297003952736473,
          0.04267190286920199,
          -0.06642930834338034,
          0.0738996212812887,
          0.06858498384611532,
          -0.11349831149644672,
          -0.040376516144968864,
          0.2047019885874411,
          0.09867882008610392,
          0.20809790663904756,
          0.057616802103212766,
          -0.002293236698799952,
          0.026055686532107856,
          0.18613654585926925,
          -0.1011507355219596,
          -0.1590874143444606,
          0.3031295607324266,
          -0.32126132847544114,
          -0.2209103237778847,
          -0.16567201495371459,
          0.1278904308882789,
          -0.2379265148321021,
          -0.15017644609925404,
          0.14068698740154414,
          -0.24001062101437076,
          0.07923741460838911,
          0.17167372011882703,
          0.11744109288804581
        ],
        [
          -0.04307406314870759,
          0.1383579174718141,
          0.05542425074067205,
          -0.05771228122882215,
          0.2082842513034323,
          -0.020252826645093126,
          0.23347456460570118,
          0.019312965713289918,
          0.1756150061267659,
          0.1711435063596764,
          -0.10933493294853107,
          -0.08182028324424258,
          -0.31888595633426703,
          0.2225691087907134,
          0.24950443281039686,
          0.27965215149004125,
          0.595801540787401,
          -0.010404443504578257,
          -0.21535780406770663,
          0.06775947785219147,
          0.11883606890266678,
          0.3041043934811433,
          -0.02025004646554375,
          0.40807326014163225,
          0.1409038581323442,
          0.3377527398543543,
          0.023531073574173944,
          0.06335547354735654,
          0.162567421272857,
          -0.014737501477060882,
          0.0032182331975049456,
          0.48459353837744673,
          -0.030181120546654554,
          0.2688498202634978,
          0.20717956659779155,
          0.2087451345970599,
          -0.28644546923487774,
          0.5513423628998619,
          0.1931308142811811,
          -0.4245786098579997,
          -0.13373444017729247,
          0.018850307912537913,
          0.45363765510273474,
          -0.04445007050419845,
          -0.04933155449652088,
          -0.21258270843319046,
          -0.35043312265204835,
          -0.15406298460287,
          -0.1417568632785652,
          0.15090404636627225,
          -0.21141229606985942,
          0.04064891438532108,
          0.10618179602860442,
          0.02844574055544522,
          -0.06834579370971787
        ],
        [
          -0.07795348196653645,
          -0.2284785286114279,
          0.12524361176985818,
          0.07596282883627528,
          -0.20571683876943447,
          0.4822586601726236,
          0.20060511372438258,
          0.008122768305489565,
          0.28265442953846637,
          -0.08538293585943174,
          0.3393835445464819,
          0.11046792694308748,
          0.12100281703736,
          -0.16922656914966674,
          -0.07635584898172634,
          -0.1569764904498175,
          -0.29445070318596905,
          -0.13864091321135907,
          0.08114575320350878,
          -0.07294267818424521,
          0.5184261695987141,
          -0.6930057396197522,
          -0.04380101652698566,
          -0.03862102428451445,
          -0.23675265294588543,
          -0.44622240923477496,
          -0.14076931370653986,
          0.27350207539635374,
          -0.08732941290105449,
          -0.24795644152545884,
          0.038791821934012045,
          -0.0221142411341663,
          0.06807239748768,
          -0.014107095057205615,
          -0.032346204572863364,
          -0.015680645451098256,
          0.17720330704034568,
          -0.07309361719010081,
          0.25332708826529715,
          0.12889548021909253,
          0.26140940956411884,
          0.14200517748785857,
          -0.40563250902786857,
          0.13302713341959607,
          -0.13732555860279802,
          -0.36708447484057943,
          0.041603112263792145,
          -0.008338002052578546,
          0.12871720166185954,
          -0.3552586333398627,
          -0.02923953853915624,
          -0.25980360200128716,
          -0.0872579043231476,
          0.38503696327304787,
          0.17195205417045362
        ],
        [
          -0.17768638371042952,
          -0.08579874988077568,
          0.0148430804074709,
          0.23638391301578096,
          0.07625491287237438,
          0.20254148800509955,
          0.2017132451451032,
          -0.20612133734995916,
          0.24850513823739587,
          -0.1120672666898226,
          0.0226666348065016,
          -0.14427824772020303,
          -0.058612086054750615,
          -0.13956065060256925,
          -0.009284306029336678,
          -0.24241720305627606,
          -0.22689831657814857,
          0.18612208261015994,
          0.2850314487130624,
          -0.13303469879931598,
          0.11177147175113085,
          -0.05827630700872553,
          -0.07217961068847051,
          -0.143512430273334,
          0.19379447574121086,
          -0.024288072324887507,
          0.07327438180922376,
          0.1859131438969094,
          -0.2968827704852644,
          0.196277853138143,
          -0.051630305679814005,
          -0.04448423480798729,
          -0.19198378744890096,
          0.021949667053986044,
          0.12160184362353675,
          -0.05172439625309846,
          -0.1874877128689662,
          0.08285493170559169,
          0.04705362446514832,
          -0.23348688952535743,
          0.10522181758162247,
          0.04975574607634286,
          0.16955329075162723,
          0.00283182370136688,
          -0.10793385368778646,
          -0.21712759743471854,
          0.12741256947744517,
          0.2677114310942217,
          0.2118689059626936,
          -0.24668251501423977,
          0.19367682672869413,
          -0.17385467905305052,
          0.13972086714233517,
          -0.2907808439764721,
          -0.0670309837005311
        ],
        [
          0.38506400244337735,
          0.014065735548131625,
          -0.10872341996464356,
          -0.20300954900317394,
          0.12232428188340856,
          0.07190845950376451,
          0.051867762897915864,
          -0.014340357311631165,
          -0.12336732528343232,
          -0.010302039490098374,
          -0.09356381727399199,
          0.14884294195073525,
          0.20192915026827343,
          0.3536681519803775,
          -0.1253141279757461,
          -0.011991229181567276,
          0.010328464618384815,
          -0.08341025100174597,
          -0.18471216834010196,
          0.14488717241084761,
          0.029085998577938393,
          0.04406937833307318,
          -0.04087636054069369,
          0.15704197134717734,
          -0.09123475837340873,
          -0.06641890561863274,
          -0.26639993158205416,
          0.030648001465905506,
          0.07702630098925994,
          -0.002097023171884039,
          0.11465598223748828,
          -0.2838431987604171,
          0.18792465246572854,
          -0.042554152056683905,
          -0.07308188257178243,
          0.058569493002291646,
          -0.036384882748377756,
          0.06298377109944948,
          -0.08929272838396039,
          -0.2961385915304903,
          -0.28700151945673325,
          -0.1138011133597953,
          -0.025100599598336465,
          0.09717095546345553,
          -0.3060286348053255,
          0.0695699923810367,
          0.05906676701243453,
          0.28348200424233194,
          0.33554658795613096,
          -0.030485061192234434,
          0.05724729338860187,
          -0.11119860901423911,
          -0.08598819933759509,
          -0.1652807058038002,
          0.30466326231929014
        ],
        [
          0.0885157349301113,
          0.16459896333784094,
          -0.3530602757208976,
          -0.16655754459404143,
          -0.018372169715116154,
          0.18280407999874979,
          -0.17742181969850007,
          0.27931928226710373,
          0.25342364139065615,
          -0.12074359967441368,
          0.10294283311064047,
          0.0952740504115397,
          -0.12133723037883566,
          0.16114444872443923,
          -0.19369660534061256,
          0.19999714963101944,
          -0.0728502681038523,
          -0.02637309682179231,
          -0.12102773003057825,
          -0.08247515783147957,
          0.05592809043280598,
          0.0267199046633601,
          0.15324359462923912,
          0.14256902983272352,
          0.0839462178200695,
          0.025899022524219214,
          0.12191870224433632,
          -0.1075039620780005,
          0.11799071278814632,
          -0.007931561603793954,
          -0.18441310765439953,
          -0.10818499263845205,
          0.04556454856480688,
          0.18218166719586223,
          0.0973772368837667,
          -0.08081104788091358,
          -0.4792613714242819,
          -0.22182395407537064,
          -0.08329714730455046,
          -0.03813551128917917,
          -0.10371309100994695,
          0.09517615199514189,
          0.037910932982122496,
          0.3683883375886092,
          -0.2786621430967779,
          -0.10537249359409717,
          0.1530094064818213,
          0.13156480209049853,
          -0.10190542580410275,
          -0.10789568809667414,
          -0.44253463053014397,
          -0.0806307286317731,
          0.3093967808503397,
          -0.020404188172532697,
          0.09743123512872699
        ],
        [
          0.23131541399845965,
          -0.08863930164520784,
          -0.05046036195276273,
          0.037093012419267664,
          -0.1477235249043301,
          -0.26775007884005725,
          -0.19692901048481254,
          0.32732584814026117,
          -0.025002260581334642,
          -0.16612651945508516,
          0.13167816492118609,
          -0.139629024182078,
          -0.13135079791222062,
          0.10658135127679236,
          -0.2061899885638893,
          -0.391247188540859,
          -0.059696622551249204,
          0.004453462376514143,
          0.08554232137891365,
          0.06217937688459711,
          -0.19737697005192648,
          0.15199564874576788,
          -0.09443785782155366,
          -0.06782884680394767,
          -0.06476819629203648,
          0.27112914548755024,
          -0.1856759388298363,
          -0.08726264559217221,
          -0.4067900351386007,
          0.3247014596535283,
          -0.0711593184391375,
          -0.000415976961353948,
          -0.03508281658106228,
          0.00391580455602692,
          -0.1920962088763242,
          -0.04160339823805363,
          0.11574566944534881,
          0.00833278684413067,
          0.20104934905421892,
          -0.3661524269229478,
          -0.18509642114654326,
          0.06374467288708255,
          0.18946660301745016,
          -0.23920195935658164,
          -0.10267611187019506,
          0.1499224892918278,
          0.13061721090569506,
          0.30375069237288926,
          0.3221873054836482,
          0.11942265211104712,
          0.005952652230546841,
          -0.08377904646487998,
          -0.16373347977642258,
          -0.36644851140996487,
          0.31103957765330525
        ],
        [
          0.17321013785215256,
          0.04309071369154239,
          0.12327589138872817,
          0.204295966246455,
          -0.01501798598274662,
          -0.07760116684765633,
          -0.23781955189174622,
          0.006291531561241069,
          0.09351765514223814,
          0.05089236539007473,
          0.23576653013360044,
          -0.1520035839508333,
          0.002860029707681051,
          -0.23345308153227684,
          0.21766975682729128,
          0.09028788310228554,
          0.10418498060318351,
          0.06110183897165071,
          0.050470374307868035,
          -0.02642649373115297,
          -0.0875887088218832,
          0.020763787601356293,
          0.1583744080229332,
          -0.20931603377238553,
          -0.24035594243211458,
          0.2400666472595945,
          0.031111367218784408,
          -0.0279563592583144,
          0.17952870158315387,
          -0.009165693251979681,
          0.2339516545478236,
          -0.2460652898576031,
          0.07638227444963927,
          -0.030730803521119295,
          -0.19894758248420952,
          0.04090635481235554,
          -0.22943809778324106,
          -0.23055100203727502,
          0.08130065175365682,
          0.2291564269336409,
          0.012796231071365169,
          0.011039672053074922,
          0.13680942844635463,
          -0.1714652040811108,
          -0.11380531363432084,
          0.06080919037857462,
          0.15288990072852884,
          -0.14752221583127653,
          -0.22087221762557327,
          -0.19167753106638818,
          0.14331207286416103,
          -0.04121752369592519,
          0.1948385807328668,
          0.24013741970533872,
          0.13939479652406458
        ],
        [
          0.0152647878508525,
          0.004138132470517985,
          -0.012682198653502365,
          -0.028061174566906252,
          -0.05941049740700074,
          0.15331476791570792,
          0.23953121836052846,
          0.2416089402647932,
          -0.09558522105117788,
          0.11070447105485651,
          -0.24131855760268853,
          0.25067665113621257,
          0.2334889658124975,
          -0.16162350588927712,
          -0.17594115051164738,
          -0.012049539849753457,
          0.024747613078770287,
          -0.16087852157702268,
          0.18536687830052223,
          0.25590763483160706,
          -0.22689037816381957,
          -0.024742813746787724,
          -0.18182323441224754,
          -0.006255835974040143,
          -0.07318735663042822,
          -0.1563734898736293,
          -0.20025231433914836,
          -0.2156580913255478,
          -0.17828937739234624,
          0.25073751935938526,
          0.13134768544995026,
          -0.1962104199656324,
          -0.12150741246149163,
          -0.15542749081794446,
          -0.2564678363730081,
          -0.15462240831834284,
          0.046757544690240196,
          0.11073363843359561,
          0.14069185353125066,
          0.07882539704657349,
          -0.04010089012263207,
          0.14732000314224294,
          0.06210168509163225,
          -0.14113417454483168,
          0.1320728430136867,
          0.04019135235308825,
          -0.08835068377173362,
          -0.10954804320906106,
          -0.09450810546056898,
          0.18878428079373014,
          0.05436820094672189,
          -0.18550070622246193,
          -0.1435209902643382,
          -0.21506866453314996,
          -0.21966602807572141
        ],
        [
          -0.2228574791117457,
          0.2737669447073425,
          0.06436898189604136,
          -0.2385147100956774,
          -0.2462576932272044,
          -0.2524878541817667,
          0.18606412874425887,
          -0.06340305412012867,
          -0.23119287629303822,
          -0.04556837896322341,
          0.16067757753954623,
          -0.06454450587145674,
          0.042923710140798925,
          -0.2270985395242667,
          0.08338731225118778,
          -0.2258782377403924,
          0.16113224850125754,
          0.025374963478724758,
          0.25225947423549755,
          0.0770722958343446,
          -0.23057905190750388,
          0.2850171326227082,
          0.18923908387305038,
          0.16850790430916868,
          -0.06877224522407303,
          0.20586630006186607,
          0.210788793207981,
          0.28760416662325505,
          0.10062183253784496,
          -0.012292090716726583,
          -0.20001007517222924,
          -0.035726071268926345,
          0.08330779011217986,
          0.1618454032010759,
          -0.18540395282407804,
          -0.1184291913906292,
          0.22211630696994392,
          0.15612347987637465,
          0.2686242939025059,
          -0.19902275686819698,
          -0.20126598628782336,
          0.08399922250357961,
          0.34059214327653897,
          -0.017202701908066793,
          0.24011447776589026,
          -0.10691443480812167,
          -0.2374823892540397,
          -0.1356432483768583,
          -0.07296268066237237,
          0.35916714750973305,
          0.24502188126618848,
          0.06175925122638749,
          -0.03117317317522123,
          0.2706292937834566,
          -0.039945438326819634
        ],
        [
          0.15714166519923314,
          -0.17111949308499183,
          0.05018288001186987,
          -0.11616196062389202,
          -0.2541655526167044,
          0.18582826342044595,
          -0.011038421974481218,
          0.1570274200758157,
          0.2543702143609916,
          -0.08947145108842744,
          0.15763433126610843,
          -0.08325545872999718,
          0.1808560887584786,
          -0.11311819631452849,
          -0.14391470711154336,
          -0.18465770887017385,
          -0.11745414667023955,
          0.016991685949092863,
          0.00616869922788628,
          0.047957329209000296,
          0.0038335108401687814,
          -0.033052047023850444,
          0.18684977304015932,
          0.20808922697784363,
          -0.019111184193940534,
          -0.3070976235488679,
          0.06694274217420684,
          0.11465811177908164,
          0.1784047149889127,
          -0.053738505211017265,
          -0.08464091471800776,
          -0.07363837410092965,
          -0.032819729972265524,
          0.15434897107518245,
          -0.08607443607983538,
          0.05070055213093674,
          0.01966172097575292,
          -0.015540763754541468,
          0.18978711359812014,
          0.20114156697254418,
          0.16177502082655573,
          -0.1005444357025596,
          0.17384632604077305,
          -0.13352000770536684,
          -0.20993367596157467,
          -0.17619734872580467,
          0.27662032202984627,
          -0.2110330791124316,
          -0.08762755661488054,
          0.10219766957584041,
          0.06863234973416948,
          0.07680557855606682,
          -0.04094680224163031,
          0.08951089432794584,
          0.29684870635151783
        ],
        [
          -0.10516983042760362,
          -0.2563338176161029,
          0.21106344873565447,
          0.2552731025928713,
          0.035145803567583296,
          -0.11307746008760404,
          -0.18466026329512267,
          0.17285775392748856,
          -0.055209119287483906,
          0.11067576450190497,
          0.15077645649575397,
          0.03321356558407051,
          -0.16332059430212065,
          -0.21992239978591566,
          -0.22030456330504247,
          0.13900440443643752,
          -0.2398105309206448,
          -0.2474816120318456,
          -0.08212778153644354,
          -0.17440508161190785,
          0.20970278203990672,
          -0.14884035302805332,
          -0.1996736192634304,
          -0.17442046750164292,
          0.2437817438970429,
          -0.11675328851701304,
          -0.0006459071266432946,
          -0.058976807012346956,
          -0.043831064667427644,
          -0.11497323759219975,
          0.22886165289828334,
          0.05976979157953215,
          -0.18768824910566653,
          0.19179063792409576,
          -0.21523683127007986,
          -0.00919005150891803,
          0.2430289559173783,
          0.06668082413414261,
          0.07723646040457588,
          -0.12066386738982642,
          0.08616842304732276,
          -0.04939014125764037,
          0.059297935865774726,
          0.06859276665167828,
          -0.17156372546249105,
          0.23514839660377088,
          -0.14002734657186672,
          0.10213187504453398,
          -0.11331447687557959,
          -0.11534652848113985,
          0.14972914153073702,
          -0.09206727507587903,
          -0.010277567366003632,
          0.21296919126908637,
          0.1089027024892044
        ],
        [
          0.22354361289253719,
          -0.09346375430852867,
          0.14656463308771503,
          0.11781471134359689,
          0.14296844558303323,
          0.3772483483586937,
          -0.240085683548841,
          0.009392723678025638,
          0.31124332267515775,
          0.17056781115353395,
          0.3213663174897879,
          0.03145963479358686,
          0.1231471202435178,
          -0.3007992096150805,
          0.0007730078966171076,
          -0.09494772070686334,
          -0.1348407406710238,
          -0.3687197995973585,
          0.20235884833069237,
          -0.004946533024660088,
          0.1524123835280448,
          -0.4886950280655189,
          0.2695060546369751,
          -0.0472036664569594,
          0.19707720886294214,
          -0.42370067006192236,
          -0.04392115559630636,
          -0.040483810670627764,
          -0.3643232623854106,
          0.09998985344120934,
          -0.13236131144052632,
          -0.04228685833499651,
          -0.022204593052628847,
          -0.25559615132965063,
          0.10216080168496235,
          -0.06675826033229337,
          -0.39021169309654247,
          -0.13327152601237188,
          -0.14986714703114154,
          0.0056510377934294,
          0.045647393472402084,
          -0.18567118073220398,
          -0.481709976627219,
          0.07352133834817884,
          -0.011388719770077542,
          -0.13952731586347544,
          0.2293979672332149,
          0.2991697723471814,
          -0.1253274994417836,
          -0.20547663121372284,
          0.09649858410204584,
          -0.23751708681939906,
          -0.2383422692316568,
          -0.05718433340040192,
          0.039058013443924657
        ],
        [
          0.1548950060940872,
          -0.13950895288212056,
          -0.17567026150180823,
          0.022667364591882667,
          0.1853966223342449,
          -0.17646654022724992,
          -0.17211441400285005,
          0.10477764531713374,
          0.009190018227679462,
          -0.02369475048641487,
          -0.24448916647569935,
          0.08794573658066374,
          -0.20094727035925905,
          0.22176714986560062,
          -0.20251608638865304,
          0.25784735110289525,
          0.21540370164197825,
          0.22267594564389967,
          -0.033423113024724775,
          0.18608250755561861,
          0.21764462604348217,
          -0.1109378004286286,
          0.21092943988017027,
          -0.2229123900096192,
          -0.23418781250904244,
          0.38306763152014844,
          0.12085833604978977,
          0.07120698163142238,
          0.2799103053661104,
          0.17157263896594002,
          0.024043627094377296,
          0.07797928526254246,
          -0.14080090260568748,
          0.2606991354703376,
          -0.19432391459573398,
          0.06356346249974745,
          -0.10154500794426558,
          0.051972928686430046,
          0.09827068127793728,
          -0.14223807290903642,
          -0.19543657339483433,
          -0.21489530474905105,
          -0.009456953427042744,
          -0.08501832875757344,
          0.14646139590752932,
          0.11858683566061054,
          -0.008013451935457588,
          0.022178546996401094,
          -0.196771382236354,
          -0.07611391395158938,
          -0.16404912986695364,
          -0.03202656594002446,
          0.1778469449585015,
          0.11570814030663902,
          0.10354487720881227
        ],
        [
          0.07749021862079113,
          -0.05484062319409823,
          0.09723732286540017,
          0.19947726963530485,
          -0.21277904711705836,
          0.1126116197415733,
          0.13073325322169815,
          -0.19282182980953702,
          0.06742452619448658,
          0.18114464762317742,
          0.08520512840765627,
          0.09636983878615961,
          0.09047382212608332,
          -0.2431662033183735,
          -0.07056449984724848,
          -0.15705658530744396,
          0.23379776086143822,
          -0.09354790118898434,
          -0.13011620423932538,
          -0.24436489163664418,
          0.025475913670411056,
          -0.08402575747708878,
          -0.008229150035282877,
          0.1997444880299177,
          -0.16092622498144243,
          -0.026230802285727155,
          -0.008666081192279374,
          -0.006019971688779542,
          -0.09788549073228552,
          0.22154729040898935,
          -0.13583781006276174,
          0.1553611308290753,
          0.2530143584948796,
          0.16719757741914698,
          0.10071179820696713,
          -0.09651856725277654,
          -0.08886194825022338,
          0.07580622544633259,
          -0.0633714245367431,
          -0.11267459974207573,
          -0.12603844459503907,
          0.09261007605735373,
          0.03202038011377488,
          -0.08562332385498331,
          -0.22667395808511623,
          -0.04761857365065564,
          -0.02077317192622994,
          -0.1761105173838454,
          0.23146502264496616,
          0.12137355355457535,
          0.018603831343595254,
          -0.12770460272137762,
          -0.1799026658921139,
          0.02629261009210301,
          0.22381236413803032
        ],
        [
          -0.22256916724825213,
          -0.10835143601070783,
          -0.006364900557838085,
          0.2154043301564857,
          0.21505462797620412,
          0.1808522120643612,
          0.3075227620898255,
          -0.31849125895595315,
          0.031871532787860445,
          -0.13577354581046278,
          -0.06348086980140233,
          -0.002315227915045679,
          -0.22432480335096686,
          -0.08324764924464001,
          -0.030327071428819834,
          0.2060116625176813,
          0.22671128534214383,
          -0.26680754024430886,
          0.1915772905043391,
          -0.15087999680415132,
          0.22182924161768514,
          -0.04773407449909772,
          0.21510749661437187,
          0.49287393979026806,
          0.10478548525094394,
          0.09328691502811984,
          0.021875724909817575,
          0.08954845367234605,
          0.014596402560666721,
          0.004403391890147672,
          0.09831271215490038,
          0.050091977870614375,
          -0.21473781185127722,
          -0.0625174698172496,
          0.40505574806690353,
          0.02334106984353503,
          0.018730652242801255,
          -0.15169403565027523,
          -0.1369904528695158,
          -0.2521526389457369,
          0.0639701107531553,
          -0.24662594384875278,
          -0.17763772561192082,
          0.379775108943935,
          0.18902244594134734,
          -0.16748802794715892,
          -0.3637193907193771,
          0.04579329969589496,
          -0.11713551341165492,
          -0.2255834305986843,
          -0.0308162616120467,
          -0.45737932422013816,
          0.20589245308125187,
          0.10025374695206969,
          -0.13112792082114036
        ],
        [
          -0.09462936131793363,
          0.09191996266389943,
          -0.07760599350944353,
          -0.032096135204425016,
          -0.26871383290800044,
          -0.08897814496562859,
          -0.02377988626601856,
          -0.3708668987073448,
          -0.07832052392364143,
          -0.3066642598661835,
          -0.03550732144739882,
          -0.034784967204635656,
          -0.09185983097643419,
          0.12725256977368105,
          0.1492073260995419,
          0.03734162704695636,
          0.25621941784452296,
          0.3571569082754508,
          0.1030150675210704,
          0.15878563532783327,
          -0.21779021047569097,
          0.4790876495266876,
          -0.2682821905429196,
          0.07255229065399783,
          -0.05630456053870598,
          0.47262015864185647,
          -0.029852249493474255,
          0.09605982115210335,
          0.145743967877638,
          0.1156856939002598,
          -0.19810638159572605,
          0.1379622621228067,
          -0.3954897512447277,
          -0.13090946476378712,
          -0.022684805454136123,
          0.12314029003282287,
          -0.09957446085848413,
          0.18339684945265763,
          -0.08948486282973679,
          0.1494857892530908,
          0.20586893611242163,
          -0.11379705924866783,
          0.5310233513905026,
          -0.345822228966865,
          0.3835420709132397,
          -0.5039228489764407,
          -0.22536601677881402,
          -0.2172562950426362,
          0.02939805571891751,
          0.12537979919362494,
          0.18752690672875277,
          -0.07681199051448283,
          0.1671828683666612,
          0.00846427833672517,
          0.0494055520233083
        ],
        [
          -0.12299693196067171,
          0.21952943408232814,
          -0.1472366606967486,
          -0.15763271945424162,
          -0.16220039794608662,
          0.12647516038388998,
          0.21532660838147066,
          0.04960641086891295,
          0.0026969389313701193,
          0.2526448619284138,
          -0.08761872304425164,
          0.054492588807672514,
          0.0251511230993389,
          0.12320794301810672,
          0.2294366122904624,
          0.10594116748280098,
          -0.10532338964093885,
          0.1501632290121539,
          -0.11424013019471478,
          0.043051092533276956,
          -0.1998578518528726,
          0.0024856281170175867,
          0.01742825308640792,
          -0.16030243889723222,
          0.1492012250381762,
          -0.15327638639574093,
          -0.12023207869692423,
          -0.1855993123336305,
          -0.18482445457919908,
          0.031660826957723986,
          -0.11866648702750315,
          -0.04018402755347113,
          -0.1259541041944568,
          -0.21812966634432823,
          -0.12217024403694253,
          0.12779213554137486,
          -0.03965580851308362,
          0.12156683089733994,
          -0.20778089694243523,
          0.2561135131707974,
          0.2128631516952212,
          -0.08256580055328214,
          -0.24900649292289595,
          0.09575286682524183,
          -0.14635561961238341,
          0.07734339029559116,
          -0.0227553343870269,
          0.19795482183898955,
          -0.2504740637407759,
          0.04737662910838596,
          0.055915906960974364,
          -0.14059216099523944,
          0.202577753232613,
          -0.03734473530532595,
          0.10975867298008965
        ],
        [
          -0.1438952315018407,
          0.012484912605287049,
          -0.15627127192233012,
          0.03234302549560396,
          0.07569258831570931,
          0.02590443574728254,
          -0.02695485979173067,
          0.22358217822947543,
          -0.18971746760115668,
          0.24676011213828072,
          0.021611947562821428,
          -0.13907227902905694,
          0.030555521484908567,
          -0.02434403395459584,
          -0.1822954459686473,
          0.03817010922864886,
          -0.23292646612069773,
          0.19952498632660665,
          -0.048391481317147454,
          -0.09836083742468804,
          0.2190541619132544,
          -0.09999497229994918,
          0.17690130650858665,
          0.02667997063306345,
          -0.05049166937533613,
          -0.25642333380254484,
          -0.1074560842511191,
          0.13136625718355757,
          0.14787046325216716,
          0.12459487899587274,
          -0.17876073114796764,
          -0.025206495841140496,
          -0.07056181880447651,
          -0.06431487614636804,
          0.24586753252443463,
          0.05802125209903636,
          0.1455258124943676,
          0.08675726370375521,
          0.16493708005191587,
          0.08625700753824399,
          -0.14199256863342807,
          -0.13407247348043239,
          0.07017101749217568,
          0.002383451834742333,
          -0.22122864144956184,
          -0.015162946308369927,
          -0.10056152161493856,
          -0.02450776270244147,
          0.2185896655418873,
          0.19740872939038542,
          0.11678085914755108,
          0.06429075417627751,
          -0.07031241041824796,
          -0.07565089541944317,
          -0.1964447650640913
        ],
        [
          -0.12800227161846822,
          -0.20911466872464204,
          -0.1432970941447778,
          0.2506117833057707,
          0.09556166831822668,
          -0.11672503604581186,
          -0.0769524401043584,
          0.08135364630371031,
          0.0665732731085443,
          -0.1535093802485809,
          0.1503375331953785,
          -0.20993416105129284,
          -0.0059150098142103135,
          0.15119474190481808,
          0.015172081330301497,
          0.0978361798029965,
          0.016238953133340544,
          -0.08202084379306165,
          0.15169706697207597,
          -0.024830101827031364,
          -0.015196698483772171,
          0.24207723673139556,
          0.22432374611298508,
          0.07885744470094452,
          -0.2246255647409794,
          0.026308619105544002,
          0.15006479363252828,
          0.11009533620883348,
          0.1778739059413855,
          -0.20135866673108888,
          -0.14896506181183955,
          0.035289766616053465,
          -0.13954526836843523,
          0.0880467331593411,
          0.2514892865543861,
          -0.07320536472889812,
          -0.19867248525657366,
          0.15347255917707506,
          -0.0593971198614889,
          -0.03740768791255561,
          0.009818077628055187,
          0.11271796386271016,
          0.24749709956851473,
          0.0015992124922249277,
          -0.06904713100566486,
          -0.12155675370814159,
          -0.035927259313486164,
          -0.03278099018198933,
          -0.11873047647096326,
          -0.21481225592166095,
          -0.062127366012432544,
          0.02004159419544286,
          -0.056166583870122286,
          0.09164354525111022,
          -0.01756733052025998
        ],
        [
          -0.10437988451071496,
          0.17278270428623613,
          -0.16303848182693462,
          -0.008635995879860884,
          -0.25034070156823807,
          0.1416391803030654,
          -0.05972292469494395,
          -0.155237039403715,
          0.15015352728680004,
          -0.1276689151699995,
          -0.2363152365716366,
          -0.04236823859463068,
          -0.2281266611417896,
          -0.25589655134480693,
          0.19018528613393898,
          -0.0047179181293965575,
          -0.01825660719888902,
          0.12237692113345822,
          -0.02846193497611211,
          0.12169344119060299,
          -0.14901332865110462,
          0.10384984158719428,
          -0.026239554842884236,
          -0.17205913231150996,
          0.1579169320100238,
          0.047602895384894865,
          -0.08934085020662916,
          0.048767932664948936,
          -0.14014791945519975,
          -0.03717337243360233,
          0.14978701491056512,
          -0.17832779408486657,
          -0.12295502657056573,
          -0.2000345631253315,
          -0.05044787743777418,
          -0.08381964336106773,
          0.23353943192858814,
          0.2094173846663106,
          -0.19821791068969719,
          -0.13081907457979328,
          0.1939685470518851,
          -0.21919032889508253,
          0.1491464062590449,
          0.24440969744455013,
          0.13125646083792164,
          -0.03685057791052437,
          -0.2286873807514052,
          -0.05532515891335241,
          0.2148574718755585,
          0.026364564382664657,
          -0.22900600909786625,
          0.1561890497820397,
          -0.13914752611436904,
          0.1600998180410345,
          0.18180216994413176
        ],
        [
          0.11092155876425813,
          0.17548694935633402,
          0.1376748028189604,
          -0.02688657471670818,
          -0.20534670144016173,
          0.21078666445006022,
          -0.06471777989053203,
          0.1585477733516668,
          0.06953891518346687,
          0.01675427399193563,
          -0.11685273506117962,
          -0.03843190518863235,
          0.05670453349454768,
          0.06269790664322915,
          0.015165141809043804,
          0.13963120442346397,
          0.291875161012122,
          -0.0365501159747999,
          0.06135270359958576,
          -0.04242600664238391,
          -0.2574003800351465,
          0.06087672667507217,
          0.08953116168064704,
          -0.03925116016943087,
          0.13516171704459587,
          0.29463464502220743,
          0.008231545199075424,
          -0.0840927341343055,
          -0.018113301380175705,
          -0.08148890855018981,
          -0.16247288681459174,
          0.1698449422687089,
          -0.10703675808399837,
          0.06615034574012363,
          0.2757480368591106,
          -0.0016784615002217564,
          -0.27533810996154434,
          0.1262042626864425,
          0.2151058230946259,
          0.09431861791825377,
          0.08365278273698587,
          -0.12134811504286191,
          0.08780645161170576,
          0.2689607281178279,
          -0.14704059851490603,
          -0.27713324663088057,
          -0.12011645612476639,
          0.2972598214347634,
          0.20590382483921127,
          -0.14349931784688694,
          -0.20044597198482866,
          -0.20252015729294634,
          -0.23253039883675122,
          -0.16143037192031104,
          -0.013724821892452898
        ],
        [
          -0.18406742871649778,
          0.11086686162002692,
          -0.04796940957376722,
          0.06557777298375696,
          0.15909780406977947,
          -0.3614149226034848,
          -0.0855331898267686,
          0.11784557251983165,
          -0.0826711312427411,
          0.07452070303926796,
          -0.11432044557499602,
          -0.08743193307476156,
          0.05696061352201026,
          -0.14268303465178026,
          -0.14678208333304688,
          0.07041679421021939,
          0.21431418788766635,
