{
  "layers": [
    {
      "activation": 2,
      "biases": [
        0.6563462418723185,
        0.7752320564463147,
        -0.05956490803816076,
        0.7781160485840392,
        -0.01259856691868955,
        -6.0346811221418336e-05,
        0.08093121398856928,
        0.13047296801664762,
        -0.4181141044450287,
        -0.10210215154389511,
        -0.11937579514585962,
        0.0012714602591854807,
        0.0,
        0.012916576049639132
      ],
      "cols": 14,
      "rows": 3,
      "weights": [
        [
          -0.6603952962656309,
          -0.7786421776777164,
          1.0676708276800508,
          -0.9430630496555072,
          -0.5998536391255828,
          -0.09175473814568506,
          1.1237314321032033,
          0.6082043203786509,
          1.3403231320119182,
          0.506044146816816,
          1.1865699121849136,
          0.37997059351929635,
          -0.2827177023589259,
          0.4890647543858103
        ],
        [
          0.14452326348687652,
          -0.926904619714931,
          0.018498689204180244,
          0.7935367666588159,
          -0.1002300601815541,
          0.9063584333074544,
          -0.08537912054421429,
          -0.6070939895677686,
          -0.5406639548562971,
          -0.26438508903088237,
          -0.3892793397417244,
          1.2318672560881434,
          -0.11639431000228719,
          0.8469980449886705
        ],
        [
          -0.4327494590571124,
          0.6262512698490786,
          -0.9953144895805909,
          0.7734491323678168,
          0.74332350648784,
          -0.23121856850727035,
          0.5926593624427786,
          -0.2720599425698967,
          0.15013236211964007,
          0.5513928123068639,
          0.5875413825481896,
          -0.4528801015604683,
          -0.499741320914247,
          -0.49818842063213215
        ]
      ]
    },
    {
      "activation": 2,
      "biases": [
        -0.028968487492325775,
        0.3090112198511376,
        0.31922216139656007,
        0.607859499284248,
        0.026622387069782472,
        0.08361832092958325,
        0.0,
        0.3564751428391659,
        0.10976186491244916,
        -0.4429043261353349,
        0.07691430910961215,
        0.0,
        0.9174413076368974,
        0.3591367491466709,
        -0.15608066474780766,
        -0.027843424141661605,
        0.3198196409297231,
        -0.19623012948598031,
        0.2793912945901317,
        0.11494938290062189,
        -0.05705646765220284,
        -0.06691943844115796,
        0.11817724058575883,
        -0.14941326239875102,
        -0.11356548507125443
      ],
      "cols": 25,
      "rows": 14,
      "weights": [
        [
          -0.24207403349583187,
          -0.4138785843835872,
          0.44781795985825235,
          0.26798695812018875,
          0.12780940356355622,
          -0.09952829854029223,
          -0.30093572735602725,
          -0.09602553894768553,
          0.2863738520475308,
          -0.07468242240324312,
          -0.3035934521807515,
          0.1553874425639971,
          0.2267624795746757,
          0.47204526292514104,
          0.2166765096200783,
          0.25537428222655634,
          0.3900554654587409,
          0.12481426388306281,
          0.5095693163871473,
          0.39456804189375655,
          -0.1402805214536836,
          0.21182143925917948,
          0.4187487088501264,
          0.3725160106308138,
          0.1411928391336841
        ],
        [
          -0.02672101221826931,
          -0.6803281628033259,
          0.2755074234036391,
          -0.1424952477597842,
          0.17492733099678706,
          0.28947750359878927,
          -0.3838767292594663,
          -0.2294043025439062,
          0.4898896651583178,
          -0.20646906610204221,
          -0.16109550412081464,
          0.11429167303998966,
          0.9498216397758242,
          -0.30646157588666373,
          0.5793589349650033,
          -0.1252329274087215,
          -0.3683250043831553,
          -0.00930169390845637,
          0.6114812557383783,
          -0.24799899127424657,
          -0.3806166735611564,
          0.03876586704479799,
          0.329985933710008,
          -0.08695459094002195,
          0.12723390680354493
        ],
        [
          -0.03461569305569983,
          0.42530433627956593,
          0.3906603141637728,
          -0.7488636300028955,
          -0.1486797530399009,
          -0.17870299464819372,
          -0.37980715814805155,
          0.1534983574319597,
          -0.1305664686494054,
          0.4851537566771186,
          0.417614954035665,
          -0.2535110305442186,
          -0.5039112680841749,
          -0.2394411033298869,
          0.6693967960707949,
          0.019593252213586793,
          0.25146629209155935,
          -0.13808953054209536,
          -0.3989030093146959,
          -0.546401770023803,
          -0.22138206191518106,
          0.006372352242593351,
          -0.1907212780452545,
          -0.04641242034627704,
          -0.2830243822781906
        ],
        [
          0.04340179224844947,
          0.6719886944513939,
          -0.1925353401023338,
          0.40332986612477273,
          -0.3021277693219254,
          0.15527519964377012,
          -0.23094051668844343,
          0.19344330869012344,
          0.02194594467593304,
          -0.8088802670487186,
          -0.3582840435875805,
          -0.3329706147709631,
          0.2511941965629875,
          0.5759861729618236,
          -0.2534428629362035,
          0.3785619911662476,
          0.11373936383001562,
          -0.4726739723257356,
          0.41553244643832254,
          0.39586186197284323,
          0.10517307929855249,
          0.22114235337601548,
          0.18447346150393393,
          0.0759633476053545,
          0.05385150224005441
        ],
        [
          -0.04660276282709052,
          -0.15834823348953947,
          -0.45430144900905994,
          -0.13459599020470964,
          -0.2295411975210356,
          -0.029054263561103008,
          0.11328267227016434,
          -0.11397033773907224,
          0.10011861729177478,
          0.10373137935986647,
          0.1455257839128548,
          0.1329098476424664,
          -0.180924240231241,
          -0.4430348436849287,
          0.5779197624261775,
          -0.2187889575526682,
          0.20513732960109246,
          -0.04077535580726978,
          0.12764008507847888,
          -0.003083955462862157,
          -0.09590441295910093,
          -0.06201239321875389,
          -0.061138639166911056,
          0.2542257552459218,
          -0.1318193098199713
        ],
        [
          -0.07871068494395132,
          0.2550192027041443,
          0.08604975122219881,
          0.05868540892628806,
          -0.19117866386349308,
          -0.009592460671944232,
          0.046432923160593394,
          0.49071661191215266,
          0.007761892489087803,
          0.3790821291505771,
          -0.22317555654765647,
          -0.3392021672589402,
          -0.5895681323102933,
          0.4243803285424703,
          0.11299190249003603,
          -0.02495848682704498,
          -0.1755424604820798,
          -0.48370594402101996,
          -0.35958188149880915,
          0.26545846630562026,
          0.016566481546331432,
          0.3800977781202001,
          0.1465086902827223,
          0.5564645675912866,
          0.003653386746070159
        ],
        [
          0.04315499835774985,
          0.6932018127122435,
          0.04950743188013658,
          0.2278179935818273,
          0.08331373215623115,
          -0.3436667887722491,
          -0.14407828987886268,
          -0.06048427988860054,
          0.13744326892754305,
          0.46206007925576636,
          -0.2628121448446989,
          -0.26700892427414297,
          0.4233726004006153,
          -0.0116065627398046,
          0.3220817362026785,
          0.09077629627184146,
          -0.008343713108595538,
          0.5197608566738369,
          -0.5163552240969143,
          -0.22841581216968254,
          -0.03767885586726696,
          0.005579046939942013,
          0.10610036844870602,
          -0.5022199197035984,
          0.27967599837420576
        ],
        [
          0.06796045445467547,
          -0.23554362131383433,
          0.06483677367904771,
          -0.17441920835677774,
          -0.22585563668479475,
          -0.010131998745984675,
          0.1182186922517409,
          0.13527252674981027,
          0.32572099877806604,
          0.24906737451462904,
          0.21388971846068938,
          0.30264622668235797,
          -0.13526211189123669,
          0.09822590421131554,
          0.4642537014680479,
          0.24851847187990492,
          0.16365718424299594,
          0.3985259292388067,
          0.2297444613919468,
          0.3286095696809155,
          -0.14898637495477782,
          -0.05903355140731882,
          0.49795351125813203,
          -0.2899040786452856,
          0.17097019839004776
        ],
        [
          -0.23560882371398378,
          0.39569589152536905,
          -0.21673094529913758,
          0.08278207906299648,
          -0.05352962503824836,
          0.40290558867000514,
          -0.1471205450713755,
          -0.10578617520312225,
          0.27083291590921105,
          0.7432815039334355,
          0.11002109091932204,
          0.10705090645004273,
          -0.03293818056208189,
          0.1713121768925602,
          0.525171374314486,
          -0.45458239514962695,
          -0.07074187619938604,
          0.7741787426712713,
          0.05943477504243056,
          -0.5296809135637695,
          0.06574109383832355,
          -0.2098332139225693,
          0.28328229707921715,
          -0.44819006059609295,
          -0.0921035619946936
        ],
        [
          -0.20734047909184228,
          0.10257906219299603,
          -0.10048568784123468,
          0.210983934039754,
          -0.17335120492424574,
          0.025881904374256318,
          -0.022769192383300538,
          -0.252117657256851,
          0.16177020837738684,
          0.3906080363101212,
          0.279863027240447,
          -0.3570713221085462,
          -0.13015537421269147,
          -0.2920145340897248,
          0.20031203725276114,
          0.17895240943944635,
          -0.13371310412627332,
          0.00237459700434358,
          -0.16416200023632588,
          -0.056755952907803366,
          0.27877603854406713,
          -0.11029560207902639,
          0.34403470841787726,
          -0.3586241297929344,
          -0.3502840372862577
        ],
        [
          -0.297071836166448,
          0.38802741745542124,
          -0.26369240921287157,
          0.5532638602381783,
          -0.10505084609613137,
          0.446926172076357,
          0.13687940360347403,
          0.00791273354791184,
          -0.12528123369755856,
          0.5994230504245838,
          0.05831559040376423,
          -0.1439754499040148,
          0.08793628166837648,
          -0.4316311771886398,
          -0.018970809556272738,
          -0.4063203073655158,
          -0.03179419744189917,
          0.7622431775192534,
          -0.14226804985315603,
          0.026945721735914033,
          -0.012675900706165843,
          0.4291418097645426,
          0.10762629680931315,
          0.11344633096990342,
          0.05514296500415653
        ],
        [
          0.15238378070253622,
          0.4130481791819124,
          -0.32906757918123275,
          -0.2457162780207881,
          -0.017084288600946074,
          0.2345204207090975,
          -0.30236107758647973,
          0.5153149204612321,
          -0.3712956504684562,
          0.4218832573180626,
          -0.004715910529027551,
          0.2777210684140868,
          -0.4961402521945487,
          0.06929549462920027,
          -0.11370830218011313,
          0.13732599468303364,
          0.6986806691100262,
          -0.16417801190485762,
          -0.19066429458256673,
          0.007411045075241155,
          -0.1717672300859536,
          0.22656552717234527,
          0.24087652729291112,
          0.5880968201292729,
          0.3672153745392557
        ],
        [
          -0.24891405890153437,
          -0.16021989819120092,
          0.13296781882625916,
          0.20124990406342527,
          -0.3799188404480529,
          0.1453032266142893,
          -0.02133729534001644,
          0.017935600324073448,
          -0.12076081361034997,
          0.17616935122733285,
          -0.10939641374450762,
          0.09398054677595118,
          0.2604402967696101,
          -0.21973954677943322,
          -0.28594290570119485,
          -0.3710187242010708,
          0.10890534141261812,
          -0.023755324970061394,
          -0.28519774017342087,
          0.19176334615300558,
          -0.20564033987077235,
          0.20683705648948897,
          0.005949953874596097,
          0.10235315546029687,
          0.06563683148524739
        ],
        [
          -0.004169997465452305,
          0.5127299376350762,
          -0.11731214264182885,
          -0.33851441630473245,
          0.2557254873894456,
          0.11308940226235628,
          -0.11562774705562388,
          0.5109656144618964,
          -0.4517243447862685,
          0.4716427511658118,
          0.0751852163310832,
          -0.38053500979970795,
          -0.40920997319965235,
          0.17007660723266613,
          -0.1133512153575032,
          -0.1253637086279281,
          0.45418694244522206,
          -0.07795149442278669,
          -0.3257423303505188,
          0.23192674790717424,
          0.1429652253600718,
          0.4314100264658775,
          0.3842916713867426,
          0.07008902081407109,
          0.24013794749488712
        ]
      ]
    },
    {
      "activation": 2,
      "biases": [
        0.0,
        0.0,
        0.05711918398535981,
        -0.018660692313937036,
        0.13230804487058115,
        -0.06918067408579177,
        -0.009460306244009469,
        -0.030166194650344546,
        0.7242878226182781,
        0.2582873240514507,
        -0.035559645047268634,
        0.0,
        0.0,
        0.0,
        -0.12106849100896806,
        -0.035982212323015995,
        0.01342790669038325,
        -0.26649276906230873,
        -0.1136999794548125,
        0.0,
        -0.015716691069090977,
        0.5139574296911482,
        0.4383700314986946,
        -0.009524138534179938,
        -0.25997114536075544,
        -0.07877922869284329,
        0.2209121240513739,
        0.32502873389322645,
        0.33615202320822435,
        0.03744343503665451,
        -0.03700376932504527,
        -0.012629816977512696,
        0.29527441760033396,
        0.0,
        -0.17782637461535936,
        0.0
      ],
      "cols": 36,
      "rows": 25,
      "weights": [
        [
          0.09965243330075572,
          -0.2275938467015433,
          -0.2726047589005335,
          -0.16375794606978167,
          -0.08841872590316284,
          -0.09073024126949258,
          -0.12953638751124208,
          0.041427321166690755,
          -0.035766796482842624,
          0.08817764499065978,
          -0.1155039414287557,
          0.040254690001456074,
          -0.06303471004095476,
          0.18789623127569585,
          -0.13300184430077752,
          -0.13624206958698995,
          0.08360113390526132,
          -0.013541788448482322,
          0.17603789602572342,
          -0.0923851821624416,
          -0.20245598954621932,
          0.09487756606944181,
          0.09947423013299382,
          0.15164508797914075,
          0.07580960588371533,
          -0.12138947478159139,
          -0.035774679120015286,
          0.06832521004778261,
          0.15084531251218064,
          0.29335158475225476,
          0.1401325636516615,
          -0.08208159271720411,
          -0.17851593740416763,
          -0.21720594541558114,
          -0.2595685169898797,
          -0.13675772765051603
        ],
        [
          0.10081782603122331,
          -0.19898766741472987,
          0.43963908632655835,
          0.02942798248186421,
          -0.5400639572066253,
          0.40459607587786434,
          -0.2813374291379591,
          0.3575790709144933,
          -0.3362082083385903,
          0.623937281655147,
          0.03614041528866637,
          -0.24222713949543323,
          0.0009597298205677193,
          -0.23203357183112325,
          -0.0295781239956313,
          -0.002083753946613106,
          -0.18987872589602406,
          -0.04912820651773561,
          -0.22249696916425885,
          -0.27388734088551264,
          -0.2444117963390799,
          0.32013317401710467,
          -0.09729219523857296,
          -0.15156209350018274,
          0.14484444215134193,
          0.29287765421583417,
          0.20295297765593748,
          -0.221072650371431,
          0.44815583322160635,
          -0.16834457630357236,
          0.0004557357787125916,
          0.7210499468012412,
          0.27365639805625697,
          0.014955849715362568,
          0.48345521233792293,
          -0.24295206439522
        ],
        [
          0.2428219531971182,
          0.11153069467890984,
          -0.039058602647512125,
          0.20480677726651877,
          0.23684589490400468,
          -0.038749831120899816,
          -0.22731798434624045,
          -0.2884144096746005,
          0.38743804381166597,
          0.09009686177254381,
          0.13175049710720166,
          -0.25872076494831275,
          -0.1783221585855666,
          -0.17469218599078193,
          0.19117983238667915,
          0.0887941997869392,
          0.25371287370338397,
          -0.1612471680564797,
          -0.27104279406832715,
          0.16356538290264877,
          0.3012872939092786,
          0.34885109712220486,
          -0.15622559157688817,
          -0.04166953249754655,
          -0.028251439079410717,
          -0.31381222236977013,
          0.3411725477091309,
          0.25689724159616173,
          -0.3381324283988153,
          -0.044211630133435584,
          -0.35714093877127484,
          -0.08719343178630079,
          -0.21190946861365775,
          -0.16430315696052264,
          0.21262966435186792,
          0.10246740807918911
        ],
        [
          0.2197538781723644,
          0.27324148514396224,
          -0.10104933359779732,
          -0.3315636691378153,
          0.4629451896160992,
          -0.16294939608413747,
          0.2095947411149112,
          0.03678605824135721,
          0.2995130257786626,
          -0.34699159574571714,
          0.23960647824160436,
          -0.22256245276094067,
          -0.05978910927180201,
          0.10590561711760789,
          0.3109056287272333,
          -0.13681038549007937,
          0.30984170782449594,
          -0.5055505794755081,
          0.08249370663555902,
          -0.19357075959198097,
          -0.1205374398646663,
          0.5422408120675436,
          -0.3278270002561809,
          -0.16476552533927571,
          0.1352309592307746,
          -0.14469910875424496,
          -0.5455422953964458,
          0.07578207769551645,
          0.45884322598194843,
          -0.2929440704656452,
          -0.12909106753927604,
          0.3255687594596003,
          0.008194241731612427,
          -0.28844691553787777,
          -0.27288955850210217,
          -0.2589047350642913
        ],
        [
          0.15514671681250947,
          0.2720380362279947,
          -0.2744650784748668,
          0.22065710242417458,
          -0.23042057009144287,
          -0.22795824221521957,
          0.010751915945128409,
          0.046995023460161885,
          0.08096674121275803,
          -0.08038207411607293,
          -0.20401088917249294,
          0.31214383521175426,
          -0.020982335314125907,
          -0.1799298595810108,
          0.237787135095257,
          0.20498162163591346,
          -0.032637743203143096,
          0.014921425107595476,
          0.11657852016516344,
          0.20224348447817941,
          -0.017276254769572803,
          -0.21893712860545209,
          0.11155259332481371,
          0.09137201513083623,
          0.22658311763171862,
          -0.26480388608585376,
          -0.3011376073926315,
          0.1942228114852125,
          -0.24771669759045284,
          0.0004866139576139579,
          0.3040371421417732,
          0.02511633216672631,
          -0.17766046946671052,
          0.0883129936018769,
          -0.09982510498243825,
          -0.17829795107666832
        ],
        [
          0.07241915373968136,
          0.11767364755150493,
          0.04020859766065155,
          0.1487561763645088,
          0.3372974171039309,
          0.2816092397205401,
          0.16816532833817294,
          0.08085636588328123,
          0.18938799079038138,
          0.2229517754041869,
          -0.05383400816440749,
          -0.11796463362042267,
          -0.13558254331889014,
          -0.10866766765357268,
          0.1843214542465872,
          0.2866683194834568,
          -0.2035660692810465,
          0.09787479166558183,
          -0.17490368752282023,
          0.03823249843369742,
          -0.3057004922472536,
          -0.01595417539477387,
          0.018934969427967508,
          0.2908018868933424,
          0.1629485545146796,
          0.34464194668746645,
          -0.12544199011888071,
          -0.17115844414262535,
          0.12189553284204847,
          0.11423547326489449,
          0.2684193766345677,
          0.0650314190943311,
          0.09095339606030863,
          0.20286945587668026,
          0.2319048792406848,
          -0.28018355540563844
        ],
        [
          0.28362341969578775,
          0.02159246396445904,
          -0.2918192057168804,
          -0.27409598438766325,
          -0.004714957098450764,
          -0.16240693072125867,
          -0.034043751760534695,
          0.15416770712100378,
          -0.036006518126275186,
          0.22535362515384802,
          -0.013892893904592573,
          0.10580506123216916,
          0.0636195034380925,
          0.1746500674722894,
          0.17910654373769935,
          -0.14419028372899456,
          -0.22455845764462434,
          -0.1476983942203262,
          -0.06563096171921916,
          0.2695518314797664,
          0.1397166389367677,
          0.018671263617978398,
          -0.2900499787907813,
          -0.025062458100561347,
          -0.025517550096346507,
          0.30195141895071265,
          -0.13766293858474302,
          -0.2445656009781576,
          -0.22302748064840025,
          0.23060033062937996,
          0.038384748879270965,
          -0.19007830170078865,
          0.19817196742347826,
          -0.10431702614505492,
          -0.16448260353961197,
          -0.2789039614050317
        ],
        [
          -0.24155139546310556,
          -0.2732360497143779,
          -0.15556610456407594,
          -0.1898003789598606,
          -0.4335481614825899,
          0.3856657498689383,
          -0.12164644264659673,
          -0.017863141295061776,
          0.2158662351773824,
          0.43545415546419164,
          -0.15933365018209514,
          0.011777518411590696,
          -0.20833787512160118,
          -0.18654150923412838,
          0.016472887589477528,
          0.34552533445066597,
          -0.011258387173821533,
          0.5623099378708899,
          0.4056340470612072,
          -0.269466375567632,
          -0.21157335458004173,
          0.40283003876240736,
          0.15249587541577198,
          0.2869421433182698,
          0.06004230866507261,
          -0.047313559634040825,
          0.33464874068955924,
          0.06694168347023013,
          0.07460131408222019,
          -0.0434567519570612,
          -0.3415244626660533,
          0.12412903584263647,
          0.13892112295749523,
          -0.09237373676998306,
          -0.04472250239294174,
          -0.09926923157190037
        ],
        [
          -0.19199168098630814,
          -0.18068477120457865,
          0.048906935912117956,
          0.18226163975677612,
          0.4620093141834217,
          0.024030428292854362,
          0.009817702115107116,
          0.1133788033787362,
          0.3471095432887163,
          0.08716749793642453,
          0.031908614824295335,
          -0.2662632835439546,
          -0.22489818791233393,
          -0.2074048584702407,
          0.28249600525732876,
          0.14280357465175958,
          -0.15221617541597124,
          -0.2815335687699298,
          -0.06785082011261498,
          -0.17602625375043232,
          0.2577646703398756,
          -0.2885369298231399,
          0.4052775723150243,
          0.06486158161241955,
          0.26761235586424226,
          0.19810840769963478,
          0.2191113605290279,
          0.05304143053312728,
          -0.32953638233629245,
          0.130921622541326,
          -0.00803352154346679,
          -0.2507689509502513,
          -0.16555027881327186,
          -0.0815246298348084,
          0.2094363724784189,
          0.06715314896948807
        ],
        [
          -0.22993446202691128,
          -0.25146636121556937,
          0.3419224521688892,
          -0.2485613229161286,
          0.21486291036085223,
          0.2957047515472879,
          0.03933483127115568,
          0.29786281019453453,
          -0.48361971499814876,
          0.12373148273821523,
          -0.12308248491081872,
          -0.2851627559031072,
          -0.055053866650091286,
          -0.22493853317632562,
          0.3267210772022643,
          -0.24354069970859982,
          0.15542571770355737,
          0.4161868298915988,
          0.2701665957521974,
          0.2652305154121785,
          -0.09319256740815973,
          -0.5757297833838003,
          0.46902924959822323,
          -0.03200368155434054,
          0.17442551232924608,
          0.6278825679897414,
          0.5280249377741015,
          0.4838815831503062,
          -0.07710325129376823,
          -0.033243669478504136,
          -0.31022054819760747,
          0.178396049385007,
          0.09888235374867695,
          -0.2703483928236924,
          0.5768051857239679,
          0.2201380414485459
        ],
        [
          -0.020956405081616024,
          0.015691735144739927,
          0.14428571088041878,
          0.12479073779492023,
          -0.011855172315472251,
          0.006821549913982451,
          -0.2794770739883425,
          0.034280032633817376,
          0.19261921074299357,
          0.31854059612764396,
          0.16095644692961902,
          0.08717973471985456,
          -0.09651571199363716,
          -0.10588667037082704,
          -0.004336224795563606,
          -0.0387703254751068,
          -0.17754177507174987,
          -0.30685295930027123,
          0.053988179979608225,
          -0.13681993380395946,
          -0.07936355747693123,
          0.183778980571465,
          -0.11679451990957909,
          0.03871853431929885,
          -0.19946132805213723,
          -0.31297392778124344,
          0.0793143225907567,
          -0.16832879223474792,
          -0.13152666324685772,
          0.2633243085920722,
          -0.17474439520656332,
          0.23711141684530335,
          0.2715114672553624,
          0.053910880133758894,
          -0.24372438082494352,
          -0.28797163046407226
        ],
        [
          0.30022687447458496,
          0.2859723390279848,
          -0.28171947800311575,
          0.044643338332928786,
          0.2226360470579739,
          0.09485202978296767,
          0.3044283517188924,
          0.25000619610452296,
          0.3026460095443008,
          0.2608313151795202,
          -0.1438128813689605,
          -0.026311128657376354,
          -0.0709468650123334,
          -0.12888221546016862,
          -0.05974023567888336,
          -0.069021100109312,
          0.16267707644943588,
          0.171010781713321,
          -0.20026794927801977,
          -0.03395078894444271,
          0.2975419793489584,
          0.2970001459702665,
          0.07637293469868436,
          0.2841063343496982,
          0.08750674609986202,
          -0.24834756756695073,
          -0.11200386212874387,
          0.23349532851913812,
          0.07461825453488233,
          -0.1846855017855899,
          -0.14432462433331814,
          -0.07952950296183624,
          -0.07233940314465534,
          -0.296157222389409,
          -0.05819551836998771,
          -0.07782139738153498
        ],
        [
          -0.31355837151397853,
          -0.2800172150203735,
          0.3931360252145551,
          0.1722328186545466,
          0.7965618660180984,
          -0.6282079991213414,
          0.048353942128900526,
          -0.10320980615336908,
          0.6254855729431936,
          -0.006600940545511038,
          -0.24155991239134023,
          0.00014462743740513166,
          -0.001618658458131073,
          -0.2289788487213012,
          0.22012652069765862,
          -0.33570852178410915,
          0.020349149007710378,
          -0.3300325909422282,
          -0.3238817286270187,
          0.18663406108512687,
          -0.2751418262391912,
          0.17511751781540477,
          0.68982140665349,
          -0.2797678620361073,
          -0.1783863420499451,
          -0.21495370804521244,
          -0.2161575895263242,
          0.6026001459339083,
          0.41867839787150823,
          0.24875224215869904,
          0.013961153611634096,
          -0.004803366845107662,
          -0.3212586831396291,
          -0.28530433352386425,
          -0.44353698720878243,
          -0.12787532118829184
        ],
        [
          0.17935483324980186,
          0.007778700994305515,
          -0.20063410195749043,
          -0.1468111933394446,
          -0.3579355441910723,
          0.1350813852812865,
          -0.03360618056554288,
          0.051549148662124504,
          0.5341587442846113,
          -0.014171123462154076,
          0.20319659515029717,
          -0.07824685228055887,
          -0.23304063376040138,
          -0.26846483055995024,
          0.2701917940128146,
          0.08645767994627306,
          0.16734639473106602,
          -0.036321053402932554,
          0.4066061763295352,
          -0.11882632635973348,
          -0.059982798305788655,
          0.45898582042440966,
          -0.20140246318087612,
          0.04084754078259075,
          -0.06258446350432846,
          0.21235119948683143,
          -0.1854326008449956,
          0.025742072587739025,
          -0.16681654761647416,
          0.4122901131620069,
          0.12044316555914995,
          0.05992448929689818,
          0.22436278701632195,
          0.2166848554050562,
          0.06033887308821701,
          -0.2418581223421543
        ],
        [
          -0.1470491581667451,
          0.26861758835901883,
          -0.28716836433607285,
          0.21703700431719664,
          0.1547853981296301,
          0.0935994513600603,
          -0.247358286961054,
          0.08692791792996037,
          -0.37117180145660894,
          -0.3685646241879765,
          0.006235382592967344,
          0.24850476916341274,
          -0.1646307303141193,
          -0.2788106106986453,
          -0.3108015920367367,
          -0.06880176047872208,
          0.0453297875863629,
          0.025993499525810367,
          -0.19008383474703172,
          0.05008629994059304,
          0.08242186373979508,
          -0.5516508619852785,
          0.5236481315359467,
          -0.2629624925286407,
          0.2585967333997377,
          0.08545260356439303,
          0.4206665161164507,
          0.14429194134590217,
          -0.18535666977083767,
          -0.3216011188447536,
          0.3298606743082381,
          0.11156598292287266,
          0.19454501884045747,
          0.00858501801280378,
          0.40818896265704546,
          0.29810009652577607
        ],
        [
          -0.09001145099527777,
          -0.29003930129258776,
          0.23006141982061656,
          0.2455667413680406,
          -0.08530204959964978,
          0.1322095911254594,
          0.06259043019503915,
          -0.08766132938231459,
          0.11996602428071504,
          -0.22587951974382897,
          -0.269441756186008,
          -0.23841554895375175,
          -0.14872183575195957,
          0.2151759942894187,
          -0.13383662008778743,
          0.17950370455438847,
          0.13336659300733678,
          -0.27460669679237226,
          -0.01210922612705255,
          0.03087843435139062,
          -0.0005928535154791016,
          0.36509852620736205,
          0.007883618482272125,
          -0.006772401993829281,
          0.09591655626354968,
          -0.028000603344867404,
          -0.21685722967127735,
          -0.3179552215248092,
          -0.24403028816474148,
          0.12310105806666218,
          -0.22752730085929887,
          0.2015047990880435,
          0.22280131410234655,
          0.02088665814223149,
          -0.22402016598402752,
          -0.30506261047531646
        ],
        [
          0.10465934984493605,
          0.29683768624046164,
          -0.127910344850332,
          0.19124251457770364,
          -0.2852136538948034,
          0.22441002001411042,
          0.05899820316814256,
          0.12798198954883333,
          0.15693734438794618,
          0.16610151246536084,
          -0.1797355947429356,
          -0.17682344600025882,
          0.023548542727654387,
          -0.26084182502031245,
          0.16003194191146944,
          0.11107472195418248,
          -0.19013004295537947,
          0.5875601559888696,
          0.15193644607185122,
          0.2380562930246804,
          -0.17119266278539902,
          0.4210215342555961,
          -0.06284610703239038,
          -0.29153307438637455,
          -0.17341221191904715,
          0.13456787714570512,
          0.3790903347509298,
          0.18159023613059672,
          -0.1931412596467285,
          -0.22233250545452077,
          -0.31903938493322886,
          0.23704275080010714,
          0.03146786644319647,
          -0.21796358833594323,
          -0.004233430007117085,
          -0.045400376635136214
        ],
        [
          0.20055772698688645,
          -0.19589063739090332,
          0.19562776618529087,
          0.055617724650101806,
          0.02019874057078053,
          0.562505903995906,
          -0.20113744246778348,
          0.5033491860897954,
          -0.28076403977196124,
          -0.30303577591422953,
          0.10083481820030916,
          0.03907138450887784,
          -0.014422782423654672,
          -0.11796633619009579,
          0.5042695779973495,
          -0.019043234631474074,
          0.259218080605509,
          -0.06237465170483377,
          -0.021206364938511857,
          -0.2159405202179034,
          0.30270145654716546,
          -0.2867183632230033,
          0.01496917959222279,
          0.18293000173620336,
          0.3154793326209007,
          0.020717249936329247,
          0.5120768227839803,
          -0.35219677406392774,
          -0.1470659963973745,
          -0.22153461031148258,
          -0.24601013109604322,
          0.5576816679369245,
          -0.3782987210229535,
          -0.17374774906636453,
          0.39042252993639054,
          -0.3080715111232553
        ],
        [
          -0.06804148930468443,
          0.10156030559560499,
          -0.41299703202748933,
          0.23723573355874542,
          0.38560974509567214,
          0.16387721082277612,
          -0.26648587532405504,
          0.028674085032619,
          0.2506457627864403,
          -0.32945625823042884,
          -0.035644440418988954,
          -0.058041011267475684,
          -0.2851855941125326,
          0.0771899727361999,
          -0.33973006428847796,
          0.2854372172575057,
          0.04646302123234723,
          -0.10136308857662794,
          0.10582453937161643,
          -0.0435444912785729,
          0.21022003617245508,
          -0.006867769791564874,
          0.5452510090875888,
          -0.27519703318677735,
          -0.15680015036106904,
          -0.2602540392197818,
          0.19249163343851253,
          0.2562635530680406,
          -0.1751041922054386,
          0.061350521487136496,
          0.2729141541127603,
          -0.39323541484941926,
          0.40409541602751503,
          0.29780580112174143,
          0.1983563372431085,
          0.19126033661898395
        ],
        [
          -0.09647289860239594,
          0.17667502801594465,
          0.11747077067502797,
          0.16288302810893876,
          0.26497391993331637,
          0.37951969009831965,
          -0.26276251492795377,
          0.18945464403328127,
          0.3046164479701159,
          0.09634928831593954,
          0.18230167551829105,
          -0.12145144139877287,
          -0.29666205109243504,
          0.17877212622342675,
          -0.23905055572746284,
          0.11429009743078222,
          0.12253932496043374,
          -0.06091669425673325,
          0.1545431594441575,
          0.1485413154644952,
          0.22077190907985098,
          0.4078525791806117,
          -0.26520151180484214,
          0.1053185620980686,
          -0.18833600033754128,
          -0.2865178105584534,
          0.06782192783279195,
          -0.31981913526450984,
          0.21864397551747433,
          0.04116300356638244,
          0.10682873155727128,
          0.15581421251897096,
          -0.15769817168914968,
          -0.23328508058823227,
          -0.300473386813526,
          -0.14401940403419283
        ],
        [
          0.021367753392042794,
          -0.024532254128549015,
          0.1122620564053288,
          0.2613484842292556,
          0.12606546676208585,
          0.1301146493341938,
          0.21800089181565355,
          -0.2420619580690931,
          -0.05138676270012312,
          -0.1353198976694228,
          0.20733841108650256,
          -0.1627187880920398,
          0.011540329338303896,
          0.09539462054082613,
          -0.025095278005944424,
          -0.19947244400282005,
          0.27029421816077936,
          0.039798494088182354,
          0.15278523515074122,
          0.07869722679430763,
          0.2560216078310598,
          -0.21857196711444754,
          -0.16102695700169972,
          -0.010562801983578242,
          0.019400043309269564,
          0.29642924986672486,
          0.141938012410561,
          -0.06945835540307516,
          0.05689351283861637,
          0.17801146576192672,
          0.01164817014229076,
          -0.25407836892121277,
          -0.028616311417170914,
          0.1177017716424493,
          -0.08750707224464543,
          0.02381235164865062
        ],
        [
          -0.2864463511907189,
          -0.21031347954615828,
          0.11509208354693648,
          -0.2860299021352559,
          0.024806473270100386,
          0.30564953275337847,
          0.17322583854021864,
          -0.0062547348334710765,
          -0.22866769531485887,
          0.1649321708978723,
          0.16067295830347883,
          -0.004461366808439921,
          0.13805029903499244,
          0.04626426323288148,
          0.030526133335175957,
          0.16491128699136728,
          0.2842953845384793,
          0.36000512059951967,
          0.005133035606611276,
          -0.20606089483470683,
          0.24056000895487806,
          0.17493755319359894,
          -0.1345461274360194,
          -0.01748230851159573,
          -0.20346786034011538,
          -0.08409743310856635,
          0.18315778516734316,
          0.12638249622305728,
          0.088566682620616,
          -0.16655452841504367,
          0.10662701344319561,
          0.12569887418352457,
          -0.0064779742254283245,
          -0.13297598772050936,
          0.010915261469181257,
          0.028663415449817202
        ],
        [
          -0.15970462580572542,
          -0.18462919752317664,
          0.07364403850951738,
          0.037555687656958235,
          0.2003301086912514,
          0.505138296146576,
          -0.16164554939135015,
          0.11522531462377505,
          -0.07564160499074458,
          -0.15826308140862158,
          0.19321288251353017,
          0.2878138330120375,
          0.013447636738703347,
          -0.22658759706361206,
          -0.16975698262844788,
          -0.17498881446534104,
          -0.2817296499267529,
          -0.08722507509163409,
          -0.08684502581797657,
          -0.217943445496726,
          0.06618041677107296,
          0.026514811143650552,
          0.04068572793187954,
          -0.11948010756457268,
          0.04927510838556562,
          0.26480762677242464,
          0.33429157728063924,
          0.28496211966504975,
          0.3305625693236067,
          -0.05833982135256515,
          -0.005302496495462102,
          0.310812804100959,
          0.2713209848945925,
          -0.035503927678765534,
          -0.030764385008127778,
          0.017986457323396845
        ],
        [
          -0.15268972388373175,
          -0.056934390050412724,
          -0.279282766966757,
          0.09392259585230923,
          -0.04147323936627505,
          0.6415188284313493,
          -0.15678992174541734,
          0.13553121028567444,
          0.19034285723385114,
          -0.08411530132227235,
          -0.22743087617551325,
          -0.0652801862169601,
          0.20441332000217996,
          -0.22270130375828057,
          -0.2529940941523976,
          0.2593655475186791,
          -0.27592185730892466,
          0.014302371145692088,
          0.19545342918486733,
          0.16479294965709262,
          0.18780770651803336,
          -0.405318280319138,
          0.2070566502359613,
          -0.2747635906101329,
          0.27964843059719785,
          0.38526820436291287,
          0.30474396297854234,
          -0.10835073525041856,
          -0.01035035258035656,
          -0.2674831397643888,
          -0.24959088734129722,
          0.4719833835314407,
          0.1613513892693624,
          -0.19971667100432883,
          0.07998732334152818,
          -0.036134991889896384
        ],
        [
          -0.17624218012652856,
          0.2872799563498434,
          0.07789229234216288,
          0.152110080135595,
          -0.011300585528156699,
          -0.04103891034866264,
          -0.09076234088581614,
          0.05358019460304675,
          0.251456295001103,
          -0.03050845613784824,
          -0.2944097332186999,
          -0.10375546907064921,
          0.12615535545331968,
          -0.13977473251841538,
          0.10476062112818141,
          -0.16216851234280713,
          -0.29140022220748124,
          0.3547301059590924,
          0.06053020407509127,
          -0.261107907831325,
          0.25844372199171256,
          -0.12745315266400234,
          -0.2613178654563925,
          -0.1368126304839892,
          0.27864532787163876,
          0.25576157189266435,
          -0.2350730068722601,
          -0.23236812260153844,
          -0.1257601794883427,
          0.25430505089317207,
          -0.04188639257809304,
          0.342558940939254,
          0.1372616182360946,
          -0.22308172015441977,
          -0.13459903968573234,
          -0.14276204829823388
        ]
      ]
    },
    {
      "activation": 1,
      "biases": [
        0.025684623769318633,
        0.24162076670052676,
        0.16186371218700976,
        -0.3261434093509062,
        -0.12601562788859486,
        -0.22327817857967705,
        0.18233338860680742,
        0.18112948564442263,
        -0.27056253218801735,
        0.35936456228139607,
        -0.04374380294925321,
        -0.3729943748925015,
        -0.27156250089620104,
        0.14944632283002693,
        0.09270745252272866,
        0.4920218423584073,
        -0.3596701089733243,
        -0.11392000237837943,
        0.2122805902011221,
        0.005610482301226046,
        0.22968977683143038,
        0.23177283452364608,
        -0.19025881878821035,
        0.3549486157805244,
        -0.2425972292027489,
        0.36507805176837677,
        -0.1960620934133785,
        -0.22422041308399016,
        0.14654271371232594,
        0.11849001227827,
        -0.35589133072163437,
        -0.4036904235316516,
        -0.31445360377271264,
        -0.009955037360879155,
        -0.42257472592783907,
        0.14465266365625587,
        -0.2947557574561914,
        -0.4218892333630184,
        -0.019590971573031715,
        -0.08129433336652973,
        -0.10609125489762544,
        -0.22666034248669892,
        0.14591896753283493,
        0.25078007434906,
        -0.4175161528478647,
        0.11176516927561625,
        0.05169853022112127,
        -0.07834563289683052,
        0.05675466920778388,
        -0.40648622624066094,
        0.3360532854854916,
        0.1392191823293227,
        0.3854216447378814,
        -0.025543295674033205,
        -0.36256955008637437
      ],
      "cols": 55,
      "rows": 36,
      "weights": [
        [
          -0.1394402083642052,
          -0.04274825224655874,
          0.06362672191289159,
          0.028585085180756774,
          -0.16762953518681928,
          0.08572313404783138,
          -0.20567198957420665,
          -0.24268277220263154,
          0.009370220521640053,
          -0.06958573024019431,
          0.09261157394263221,
          -0.24902232697382726,
          0.24328694159396602,
          -0.059183273944220724,
          0.1620464019121621,
          0.062761650035353,
          -0.03857424292210267,
          -0.027411367878402725,
          0.1800329986875038,
          0.20430306890748984,
          -0.16364660068682135,
          -0.07278580064385769,
          0.08510491819864353,
          0.10413209523436848,
          -0.005108023442111987,
          0.12188095397078738,
          0.22915177178724647,
          0.19311153944369858,
          -0.2074953772543746,
          0.06704459408012488,
          0.16189227302398937,
          0.10751834499560002,
          -0.07538533397735268,
          -0.25449446221478256,
          0.17224171450564496,
          -0.12559212106605203,
          -0.1254046159076711,
          0.17198709115940133,
          -0.013481275351947458,
          -0.19039081897202312,
          -0.14712592135180005,
          0.11689191146638724,
          0.10624597247291875,
          0.21037292030476304,
          0.165413043021979,
          0.04712337699304231,
          0.03719786701722967,
          -0.22587912981156916,
          -0.054186256786194466,
          0.09326292381162724,
          0.03944552458854907,
          0.22714425586667683,
          0.20313990061766327,
          -0.1410344826458386,
          -0.2198217417550172
        ],
        [
          -0.2311091844420002,
          -0.009800680592091316,
          0.15782070070450216,
          -0.2556985552781822,
          -8.358703015562025e-05,
          0.2336961501690535,
          -0.006638664545847349,
          -0.13467458362378737,
          -0.1753491338161467,
          -0.16811841012717163,
          -0.05518010687247615,
          0.135367307613348,
          0.017897723520985818,
          0.05808361184812342,
          0.1444867952632253,
          -0.001969796720047599,
          -0.2139309332528565,
          -0.046185793568021515,
          -0.03725730828270942,
          0.10905561462511609,
          0.17925972273290564,
          -0.028679628122805483,
          0.11439419313066154,
          -0.03910556859832713,
          -0.08726729238914617,
          -0.10809216421403602,
          0.22294842104853801,
          -0.02673177252138527,
          0.16084005565697718,
          0.08410802192716109,
          0.12180552680939664,
          -0.13074343403306043,
          -0.06706612806024505,
          0.0911041042212835,
          -0.02945984444377951,
          -0.125629693314085,
          -0.05554604248443249,
          -0.20049369665631528,
          -0.10310220340604259,
          0.04770013980494943,
          0.010365568351516658,
          -0.2498572005333584,
          0.053700399812338706,
          -0.07191756301033798,
          0.2368389165153655,
          0.10450177986857256,
          0.19104769564162846,
          -0.16978197424118088,
          -0.179673939351985,
          0.10745273005158816,
          -0.03546323816218073,
          -0.13645324011415993,
          0.07468462600764508,
          0.1922102878394352,
          -0.046673928365243374
        ],
        [
          -0.11447849922091596,
          -0.21669620131921918,
          -0.3639899324278563,
          -0.14110493082933778,
          -0.025003490851926664,
          0.2723017705155922,
          -0.10467900361912472,
          -0.2698569073841534,
          0.1414003703413102,
          0.023538413552417037,
          -0.16270294894782955,
          -0.0024246357252716757,
          -0.151728977582941,
          -0.04988281972297145,
          -0.20389935157945746,
          -0.16711467021335835,
          -0.12142886338555274,
          0.23825972771787488,
          -0.15593104930719065,
          -0.09196205936745647,
          -0.16976938537342307,
          0.25464975055843736,
          -0.05023757399928451,
          0.18884874235320612,
          0.22362850381358745,
          0.18128386107977196,
          0.21211797843310476,
          0.10727250920395012,
          0.06221176465774838,
          -0.4656662963369081,
          0.3478891833751012,
          0.04177566698790803,
          0.0924965302835587,
          -0.22759386972211082,
          -0.05094525938840189,
          -0.2098905158911476,
          0.11989242756462688,
          0.26897942484270726,
          -0.05967814353771962,
          0.06424651059753474,
          -0.0051117724100163695,
          -0.005468966382618952,
          0.1542606697186287,
          0.1950504610466456,
          0.06753128523082735,
          0.008357154059889864,
          0.20323790997699523,
          -0.22328734790514115,
          -0.13138679307322415,
          -0.22328453584732394,
          0.33186022959458616,
          -0.0032847245785040872,
          0.09731184104633166,
          0.2582069500953551,
          -0.154232936864716
        ],
        [
          0.10982277259400508,
          -0.12028401318628477,
          0.24119997112430208,
          0.30553453665664093,
          -0.14766534441091816,
          0.019274803026354682,
          -0.06571365034672746,
          0.013454442594209476,
          0.20459510432917483,
          -0.1116860196297851,
          0.043886243746399684,
          -0.013380676594603381,
          0.09275896148139327,
          0.15647525495633094,
          -0.09860311159091083,
          0.059409760172312615,
          -0.14774188582459089,
          -0.07509462161041026,
          0.2964026709084509,
          0.24169825660176286,
          0.061685598239202846,
          -0.1922710048230071,
          0.03651812400378046,
          -0.21204846706797092,
          -0.12567870277101695,
          0.2562709911570957,
          -0.032243804355631976,
          0.05826466623080705,
          0.01952184902944479,
          0.18181453001188067,
          0.19275519180423514,
          0.2496108589671679,
          -0.06746515804881513,
          -0.061808549398185725,
          0.14841513793702266,
          0.09232853941770651,
          0.09421351813860589,
          -0.10151781224107764,
          0.12075717868960593,
          -0.2708483649154786,
          0.11533751565744578,
          -0.050184848395580885,
          -0.13823465593901277,
          0.14056781137796176,
          0.11089238141224506,
          -0.0477117443767713,
          0.2048283086900685,
          0.2069848061104636,
          -0.08628185741876224,
          0.11929924665966454,
          0.16199086640754257,
          0.12467241059289863,
          0.17162628046651124,
          0.070704128435837,
          0.16055370467242158
        ],
        [
          0.10301548728453036,
          0.08091282763770824,
          -0.13517900935896415,
          0.40390752198849433,
          0.03081045348887228,
          -0.48920714878580573,
          -0.04862237435566386,
          -0.01488558841200618,
          0.010612005461222544,
          -0.21783221026919125,
          0.24791224098278603,
          0.04916224586823387,
          -0.049198659539950035,
          -0.14625604515904111,
          -0.14473621493971894,
          0.012477348839976548,
          0.04563043291334271,
          0.2420421002974638,
          0.12147888166000513,
          0.2892308545050816,
          0.24666130841293943,
          -0.021991825864375834,
          -0.17923377831176046,
          -0.10309288207315323,
          -0.10328120865233548,
          0.06571639473051624,
          -0.013504770968631835,
          0.04440044165147806,
          0.11811245145101151,
          0.17543693926898624,
          -0.10497680438385106,
          -0.0059853220869965735,
          0.12132325547547922,
          -1.0573688844878608,
          0.1636923143821232,
          -0.09549047289513678,
          0.10395716963247512,
          0.03377476715504682,
          0.8421955457984599,
          -0.05982034503626971,
          0.14500243531793724,
          -0.04665519515751271,
          -0.04779722067444352,
          0.022776410862899218,
          -0.1647385355566386,
          0.07221900914106975,
          0.07523749751895238,
          -0.04986571014347102,
          0.0001696172992961738,
          0.07149683514085534,
          -0.17165266584545982,
          0.17631432183358572,
          -0.014956333391183468,
          -0.20978458917757875,
          0.1284677251416514
        ],
        [
          -0.6269729573366208,
          -0.20502534149596197,
          -0.4127840366204507,
          -0.159567929038813,
          -0.42813811343087277,
          -0.3338491909772875,
          0.010077756179925929,
          -0.19959593015690658,
          0.13134190226554793,
          0.21101571547966214,
          -0.23478080787989886,
          0.06799680033078899,
          0.08460163433076902,
          -0.0028796466328148127,
          -0.1433327862402065,
          -0.1260937196536089,
          0.026446839303082722,
          -0.10063253370119289,
          -0.10014964731479184,
          -0.10886504134396224,
          -0.06676657087098702,
          -0.06313844873501406,
          0.00577784109289437,
          0.2782084807204996,
          0.041157309638644154,
          0.014205216526177513,
          -0.008121236512794547,
          0.2330976061410458,
          0.040947653958302084,
          -0.02246847900693687,
          0.06525438424325256,
          0.06390386462292937,
          -0.13238448217652732,
          0.583064598098516,
          0.009802961622326294,
          -0.019993809206354195,
          -0.11914090954125904,
          0.023295190025213824,
          -0.3860601849672003,
          0.08473732534069343,
          0.0004719670183720466,
          0.05453914776464107,
          -0.030747703102588172,
          0.05787451429392177,
          -0.04693865930593097,
          -0.17554452376380547,
          0.15266244237546484,
          0.0364136612584302,
          0.03147790542662998,
          -0.45796444155542493,
          -0.6058222320605621,
          -0.12895508415539927,
          -0.20649324789200407,
          -0.652199788182185,
          0.029045021445114873
        ],
        [
          -0.21601270204113365,
          0.002679185437309151,
          0.1326959757116603,
          -0.13357306299648283,
          -0.18801420078905404,
          -0.19421772010439928,
          -0.12980508748652728,
          -0.21321721388244363,
          0.19677690279895052,
          0.2466049540438894,
          -0.006874019420912641,
          0.06790465148106872,
          -0.06463361098370733,
          -0.25530502559028406,
          0.07550778909150942,
          0.10423727534183318,
          0.21661438895019408,
          -0.21528098357644465,
          0.20700150958581157,
          -0.11609715767115379,
          0.001941415254990727,
          0.16327621263968786,
          0.08069146338719865,
          -0.10012004609512154,
          0.08968248983308275,
          -0.02762286935079889,
          0.02415081243599269,
          0.25025848087558417,
          0.02110880411325055,
          -0.11093801180785307,
          -0.009867941153996052,
          -0.15380387627611095,
          -0.08034971812625503,
          0.1321817620207028,
          0.1948247177061988,
          0.12998324614477968,
          -0.05337255317323046,
          -0.002939333203177102,
          -0.18285940894968936,
          -0.24376229880158953,
          0.03036739158023889,
          0.07762985977486805,
          0.09041676784340866,
          0.25374277779326954,
          0.13612911184251458,
          -0.1650597336627864,
          0.023991455291811684,
          0.001335504950202696,
          -0.03601931039434408,
          0.06285306144835107,
          0.17810961112234128,
          -0.19483086234875713,
          0.09288658010343602,
          0.11556524643547897,
          0.11649019039152124
        ],
        [
          -0.00188048824887542,
          -0.15508375104449723,
          -0.06582369124833926,
          -0.2267837051603819,
          -0.23966498306259484,
          -0.052078915864282864,
          -0.19246751228162917,
          -0.06710245083197088,
          0.11526659130289613,
          0.1587583299444891,
          -0.16026630097356498,
          -0.20936478350417792,
          -0.0035825017590397665,
          0.19738744506676106,
          0.01979709998442492,
          -0.07473404367886728,
          0.25391809464878395,
          0.0571237261317091,
          0.023972544751874478,
          0.06986598230850907,
          0.03356127680128387,
          0.12821566579284932,
          -0.02532408914943929,
          0.030856974856250628,
          0.32096292373002083,
          -0.3237602244256644,
          -0.09446354757652622,
          0.24122540059361738,
          -0.22334685705268348,
          -0.10857598313948433,
          0.4447663557776141,
          -0.011250488014724782,
          -0.1460252675891329,
          0.3194120363740643,
          0.22214424040786734,
          -0.06319256793094084,
          0.250096476389092,
          0.1447806674838743,
          0.0559340143194707,
          -0.20833792049187064,
          0.008542824866176255,
          -0.12055715730176916,
          -0.005890746662831206,
          -0.010065597405115484,
          0.34580684391970884,
          -0.1601090808236452,
          0.043770853824114886,
          -0.033364412028822364,
          0.0009805909630269593,
          0.11654305871841067,
          -0.42616385169565424,
          0.02092755273807212,
          -0.41753058918368957,
          -0.1338713309221137,
          -0.089426701357224
        ],
        [
          0.22108150540376076,
          0.8350968315279563,
          0.6924585884396517,
          -0.31710810248770643,
          0.2205694167449755,
          -0.0994658536397421,
          0.05965670051716039,
          0.06751768645976237,
          -0.02552150838482006,
          0.02802724200401599,
          0.16481895573647376,
          -0.0846909320132929,
          0.03249393171417433,
          -0.07696980950928707,
          0.03943669687127827,
          0.3851846866073986,
          -0.021252125795827335,
          0.02448889130933102,
          -0.06531021146686593,
          -0.007830574371008533,
          0.11076031456439715,
          0.2358047230650328,
          0.030074861420355724,
          0.221874856872836,
          -0.510488643291524,
          0.06361544113962718,
          -0.25060339278840077,
          -0.06825745447943243,
          -0.025652753144389327,
          0.09998544058477568,
          -0.3402662879714922,
          -0.14110029369128668,
          -0.2055312971782627,
          0.15681277564140356,
          -0.1974992819472951,
          -0.1381955198290783,
          -0.1406980047043217,
          -0.06894281350090747,
          -0.13734220654815113,
          0.05806689675774644,
          0.1356654595836931,
          -0.2259296832408567,
          0.05016390979499709,
          0.36096478815390926,
          -0.3154555230116624,
          0.183739719707354,
          0.09054831005820123,
          -0.09547097643258695,
          -0.043246032174150344,
          -0.18755869767581826,
          0.2293509885510194,
          0.3839921634659867,
          0.3282942204777208,
          -0.08302780899878469,
          -0.1798606723283697
        ],
        [
          0.06383539235107158,
          0.13543989725053482,
          -0.06491891082650175,
          -0.006587781407511269,
          0.05167665167439226,
          0.4417778342353822,
          -0.09805834354321602,
          -0.008678763285595135,
          0.21397876210912747,
          -0.08948944218122977,
          0.2418705352627497,
          -0.029450742712439262,
          -0.1505665761689865,
          0.09275682905818926,
          0.035830393850228306,
          -0.08739895438909366,
          0.07101351295552887,
          -0.005835443767457298,
          -0.1456940260598313,
          0.25001453100359233,
          0.08628092345867916,
          -0.0034290282109625766,
          0.05599310782915256,
          0.06111316046426798,
          0.09046153915776381,
          0.0039023869530621716,
          -0.07289137526587863,
          0.01733024780573357,
          0.21299798861005942,
          0.15679106340153764,
          0.22856266774938205,
          0.05098251787564864,
          -0.34145598420056567,
          0.5444991531835929,
          -0.12085791241584028,
          0.11549183552841157,
          0.1291250883776189,
          0.12441521064758997,
          -0.42114173667781796,
          -0.03653728570511412,
          -0.09817723385510327,
          0.09445487962549329,
          0.07407163100763112,
          -0.16123382378235743,
          -0.26216876946653417,
          0.2183916743743722,
          -0.23123831820972118,
          0.07980242128861985,
          -0.2013466040598821,
          -0.13190998775471202,
          0.2082476787634379,
          -0.11052707796389925,
          0.13433385503475506,
          0.25535415926458294,
          -0.04711803374039525
        ],
        [
          0.12034394826695174,
          0.05803509421421952,
          0.11666787731148438,
          0.14355031014698938,
          -0.08197290365774595,
          0.02202823502877411,
          0.22502680165266473,
          0.018905902851144376,
          -0.24378315861644506,
          -0.12155778768484027,
          -0.12187139991881571,
          0.1777078332436684,
          -0.25251220609453706,
          -0.1540818040555024,
          0.2560387960509292,
          0.2398256636504573,
          0.03306084789195381,
          -0.2433751907852739,
          -0.17545145157755054,
          -0.20949214239929004,
          0.1871514797935775,
          0.0570843872703413,
          0.19556045855277226,
          -0.08158351371552153,
          0.13569731373602043,
          -0.1023319659856418,
          0.09161822503987838,
          0.26118386655370907,
          -0.07061059931557646,
          0.21716812148585243,
          -0.2453918125937834,
          -0.11121347666438579,
          0.011187173298254539,
          0.10343184222007978,
          0.1565954599737741,
          -0.06663233011836864,
          0.026501153492612065,
          0.19386531192274623,
          0.22223927368856689,
          -0.16420837247414274,
          -0.22121089610544026,
          0.04098942345564418,
          -0.1528646634958358,
          -0.16787024965435232,
          0.2160610606868013,
          0.1046445764613095,
          0.03954854091182483,
          -0.04555421210713591,
          -0.15506024701900692,
          -0.06683120752325716,
          -0.07169656670002249,
          0.06265465665003492,
          -0.0409579625323294,
          0.07055423694209206,
          0.21825830906231558
        ],
        [
          0.04648802593360256,
          -0.14960591858044997,
          0.0438788315201951,
          -0.14743678314060046,
          0.13323005022182863,
          0.07173091876157572,
          -0.20390637227743358,
          0.03563677745341429,
          -0.017468148752592415,
          -0.20953954257569435,
          -0.029792889482037538,
          0.06362967770258236,
          0.015764228065358453,
          -0.1691961027663666,
          -0.14824931083441267,
          -0.1269401637179498,
          0.06443794604605621,
          0.18359686319044702,
          -0.13920329105911894,
          0.12137946981336174,
          0.18785659591619167,
          0.19364557435466473,
          0.14279909937432156,
          -0.1859118527421845,
          -0.13099871071404806,
          0.18067098484780134,
          -0.21851205143092356,
          0.009446756343306398,
          0.13309682206692325,
          -0.22084991248153046,
          0.08774817856652034,
          0.25281721179011046,
          0.12797468006577734,
          0.18021909075840223,
          0.22640891398129306,
          0.21787140482076273,
          0.10227582080676721,
          -0.09121539089884916,
          0.15721238985961863,
          0.12261964933827743,
          0.1263732277110567,
          -0.13989498243542028,
          -0.0727531657124878,
          0.15707278690812854,
          -0.036317310723632965,
          -0.13519151895659415,
          0.018776163650911473,
          -0.06914960777586776,
          -0.03156883865080096,
          -0.23086971764873487,
          -0.2025484741235345,
          -0.057181694473754985,
          0.107631971434196,
          0.024709205987548742,
          -0.022041320495737548
        ],
        [
          0.21076093513959807,
          -0.07318798150732646,
          0.01000066511367805,
          -0.07876260588611085,
          0.10815726117742737,
          -0.23993207294490138,
          -0.11795903644001296,
          0.14499753826445824,
          0.1649059746699685,
          0.21257709811407444,
          -0.015317286836823927,
          0.20749865803744647,
          -0.04375586827764302,
          -0.13820275481394043,
          0.1310044015657691,
          -0.18586853918356122,
          -0.07385525055173697,
          -0.2250397558470064,
          0.15589182505133337,
          0.1938576491561379,
          -0.015521985077714434,
          0.21839892886359605,
          0.19320538002698337,
          -0.1665453142221576,
          -0.09537329786545418,
          -0.09922832343628234,
          -0.11747006488647009,
          0.08388323890400846,
          -0.07679797426506298,
          0.1336487655719487,
          -0.13940422210300307,
          -0.0352594859653045,
          0.11219670267595477,
          0.00907658122976122,
          -0.17008212344462628,
          0.13472689918818168,
          0.08919817850541606,
          -0.1025906628677046,
          0.04055560823472194,
          -0.01810130712306171,
          -0.09867829043318564,
          -0.1712081341578862,
          0.006263072397668212,
          -0.25154083340714517,
          0.22898938247128256,
          -0.20719646154309956,
          0.24969159882880904,
          -0.02794442637437633,
          -0.07764468748412492,
          0.17603317266250432,
          0.10792123156581455,
          -0.19584123489814867,
          0.23831834641043406,
          -0.1764210968626878,
          -0.17705545141924398
        ],
        [
          -0.22673591710801894,
          -0.11194971727201966,
          0.14948130430456255,
          0.17546250389498957,
          -0.17708357733648605,
          -0.12340535013180554,
          -0.22452413674934996,
          0.16658125361161383,
          -0.06861741951603369,
          -0.0020876748564520194,
          -0.14779176893877352,
          -0.10569993456873582,
          0.0024321884065385798,
          0.024668994334109816,
          0.19101944274021762,
          0.04787307454631746,
          -0.028583544391680912,
          0.071656290811281,
          -0.07141571105319194,
          0.1878719801319358,
          0.006713033505831816,
          -0.24312315114759772,
          0.009789137707237373,
          0.2480774805804652,
          -0.14138067281740754,
          -0.22516897407622127,
          -0.22322069256368138,
          0.12373392872313357,
          -0.1858922570044141,
          -0.04423012353782092,
          -0.13984068343092118,
          0.033509410239422506,
          -0.07513232531492718,
          0.024981197707066007,
          -0.13652715494432055,
          0.10162087903152979,
          0.093772973302334,
          -0.24522278654963953,
          0.13381932659418477,
          -0.205534937545745,
          -0.22471092926587988,
          -0.05994334521925934,
          -0.014823370074946444,
          -0.08185785408687855,
          0.06143414270841779,
          0.049190504926166057,
          -0.1850722432231844,
          0.23864670283925213,
          -0.03712878141174669,
          0.013056112267066633,
          -0.03561253160799526,
          -0.14507913025614336,
          0.2197908090332767,
          0.14328553841873612,
          -0.24725967335841645
        ],
        [
          -0.1525693965357335,
          -0.015347267094609703,
          -0.08264317490577433,
          0.17352092739718208,
          -0.3217690709430544,
          0.2972956096668162,
          0.06058930866116131,
          -0.13298010205388333,
          0.1534998221825488,
          -0.09725823198913532,
          -0.12093245960735619,
          -0.16264591917271234,
          -0.1683544061559617,
          0.11930807977067269,
          0.20109273084898172,
          -0.09759655932582859,
          -0.22306695500072088,
          0.02708487744962224,
          -0.0450944785644797,
          0.06486910461534648,
          -0.08710818633214214,
          0.20597668077985387,
          0.13001340313306506,
          0.05254088078606505,
          0.2375706155440326,
          -0.03612110517727433,
          -0.17702680546922075,
          0.25197171662286894,
          0.23269987226687397,
          -0.0200127658076917,
          0.3944880258115226,
          -0.20684315367486883,
          0.18556017007501963,
          -0.36207593240145086,
          -0.12471257178809152,
          -0.0645672332363365,
          -0.08011683462607377,
          -0.16368637788963605,
          0.4804871642452849,
          0.22130710519771066,
          -0.006540466835371961,
          0.14216518176607207,
          -0.01946788719983041,
          0.008579960044740214,
          -0.101477578044155,
          -0.2122710040164761,
          0.059021451356980316,
          0.15528946414865183,
          -0.07742759415727377,
          0.07288784457327085,
          -0.12924481937839138,
          -0.1778063591574284,
          -0.059997906481408424,
          0.14320119565649614,
          -0.018683012175483443
        ],
        [
          -0.18894722646327528,
          0.0485822677115397,
          0.11293045281750064,
          -0.15423112252630305,
          -0.18099055476925097,
          -0.13169204630907833,
          0.005669597006695532,
          0.09993155973816538,
          0.08484823224799781,
          0.05962705588386178,
          0.29595773801801734,
          0.0992799417774789,
          -0.1846805892518942,
          0.09358647554888844,
          0.04750940305273239,
          -0.19553502229858866,
          -0.1001730259862051,
          0.12402247164719826,
          -0.26088489814000426,
          0.010931059681655312,
          0.06881720470434595,
          -0.16007737138369849,
          0.10141842858079839,
          -0.0450976252861081,
          0.12023636020524789,
          -0.11145276098208133,
          0.26775310326991375,
          -0.20496094777968518,
          -0.15824095811689515,
          -0.04738379426622863,
          -0.2660038795718476,
          0.08105454089591,
          0.22422237943992976,
          0.01588459929623657,
          -0.08358561454385119,
          -0.028239667748500563,
          -0.027218760447639437,
          0.1291901632215318,
          0.06192439856561728,
          0.055578722713700984,
          0.2570656117552972,
          0.06760083303543223,
          -0.010405646745396367,
          0.17219963906941155,
          0.19022669315815494,
          0.10265124510218111,
          -0.22460036380378784,
          -0.1748071008389537,
          -0.20493049534762361,
          -0.07215707572312957,
          -0.2868875281713223,
          0.17521904495921548,
          -0.022345530099372967,
          -0.31534358768329945,
          -0.13348696110793812
        ],
        [
          0.17098551597946404,
          -0.07820224452632464,
          0.220356077471361,
          0.1678393188432448,
          -0.21753974163557846,
          0.2647087060618201,
          -0.06555350409946846,
          0.05886971787403462,
          -0.21796776651445063,
          0.20544862736923636,
          -0.07546663800710462,
          -0.04755790287688432,
          0.18022825632444087,
          0.10685218186145422,
          -0.014918420420815157,
          0.12470254322553093,
          -0.00912196689098295,
          -0.17915447544458588,
          0.024354645203967823,
          -0.29030121807716625,
          -0.1195197196891095,
          -0.22533401141601608,
          0.01880138340318245,
          0.26800973540699,
          0.0886659359130892,
          0.03500287515742138,
          0.20079191895064774,
          0.11169026151176864,
          -0.20454911517008104,
          -0.2288564306649823,
          0.25637004206417063,
          -0.07350292168643889,
          0.25363226423113444,
          -0.10328486542505351,
          0.06050410570374415,
          0.2797811263556855,
          -0.1708779073992496,
          -0.10783670465040897,
          -0.005466216396477654,
          0.11821293907527113,
          -0.23881554486004622,
          -0.1015287280289357,
          0.05914093710213106,
          -0.11435380136274738,
          0.06823433523110779,
          0.22702614880506308,
          -0.06408272197572192,
          -0.009565561000208816,
          0.2551659720134034,
          0.17119913250489333,
          -0.07185349676661913,
          -0.06834361922035148,
          -0.1422458235998874,
          -0.0451164196919314,
          -0.06927013570052465
        ],
        [
          -0.08956729476015012,
          0.19580301649927245,
          -0.04852681720766759,
          0.55001068024728,
          0.15625024471916432,
          -0.4731309301099128,
          -0.11070238554515233,
          -0.07470555222945116,
          -0.14951258168346918,
          0.05121064902733305,
          0.1366036498637032,
          -0.18303464941724673,
          0.10666059369886591,
          -0.032780154708203287,
          -0.05687953628722202,
          -0.08683832031154688,
          -0.019587654206266625,
          0.30268908133072114,
          0.23303651050184798,
          0.13450464870179663,
          0.3770363662320068,
          0.16155787944510558,
          -0.23832676867695832,
          -0.011896773594779047,
          0.03229361749381648,
          -0.05843027873825618,
          0.04579426394572743,
          -0.08148813972331607,
          -0.06195946847384789,
          0.13226346163878636,
          0.14805682573613388,
          0.02302313374665416,
          0.15016768872651737,
          0.31957876114503975,
          0.14339351868225933,
          -0.17418411550537372,
          -0.034265019800260296,
          0.1454960245183468,
          -0.22250245365271892,
          0.09224168927389896,
          -0.23201567935229983,
          0.15741718927306483,
          0.023165249311159482,
          -0.220442944577401,
          -0.35358025385034786,
          0.353464167933737,
          -0.1239617112863244,
          0.08086889661894509,
          0.03337877781789696,
          0.13852044479722564,
          -0.2530419015547749,
          0.49892002922736917,
          -0.022114136197553314,
          -0.25159261253012377,
          0.05863228084182518
        ],
        [
          -0.2949747556058888,
          -0.22037754010180832,
          -0.2128111873538816,
          0.10613771649024191,
          0.3191482537892885,
          -0.1612041564910042,
          0.027336040090348988,
          -0.091739259535865,
          0.03442315355524128,
          -0.28159180805957484,
          -0.1290870444508739,
          -0.009072773262426169,
          -0.04988536466486879,
          0.08339003043337037,
          0.14208221240213625,
          -0.039290868956940214,
          -0.10598376766079728,
          -0.002356879239193453,
          0.20022833770220255,
          0.17287245426782807,
          -0.0864694801459822,
          0.08349452834343536,
          0.1985560790087138,
          -0.2547250503885023,
          -0.11622207613794126,
          -0.07089320985747105,
          -0.09645518291408035,
          -0.17335146406830676,
          0.11724000242066142,
          0.1978538084511329,
          -0.17492135307224627,
          0.14127715272846647,
          -0.004724710217386666,
          -0.08609751857159902,
          -0.07635118817746012,
          0.19069230391146336,
          0.18086694430230438,
          0.20916466952387325,
          0.18638507462099285,
          -0.0042874928137347215,
          -0.19724147143878978,
          -0.03394443713777938,
          0.18230042153809825,
          0.10717773182683478,
          -0.23463995107192392,
          -0.12789584873128426,
          0.1689242816624616,
          -0.26106130060020444,
          -0.10938269849428013,
          0.03167645703066735,
          -0.44259868618058695,
          0.034562085660218664,
          -0.24035867614528564,
          -0.35438521878745943,
          0.18467663732274467
        ],
        [
          0.1798889084837679,
          0.052032481408791416,
          0.06612214496791727,
          -0.027428575309405966,
          0.13189196853336052,
          0.23087381796993534,
          0.15326859709371682,
          -0.19894239970027072,
          -0.2413237948028688,
          0.08143424016102821,
          -0.13269543371858677,
          -0.09856997652436156,
          0.07096921438881881,
          -0.12992123449796555,
          0.2470484738150556,
          0.22423522480784386,
          0.007252974735065172,
          -0.032044071999962294,
          0.035574575298615733,
          0.14090028261963036,
          -0.043946217546605854,
          0.23733847486580245,
          0.007023220915430915,
          -0.06457716469705821,
          -0.09993086490433617,
          0.0401429515360433,
          0.0975741671512727,
          -0.14339459916665442,
          -0.033684838031561255,
          0.19532165465968013,
          -0.183130079669193,
          -0.03898497572692514,
          -0.09438127505983814,
          -0.1607048660629906,
          -0.2141179505624535,
          -0.03656482032586922,
          -0.03154161094926102,
          -0.0069349748098181275,
          0.25369429550910366,
          0.13193842776007378,
          0.07900677348503574,
          -0.24945579568425424,
          0.06714558140895249,
          -0.16699364247174445,
          -0.009658836166752364,
          0.08021611642311832,
          -0.21786124513069613,
          -0.2548713435751157,
          0.03730086959198965,
          -0.02589646826790325,
          -0.08617462614026686,
          0.014678306325916761,
          -0.19445344046203333,
          0.24912433615454393,
          0.22118796633977825
        ],
        [
          0.08924347298622581,
          -0.031178263767272486,
          0.017178765939358492,
          0.2101337937982461,
          0.2101799339928014,
          -0.09081793891053758,
          0.01059548109012984,
          0.14160682416183765,
          0.10874646602021504,
          0.054785561971396925,
          0.142428196194718,
          0.05866527371205515,
          -0.18774452475247694,
          0.03237113702670786,
          0.05942473185347526,
          -0.24122801900983856,
          0.16907045741831717,
          0.1703166828862047,
          0.1504690785249113,
          0.1257473422941333,
          -0.10300507014218326,
          0.18867936249060147,
          -0.10881836555619917,
          -0.19165820610542728,
          -0.21056890345450444,
          -0.11976479768983933,
          0.14274593159688345,
          0.06328248224301078,
          -0.21149138588051147,
          0.1094065436689034,
          -0.1421588260656005,
          0.0674641417545337,
          0.1079819584017947,
          -0.19106185234707518,
          -0.2257799654066999,
          0.1848241903955251,
          -0.1427599494986543,
          0.009230047203095499,
          -0.1922593558690855,
          -0.03563640119973183,
          -0.17485402050900103,
          0.051334867525116616,
          0.26825416695008897,
          -0.12137091280371572,
          -0.05269111859814737,
          0.10303122827856298,
          0.017170063672690278,
          -0.0576199502708361,
          -0.12477330431284585,
          0.2361814482749697,
          -0.1164783442763241,
          0.19253630741295363,
          0.06925452633975011,
          0.041998524923075015,
          -0.11657128534786163
        ],
        [
          0.13330595512554724,
          0.5504315297835367,
          0.6493401788475562,
          -0.4533769898492625,
          0.08833888815584487,
          0.5106153950614645,
          0.1708463658480369,
          -0.025012044825012538,
          -0.20691382009146658,
          0.22702243576589842,
          -0.25143184028519194,
          -0.04378137024683168,
          -0.2441935726731909,
          0.1751068272235625,
          -0.031586475180246834,
          0.22498689172760467,
          -0.07063111838784862,
          -0.11807173037650721,
          -0.07905590913870959,
          -0.23826302545133698,
          -0.3354617654283807,
          0.11024802305924754,
          -0.10652229436227709,
          -0.07992709731622523,
          -0.2693601871748613,
          0.18545166851332362,
          0.10979201720944533,
          0.0763370636454652,
          0.11370126310797796,
          0.2658926601323841,
          -0.24007231110746752,
          -0.2593583129824027,
          -0.18060623417839208,
          0.3982756460770072,
          0.05924122394666802,
          -0.06182558589506567,
          0.00420781039021078,
          -0.1796491525341374,
          -0.6618928737588133,
          -0.16474054504377003,
          -0.184420622743478,
          0.2658055884473263,
          -0.00832951894403093,
          -0.2191499966787453,
          -0.03193260446446589,
          -0.09861348900126735,
          -0.0025354850979349276,
          0.1682555110758519,
          0.09889616771028287,
          -0.15347898250915207,
          0.3713025371593532,
          -0.1216253629571694,
          -0.07930182492069082,
          0.3167289003132526,
          -0.19054378493371749
        ],
        [
          -0.1926869037416703,
          -0.4659478170794604,
          -0.5678740096492011,
          0.2629250898422574,
          0.17929670757032942,
          -0.34023802952277743,
          -0.021505717145271937,
          -0.01404062984000415,
          -0.4857939452264637,
          0.3208109364713553,
          0.15680269363964736,
          -0.08838102073490421,
          -0.16640198668773967,
          0.28777835674743946,
          -0.008206022106267159,
          0.07544290925080568,
          -0.20335828130108538,
          0.16485104394804567,
          0.2442852069710598,
          0.008189928500596676,
          0.4965142313797459,
          0.006792244812376747,
          -0.19986102318851473,
          0.3248894248975429,
          -0.17573746918203026,
          0.43429090586915936,
          -0.07608816327572827,
          -0.37232876389380665,
          0.32895919390565725,
          0.20966098578718984,
          -0.30220626861245153,
          -0.13140557361571245,
          0.13974329703759675,
          -0.21365676457825158,
          -0.36664742243814086,
          0.026937200320329133,
          -0.0499765703494999,
          -0.2100554056190968,
          0.43344196514941263,
          -0.21491839214302305,
          0.12427623572155404,
          0.013552098056157397,
          -0.10869874576008931,
          0.06485846607058589,
          -0.24787501397808287,
          -0.05180914202433881,
          0.20972240392422206,
          -0.020847008112504343,
          -0.013908787560662177,
          -0.0047699090612270305,
          -0.1590115639153888,
          0.4125769199306097,
          0.10244753028462654,
          -0.20149954583855142,
          -0.25898537830447743
        ],
        [
          -0.1547519542623514,
          0.24226212929626895,
          -0.2106307599478245,
          -0.08736803224006792,
          -0.16575472239601413,
          0.0754761378840058,
          0.10245616402142022,
          0.03315862665046424,
          0.006530328156854993,
          0.03142104770325566,
          -0.17733624027146924,
          0.0029889938105511567,
          -0.0889846497600359,
          -0.24746116532604837,
          -0.1983567433973898,
          -0.2377204765759302,
          -0.052925301288706025,
          0.23019496990980326,
          -0.1587871147542842,
          0.16694069927590735,
          -0.001061711700405135,
          0.002341546559698248,
          -0.23900631605534822,
          -0.2504178171474322,
          0.0776074434026737,
          -0.17949881442372187,
          -0.010369845910130177,
          0.21285540837753966,
          -0.1940170580554159,
          -0.021257687262838228,
          -0.06849756668074802,
          -0.13728416712650146,
          -0.06522881973481086,
          -0.00845617791011829,
          0.13844516054607423,
          0.08532158400249458,
          -0.19702402893437113,
          -0.0678679640338996,
          -0.08153989728801629,
          -0.035123646289773124,
          0.16292451939540145,
          0.2116460168952369,
          -0.19549963597410913,
          -0.15203988596583284,
          0.054058562556499636,
          -0.0865605775260637,
          0.14418654278825235,
          0.0265324936151773,
          0.18516837492880914,
          0.1729687178331234,
          0.0576718855948874,
          -0.05572053561737833,
          -0.007888623267215776,
          -0.19634946699150493,
          -0.13617937475267805
        ],
        [
          -0.052925775029445184,
          -0.10704403819714825,
          0.0457208218266635,
          -0.02564342826117152,
          0.05758797329697059,
          0.1011251244846481,
          -0.02806656564157734,
          0.05820375487451362,
          0.03143699921307877,
          0.08576789238671427,
          -0.007191893434196261,
          0.0035972337116785135,
          0.039141948076224425,
          0.049677651858077286,
          0.16498996079618852,
          -0.13435034041508837,
          0.09128022405862958,
          0.1600831094033164,
          0.08302996207233813,
          0.07864022617917629,
          0.014293007050926117,
          0.2189750161262717,
          0.050584687449461055,
          0.241894404775695,
          0.30128680603413976,
          0.09641175620947379,
          -0.04336213490578648,
          0.20425734545277022,
          0.05857854815230014,
          -0.17735265790961127,
          0.022554507104458756,
          0.22550794063712531,
          0.2870098307638867,
          -0.3242521409302918,
          0.08481548003482618,
          0.15589271860882595,
          0.057870169761701465,
          0.131381530213066,
          0.25157010632321763,
          -0.21581163432134404,
          0.11111489889312112,
          -0.17705964796622395,
          -0.014672937502241567,
          0.005823756709798025,
          -0.11559018096258422,
          -0.2079908572800407,
          -0.16972404785224007,
          0.31525620558441253,
          -0.07065125415198568,
          -0.019232025468206376,
          -0.1418889116015257,
          -0.0959254197309859,
          0.036381480243183086,
          -0.16323358192608994,
          -0.24773210101782578
        ],
        [
          -0.35553903327244435,
          -0.3535654352481447,
          -0.2687135880559474,
          0.3320308857224619,
          -0.1441666464917105,
          -0.08312509011080738,
          0.03612702113253666,
          0.16536713026473293,
          -0.0100543438181846,
          0.10688787793700587,
          0.13839238628334108,
          0.2240284296811583,
          0.28072752354065844,
          -0.10603474403315197,
          -0.0037763234539342928,
          -0.29585274089450125,
          -0.1300931130389973,
          0.003104020813314251,
          0.11640779893120039,
          -0.16164363241438515,
          0.08815263413239634,
          -0.24798538037119375,
          -0.012742839343145011,
          -0.10361374525650781,
          0.2976938327803964,
          -0.10626090142144026,
          -0.13688865112130913,
          0.0004648249493229573,
          -0.22700911461667464,
          -0.31849180656934306,
          0.2850696202801243,
          0.27157621084744926,
          -0.003940971369463593,
          0.11855882189331367,
          0.29933181303054096,
          -0.19843788577567406,
          -0.07992622647018183,
          -0.12063657340409005,
          -0.06294692062672262,
          0.21431758047041957,
          -0.0920269140650634,
          0.10760448047966398,
          0.14461365219117098,
          -0.09566432347349586,
          -0.05471900437813091,
          0.06508951291335119,
          -0.317345774355138,
          -0.01613816320456023,
          -0.14139905744148903,
          -0.05065433471159213,
          -0.2079703735496823,
          -0.22003686238913817,
          0.14075931327887295,
          -0.14378572301642112,
          -0.1502520735218684
        ],
        [
          -0.29658019521746104,
          -0.27624815132590247,
          -0.19249372967010162,
          0.14568973876685828,
          -0.17212751302319582,
          -0.739823311955625,
          0.14669294413021686,
          0.06663209085241363,
          -0.21696521126324367,
          -0.010447769770190284,
          -0.08435333889298212,
          -0.2142618523225037,
          -0.25163369130621366,
          0.1787956053763537,
          0.06103395739309351,
          0.39643523506469724,
          -0.4242414870552659,
          0.016171671331593834,
          0.21656916477726834,
          0.08839146875872517,
          0.2634220625800139,
          0.29484857974196677,
          -0.2980864054390741,
          0.24795095161967723,
          0.16986069310940646,
          0.3310906712371236,
          -0.1407968104317342,
          -0.04969851630832371,
          0.09112927413833377,
          -0.38931072670338646,
          0.24325516243621226,
          -0.2932714204340288,
          -0.0946390088387348,
          0.13025307083570262,
          -0.22501855867770812,
          -0.07239573127758923,
          -0.11250775301624175,
          -0.10118662405459605,
          -0.3624065360757302,
          -0.030506057522473824,
          0.2102776488108767,
          -0.0523873578666369,
          -0.13829658981900042,
          0.2901249150508455,
          0.05682394337387698,
          -0.22055307147424547,
          0.07134835410808375,
          0.0731314114499373,
          -0.10600395393547918,
          -0.5219768142865647,
          -0.34158553613288445,
          0.0005381571810061734,
          0.031841509388434164,
          -0.4260472744103886,
          -0.27950040937990034
        ],
        [
          -0.09896635923344535,
          -0.17877049587684732,
          -0.06601024572126912,
          -0.029867887823847594,
          -0.017733124428322544,
          -0.1332392116406109,
          0.18092816273880885,
          0.009666599124806231,
          -0.19347811368798212,
          0.315772118035977,
          0.013507657665812313,
          0.09639912642701129,
          0.036542717451400926,
          -0.07413062956257599,
          0.08881714419744999,
          0.165318164172247,
          0.05837229889468976,
          0.16874029859995576,
          0.1507308280672071,
          0.22762753279378145,
          0.5285335312617049,
          0.058381417394260185,
          0.09967903163433539,
          0.21492405433800446,
          0.26426154456850875,
          0.01791079430123667,
          -0.0553459896873511,
          -0.15139848723538274,
          -0.06679425600348665,
          -0.17636318161085085,
          -0.25064901792300365,
          -0.13277576535822544,
          0.0006886923083747881,
          -0.2655495296196634,
          -0.25358378244725965,
          0.2734254237256843,
          -0.10834419758473192,
          -0.05286776356616729,
          0.30456185232682464,
          0.14554725783343972,
          -0.08331443601797277,
          -0.23006666564837025,
          0.11077618702550233,
          -0.023529952787924885,
          -0.1003781620113001,
          0.2480979510119441,
          -0.10734519245405377,
          -0.3108103397897111,
          0.14760846510780215,
          -0.16626017769203577,
          0.2615705668578513,
          0.5252672275334727,
          0.3880576310710657,
          0.20798240176169136,
          0.046996765813280224
        ],
        [
          0.352898440858719,
          -0.26253473591568544,
          -0.5773172165222478,
          -0.2843102299528204,
          -0.4439549547386325,
          -0.10394751201440591,
          0.13603385714522237,
          0.14764611030540062,
          0.08432989999134236,
          0.06087333420799324,
          -0.34739979439934127,
          -0.13089439462045238,
          0.001673905203182847,
          0.28778941528450414,
          0.10770822053716346,
          0.1834128643316871,
          -0.272116353262613,
          -0.2271743651753729,
          0.10131911226667827,
          -0.16800700442418603,
          -0.13426465410219138,
          -0.022498417341520718,
          -0.03768969172036182,
          0.27105149411466567,
          -0.2776100734003842,
          0.007618364351037469,
          -0.23307678919421754,
          0.04281794608758998,
          -0.16905911300270243,
          0.17738397792943666,
          -0.12019247121236895,
          -0.03986384865110929,
          -0.02247356970672897,
          -0.18489329638780858,
          -0.3064200366757977,
          -0.06247193798843837,
          -0.2652044829800234,
          -0.2082380731336122,
          -0.1647004638912945,
          0.06828045420415503,
          -0.18751231676921062,
          0.19567913212810087,
          0.04479548022307055,
          0.09610684476509475,
          -0.11710715078368324,
          -0.02702126250459345,
          -0.137321145481365,
          0.08548626352909489,
          -0.05188549110398966,
          -0.23481158899140975,
          0.4338160277629483,
          -0.3345053969527322,
          0.07839387970146848,
          0.25409108692028864,
          -0.25710659799629865
        ],
        [
          0.07043074602174687,
          0.20676304785122218,
          -0.028301666937384576,
          -0.08481149727291222,
          -0.23743893443565647,
          0.08790720579785045,
          -0.07594967351393886,
          -0.17074216845706908,
          0.12848484305168106,
          -0.04354043429370255,
          -0.23389833231170512,
          -0.13861151708915728,
          0.016768768490224087,
          0.10672953438600194,
          -0.1803730021488499,
          -0.16485402925351772,
          -0.23767874688513949,
          0.2612041000211874,
          0.2525068198045408,
          0.25694173931001146,
          0.11969390447326783,
          -0.15947297538315042,
          -0.05597267972136749,
          0.013628944607622656,
          0.20968005911752882,
          -0.11511875808793326,
          -0.22331159572395073,
          -0.14122076592536556,
          -0.11894847088501496,
          -0.20162393489370037,
          0.19502101905418634,
          -0.02842844707715297,
          0.1732291818982496,
          -0.08357690594057605,
          -0.21614843058007352,
          0.21192237878919576,
          0.23826181815496467,
          -0.06877705048886831,
          0.053485194341020954,
          -0.02377454278738275,
          0.07222278080730027,
          0.11708769780888563,
          -0.017019903194412003,
          -0.01331365790359967,
          0.22873396128871784,
          -0.026115366605013603,
          -0.07153139554592358,
          -0.11719054344628142,
          0.07093785092324713,
          -0.03309506626268328,
          -0.09404016524576374,
          -0.09981463801821668,
          -0.058130750417824506,
          -0.0041335539459432784,
          -0.2008386978320152
        ],
        [
          -0.06505796284857251,
          -0.22349309186848879,
          -0.2987047454345783,
          0.21592077473798293,
          0.23896270199795935,
          0.17076382002594812,
          0.19312898508162385,
          -0.17471650711428413,
          -0.2104422135772896,
          -0.11645490417417696,
          0.2867018706102933,
          0.05925814196292896,
          0.20375308712969165,
          -0.2056532716243498,
          -0.047633740819538355,
          0.12014076346384864,
          -0.11192827053428714,
          -0.11266595152109159,
          -0.13108862107091612,
          -0.20110571028867302,
          0.018378037424994602,
          -0.08811990005169866,
          0.2739014114824099,
          -0.2814919753332101,
          -0.008634111929396492,
          0.10712400169279003,
          -0.044052861562633855,
          0.21543724424938157,
          -0.10771493875435796,
          0.255176211161571,
          0.08424271073683873,
          -0.09058676954392622,
          -0.1204881564148845,
          0.2584467062757272,
          0.25324070159101003,
          0.2184902654947031,
          0.11506534084732221,
          0.236415246509979,
          0.05694819584183098,
          0.1877758554919585,
          0.14541954152702755,
          0.025700820755601223,
          -0.034975359264270395,
          -0.02065255382984301,
          0.11962928129703214,
          -0.05368345229994507,
          -0.16523283859193624,
          0.08973492619185562,
          0.1305975149656712,
          0.20744120863461446,
          0.21192874175796922,
          0.03434412880280018,
          0.1193774023354685,
          0.02445763127429624,
          -0.17524100592089092
        ],
        [
          -0.24214051500525882,
          -0.5375127595376936,
          -0.2555615001022543,
          -0.2611682602634369,
          -0.1981777628316286,
          -0.17897281095349954,
          0.001349728008780378,
          0.13767332014904185,
          0.21755639934338114,
          -0.11958888144701497,
          -0.07080721939913676,
          0.04432711096134823,
          0.13114906677065422,
          -0.2872184176339513,
          0.03193410312411507,
          -0.031240546867201176,
