{
  "layers": [
    {
      "activation": 2,
      "biases": [
        -0.11531345102923941,
        -1.074690455512167,
        0.0,
        0.0,
        -0.29442132125579895,
        -0.260155034596453,
        0.0,
        0.0,
        0.26807132230583847,
        0.0,
        -0.014208689208679452,
        -0.04742994252235892,
        0.0,
        0.0
      ],
      "cols": 14,
      "rows": 4,
      "weights": [
        [
          0.48519132817843547,
          1.2245325141174512,
          0.09526069073349093,
          -0.14717409994873373,
          0.3335302592137872,
          0.9318206143914298,
          0.12745798146066162,
          0.5518705116926989,
          1.0092820925316257,
          0.06600854705044647,
          -0.05510158795189648,
          -0.539790104485536,
          0.4499923113666296,
          0.35516477213263836
        ],
        [
          -0.13955400644691576,
          0.9745954047548471,
          -0.5232175742387967,
          -0.18654463001098825,
          -0.1085554949837447,
          0.056503367964174024,
          0.21679571582837784,
          -0.4217347813382479,
          -1.2833563654189664,
          -0.26156710560758134,
          1.899945559881163,
          -0.4290880795879454,
          -0.26774924515318543,
          -0.54745818747708
        ],
        [
          -0.018282525580734104,
          -0.4200180732290101,
          0.48153006492337763,
          -0.24363489501148103,
          0.5475080911472948,
          0.5493787920820369,
          -0.5493031973711846,
          -0.5445653800866518,
          1.9499160679737182,
          -0.21339433680945766,
          -1.248263107365354,
          0.4721792498292306,
          -0.19356522564450326,
          -0.4758671214075129
        ],
        [
          -0.17599470672876436,
          1.174966875601019,
          -0.2202723329650639,
          -0.20357136513581464,
          0.758575728525982,
          -0.0288929489557168,
          -0.30803387538411797,
          -0.35387592240936067,
          0.3240859987392719,
          -0.018746550599789184,
          -0.012929499237007012,
          0.508548799916461,
          -0.4593307928143953,
          -0.44278068137411075
        ]
      ]
    },
    {
      "activation": 2,
      "biases": [
        0.0,
        -0.34868319008808013,
        0.5572040037956489,
        0.40901003574344746,
        -0.16587546011919715,
        0.0,
        0.0,
        -0.11298539027363899,
        -0.0047588344590766786,
        0.42523560115504966,
        0.5081549155739074,
        0.4636346687509602,
        0.4462222974760452,
        0.055630802176402615,
        0.18343133907639506,
        0.003981339866225767,
        -0.12354902320804226,
        -0.5947565900852472,
        -0.39978703870287174,
        -0.18669114979889287,
        0.0,
        0.0603915926336527,
        -0.2122141542924964,
        0.27919875150556966,
        0.6154334089233403
      ],
      "cols": 25,
      "rows": 14,
      "weights": [
        [
          0.15629363367844037,
          -0.33112874831453565,
          0.05088458994265962,
          -0.27058992276576554,
          -0.2912506163035457,
          -0.35045150292581934,
          -0.3822159600669628,
          -0.058986546014946926,
          -0.022529354917419968,
          -0.15443389260951115,
          -0.02683094534305642,
          -0.3608481269975809,
          -0.3572989394702376,
          -0.3022767207963017,
          -0.16035596491942405,
          0.14724083921679468,
          -0.267878953033031,
          0.2920486206647702,
          0.07367191713789291,
          -0.32523489861045946,
          0.24199141473969665,
          -0.3645479148306907,
          -0.2870521453382498,
          -0.3404866040098946,
          -0.3767870812126893
        ],
        [
          -0.34464507756644897,
          0.7365763535543429,
          0.07601585139834668,
          -0.45138823430287944,
          0.5470870783537581,
          -0.27863920430214795,
          0.07648174091272601,
          0.052241560095792144,
          0.6308607425689386,
          -0.511357539610497,
          -0.09705263430290938,
          -0.32519821616967964,
          -0.39507087841072586,
          -0.15433556252183073,
          -0.4143693131623248,
          -0.2720264155982747,
          -0.20078147120966477,
          0.8180394296558241,
          0.3305520285384322,
          -0.07951122219857107,
          -0.2989352358557844,
          -0.6111599429256748,
          0.718187053311497,
          -0.34245441350930494,
          -0.4016913532064353
        ],
        [
          0.03634878209631307,
          0.23745681900511742,
          -0.1784272352658045,
          0.15756774931788942,
          0.0043775608106026275,
          0.16420039363462502,
          -0.30876244574912787,
          -0.062277167285307224,
          -0.18518588399450928,
          0.259503832216566,
          0.11088193532914029,
          0.1087338567061522,
          0.28947333899515043,
          -0.30520119290089326,
          -0.09963458211696696,
          0.20763327378756066,
          0.27479846807988634,
          0.1365616417213008,
          -0.2409329950671863,
          0.066712645764019,
          0.2908732121073056,
          -0.03606045858890116,
          0.09289549200072891,
          -0.05867492617233766,
          -0.06703587720475308
        ],
        [
          -0.18389639784710826,
          0.36563922723880804,
          0.18139542073410014,
          -0.11112612026973832,
          -0.16600226815951089,
          -0.030237847383656747,
          -0.1374899492421762,
          -0.2166534668083121,
          0.33614461753978725,
          -0.14193740938927743,
          -0.2950612764396705,
          -0.31244982757484757,
          -0.07067201657630603,
          0.09718158902879523,
          0.2733724402276392,
          -0.3903083715913048,
          -0.38936175586195354,
          -0.1517332474026528,
          0.04511023902467918,
          0.2396089060075944,
          -0.0769408371671011,
          0.3229623436035166,
          0.21009835630607845,
          -0.07755670368939345,
          -0.18090794655567516
        ],
        [
          0.04353116143172658,
          0.00844634058759083,
          0.19480854624410687,
          0.1509947000914084,
          0.5903513163796201,
          0.12552130105413678,
          0.23895955510569072,
          0.28027071792524694,
          0.03199074418985716,
          0.02748251453574066,
          0.23520509246371274,
          -0.09164829033181228,
          -0.15314790578444928,
          0.14139011803090973,
          -0.14435756905950128,
          -0.26084406352780337,
          -0.049355459697379374,
          0.3616361091529522,
          0.44937659134350727,
          -0.36284402573036484,
          -0.34708743655863034,
          0.29980863896689536,
          0.6385616432598624,
          0.39871410874688434,
          -0.0018261448786088114
        ],
        [
          -0.2771861526735559,
          0.4887249874494638,
          -0.386164020606907,
          -0.04037679575080655,
          0.08214727725656412,
          0.21135727056905318,
          -0.265204968664964,
          -0.10463080328913357,
          -0.19310867295312467,
          0.319871414574758,
          -0.024215584836274142,
          0.19034808371174897,
          -0.3436117243331719,
          -0.03463897591119592,
          0.12080171134217328,
          -0.17722699253494797,
          -0.37321990254076715,
          0.5992768698773389,
          0.27274976442284843,
          -0.2699350435263009,
          -0.22022269075367865,
          0.09860987192158845,
          0.5143249175375281,
          0.47252568879085893,
          0.01759552748039546
        ],
        [
          0.26723835824671555,
          -0.2520770418230931,
          -0.1738960002430906,
          -0.08175782767500814,
          0.26483370534577894,
          0.22620683128707741,
          0.027611068597275565,
          0.3279029765274231,
          0.05325747910192506,
          -0.16197150267659247,
          0.2968016371521039,
          0.046979186783091334,
          -0.2658650044388308,
          -0.13107073533422836,
          -0.06887801378837517,
          -0.3438973104093376,
          0.2380209601535598,
          0.030265853072338048,
          -0.25048605306364125,
          -0.29233567847795255,
          -0.17906116926732074,
          -0.29655704636901864,
          0.33161750742559315,
          -0.3824906971660696,
          0.27046277059763535
        ],
        [
          -0.36887215241900057,
          0.23414160460313346,
          0.2448020138715633,
          0.2780653145322326,
          0.008282650281548197,
          0.34304992335075796,
          -0.34377809280886246,
          0.20192911342907333,
          0.02441049538291363,
          -0.16308976749505524,
          -0.064897759439498,
          -0.3766000731891557,
          -0.08310661504445203,
          -0.12941889029290637,
          0.2368841146167242,
          0.05263874282393552,
          -0.3508795180748616,
          0.34517030861209136,
          0.3020953059168633,
          -0.18433069716204395,
          -0.2750943155636342,
          0.253412347989125,
          -0.12511332524547583,
          0.16576255954099955,
          -0.3042270686490399
        ],
        [
          -0.01100171786869911,
          0.32759803394018566,
          -0.5612961102702902,
          0.7192525872024471,
          0.696558355540352,
          -0.17431130642186038,
          -0.2970646676497815,
          0.45326381811923055,
          -0.03624216726497583,
          0.028000786670415577,
          -0.8030607367626235,
          0.7470593084040046,
          0.48362301997361423,
          0.3643656100685142,
          0.13674403555389397,
          -0.21932459511016586,
          0.2817398225335857,
          0.20089815188349702,
          0.4981201846819489,
          -0.19689860639622978,
          0.12384033982803885,
          0.5874207052448608,
          0.6852327480773359,
          0.8117705842135092,
          -0.3899321501520243
        ],
        [
          0.22775935121980898,
          0.10184565874504985,
          -0.20242536417959356,
          -0.028112299776662353,
          0.17346884499793216,
          0.3249319322622734,
          0.3509314282878641,
          0.337130673049352,
          -0.18117991946927275,
          -0.3581873615512825,
          -0.11265470681986195,
          -0.1652910472827559,
          0.07849720292314985,
          -0.26819845116123636,
          -0.3804868449539614,
          0.22322136664566727,
          -0.2776820271704651,
          -0.03979342079988398,
          0.23807111987403423,
          0.1873257401975651,
          0.200165403440366,
          -0.34924785922241774,
          0.29413619702865973,
          0.2578747523451839,
          0.22396744614095063
        ],
        [
          -0.2355419460231811,
          0.29466098426973064,
          0.5607547749350352,
          -0.3858670722346314,
          -0.4013294744031377,
          -0.31114579612037546,
          -0.2843651818906523,
          -0.19112880284245753,
          0.5183742482155189,
          -0.1112188232015368,
          0.9467350649865911,
          -0.49338845083554767,
          -0.20062025234386677,
          -0.15153608310247704,
          0.100429348004816,
          0.4248145371358743,
          -0.24954602125710268,
          0.5181283787354134,
          -0.5782177367714885,
          0.18772517666443791,
          -0.3884788084535963,
          -0.05376764087535474,
          0.15615782652999224,
          -0.2689367977937089,
          0.9226662709818062
        ],
        [
          -0.3454151824986218,
          0.26446790580907853,
          0.21341929097440648,
          -0.23797353802846474,
          0.18589552746877713,
          -0.18676807061123205,
          -0.3676309889246859,
          0.07518794580562381,
          0.30275720907758397,
          0.30982074454442554,
          0.15019099003082317,
          -0.026899149920448964,
          -0.08437071466665808,
          0.25347558781935614,
          -0.02657005026822969,
          -0.26510209654417655,
          -0.221427315638827,
          0.27529924956893304,
          0.25210498422904487,
          -0.055473799536402205,
          -0.06496265916915483,
          0.23689104149483012,
          0.023129317555600246,
          0.01766391462546211,
          -0.026493961933084783
        ],
        [
          -0.3553721640888766,
          -0.0990771799264041,
          -0.2004941921104052,
          0.261317394347553,
          -0.22893350979071903,
          -0.36833601147981787,
          -0.3313094638454271,
          0.19573552602633154,
          -0.3810615986460029,
          -0.29059316143050384,
          -0.38242697332027087,
          0.21697873367149328,
          0.29328791682437244,
          -0.262715261991432,
          -0.19640447280076828,
          0.1876537215661671,
          -0.02911355958505963,
          0.24378840892648243,
          0.06246694887611131,
          0.380189908891805,
          0.1472277934234832,
          0.16383505503128162,
          0.27238400664913487,
          0.382848149785962,
          -0.3359979911422817
        ],
        [
          0.17304992678449665,
          0.22805657038541055,
          0.35377941497393794,
          -0.2555157554455274,
          0.11307235855633688,
          0.37080910089435487,
          -0.1888500067717627,
          -0.317297153621466,
          -0.13377937083339556,
          0.07696531885715573,
          -0.33215984522521974,
          -0.2140722128823894,
          -0.28515476616632723,
          0.2954904813537721,
          0.05681228340162071,
          0.348645340570947,
          0.19427735880980884,
          0.09349352044891177,
          0.2684545012411928,
          0.38811594253053733,
          0.2563631651523826,
          0.10523257064702778,
          -0.17705891375864333,
          0.350691839120742,
          0.24199031081890784
        ]
      ]
    },
    {
      "activation": 2,
      "biases": [
        0.3252228261051268,
        -0.008549917196691043,
        0.35793100249917004,
        -0.02955313524774819,
        0.3152001856847611,
        0.37201070133176406,
        -0.002636719267747081,
        0.412937899688873,
        -0.14160052833604472,
        -0.014703754108700277,
        -0.13213627058393512,
        -0.7962119494000247,
        -0.06357614758581258,
        0.04430913696042102,
        0.0,
        -0.008107668352948084,
        -0.4761204757527043,
        -0.061585228968613764,
        -0.5380219891620732,
        -0.07999693853534172,
        0.09594903951526199,
        0.0,
        0.36409960373746136,
        -0.14343282287854328,
        -0.6376759839918119,
        0.25389503470524055,
        0.0,
        0.022734075959736224,
        -0.14615808851823467,
        0.20141323210557807,
        -0.003646623771285614,
        0.0,
        0.2022376909706263,
        0.5766438803961753,
        0.7212451864954619,
        -0.01243040820798054
      ],
      "cols": 36,
      "rows": 25,
      "weights": [
        [
          -0.2538609143220516,
          -0.10658002602453226,
          -0.011598884123848265,
          -0.046912672974984686,
          0.13879492163483328,
          0.205781890428263,
          -0.0030725340799390385,
          0.00852752408384766,
          -0.15292198254424075,
          -0.1940885612975857,
          -0.1993706290488398,
          -0.08423529162474845,
          -0.07441518812405763,
          0.1313407041616854,
          -0.2140057675345747,
          0.2181665049066166,
          0.05214022461471568,
          -0.2370648112581975,
          0.05386692118097056,
          -0.31091455916965777,
          -0.23562792073315764,
          0.1608149349014455,
          0.1659530547535248,
          0.11972197030698616,
          -0.09320973382189421,
          -0.1853031019974667,
          -0.26787299379944024,
          -0.29971517327853464,
          -0.23392400103825445,
          0.027927246696956752,
          0.2770121450811777,
          0.15127227986473007,
          0.0122323375989911,
          -0.10919886617863646,
          -0.12845379880844524,
          0.3130468049696042
        ],
        [
          -0.3889235360038229,
          0.12593187439343254,
          0.23558317529899572,
          0.03816048858004568,
          -0.2516527736451523,
          -0.15895987969028058,
          -0.20565279844192516,
          0.36575594538404194,
          0.25552939794775587,
          0.2626139148004775,
          0.03745887575856709,
          0.20117730010370588,
          0.25172060332240886,
          0.16396452094988923,
          -0.14315864830697866,
          -0.17997340796250988,
          0.10256380668082614,
          -0.06008129541221256,
          0.411259652448425,
          0.10651927357817292,
          0.26682641942930746,
          -0.0038467499636314025,
          -0.3467907927616169,
          -0.08474266076049922,
          0.5729358430969781,
          -0.13901857438389018,
          0.2594391003864723,
          0.2891854968654416,
          -0.00942120701267198,
          0.23516788679210737,
          0.2842289349422366,
          0.18876238387713373,
          -0.1780517982092434,
          -0.22487183500684166,
          0.032491312511178844,
          0.1470530221739736
        ],
        [
          0.5371365564193249,
          0.27566300268009925,
          0.4834598798231645,
          0.039665861162988224,
          0.2171445410854078,
          -0.04638713027957223,
          -0.2307939125608378,
          -0.03362915511087723,
          0.26753714026758824,
          -0.20863088707153093,
          -0.07141537915823684,
          -0.2880463943321873,
          0.13681464737421775,
          0.037495495412103855,
          0.06378275063192865,
          -0.12675463490687638,
          -0.17277897997647193,
          0.06071185151132612,
          0.19097778858977335,
          -0.03274034330762125,
          0.15483010573897016,
          -0.045571675473441264,
          0.3340814513783189,
          0.23154200739978903,
          -0.028462969644804093,
          -0.10672346836419706,
          -0.2493748018361386,
          0.03095101775060246,
          -0.125274474041955,
          0.3403024087285359,
          -0.030492583694011404,
          -0.10135790776978312,
          0.17407817844744028,
          0.31462582239780845,
          0.5356114113801875,
          -0.3471578588032259
        ],
        [
          -0.2972546770718398,
          0.07679591924802225,
          -0.286509938941199,
          -0.2512168860287901,
          0.3083075055128993,
          0.4802580320564052,
          -0.19384607086221844,
          0.3251646727766114,
          0.29881517367434013,
          0.14245026540939928,
          -0.22023276059492852,
          0.21989599817785266,
          0.017944180438346755,
          0.17367861503624907,
          0.02635751893457008,
          -0.1735438294721438,
          -0.10952675288643968,
          -0.1911788165369203,
          -0.2886221957923921,
          0.2265644992130145,
          -0.3020684243558356,
          -0.050840845580321405,
          -0.01614649041811451,
          0.06960818250203461,
          -0.30802347867768554,
          0.12267468407466495,
          0.042527526755431797,
          -0.168900875748734,
          0.23057381939977994,
          -0.0910738437297878,
          -0.02621733800025628,
          0.08877498963598138,
          0.3158822073822353,
          -0.09924858850771207,
          -0.08040452275343236,
          -0.0121852429365052
        ],
        [
          -0.35910064742018327,
          0.0656697011257244,
          -0.2672442254606459,
          0.3262101683332633,
          -0.13462991594133789,
          -0.10089892027946186,
          -0.034162697092542216,
          0.14954145197377344,
          0.23572417978329707,
          -0.061660425933216745,
          0.11241423798859662,
          0.6181628295830944,
          -0.13386934090309174,
          0.20084936325652902,
          0.15228671317003153,
          -0.03841786793401354,
          0.23610180499354697,
          -0.08304898115073314,
          0.1429790389653257,
          0.3681272104061782,
          -0.010259417237099732,
          -0.16752603752302025,
          0.22923589060495225,
          0.2014757346941137,
          0.5392130437325349,
          0.20438588080087094,
          -0.3049127548433902,
          0.2521410518396937,
          0.2567845224719771,
          -0.14230909751253504,
          -0.010287887100260646,
          -0.186613825362541,
          0.03338445165015194,
          -0.46736088810068976,
          -0.42538763423840814,
          0.24541748010669262
        ],
        [
          0.04834831921338748,
          0.174547483341215,
          0.2004648488757533,
          -0.09564209016734412,
          0.00022646761614043682,
          0.1196823292624973,
          -0.23865594308743027,
          0.16172878983068126,
          -0.09665257855825121,
          0.2578837467635182,
          0.0360698543607042,
          0.19785497401132943,
          -0.05785649027717845,
          -0.13428464194789894,
          0.30259164502544555,
          -0.24880678235754392,
          -0.18952486345064679,
          -0.17286898389655223,
          -0.27343821533177803,
          0.2790646259738808,
          0.084217806184551,
          0.11535366284908274,
          0.2874190196937526,
          -0.28652480025023913,
          0.29412943094761146,
          -0.003385877876705168,
          -0.03577696359855636,
          -0.1474918607479095,
          -0.1183545705618518,
          0.03879473986575347,
          -0.28519091358394905,
          -0.16832193232654585,
          -0.18249100222217146,
          -0.23782593000273353,
          -0.0852495566884765,
          0.22219790948991996
        ],
        [
          0.3013886170054977,
          -0.02892285563953863,
          0.252706241442257,
          0.18526406118984148,
          0.04274093534964741,
          -0.08999662149366967,
          0.17362268657589686,
          0.30131188920915875,
          0.1377369762684229,
          -0.045701118962798395,
          0.3024956915401336,
          0.29604276817273756,
          -0.15645739840927647,
          -0.07630384086374123,
          -0.08561275899237261,
          0.18048018068866656,
          -0.16863532052039393,
          0.01321085366504697,
          0.18501798627428412,
          0.29055844747034987,
          -0.25469021471674963,
          -0.08088744203932402,
          0.1988429034270893,
          -0.22369787278775824,
          0.07571617333972352,
          0.17330491124935202,
          0.22936901056900041,
          -0.0035131543795458094,
          -0.17536463149517711,
          0.3103928572388266,
          0.2411836409978858,
          -0.0889992880749598,
          0.12646128727409942,
          -0.3030985072316563,
          -0.15018920370536984,
          -0.16652210938513395
        ],
        [
          -0.2408784451033026,
          0.010369988215960736,
          0.03810172932367963,
          0.07697465894460477,
          0.13579448976649283,
          -0.19679313248074304,
          0.10926911433770857,
          -0.23034617289895795,
          -0.2421834489092023,
          0.2825637022370469,
          0.18160240424140425,
          0.3211443334629896,
          -0.2160018766379469,
          0.30565741023803505,
          0.017970156584279164,
          -0.05083619878311271,
          0.33338248399587106,
          -0.01169950981785656,
          -0.3786897218547025,
          0.28799685210875314,
          -0.23657401578013407,
          -0.22438393329990308,
          -0.003803587650366673,
          0.04391107361051739,
          -0.10454705667579287,
          -0.1439439853936653,
          -0.0738355252186523,
          -0.14805745426176806,
          0.07926006490973063,
          -0.08976367435522224,
          0.2817162113054522,
          0.18033025057479374,
          0.3877309845821079,
          -0.29620060215448485,
          -0.2582387513272957,
          0.14171818034235964
        ],
        [
          0.21119506894958273,
          -0.011965712764473347,
          0.20299250466952595,
          -0.2561568044777149,
          0.06955675847185644,
          -0.3319747079804444,
          -0.10352606350794635,
          -0.06201666392765039,
          -0.11504853722478511,
          0.14948983258285672,
          0.26288484141508045,
          0.17708039032517453,
          0.3324530309405954,
          -0.2050517009498698,
          -0.31010151424073734,
          -0.08967337870686565,
          0.07473825012128858,
          -0.30993122221099534,
          0.22125481725976007,
          0.10571835611953896,
          0.05124004353030143,
          -0.19347727014471375,
          -0.2669027478188432,
          -0.1909853338175355,
          -0.2200419098304023,
          0.055435742570911765,
          -0.25307703564715567,
          0.16769475515700116,
          0.08652356882292438,
          0.23311808928698735,
          0.08097481678677722,
          -0.061711429895944456,
          -0.28955561693492493,
          -0.010619848566134037,
          -0.019020969840437392,
          -0.039473314000408544
        ],
        [
          0.04417199573353107,
          0.25156237107349183,
          -0.04327464734369305,
          0.24122209910507422,
          -0.008813290885226597,
          0.06360779729938883,
          0.1761205827576472,
          -0.013860259836964619,
          0.04768145463481243,
          0.20635213031513405,
          -0.15839198764164086,
          0.012131123323487597,
          -0.2679303571190795,
          0.2916700113903167,
          -0.055499456794094675,
          -0.11379861270355031,
          -0.3817043809013939,
          -0.14301498967147672,
          -0.5328789179869098,
          0.033566059895498546,
          -0.027847064528848227,
          -0.10822951986250645,
          -0.060765221935792,
          0.27993172145557427,
          -0.3698544800666235,
          -0.02651803459799994,
          -0.0831613644772035,
          -0.003670104783548792,
          0.2387493994571494,
          -0.0956849177185853,
          0.053464565324228164,
          0.28757744045745015,
          0.18369536570775327,
          0.10151845819831647,
          -0.11641221617773785,
          0.3315386948475215
        ],
        [
          0.31679355028579764,
          -0.2860090646202948,
          0.4970835753535892,
          -0.19836452514800917,
          0.38382477849518315,
          -0.21684040388306342,
          -0.012958634608488276,
          -0.24332729833968933,
          0.024433138683012567,
          0.20449866962587782,
          0.22789029007815617,
          -0.08539166402109556,
          -0.06243801707210026,
          -0.08454156964460867,
          -0.05854868401251697,
          -0.1296072868231156,
          -0.564345852700892,
          0.2289320222011901,
          0.10707908275755068,
          -0.2995031804696703,
          0.12374491556877129,
          0.011599413675884178,
          0.21214226852680204,
          -0.08872160765661741,
          -0.27244445334144846,
          -0.010850110470465763,
          -0.17994540732225278,
          0.13791010739552043,
          0.022746741462413466,
          0.4633046098669289,
          -0.27036964792664525,
          -0.2748295620450407,
          -0.34693795578677494,
          0.4284670537295017,
          0.4210202363315416,
          -0.4986814169244796
        ],
        [
          -0.30901917887903735,
          -0.2897074566534202,
          -0.33024767751671624,
          0.19867723665290782,
          -0.31130664873652825,
          0.3396028138505203,
          0.0680941036438381,
          0.4920030211203826,
          0.29531486897184034,
          -0.17661050824878005,
          0.007086952255411935,
          -0.013869065761301754,
          -0.05357339516596151,
          -0.12022714335059534,
          0.12759340731255414,
          0.19270521482164446,
          0.08015770965099257,
          -0.2714235671787351,
          -0.3090570513324034,
          -0.18261450970192353,
          -0.18126420873487573,
          -0.12341933562747116,
          0.3246098256689381,
          -0.2005526438810022,
          -0.019221962729441804,
          0.4644862228149272,
          0.257271493479148,
          -0.22511448746586868,
          -0.0741380298592732,
          0.06069186092357401,
          -0.30468520058978427,
          0.008905559394384654,
          0.03911776298163665,
          -0.33123715210334204,
          -0.4696316359164925,
          -0.19683791201687725
        ],
        [
          0.1331173510011027,
          -0.039449648207484526,
          0.12870853312926983,
          0.15792423787781407,
          0.2362983083026665,
          0.4510904919807793,
          -0.273813297203236,
          0.19818147100001102,
          -0.21089277793628738,
          -0.14558613120653352,
          -0.21784867675389735,
          -0.12383336578426041,
          -0.31472321924281194,
          0.3646715123860268,
          -0.10551804987042443,
          0.3045467169679747,
          -0.0704195761449317,
          0.172704607885556,
          -0.2541471357758931,
          -0.20682830415760434,
          0.19211024823733713,
          0.007135464096414205,
          -0.12698141098082677,
          0.057461503690862926,
          -0.17463816624855444,
          -0.03073010457165636,
          -0.29984129837810686,
          -0.06387481055589779,
          0.057020209161969836,
          0.1452682150011791,
          -0.2991951061534095,
          -0.23702477531334873,
          0.40074058828926407,
          -0.007443694347296594,
          -0.33898036313685626,
          0.06137177475594692
        ],
        [
          0.03402568828091102,
          0.07485606490144477,
          -0.13084660166440953,
          0.17445367342593143,
          0.12462557560931295,
          0.23985310522270537,
          0.16454388757734803,
          0.031282362835125914,
          0.047097062495273075,
          0.0702085932398047,
          0.09498460243421812,
          0.04490239382044976,
          -0.28094854725773,
          0.24921158902529014,
          -0.20597794706561287,
          0.1562788733617224,
          0.017863229940668794,
          0.2700156258877733,
          0.18657382992026175,
          0.11880521775525864,
          -0.0108799452653781,
          0.12098586468159708,
          0.039723033733693576,
          -0.2569758270231241,
          0.21884459673121387,
          0.08484454611761123,
          -0.10581470503777853,
          -0.042434980787486726,
          -0.17888701592923453,
          0.0007537110890449974,
          0.09041838500752271,
          -0.010342654671756126,
          0.04634116910272011,
          -0.1349538285116799,
          -0.3552345929862281,
          -0.13652439510294898
        ],
        [
          0.06556396877745638,
          0.1842107502556842,
          -0.25707929332021284,
          0.27485931675412034,
          0.2983720857803847,
          0.34462701220605374,
          -0.056934376582475604,
          -0.11226941679115944,
          -0.14417972487501346,
          0.1380673171020846,
          0.08160479529296864,
          -0.31085007410482796,
          -0.029078515796213726,
          -0.14975769740494554,
          -0.07834038670908015,
          0.2826333220382033,
          -0.02403331261348721,
          -0.003385177721415741,
          -0.3017313053402292,
          -0.2728695139495685,
          0.19360728337094965,
          -0.13522851923541576,
          -0.09053243905279526,
          0.2433112355930604,
          -0.11698452340338367,
          0.28849457740747453,
          -0.173860959288485,
          -0.20124378577738405,
          -0.043892181723647804,
          0.1800062085695787,
          0.23543958831179773,
          -0.08073372035624089,
          -0.15253476473869929,
          0.12757648491779772,
          0.21162090755340648,
          -0.049926054479749515
        ],
        [
          0.2271607458176629,
          0.13973939390166454,
          -0.25974628446198467,
          0.10546708552545224,
          0.02471190490357233,
          0.17539872530211292,
          0.17383477486990534,
          -0.3518872870449558,
          -0.11406838470080875,
          -0.19164646900578336,
          -0.30555715381518245,
          -0.10439580904954983,
          -0.006199732489649247,
          -0.0891284682621302,
          -0.06902827461932756,
          -0.08654916501043179,
          -0.18874727373676928,
          0.30743087602483166,
          -0.28049428237844565,
          0.1956215243138798,
          0.05339831565261488,
          -0.25879820747925286,
          0.29119330174496005,
          0.20817919212288952,
          0.11918108811619976,
          0.0687471975183674,
          0.27683174250439746,
          -0.07842702774229125,
          0.029887409478120668,
          0.18381074521046528,
          -0.28739325653447195,
          -0.14978379847010845,
          -0.1493958369661866,
          -0.0383735038011795,
          -0.3096487252685488,
          -0.104198681256835
        ],
        [
          0.12435805613550971,
          0.17581289247415924,
          -0.20643041270564821,
          -0.022819981966043578,
          0.06886119204511705,
          -0.037548298086965685,
          0.12808694864168288,
          -0.20760965677813986,
          -0.20972500568915553,
          0.05982371504461567,
          -0.006472228711630406,
          -0.09200581574935421,
          -0.21993857763264615,
          -0.14940422203093637,
          0.25437761924448216,
          -0.038954584256931976,
          -0.14300839991863334,
          -0.19432516999586127,
          0.3023893042976436,
          0.16177291554655807,
          0.03698838828756564,
          -0.26963897389684033,
          0.0747353678001565,
          -0.1195449731616383,
          -0.02187654736746244,
          0.08899385686789425,
          -0.22976118109256885,
          -0.225924253595471,
          -0.1512913316796455,
          0.028913329592699776,
          0.23415851460318549,
          -0.26185751195900503,
          -0.13005534095798746,
          -0.18556343452854107,
          -0.009719093438879034,
          -0.041446205186467404
        ],
        [
          -0.3350133423781946,
          -0.10065267393536202,
          0.5043635876986629,
          -0.04019121420121892,
          -0.22828605421295434,
          0.10964601963789061,
          0.03510081900351304,
          0.2825959243251085,
          0.10163569813432259,
          -0.0453285385340983,
          -0.03919133854535108,
          0.47679672276493834,
          0.5474693945975331,
          -0.1428696734011258,
          -0.011681801808077518,
          0.13456032816927224,
          0.2191833589690329,
          0.052059936111970434,
          0.5639692516647276,
          0.22871194268001027,
          -0.11266818567835703,
          0.05936386817977773,
          -0.36412395507670225,
          -0.17853652589790928,
          0.1259019437742669,
          -0.36460817596267125,
          -0.2448739825247648,
          0.36333706951102546,
          -0.3477532173676546,
          0.14093329809131674,
          0.12542244060776458,
          -0.2528654137433999,
          -0.10009644791923897,
          -0.5600303199735728,
          0.29536222570216963,
          0.31200492120963363
        ],
        [
          0.16380780300742256,
          0.16748730534692405,
          -0.009849000970120982,
          0.053750014041566374,
          -0.22047251789489772,
          0.2777047019055873,
          -0.21910066682743803,
          0.18232034480370451,
          -0.02408673353937194,
          -0.28204710475049005,
          0.06723382210705303,
          0.772060512869615,
          -0.0875426147602089,
          0.1882824250584439,
          -0.006777905771552784,
          -0.05327145203390252,
          0.02480058496831325,
          -0.30027239072450723,
          0.39767105298836225,
          0.15532130596352464,
          -0.003793314865981197,
          -0.2262941682789324,
          0.1650770320655678,
          0.11956471486681822,
          0.44477934916776707,
          0.08184807130110293,
          -0.20945813763415963,
          -0.07909363784789061,
          0.15951826884379305,
          0.155511312431865,
          -0.16981428660738263,
          -0.28993231717702966,
          0.0865987195105163,
          0.18171953244577332,
          -0.304163323584637,
          0.23643576045793502
        ],
        [
          -0.20370060453930974,
          0.007527821262978188,
          -0.1756977475429612,
          0.3041142000120703,
          -0.07977046570069898,
          0.23643203686184278,
          0.15996338527646967,
          0.0948398911221219,
          0.18694209382954208,
          -0.30990106608939966,
          -0.17294065957836546,
          -0.15465767121664986,
          0.029894944523888946,
          -0.1864830380639481,
          0.24324646757901267,
          -0.010994777996090178,
          0.0363369959254315,
          -0.12465997457877598,
          -0.13603159423444056,
          -0.21164575010025052,
          -0.11393501121904967,
          -0.30904410514434244,
          -0.17709731981571925,
          -0.2670210288714879,
          0.27606959011679655,
          -0.2020835146000787,
          -0.23564879086667676,
          -0.04669662841978206,
          -0.12981179747886107,
          -0.1961372605351142,
          0.04724905681264716,
          0.21316957186413932,
          0.14480022696425102,
          -0.046843860602333004,
          0.24489003118304817,
          -0.25358084882739435
        ],
        [
          -0.20045417721928108,
          -0.18441776693579345,
          -0.1713924251630194,
          -0.2132830744644109,
          0.1493823682341061,
          -0.19173585273286697,
          -0.30003654184785167,
          -0.020522701380029384,
          0.054082426368961024,
          0.17718238180300294,
          0.04340366957655216,
          0.18811999461300313,
          0.14267965695309381,
          -0.06617897476278903,
          -0.1724334835735795,
          0.24953043493043134,
          -0.09363118480513857,
          0.3125359654274457,
          -0.2786704499873898,
          0.004901334587777352,
          -0.16543690742339248,
          0.15337387707387187,
          -0.12644954395385455,
          -0.2364413494631675,
          0.10036309563798665,
          -0.15088931530975944,
          -0.09242384238192405,
          -0.07599059608415114,
          0.05241801365104282,
          0.210510689631379,
          0.01633684519056629,
          -0.11128092458254364,
          -0.3109404508468071,
          0.004080551422735896,
          0.0023448924876613595,
          0.21113596878590568
        ],
        [
          -0.09256439435180185,
          -0.2719780320073775,
          -0.24565676846008697,
          0.08968493021980953,
          -0.223702239239435,
          0.44224859464717176,
          -0.25102581184015127,
          0.25509321121993006,
          0.034455477595140595,
          -0.27974656413831755,
          0.029836389835623763,
          -0.22465744955942996,
          0.07661730036074689,
          -0.11613187563127993,
          -0.19433579637899343,
          0.06356963450667263,
          0.11711091751509338,
          0.19202026588749613,
          0.07315961192938192,
          0.2181100899987079,
          0.105253868022967,
          -0.24294606874456295,
          -0.04253111263793907,
          -0.26993115324350314,
          0.006362199579148512,
          0.08390305408809184,
          -0.2963996015399855,
          -0.07303443657601479,
          -0.3395119755366684,
          -0.2522463739120672,
          -0.16412462939655728,
          0.1611442353599447,
          0.4083256592268385,
          0.21146427601241247,
          -0.11962322116919825,
          0.2517031226067365
        ],
        [
          -0.6065434018493092,
          -0.06011763554918088,
          0.20255469050227137,
          0.12705507763473248,
          -0.5241344966650964,
          0.27378634658563356,
          -0.03385583731433386,
          0.26373236794075605,
          -0.3799000531727,
          -0.06771550720221464,
          0.3502105115437631,
          0.44840400715246465,
          0.5063200164277167,
          0.18816837706256673,
          -0.11072883109664518,
          0.09959349200213505,
          0.4240805306129692,
          -0.16007869716500944,
          0.5234891828974667,
          -0.06998918048828988,
          -0.04245960431105835,
          0.20323630867221723,
          -0.2765911010718411,
          0.18109770917052204,
          0.6299043657854492,
          0.07110601432100416,
          0.0317796200475553,
          0.23858622281172082,
          0.1252736768465718,
          -0.240517024782083,
          -0.10232532300632258,
          -0.11454437765199153,
          -0.0008432186213259294,
          -0.31972991326649286,
          -0.14004158020836793,
          0.3784481086603748
        ],
        [
          -0.3678323645500507,
          0.042095537562184426,
          0.05123926572422746,
          0.1950787417676946,
          -0.2761373331117586,
          0.5309861640038037,
          -0.09926403623706151,
          0.3213057909320371,
          -0.10938517202048799,
          -0.06883824224376352,
          -0.001540415316678343,
          -0.10516541139583885,
          0.1304268387321129,
          -0.1294253236051487,
          0.03142873004755878,
          -0.3092778853186812,
          -0.04989009899547114,
          0.15437333050343421,
          0.27586921502156536,
          -0.17517229911748233,
          -0.2166614718149855,
          -0.2111225734268769,
          0.11027176940498751,
          -0.140258158815927,
          -0.04310259887095852,
          0.29527619152944745,
          -0.29696691621490523,
          -0.14569442641141453,
          -0.21306760645102038,
          -0.21724180475768542,
          -0.2610864049982393,
          -0.1169573105662024,
          0.538033310353946,
          -0.42502114898857424,
          -0.3718922516672369,
          0.300313243978292
        ],
        [
          0.4571456225716969,
          -0.25675423183549123,
          0.2373247630281103,
          -0.0033546632882426315,
          0.3258251459195796,
          -0.21509487857567622,
          0.15051389757238767,
          0.16902747410879923,
          -0.2447408025537972,
          -0.23969713119277875,
          0.06908773572607231,
          -0.6336881801944629,
          0.10212901907867715,
          -0.04757463069794961,
          0.07812533571492086,
          -0.27607250080853085,
          -0.16737364157729417,
          -0.19652206641288353,
          0.2746851244968741,
          -0.3427337758482579,
          0.32824002852231104,
          0.016431009356643815,
          0.3518664829785063,
          -0.08613369214137957,
          -0.5369330050839537,
          0.0703257662524607,
          -0.09432739852099019,
          -0.07676069882788089,
          0.08054593633893972,
          0.05820370669738668,
          -0.08325942019247923,
          0.1001323324581307,
          -0.007512407978448944,
          0.31628830491812476,
          0.22018702352914782,
          -0.293402117905908
        ]
      ]
    },
    {
      "activation": 1,
      "biases": [
        0.008269561556718963,
        -0.4941506054462864,
        -0.2648585250948116,
        0.014567413356597713,
        0.547209483507961,
        -0.6145420815632208,
        0.5180009110759595,
        -0.3759531963397675,
        0.17248830507705418,
        -0.13542339797517877,
        -0.3032402986744032,
        -0.06485562729128803,
        -1.016462318651992,
        -0.06502564690406953,
        0.23518426253548158,
        -0.6926112640508759,
        -0.33289148030311316,
        -0.5729133401554123,
        0.31283934904796395,
        -0.4844311397095612,
        0.523248023619326,
        -0.0948864437479286,
        0.3726211665440806,
        -0.1736179439264677,
        0.10833554761190446,
        -0.05044466467416041,
        -0.01510277111915571,
        0.38433879901326296,
        -0.34381879063569815,
        0.22101681240218657,
        0.6986125660497874,
        0.24725116084727777,
        0.010113398039688849,
        -0.09256569673682882,
        -0.28954415738806205,
        0.0951135783493143,
        -0.21582716610674066,
        0.04185572463294012,
        0.32843221512558646,
        -0.04769382242534515,
        -0.20117517318705616,
        0.6020697851231629,
        0.675295982708284,
        0.16121168183811535,
        0.0765012552839532,
        0.004138257742137953,
        0.0353264212923986,
        -0.18854222236932713,
        0.02417450877720912,
        -0.020879828243902245,
        -0.19672041343422145,
        0.2864007318157472,
        -0.05854046975613559,
        -0.49005010593561293,
        0.45499648872141923
      ],
      "cols": 55,
      "rows": 36,
      "weights": [
        [
          0.2680694901602901,
          0.10269822596430234,
          -0.2544359588372066,
          0.43282688142354664,
          -0.3096182321397576,
          -0.2116842840240474,
          -0.20277822068250198,
          0.155073765651717,
          -0.020224307543767146,
          0.08874738287628571,
          0.08772320143943886,
          -0.10355846302328203,
          -0.04711363996069647,
          -0.09920968317800032,
          0.16262030309491632,
          -0.083986110288998,
          0.13908839340215082,
          -0.19035620416315135,
          0.14168793402362403,
          0.14411557071967604,
          -0.17125543542389637,
          0.02521618667815907,
          0.1495679188598317,
          0.12711113004697386,
          0.03432133883306154,
          0.3434095889175901,
          -0.14197620144675932,
          -0.03916763377677858,
          -0.13323272915535136,
          0.19032886473148114,
          0.28582516957244425,
          0.46072425225298436,
          -0.1287074346132857,
          0.0442797562246202,
          0.08295901979590521,
          -0.0595897748537412,
          0.14587075587149315,
          -0.028199552292487266,
          0.2708304470335997,
          -0.1571476670501605,
          -0.346815155639568,
          0.05810607905871305,
          -0.03939436452727023,
          0.25215961688777605,
          0.06260295220818497,
          0.09796943439746898,
          0.053122521468439925,
          0.010251329036676075,
          -0.5161345555774967,
          0.3178756919917864,
          0.10749039608708101,
          -0.033399542113605366,
          -0.5681178093078474,
          -0.11379435297675054,
          -0.20748456354024689
        ],
        [
          0.14413753899722287,
          0.2013253807371202,
          0.02536542983903319,
          -0.2105961096215407,
          0.009414315662717726,
          -0.18135223137740278,
          0.21596734345528304,
          0.026542169578064524,
          0.24396330306531797,
          0.13508548920081237,
          0.180931088184883,
          -0.002580997530213485,
          0.04334218264022841,
          -0.015516466328302001,
          0.1330053401086741,
          0.18850831643707297,
          -0.09627482845312871,
          -0.07487637703917664,
          -0.2485044258890009,
          -0.2080046291484067,
          0.06568283550574534,
          0.15072035181848495,
          -0.050670999288706844,
          -0.07518698998570333,
          -0.043432486805874485,
          0.15659161489128748,
          0.10853950316309173,
          0.2015173616087284,
          -0.12521193521973814,
          0.2482461295013207,
          -0.20936571746612423,
          -0.03536115482789574,
          0.25300328693565016,
          0.042206562381587064,
          -0.08367722814412631,
          0.13099457134723966,
          0.20557724703957167,
          -0.08959645514747773,
          -0.08229573332322924,
          -0.22534004696003787,
          0.0211239483727537,
          0.1080878208319949,
          0.23378447380086115,
          -0.015168939653117091,
          -0.2563270941256681,
          0.2274925850377859,
          -0.0010046544217680513,
          0.20060848092773798,
          0.08975578312993138,
          0.13470929246495744,
          0.05268303024210839,
          -0.17057855846678258,
          0.20533478994083149,
          0.026116824143555487,
          -0.054299077284120534
        ],
        [
          -0.07146970482018249,
          -0.36863048071480337,
          0.0013384569851228423,
          0.20271859463769082,
          0.34094484951931964,
          0.16592924870747638,
          0.1532775157968421,
          -0.07126618804587614,
          -0.1828994382668958,
          -0.1259066758596345,
          -0.20177895373562196,
          0.06679220310704444,
          -0.28479500640179817,
          -0.004226136090124607,
          -0.09938355907888574,
          -0.10789703156672878,
          -0.0705626846756154,
          -0.11948663940155271,
          -0.13853770921240952,
          -0.3059441191230843,
          0.10837693847889412,
          -0.06694884011885097,
          0.00622692149164056,
          -0.20645316478845993,
          -0.04965744574948916,
          -0.26357273148709476,
          -0.04662341989914725,
          -0.1565239833839242,
          0.025215939005655143,
          0.01016560679531535,
          0.31314075396815416,
          -0.04359241979135638,
          0.351416863567418,
          -0.11156941529696418,
          -0.14053933527893203,
          0.30437730884128117,
          -0.36800643511085696,
          0.12552251207448362,
          0.012652244489401148,
          -0.19597415631982892,
          0.10929716466700626,
          -0.21182362517521292,
          0.4361365562565699,
          -0.09757466617383843,
          0.17712403391468082,
          0.10589921810842033,
          -0.0853439296039885,
          0.0012072010547372635,
          0.054692698746497286,
          -0.1719345789268956,
          -0.2634979639120206,
          0.11442573528144166,
          0.40642548680594476,
          -0.20351542757214966,
          0.024269867273066046
        ],
        [
          0.038916322346113516,
          -0.07877771343793401,
          0.19591972093331467,
          -0.0076417151954055315,
          0.13746646225219625,
          -0.15211776237892782,
          0.04250422334141052,
          0.08616110766498904,
          0.14945679582689503,
          -0.2008214208717791,
          -0.24463534448461055,
          0.22781506278691085,
          -0.05678625936113858,
          0.22903112027976594,
          -0.12675502363943808,
          -0.004690565697483775,
          -0.004709396508919811,
          -0.007557860093619325,
          0.021920672433050157,
          -0.11241836991074865,
          0.20631867833085296,
          -0.17354052976439854,
          -0.1750732315761016,
          -0.08695180892673851,
          0.19365392699274742,
          0.3163081270897643,
          -0.06071135412686968,
          -0.06067847522674153,
          -0.17410741063433352,
          0.11867334735385865,
          -0.15955265982706798,
          0.23039063858534928,
          -0.24121524153166454,
          -0.17905266118374963,
          0.24261512281981476,
          -0.14577687668364497,
          -0.07995278694146377,
          -0.005426637485828543,
          -0.13970439586034764,
          -0.18738304816235754,
          -0.04528383954562287,
          0.25854855156405016,
          0.17651074949464796,
          0.20150184452820458,
          0.22346783316906627,
          0.11536935680091379,
          -0.10222780694580877,
          0.012396981082957692,
          0.05011994159233885,
          0.1813515100407329,
          -0.02296057132408986,
          -0.2175804745432532,
          -0.028849859250674473,
          0.08271935513290132,
          -0.059864561404417094
        ],
        [
          0.17388200392274913,
          0.07196487066626524,
          0.14468038154897986,
          0.039604397126386304,
          -0.21268190027563785,
          -0.27233902593634096,
          -0.4340467925929964,
          -0.031072067735372605,
          0.15548336201547855,
          0.2924874519206697,
          -0.045664297929190543,
          0.1975263431212913,
          0.04222072939125986,
          0.09126267692805635,
          0.175225330178338,
          0.11632888408655442,
          -0.003986845180524369,
          0.033974213478909054,
          0.1682956213914345,
          0.15805810235153386,
          -0.2719961467832042,
          0.13792894090335095,
          0.15430322677055278,
          0.1027392023432279,
          -0.2791523730151392,
          -0.02038056201809589,
          0.23554757191609502,
          0.012323529043587812,
          0.0034244138739214355,
          -0.023335779218216526,
          0.40901264491183204,
          0.26432866031964963,
          -0.3060567810289159,
          -0.09033385966639498,
          -0.12195183565870124,
          -0.1412089118520951,
          0.0018009908574591368,
          -0.12701230694800694,
          0.3084811642621056,
          -0.20497747988549533,
          -0.09107651221064063,
          0.006697549134973317,
          0.009956735940863036,
          0.22663885677648274,
          -0.1847793716557774,
          -0.00160402700076165,
          -0.03274424898618802,
          0.14774493211316553,
          -0.21056415636272158,
          0.37139922824774085,
          0.1896435956340914,
          -0.07500967303735252,
          -0.49160945550758345,
          -0.07853576162625756,
          -0.13719418930026941
        ],
        [
          0.14340862753777012,
          0.008414001553010754,
          0.06514723977962117,
          -0.04832484357277593,
          0.40056902062300553,
          -0.34617811364818696,
          0.07374406192960631,
          -0.5300884818682652,
          0.005152162986012583,
          -0.17669451773893854,
          0.110062779450147,
          0.004022254020446901,
          -0.18766404956529173,
          -0.17398405736481734,
          0.23114465548827764,
          -0.21436400755816895,
          -0.20965230924374903,
          -0.10835612698661529,
          0.16412009985435957,
          0.059981781746187644,
          0.02236918226787711,
          0.26635661576524766,
          -0.021086768014618788,
          -0.19167072882262454,
          0.04017270342865922,
          0.11198433282567655,
          0.010957011483827678,
          0.2931606386479852,
          -0.10561341617440063,
          -0.3240192681188255,
          0.19557616698255115,
          0.056572412007963285,
          0.18914796310665566,
          0.005441002431354034,
          -0.025264769112817012,
          -0.17702230892650195,
          0.06820788156729368,
          -0.08498975722283293,
          0.025472020318683414,
          0.09676739161279987,
          -0.16268675728709137,
          0.11996425060226888,
          0.3268306285862945,
          0.017688757351742888,
          0.3458682566176524,
          -0.03903135870386838,
          -0.047028691445878484,
          -0.07270771228401415,
          0.2175766714320697,
          -0.13918059189604562,
          -0.07435318753043939,
          0.15353132859160132,
          -0.19343689171439665,
          -0.15836982080408177,
          0.32302359914961576
        ],
        [
          0.045058916416880604,
          -0.11459228644956602,
          0.22207111923089,
          -0.15172742237831197,
          -0.1457014246746011,
          0.14489248684436323,
          0.09662052509724774,
          0.19870395280376338,
          -0.2253661384577632,
          0.035221392991455415,
          -0.1828790183343108,
          -0.24661232256105303,
          -0.015623294720072215,
          -0.10462618361247882,
          -0.18829649172866642,
          -0.13198373246643583,
          -0.03979994185004857,
          -0.061980182722207976,
          -0.16716859047467683,
          0.04199685896249569,
          0.22051647242907702,
          -0.01264994546003222,
          0.0918950417542858,
          0.17509760816362988,
          0.151742561999599,
          -0.20852406047859473,
          0.23561682777685228,
          -0.020383962764882132,
          -0.15866136669938266,
          0.22573988526659275,
          -0.037079939041332076,
          -0.12547371684169084,
          0.08581334942341211,
          -0.04489846224210864,
          -0.17369437380675487,
          0.1363845866328123,
          0.14146760199857603,
          0.23283994574524167,
          -0.002887997954256511,
          0.056387853819308845,
          -0.21585193044104775,
          -0.014752124226444414,
          -0.2215717125875186,
          -0.24819894741932713,
          0.19801104076830867,
          -0.1275638970695686,
          -0.059746916102857095,
          0.19107038832175846,
          0.2556317822694976,
          0.013831709702945012,
          0.0973215631778167,
          0.054397718955810845,
          0.060525814759236025,
          -0.189941862642831,
          0.20324703065745534
        ],
        [
          -0.10595807516372642,
          0.05174793789370971,
          -0.24418348346549137,
          -0.407880987811026,
          0.5186277763133913,
          0.029422451658146654,
          0.4333666684446474,
          -0.2347578564987457,
          -0.05058479759362737,
          -0.04890136039192828,
          0.18048787322162874,
          -0.2565289075360015,
          -0.15476585535898726,
          -0.17509511062956193,
          -0.04468818924336096,
          -0.11787693644541225,
          -0.27750602696704457,
          0.22109278240907426,
          0.03604222995169815,
          -0.054787727099405964,
          -0.05842812030327076,
          0.043419304921296704,
          -0.2567498265128858,
          0.12003463180843399,
          0.35404538294386295,
          0.2699970809295979,
          -0.11055402526184069,
          0.0324932563981784,
          0.05170675437360326,
          -0.3363162288311964,
          0.008026256646234733,
          -0.29565622574822503,
          0.11600395158492224,
          0.1098335701946559,
          -0.12849626249848092,
          0.1530330698163491,
          -0.025555360310935676,
          -0.32294695432932546,
          0.06362401724105168,
          0.048521501920634556,
          -0.0759441428330163,
          0.10282553515578877,
          0.21483348208889805,
          -0.20410987686522156,
          0.3279393305618597,
          0.36371450266134264,
          0.024091118207381985,
          -0.2591757470484873,
          0.256754831693159,
          -0.21006957307475221,
          -0.16497444156078397,
          0.060126945461662216,
          -0.04368377700858517,
          -0.006185140861396472,
          0.06842888988166344
        ],
        [
          -0.21932844469981813,
          0.20032861112230077,
          -0.256469804275164,
          0.1478133806039795,
          0.16743910226197564,
          -0.1985939610206729,
          -0.03236189927822146,
          0.03924580151155076,
          0.1183858667629739,
          -0.013997688955172024,
          -0.03856636437008715,
          0.24791863905451517,
          -0.23596887272031197,
          -0.10429069850995266,
          -0.20915103385370573,
          0.18922513248786682,
          -0.08021112327994388,
          -0.055720958175148445,
          -0.13989335760614735,
          -0.1235162847617851,
          0.19104615263557373,
          -0.1885698206212996,
          0.06920243842287412,
          0.1802781613039254,
          0.18706303023301668,
          -0.1184135870324531,
          0.15005836092787306,
          -0.11639525564106863,
          0.057448961098264,
          0.0088616908278259,
          -0.18491733860804582,
          0.14206249761167433,
          -0.2534390014693775,
          0.16219150698017348,
          0.1639921586098444,
          0.001051407060965928,
          -0.15890909896613595,
          -0.1057187712342005,
          0.10819670492343471,
          0.19831566071045156,
          -0.17793481244184522,
          -0.2184183989579926,
          0.0019338582425040076,
          0.17247712706496535,
          -0.11538716504444133,
          -0.1981586061073927,
          -0.0486280509288802,
          -0.21176577898175739,
          -0.0054412535440795514,
          -0.16340719741591003,
          -0.05563464333262265,
          0.06705968293770809,
          0.21850534671171484,
          0.21061052861123394,
          -0.14111180318632857
        ],
        [
          -0.07800326846078622,
          0.21947219702127094,
          -0.1174823368517637,
          0.009057676156838565,
          0.22332584005748984,
          0.06655517506049712,
          -0.1944162330841202,
          0.07127180684763318,
          -0.10095520664008659,
          -0.14057818177452405,
          0.1933466110912886,
          0.08087228499904957,
          0.11048043677723109,
          -0.08025490786656139,
          0.06156428835480351,
          -0.11787151405395524,
          -0.036631230052824135,
          -0.11174728289803347,
          0.046727456448234686,
          0.2437429348788457,
          0.0811335157073536,
          0.17112892625475432,
          -0.25300080086303683,
          -0.07798389351209777,
          0.04785665053464766,
          0.06346375177442197,
          -0.24944664165088334,
          -0.059842870605977046,
          0.2543727157224239,
          0.18338374932942347,
          0.11668120867703415,
          -0.23996144034242106,
          0.14080539158885197,
          -0.07484612224228307,
          0.20817766617281502,
          0.2153859371020708,
          -0.14049884033151708,
          -0.07158037970380247,
          -0.05424954088822505,
          -0.041961932632716414,
          -0.06357052654220743,
          -0.061583092922016344,
          0.06290742374621448,
          0.2386438270880165,
          0.09497377796870375,
          -0.22692497912191348,
          -0.04292863310297724,
          -0.08225297019736037,
          0.18318087956280915,
          0.030958776410835824,
          0.20125822910046298,
          -0.09445023555416239,
          0.0158089776346068,
          0.12374417713411173,
          0.05332256609564061
        ],
        [
          -0.10694678868934772,
          0.05444970016597452,
          0.005751751122690481,
          0.009289303943165577,
          -0.20425190849496536,
          0.32781513162683923,
          -0.24272954698542207,
          -0.09271605479027514,
          -0.10885745431999627,
          -0.14680962394238956,
          -0.16407233924606884,
          0.16937704925102245,
          0.04402074152741646,
          -0.12471246726337205,
          -0.011231415678296759,
          0.2410704927099645,
          -0.00010392262589021025,
          0.1624755669299605,
          0.01703691788857006,
          0.13470186555905717,
          0.09027428328795473,
          -0.2783373099119909,
          -0.21090653396969705,
          -0.14648651718378508,
          0.19264768290381076,
          0.06450082611622425,
          0.1649138295631204,
          -0.2778990082213218,
          0.19038520827057692,
          0.019888004101173543,
          -0.27331233325271614,
          0.16310420151785832,
          0.18032261085106632,
          0.1726606714394021,
          -0.02400761380234058,
          0.08263127398767543,
          0.18127089246202022,
          0.17257388449521255,
          0.17804286515240325,
          0.016005256938144446,
          -0.21673376616591974,
          -0.093819523781964,
          -0.255497252943724,
          -0.2470546528754006,
          0.135798393809351,
          -0.03701200889048773,
          0.02752421115160802,
          0.03545645557139499,
          0.17466595737942134,
          -0.29319596944472975,
          -0.2626364635951634,
          -0.22730202503187477,
          0.047312287384032974,
          -0.009746115489537055,
          -0.013535111734447883
        ],
        [
          0.02335924049615168,
          0.3170190735848188,
          -0.1384868324038045,
          0.228197494190213,
          -0.5731960629501227,
          0.11706433439382263,
          -0.3830059048942381,
          0.19091601838954583,
          0.08454371962242355,
          0.24542873545105237,
          -0.22881570591232406,
          0.1437291580004404,
          0.4814643772864497,
          0.3183410659474319,
          -0.1553669689346883,
          0.44087344620826574,
          0.3048185225381278,
          -0.2373688629124409,
          0.014248487867359334,
          0.48160789299713597,
          -0.09666912083826991,
          0.32671025932533054,
          -0.2381740107958406,
          0.056449204174717875,
          -0.28276724791588737,
          0.12763760098389298,
          0.12471489895409052,
          -0.09988260533357858,
          0.2910185830908758,
          0.24376638563009778,
          0.033337989676943264,
          0.3820910671047257,
          0.0038199720689488727,
          0.07624917072257432,
          0.24191145290586288,
          0.003080173842772735,
          0.03473041102534716,
          0.11542159848701503,
          0.2663488740347993,
          -0.13460757770434972,
          -0.0835206581128603,
          0.05274019610776733,
          -0.38685429539116195,
          0.11581609080214617,
          -0.10998831484801776,
          0.010513406504187571,
          -0.013812044370719066,
          0.2787659665034823,
          -0.502145744905545,
          0.24042116303730504,
          0.546685557909001,
          0.15073978360953955,
          -0.32457369697173266,
          -0.14081699068763973,
          -0.069069259165056
        ],
        [
          0.07656815437306431,
          -0.05702172389771105,
          0.2948879362007372,
          -0.07365354809652061,
          -0.016943453094084977,
          0.294506405443171,
          0.180552840656347,
          0.248527523438676,
          0.11132126552261044,
          -0.13935758359824157,
          0.2445166935149093,
          0.11850179076747999,
          0.3302089705407954,
          0.1602146679969747,
          0.14914325567197584,
          -0.20542611380311135,
          -0.1383691249719852,
          0.21341865335672464,
          0.175030463528733,
          -0.20833209386965587,
          0.0604407826624424,
          0.04168432207405547,
          -0.1707941110872631,
          -0.1374020933099468,
          -0.01810597949994678,
          -0.38231260274803475,
          0.06998766296327592,
          -0.2157768389281551,
          0.0025714787411416293,
          0.05889759066887311,
          -0.05987408680221552,
          0.09673195098676547,
          0.23447896324034562,
          0.19979077122100525,
          -0.1054784336618614,
          0.3132987356553491,
          0.16831023806491635,
          -0.3008986962644198,
          -0.19289650098527777,
          0.11599185718731478,
          0.25232898835109935,
          -0.21336044651860783,
          -0.1644784719191932,
          -0.0083408360433629,
          -0.2671564795683265,
          -0.1060980644561189,
          -0.07905247608890474,
          -0.1116920231192654,
          0.2177481250053987,
          0.04040698645170227,
          -0.08604741456514779,
          -0.08245326744897291,
          0.397012758415461,
          -0.10802395561419595,
          -0.05505143653936821
        ],
        [
          0.023429671151416972,
          0.1764278716588303,
          -0.151015741791501,
          0.04443760386640281,
          0.275510866400382,
          0.09460158298746088,
          0.1515965018326514,
          -0.2199240798055605,
          0.07584467787458703,
          0.07028580856437815,
          -0.07910028567497866,
          0.10841669795426255,
          -0.0878842611604029,
          0.08295472526794458,
          -0.14920257455484484,
          0.18038910977944003,
          -0.1342074291278174,
          0.014179122022502554,
          0.2535112698676385,
          -0.07217654366279151,
          -0.14903283578166507,
          0.04544467536917355,
          -0.22126632597506252,
          0.2792477150525016,
          -0.18656253523139116,
          0.33079590326602387,
          0.004490836860890253,
          -0.08597473914324937,
          0.1434019326069736,
          0.054529754695815655,
          0.052966886970514715,
          0.22911254859253327,
          -0.23373014378078835,
          0.07404857893593056,
          0.11777323382222574,
          0.11176660612357593,
          0.2765954817600707,
          -0.06991244518587134,
          0.19260447356713534,
          0.18886010687974483,
          -0.16583420428875909,
          0.10917051079948255,
          -0.04991235667816249,
          -0.20004367273589804,
          0.2324015551374689,
          0.12374711383942509,
          0.20386142021807543,
          -0.13587469733840057,
          -0.13528790071003152,
          0.04347601630566503,
          0.11017439507085973,
          0.1792774377574274,
          0.03492193781401122,
          0.025272512379613598,
          0.0010642470776669897
        ],
        [
          0.03178195993574399,
          0.25381911185960987,
          0.09640839030530157,
          0.19816519632382049,
          0.21854036411772457,
          -0.19702994613721975,
          0.2476154951954859,
          -0.12161666643579098,
          -0.03233692164640755,
          -0.15252635023490818,
          -0.10592306512370372,
          -0.14558506842513783,
          -0.0076474978074758185,
          -0.1887092747606279,
          -0.21853914521318946,
          0.2020887395389249,
          0.2518290185974481,
          -0.14800559880016098,
          0.09833474181929668,
          -0.0009092254208940016,
          -0.08461507521325329,
          -0.1213273678023812,
          0.18142940819834485,
          0.029201138711952426,
          0.09062093735084448,
          0.14944845175437235,
          -0.25247217523743054,
          0.18452483838584027,
          -0.03384961971969886,
          -0.0279124911712132,
          -0.21795155167999627,
          0.03562222592858464,
          0.12405370188305354,
          -0.03778956685016235,
          -0.17764477466334602,
          0.12812910094579574,
          0.01939442852411931,
          -0.2310421463665603,
          0.1155793775099948,
          0.055146449610934095,
          0.20283069871043596,
          0.01589564615779056,
          -0.08453092990712412,
          -0.22006143453705745,
          0.0750066743603739,
          0.24809300469402237,
          0.19398121647027242,
          -0.23971228271925393,
          0.14526317288386628,
          -0.18090100459285113,
          0.18779721395781895,
          -0.23023715641474274,
          -0.10843170433708381,
          -0.01998866660557772,
          -0.10986744617784495
        ],
        [
          0.0648063489186316,
          -0.1434078956589095,
          0.0772524923440636,
          0.17395148392803228,
          0.0795990941396408,
          -0.09516384584893442,
          -0.15668692797489797,
          -0.0720034891068869,
          -0.14816072130641317,
          0.14420416745703374,
          0.23773094436290296,
          0.22982231597831065,
          -0.14317422337871782,
          0.06421071434042669,
          -0.059165089256537504,
          -0.13123422903091497,
          -0.2102570081157458,
          0.1186008586319184,
          0.09973351389013316,
          0.12539561342529904,
          -0.09841098707256274,
          0.16838742393398365,
          -0.1913759949118269,
          -0.1725838219299751,
          -0.1308582842680501,
          -0.005502357550357254,
          0.18533880765206873,
          -0.0350713727270014,
          0.10578594622749357,
          -0.25181841992785153,
          0.05904460555804966,
          -0.09938671893300162,
          -0.05293446947842771,
          0.13518627501841723,
          0.11887724425376313,
          0.13972068451010403,
          -0.1435702169103067,
          -0.15427310361643395,
          -0.2266718418678547,
          -0.11622294074785564,
          0.01347117262035232,
          0.11063465999342766,
          -0.22487360049035093,
          0.033067615349846396,
          -0.13427534568474325,
          0.16560277005394128,
          0.21037345919245973,
          -0.02433140588638985,
          0.008960802567258291,
          -0.17174175650864493,
          0.013761610138933558,
          0.023069402432196233,
          0.18635758924621385,
          -0.08629337472239933,
          0.19300084443611182
        ],
        [
          -0.10743711360969252,
          -0.10379724214347595,
          -0.09420356557050286,
          0.3319258787543265,
          -0.41033028683170886,
          0.18344182005584417,
          -0.3894685947605811,
          0.01343412148487381,
          0.1328830283218574,
          0.07938228515486828,
          -0.07971835260968599,
          0.16465294461510963,
          0.046664555358051064,
          0.19666910587990852,
          -0.11621452091706139,
          0.12185993802360003,
          -0.04102513452956301,
          -0.05984527027893233,
          -0.0603831556990675,
          0.2869225156740778,
          0.019445119779452166,
          0.051470071842294435,
          -0.11925016017376176,
          -0.03054360916622061,
          0.11586048857299283,
          0.009190338316867606,
          0.16186474242064092,
          0.012109932103152268,
          -0.15751455216505436,
          0.03644473036767653,
          -0.04957103526463049,
          0.32813009312024005,
          -0.02000233342686455,
          -0.030812138284692717,
          -0.1283595929376168,
          -0.25053865602427505,
          0.03906313298836373,
          0.12773822815625643,
          -0.011308359645529517,
          -0.030481120854816253,
          0.0615589326889333,
          0.10825101773397577,
          -0.25324147462703184,
          -0.23132600952934537,
          0.15313679504795732,
          -0.10272796323498234,
          -0.07750665058202268,
          0.21815045094422894,
          -0.4665864190806853,
          0.1711890602909278,
          0.45880774824493553,
          0.07380121908244,
          -0.14507108757051215,
          0.15296511447636094,
          -0.17080014958207454
        ],
        [
          0.1460331663580868,
          0.1503987219530024,
          -0.17556370943282626,
          -0.09383205273567817,
          -0.1494240946354972,
          0.23508346668780372,
          0.033844203628831934,
          -0.2344137535097465,
          0.012848944698811574,
          -0.14611121462176754,
          -0.09255049845867018,
          -0.08513103447387863,
          -0.2494023410581648,
          -0.2220871380539671,
          -0.19980920522739715,
          -0.07200684696418934,
          0.028787654054446086,
          -0.03574201074863507,
          -0.08724561609640658,
          0.2430845175231245,
          -0.15080927592356472,
          0.00670629073155778,
          -0.20078270516802973,
          0.13792195112616626,
          0.018133504413503882,
          -0.20554519731657667,
          -0.24535189799130339,
          0.24295581044549702,
          -0.06729306981342528,
          0.019941960520876555,
          -0.16867923289563533,
          -0.06920464310017982,
          -0.1391114392923365,
          0.03988802332776561,
          0.24718426292108225,
          0.08976961386822219,
          0.06584726903797757,
          -0.1690653534886677,
          -0.08048183486037189,
          0.09345244179837855,
          0.20533735788174204,
          -0.15319055336837875,
          0.008919156316740307,
          0.20148755793372253,
          -0.18185055030816738,
          0.16757919025649937,
          0.15791957717301242,
          0.040487177432483916,
          -0.1829491870742025,
          -0.21741773692432062,
          0.03720979645544082,
          -0.07186610122698345,
          0.10491804258793523,
          0.16275901782818583,
          0.18064147238077977
        ],
        [
          0.1614910826217168,
          0.04630002834137599,
          0.09724115532692625,
          -0.07966063782721126,
          -0.22512653609840766,
          0.17007526999545,
          -0.005307997512217093,
          0.23664762263674002,
          -0.005657733109543027,
          -0.19892808962905778,
          -0.11595151172605553,
          -0.31642354887440843,
          0.7021973304917696,
          0.19817618816533195,
          -0.08276688153718938,
          0.14772460448794952,
          -0.003273996407706952,
          -0.03855722303815978,
          -0.3178414151777763,
          -0.0816295580937918,
          0.15083856467692974,
          -0.1168521125160712,
          -0.5786302469788942,
          0.14467691674147332,
          -0.03518560929719499,
          -0.39326801581166465,
          0.11558418748526213,
          -0.21065351885475117,
          0.29882356181723085,
          -0.5731364353836138,
          0.06266144614581645,
          -0.16556024432578015,
          0.03871625918810646,
          -0.15364192370282445,
          -0.36038423870321795,
          -0.09653186489623215,
          0.010479820424371197,
          0.11411502377648988,
          0.00621519446575768,
          -0.18921650567630974,
          0.19153230925927142,
          -0.5264656094739789,
          -0.16113192766059406,
          -0.36607306309069493,
          0.0798748371952028,
          -0.10204525567727957,
          -0.25348668443309696,
          -0.3452133939118758,
          0.1546452172811212,
          -0.07557068910874203,
          0.20214591590035103,
          0.3221395850293907,
          0.43114855230534854,
          -0.14030353767428522,
          0.05960325178333445
        ],
        [
          0.033041089313166815,
          -0.003080763865207765,
          -0.07050141332321812,
          0.23961733941405405,
          0.1632545170683893,
          0.18182990846185051,
          -0.2461304179061568,
          0.1898057210988248,
          -0.2308610773698809,
          0.24059804184744735,
          0.2197064483947439,
          -0.17099957798800647,
          -0.12507169679865493,
          3.365150014276754e-05,
          0.022330815396836547,
          -0.1296147537124056,
          0.21924680591991383,
          0.1817405641515359,
          -0.2571530820178633,
          0.038103154614388256,
          -0.21382320170605668,
          0.03329844859317906,
          -0.06320350170321228,
          -0.11552089992336029,
          -0.21150419110770358,
          -0.1660741629603574,
          -0.20245912870683364,
          0.26507888033498544,
          0.12092970839604965,
          -0.10050064682780663,
          -0.05887171097055115,
          -0.06759239598475919,
          -0.2825841024838817,
          -0.17644165097907116,
          0.09437559013322652,
          0.045897994657066836,
          0.16309376726647212,
          0.1359109051916083,
          0.026411413209309665,
          0.1378558374374123,
          0.0007466254858788066,
          -0.12946497029182444,
          0.1284582645964751,
          0.11010819802789411,
          -0.0914673635874488,
          -0.15418890665449583,
          -0.013392742825268157,
          0.31401196602989384,
          -0.09836418712400156,
          -0.1270447006958022,
          -0.05389645515352506,
          -0.17206045265530204,
          -0.3870482555727021,
          0.05377346259617423,
          -0.06210370280848954
        ],
        [
          -0.09682524564172318,
          -0.3143205718076233,
          -0.12267799711884267,
          -0.16122480289662053,
          0.07081453048897154,
          0.1364572862584366,
          -0.09565800032019452,
          0.07339664044105156,
          0.22880113788808965,
          -0.06467399145710918,
          0.1047790781055113,
          -0.18098903974345343,
          -0.06264245459153668,
          -0.14078630546476817,
          -0.09250176715443754,
          -0.030623119362891676,
          0.29687756047142294,
          0.04021659027714154,
          -0.29983056203613867,
          0.06021795765311553,
          0.3428387677667292,
          0.05829937240634778,
          -0.05688727726320844,
          0.1882705703992424,
          0.08123596626449821,
          -0.07105316876232362,
          0.09271966504875791,
          -0.1495480343782907,
          -0.13290510038345107,
          -0.13167553656227268,
          0.2491005167152079,
          0.19578347086022765,
          -0.16369603179792347,
          -0.17519323151440327,
          0.10795002910240072,
          0.035192707777690964,
          0.13441623447854256,
          -0.06326392819003214,
          -0.2311192154033359,
          0.18934489728452608,
          0.259773020584414,
          0.02579048219454411,
          0.18486679713187168,
          0.16699053323322666,
          -0.2596895757012547,
          -0.17369471332303663,
          -0.02909551932610264,
          0.1637795926200669,
          0.03107422355574815,
          0.04585142272888708,
          0.0025013261007253737,
          0.2637509994174321,
          0.13220608213639357,
          0.10455001879902191,
          -0.1669066753188549
        ],
        [
          0.0745077813017589,
          -0.09217188635591815,
          -0.22650861018483426,
          0.1811590548376602,
          0.006405746644222925,
          0.17042039970452555,
          0.25309102768145314,
          -0.1042806162529418,
          0.09742110052991279,
          -0.09019896680579959,
          0.1140859198101146,
          -0.1217476911403557,
          -0.14509240237362303,
          -0.12496525809716928,
          -0.11609603759086513,
          0.035032863704408224,
          -0.02805517976626155,
          0.03075938918715863,
          -0.013401552012417975,
          0.02975256638863133,
          0.17143713420332093,
          0.2346281862272897,
          -0.03203860809358245,
          -0.22346206053235462,
          0.07917023367690866,
          0.06501939292371364,
          0.22033580667167038,
          -0.06444918115572146,
          -0.06659819044181887,
          -0.05710537411863485,
          -0.06922022412648103,
          0.16724371519322873,
          -0.08657760023629259,
          0.0664584813114758,
          0.03374814597693668,
          0.034073768061149236,
          0.15788680158416543,
          0.20352550394899974,
          0.17811532227276614,
          -0.09744562401868381,
          0.21169463012284118,
          -0.11870549314685692,
          -0.18453713695802618,
          -0.18686574036053358,
          0.20129377296648426,
          -0.23832974820176714,
          -0.10676896932686565,
          0.1106359603456856,
          0.010061791609736368,
          0.07225916644677184,
          0.008616145242953939,
          0.1729894797951093,
          0.254109136048515,
          0.23963420371709615,
          0.11658251035423983
        ],
        [
          0.22968696239744565,
          0.26231445709995854,
          -0.024573564533854404,
          -0.01068856515564413,
          -0.17795724664271326,
          -0.07022799940361524,
          -0.11000998175271962,
          -0.021687076443588114,
          0.1407947747353083,
          0.104838895557137,
          -0.2634580729633233,
          -0.1516479459649161,
          -0.46868287895662886,
          0.1798196110212306,
          -0.1606293510614974,
          -0.2621682775183554,
          -0.07196128744455058,
          -0.3465808251086726,
          0.27330546265970657,
          -0.04944740823023603,
          -0.15858246908641527,
          -0.07909955175878886,
          0.375172813213641,
          -0.021668179656276643,
          0.027159389927557957,
          0.14178436198263242,
          -0.06362283371207154,
          0.08332227117700823,
          0.14700780648362527,
          0.26212237633407987,
          0.016385416198996708,
          0.3384887189368815,
          -0.32320951473742443,
          -0.05365472230820486,
          0.19158062054861477,
          -0.07601251696014291,
          0.09500986506614348,
          -0.04969329030635393,
          0.17554198872116455,
          -0.00438782863180263,
          -0.10623297117635384,
          0.2176855493182154,
          -0.09778562595007506,
          0.33723010585519403,
          -0.10162214035835701,
          0.042239330980801154,
          -0.036813777972396794,
          -0.048859926815694496,
          -0.1399717053608268,
          0.01411663278574969,
          0.14131018415339375,
          0.2776928703592443,
          -0.11842570980690086,
          0.21132627183945238,
          0.2677091535336802
        ],
        [
          0.23675059488863975,
          0.15823424526479413,
          0.10870045957070844,
          0.16594163849385676,
          -0.18841437215853252,
          0.05285212919372023,
          0.08827804639594974,
          0.04001520455573762,
          0.22987549023212236,
          -0.010575241252835765,
          0.008078311594412737,
          -0.19774140229249576,
          0.0564993833734757,
          0.09787467939119672,
          -0.1337322932023982,
          -0.15968964652185147,
          0.1069386601234106,
          0.1312329123327736,
          -0.036794231865025825,
          -0.04335718043499701,
          0.15173480965659095,
          -0.12512899424880777,
          0.11650701014878723,
          0.013303205764212627,
          -0.07102104196469604,
          -0.06548790034566805,
          -0.2335292170625597,
          0.1442293973345305,
          -0.03084522594732332,
          0.041865262099463146,
          -0.23513669858223726,
          -0.14266434874129655,
          -0.021211442908254507,
          0.1209047709728468,
          -0.21072265692620396,
          0.13188396727780113,
          -0.14622270990861047,
          0.021055151218996083,
          0.01619551411291818,
          -0.20037609952578833,
          -0.1856289869381767,
          -0.0875463325835275,
          0.1261789343372959,
          -0.16268271665901637,
          0.17310068489965197,
          0.23729991008834142,
          -0.22367129439354455,
          0.03172167209513611,
          0.08770765432913293,
          -0.03928974421461182,
          -0.17914920086742034,
          -0.08705330707803609,
          0.024267668602212973,
          0.11920249918942567,
          0.2480672203305136
        ],
        [
          0.007077288837726727,
          0.15187950060228786,
          0.09011760529189776,
          0.1074098628221917,
          -0.46233345860152536,
          -0.07323418558524648,
          -0.5552888800803703,
          0.29873844125724863,
          -0.3250599799666186,
          0.11923001520635708,
          -0.2863714767446322,
          0.2189276933173459,
          0.03989386722575196,
          0.23961578073578135,
          0.2550233910337234,
          0.34893908479574487,
          0.05496059487990396,
          -0.0005323317437233023,
          0.10287180023994709,
          0.09849657842678607,
          0.12033990579232855,
          -0.0029873995169900427,
          -0.27114295180736003,
          0.36260321165832504,
          0.06958119841673402,
          0.30497907574304056,
          0.16560439661545248,
          0.25003511180322296,
          -0.030680398482216976,
          0.27092196579756855,
          0.07848011766814157,
          0.4846537419323618,
          -0.23959223245501207,
          -0.13181836343594444,
          -0.029668202310969574,
          -0.1984063543826456,
          0.2766831368492596,
          -0.04672518841070189,
          0.04608830732064132,
          -0.36499790737882626,
          -0.18766755322679704,
          -0.12934916627787404,
          0.03426831525682778,
          0.08357827577622397,
          0.09084835936936696,
          -0.13843756704692484,
          -0.002980470936348495,
          0.21202165101877032,
          -0.5266245800085819,
          0.2121034153613511,
          0.48463809574440314,
          0.251197437244843,
          -0.40590483324905674,
          -0.07389978278718418,
          -0.14684791196554225
        ],
        [
          0.05298051881356787,
          0.21696540518891042,
          -0.24161420762697894,
          0.02229593130251648,
          0.2438383339344678,
          -0.2916891295387678,
          0.19466480706183428,
          0.006075950651031475,
          0.0594970818363389,
          0.12045829578088597,
          0.09040109264713932,
          -0.19516095129174446,
          -0.3232437857784327,
          -0.17699348811106091,
          0.2757401846438904,
          -0.15074424206733092,
          -0.16022835733463298,
          -0.2444260512826706,
          0.11103526250694033,
          -0.06946043915576791,
          0.006343857560848554,
          0.22631594462209584,
          -0.06003727133269892,
          -0.03050251334724505,
          0.05923021710791455,
          0.11739402709933479,
          -0.10234963895382379,
          0.3379986715561553,
          -0.19005187211024038,
          0.17582002241686553,
          0.2839179306136853,
          0.1019038415610035,
          0.035866865478529825,
          -0.06968868558325489,
          -0.12879906926187515,
          0.04770978566821957,
          -0.07342126402890406,
          -0.11555615570480444,
          -0.11306341702253371,
          0.11800093899476521,
          0.017336376029296108,
          0.056919012876600145,
          -0.1863833918887863,
          0.010684684866528288,
          0.015394379592892488,
          -0.14937420423801948,
          0.2001017148555115,
          0.12051040359509974,
          0.10374454906628154,
          -0.09268927404302378,
          -0.1194626476312731,
          -0.03455848388194185,
          0.2068873780801752,
          0.21260321725292086,
          -0.11410899882582255
        ],
        [
          -0.06454558581482056,
          0.23788130779478828,
          0.2223454588438021,
          -0.014729796612784962,
          0.14518795975417242,
          -0.14554950424879043,
          -0.17138184873988377,
          -0.145732527894323,
          0.10096049582921932,
          -0.05072443398722011,
          -0.016212228691007087,
          0.09103069350153291,
          -0.044763968809529375,
          0.17221483714649158,
          0.09374157712424873,
          -0.1871122242846158,
          0.20048496392394163,
          0.03673293062539076,
          0.09670093337226596,
          -0.022664456204254578,
          0.2238739440863674,
          0.22562389498035468,
          0.014842116381893061,
          0.2261591145986127,
          -0.11125725920787453,
          -0.006151850766607046,
          -0.019857254252543064,
          0.0376455598676896,
          0.14118578798960363,
          -0.0619435400600884,
          -0.22942355641017217,
          0.05019373892729131,
          0.2406869070197597,
          0.1255863974519372,
          0.14699015733978454,
          -0.20186083093557336,
          -0.042268606018177016,
          -0.25100175691379545,
          -0.019541431232923474,
          -0.21120079562566055,
          -0.12575306166244096,
          0.2153139324223958,
          0.18399212712341292,
          0.014599514442766394,
          -0.17204040274839613,
          0.05056133992107665,
          -0.02782606015004643,
          -0.18175822521380897,
          0.25307183991918536,
          -0.20769355697460243,
          0.08232847439533318,
          -0.14208643145687805,
          0.06851281708423232,
          -0.13984958045354703,
          0.22550158937709464
        ],
        [
          -0.19693723960671286,
          -0.012127396656786547,
          -0.07632880287348315,
          -0.07929986884168043,
          -0.20720700736401565,
          -0.11406737329913846,
          0.12955267513848348,
          -0.16587900805864766,
          0.07646371274976291,
          -0.05525279531472846,
          0.2604132786300053,
          0.030340236214955112,
          0.16368657480021137,
          -0.0016075494472428552,
          -0.1416780685950876,
          0.20677044404843034,
          0.17372600470655367,
          0.15323904600583962,
          -0.17919157813350176,
          0.043126848306446225,
          -0.17556039652371666,
          -0.06381059726093205,
          -0.2154923760672592,
          0.1974355546773343,
          -0.08468270913184497,
          -0.3425071499752705,
          0.03373700305984141,
          -0.09329186769865035,
          -0.17657324810725072,
          -0.19970231049529494,
          -0.3067638490639925,
          -0.25406020269928514,
          0.03302362780874777,
          0.032937918982854746,
          -0.15625356269215976,
          -0.0870371804199171,
          -0.23053607275862137,
          0.2142156556392956,
          0.14978969195437966,
          0.025424753983542124,
          0.275757746539311,
          -0.32315332600649566,
          0.22377774606401094,
          -0.15841614585347766,
          -0.22883868218058767,
          -0.08285685420510946,
          0.157036675956125,
          -0.19974750069441152,
          0.22489745918543655,
          -0.17878985530428826,
          0.10312136375913868,
          -0.06601571112257482,
          0.31188395689716925,
          0.12374198985580417,
          -0.012907494607485342
        ],
        [
          -0.14508135923156115,
          -0.15575990807292653,
          -0.16321479500791292,
          0.12888356733357187,
          0.21119315282281717,
          0.047183188858025596,
          -0.0031654636292792766,
          0.25369372606318236,
          -0.08924451214460626,
          0.05708945469069906,
          0.023509653958802952,
          0.1242016606939833,
          0.2302318670875146,
          0.10752069446393354,
          -0.10394570216234168,
          0.15228934250977144,
          -0.11331660222358085,
          0.041970372132979786,
          -0.1989506517723386,
          0.005772114142905665,
          0.016037570060120084,
          -0.15821314060378686,
          0.15028680328131008,
          -0.15167510645390708,
          -0.12153244184745776,
          -0.18363424242782186,
          -0.1846803078825739,
          0.034061537939873016,
          -0.11879656587264215,
          -0.03780922550640208,
          -0.125377854468547,
          -0.21585059577056065,
          -0.12513748429386454,
          0.12582588606763037,
          -0.039395469196218065,
          0.1182103333027827,
          -0.20620051416706692,
          0.256761526347473,
          0.21482255097892836,
          -0.08341155633902461,
          -0.2514098305603801,
          0.0962066023144557,
          -0.1476258022574051,
          0.07814081844346328,
          -0.02219672514027735,
          0.19657417622803194,
          -0.24973152548480776,
          0.04926608348796651,
          0.049541414277431264,
          -0.13593250788567302,
          0.20690466940092794,
          -0.03659133550002234,
          0.10453488673152213,
          -0.0730204662197798,
          -0.2431012614543729
        ],
        [
          -0.23607212781823902,
          -0.12550735584802292,
          0.11962005115580311,
          0.13729609850460928,
          -0.012520315967955421,
          0.3117176492211238,
          -0.18778315356686923,
          0.32413337253705793,
          0.046697711193028374,
          -0.13214158051915187,
          -0.08331395392941444,
          0.03520832048680864,
          -0.251076449197626,
          0.08655313776749547,
          -0.2890158603733611,
          0.2115092282121798,
          0.015533910351156052,
          -0.09952020552279434,
          0.10501639957825565,
          -0.16277195589580232,
          0.2874462735437922,
          -0.048229939697740906,
          -0.0025082687279013747,
          -0.23674557295009072,
          -0.22590437210718872,
          -0.06289026600151432,
          0.16364710963872856,
          0.027110127295525262,
          -0.0963033787186518,
          0.04278333227725509,
          -0.027875053686175703,
          -0.03222480837102531,
          0.30361767872113254,
          0.03066942177086503,
          0.12368628041526371,
          0.1367295100100788,
          0.07713392396463345,
          0.19207856871275453,
          -0.17635948298630988,
          -0.10098610258189021,
          0.1256531189233963,
          -0.037405836859250724,
          -0.2171278293940625,
          -0.04135967777453723,
          -0.12166836737879369,
          -0.13617937235148203,
          0.17424553100449702,
          0.17570128757043807,
          -0.07382612148016547,
          0.040838256336692864,
          -0.04681579740309194,
          -0.03869486343983114,
          -0.043004710454800504,
          -0.08465456563583487,
          0.11698497713169814
        ],
        [
          -0.14320640472790847,
          0.2506084393693074,
          0.09552190421832328,
          -0.11686864861418311,
          -0.07693466180055332,
          0.08116739722668506,
          0.06662077480165271,
          -0.1538342101136401,
          0.1503243909308545,
          -0.20992745588324416,
          -0.0058999901137135905,
          0.15114573252301786,
          0.015190992494047475,
          0.0978356481541166,
          0.016386619337183925,
          -0.08199156383991801,
          0.15159154502895986,
          -0.024974234545537616,
          -0.014990785527784649,
          0.2421392030659721,
          0.22424734181581152,
          0.07894800629842791,
          -0.22460676398366955,
          0.02638277132360872,
          0.1502836278453807,
          0.11025309895885173,
          0.17785693986399337,
          -0.20110901878777263,
          -0.1490637859341231,
          0.03531718998326169,
          -0.1395061586886963,
          0.08809127362715932,
          0.2513553319693331,
          -0.07317704096221227,
          -0.1986584272453629,
          0.1534115202099358,
          -0.059362927735604594,
          -0.037586322124369,
          0.009800527370915748,
          0.11271680837341369,
          0.2472896203434084,
          0.0015841349614096004,
          -0.06877444630823731,
          -0.1215509173674156,
          -0.035911356173389836,
          -0.032597762726938546,
          -0.11862639618346325,
          -0.21477283539591532,
          -0.062090052254173675,
          0.020016022533210054,
          -0.056167765027913916,
          0.09162112279154466,
          -0.017652058706124497,
          -0.15444570692769372,
          -0.01791404034061359
        ],
        [
          -0.16309367072285783,
          -0.008707027884273941,
          -0.2503283373875842,
          0.14157917418303453,
