{
  "layers": [
    {
      "activation": 2,
      "biases": [
        0.0,
        -0.7129609748536072,
        -0.032627681066364767,
        0.31285212735363077,
        0.6348473176246547,
        0.0,
        0.0,
        -0.7922657020412432,
        -0.16464056989745038,
        0.0,
        0.0,
        0.2685380838703307,
        0.0,
        0.36766858927244267
      ],
      "cols": 14,
      "rows": 4,
      "weights": [
        [
          -0.17961013455959443,
          1.0919962552602525,
          0.5019684209824722,
          1.3010056349213626,
          -0.7368009324889475,
          -0.5271818153131101,
          -0.2388739937566081,
          1.7220943785668128,
          0.5589414403989315,
          -0.4598385148779311,
          -0.3601255830118114,
          0.5296974874218118,
          0.16150753725912353,
          -1.0467250764484362
        ],
        [
          -0.3203242197407589,
          -0.08871709327642281,
          -0.07837129358682349,
          -0.6091911467678003,
          1.0767082664420118,
          -0.3275389834450279,
          0.13855887734470507,
          -0.24581588661490383,
          -0.6741156610400598,
          -0.09521618105757358,
          0.3095485045223134,
          0.42975264979671435,
          -0.24378701553159265,
          1.1001379207030677
        ],
        [
          -0.47525125886593367,
          0.8319713222376686,
          -0.14310625751004957,
          -0.8253995079722262,
          0.1788955590860049,
          -0.4902283066923128,
          -0.2719343784931207,
          1.5246604520551985,
          1.0151414380417707,
          0.11659115900384628,
          -0.49891043038584987,
          -0.7334629927408952,
          -0.45085986989358656,
          1.4199460721303019
        ],
        [
          -0.48428379046497555,
          0.174270962838993,
          -0.5496997860139954,
          0.24146409068582697,
          0.042676523505268085,
          -0.47880924174205747,
          -0.09636842880137428,
          -0.3931417955445077,
          0.12021038062516494,
          0.02079574805413825,
          0.24770621514534202,
          -0.15205828235909905,
          -0.45690045686189573,
          -0.3199431683271855
        ]
      ]
    },
    {
      "activation": 2,
      "biases": [
        0.0,
        -0.04332248058994167,
        -0.12465335962005322,
        -0.015988586171429637,
        0.5972478149388127,
        0.39844161462570493,
        0.44967320835767355,
        0.11983299851756525,
        -0.06815291351590053,
        -0.32665686230174584,
        0.0,
        -0.0014575408598275932,
        -0.007586643538456075,
        0.0,
        -0.04248835276238568,
        0.0011469117853441819,
        0.10687296242642111,
        0.0,
        -0.6825156239291462,
        0.04118340957626998,
        -0.011670901093775408,
        0.0,
        -0.08335066329595196,
        0.31664097931032154,
        0.3934174713182255
      ],
      "cols": 25,
      "rows": 14,
      "weights": [
        [
          -0.2765211225896213,
          -0.0713103746627572,
          -0.12382434831898143,
          0.12008674869091919,
          0.1090711848719823,
          -0.25626484350851986,
          0.150152402148318,
          0.07204693895992445,
          -0.12524729308338683,
          0.21185555381966237,
          0.020294521607713032,
          0.09356765117735519,
          0.1560233016689405,
          -0.08986210214694,
          0.14636756881087282,
          0.08343160720596773,
          -0.024222351773849148,
          0.3413504909947176,
          0.3362096655791198,
          0.05866713772258972,
          -0.020799484638449377,
          0.2597904998427947,
          -0.11995365975221996,
          -0.29675840415101973,
          -0.32636385158853837
        ],
        [
          -0.3225691293564294,
          0.13458243828257527,
          0.021290415531144646,
          -0.13080241286984362,
          -0.1937843042670454,
          -0.2950232623695592,
          0.0734974901034836,
          -0.33316912818657785,
          -0.1714975491244046,
          0.391576739160644,
          -0.15205047960741244,
          -0.2598344738113099,
          -0.18015993241429315,
          -0.21811021960349328,
          -0.08528550123128444,
          -0.3875847251950593,
          0.10983066488291772,
          0.28851708605923054,
          0.5254020291203341,
          -0.029968589672092785,
          0.9948698841611111,
          -0.03070185867913491,
          -0.015775254412472812,
          -0.031199015042466416,
          -0.5407755083401224
        ],
        [
          0.015082666450957119,
          0.3070752054712633,
          -0.1407628995575891,
          0.19825646284546167,
          0.16864775276259042,
          -0.20235854080768859,
          0.18854016667192766,
          -0.30052555247286317,
          0.2655620448337549,
          -0.30120679605453965,
          0.2730623590332573,
          -0.08057467298984726,
          0.06642366801367762,
          0.024337127024650948,
          0.0685758616822269,
          0.200391801448122,
          0.19006915813658956,
          0.33134024102551296,
          -0.3383189915516773,
          0.0942068936424396,
          0.15389503257439274,
          0.17152886348011936,
          0.2386648414969027,
          0.04671690788039245,
          0.09669598554326499
        ],
        [
          0.11232844270196424,
          0.01984887569821128,
          0.14719121739096888,
          -0.3090022798839516,
          0.3250985886084079,
          -0.5176345291541838,
          0.7955073828492768,
          0.3840289040377744,
          -0.16281648764878412,
          -0.31957902304236324,
          0.2415060384491242,
          -0.23327263718120256,
          0.08779984562463765,
          0.3280682753322883,
          0.1739009841915302,
          0.28007288668168634,
          0.2797956045264772,
          -0.0783424680776797,
          -0.2776300757138001,
          0.3435419214967127,
          0.5238030622966972,
          -0.02157802093916175,
          0.2219035853097967,
          -0.7133183757630458,
          -0.19156118403378408
        ],
        [
          -0.30201261852377487,
          -0.09326277464423824,
          0.05094921656230293,
          -0.17183403723401128,
          0.6099615102413233,
          0.5706970882570647,
          -0.13887299708697573,
          0.004535553043242864,
          0.18377492500625642,
          -0.0656444679535195,
          0.17245539457253806,
          -0.18721358301334695,
          -0.37694987138983893,
          -0.15775203541420416,
          -0.14641701036858193,
          -0.13322136258596606,
          -0.3242368468361731,
          -0.37036193407121737,
          -0.17141466013874004,
          -0.32021709440330776,
          -0.26611864479495606,
          -0.23918018912730288,
          -0.3437537530201805,
          0.7938874365053923,
          0.6465237660297577
        ],
        [
          0.3439623876722516,
          -0.2211624506308246,
          -0.29452564508668916,
          -0.27236815614385784,
          -0.28992997462396847,
          -0.29338331501420717,
          -0.2432272526015891,
          -0.23715354252167328,
          -0.1385822978580305,
          0.012312443349794248,
          -0.13866076171301164,
          0.050709741701553214,
          -0.27784512397846883,
          0.151687861719501,
          -0.3410890035021399,
          0.14669919874361728,
          0.09438702451076862,
          0.05310335101106453,
          -0.1160415986306276,
          -0.26795386476168837,
          -0.32733728835563836,
          -0.30513287035926057,
          0.025974188586713055,
          0.26975863242113657,
          -0.26630024767544697
        ],
        [
          0.25665027441998584,
          -0.28431461340533254,
          -0.12126608421928092,
          -0.341006184602935,
          0.2406424085586867,
          0.2507264707192972,
          -0.07571365459944095,
          0.024741386689637254,
          -0.07745919884463184,
          -0.1634033259303334,
          0.17272787159291544,
          0.3501377377337025,
          0.17441120431264698,
          -0.0918648767394827,
          0.18398049893094873,
          0.001382326725917797,
          0.17541995485555636,
          -0.21262670605193498,
          -0.13230037085625543,
          0.11032226356218401,
          -0.10798249687499782,
          -0.32345053485557107,
          0.38590302956565586,
          -0.3717092927728237,
          -0.33805882787701436
        ],
        [
          -0.24934632279402288,
          -0.30555419495078084,
          -0.11728163512050029,
          0.0069803921769481785,
          -0.43581733744179707,
          -0.2077464193271684,
          -0.039460245540765375,
          0.023586005685733137,
          0.5401397477352854,
          0.7712229691394163,
          -0.2659267235469429,
          -0.2880251362893084,
          -0.21356010296025163,
          -0.14676755270060005,
          -0.1997630201324453,
          -0.3008585870856059,
          0.3972390648362011,
          -0.38106639715807505,
          0.998939962642943,
          -0.25494998216391573,
          1.533950241988922,
          0.10612671287884431,
          -0.1157536189815812,
          -0.09159524552889685,
          -0.5488827783989968
        ],
        [
          -0.15407156642667355,
          -0.3007315008153618,
          -0.2508717391681511,
          -0.21144453406350522,
          0.07779219747513343,
          0.03933484143529665,
          -0.0654593031687549,
          0.26621721966067907,
          -0.29514745326028685,
          0.8768638680491735,
          -0.33595512453184984,
          0.09224285807610091,
          0.23501051144990062,
          -0.3657427411825027,
          0.02651622057768843,
          0.37010634457404196,
          0.0484729935721649,
          -0.214427963228663,
          -0.04822579831925233,
          0.03811680154989368,
          0.5187833830315713,
          -0.20070186218599684,
          0.03576464470935178,
          -0.20028101101753226,
          -0.4454876929181449
        ],
        [
          0.036631431480094206,
          -0.2233961755345217,
          0.11536373683737852,
          0.28450209911851987,
          0.09213708563350034,
          0.056877109707029125,
          -0.22366034538658064,
          -0.2600794498307337,
          0.34565369842971566,
          0.1643618089908118,
          0.17798489179478336,
          -0.25893950074954936,
          0.10727931430961203,
          0.02588871691690316,
          0.12665565747242344,
          -0.23397927783650058,
          -0.34058567626137454,
          -0.06067868486898525,
          -0.1371030692063656,
          -0.23505815876484934,
          0.3626446879447719,
          0.0013266167167388068,
          -0.20807354640254222,
          -0.38456824175289966,
          0.027338431943084652
        ],
        [
          -0.14019544795517083,
          -0.17223112331092125,
          -0.27801922054252576,
          0.3154052160368316,
          0.014995191139344877,
          -0.32869208774637354,
          0.0946534164509011,
          -0.1188933452957481,
          -0.3426778253330281,
          0.3292764223895894,
          0.22878326734030544,
          0.21308188890346083,
          0.343921411462244,
          -0.26615478437648266,
          -0.33512792110508494,
          0.03101919280113486,
          0.014291488394209484,
          -0.022753874477795193,
          -0.31892854800049786,
          -0.05904813724322549,
          -0.32020980697913465,
          0.3314400227525634,
          0.050827396571010895,
          -0.23508952699186977,
          -0.2191950964801635
        ],
        [
          0.26658603786364304,
          -0.021543298506783454,
          0.35796004320634833,
          0.3845604863542498,
          0.4431634032492074,
          -0.23105002030131608,
          0.18319755434887652,
          -0.15353461761844048,
          0.17728399134322767,
          -0.7199157420015315,
          -0.28480360099998114,
          0.18599506945545535,
          0.34982586381824476,
          -0.24665078384287703,
          -0.04958290362485751,
          -0.3287973357065117,
          0.17809615502713186,
          -0.39013709912109906,
          0.12934884328925614,
          -0.062489499503776885,
          -0.18032143435511103,
          0.029759937352846842,
          -0.04404378356401693,
          0.07915147959241045,
          -0.3823203481545831
        ],
        [
          -0.34991726298060916,
          -0.09516053216370508,
          -0.10311193296700966,
          -0.048350193937386626,
          -0.06387876091716799,
          0.19766484532045678,
          -0.3659941377724101,
          0.34486928636266045,
          0.10488367688354902,
          -0.09226535669950482,
          0.10850444611244484,
          -0.3412305848136049,
          -0.24017544860384146,
          -0.349091766576295,
          0.19236058921743723,
          -0.13741373341119717,
          -0.06424403194097925,
          0.30486955200930577,
          0.059525861338998495,
          0.015044684927457324,
          -0.19121046777284925,
          -0.3131097833491602,
          -0.3242040703823635,
          -0.2951515952057566,
          -0.24950110147486523
        ],
        [
          0.07122160876472972,
          0.14657064088929697,
          -0.13384393017336665,
          0.07569401901135227,
          0.302513848596841,
          0.2738748749392991,
          -0.5032527969268287,
          -0.3276331752198013,
          0.24170136638451853,
          0.8336803139877271,
          -0.24583097325162637,
          0.15612264886621874,
          0.22076123171416143,
          -0.17502205387659603,
          0.2023696231379482,
          -0.04897638941214477,
          -0.2601994061213699,
          -0.17981827007104856,
          0.17287063817719603,
          0.22997367713134248,
          0.17984339570530855,
          -0.24799072158127203,
          -0.00711223707789414,
          1.2682200757349842,
          1.091565151940284
        ]
      ]
    },
    {
      "activation": 2,
      "biases": [
        0.17677369070499444,
        0.6462263684808373,
        -0.0002873713761491267,
        0.3247921205882259,
        0.02255689963595218,
        0.0,
        0.0068404750725746715,
        -0.1287109644297442,
        0.06068987958836324,
        0.0,
        -0.018127134738866544,
        -0.05960603810639625,
        -0.16099939954340167,
        0.4473019873932296,
        0.8365529779699228,
        -0.033022986834465744,
        -0.12991578032512244,
        0.9670629891354692,
        0.03847385102232201,
        0.6738451201050525,
        -0.004112392200724308,
        -0.0005697437212371847,
        -0.01935327562868575,
        -0.10776161960031469,
        -0.08529637712930721,
        -0.21022175318704348,
        0.18018836624875184,
        -0.04591616531918032,
        0.0,
        -1.0201498906625384,
        -0.33518174193626155,
        -0.08847097770022302,
        -0.14459528294553295,
        -0.0820448454291402,
        0.2364354017531517,
        -0.0008204473959307636
      ],
      "cols": 36,
      "rows": 25,
      "weights": [
        [
          0.18944189844847503,
          0.3095588586397724,
          -0.10598242377718439,
          -0.30349425405700514,
          -0.042061509864555965,
          -0.12932232460916154,
          0.25318627203836125,
          0.2186385668106944,
          0.00704144947840198,
          0.24410920423391994,
          0.03144709641932843,
          0.30218029905170724,
          0.24259923027037458,
          -0.14450339736194143,
          0.2200845645792422,
          -0.20989357223776767,
          0.2866865738698772,
          0.08805999244945921,
          0.05073591161685385,
          -0.10693364381629022,
          0.022169887153917642,
          -0.1357311330498106,
          -0.21804290868819542,
          0.2738533566718454,
          -0.08515274885142433,
          -0.2987190800572569,
          -0.17107646748805722,
          0.04899278783821511,
          -0.2037517923828098,
          0.17751775765165492,
          -0.3083682197423593,
          -0.12320224850135246,
          -0.02970956258380241,
          -0.1689506321009802,
          0.20328376827649508,
          0.12543999374338838
        ],
        [
          0.028742625393536878,
          -0.28301732099787635,
          0.1435404284529555,
          -0.029984622356808766,
          -0.016913641150287078,
          -0.0988927375995286,
          0.037347246908638755,
          0.22726968156411934,
          -0.20463635360555582,
          -0.09916963285249676,
          -0.24044110214003298,
          -0.09935400955227783,
          0.239667842504219,
          0.0437879868976444,
          0.06809492237705728,
          -0.02699759546123768,
          -0.1939884676364386,
          -0.2855174101549509,
          0.2857246011004542,
          -0.16248748785246037,
          0.022764772708774597,
          0.07527208860729931,
          -0.25238481299529664,
          -0.1074880138209796,
          0.22248919425890118,
          -0.06219283212821011,
          0.03203181825538023,
          -0.15704217317477784,
          -0.29836152406908406,
          -0.28753028366000954,
          0.2222647804318971,
          -0.10782750053493688,
          -0.03788064464212985,
          0.0074479670400803945,
          -0.0407242279408761,
          0.08260301443802986
        ],
        [
          0.09531468628113013,
          0.021893130877477688,
          0.08028538213151826,
          -0.12861205319021055,
          -0.18522178032816924,
          0.12238686075010435,
          -0.18211944187552428,
          -0.15633566821633493,
          0.20127154301580405,
          -0.14064131857557377,
          0.27661255841988075,
          -0.10321027086048815,
          0.2447412444541975,
          -0.05860035331471194,
          0.09742754758139126,
          -0.24680207769041307,
          -0.04965846568240948,
          -0.3041797976576598,
          -0.035290779869906384,
          -0.30259039853050923,
          -0.014673578745692148,
          -0.06523190436349748,
          0.2605238779471613,
          -0.07201873948268732,
          0.048425417532851546,
          -0.27634929898530997,
          0.17855634607984788,
          0.046086368411077445,
          0.3020002274084388,
          -0.12241001031285229,
          0.16571405085890195,
          0.013229071469894937,
          0.03176983331295413,
          0.10549577079025643,
          -0.03522295137967048,
          0.157870828778896
        ],
        [
          0.17597160707643814,
          0.2395869838247497,
          -0.31259432334698223,
          -0.10114860530370243,
          0.1899088016030562,
          0.20306062124078497,
          0.09877555150189082,
          0.25039502045610135,
          -0.22857394091578237,
          -0.2804597303743702,
          0.11086953450380956,
          -0.30863911467129335,
          0.10485885413991555,
          -0.23131032498284002,
          0.02511502692845067,
          0.002048919049183071,
          -0.11867418156060795,
          0.2169412402590422,
          -0.23325690413150577,
          -0.1768460053234916,
          0.14233089626051143,
          -0.08935054084584915,
          -0.20776973676397803,
          -0.0010451232262842021,
          -0.27830234560306416,
          0.1839387799631996,
          -0.26699757009421193,
          -0.19089282475666478,
          0.010432122970166017,
          -0.1647934221893776,
          -0.3099132961072029,
          0.2057252452998049,
          -0.01163805784317523,
          0.309029269508927,
          -0.12836718243837442,
          0.13388508064227336
        ],
        [
          0.12358267150836497,
          -0.026279378750026162,
          0.07338556917698104,
          0.44247289471326684,
          0.24537267860217882,
          -0.027650992572901364,
          -0.18073193307145938,
          0.16875442875192306,
          0.4291976416070219,
          0.09742372461739998,
          -0.17797911043107756,
          0.0366948110260694,
          0.2269823054307937,
          0.3291818115590576,
          0.2976610337345221,
          -0.07678401845639067,
          -0.30380104782812983,
          0.4466802432240683,
          0.28718056432210276,
          0.4057896620657453,
          -0.17803562714081625,
          -0.10501369139705038,
          -0.09206340974981307,
          -0.037215483050410836,
          -0.04432372548498926,
          -0.304130625014042,
          -0.025312146914237554,
          0.43410409439614905,
          -0.29732273283056077,
          -0.29684061346843993,
          -0.02169424272185566,
          0.01580193354726446,
          -0.12288977096480191,
          0.1876468926001872,
          0.416083443662585,
          -0.2699063527742288
        ],
        [
          -0.23137269639669997,
          0.5462345998885745,
          0.24505073373364597,
          0.3745278526205913,
          -0.07993904634837704,
          0.0620535339471046,
          0.14587713896087157,
          0.11836948702897714,
          0.11117622873450972,
          0.2779138761020258,
          0.07979523731417322,
          -0.20376742453692465,
          0.27701537862793046,
          0.26642967066692735,
          -0.015588880756051459,
          0.2811361295557418,
          0.2184791658222113,
          -0.23730678314644327,
          0.14366151967152505,
          -0.31808585962724517,
          -0.11858092645507237,
          0.009994065870152691,
          -0.09209674454444129,
          0.0640994639335411,
          0.15773125205760932,
          0.25620111468998263,
          0.07594516588756474,
          0.02953529250123664,
          0.19796322402789343,
          -0.31298374781705307,
          -0.013372586489474718,
          0.07322550412968228,
          0.04894181982053145,
          0.18840499531307967,
          0.05291674474610494,
          0.26944202411005475
        ],
        [
          0.14183550056504035,
          -0.07940842923291612,
          0.04360857359152949,
          -0.19101955394686915,
          -0.18012632221032154,
          -0.183085086292866,
          0.1339991848180197,
          0.24466581899580012,
          -0.3855676861405306,
          -0.23259320318210217,
          0.05703498499532782,
          0.05659562198577693,
          -0.16869248545845109,
          0.23511966826399788,
          0.4494867504281081,
          -0.03420111182321007,
          0.09514195185156321,
          0.5551828856595767,
          -0.29285350726807535,
          0.3651345886252961,
          -0.21622783973044668,
          0.08720868000460189,
          0.17883107957391073,
          -0.29589245454986124,
          -0.3131432784264683,
          -0.25498138099852374,
          0.26433817716641395,
          -0.2701317822480178,
          0.2336506520022019,
          -0.12685027299948928,
          -0.34550814879272584,
          0.07319439233332535,
          -0.3249735905278937,
          -0.01902633961141103,
          0.4070231055643117,
          -0.25574681425875684
        ],
        [
          0.2970948892634566,
          -0.2656688062830895,
          0.22796030729047617,
          0.06755080197142965,
          -0.04658851737569467,
          0.17769108210682102,
          -0.22375866210671524,
          0.12944606238486941,
          0.025668217742562734,
          -0.1716655790855805,
          -0.14501724305388128,
          -0.19144974173074575,
          -0.0802157876945369,
          -0.29435739912522735,
          0.04148124493382004,
          -0.26887420080378194,
          -0.09877912577315415,
          0.19906516550595618,
          -0.09165660990172046,
          0.09344157390124631,
          0.14547684690311313,
          -0.3273173237584774,
          0.0027019952312594556,
          -0.22610684094323238,
          -0.09455220851390964,
          -0.11735499827966869,
          -0.2280239421762499,
          -0.015051816652629231,
          -0.2460434989262986,
          -0.13711652888178197,
          -0.26446749211254744,
          -0.26173526098561856,
          -0.16256816362416537,
          -0.26400994745397194,
          0.36235002430170143,
          0.06132614354884284
        ],
        [
          0.11394461546270143,
          -0.17876201388703614,
          -0.23936593858327376,
          -0.10591894358880191,
          0.20615151579654223,
          0.11653755017710253,
          -0.04515141643801439,
          0.21602144898901335,
          0.006012258618733568,
          0.16683396967677583,
          0.18716415981042275,
          -0.14088477289495566,
          -0.19498425440684009,
          0.06744523046540071,
          -0.19810509799943235,
          -0.21170159090204568,
          -0.18489852407844395,
          -0.1829834876292167,
          0.2672585971877457,
          -0.33413371743762244,
          0.008622754398307089,
          0.18785758645492795,
          -0.1583855844461038,
          -0.21455628280766667,
          -0.16479229295443354,
          0.07846177104749652,
          -0.3080536022140024,
          0.25807387408532884,
          0.2064812437772278,
          0.2232947047818175,
          0.22954003609870982,
          0.07000922513576062,
          -0.16949167642169372,
          -0.21961516321901248,
          -0.13505596685013405,
          0.13620388557909627
        ],
        [
          -0.2878645636232698,
          0.24424030693526544,
          0.1640067897900287,
          -0.8968491776716602,
          -0.16531865098708232,
          -0.2552946620010317,
          0.21664973189600192,
          0.0540727622036382,
          0.5075719470958735,
          0.1708129608761383,
          0.041831453567252014,
          -0.0011753189556469174,
          0.23840615122989142,
          -0.6477213379229191,
          -0.5204330573610949,
          -0.20378782795123782,
          0.013022651240444197,
          -0.7765374726048753,
          0.14685752678396996,
          0.14055931429109075,
          -0.29686487751827656,
          -0.052752158660843214,
          0.2776784596894204,
          0.019387511586237922,
          -0.2469899531231685,
          0.29064184981159724,
          0.20316398379106432,
          -0.6667761393848017,
          -0.24425245579991567,
          0.44953036934081514,
          -0.09869199578643223,
          -0.17557169725994773,
          0.17855077074279424,
          0.22367454125227346,
          -0.15294980641506828,
          -0.0533669799249732
        ],
        [
          0.20478431107308634,
          -0.2523004617526602,
          -0.3018457816440004,
          0.10533182601836802,
          0.07585089482427593,
          0.2801953971588872,
          0.20448669319006188,
          0.09566781038997324,
          -0.05173780128609222,
          -0.070037107466418,
          0.2174840989753175,
          0.09146929927965629,
          -0.1256827306993945,
          -0.17905721186174464,
          -0.2591487808579549,
          0.03911664821011872,
          -0.04922171058377524,
          0.11179506323680671,
          -0.09948186000423624,
          0.27728451270805166,
          0.1574803176910255,
          -0.17088265640837538,
          -0.31186733310662956,
          -0.2912424292059698,
          0.24987701023507516,
          -0.08342787869933412,
          0.20351872318347042,
          0.24162286541818775,
          0.20054075591024953,
          -0.09229352993652343,
          0.10039152583512718,
          0.2595126459051326,
          -0.02708380145038714,
          -0.09947153680643958,
          -0.3020365786875771,
          0.21287272333581017
        ],
        [
          0.0889018023061507,
          -0.20362409268201107,
          0.07633764719699491,
          0.21242189123539995,
          0.25389034910197694,
          -0.14932173992958603,
          0.10483842781141124,
          0.24700907329165206,
          -0.18869721593627792,
          0.23467525924932087,
          0.2692206914632296,
          -0.06535511359479416,
          0.22848893631211528,
          0.13120851728771643,
          0.11076798257977706,
          0.07545596730033954,
          0.07353315322535134,
          -0.3013958125972953,
          0.2569860168797323,
          -0.14705294652300863,
          -0.22350391683338813,
          0.1531643935321983,
          -0.252864871047491,
          0.14786838801809266,
          0.24383840773798976,
          -0.2684996013613907,
          0.14466777989431243,
          0.13872350051890747,
          0.27397567384538773,
          0.012011523746768596,
          -0.02225491253119221,
          -0.2678210312559007,
          0.186079923975183,
          -0.19674068699548955,
          0.0058619767391692125,
          -0.08241350510787958
        ],
        [
          0.06465160743539748,
          0.20728229475739607,
          0.2804717698941464,
          0.14803675071163047,
          -0.02923175186607773,
          -0.0230401996450938,
          0.07588947372864097,
          -0.1754932788157123,
          -0.04918229901114086,
          0.03877920234752373,
          -0.18968619981744547,
          -0.10883082988919723,
          -0.12864077001869828,
          -0.18524437926451373,
          0.12640505745547181,
          -0.11145174484790966,
          0.03146767457510087,
          -0.029252643648209585,
          0.2789224063431548,
          -0.14197774273211117,
          0.17020837426680324,
          -0.0031616280617600776,
          -0.28081122703712386,
          0.05930650247660417,
          -0.2596960026403746,
          -0.23595342232029495,
          0.21252866366206816,
          0.053817952494591634,
          0.06654657734325499,
          -0.09683590433237027,
          -0.20000203422598292,
          0.30768849675086235,
          0.04525565836113427,
          0.24150988851814265,
          0.04894220981003087,
          -0.1598701399232695
        ],
        [
          0.27650863076544435,
          0.2320592342207115,
          -0.25127544909008304,
          -0.24914134941988184,
          0.184903183598937,
          -0.22335570360140555,
          -0.18225708977036228,
          -0.10259487005668104,
          -0.027772636780149844,
          0.049253788351695985,
          0.25603460362959424,
          0.10563067913336158,
          0.003734624257070431,
          -0.2309524140930383,
          -0.05813556011090082,
          -0.2317384994781556,
          -0.07638095450577209,
          0.21498856675068823,
          0.19603225327493487,
          0.07636270964180551,
          -0.19532347956620053,
          -0.19731346776903042,
          -0.1649302525982878,
          0.06406055485673123,
          -0.3048810903772515,
          -0.19436429784513387,
          -0.01045066459357464,
          -0.25812140609536977,
          0.061489490344027266,
          0.19283093158489772,
          -0.1452773880472777,
          0.25114239074358496,
          0.18883958222412345,
          -0.20609628544277725,
          -0.26367924602867193,
          0.21979656830328623
        ],
        [
          -0.015078214078917686,
          -0.023734921788296524,
          0.0881015872576371,
          0.20488455572681877,
          0.2712973829025158,
          0.15222797144940553,
          0.2943275757082403,
          -0.0021926076359050782,
          -0.10394530445008472,
          -0.16164278012336752,
          0.23825263853514858,
          0.21718782468819217,
          0.04168560691494459,
          -0.19210746638110787,
          0.17086588917077772,
          -0.23341153516088584,
          0.2453841379993815,
          -0.27294685057318585,
          -0.23195871021383124,
          0.07426222230623923,
          0.2250311425682789,
          0.02355197152597188,
          -0.1647924802747861,
          0.30466278788101614,
          -0.13084232939235244,
          0.03749707566864708,
          -0.014306331798728667,
          -0.18351034178375558,
          -0.25421520040672635,
          -0.09153183578243929,
          0.20737668209589066,
          0.18523072040136968,
          -0.05911092540781616,
          -0.1856486929645125,
          -0.1346790640530573,
          0.24540820761948196
        ],
        [
          -0.15915205905639723,
          -0.2451979891445233,
          -0.2139889771560425,
          0.17243301156249838,
          0.12324736615956078,
          -0.057430405348512285,
          0.26987795908250933,
          0.10461549025738298,
          -0.27577296516864175,
          -0.11024683476132323,
          -0.052211766715055945,
          0.3077032843008792,
          0.3050770771636145,
          -0.11430028700793761,
          -0.18964880729059033,
          -0.12587521020606338,
          0.26613487783638656,
          -0.09090329760311042,
          -0.06639399625625579,
          0.12642088918403746,
          -0.21937742363161142,
          0.042722431664342746,
          0.26899681625695937,
          0.2253325642881284,
          0.07163884698527478,
          -0.17294766516449414,
          -0.2095881176707879,
          0.15661282529080733,
          0.2324550152201299,
          0.2688042076956073,
          -0.2489042864354067,
          -0.025763888025705197,
          -0.26411197416280136,
          0.30523400540993695,
          0.23783524922508145,
          0.0956047320675396
        ],
        [
          0.15084579053011216,
          -0.08218537490464992,
          0.17671801992262642,
          0.1830091079357452,
          0.2381418308479596,
          0.10500146762414124,
          0.095244915370706,
          -0.2598261185496723,
          -0.3404167588450359,
          -0.02190948862981678,
          -0.0009112471821757417,
          -0.1373466545229327,
          0.1134856269247213,
          -0.10381623126110107,
          0.15950097733991225,
          0.20972027503806334,
          0.004983532838299191,
          -0.04900200085365333,
          -0.02986208051719224,
          -0.002346447776366991,
          -0.10054045804599658,
          -0.2081962650637477,
          -0.19094945168527272,
          -0.17138296361911462,
          -0.2859300260152544,
          -0.06256446088591801,
          -0.07588039186498147,
          0.24804675708355592,
          -0.2691093532206999,
          -0.29924726770584115,
          0.15484836525610157,
          0.3201519446980387,
          0.08707494335386894,
          -0.21019404542076767,
          0.2680363900070594,
          -0.18586780992725918
        ],
        [
          0.1359426118313945,
          -0.1786500739719454,
          0.04831616375057344,
          -0.24370861841873162,
          0.1407276098538542,
          0.3052808084047406,
          -0.23676997666328678,
          0.2551817318894476,
          -0.28771993931765627,
          -0.03699711545615313,
          -0.16604007624696784,
          0.2893353163348897,
          -0.21194555483164387,
          0.0781996403652642,
          0.30976514822032486,
          0.12396195939105496,
          -0.1601115694582914,
          -0.05240303080425065,
          -0.22505315096119352,
          0.08368713107771575,
          0.06254796000492432,
          -0.2647492951495314,
          -0.22599331700316794,
          -0.10124827092858234,
          -0.03761566728442983,
          -0.17149562559569098,
          0.1768110881309331,
          0.3057762193767716,
          0.17919789745165907,
          0.2918589790763568,
          -0.01100136103182402,
          0.09322464890471936,
          -0.024137614893558833,
          0.21268638498601627,
          0.31283198822846897,
          0.052429037563309536
        ],
        [
          -0.3357237068514324,
          -0.17589084734197685,
          -0.2390482465101583,
          -0.263298660379947,
          -0.19014419163822435,
          -0.050847312657887445,
          -0.166080121541402,
          -0.3603191876811226,
          -0.45079974324355415,
          -0.20572171807009046,
          -0.005812582422756261,
          -0.2112187993168243,
          0.08886399166210034,
          0.023709212065575375,
          -0.11682457917608945,
          -0.2965569642517759,
          -0.13807619160592827,
          -0.38612230483231125,
          -0.1029330776010303,
          0.30533607526158246,
          -0.028610765791079837,
          0.14005331160763945,
          -0.27108381472449267,
          -0.00858477892310531,
          0.026487299236374235,
          0.0631113637817396,
          -0.28670086970040065,
          0.01834936394946701,
          -0.2756689248046793,
          0.8497970252938523,
          0.41114246399169974,
          -0.03307036865970232,
          0.43155003227020633,
          -0.09185287894308357,
          0.16274043822061476,
          -0.11124153037297306
        ],
        [
          0.17630392761197844,
          -0.10864147855505615,
          -0.14734409386325426,
          -0.18870113017168896,
          0.11641397522555502,
          -0.27621821017514847,
          -0.1996517637899261,
          0.24316733755575565,
          0.10848996936811049,
          -0.16264999627408797,
          0.2498236458189065,
          0.20639338169302315,
          -0.3009428051706879,
          0.005058459858210406,
          0.2195111080825639,
          -0.29669075954364516,
          0.039261962822925815,
          0.029993720995804857,
          -0.05122225631314208,
          -0.05925095331560521,
          -0.19424357604567877,
          0.2274845396500967,
          0.21962876573517967,
          0.2907747970791543,
          -0.22543894028049907,
          -0.011750191131431758,
          -0.0839522749394469,
          -0.3048773848260096,
          -0.2987632817335653,
          0.27947250459394096,
          -0.3178802660965573,
          0.2913598246562427,
          0.12557030425297447,
          0.18343305920543188,
          0.26537658111454665,
          -0.10520107391875638
        ],
        [
          0.24254958276949198,
          -0.4547224853835876,
          -0.25921078258915325,
          -0.9715470464129065,
          -0.31264755565498975,
          -0.1218517804012362,
          0.10738310650991688,
          0.0321066300850236,
          -0.02689498652881563,
          -0.10277737886607621,
          -0.03667210961975773,
          0.048266799987843716,
          0.050456720318640784,
          -0.797129177081963,
          0.5003593636096154,
          0.13193407899531118,
          0.06814241212774634,
          -0.44056027683269183,
          -0.013980970674915216,
          0.5651999097502842,
          0.1844080353618063,
          0.35749948997782766,
          -0.08551320577132657,
          0.0817326838500733,
          0.22720529453874977,
          0.23624053959516278,
          0.29609097098942755,
          -0.7348978944136907,
          -0.17784035765582215,
          0.755192153773467,
          0.49778045118220626,
          0.29711047133898527,
          0.2365875996139312,
          -0.2277083677053005,
          -0.01977548451707095,
          -0.1131078881746326
        ],
        [
          0.0756454622242383,
          -0.1669928049105996,
          -0.2957610117313889,
          0.2809199516935435,
          -0.10165312003197594,
          0.008534127565606044,
          -0.06444170322054939,
          0.0499486900169435,
          0.1324927234395791,
          0.06722610535055518,
          -0.31328294311722893,
          -0.28456925074699363,
          0.16553088582273257,
          0.0666994636601921,
          0.08464761404220217,
          0.04461187599034703,
          -0.22445400124187306,
          -0.21310962441223683,
          0.13490825153847782,
          -0.15545533465674333,
          0.2985434402358532,
          -0.26179044023589026,
          0.055037407600326355,
          -0.09137122028404909,
          -0.07012585869353821,
          -0.0009128900229198985,
          0.14488509747633652,
          0.2915537885700101,
          -0.11641150949040309,
          0.09111355948263582,
          0.28289331990718675,
          0.02764562665980053,
          0.25287062689548867,
          0.20636754022174342,
          -0.2920364517378185,
          -0.23195803078046656
        ],
        [
          -0.06126344640327229,
          0.29513153664030267,
          0.1013077139478505,
          0.11030682943239693,
          0.14505732419148973,
          -0.2071790397232937,
          0.1893013982466098,
          0.22702663087302305,
          0.06665614895231539,
          0.19181584167012208,
          -0.20952048807811918,
          0.025965201106032305,
          0.2225095294367126,
          0.12201257753528638,
          0.07298474960179278,
          0.22761931246466022,
          -0.11660907446019281,
          -0.1325594461673396,
          -0.10594058945843317,
          -0.23844803401377362,
          0.24646459473288787,
          0.24742558350833657,
          -0.18022018442185544,
          -0.16798135179630094,
          -0.002466518585573778,
          -0.2899216085639628,
          0.10040462926523017,
          0.06714805790937443,
          -0.13533970939031043,
          0.22568095941467345,
          0.032450171559764866,
          -0.15218600852847966,
          -0.2503346304942416,
          -0.2735179682634926,
          -0.02326797034477869,
          -0.15957384397801827
        ],
        [
          -0.3336360147896638,
          0.8296349297152704,
          -0.30513250667068026,
          0.4962985165208048,
          0.09162156136576119,
          -0.19310314236155485,
          -0.23200885750324224,
          0.13259779902518423,
          0.7249052810868111,
          -0.21639673236374796,
          -0.03423955313580137,
          -0.2773779234446339,
          0.39684722045658877,
          0.3653304183500145,
          -0.42938343108983446,
          -0.006073898688109194,
          0.2488258199611519,
          0.24229350253822093,
          0.5969820724673227,
          -0.24923919276552434,
          -0.030855176704641347,
          -0.2328099306573809,
          -0.02626103332186987,
          -0.06560949716476273,
          -0.09157337862050115,
          -0.05817691376224314,
          -0.33249394920364334,
          0.5075854135687853,
          -0.245820996232448,
          0.1817267591853679,
          -0.012334000816149496,
          -0.19834636661129407,
          0.4972309506397608,
          0.052605777010861714,
          -0.23214959082702064,
          0.16056588429686372
        ],
        [
          0.05961757035747383,
          0.8662677344686612,
          0.03435436426050666,
          0.6642058092437012,
          0.17627110682068894,
          -0.09276435018273882,
          0.2183052267963899,
          -0.10256018834615477,
          0.3771076760458158,
          -0.18410144824245492,
          0.003894940132014824,
          -0.31420565372831527,
          -0.11217777640746654,
          0.3710330744764654,
          -0.5311613601519342,
          -0.22730515709967908,
          0.20030062688850284,
          0.1111782404468606,
          0.11837681578976857,
          -0.5217580862127743,
          0.19627893564099674,
          -0.02658494627525947,
          -0.2241697951894801,
          0.016644255535325985,
          0.08320478741369168,
          0.013366704017046434,
          -0.241347743087047,
          0.3210571779826399,
          0.18258373020106716,
          -0.21985055240417223,
          -0.4114508272049287,
          0.24971402907275372,
          0.18973200204847113,
          -0.25360694254639626,
          -0.14164490415667222,
          -0.06883202667858415
        ]
      ]
    },
    {
      "activation": 1,
      "biases": [
        -0.06293005094542753,
        -0.24789659376962592,
        1.1842569365187683,
        -0.29574685180377075,
        0.47139055781110284,
        -0.4479669289984539,
        0.540733573605105,
        0.25780544061948985,
        -0.4752139321367552,
        0.3077328218654635,
        0.5043217686423932,
        0.03779475241782173,
        0.031730376219052434,
        0.3908069066586878,
        0.10904353591634132,
        0.0833816082768126,
        0.2484361206912531,
        -0.2223698696373097,
        0.13459680971415494,
        -0.4080361739985394,
        -0.393105972667778,
        -0.07330518271711149,
        0.19526104947778491,
        0.10856219458969148,
        0.2499288556965187,
        -0.8608092194929632,
        -0.3585016658824407,
        -0.8300854988464328,
        -0.6095590507751472,
        0.41295029105935854,
        0.2676639691575137,
        -0.06830498975911072,
        -0.17882601383810784,
        -0.5457243949855334,
        0.38277576091364696,
        0.37289953662270175,
        -0.5764864459547194,
        0.09614006680099364,
        0.2950840667511893,
        0.06405144760501369,
        -0.42590490614323057,
        0.8501537587804346,
        0.0926285914765017,
        -0.1445700680113957,
        -0.19751377387296976,
        -0.3235465737189727,
        0.23783736127308755,
        -0.7669854442419267,
        -0.2782006119640379,
        0.44368966632719653,
        0.19031786970368358,
        -0.6293475461043787,
        0.26351762509958676,
        -0.5184170657497882,
        -0.5837525148122333
      ],
      "cols": 55,
      "rows": 36,
      "weights": [
        [
          -0.27688720049077126,
          -0.21873930061286878,
          0.08803932180965642,
          -0.15075179699781374,
          -0.07218425655959045,
          -0.14441063022183223,
          0.09321738448403472,
          -0.14577616200677246,
          0.03885540062129897,
          0.25716713533022,
          -0.018768186838137874,
          0.04937285371185217,
          -0.20611696572724836,
          0.24691180274835783,
          0.1227225561225852,
          -0.19480661895688722,
          -0.010152950194842258,
          0.20316069252834756,
          0.10976374012591876,
          -0.05117513429827873,
          -0.005015060711679368,
          0.10667205960546536,
          0.17915259607556588,
          -0.05632778796731203,
          -0.06469898537508514,
          -0.28251728870467785,
          -0.3312464240323362,
          0.07039387263792307,
          -0.23830341236031127,
          0.054051426728036256,
          -0.20903053425419058,
          -0.03414929189741122,
          -0.0836976457698194,
          -0.27141040686009477,
          -0.11212363344041154,
          0.12334915732437146,
          0.10164686594110565,
          0.3435919019196716,
          -0.002807985960749931,
          -0.11400330502582784,
          -0.15282451564948468,
          0.04755343811053687,
          -0.10699881570504399,
          0.03428295881293356,
          -0.2156320477343579,
          -0.030305222015101167,
          0.1555475522431703,
          0.0839598177531475,
          -0.0460268086237974,
          0.09267401561093512,
          0.05347121238908834,
          -0.31273746276298015,
          0.02148640282745048,
          -0.09847095353409628,
          -0.01739988966773787
        ],
        [
          0.14820367001636003,
          0.13839846699636885,
          0.7077002634272509,
          -0.00032823944619620187,
          0.027678137435391707,
          0.225168975188881,
          0.41872924378254145,
          0.2114747972567134,
          0.07317544949245032,
          -0.17664566386521036,
          0.10828375358303467,
          0.08184178539066038,
          0.28861531258223916,
          0.028999292406129636,
          -0.2132567919172349,
          0.25139396340555964,
          -0.38689004594765947,
          0.022407544255554527,
          0.27694583587263677,
          -0.25240629637818285,
          -0.3617470436103164,
          0.16571159923250142,
          -0.05193414691065209,
          0.23262257592077157,
          0.08319147269444076,
          0.017440571958195192,
          -0.21196268409997687,
          -0.02494022017547102,
          0.06185034857842647,
          -0.45348667774124685,
          0.5815320207665197,
          -0.26335900539931256,
          0.25348401952563065,
          0.02664259456327014,
          0.14164729414819227,
          -0.09053649341625353,
          -0.3981951642279563,
          -0.29946264393149086,
          0.22722769613521424,
          0.47837418040650126,
          0.1430832845438949,
          0.10707146389837914,
          -0.321548707967671,
          0.006897536116072874,
          -0.14269035978574104,
          0.3636935736783972,
          -0.017648407160121803,
          -0.43935371823664005,
          -0.004190533284054425,
          -0.1402127179287564,
          0.08845773407010482,
          -0.0247654281851299,
          0.0823257595347117,
          0.03385450232927557,
          -0.04258220952464655
        ],
        [
          0.12378369334716506,
          -0.16234511319193085,
          -0.016248314642568314,
          0.2396122020849755,
          0.0653467117146152,
          0.1990402139780053,
          -0.043922586026702716,
          -0.014049610947841216,
          -0.23479942033543075,
          0.11384976279176345,
          -0.09914842154592936,
          0.10637633771931876,
          0.2528167585531136,
          0.08708004207080364,
          0.13442818242911397,
          0.18419489015844798,
          0.14738341146425046,
          -0.11417252073908064,
          0.20194518084885033,
          -0.19692169263908085,
          0.12382704996792897,
          -0.03650435672272279,
          -0.1799008127382571,
          0.07627517121386915,
          0.21115142855959715,
          0.1566921087660199,
          -0.2125581427866416,
          0.0006321389208577662,
          -0.08065373530055865,
          -0.036605349093452186,
          -0.15111557187812283,
          0.0009654153560704493,
          0.25267357972403687,
          0.00248468386023513,
          0.1763502244670155,
          0.015606007730358308,
          0.03354161078701774,
          0.06491492122637751,
          -0.24706671576533215,
          0.21078964430950328,
          -0.12168088432595393,
          0.025212684036410967,
          0.18818576413757265,
          -0.09296317239746434,
          0.24233058283357597,
          -0.02138128769220755,
          0.1362416275164955,
          0.08878015493622074,
          0.12199120041479708,
          0.13219506138255824,
          -0.19853731809026742,
          -0.08255752325569553,
          -0.20213466783019604,
          -0.20699281814926732,
          -0.16529543828877272
        ],
        [
          -0.29432430068019,
          0.19416790446517374,
          0.27487044884477513,
          -0.17261109272246203,
          0.4054396533155675,
          0.20094681256427085,
          -0.2320070148167225,
          -0.36456798057069245,
          0.06645406982448966,
          -0.16500551063330826,
          0.13609335915560133,
          -0.167459073546789,
          0.033655080137668866,
          -0.161395192003046,
          -0.2513621013284244,
          -0.162996332194665,
          0.08460637265246271,
          0.15263568510128112,
          -0.08438161614016321,
          0.17489796897669774,
          0.20340135991658506,
          -0.48011970278622934,
          -0.02506935601994402,
          0.03193606860908974,
          0.1476145900444333,
          -0.01603095550256501,
          0.16458358027806588,
          -0.029698499901378236,
          -0.07241743409146094,
          0.45583886309487204,
          -0.18733513793235373,
          0.6205107258570361,
          0.04545885648794106,
          0.47423381542682674,
          -0.3745601716270483,
          0.30188648058060014,
          -0.03013334109389609,
          0.40406536902323964,
          0.2640737201629417,
          -0.01393423703234014,
          0.07288570087405151,
          0.42549442210987876,
          0.473140495292314,
          -0.13952496384085716,
          0.06754468342246643,
          0.00887167483189562,
          -0.32852924339038614,
          0.5754941374570037,
          -0.0749294720927057,
          -0.11912138821841464,
          0.09359385392060285,
          0.3060901311202532,
          0.060923654808059405,
          0.040877094175877454,
          0.45235606795588923
        ],
        [
          -0.16598110671065422,
          0.20612797940763158,
          -0.13702276415555495,
          0.19692187101581124,
          0.12838539696965176,
          0.032523970763337136,
          -0.0718704022483159,
          0.07113632479054469,
          0.23448010992569682,
          0.16117131939469606,
          0.1747490848766159,
          -0.2302564527758279,
          0.1556454944597528,
          0.08278552630794143,
          -0.0005146915348111864,
          -0.0077315778103198875,
          -0.07719568495273246,
          -0.16794973054326445,
          -0.24046211809384796,
          -0.14328544466645513,
          -0.03957448452993121,
          -0.24598155104673386,
          0.08299203230049823,
          0.01233581804219464,
          0.028311492047075528,
          0.014773834070976157,
          0.027757913749737656,
          -0.14758289420746157,
          0.121009126743528,
          0.18183211046298178,
          0.06676966753163795,
          -0.011654499571220816,
          0.07342793717718156,
          0.2699535265718877,
          -0.08493363254130364,
          0.22153839942188314,
          0.06356895376249114,
          0.14043941398604695,
          0.21050378628419006,
          -0.16867100465517124,
          0.20635420231153825,
          0.14842846343739868,
          -0.05318754957123519,
          -0.12799739040061897,
          0.17117763740227382,
          -0.23010620445987404,
          -0.24449244398592868,
          -0.048755935007132864,
          -0.1719514315622206,
          0.08215927092231722,
          -0.01754129841158342,
          0.20869481873035647,
          -0.2849215077368913,
          -0.060287838586319344,
          0.1779641093389328
        ],
        [
          -0.2344650240058015,
          -0.15668853113948683,
          0.04740527945626144,
          -0.07162168080976093,
          0.08508180707993021,
          -0.004782991320129767,
          -0.1414403730731976,
          -0.07374697179672231,
          -0.11147202004735798,
          -0.2210951138894224,
          0.2513556634661049,
          0.0935889244569305,
          -0.04484324136721684,
          -0.19094459693196106,
          -0.16938397907244981,
          -0.14753347261729838,
          -0.03833486676348884,
          0.08757608297288896,
          0.17565182198554247,
          -0.21675271949179145,
          -0.21560016263043974,
          -0.10331026732525898,
          -0.23335349498803545,
          0.03338529720424643,
          0.13339254930376893,
          -0.21637329892636636,
          0.01743592849268884,
          0.21878904527446688,
          0.2228735630440618,
          0.22833077752561776,
          0.03331933478754674,
          0.21217487850967282,
          -0.17975125692741342,
          -0.09404106055758904,
          -0.1126519036148558,
          0.013252779416922779,
          -0.09274081704256941,
          -0.2001179741759855,
          0.22541724438776223,
          0.17763988087044696,
          -0.12053033313372327,
          -0.06300383323760683,
          0.019443275818458186,
          0.0007054198954497018,
          0.2487420521080705,
          -0.15390893305899028,
          -0.00965844827914085,
          -0.2300134119833884,
          -0.17751445255668677,
          0.06003376536080086,
          0.19230840546953393,
          0.2352012884993266,
          -0.20333292851124798,
          0.2333171105561347,
          0.21077363570874758
        ],
        [
          -0.16374376641017852,
          0.03954852971156491,
          0.21953875227590472,
          0.011931067637956448,
          0.23413528242152634,
          0.23270468237751452,
          0.051391825784181035,
          0.2652444820164811,
          -0.0741278705708994,
          0.1149728149206512,
          0.05866312739548127,
          -0.06339564028515308,
          0.21605340373061077,
          -0.007277324903611473,
          -0.21144962446346838,
          -0.15956358847802832,
          0.22077959353806823,
          0.058516868855486605,
          -0.22897511166110723,
          0.1632536201774167,
          0.042561118384433515,
          -0.004573945993922038,
          0.04187941430846683,
          -0.19287080611738305,
          -0.23937518959715096,
          -0.12150346673332038,
          -0.18658443321573412,
          0.14606240176068497,
          -0.02211443360827541,
          -0.2243388051359353,
          0.24352311272252838,
          -0.09045190203031242,
          0.15029228933573638,
          0.163528280898045,
          0.13126683337194636,
          -0.13570721285506726,
          -0.06754610876904059,
          -0.1277083593823337,
          0.10693431647174817,
          -0.1998375572701644,
          0.21549699994442875,
          0.04218988262127585,
          0.1541557283100008,
          0.046931535509166365,
          -0.22276579073700703,
          0.010333831937678584,
          -0.04260565950123183,
          0.18167288101541582,
          0.2595413216888951,
          -0.14083108364829142,
          -0.1719681338244815,
          0.2070270694623623,
          -0.2333711831802496,
          -0.12505468711017967,
          -0.020048701086905648
        ],
        [
          0.13359926801671082,
          -0.09495098335670411,
          0.06154004029226656,
          -0.18246598747947476,
          -0.15170382176653674,
          0.049605811497106356,
          -0.03840740224741054,
          0.2253716604367515,
          0.16779740053062694,
          -0.017112003122050926,
          -0.07137961410211884,
          0.2536266260140891,
          0.1564996271995212,
          0.13071720879985488,
          0.1627318801952691,
          0.0668721734735606,
          -0.20750148876816557,
          0.0120384013957232,
          -0.22846632385287488,
          0.09234636359378519,
          0.16082994261352812,
          0.17803155103432622,
          0.20631044429629863,
          -0.16365118609273277,
          -0.03738238187992159,
          0.08580222100747434,
          -0.19034397245262505,
          -0.2443319079440686,
          -0.04715554830221906,
          0.2537000909254789,
          -0.14736614910729842,
          0.0866580789357468,
          -0.021613875243372493,
          -0.09288745582752898,
          0.24161591295774001,
          -0.021867290505022167,
          -0.09082272379180709,
          -0.07678257912955827,
          0.11494034745536058,
          -0.24818530050369503,
          0.029515768157482015,
          -0.16168625883677445,
          0.006602261985077364,
          0.14479167842898627,
          -0.008386614129335264,
          0.06296426911641725,
          0.22375823190323654,
          -0.20096869584884,
          0.14601473600672227,
          -0.14782583439505015,
          0.02233405081396691,
          -0.13075679262018997,
          0.24292891365331692,
          -0.1207166128517731,
          0.20700646603824077
        ],
        [
          0.36249568935440346,
          0.026206008151462474,
          0.3363666820687077,
          0.15535165840724238,
          -0.4430248721399081,
          -0.11723349169056095,
          -0.12005114437203661,
          0.5150326590918126,
          -0.044694622054360235,
          0.16839571131550168,
          -0.17983374034298785,
          0.24554887939489406,
          -0.28673768866534755,
          0.16851706389758483,
          -0.16271111486493728,
          -0.12187530622786721,
          0.11546534450965927,
          0.10531734480007422,
          -0.11924242873096644,
          0.03740021851703137,
          -0.20550453254642653,
          -0.06244919718853012,
          -0.1719643016661709,
          0.24767769953485094,
          -0.02793469570239014,
          -0.07689959870369084,
          -0.07597329293084776,
          -0.17238938169604598,
          -0.005944190282406093,
          -0.292914670109975,
          0.2882698273679339,
          -0.22408419545845606,
          0.035454382561814074,
          -0.2350526880841127,
          -0.07417557988364719,
          -0.22343331518796072,
          -0.03369225640116798,
          -0.36450945962660736,
          -0.034219800699196216,
          -0.12510982058783063,
          0.05218236184055795,
          0.09761907515023686,
          -0.40967196525861155,
          -0.13286680905735415,
          -0.10517132815127993,
          0.20647790863820667,
          -0.011317143507561207,
          -0.5097517177852537,
          -0.28858421203635837,
          -0.05095260422454994,
          0.052522991577301205,
          -0.1169203899811609,
          -0.1155507615460247,
          -0.27459377970151394,
          -0.051222758981215435
        ],
        [
          -0.10316917093472203,
          -0.16544774652784933,
          -0.2351829030569951,
          0.19077097250633188,
          -0.11392534916572016,
          -0.10514080749036721,
          -0.00449490800413165,
          0.027987267628417183,
          -6.902020026609594e-05,
          0.09576427470766057,
          0.12208968318182581,
          0.07246195657714925,
          0.007529714610270997,
          -0.10002268019774306,
          -0.09547483354588059,
          -0.09957096809507171,
          0.08293066895565905,
          0.03496782509155766,
          0.03471228942025976,
          0.037142328781162755,
          0.22775397071166342,
          -0.1427517668026284,
          -0.11416963968340724,
          0.18385944205899196,
          -0.0623264398960807,
          -0.19528697602453213,
          -0.21239076881474767,
          -0.16370854839499926,
          0.20946004187695788,
          0.1106244605063126,
          -0.055398776002486806,
          -0.25005366345632163,
          -0.24248054525062973,
          0.012596329136720217,
          -0.16529827013874082,
          -0.17562133167568936,
          -0.021742461461012393,
          0.08193814586589794,
          -0.24558220435835781,
          -0.1898020890381333,
          0.08135136947941783,
          0.2168706975893683,
          0.25315061601899275,
          -0.05727505342593644,
          0.09941134732095652,
          0.013693257605636657,
          0.01838586262275577,
          0.21094553998913032,
          -0.19932027445464714,
          -0.1117723933264458,
          -0.19195727343761224,
          -0.2502508359122956,
          0.041165613158421696,
          0.22562512392883532,
          -0.09008279829241292
        ],
        [
          -0.2107948863990789,
          0.20689391496068973,
          0.09544066456390361,
          0.17883121400000088,
          -0.21906326672784576,
          0.03269820489525255,
          -0.053527180935856296,
          -0.03221611394805667,
          -0.13307488545073623,
          0.03638907335204557,
          -0.19467297665330355,
          0.23488961024636987,
          0.2178561571538819,
          -0.22340733755473657,
          0.20648273079051963,
          0.1785654318057013,
          0.03417929268731386,
          0.19996825736489823,
          0.013705603306396322,
          -0.2289298461096463,
          -0.16008466289158843,
          0.08874050204609712,
          -0.21646311170998178,
          0.07957771112959093,
          0.12697935030680949,
          -0.07381194389035321,
          0.052240191456351365,
          0.16500764291451567,
          -0.008197846006453553,
          0.20514865256961473,
          -0.01649509632806174,
          -0.25104741439233225,
          0.1826462715738944,
          0.12267387667534199,
          0.15166785935038662,
          0.23276171224042924,
          0.22381245650501727,
          -0.21340250590802995,
          -0.07788833855872809,
          0.18486484859942368,
          0.19531675386084282,
          -0.25026649589236216,
          -0.08057322697501397,
          -0.22431118055710927,
          0.2197654069927296,
          0.07082544413117678,
          -0.1473598770134659,
          -0.20559572278422694,
          -0.07233360436473102,
          0.016944484093336296,
          -0.08845522826461605,
          0.0297085239250601,
          0.11516858346390123,
          0.008993325697703896,
          -0.06874912979728713
        ],
        [
          0.0778732190548498,
          -0.19529093047339188,
          -0.021874167893936817,
          0.07645712856405464,
          -0.2542062259022822,
          0.09182153772359229,
          -0.020825969067529218,
          0.15092118323286355,
          0.01188956061679804,
          0.23275009562405885,
          0.10771448548435729,
          -0.04480628359599863,
          -0.1606843992125675,
          -0.14939899104435184,
          0.10562671525800554,
          0.06187508038489987,
          0.2098744056603638,
          -0.1290431155326506,
          -0.24707203638755798,
          0.03517787898562345,
          -0.11009575481210992,
          -0.07129978262318099,
          -0.2173553304652314,
          0.21505373461227634,
          0.05859296389121144,
          0.20503740523348082,
          0.08900781819732045,
          -0.09845695719677085,
          0.16356138083465946,
          -0.16728190457021433,
          -0.04808220755731575,
          0.13754295250996432,
          -0.1368335622836882,
          0.027602853150044498,
          -0.08127045417738636,
          0.18401967160789248,
          0.20386759966073956,
          0.2553449762978601,
          0.22441007167629495,
          -0.006459871321504479,
          0.06068611510517473,
          -0.16973086103620702,
          0.12126497007599452,
          0.21440994582511486,
          -0.09022215310400467,
          0.1326978766322056,
          -0.06739601453297696,
          -0.019907785641117157,
          -0.10705139736518647,
          -0.19930745399084565,
          0.0410342365018444,
          0.11765159823522518,
          -0.23974953114007996,
          -0.17434509574850615,
          0.2479885433917013
        ],
        [
          0.11170941723316512,
          -0.2312253059584146,
          -0.3048153124890451,
          0.180796623644785,
          -0.41339446223611626,
          -0.10548033488484701,
          0.013666382427387045,
          0.010145430570648477,
          -0.05489433529527637,
          0.12090337329725111,
          -0.060436539118309075,
          0.05009241015231732,
          -0.06477478228544478,
          -0.12095056174186834,
          -0.22693285308904035,
          0.030348775537539716,
          0.04011760685194046,
          -0.17368902515234638,
          -0.19034823705295012,
          -0.22555095157327096,
          -0.019651664522920016,
          0.15474156042064532,
          0.1353432568473338,
          0.17555967817513,
          -0.12741731352412686,
          0.21155113565678305,
          -0.15842550508925543,
          0.20047491001798806,
          0.2042682508493282,
          0.10169606260979384,
          0.09886578930114737,
          0.10425433611235599,
          -0.05859294846104271,
          0.2719906550356331,
          -0.1356901955615789,
          0.12543294559598414,
          0.030854154254758258,
          -0.2980456923512621,
          -0.19494546473584531,
          0.08227022198956606,
          0.23858250632340908,
          -0.03388342587815024,
          -0.25607878408467805,
          -0.16599070403335092,
          0.05280590789977517,
          0.13997514762853125,
          -0.09863083740933798,
          0.0015024940077144127,
          0.2048222836429617,
          -0.23246908881810419,
          -0.20713259394264577,
          0.024576790966445067,
          0.2407943961161506,
          0.0004226995935074015,
          -0.10537731318829258
        ],
        [
          -0.18031495346941367,
          -0.01345566081036849,
          0.15793949941901267,
          -0.2833898952706239,
          0.26798550582863134,
          -0.09069437968324173,
          0.04169484873737038,
          -0.11388523402393406,
          -0.041664848823411135,
          0.05967726018031641,
          -0.08094478123584266,
          -0.07194973216973119,
          -0.04001206074405334,
          -0.04993550752343338,
          -0.2160173158340842,
          0.026343878214621974,
          -0.010782851860715507,
          0.07271929547691117,
          -0.18914526614798705,
          -0.03318232463377244,
          0.20936446329736214,
          -0.42654141522623207,
          0.051025958073117564,
          -0.15038716483201828,
          -0.2599198296231251,
          0.11426558166850723,
          0.13222978957451506,
          -0.04028850769783822,
          -0.017669765715379634,
          0.14438247395247306,
          -0.3995652865756334,
          0.6292200476977577,
          -0.03935203803624052,
          0.31152449775753155,
          -0.08030116030893322,
          0.40889603123051416,
          0.17558982972167486,
          0.2027433712369601,
          0.008452491903580004,
          0.1763238762546732,
          0.04529919518504243,
          0.39434694671444387,
          0.21747028909286217,
          -0.027594404330737274,
          0.07906344844517266,
          -0.1370014589566663,
          -0.1335470471220666,
          0.4972654738942676,
          0.16788509214688518,
          0.3039071837178332,
          0.3624817422795064,
          0.06265867552171143,
          -0.3331574029624644,
          0.02586839600613864,
          0.2866337219846035
        ],
        [
          -0.07377871386894447,
          0.1302144347940733,
          0.1325862449321594,
          0.08985822126750127,
          0.6033969347515176,
          -0.3473664375997233,
          0.38529483524195784,
          -0.0665186452033088,
          -0.2212420109724578,
          -0.041287451825580475,
          0.11716089166753589,
          -0.09148276061893647,
          0.0890819137370999,
          0.21768180667807144,
          0.052505875877061355,
          -0.0512555256414522,
          0.33513164821419716,
          -0.22844521821155878,
          -0.0339137533405168,
          -0.23720276023688594,
          -0.2603125130274592,
          0.05002242014925521,
          0.2653098247804944,
          -0.05643922364507162,
          0.223349940683463,
          -0.3416190177574541,
          -0.1562119729847509,
          -0.3299992793292232,
          -0.005198562313633396,
          0.31903089184054634,
          -0.09081790435668873,
          -0.0694502816346213,
          -0.12203511716465247,
          -0.1179434263701196,
          0.10866271048980873,
          0.243976134481421,
          -0.23520908329183518,
          0.426785996713356,
          -0.17297937262224694,
          0.08784857405904391,
          -0.14725504971326947,
          0.2412585236905345,
          0.41982797585096404,
          -0.04204932333159844,
          -0.24441738813770628,
          -0.30952642642141914,
          -0.008300425051050069,
          -0.4736535222930128,
          -0.2512313211401649,
          -0.02304576989427183,
          0.07879901423769554,
          -0.4479098703616838,
          -0.16097558281084093,
          -0.1738046069727984,
          -0.44022880535776315
        ],
        [
          0.20755618288617086,
          0.017784453294279107,
          -0.21955672473099624,
          -0.044130588133348324,
          -0.07694957004855284,
          0.15466758038708733,
          -0.16419203312156566,
          0.028059690153297883,
          0.13576253622281548,
          0.14172742302416352,
          0.22605564598439692,
          0.23895044210893274,
          0.07205313523595329,
          -0.12013864935312629,
          0.24390357006708496,
          -0.21468928005146695,
          -0.05822158609424315,
          -0.14454654956004093,
          0.0014237412088359163,
          -0.017930400590868822,
          -0.2445685536771707,
          0.2190935864905312,
          0.12958483362224565,
          -0.14143786361179642,
          0.17371064592379712,
          0.05349257498713121,
          -0.2530783579952166,
          0.1937297393223936,
          -0.24324212233479173,
          0.1564137693529832,
          0.1966609367957743,
          0.2005288319048789,
          -0.2200725186216768,
          0.13163866699146562,
          0.18083652106645537,
          -0.22529027056745343,
          0.056790412714614956,
          -0.06418402941987886,
          0.14207419534633195,
          -0.2361508523924132,
          -0.2401588850932024,
          0.1324149665081407,
          -0.21835140977375908,
          -0.21941497191020437,
          -0.07641175747509636,
          0.1766044997974343,
          -0.24348617511760645,
          -0.05891923008155993,
          0.14140795231835,
          -0.11401844729440887,
          0.06676324835032887,
          0.1642946117632853,
          -0.060926679247218396,
          -0.017741396598330142,
          0.2074383871256645
        ],
        [
          0.14239462859856522,
          -0.2446371905758734,
          -0.0651322137591262,
          0.18999406246399855,
          -0.10542698306340605,
          0.09221869462759077,
          0.13233491580331874,
          0.20323705629556768,
          -0.20906948371208234,
          0.15153903529912374,
          0.20880404274730577,
          0.08675620380278214,
          -0.19139432425663533,
          -0.02513114993512823,
          0.20349224560829926,
          0.009953937491709731,
          0.21875141635174097,
          -0.16381729391000735,
          -0.0009976151335231857,
          0.16356191762472888,
          0.11885448321303495,
          -0.0010758376059858922,
          0.1621366259359049,
          0.10979369129258246,
          -0.08245957620964264,
          0.1974891066028501,
          0.04783710081107382,
          -0.21938967430603734,
          -0.07908964905321024,
          -0.08526443822257296,
          -0.05581849059242704,
          0.014925433349042888,
          -0.19154330093421318,
          -0.1799284697897332,
          -0.006884461417965312,
          -0.23590704183477457,
          -0.05710789103511314,
          0.2119750265489328,
          0.16587314029762407,
          0.09035039737772113,
          0.02944608177104775,
          0.2235028366687713,
          0.19968888564338164,
          0.047747084704379474,
          -0.04404877083791273,
          -0.22293247469136587,
          0.16694807848688883,
          0.14808096260303144,
          0.16560400612037288,
          -0.22383899254017559,
          0.050382238123483886,
          -0.17939079418151282,
          0.21157963283012998,
          0.16297458487720726,
          0.04182270861961542
        ],
        [
          -0.026206690313866847,
          0.09864016517356392,
          0.2114477693011678,
          -0.046170317111620125,
          0.5771288789655561,
          -0.3124776761663792,
          0.11351068276225962,
          -0.20952228937258757,
          -0.04253824796972998,
          -0.15901613827662006,
          0.3971059067931944,
          -0.24088683572976582,
          -0.18750644438612793,
          -0.0026253637581748882,
          0.37606321046365565,
          -0.04939683616672812,
          0.049439227806558635,
          -0.20283527946620394,
          -0.07826830597326531,
          -0.07681950661914591,
          0.2598562116316293,
          -0.4226144749393477,
          -0.13089001203575712,
          -0.005062256364979959,
          0.246248129892743,
          -0.028059923733289843,
          0.14342893367333853,
          -0.3138904681732037,
          -0.37100077880932464,
          0.5234068027771476,
          -0.3152952123100757,
          0.09476347744490479,
          -0.2032850427177848,
          -0.2417151813107356,
          0.26693088293248085,
          0.22060988958217612,
          -0.20576506721735832,
          0.4808259537847606,
          0.10843060288852958,
          0.1599951198048318,
          -0.2815932176332445,
          0.1173591594376081,
          0.6365634938179715,
          -0.11969455312907912,
          -0.31357679759907076,
          -0.3149740828512959,
          -0.20707904872936395,
          0.24420414617215302,
          0.24345530190126455,
          0.13690356574899637,
          0.14250512277786306,
          -0.15598189921639938,
          0.0671993404576394,
          0.18377953725591425,
          -0.08405661292852497
        ],
        [
          0.1545745446811835,
          -0.007713546882813089,
          0.2878014448320495,
          0.00046552687818518317,
          -0.27116878376825554,
          0.2769772804791142,
          -0.2611944516339388,
          0.18350067960003819,
          -0.010138352599058742,
          -0.027251663530751508,
          -0.05837115515586084,
          0.030629247867628964,
          0.2640894276102628,
          -0.15712132352115643,
          -0.29500736773250347,
          -0.025709382343177423,
          0.09241523490411535,
          -0.19492916863962972,
          -0.07272013160519464,
          -0.04923287520577078,
          0.22618788446292232,
          0.11299745724618637,
          -0.26287470229458415,
          0.1201912870219156,
          -0.3051683006037491,
          -0.18946222543177377,
          0.35706686269952437,
          -0.06116740861338486,
          0.10129533195922699,
          -0.4190363035494958,
          0.13742526922564455,
          -0.22081018357804116,
          0.2164481448207581,
          -0.12236320752889378,
          -0.07515782920697425,
          -0.30528577561890313,
          0.14785475153868313,
          -0.15563265134469817,
          0.1369697322440317,
          -0.12914119172751357,
          -0.19665630807683426,
          -0.25792043123252345,
          -0.022280682354310695,
          0.2611633261907863,
          0.33310106191696465,
          0.0672879916830933,
          -0.0254193935818608,
          -0.22748880928326565,
          -0.10429102009231032,
          -0.010946184469136451,
          -0.041847359578234024,
          0.17188824850161033,
          0.18458367824742694,
          0.09995244776996322,
          0.2249548996561129
        ],
        [
          0.029118625432721625,
          -0.4200573457317427,
          0.025547428362402518,
          0.10249673238199807,
          0.25724337203540604,
          -0.34248741498431357,
          -0.0940372694053752,
          0.09188652854229047,
          -0.2076127912400002,
          0.1341240092547419,
          0.027396379194193597,
          0.016097544255906693,
          -0.35831083996672564,
          0.1611615789190164,
          0.18756557446480612,
          -0.024363345268346683,
          0.11580226242217877,
          -0.16665534674647223,
          -0.024398950498862336,
          -0.011801732260252933,
          0.14006905749597787,
          -0.02151232434230564,
          0.4174829744252516,
          -0.17760322804273523,
          0.2569553627511591,
          -0.3888188916402939,
          -0.1477612068961197,
          -0.2916490299302588,
          -0.010280837719213464,
          0.24091895291222382,
          0.08342267303719003,
          -0.09414096263226096,
          -0.5270626282392572,
          -0.035545957866086206,
          0.44134766870605435,
          0.12445471571579281,
          0.2440512753822791,
          0.5432160764071046,
          0.0010384685027770265,
          -0.43131949801056313,
          -0.17978737346822035,
          0.3912502921402695,
          0.3776373205326158,
          0.015497230509675232,
          -0.2791995938725676,
          0.0009495234734023823,
          0.24123020608545476,
          -0.3085987997994815,
          -0.010692163683918284,
          0.300155928880416,
          0.022938174164367286,
          -0.45449023166241037,
          0.1588276486724782,
          -0.28724348526345167,
          -0.27422876343216407
        ],
        [
          -0.0813109404854703,
          0.20505174750242045,
          0.16852791367993766,
          0.14904458135657794,
          -0.22153203769245794,
          -0.25369738290953503,
          0.14089182858085747,
          -0.09682202790607349,
          0.2424587849843237,
          0.15332746519719928,
          0.16424539055039042,
          0.21081565136209254,
          -0.11502080199538359,
          0.21391744599636506,
          0.15682512905878251,
          -0.17717166077861216,
          -0.09851360535387417,
          -0.001446497281519603,
          0.16361038189384647,
          -0.2496491944230404,
          0.009472730342106404,
          -0.0907099180311063,
          0.15806979464832943,
          0.031295172439301154,
          -0.03808286957505316,
          0.2171724512269829,
          0.01734863559174706,
          0.1130731817017814,
          0.23421681699037916,
          -0.06283570787638643,
          -0.1343565220916458,
          -0.1689790465374338,
          -0.19767286285311597,
          -0.177730894866928,
          -0.04739240769314571,
          0.06942546866493897,
          0.23642385261605017,
          -0.05492657219859907,
          -0.10673957619135986,
          -0.16572149169095893,
          0.14456406000955838,
          -0.21528673658714845,
          0.23049117482217413,
          0.08088216481532702,
          -0.1650269400223851,
          0.22602630340224866,
          -0.14139428197953302,
          0.18480674881874332,
          -0.19061024720526906,
          -0.18972246148259134,
          -0.12323137224583368,
          -0.09043062912420462,
          0.08164825128783859,
          -0.1447814599586626,
          -0.0905572158088983
        ],
        [
          -0.3129614267091224,
          0.20690305887277954,
          0.16813410660731487,
          -0.03879184155596064,
          0.05216466802837055,
          0.2365380200568262,
          -0.10608136944436902,
          -0.10915319499625835,
          -0.03413162385018367,
          -0.029170862859136802,
          0.24348667652981415,
          -0.002366440886632095,
          -0.2525093231935011,
          0.11598855208787417,
          0.1862105147574347,
          -0.16441060434511134,
          -0.07985583305517245,
          0.029267804312009562,
          -0.22793129876389653,
          0.1355486819475423,
          -0.205265814296022,
          -0.04117589904295441,
          -0.047099550944734205,
          -0.15610479025700572,
          0.21849798954773103,
          0.18799377771129536,
          -0.04104150898742014,
          0.17253884635836622,
          0.06037525466033131,
          -0.18588427524851592,
          -0.2973889946284328,
          -0.11065070254127667,
          -0.04114957539104521,
          0.21185222900862274,
          -0.15746369718881928,
          0.11934649501604194,
          -0.13655701727579103,
          0.016278733798606025,
          -0.15529991600150655,
          -0.2021645607399115,
          0.19477630030815693,
          0.15108968681564194,
          0.0447131151307093,
          -0.05529119771440922,
          0.20527825460210697,
          0.07458827370131389,
          -0.04733413054989037,
          -0.16014707886555282,
          -0.011840498069651893,
          0.037972784331667536,
          -0.01968198166147036,
          0.21661051038800605,
          0.01734797746562291,
          0.19553195046025543,
          0.1606275729876253
        ],
        [
          -0.1153907133002458,
          -0.16329268608263212,
          0.026940244146002323,
          -0.030628399725217796,
          0.15027993509659493,
          -0.009126393158029416,
          -0.18598417672768333,
          0.1449650462895477,
          0.0972067083555692,
          -0.04926446758664494,
          -0.22920927065660793,
          0.09626777978258717,
          -0.11309694919938479,
          0.23701501319340873,
          -0.14947422875170033,
          -0.20908501906055776,
          -0.08301485227628762,
          -0.042180187013096414,
          -0.21921217275349755,
          0.1270038111704319,
          0.15498296022297905,
          0.11005215583868094,
          0.22152718941871732,
          0.15264238634723967,
          0.14226463983873594,
          -0.08592946946790443,
          -0.10768712200543606,
          0.044836021063591316,
          0.09814489841371778,
          -0.23258951522064633,
          0.08343847716207953,
          -0.02352784261098549,
          0.1876153280761111,
          -0.255297480587674,
          -0.05293096075137759,
          -0.251967609398736,
          0.14585011044695403,
          0.08536037918132641,
          -0.038263254994568875,
          0.07360400215015071,
          -0.11542813073375098,
          0.2468344305917205,
          0.1335043641920163,
          -0.10838646301274477,
          -0.18387793589420345,
          0.17920405496650554,
          -0.15565555736022885,
          -0.13254642976957082,
          -0.1636589829646885,
          0.25109709820374365,
          0.09280961918091417,
          0.0997645044059078,
          -0.14024442232654322,
          -0.06352261560734339,
          0.1391430801741148
        ],
        [
          -0.10284075016526086,
          0.22932773573288523,
          0.222789834992345,
          0.20365197746844857,
          0.21254295139550644,
          0.06277068461172895,
          -0.18331416503535666,
          0.1698304704834318,
          0.21393529036037204,
          0.24069798250039673,
          0.19542679902228838,
          0.17002762281698455,
          -0.039017643132325995,
          0.13705733517820648,
          0.17006298007777063,
          0.09250921383777408,
          0.24253062098231898,
          0.22858029731412485,
          0.14388613661499142,
          0.06440191255183499,
          -0.006088182967542337,
          -0.14089574370132335,
          -0.03458637386695189,
          0.17666114264858682,
          -0.24348463615949764,
          0.01095222755647845,
          -0.23975823737909743,
          0.03450180684091915,
          0.2268401201013022,
          0.09280838215046013,
          -0.023174468873496588,
          -0.014852218219498982,
          0.07655387385100777,
          -0.00281807866095308,
          -0.059437753435942924,
          0.06308563487937895,
          0.012798306030044901,
          -0.0844519028643457,
          -0.0626229393857597,
          -0.1440402120462036,
          0.005194361149141543,
          -0.09602116197253821,
          -0.060500443491554604,
          0.05750563059701654,
          -0.08445835624832743,
          0.1351465743087202,
          -0.15894596778964254,
          0.13755428200442668,
          -0.03538042569470318,
          -0.01176049189438841,
          -0.009728200588895562,
          0.11875441792638151,
          -0.25233421290778557,
          -0.09520387135788688,
          -0.16403730539193462
        ],
        [
          -0.08646430091554717,
          0.21717801772884038,
          0.1848181198746301,
          -0.14001200697821847,
          -0.02191037925047744,
          -0.10911918890163282,
          0.19764243895276487,
          -0.09847453037981065,
          0.045389165512507955,
          -0.020317031965825745,
          0.23457653837131862,
          -0.12044812960030546,
          0.08309543166508139,
          0.04406218625915035,
          0.24338785884755443,
          0.1192322830460263,
          -0.10479544966855064,
          0.18199782596494046,
          -0.14809652296079193,
          -0.17953525292826947,
          0.0009701815572256826,
          -0.12095872423646993,
          0.12309452342149722,
          -0.19974797795154542,
          0.11388699231131308,
          -0.19481795822021522,
          -0.17327449748655763,
          0.18470749350535542,
          0.24021129882877088,
          0.07082589942460592,
          0.03761507322970519,
          0.08346106660715336,
          0.24524207745246426,
          0.23145865234127178,
          -0.08536777772782854,
          -0.007737224934066076,
          -0.10069049973992576,
          -0.0658584935924136,
          -0.19407494320108246,
          0.20971687142651957,
          0.1192544286407453,
          0.12808891702823885,
          -0.24849583057790992,
          0.09080036944121102,
          -0.24881944659724586,
          -0.06667850398997192,
          -0.03965053849914103,
          0.06731369878627967,
          -0.10394600671776912,
          0.048041723045461664,
          0.03357452074668095,
          -0.005560664809211376,
          -0.11951655130358135,
          -0.20553481310866598,
          -0.17534588828895803
        ],
        [
          0.24352657319058257,
          0.19222259775289183,
          -0.2816676263542483,
          0.20665251430575032,
          0.004020546053579434,
          0.0537114163016125,
          -0.04795653393444466,
          0.13217905164207677,
          -0.038878626920741045,
          -0.14664609542417348,
          -0.2565206079944081,
          -0.19704866412619396,
          0.15975038195718574,
          -0.04799040212171407,
          0.18914995818964694,
          0.19964319080352474,
          0.029840884519547303,
          -0.044703586737514005,
          -0.1751901247171766,
          0.18718558400808524,
          0.26336450631294367,
          -0.15706132009355356,
          -0.052689777155128896,
          0.1469385407477724,
          0.06544773520820973,
          0.010248259033712253,
          -0.05289462092218317,
          0.10550625876042986,
          -0.009645626346173188,
          -0.055222291378150226,
          0.06363139108025782,
          0.243947927228928,
          0.10229495393156968,
          0.17790699541346067,
          -0.21557002941837675,
          -0.16484094192292006,
          0.03752469735856318,
          -0.170675894360914,
          0.024653589399519067,
          0.0551934601786385,
          0.04352753590698361,
          0.016320596456958686,
          -0.22254436523594404,
          -0.14350963944190592,
          -0.20381764476182654,
          0.1776148836757367,
          -0.272198458802585,
          0.2795524301448659,
          0.1305436897847125,
          -0.029677185923639684,
          0.008089968002053305,
          0.14092141196335461,
          -0.10878978736619475,
          0.12902101743710329,
          0.237134067148422
        ],
        [
          0.10168054980185338,
          0.11037844904454332,
          0.2358542761923363,
          -0.22129379352861467,
          0.4117790705397182,
          -0.09504518850141024,
          0.09744725567691807,
          0.006924938432798378,
          0.08705902611270655,
          -0.041311076437505485,
          0.07127439192021283,
          0.020871688686588345,
          -0.10159431820661868,
          0.09774562710977737,
          0.05562285773933877,
          -0.24222307410392724,
          -0.021304189615920496,
          -0.2266046663383183,
          0.04839788815614697,
          0.18158353150734954,
          -0.19378714016004,
          -0.04771589269365975,
          -0.19295644386867386,
          -0.03407853596837907,
          -0.009876690909980399,
          -0.03249868378712127,
          0.04025274827848934,
          -0.25739381575373893,
          -0.05760926189780765,
          0.04785434776640283,
          -0.11736491715486491,
          -0.04637696644641828,
          -0.3139525702793961,
          -0.25561922662044506,
          -0.0572166944316943,
          0.239159553789745,
          -0.09529651799913504,
          -0.11505042285004032,
          0.2166075705786249,
          0.0626915936821219,
          0.029725010691467407,
          -0.16921508336169888,
          0.24080565758684186,
          0.2063115188945511,
          -0.1962125730474534,
          -0.08703807929725887,
          0.17663385501515627,
          -0.22182487432120757,
          -0.11466543895011075,
          0.2176304569625387,
          -0.14919137245174477,
          0.22716931264271847,
          0.1537133387277164,
          -0.11226437699878823,
          0.09879963665317207
        ],
        [
          -0.13855893296372998,
          0.08362415452781508,
          -0.1448462481155604,
          -0.1204000988620906,
          -0.041858345684782035,
          0.08303991952441202,
          -0.3318052258322717,
          -0.328501472869434,
          0.2471438932672837,
          -0.09358389935708335,
          -0.17679838494067204,
          -0.2809360235596485,
          0.16731444476101515,
          -0.13284513041451665,
          -0.28982783842227733,
          0.07575505605944723,
          0.0419751858030166,
          0.17999336923954182,
          0.21153025473844667,
          0.007788919898184407,
          0.24131314569822251,
          -0.49242470408864847,
          -0.35239471954691814,
          -0.02823380530972627,
          -0.21398208600933646,
          0.09094492682755545,
          0.30525042776234623,
          -0.10048280734811367,
          -0.12475167838435335,
          0.11741357220493152,
          -0.3337818521735422,
          0.33274360369797623,
          -0.04028125707399511,
          0.41301272268665284,
          -0.08181443606813031,
          0.1200371366400361,
          0.2184197593767808,
          0.164834662581282,
          -0.21527476774530077,
          -0.15789714288026538,
          0.08184713896155583,
          -0.10827315552570385,
          -0.024039316254891422,
          0.20395843671044517,
          0.3632060561759331,
          -0.16244909014753067,
          -0.35149095567795485,
          0.44707492016431877,
          -0.21949936062997355,
          0.06988240501661974,
          0.24159723407505138,
          0.08911953982222998,
          -0.22699326284570828,
          -0.1770803440946302,
          0.2304393162414516
        ],
        [
          -0.2050758457736507,
          -0.056584619695103026,
          0.1991554724394769,
          -0.06005987364069493,
          -0.17774289803284218,
          -0.09089828273248214,
          -0.12720712557302,
          0.050781210259146954,
          0.21406612930366523,
          -0.15452794740184947,
          -0.20009620966340075,
          0.18698005289626737,
          -0.25321348729187826,
          0.010548702241308784,
          0.15362449282552854,
          0.004670791600085133,
          0.16736809128412167,
          0.2480557775272615,
          0.07998195665936894,
          0.06421711029350519,
          -0.10018626665636005,
          -0.05440287408161396,
          -0.16394440678125455,
          -0.25193590076574807,
          -0.023141345608724058,
          -0.03454070248072814,
          -0.03916622398551078,
          0.08084559870951588,
          -0.13178744047458452,
          -0.13045437597606072,
          0.042124724106740515,
          0.043273117752661315,
          0.03762941039895108,
          0.14861957012578725,
          0.19308767718134298,
          0.20551083925066896,
          0.14101873947861177,
          0.057757591354070686,
          0.10375592364618767,
          -0.03775784352642202,
          -0.22321369145534908,
          -0.19199605574194256,
          -0.11115726838193055,
          -0.20768714056738616,
          0.0065904036266153975,
          -0.18421131734288443,
          -0.00067107127565557,
          -0.11182803845879033,
          -0.10844105285897637,
          -0.1906770506149164,
          -0.05073210325707312,
          0.25513253135720176,
          -0.13425818029427655,
          -0.06217490210671861,
          0.05892604419410654
        ],
        [
          0.4077584169999904,
          -0.22127091727594833,
          -0.5032780681521883,
          0.3679931490291619,
          -0.3479831796653667,
          0.28167419757525414,
          -0.6081194420003236,
          -0.16680463902897832,
          -0.0022063804044392633,
          -0.02249480437039164,
          -0.3538187946172283,
          -0.1691857750048921,
          -0.34863772836407625,
          -0.13427104497688375,
          -0.28141826313927754,
          -0.2487941514630706,
          0.03371783793116962,
          0.092448150281072,
          -0.0525706207261957,
          -0.10207114792432434,
          0.37736654060203817,
          -0.5922516682089499,
          -0.45308126919532926,
          -0.1295129554858653,
          -0.27023812121539437,
          0.032431927307285814,
          0.4799273242446286,
          0.15480490826135998,
          -0.06646108206621075,
          0.010520412375263553,
          -0.11198121793221874,
          0.21370334279325487,
          0.1186874103899101,
          0.4699828222558123,
          -0.012759521318438076,
          -0.48783247066883784,
          0.24207603246254092,
          0.14521311909833545,
          -0.23332332210859724,
          -0.0092109111335436,
          -0.01953001729439586,
          -0.44434601018093023,
          0.1527424045015316,
          -0.3337081136547334,
          0.17967776465273333,
          0.43343006361056124,
          -0.16691355658987816,
          0.32743416350288823,
          -0.18295826873344895,
          -0.17907509108941105,
          -0.056766387287928245,
          0.06329556709478366,
          -0.22511400781006655,
          -0.13348561892777558,
          0.2471287481252749
        ],
        [
          -0.265725696287161,
          -0.3032319935251704,
          -0.03457576172504029,
          -0.13586327533821288,
          -0.050382887531227105,
          0.13899691204544387,
          -0.27916554534259874,
          -0.0605400303144094,
          -0.08239060748809565,
          -0.20195394945927922,
          -0.06693895337557625,
          -0.20639687259084213,
          -0.20681344941015833,
          -0.0325022648581667,
          -0.07753220551067501,
          0.06746573563817387,
          -0.17302412035827228,
          -0.22794529519389897,
          0.12962566076915505,
          0.1393629182026772,
          0.3463403842134684,
          -0.07619759514290327,
          -0.155125086092071,
          -0.31305435828890066,
          -0.014075670497018068,
          0.308649925492795,
          -0.09010655446767987,
          0.20475418919522545,
          -0.23826719065675128,
          0.41983900598810536,
          0.07410056249335804,
          -0.031137497340625032,
          -0.017953012365545216,
          0.04591496458528916,
          -0.09247103667739753,
          -0.06181397208166379,
          0.20147430441762207,
          0.3835066717668682,
          0.08856147381381632,
          0.053695019710122284,
          0.15081919906028873,
          0.03131455724441485,
          0.11946985959231547,
          -0.13550611953214958,
          -0.05960520472282267,
          -0.17466746848017958,
          -0.17834609149383088,
          0.409682995196249,
          0.03299467476796278,
          -0.073564318625232,
          -0.10203658968034683,
          0.11422238533369333,
          -0.1100473638330677,
          0.041501094736600894,
          0.10290602126223701
        ],
        [
          -0.11403769889124486,
