{
  "layers": [
    {
      "activation": 2,
      "biases": [
        0.047507770616941496,
        0.6014584242894763,
        0.06838054544285078,
        0.04113259388204218,
        0.008608719436639984,
        0.0,
        -0.09451782650260719,
        0.0,
        -0.3763521217254575,
        0.3813453251122587,
        0.3655381402341509,
        0.04265966697183362,
        -0.5884749038916407,
        0.39994620126739655
      ],
      "cols": 14,
      "rows": 4,
      "weights": [
        [
          0.956211451651756,
          0.6877470055683524,
          -0.12090617072882967,
          0.9538327947371743,
          0.05742512499320462,
          -0.3189685522713705,
          -0.1374493436486075,
          -0.23935365920631294,
          0.8021770205397886,
          -0.1935068788719546,
          -0.954348171315352,
          0.16156233012164017,
          0.9206200903067974,
          -0.8480461337490095
        ],
        [
          0.7890509938999272,
          -1.039645639562192,
          -0.053803053147961126,
          -0.828797143581375,
          -0.029587655289205893,
          0.3701416699409018,
          -0.27142200707211817,
          0.15972543281073603,
          0.4612421586599474,
          -0.5591785667408923,
          0.07231966227887036,
          -0.019640624322017602,
          1.0834790490315325,
          0.07586341811297193
        ],
        [
          -0.23242960823881484,
          0.35527458976653986,
          0.28625934295807465,
          0.8418022317620523,
          0.7957357120124556,
          -0.5554540906704764,
          0.22280768071026158,
          -0.17340248171803485,
          1.1159507825246024,
          -0.26479741204889023,
          0.6825664341579106,
          0.6356094877430307,
          0.9926017517369665,
          0.42615082048507663
        ],
        [
          -0.27802828862278584,
          -0.6038610196814446,
          0.46838302127990356,
          -1.0653497097828595,
          0.4877594706651795,
          0.23695089755133675,
          0.08837762697488728,
          0.08864863421876339,
          -0.8640906851326112,
          0.6142372420803379,
          1.0923320314357008,
          -0.70884549787278,
          0.16408361228273652,
          1.0429424735639952
        ]
      ]
    },
    {
      "activation": 2,
      "biases": [
        -0.03416339989279819,
        -0.3236103570792592,
        0.14345790258297134,
        -0.002738831892777851,
        0.038225939909754765,
        -0.0013370351194657507,
        0.030758762514876203,
        0.0,
        -0.04290295442331687,
        -0.15501246189139856,
        0.07833701083154332,
        0.5370057817371093,
        0.0,
        0.0,
        0.06166903657676194,
        -0.03556713993695402,
        0.06235207104810796,
        0.0637832164495278,
        0.0,
        0.19061908910355774,
        0.22660020347065712,
        -0.08711102908529002,
        0.0,
        -0.003774308950577979,
        -0.005531430637942409
      ],
      "cols": 25,
      "rows": 14,
      "weights": [
        [
          0.1270715938472489,
          0.28048158613086627,
          -0.3557153969557468,
          0.1707066707749322,
          -0.17553548413036954,
          -0.29746225621846306,
          0.06035700260512515,
          0.27962387899748986,
          0.2939857471293607,
          0.1930096098560352,
          -0.25731200836440893,
          -0.4232908707725774,
          0.30823507736379796,
          0.03877917914602249,
          0.5047625152911015,
          0.33080942915758627,
          -0.05061578813476847,
          -0.012937140016457734,
          0.1335339636165039,
          0.06038819302806502,
          -0.14894185673045715,
          0.3625098983711176,
          -0.1355397003843201,
          -0.3674781758692375,
          -0.41500656517291246
        ],
        [
          -0.10575902154419471,
          -0.7135495471980738,
          0.35269147452128813,
          -0.16356694786101159,
          0.18606727430658462,
          0.3228054559421922,
          0.18147418999273238,
          -0.08852814063094896,
          -0.44428348598103623,
          0.23763479496374837,
          0.11054036814397401,
          0.43518436949805567,
          -0.09688055691640551,
          -0.12836929212374776,
          0.5088415798071296,
          -0.36602601694671955,
          0.9185210965669287,
          0.05663431880216856,
          -0.0477240187967421,
          0.1584146041538888,
          -0.5434072449049592,
          -0.3466103234343642,
          0.06928140587828764,
          0.09858894886045673,
          0.10853801677423915
        ],
        [
          0.08740873277094757,
          0.32861085863779305,
          -0.23894036546979622,
          0.14594315831113489,
          0.13965336856433602,
          -0.1229932123819117,
          0.06250524174147777,
          0.23677384418100103,
          -0.08297507809587983,
          -0.011074434290025983,
          -0.035936212658837584,
          0.4102696093127191,
          0.2768660934525869,
          -0.22520620380392345,
          -0.07005294747463799,
          -0.02037536849030221,
          0.03586395667546125,
          0.2000117652381097,
          -0.3748234719480867,
          0.3670729881487793,
          0.11995663547878783,
          0.0874701528238339,
          0.2672104161193239,
          0.15098388704881655,
          0.16756144617111224
        ],
        [
          -0.1479831778359606,
          -0.4391620927463103,
          -0.05698644661973846,
          0.5746772777373025,
          0.23203044641157525,
          -0.2788282177208,
          -0.3245124676490077,
          -0.1306150739465565,
          0.2699455844875217,
          0.3198959498240211,
          -0.1820031420641633,
          -0.1716972787420444,
          -0.15522190120340604,
          0.000740834410357463,
          0.7488332743553032,
          -0.0748447565331897,
          0.8686387190012991,
          -0.2380277540178363,
          0.3766321475309627,
          -0.3988807949978756,
          -0.4231993347000593,
          -0.6349039482996716,
          -0.05403094693773189,
          -0.11697799276386082,
          -0.3685247524944893
        ],
        [
          -0.29880555805801046,
          0.04638827072191232,
          0.23791491424050368,
          0.0807319738287583,
          -0.08558677785428323,
          -0.2960311974118577,
          -0.07697499360037804,
          -0.31576335321911914,
          0.24442008923438796,
          0.39974678173761174,
          -0.26266510850565644,
          0.534549644731572,
          0.3145683527552225,
          -0.10022871396585986,
          -0.3294078470353899,
          0.0789443358000574,
          0.191388297608544,
          -0.014765538504858355,
          0.21212583286142084,
          -0.25111494687925784,
          0.2156213133223091,
          0.26192067686784837,
          0.3118127776089605,
          -0.32387234499872736,
          0.22949723237483916
        ],
        [
          0.115116588260328,
          -0.15208057697393512,
          0.159538731576186,
          0.06096044512530108,
          0.34420827634764745,
          0.02776908305917256,
          0.13503023546086323,
          -0.13206071447489598,
          -0.29559971471764895,
          -0.07961416181281714,
          0.37348697966994315,
          -0.2311362387027642,
          -0.3406985684176474,
          -0.29862705748184887,
          0.07330233287722021,
          0.33708889063379144,
          0.3224446438401054,
          0.2294489516671694,
          -0.1924639102854945,
          -0.23870400255720825,
          -0.2503682137203257,
          0.1104231035481772,
          -0.3702421590309264,
          -0.33642435369779367,
          0.3773207482598005
        ],
        [
          0.27494188828521327,
          -0.24837738735500609,
          0.07183936157363803,
          0.05900820661467482,
          -0.30748214662230083,
          -0.041422653364479006,
          0.001540902108943207,
          -0.29424295588577837,
          -0.14036553211327513,
          0.20730203184101673,
          -0.08958619025985941,
          -0.021988492887950562,
          -0.3141579009786242,
          -0.020824641027940478,
          0.362666126573803,
          0.050073010272703895,
          0.23850890010456613,
          -0.08243064345386975,
          0.39082507117764126,
          -0.14543833137591297,
          -0.061486360739412264,
          -0.1893425657631608,
          -0.28723116847641783,
          0.13616714669477809,
          0.007242929744228831
        ],
        [
          -0.3322919865892909,
          -0.27737072990980066,
          -0.27848919089155383,
          -0.2991217250448447,
          -0.05942268748473278,
          -0.3704876265214547,
          0.09057283645106406,
          -0.07689592782832669,
          -0.22987472792457878,
          0.05102857572387045,
          -0.2876463767561898,
          0.1291274069857515,
          0.17898071272938032,
          -0.12855667007497854,
          0.21329879509196584,
          -0.15336835975183308,
          0.21794586398971907,
          0.16626209356089433,
          0.2753732345572447,
          0.030667906722220556,
          -0.22470414048305531,
          0.11530117207187861,
          0.10053397838343124,
          0.08546062603582048,
          -0.21974114165639017
        ],
        [
          -0.2501138389194179,
          0.5492504842470006,
          0.2781972558832181,
          0.520395863307191,
          -0.14524451608564415,
          0.2827395642402068,
          -0.49570272955343114,
          -0.3767607203304455,
          0.0776611696694992,
          0.7767746877635973,
          0.005138476238241025,
          -0.6456644567748129,
          -0.29267417704821924,
          -0.23660926792918696,
          0.1663674846966204,
          0.06203575933891868,
          0.7196153214586087,
          0.24298952019328984,
          -0.1428360575320569,
          -0.2574851473511373,
          -0.3216230417985173,
          0.34388661040869184,
          -0.06204566026492641,
          -0.10285646745093124,
          -0.17190587963920567
        ],
        [
          -0.3521361569928586,
          -0.4277196232928329,
          -0.11226816664856333,
          -0.38710242649818916,
          0.3747128068317628,
          -0.3494806127028399,
          -0.004520248974322964,
          -0.019655252110815813,
          0.2862276829465954,
          -0.6076159626166379,
          0.0376821852586845,
          0.286622814313332,
          -0.38222438376431217,
          -0.24121002402566732,
          -0.3289660525577918,
          0.15155086394309333,
          0.1678939667711758,
          -0.12536083814619542,
          -0.1841248499073445,
          0.45945431491856814,
          0.23755125889589454,
          -0.25127421727936755,
          -0.24803767803192617,
          -0.008140872008044324,
          0.15162179181051197
        ],
        [
          0.16138395680524573,
          0.4699366498976988,
          0.22729140402686382,
          0.17640784613423138,
          0.35295316439897023,
          0.04419287642416292,
          0.0897881320947602,
          -0.0862506537793437,
          -0.21432145124683524,
          0.16852152440327706,
          0.2171309079254,
          0.7666395074825576,
          -0.06509534043889302,
          0.0958717771499148,
          -0.8705445548324328,
          0.033569882789218644,
          -0.47658875832360237,
          -0.27942197576433764,
          0.12626008780467238,
          0.37771416397206947,
          0.3440590927593321,
          -0.10428634178999545,
          -0.12468618534269765,
          0.3664449913651724,
          0.3166578549367451
        ],
        [
          -0.03999826450568743,
          0.1798946492546021,
          0.2990723450401351,
          0.1678085874487058,
          0.04569039409638205,
          0.06927681445316174,
          -0.043775472937405864,
          0.0757328720265944,
          -0.19885670122559285,
          0.6741400556670117,
          0.08661078154413204,
          0.2696978842381764,
          0.27064731459205627,
          0.026792263297226334,
          0.34019166393255634,
          -0.05339916140082374,
          0.4247535446187539,
          -0.07913173064904801,
          0.07671353797715254,
          -0.4423612849577029,
          0.26505577503113287,
          -0.08731697183724564,
          -0.2959292383607613,
          0.13826146737090556,
          -0.21032594815183625
        ],
        [
          0.05647201151077582,
          0.9445667510756686,
          -0.3653840468884015,
          0.15657399326322707,
          0.20952587783150145,
          -0.2429230602090248,
          0.06702107221832826,
          -0.3435691661192691,
          0.5814369331669065,
          0.7935093312540248,
          -0.4561560522931836,
          -0.25018919928151784,
          -0.3404543166281069,
          0.014922959213105349,
          0.39756924263853516,
          -0.2107699652754379,
          0.15023755708617215,
          0.3073078220032139,
          -0.33527188669550056,
          -0.32101274883644887,
          0.43198999053159964,
          0.47390833292483925,
          -0.17752202496781322,
          -0.21853654724358873,
          -0.34273875859783326
        ],
        [
          0.03992333803776012,
          0.2374318786820527,
          0.2279379579985151,
          0.19452408617804742,
          0.31595677852968496,
          0.3132313750199286,
          0.18874851840593615,
          0.07650804213601987,
          0.10739946433242357,
          -0.36069752680633865,
          0.24146496706332166,
          0.6988513194633266,
          -0.13134077693438767,
          -0.21847748221437954,
          -0.8148554725007409,
          -0.09843537225605736,
          -0.45457240012806566,
          0.1748014659846351,
          -0.10580490097357857,
          0.08074795757022803,
          -0.12079769469991436,
          0.2410619163513453,
          -0.29402591198114586,
          0.20583138617718327,
          0.39561662229863165
        ]
      ]
    },
    {
      "activation": 2,
      "biases": [
        0.0,
        0.38655012512632186,
        0.0,
        0.019319017807823656,
        -0.04497053304784596,
        0.044941450653388545,
        0.04796491047449755,
        -0.24057281282646284,
        0.0,
        0.0,
        0.05974540197152666,
        -0.2425509084347798,
        0.2350248016617507,
        0.003510004617425233,
        -0.02370237413978332,
        0.15093387584589385,
        -0.17744579321902682,
        0.0,
        0.23825960908699803,
        0.2627366763389928,
        0.0,
        0.16004407648811492,
        0.0947200507346117,
        0.4418093121004461,
        0.00019649537242437604,
        0.0017005463927619762,
        0.08091367065188963,
        -0.12388267094074552,
        0.0,
        0.2635760908686649,
        0.016793817261034228,
        -0.10556233180628993,
        0.17268753860230376,
        -0.014018061199292386,
        -0.05327825319917185,
        0.038332263182037626
      ],
      "cols": 36,
      "rows": 25,
      "weights": [
        [
          -0.2139456693662627,
          0.2611437152768979,
          -0.055263964156673624,
          -0.12714585749682353,
          -0.2473443986749625,
          0.2736908489385281,
          -0.04083453687822598,
          -0.03720913338985908,
          -0.07815205633232268,
          0.251184345401795,
          0.01309595518547052,
          -0.04164113423637,
          0.27296148353429117,
          -0.12406978771457584,
          0.1630988511477943,
          -0.0396797927722879,
          -0.18876886804174045,
          -0.18568383501490038,
          0.2605046354722987,
          6.151374019821885e-05,
          0.011524386404615861,
          -0.10995740405070178,
          0.19037112146235502,
          0.30078884092506136,
          -0.03348420423825646,
          0.05076298390587802,
          -0.21707017300536677,
          0.16538383481867347,
          -0.031023042657158537,
          -0.05220712508482592,
          0.3088858417096224,
          0.2040688886172759,
          0.0761236836392557,
          -0.2318828076574308,
          0.21280306072987784,
          -0.17239667547183546
        ],
        [
          0.23966121832624854,
          -0.17673352465557896,
          0.13587578400014394,
          0.08453236296694275,
          0.21959363984207644,
          0.13996728619208887,
          0.007603234666055909,
          0.11909775254245848,
          -0.04000987339266682,
          0.26246886824706955,
          -0.22019726930716949,
          0.24999633209862432,
          -0.23068880512494572,
          -0.19114296146109086,
          0.1232894758756211,
          -0.29584057697209903,
          0.6264054386311456,
          -0.21922536421032437,
          -0.430657403871522,
          0.5502477839781527,
          -0.12990258745934447,
          -0.2927491511109031,
          0.16813723519368742,
          0.624388864092114,
          -0.08300602367278112,
          0.11821128136018066,
          -0.319541666483205,
          0.46516661995662867,
          -0.15948789531669214,
          0.18983894990816255,
          0.19557205224904795,
          0.6839930172982699,
          -0.3679248387187,
          0.08520002958520737,
          -0.16257709487323316,
          -0.21447250490741498
        ],
        [
          -0.2137130488111191,
          0.023811369279867226,
          -0.15312375910300224,
          0.20103679061678614,
          0.3676877635816358,
          0.21172454535546614,
          0.23326052397846436,
          -0.18264571684877923,
          -0.03389045389433192,
          -0.13532027193894028,
          0.13469345035096505,
          -0.1527175452166142,
          -0.010047690851630618,
          -0.08204867809441417,
          0.0749741947834426,
          0.07352267775524007,
          -0.2616824448169206,
          -0.053913231426582435,
          -0.18954896224262457,
          0.3789964309975428,
          0.1846303103710844,
          -0.03948370027320993,
          -0.1748489357785181,
          0.046789088320040015,
          0.11596215039838181,
          -0.2155394224213853,
          0.2426053664600339,
          -0.08292154140681063,
          -0.27360068382416486,
          0.10249291665575776,
          -0.12373605363859558,
          -0.040619677635614616,
          0.2894301751289061,
          -0.08815149061281786,
          -0.23408533098052883,
          -0.03164966054704112
        ],
        [
          -0.24143544868664177,
          0.014028571597783758,
          0.05592846784096039,
          -0.2539898202947933,
          0.16259765741557747,
          0.3351202935264621,
          0.06199787129831213,
          0.13622820831660992,
          -0.05381484807729548,
          0.08086424894532962,
          -0.2250652193592085,
          -0.026525114036571408,
          0.26540844800988744,
          0.1965891348194621,
          -0.3218119172239379,
          -0.40769988660097745,
          0.28841051651578353,
          0.2566390439038107,
          0.20663708989670979,
          0.1210865492980189,
          0.0756380248367642,
          -0.1906546042645402,
          0.15994011831660854,
          0.37850352776683466,
          -0.1828722004657999,
          -0.20927638097464152,
          -0.15770581872693815,
          -0.2610444866740057,
          -0.036589772521936216,
          0.33371218033283967,
          0.27647417856051953,
          -0.11667636353417307,
          -0.0999838446511729,
          0.1321994031283463,
          0.07911702211510126,
          -0.05940432050364118
        ],
        [
          -0.1250243535203219,
          0.06775373915096645,
          -0.2580632295612796,
          0.1160710231922202,
          0.056034125262228646,
          -0.03750565716985336,
          0.05006092595279938,
          0.1555267688215049,
          0.02841785080861542,
          -0.16542239746393955,
          0.21863402028520093,
          0.1291452578135325,
          -0.006723899336090511,
          -0.16136011130098132,
          -0.0712393705581899,
          -0.04012391338402004,
          -0.014246730022216079,
          -0.26617049189029673,
          0.059551438686878004,
          0.4754169000441109,
          -0.18756424391748433,
          0.28510752021224867,
          0.005356505812598863,
          0.16202197961187378,
          -0.07800168074189512,
          -0.29167811120207165,
          -0.12914846251988144,
          -0.206456390241005,
          -0.2592595527456044,
          0.3872800034063202,
          -0.30623598832631344,
          -0.2667827656914308,
          0.07893504597717883,
          -0.16541240470531487,
          0.02803812146463253,
          0.19858799888226297
        ],
        [
          0.0033518110026815305,
          0.04598853095824102,
          0.16538397792337467,
          0.10353804929222832,
          0.13643514978984772,
          -0.13622812062873618,
          0.21801173669836577,
          -0.04343061788797029,
          0.28153186995519713,
          -0.28202061084984686,
          -0.08681461925422305,
          -0.014215182979428073,
          -0.07156526334723132,
          -0.09017714162898645,
          -0.20749575621581212,
          0.11124536405420894,
          -0.12732976536501067,
          0.019886470750580136,
          -0.11884501556457024,
          0.18754380648484745,
          0.16649466760723755,
          -0.19270073002502486,
          0.01733012755742478,
          0.0370654295909841,
          0.3030332532640026,
          0.008285331868352773,
          0.16028753937870316,
          -0.2237413565990466,
          0.1307817609654757,
          -0.28843180904916305,
          -0.26980476667532044,
          0.14171370957894652,
          0.07461968588297287,
          -0.03618136797161555,
          -0.09510928033371757,
          -0.24336234297880624
        ],
        [
          -0.1186168147777976,
          0.2526627307489494,
          0.2635534407633409,
          -0.20883871028708897,
          0.034781276968511673,
          -0.019259669599299933,
          -0.10367070572071213,
          0.1105965217820088,
          -0.26822518708745896,
          0.2082075971423562,
          0.011093894110350394,
          0.028193425377009484,
          0.22372754178977564,
          0.1327864842310682,
          0.015059308519616725,
          0.3585878579226882,
          0.17480940154535404,
          -0.09236177876648038,
          -0.08396147753121623,
          -0.3769382379274628,
          0.11341351183110006,
          -0.0602800290608496,
          -0.2730216974628351,
          0.13427656193342163,
          -0.09171401806053943,
          0.0020620138516508463,
          0.1805939941224504,
          -0.27812740692967314,
          0.16488769887155838,
          -0.2926346562818331,
          0.09062687792030266,
          -0.0034811954332909342,
          -0.11246178705764998,
          -0.09997055393334257,
          -0.21267104676190984,
          -0.2955184028097783
        ],
        [
          -0.19215283158636948,
          -0.014671793972509976,
          -0.09716138839434368,
          -0.2921703036821553,
          0.31275956023109347,
          -0.14296288375569385,
          0.1900278926114261,
          -0.21100841450921723,
          -0.01462305766004187,
          -0.08293366469599768,
          0.24820643975873383,
          0.018656002997338324,
          -0.09028865323070029,
          -0.1421769747905598,
          0.15508131173248177,
          0.2251258535194702,
          -0.26660409160924425,
          0.11945353503480577,
          -0.13401254566897935,
          0.2529485341353583,
          -0.07200309554145587,
          0.1501717576967912,
          -0.27393487321922066,
          0.31066752299886036,
          0.022268200110462925,
          0.15751415440122996,
          -0.04328057340947439,
          -0.26213415046832206,
          0.07684204332055855,
          -0.13322139434314997,
          0.2201037727430513,
          0.18342584411935237,
          -0.16063151215475285,
          0.2436833284388763,
          0.16408593459855583,
          0.16820083870153005
        ],
        [
          0.19785764367796388,
          0.0009506992756070096,
          -0.25957931250487526,
          0.27701945967471026,
          0.19267708518886198,
          0.22123263777831367,
          -0.19826743108801928,
          0.013585500358027585,
          0.11228879705065221,
          -0.11649547371900337,
          -0.3134282781456048,
          -0.0017404970436795154,
          -0.19452388923230832,
          0.2590425468882792,
          0.1914438193203317,
          0.02623283538374147,
          0.42074544779408307,
          -0.17184091718207894,
          0.08912526719682155,
          -0.17404497479631686,
          -0.19068381217834746,
          -0.18837326100767557,
          -0.12133173391767224,
          0.2372163212724698,
          -0.1945227165791645,
          -0.27984315618093325,
          0.13626778855867294,
          0.2444214685261242,
          -0.023627128775539078,
          0.11665758468219972,
          -0.1796508991842365,
          0.06700445605785306,
          -0.14573111221493396,
          0.46658582148841526,
          -0.22887547371306535,
          -0.05983806256538512
        ],
        [
          -0.28633819288917933,
          0.11245970867439113,
          -0.22542012760122204,
          -0.15249202237853093,
          0.2860395937521744,
          0.6899492995049691,
          0.18414135589421715,
          0.24063117136306966,
          -0.15758296491268997,
          -0.292026403100923,
          -0.0862917987126697,
          0.2876086106412092,
          0.31658088811833424,
          0.007182432803521042,
          -0.07057453646188748,
          -0.3964677556560625,
          0.07199799203838057,
          -0.2710732254242826,
          0.007348201950968411,
          0.22820778172895678,
          -0.20233509318327395,
          -0.47886108615512335,
          -0.0559840753905584,
          -0.07103398394258888,
          0.16028058057435438,
          0.1714876391524593,
          -0.41329426724359014,
          0.34585531582173334,
          -0.05187282800058258,
          0.3779953215960526,
          0.3070276762065642,
          0.3714131060511047,
          -0.6994215215098618,
          0.44524924133324284,
          0.14417040098767842,
          -0.32608690255253536
        ],
        [
          -0.2236381963917241,
          0.2277079088207748,
          -0.04579354317218646,
          -0.22964261588667978,
          -0.22574165384716907,
          -0.18460348481518216,
          0.2233760029573053,
          0.26875312257125983,
          -0.2471878413061449,
          0.14387014747078594,
          -0.14360636962087645,
          0.3115030092647365,
          -0.06005900603882587,
          -0.014582357193427216,
          0.2883035351481691,
          0.33018482872320726,
          0.23395748056657983,
          -0.2105997224294659,
          -0.012680335643818206,
          -0.3190132139720154,
          0.30385013960497204,
          -0.15516976022995907,
          -0.23696700502900842,
          0.10120594080278086,
          -0.22232322482188477,
          -0.13350818576408774,
          0.011260026667093182,
          -0.18153643020006804,
          0.050946774388926586,
          -0.2811168490644936,
          0.09867380015652971,
          0.008534103210331627,
          0.3154244842854469,
          -0.021074325081775504,
          0.16901239742916518,
          -0.1579614850767778
        ],
        [
          -0.2048780181244721,
          0.19801033312945285,
          -0.01627096926780176,
          0.13123525309032516,
          0.09183982355135988,
          0.1595760128209449,
          0.35513408025780213,
          -0.032889226070700966,
          -0.20897968868409755,
          -0.0233672200797693,
          0.3090693581852255,
          -0.24706979120266945,
          0.1444628795718602,
          0.062347744839665334,
          -0.014855952861951904,
          0.6215663414465007,
          -0.33184847615548874,
          0.022487048223467795,
          0.2698786050103009,
          0.4316378903966231,
          -0.26059599925416854,
          0.5138936965435337,
          0.2698116197026725,
          0.5832757126102839,
          0.19486193301681767,
          -0.19745196902677273,
          0.5359997472456176,
          0.02422172912788569,
          0.06612137918788222,
          0.5302408104980123,
          -0.06960727855663232,
          -0.29043046430656033,
          0.4980506517509409,
          -0.42335433105865766,
          0.11582383434275195,
          0.3028150323377191
        ],
        [
          0.21791392961568173,
          0.021365714047136736,
          0.014840525666389414,
          0.09526408961504886,
          -0.16698067662092098,
          -0.05251683805028807,
          -0.27683276685022756,
          -0.2891830828303079,
          0.2786421345800728,
          -0.07433771550825283,
          -0.20745485863911223,
          -0.010260218053275977,
          0.010519239683666226,
          -0.04041641571897945,
          0.1646871835404257,
          0.12320865044372595,
          0.20904421955053265,
          -0.29195956504666015,
          -0.20116680062235268,
          0.2629433138655242,
          0.25012702626790817,
          -0.12434468414336616,
          0.054020540633930934,
          -0.20539404715974813,
          0.2525461949275215,
          0.04445524513005612,
          0.3094183786784478,
          0.30131759014497617,
          -0.18506537694625058,
          -0.12234135374117135,
          0.05763617238709433,
          0.09037174295362184,
          0.20198085967409085,
          -0.18483456294341927,
          -0.0739057149605114,
          -0.16852382630390553
        ],
        [
          -0.033616314181301336,
          0.30652842715963535,
          -0.2208043034909442,
          -0.2658188617442114,
          -0.12751637837548216,
          -0.1096793118290391,
          0.2125450007262343,
          0.26055027347277276,
          0.0894961217982136,
          0.0881114416572994,
          0.18920872497441033,
          0.050278430064970535,
          -0.08765222540627586,
          0.033103197828265915,
          -0.15696888609041326,
          0.21537894182121495,
          0.17867808940687357,
          0.012717229091389752,
          -0.13265833098090687,
          0.31168665918189503,
          0.05510753425159544,
          0.13605416212840735,
          0.2924067076280992,
          -0.300735439834641,
          -0.05717793579273296,
          0.10449750992176116,
          -0.13545907123704667,
          -0.1721514966763256,
          0.13919862459250762,
          -0.06547437029054701,
          0.21707490888882525,
          0.30551716035936494,
          0.015047753427382765,
          0.25498928105457064,
          -0.17825593069909365,
          0.28126892356435096
        ],
        [
          0.1629009715175585,
          0.7108636515606496,
          -0.24664369694250649,
          0.2146776265202682,
          0.17610044184408796,
          0.009968091641772914,
          -0.02508646004736912,
          0.21261162967610278,
          0.015703509718193714,
          -0.04836383570142055,
          -0.13370262673183458,
          0.3283226579100497,
          0.32290913835156604,
          -0.03756068367144191,
          0.014854512928531214,
          0.01372061589569345,
          -0.2460705624230842,
          -0.15379709284112122,
          0.7074138302034537,
          -0.6338202215025441,
          -0.2559930059005557,
          -0.29137279831606705,
          -0.16342890309010005,
          -0.3197164068996871,
          -0.044568338084367824,
          -0.010484238118525072,
          0.2570646384199737,
          0.1732185188309451,
          -0.13139621190539927,
          -0.6441774673664679,
          0.34666115367500144,
          0.12323085992603147,
          0.12582243458804432,
          0.6173694235095751,
          -0.05051996560057514,
          -0.2964756008714562
        ],
        [
          -0.06983204143439205,
          0.07481150357146507,
          0.15495395636640358,
          -0.20588351146810718,
          0.29731570292126774,
          -0.1682431474238253,
          0.26725006779395505,
          -0.12342286421874468,
          -0.14338245312050718,
          0.06507581681019925,
          0.00543126867226561,
          0.05966733692675524,
          -0.03223137868666288,
          -0.1677029660436678,
          0.2491727232603858,
          0.01845767831169345,
          -0.24144720301030187,
          0.029709198644565366,
          -0.03495952276105461,
          -0.05801775771157965,
          -0.16636965477140098,
          -0.16149510082471183,
          0.03236848583046943,
          -0.10886936293217156,
          0.25718574869389527,
          0.024623785520936047,
          -0.012953988798160938,
          -0.2751585506229477,
          0.1712861730151403,
          0.131842472915262,
          0.24139741202497927,
          0.06095890247984354,
          0.2377456822772248,
          0.15344940236348534,
          -0.015042948552828613,
          -0.04739489772160949
        ],
        [
          -0.08228022961314553,
          0.6960203236573066,
          -0.03105542302624266,
          -0.3996918496085748,
          0.35987777949356015,
          0.396245601377952,
          -0.0383984673562448,
          0.04238080717720582,
          0.06579553878090943,
          -0.19483090942323808,
          -0.4805208727433318,
          0.20102985202723117,
          0.42301531735976505,
          -0.3022147770857021,
          -0.3235202249746118,
          -0.49088484305750413,
          -0.01793242471509195,
          0.031463262214684054,
          0.5885351707429526,
          0.02137530394396294,
          0.10592707551246205,
          -0.30384664867037425,
          0.13496741235193777,
          -0.46965979343570435,
          0.1865597862969674,
          -0.1353739159683768,
          -0.20208395659366876,
          -0.3721717651564921,
          -0.2710113136935927,
          0.055607406613310754,
          -0.24451500880012275,
          -0.17240718765013233,
          -0.06804290963695903,
          0.1227203651696261,
          0.48291618276166104,
          0.025526929848030688
        ],
        [
          0.20253714459502264,
          -0.09146906429036566,
          -0.07645471032639929,
          0.24358386119785747,
          0.2141896073274522,
          0.28104871097469664,
          -0.1794174348888442,
          0.02220946732452384,
          -0.01621466325287212,
          -0.27784313928296683,
          -0.11641678075252605,
          -0.24411777355351807,
          -0.13034584067224042,
          0.1520956822385834,
          -0.2720465527213218,
          -0.03531254128726556,
          -0.0662364048069133,
          0.03125742040206936,
          0.09654823050386832,
          -0.10978185037775355,
          0.18072138273240096,
          -0.20751486544333134,
          -0.29052786684863124,
          0.019240525337469352,
          -0.2389867545003281,
          -0.12852276380523006,
          -0.16761987920431037,
          0.06185775459439537,
          0.20270068708787062,
          -0.15952200627368257,
          -0.04969644302403694,
          0.2796058349218186,
          -0.21939111336345726,
          -0.01748640807048703,
          -0.07981241405948546,
          0.23740030737997925
        ],
        [
          -0.04422230328024106,
          -0.056626333303509836,
          0.26103227973902093,
          -0.20778586634066157,
          -0.018625477082681138,
          0.0286469412115769,
          -0.2617691737415808,
          -0.21773416933615858,
          -0.29332437778551657,
          0.1669668247313726,
          0.29174029749806596,
          0.041926621890946474,
          -0.1752319572418546,
          -0.07431483377800377,
          -0.29022956557118185,
          0.010506337950087421,
          -0.0640766978693738,
          -0.29207568327764416,
          -0.17293296009154976,
          -0.039073682642037574,
          0.23954626113737304,
          -0.3116621002934605,
          0.295099246646048,
          -0.19413842652269517,
          0.1407779681202415,
          0.17194356381957127,
          -0.07742531962267449,
          -0.23507722546325252,
          0.19543618126648174,
          -0.21612609271803473,
          0.025230300392372704,
          0.2882058639184669,
          -0.054022367632267775,
          -0.2800348473798617,
          -0.09783017055531117,
          0.22529516880130757
        ],
        [
          0.04705587079714449,
          -0.11146714370461086,
          0.18268855258765793,
          0.33390891087292773,
          -0.09875474137590266,
          -0.46892344150494447,
          -0.06281244822885876,
          -0.12089339681523129,
          0.2825613100583482,
          -0.1052923292643953,
          0.1962835982482666,
          0.24649437525528384,
          -0.2378499388661289,
          -0.12201197256617809,
          0.24747368262165778,
          -0.1423890873764885,
          0.04775014654356059,
          -0.05713173449522333,
          0.2853278391219858,
          -0.07528482881180354,
          -0.2640483776796883,
          0.20021543871205452,
          0.0429823738522955,
          0.17416026519955968,
          0.04284000244960957,
          0.11450511719564539,
          0.36751289816270677,
          0.10049449007655141,
          -0.21260381050291344,
          -0.13525534077580134,
          0.024623673501157003,
          0.24497193081418883,
          0.524617832260082,
          -0.29025800785774447,
          -0.23350862551902668,
          -0.1552007835258769
        ],
        [
          -0.09429027642672624,
          -0.3659625457083546,
          0.05751746452105774,
          0.13101092699431066,
          -0.24741451725134145,
          -0.039018974076254806,
          -0.1971159145163145,
          -0.13838810426536308,
          0.09782332551837697,
          -0.17579201065719746,
          0.31841368195530745,
          -0.08675390262440313,
          -0.35590764930846214,
          0.3217073124352156,
          0.1361345487425144,
          0.16772464608542592,
          0.01166031183864227,
          0.10676211335373557,
          -0.18077383008953057,
          0.31560920395336606,
          -0.06699273822342944,
          -0.014628819250700734,
          -0.1839230221087388,
          0.4924584582058527,
          0.30619335528821445,
          0.08594425693043364,
          -0.019083491046941826,
          -0.0527879673446885,
          0.21128139989811875,
          -0.12974360819892752,
          -0.072159619437367,
          -0.02908969199665938,
          0.2271508084525258,
          -0.09915872684886795,
          -0.1704988131134481,
          0.11457317247388883
        ],
        [
          -0.30305418317128674,
          -0.3464699495038003,
          0.10370194897260794,
          0.2662561975173411,
          -0.13295862307475978,
          -0.016929543211515057,
          -0.1354463786377681,
          -0.12421343305453565,
          0.09425568876324861,
          -0.18859615390040135,
          -0.1641486516870123,
          0.29570183581441617,
          -0.16737869576236022,
          0.3152039532755556,
          0.1904949311191047,
          0.0058148604908612265,
          0.5996135720541393,
          -0.21154872728785445,
          -0.3355510258076653,
          0.1277423903438773,
          -0.03311482519034296,
          -0.020495879159549243,
          -0.16071281047098912,
          -0.09584636179393209,
          -0.01655973542348791,
          0.20376705232170295,
          -0.21625185412242295,
          0.21521302265912906,
          0.14396530005610753,
          -0.4118710609405786,
          -0.05481561230242912,
          0.4337242369568454,
          -0.2974602142964323,
          0.09805421321022598,
          0.12884260512199053,
          -0.20583708691436525
        ],
        [
          -0.1612652799145017,
          0.1014909357393304,
          -0.20922752955200422,
          0.271481491350465,
          0.20263383676599309,
          -0.03529005525187865,
          -0.3074541323126158,
          -0.041544926449928514,
          -0.27826067689711176,
          -0.24106511422520951,
          -0.2577652153174649,
          -0.044953418652090224,
          -0.12727223911427776,
          -0.07396939001477593,
          -0.3117236069007781,
          0.11614316213612831,
          0.30479646574205815,
          -0.24618640203361877,
          -0.1742758935395322,
          0.2182043642261087,
          -0.1900742320656445,
          -0.025577247522577333,
          0.22192509292676402,
          -0.18302640649448576,
          0.1558924817609507,
          0.029305714167267627,
          0.19488220236503348,
          -0.004980168032559191,
          -0.3058878631413252,
          0.11912711717368248,
          0.27569529900800804,
          0.12607383919803047,
          -0.01075178371226072,
          0.08826837482666762,
          0.14630482677671108,
          -0.03397765998616809
        ],
        [
          -0.03810130622506888,
          0.32593943656485025,
          -0.12331904320366309,
          0.18220378655182734,
          -0.3099179050874515,
          0.19695021184097047,
          -0.10203236649034084,
          -0.14075717633138213,
          0.04916267385622357,
          -0.17331354210048777,
          0.23841674104196936,
          0.27851289194437934,
          -0.1441567051518908,
          0.022170379550106395,
          0.2932106299294638,
          0.11791640006956021,
          -0.07640747589184768,
          -0.31354113639153874,
          0.26370239060421025,
          -0.20800965779249558,
          0.006877090020830124,
          -0.11774628774334046,
          0.27764396375175676,
          -0.054021078368547006,
          0.05329168972727824,
          0.1498501823305401,
          -0.046708125693911216,
          -0.3077288258782594,
          -0.11592087412553548,
          -0.03839280916943694,
          0.11056380036415546,
          0.018694798771727805,
          0.0709156726524273,
          0.05199061898642284,
          0.12615967021736735,
          -0.26075221471301085
        ],
        [
          0.05364547437824507,
          0.12134327169164294,
          -0.18899991352277237,
          0.06765278154998387,
          0.19740205227691082,
          -0.2492996773669375,
          -0.24611437517844553,
          0.2153448696921147,
          0.18874603903302026,
          0.06852169836537443,
          0.07335402605387391,
          -0.08838398345069268,
          -0.014220042427118225,
          0.2220755119888271,
          0.07634255784025996,
          0.22002905356929298,
          -0.029855465521149618,
          -0.15822451209269506,
          0.4432335994438208,
          0.17691107744431464,
          0.16924311365055097,
          0.3339050393317892,
          0.10507090169069304,
          0.10053301620528024,
          -0.26601282614802296,
          0.12307095785972004,
          0.08909821408077882,
          0.17574736866798907,
          -0.04348175849395421,
          -0.10050680656883094,
          -0.2468499641662105,
          -0.31088986917675226,
          0.19021551702451864,
          0.0973459189936799,
          0.167228269814739,
          -0.1611844518765218
        ]
      ]
    },
    {
      "activation": 1,
      "biases": [
        -0.09660553285580369,
        -0.22364544093398978,
        0.1404570168334353,
        -0.08732837472617233,
        -0.23862047077786944,
        0.3236954376117922,
        0.07010879700767476,
        0.07103416497522412,
        0.1076592629672221,
        -0.07714627109296157,
        0.14696245862905213,
        0.15113276480085341,
        0.04927094592457669,
        -0.07259459228716793,
        -0.2588601507459884,
        0.06648807323313284,
        0.15780591191620125,
        0.2574095202530288,
        0.35436962512256903,
        0.15094402880447302,
        0.15476232902804704,
        -0.13039476164475788,
        0.2923422747602128,
        -0.11463480950463023,
        -0.23408710942103333,
        -0.3944640493971171,
        0.052719420218641115,
        -0.4411691545078603,
        -0.23188148346748283,
        0.18197921593159952,
        0.1084573650391918,
        0.016846159862251815,
        0.20136920803167246,
        0.03429723866984827,
        0.050775764111444965,
        -0.15096263386699932,
        -0.20195896091465734,
        0.1770257987088158,
        -0.17916069913180996,
        0.15393838174477398,
        -0.35528037433187853,
        -0.06659998176679624,
        -0.03247484979369152,
        0.21449431033664385,
        0.08679038216372958,
        -0.22721478821840432,
        -0.17635725173858757,
        -0.09534305950228356,
        -0.20394810244450792,
        0.12282284343542614,
        0.01857388412637299,
        0.2214103362343414,
        -0.1152021906241473,
        -0.13322161695407525,
        -0.019546749862237568
      ],
      "cols": 55,
      "rows": 36,
      "weights": [
        [
          -0.1761358873108252,
          -0.2082704482055277,
          -0.025276732434955314,
          0.24942403098902388,
          0.0890830722588422,
          0.25263499596477007,
          -0.22867404012620007,
          0.08633022527075503,
          -0.06764041743098945,
          0.08024208600090717,
          0.08810650373744758,
          0.21583268594848892,
          -0.23362033631575904,
          0.24058183754449022,
          -0.03763434245449985,
          0.10678055525720054,
          0.039212291498347596,
          -0.051768756334745904,
          0.12714926527239828,
          -0.18996021111208733,
          0.20051776768925336,
          -0.02823099018489748,
          0.061199339175586905,
          0.019780344891758842,
          -0.08721816673403057,
          0.15685103859138175,
          -0.08479419319881584,
          0.007929547581896354,
          0.17863731186245924,
          -0.17326419174988006,
          0.0327648872312387,
          0.16124355466872878,
          -0.2377359257483413,
          -0.007786306330701129,
          -0.14525556746481,
          0.09518579772904605,
          -0.25315523766879566,
          -0.17621378360883058,
          -0.06405462101636888,
          0.0906312943326987,
          -0.10933097274038393,
          0.16468077625792482,
          -0.0593877952203563,
          0.11816464987565643,
          -0.07764091933055228,
          0.16920350419767163,
          0.07085628074332431,
          0.22938428721362414,
          -0.057403293566167864,
          -0.034230800845294104,
          0.016178380116216463,
          -0.054483672362459,
          -0.0825535675850901,
          0.08738483907534739,
          0.07654722931665142
        ],
        [
          -0.17827406555786035,
          -0.17331372235931586,
          -0.3854779147230959,
          -0.20433334198694322,
          0.15712404696696214,
          -0.08428562669453431,
          -0.023313114701929722,
          0.026600402316578915,
          0.20663609516602674,
          0.07241768552557014,
          0.21426947382499342,
          -0.10128634554644791,
          0.2818491893668151,
          -0.1253673457910899,
          -0.10565311894278502,
          -0.2584342467785616,
          0.18884475626716762,
          -0.013925426497885243,
          -0.010161123500841222,
          0.291020096201928,
          0.08939517024146817,
          0.09196108017031342,
          -0.008019702758117718,
          0.0966232060585455,
          0.05784130252626996,
          0.0604443794667313,
          -0.04990813733979916,
          -0.39039987045154134,
          0.14011072476614655,
          -0.20429885351466634,
          0.07542446342918478,
          0.050891534221707946,
          -0.1777739793236439,
          0.19867199643717748,
          0.24621139609071221,
          -0.09199493294636325,
          -0.07698018115206061,
          0.12344971072113331,
          -0.23896590134922874,
          0.1391350326422951,
          -0.12770242577883054,
          0.2636537798948301,
          0.37332141238291267,
          0.24850452818480717,
          -0.047059973804528504,
          -0.44219443565346406,
          -0.3670795252590693,
          0.024246508207982607,
          0.23228903086238947,
          0.007505344506602664,
          0.5094854028249262,
          -0.17519967199809752,
          0.38350654043465876,
          -0.1907569503579462,
          -0.18627885613856957
        ],
        [
          0.20130416605871415,
          -0.20779000180948373,
          -0.20036237709020616,
          -0.13783860654600907,
          -0.16100712258186925,
          -0.10513848638237863,
          -0.08594495578103732,
          -0.237165739090213,
          -0.09264201092391733,
          0.07474058824169917,
          0.23121942080983113,
          0.08504460597959951,
          -0.23303196318107783,
          0.09649449968106912,
          -0.009596493157574545,
          0.09129908231429605,
          -0.2500720285716204,
          0.23223212290362927,
          0.22808326720595679,
          0.1448252219431663,
          0.10818474476043727,
          0.0921681227460352,
          -0.15878464996487787,
          0.009304472136637246,
          -0.10910928588301826,
          0.030232220747826145,
          -0.06104157796624807,
          0.21774263139485084,
          -0.012017858614927804,
          0.09769441231084537,
          0.23333870527821135,
          0.1485586755970428,
          0.2409131323056652,
          0.10881507815164951,
          -0.23998975795475908,
          0.04877895186579024,
          -0.17161756842403386,
          0.09944345518432651,
          -0.1342597545631709,
          0.058042308513459755,
          0.1576511751652241,
          -0.05902321123650128,
          -0.15188736087576332,
          -0.04467449519028527,
          -0.24143357943229146,
          0.023883824195705058,
          -0.24004307217431106,
          -0.22770412069676035,
          0.007879357746835524,
          0.09738864638956284,
          -0.08766321683110277,
          -0.04770891103911437,
          0.0025009791504771645,
          -0.040662139343210696,
          -0.23118576641798777
        ],
        [
          0.04787220346367227,
          -0.14093739618571574,
          -0.048339970713496765,
          -0.07625615770967904,
          -0.19334811363865723,
          0.09553518042548727,
          0.1656097575193087,
          0.16176999814041662,
          0.006834139904239594,
          -0.03582047508888283,
          0.025308566097922952,
          0.08338742049700543,
          -0.24190718303865447,
          -0.0898894156320081,
          0.13886068465671464,
          -0.06820173754352271,
          -0.039482843896494424,
          0.14251786534490551,
          0.3646089287228773,
          -0.13131148280632157,
          -0.1257866965943765,
          0.0858478981774475,
          0.38899447861441644,
          -0.29776833511992745,
          -0.011503450936393347,
          0.13018360552359967,
          0.19004780115540085,
          -0.0673214320223177,
          -0.2663896919979352,
          0.1043671366053168,
          0.23521347419589017,
          -0.04757235423539999,
          0.23233503943697384,
          0.19999771451076295,
          -0.10956824737662546,
          0.23643020307626567,
          0.22117789465154752,
          0.2011672066594012,
          0.03742313875860224,
          -0.20650166710499313,
          0.1883831073598427,
          0.19311171050162892,
          0.04444921426628475,
          -0.0073319670527062595,
          -0.21535729449056554,
          -0.15511844280295084,
          0.1406783216008888,
          -0.13496961348231426,
          -0.11773749344473654,
          0.08958553613625157,
          -0.1069453623460756,
          -0.10700517682038854,
          -0.18917117929801489,
          0.1504473472182484,
          0.07197416831755114
        ],
        [
          -0.05405985343082076,
          -0.02687157109271165,
          -0.14461642445426795,
          -0.1421522843820631,
          0.0455436789097413,
          -0.12082229152892236,
          -0.2788315638313185,
          -0.07000584592215042,
          0.22453407329455105,
          0.05963666547284531,
          -0.017532674225528705,
          -0.1428335715435027,
          0.10938548002396337,
          -0.04806571315832195,
          0.18193738191361597,
          0.17823456361526627,
          -0.07687645517615603,
          0.09336453113755096,
          -0.31421974796877095,
          -0.24156407350663012,
          -0.31475114707762003,
          0.06577702160281843,
          0.14644319482253637,
          0.08477512674439412,
          0.3114941638841934,
          -0.04903642022623978,
          -0.2281959122522582,
          0.3880703097801492,
          -0.07223130563118867,
          0.142126263684472,
          -0.317539454657803,
          -0.058734154779194726,
          0.13256544034265674,
          -0.03485123514790608,
          0.09580342235072146,
          0.03447561699397622,
          0.2627153406533292,
          0.3406688285968794,
          0.07284809171384493,
          -0.07003558651699943,
          0.16395337862357154,
          0.04083795563537315,
          -0.22352348864149435,
          -0.1976173786184481,
          0.03592026639823977,
          0.07276785702601189,
          0.054261055709320036,
          0.06936435499559811,
          -0.03691206445898609,
          0.1815667705059768,
          0.13919527449461297,
          0.052914101795453826,
          0.2905001198886569,
          0.04945032268845731,
          -0.0897895975724148
        ],
        [
          -0.22793192247488503,
          -0.30195132040815204,
          0.08767416091202734,
          -0.2974993017236306,
          0.08682835386664053,
          -0.19437740868613204,
          -0.007072207711986118,
          -0.03368104996983349,
          -0.052569093948384805,
          -0.04382881708085097,
          -0.3456475326367072,
          0.20938163069714652,
          -0.1364924081901178,
          0.17336242745444397,
          -0.10827367744661719,
          -0.05403340697874314,
          0.121717524695641,
          -0.16901177464469264,
          -0.04327883886052338,
          -0.16665403264140638,
          -0.07514159026141201,
          0.604769440506809,
          -0.16868372448701752,
          0.2058955223190284,
          0.04965721754106716,
          0.051681578399805916,
          -0.03219864305634061,
          0.16446770360983154,
          0.10008723492843144,
          0.1538714847852031,
          -0.22438871943650623,
          -0.1627931605389614,
          0.08912886381426254,
          -0.5333047302622533,
          0.19412695283437545,
          0.13111840409425235,
          0.24401895470280652,
          0.08274584911855032,
          -0.1254946757390619,
          0.19782919250946623,
          -0.28409036977491664,
          -0.24758591264696442,
          -0.3255242670031312,
          -0.2895506734138328,
          -0.3546909334476305,
          0.10962099588099494,
          0.053066043011410255,
          0.32414688590874446,
          0.07750485139305326,
          -0.20317894375095566,
          0.052909469442157776,
          0.3183475724663211,
          0.2109977011988827,
          0.19635563587421784,
          -0.2781469364667965
        ],
        [
          -0.08308562497719249,
          0.08625843421191766,
          0.14471978679810474,
          0.043133807390871796,
          -0.2720738518276564,
          0.25050075926125853,
          0.2555484789801787,
          0.12450238440866697,
          0.27909796505883094,
          0.05517847917404542,
          -0.1385490919857014,
          -0.07636322343916528,
          0.23652578574106548,
          0.20622824294954306,
          -0.2612735320433363,
          -0.010765115974123246,
          -0.02384607337154994,
          0.18057081624592516,
          -0.18945543859920516,
          0.14493052086947314,
          0.22194022842205977,
          0.1622393097267989,
          -0.17983841743647283,
          0.1579150923395791,
          0.06705185427946737,
          -0.06515352658835495,
          0.005474572955190085,
          -0.05009018654274884,
          -0.14674784024073806,
          0.32272420174886873,
          0.03913003685931927,
          0.11426311682625442,
          0.2381438009732578,
          0.02897704994037608,
          0.12541133196188842,
          -0.13807228958201817,
          -0.11463573670771887,
          -0.03988681207997229,
          0.10256636165891861,
          0.11029679348227366,
          0.1363934495060169,
          0.06818607892968148,
          -0.09287553964580125,
          -0.08159081047840042,
          0.007930628192027276,
          -0.07119546424554228,
          -0.17731538410395004,
          0.20983670600841614,
          0.07707134320625376,
          0.19231018752643858,
          -0.09606156994288566,
          -0.11065100455720371,
          0.024355194597612595,
          -0.11090542082741892,
          0.08361877421144849
        ],
        [
          -0.1852793986065117,
          0.12611007360003396,
          -0.10074038831638697,
          -0.2493728686073888,
          -0.15230837832404423,
          0.06500968621343098,
          -0.03262364891144962,
          -0.00580880504058523,
          -0.02096462816680541,
          -0.1457525906709562,
          -0.35016981787447327,
          -0.059702639191697895,
          0.2176335728668042,
          0.14841856315794505,
          0.27335963278132225,
          -0.139326532879026,
          0.3154315769572193,
          -0.20197955821806615,
          0.06122004552128639,
          -0.02036330992133312,
          -0.0419576012133799,
          0.08292004786038958,
          -0.07759074162262988,
          0.0005209917179381394,
          -0.14244698334992079,
          0.08484825600102226,
          -0.07389635306274894,
          -0.043296432219847615,
          -0.2090144591005338,
          -0.028290066119454588,
          0.11563473725482865,
          -0.22512863238588607,
          0.06472636316747836,
          -0.11346949971691209,
          0.09925236572279739,
          -0.11825573286980698,
          0.23570660337804114,
          -0.06336056803475171,
          -0.03846503965846141,
          -0.10342465796753088,
          -0.20184413091228712,
          -0.06868227515239865,
          0.10827740211864474,
          -0.21155129448477547,
          0.04544245534618699,
          -0.011954642527591975,
          -0.002697069990686916,
          -0.05908179741381044,
          0.11851822233641689,
          -0.08759339439537116,
          0.1423212293657227,
          -0.01626967941484942,
          0.037663637700370796,
          -0.14820898637018418,
          -0.16869473183978906
        ],
        [
          -0.1993002441966609,
          0.18123320283084257,
          -0.005960774507299552,
          0.03190163235127865,
          0.054874556178598245,
          -0.2454000191431372,
          0.15966668080533813,
          0.08783617907375027,
          -0.12120187205070086,
          -0.10397660850041385,
          -0.18655759713299572,
          -0.003355188979185265,
          -0.1668074325040565,
          -0.08026285209747583,
          0.14439917833905885,
          0.10895563360397606,
          0.10224576716940395,
          -0.1836037294229391,
          0.005114377672522459,
          0.14086410743659522,
          -0.20808836916916004,
          -0.05378082168436711,
          -0.031225459827420105,
          -0.08253012669016452,
          0.008852117221450583,
          0.07525884530991218,
          0.11441861785396804,
          0.06498424581024817,
          0.09673253784265058,
          -0.13623307013171404,
          -0.05447245973210046,
          -0.12458242402510618,
          0.22753040994102774,
          -0.03058931649198961,
          -0.18332032730299253,
          0.07954685963405489,
          -0.08462673145120703,
          -0.014842254127432042,
          0.2550836998462059,
          -0.025284696805494288,
          -0.013857453396950426,
          -0.1523368267217546,
          -0.16962634234829888,
          -0.24902403755341126,
          -0.19807017366380097,
          0.05955789159053983,
          -0.06058125007142624,
          0.20238423480845663,
          0.057458404695407264,
          -0.02208097184049963,
          0.032393519997013204,
          0.24445271557023843,
          0.1442334381715458,
          0.11025780962194803,
          0.2514151563861618
        ],
        [
          -0.24920562587129627,
          0.10602267930168954,
          -0.03998189662998832,
          0.021829910268661663,
          -0.06378776581843479,
          -0.0972633125367191,
          0.20561625189407812,
          -0.2010374701290595,
          0.22326499282038426,
          0.08460815110850357,
          -0.23496687931092938,
          0.10012383827364506,
          -0.04892375518966025,
          0.12490138912569236,
          -0.1325547833270606,
          -0.11120557067265248,
          0.0976392863548292,
          0.1096389863531959,
          0.1940628428983423,
          0.025609116485939477,
          -0.04807582689232819,
          -0.04170986610999523,
          0.04444469593375449,
          0.02170904477588044,
          -0.15271725287744262,
          -0.004618541560478465,
          -0.2207430724021452,
          -0.13614175201361195,
          -0.12373962603167671,
          -0.2517589673383429,
          0.14563905893702359,
          -0.10288702956908372,
          0.19100719534432575,
          -0.04849867676089195,
          0.25080509717732774,
          0.16667546247290216,
          0.21920160583823817,
          0.13279411261392857,
          0.05471353786120207,
          -0.251906442112588,
          0.25065707739946574,
          0.2481720787642144,
          -0.17950313416621544,
          0.10661759654518049,
          -0.11751382061783919,
          0.07548407768005741,
          0.18571802850720254,
          0.21302414599974506,
          0.224536611090583,
          0.18362957919080605,
          0.07214411592018168,
          0.0960624842339068,
          0.16316576735973212,
          0.20525794083250296,
          0.02381452647165771
        ],
        [
          0.19293306562748222,
          -0.07651253119526175,
          -0.21701115531505394,
          0.17483929271610982,
          0.20344095568182294,
          -0.12155721203919345,
          0.09112120690322555,
          -0.23051926319947488,
          -0.2014820475523573,
          -0.05734595586681933,
          0.13765535635140028,
          -0.20299076072568034,
          -0.06058986131494682,
          -0.32443928092985913,
          0.10805190411671087,
          -0.35039325431846435,
          0.1940252241264278,
          0.1371289349923246,
          0.10933291041777961,
          0.13438207802731078,
          -0.06555902491601148,
          -0.2401946631662128,
          -0.047056834767785494,
          0.164254765315418,
          -0.023641233803293967,
          -0.15502972955343755,
          -0.06772293919443285,
          0.12873555448183832,
          0.09518307840985356,
          -0.22268934924091108,
          0.17616066031703087,
          -0.005427902008777852,
          0.04288929687519589,
          0.1470863361713367,
          0.05567740287898658,
          -0.12203216383420896,
          -0.18448043459299612,
          -0.13949306880685922,
          -0.21709240808878863,
          -0.04198830503659559,
          0.12663760149385475,
          -0.002894265049817148,
          0.28794710957590114,
          0.19033449995461146,
          0.0340004203190815,
          0.15903878941501418,
          -0.03719626197103262,
          -0.36898646606704005,
          0.23310108013384195,
          -0.1794581607817396,
          -0.12091779956427645,
          -0.1283364456995588,
          -0.06700465689916148,
          0.21275003329345,
          0.21283095142945563
        ],
        [
          0.06596722075997023,
          -0.08579334308399712,
          -0.19289788649655923,
          -0.20063780737710563,
          -0.03630859035945507,
          0.22279700202621464,
          0.027270207798356733,
          0.0015540569376356276,
          -0.20783764559344972,
          0.14420756777387375,
          -0.16008765617815027,
          0.22459975735094245,
          0.026262002074735495,
          0.17215346966744086,
          0.36776909309790984,
          -0.25284822553919806,
          -0.011374701029244896,
          -0.09044772608272646,
          -0.1005717214027428,
          0.21956575614213755,
          0.007405614655094732,
          0.009719099566025746,
          0.27933724776920565,
          0.041218028060084594,
          -0.15762668162954113,
          0.13055493584121267,
          0.32395970558931797,
          0.2682371408028276,
          -0.24465546892288004,
          0.11942497365855134,
          -0.28623608988430055,
          -0.2500289514855539,
          -0.0678718367335452,
          0.05375146959365906,
          0.26844715526499957,
          0.17372276073374746,
          -0.010033627919384383,
          -0.09271191088173755,
          -0.2422463503204748,
          0.151639427128263,
          0.16530371003227134,
          0.030052622390550485,
          -0.25861067136904164,
          0.035486924893102005,
          -0.11915055895538798,
          0.11186903539395938,
          0.12326863666626951,
          -0.21255512425578835,
          0.14475959130815316,
          0.14305340699590188,
          0.26017885292230036,
          0.21512823779034415,
          0.009110102630269575,
          0.20888237508682242,
          0.16675035459582588
        ],
        [
          0.12187921255334364,
          -0.26096412993483914,
          -0.3092561127841994,
          -0.06471042942033892,
          -0.11494128179432972,
          0.14835521619192135,
          -0.0008150818117849631,
          -0.07384056970891306,
          0.1717729643145314,
          0.2918140545392548,
          0.17426316049947357,
          0.20467478282628934,
          0.18591254502675655,
          0.034464869416217354,
          -0.08914147225823307,
          -0.047741788277990166,
          0.15624100850930742,
          0.0038485555945634866,
          -0.11612750675373604,
          0.05039050804106684,
          -0.1594854567513508,
          0.09217852247245797,
          -0.17794596934467838,
          -0.1289644985526368,
          0.08763851618943659,
          -0.36282961736875285,
          0.25038681132775575,
          0.042879403674464724,
          0.11157792358831849,
          -0.009665200604385148,
          -0.26487681947931957,
          -0.04415667372131305,
          0.32765315719832516,
          0.07241300173321218,
          -0.1566179166017077,
          -0.19739502048786778,
          -0.12954968238931455,
          0.288773734043518,
          -0.34833862718826947,
          0.21621641018827709,
          -0.28502900518033003,
          0.1275154719381706,
          -0.1350563460800026,
          0.27350792410786473,
          0.07731874462173498,
          0.09065777421153377,
          -0.17312485062035868,
          0.1583586232487508,
          -0.1314831605820275,
          0.3177316311654379,
          0.10784372602248811,
          0.11350548831040012,
          0.03987549791684914,
          0.037921516745750464,
          -0.29012165186474426
        ],
        [
          -0.17036030634879057,
          0.13638064240423203,
          -0.013681453975352625,
          0.015367158618631282,
          0.20029190071218347,
          -0.12225927628901755,
          -0.045591204440487115,
          -0.09007475165860282,
          0.21176666071367986,
          -0.03679423324959953,
          0.2094112123412138,
          -0.0707036135475823,
          0.2365454471608249,
          -0.10104730114790124,
          0.2519166312665484,
          -0.09287838400904169,
          0.10513195403191637,
          -0.19458506644931564,
          0.06745874197910391,
          0.027889220647361032,
          0.03843056798219451,
          0.17543699951175254,
          -0.06804129341099026,
          -0.10995221460965014,
          0.004764808955944576,
          0.18125618743567698,
          0.181467235503597,
          0.04943078576844983,
          0.06201865627766179,
          0.16000515014127625,
          -0.017928145402946717,
          0.20191795265267903,
          -0.07337627946102983,
          0.22173560778624363,
          -0.04502541151526196,
          0.08937424757373331,
          -0.26858591461335823,
          -0.12481059334670273,
          -0.1977886735739086,
          0.09208474033974388,
          0.2380386156988522,
          0.04607681459549134,
          -0.142738364089674,
          0.18303566132361085,
          0.1027892674175724,
          0.1058381741089686,
          0.006800261735826249,
          -0.2781803814463488,
          -0.010828310013843405,
          0.19896015929631697,
          0.006700597515505948,
          -0.022623986169004778,
          0.03018731187054232,
          0.16298133251532276,
          -0.05402395419117351
        ],
        [
          0.04447355597203142,
          0.1123197481825738,
          0.07047435279069707,
          -0.2201496529731772,
          0.18703281234390498,
          -0.041604498553485546,
          -0.08569404694763913,
          -0.0038439860646338,
          -0.11564032180737324,
          -0.20295998576960456,
          0.12357336819566614,
          -0.009456781531042744,
          -0.06463762913469423,
          0.14696714517608678,
          -0.12342864216327622,
          0.09085911193651675,
          -0.22669966773241254,
          0.013670043592775846,
          -0.0919811143001668,
          0.20496925941252303,
          -0.10747256766449456,
          0.11755606662143156,
          0.1667871111761557,
          -0.21931607655605737,
          0.22620265144306329,
          -0.26279898494089327,
          0.1977627817068426,
          -0.12473976595808603,
          -0.13682359201419322,
          0.03131300260065203,
          0.048576781962191215,
          -0.091734229272876,
          0.10049081793161609,
          0.15511888317486794,
          0.20072162328844512,
          0.23998097761122675,
          -0.022573559701830965,
          -0.11502529586513499,
          -0.20055080534079572,
          0.017633322966303554,
          0.0948585738591788,
          -0.23764305673767333,
          0.09662684362964082,
          -0.0412967639449072,
          -0.16837874452822404,
          0.1295122520784789,
          -0.14743956810608536,
          -0.08879432647563631,
          -0.1322574988332908,
          0.17503804333302472,
          0.15854162823968607,
          0.12525245761176632,
          0.0795912970771358,
          -0.025097170334719438,
          0.11301993305515132
        ],
        [
          -0.018656378744753215,
          -0.027271269349963587,
          -0.07110612021617656,
          0.15345813418544102,
          0.05783493046499615,
          0.0809418224830545,
          -0.24524940770206488,
          0.15058670263240143,
          0.01811382840457782,
          -0.1821857566869624,
          -0.012977559629525551,
          -0.09269552684736933,
          0.1134636482745612,
          -0.13676228286074868,
          0.012800324448388242,
          -0.05099113737289218,
          0.027490239501793915,
          0.2618727438483867,
          -0.10688576913399517,
          0.24152627613565208,
          -0.04066789099915438,
          -0.13046182426270345,
          0.40390831840196884,
          0.07931751706603249,
          0.19247047098951148,
          -0.026743500713601924,
          0.2958980279040546,
          0.007382749317263659,
          -0.28049618937048426,
          -0.23077357892452774,
          0.2341137745278732,
          0.3661395568988841,
          -0.15315493626538243,
          0.489742636487145,
          0.03133100727644966,
          -0.15205387290036626,
          0.02317360656013601,
          -0.42554849039219694,
          0.08416080239324154,
          0.1271088517514116,
          0.21005140984244502,
          0.30208913651780644,
          0.21424736802680747,
          0.08654381989907246,
          -0.17772703917354182,
          0.15172805051797866,
          -0.2509538860870855,
          -0.43235497134922984,
          0.2017796014806398,
          0.09321490840533543,
          -0.258416199544514,
          0.12283133274346357,
          -0.22375911274782415,
          0.06681397679581248,
          -0.07530207039248603
        ],
        [
          0.2303768054363117,
          0.19706604146346451,
          0.005237874584860837,
          0.12453101643739559,
          -0.206881481361498,
          -0.15206296522942434,
          0.2432271476925902,
          -0.05287127444768921,
          -0.3035358809512108,
          -0.27852975117522555,
          -0.2258265267342248,
          -0.054640695974606024,
          -0.34020778600053914,
          0.019982436370869747,
          0.32588663141386887,
          -0.3181936309076194,
          -0.043814481851712335,
          0.19498952163038355,
          -0.05368196520265969,
          -0.2707320180191276,
          0.29976597897619195,
          -0.2825271340674753,
          0.13892325640333755,
          0.0820181359848191,
          -0.27177054111228016,
          -0.0897869930140456,
          0.03590828778080742,
          0.16908980732403742,
          -0.06633096576527302,
          -0.2072064740387113,
          0.19042094386072947,
          -0.02388001207723499,
          -0.04755381817513448,
          0.21888465848657915,
          -0.015434014347746279,
          0.26828836410344803,
          0.210345330112436,
          -0.36856064625697743,
          0.11226352257182745,
          0.04867192892492436,
          0.22065004196366647,
          0.16159449660662187,
          0.010885999736717158,
          -0.10228953822921932,
          0.1424707786837234,
          -0.02850285068246447,
          0.08156116018727906,
          -0.27285075233767825,
          -0.02186240652557754,
          -0.14038770322300956,
          -0.41413766422362364,
          0.04078743243534262,
          -0.259364442178735,
          0.3070440524760412,
          0.031171928964913363
        ],
        [
          -0.032138260295076417,
          -0.13508079163113904,
          0.02462179902967258,
          0.18627963715754695,
          0.2505524993601036,
          -0.1608684675875259,
          -0.008070428984170217,
          -0.2041393870313901,
          0.10483459652664014,
          -0.23633879857367637,
          -0.16701298232804485,
          0.011738029509040288,
          -0.0963405984556622,
          0.23240928686349901,
          0.09787026649238689,
          0.23723661825740153,
          -0.24513041883922732,
          -0.13058833136045236,
          0.18078342131799105,
          0.24440265750217757,
          -0.010423154835051324,
          0.022444173825275134,
          -0.23342036781665687,
          -0.18964665467618047,
          -0.05038036428387025,
          -0.24344428334900736,
          0.19287286875268894,
          -0.17305592838660197,
          0.18406668285295633,
          -0.18297689754245924,
          0.18366452207737863,
          0.03550402423364855,
          0.1383713249826833,
          0.03399819693653893,
          0.004951168818429873,
          -0.1868752907179034,
          0.015359628285002805,
          0.22344472779117353,
          -0.12460714863192979,
          -0.18762825757545548,
          -0.06784335248115263,
          0.12757853154817833,
          -0.0446606541550326,
          0.036162115264099286,
          0.2186451514059524,
          -0.1962904843210275,
          0.1400582142471027,
          0.14910123112181822,
          0.07019670081751633,
          -0.15198125622246555,
          -0.1706882712540928,
          -0.06286543268988413,
          -0.007366077931926241,
          0.022584771366516355,
          -0.009700558716572013
        ],
        [
          0.11822842315487433,
          -0.07652453132799045,
          -0.30375177388657504,
          -0.018361563641261985,
          -0.21633703825402945,
          0.11326499352437018,
          -0.16793131140289103,
          -0.07559415368092876,
          -0.037474759004810135,
          0.1835877337322237,
          0.06959224747315972,
          0.213218601830137,
          0.14496791829707095,
          0.09868806053350317,
          -0.22151287085872343,
          -0.062367148035266926,
          -0.1056842074904546,
          0.2762303759214922,
          0.25235116350624065,
          -0.0004057338485792133,
          -0.044907153284619535,
          -0.25942788219770907,
          0.1141616091694953,
          0.1385629959268193,
          0.2570308529920426,
          -0.3017650689676808,
          0.07973494957441445,
          -0.058329881799135494,
          -0.1176924369962935,
          -0.13079308856317942,
          -0.17953203063089243,
          0.016526429894552053,
          0.30297977880574056,
          -0.007732134744263689,
          0.16130955056377486,
          -0.08605648746475512,
          -0.2711467385995264,
          -0.07396112642539676,
          -0.12715047301195928,
          -0.11897978422575868,
          -0.3342194020409322,
          0.13141853207838466,
          0.3246418409353834,
          0.4462103270056564,
          -0.278559461407064,
          -0.21737820514431472,
          -0.48845464489969426,
          -0.2698129333332879,
          0.1549054174755922,
          0.20894247317132164,
          0.15264465262904037,
          -0.24109040596487266,
          0.15601276841315756,
          -0.03858381752341107,
          -0.47417419359302787
        ],
        [
          0.07801922752109068,
          -0.12251268779857513,
          0.17786448639366836,
          0.27640974488960834,
          0.025362414624814606,
          0.4223165316040469,
          0.21222385870184915,
          -0.031129950055747282,
          0.16121865513764147,
          0.11627366241018426,
          0.11548985017462497,
          -0.1327006946023684,
          -0.23356756881019178,
          0.012326486128932907,
          -0.11809556253186515,
          0.18137738567780237,
          0.026110808150432863,
          0.3062173202840173,
          0.32046512538897676,
          -0.16569030085072042,
          0.08249065402820857,
          -0.3009837448798105,
          -0.36109666546543695,
          0.1305152705764232,
          -0.41105265634288285,
          -0.15146266619716495,
          -0.02298849842431084,
          -0.3259490473824383,
          0.23502498159552912,
          0.16165591461089182,
          0.3112414171442459,
          -0.32069394024176157,
          0.11855184290405713,
          -0.35022205471992396,
          0.007650303918527855,
          -0.3138167319066885,
          0.19269269479613596,
          0.41724967727092604,
          0.19281163859632325,
          -0.3590220423544126,
          -0.0766951031251516,
          -0.2958562578102256,
          -0.31801581093736,
          -0.009022161921135353,
          0.27807292461977423,
          0.018138931437832094,
          0.41060689630685054,
          0.2184793715661665,
          -0.16875689445450415,
          0.15140348399360354,
          0.11637512134937018,
          -0.017334182226663438,
          -0.10380062222018334,
          -0.04601101097626531,
          0.17309841129015144
        ],
        [
          -0.11964130644604506,
          0.11838574127053589,
          0.145742126080005,
          -0.09638990035810806,
          0.014392127772449985,
          -0.16584948832741256,
          0.01737951523765123,
          0.1542304237335995,
          -0.1615596660930706,
          0.049817761761199356,
          0.13327710180218788,
          -0.06155675632600806,
          0.17402086219278334,
          0.23709395740277422,
          0.04218438896957962,
          0.10822855645093159,
          0.001353501416734035,
          0.035382478622268544,
          -0.206378794697147,
          -0.1302714597050889,
          0.0896396070426924,
          0.2154025193047327,
          0.23638729959103527,
          0.25334328639594417,
          -0.0007137398694895338,
          -0.04176047874733552,
          -0.20017110760451756,
          0.02343779050939353,
          0.05489257023408587,
          -0.12841996715213624,
          -0.015081822795002291,
          0.022722759395046768,
          -0.14129522132007358,
          0.09481853225087038,
          -0.23493791209367662,
          0.10618947671404262,
          0.022146718790653042,
          0.022841993942383745,
          0.1749212380606513,
          0.07948935661092492,
          -0.0276626200460646,
          -0.16086821146691435,
          -0.24489202985697622,
          0.009622016258069471,
          -0.2030037506311687,
          0.10790734844164722,
          0.1586313774426342,
          0.24434681173006356,
          -0.12643019051340093,
          -0.06961470367512765,
          -0.1877373058880126,
          0.1997786189093642,
          -0.09599953452258934,
          0.2229295759761268,
          0.05455244469249741
        ],
        [
          -0.1591712884930206,
          0.24961219043100116,
          -0.12380865440738528,
          0.17487030514660887,
          -0.010399745555207668,
          0.05304725856160112,
          -0.13339556096601923,
          0.1663029100634877,
          -0.32790398373430507,
          0.13356053491557918,
          -0.1244402607597228,
          0.11271118415247883,
          0.09602543300072691,
          -0.03161919566942342,
          0.001832680890346134,
          -0.2325198539000039,
          0.11511242784400057,
          0.06492500556947141,
          0.014158048601133085,
          -0.06555300523337713,
          -0.014628040896580834,
          -0.08908730027348921,
          0.417691391229463,
          -0.04833114844441116,
          -0.23392735284833405,
          0.048036001155308976,
          0.11274934492475613,
          -0.15093807154748146,
          0.07589504784629608,
          -0.0032876398368857267,
          0.23965952358621134,
          -0.03633205921894904,
          -0.0892343226162908,
          0.46101611174956,
          0.12477506460496647,
          0.12907255805897763,
          -0.218829059720309,
          -0.4119906042529141,
          -0.21041022488930836,
          0.27761523455584175,
          -0.14689722681445855,
          0.21896963452617402,
          0.36362885617212903,
          0.03113475566589573,
          0.10851438244803402,
          0.2085341003131454,
          -0.293627123703032,
          -0.4321206812734731,
          0.23190005821518048,
          -0.1304204908248509,
          -0.2733742619945043,
          0.0035568306605382174,
          0.07063550002973042,
          -0.13193140726428718,
          0.20952264397039788
        ],
        [
          -0.19047916556558112,
          0.14029746196906936,
          -0.03726169893079805,
          0.2360523340401641,
          -0.10155385588994871,
          0.03189116368271579,
          0.034678893119119605,
          0.006110432812225289,
          0.16394092033426225,
          -0.2637061566655041,
          0.019728904141284868,
          0.06020337889110927,
          0.02500097551468706,
          0.14097316399046664,
          -0.355104182250633,
          0.004352809510573973,
          0.0006529807490237737,
          0.2619081672956924,
          -0.19091434504525803,
          0.035410192914588294,
          -0.009206432864907608,
          -0.22686452155383377,
          0.11318721677199824,
          -0.04507206857890108,
          0.2126515907344085,
          -0.23492085143974462,
          0.09565862801433153,
          -0.12526337519200673,
          -0.0858517828034808,
          -0.06787025168191377,
          0.14715929735974456,
          0.08808243534350131,
          0.1845566931771993,
          -0.10160663432352358,
          0.08561680550327978,
          0.1769016969558892,
          -0.06239267701593292,
          0.1351448601328797,
          0.01883519492911268,
          -0.12753130783031452,
          0.10730680301163852,
          0.010595335260031001,
          0.05160598277631061,
          0.30541752652633536,
          0.0315301173983555,
          0.02716744254091554,
          0.12641929287860143,
          0.148251956365095,
          -0.27788196762148687,
          0.22893405600959124,
          0.2369868209675908,
          -0.13675365000718342,
          -0.0635215291869189,
          0.15785469348375025,
          -0.14613836999326216
        ],
        [
          -0.22650886223529867,
          0.005443853840232133,
          0.6099000668144738,
          0.24433441612931067,
          0.014023841566958259,
          0.48065311767408925,
          0.3218332917622022,
          0.0992428730189588,
          0.22663047820405965,
          -0.18657389425062876,
          0.41240731534241004,
          -0.0566916886482751,
          -0.0654238868095004,
          -0.2165045832115891,
          -0.35909919937735124,
          0.2961827794103807,
          0.019107209780700508,
          -0.01115084210560773,
          0.30573654320754245,
          -0.07401664005009949,
          0.1194110092330325,
          -0.20743033499912283,
          0.30344535978385034,
          -0.1487865575137035,
          -0.5051734426824024,
          -0.020204908136402275,
          0.04016543548550868,
          -0.1303552887559141,
          0.08088277575904325,
          0.44999088852785885,
          0.18157288597766688,
          0.1518274691734414,
          -0.23878230673248527,
          0.10292386770152225,
          -0.23261473139581476,
          0.08766930152942926,
          -0.28351086547203175,
          -0.025409927051617702,
          -0.037480687333065976,
          0.031479745097979045,
          -0.09900701951347855,
          -0.1725092102380216,
          0.05757398095416661,
          -0.09663174006756814,
          0.26128310199609256,
          -0.10988693228636928,
          0.0246102958918022,
          0.06531731669689839,
          -0.18016310047967213,
          -0.2601103479574519,
          -0.35557253726513455,
          0.05727212582045353,
          -0.10532528381428666,
          -0.11378094333676192,
          0.44059708278781756
        ],
        [
          0.21582322177310256,
          0.16755849739232853,
          -0.1785548050159512,
          -0.02608674458573457,
          0.20294381893815078,
          0.2550271600428672,
          0.25102899923037403,
          -0.18432543478954758,
          0.0651233947211605,
          -0.1360857144902437,
          -0.07760821937705334,
          0.24308667720242008,
          -0.17542888536679957,
          0.22721514670579562,
          -0.009203988411066042,
          -0.0166015573280891,
          -0.052624402232686315,
          0.011640424007976794,
          -0.25475132030296915,
          -0.09510069005192436,
          0.23519338224317163,
          -0.007060453425294834,
          -0.09141514031145825,
          -0.14974691560179917,
          0.14126718213968498,
          0.1629350383177877,
          0.22293208662646047,
          0.05729631125873819,
          0.110006571271166,
          -0.23476421178498538,
          -0.00646434060992471,
          0.1653478188041396,
          -0.07936691565022269,
          -0.19529581911728092,
          -0.16774157078760085,
          0.1969662512749473,
          -0.10416579185585835,
          -0.20546559109686208,
          -0.23736237424206028,
          -0.22519865872009376,
          -0.050612460178170546,
          0.237094002773743,
          0.030422644820293724,
          -0.04025449621233713,
          0.04349773794573926,
          0.18555356292701086,
          -0.225363021833335,
          -0.03683920224883916,
          -0.233029842771261,
          0.1418453527507875,
          0.23619226738102408,
          -0.19314784302190768,
          0.23493667265991386,
          -0.12945206747889626,
          -0.17041141101314852
        ],
        [
          -0.23460646808935443,
          0.049798300053855604,
          0.203049324588779,
          -0.1983611106532346,
          0.13043584694871369,
          0.1135266993364076,
          -0.08051813759375624,
          0.048989291606840464,
          -0.12647628514302034,
          -0.19301644908077767,
          -0.2048883753891336,
          -0.07274109485492702,
          -0.25596370231069504,
          -0.2401080543062252,
          -0.02758733764938287,
          0.027421690168655297,
          0.18372209266235048,
          -0.020104152536363894,
          -0.06894421618323879,
          0.1250519893504162,
          0.24742167576876734,
          0.08909327840097173,
          -0.2058196249544621,
          -0.1439404400853235,
          -0.03687473318627593,
          -0.0813609983271002,
          0.11706261477387789,
          -0.12355902775052341,
          -0.16942059732225717,
          -0.14304316297842115,
          0.029974838283653157,
          -0.24874589886428794,
          -0.19212009205574676,
          0.06721522526419706,
          0.1764776825796028,
          -0.08791503610836354,
          -0.1100064340483505,
          0.032347436501082,
          -0.13774749739094713,
          0.04566800905832716,
          -0.24503531799672507,
          -0.23468635089563505,
          -0.205717270584896,
          -0.0705601161679291,
          0.1338882659612456,
          -0.23116324645761316,
          -0.055871823983290346,
          -0.013362790713295155,
          -0.03937207699078738,
          0.18790932138334288,
          0.20484460689678569,
          -0.06608704500077427,
          0.07160244196821688,
          0.20030230438204497,
          0.04213576868480815
        ],
        [
          0.24284162792120975,
          0.06656878787803246,
          0.13607460779062966,
          -0.15534884784429387,
          0.1397434744583216,
          0.05924516581019429,
          -0.05454655846142564,
          0.017899047003817066,
          -0.3509699381444679,
          -0.26131083809794114,
          -0.09791187227026868,
          0.09825249590579364,
          -0.13853920747916096,
          -0.0996299691775587,
          0.2300737588565559,
          -0.2995872765030498,
          -0.0122414483164546,
          -0.17685822466573342,
          -0.1738266611002392,
          0.020602021554970176,
          -0.0924550931110675,
          -0.27734254629283167,
          0.1573540052123383,
          -0.34855240739851534,
          -0.15931507660104835,
          0.044127106308385726,
          0.2276290470292151,
          0.09754459915184321,
          -0.06910245699991288,
          -0.3542611012414121,
          -0.21473768338789595,
          0.36706635703149176,
          -0.20111532934735918,
          0.26612972761119685,
          0.2745388602889623,
          0.1997446884478853,
          -0.15634076361898672,
          -0.042338112480932624,
          0.13376855789098627,
          0.24819380079370912,
          -0.05197451986129296,
          -0.03690906949881073,
          0.3324381846118116,
          -0.04150698448821217,
          0.16038393871614856,
          0.05930646725282529,
          -0.03772506552123219,
          -0.15314599515554086,
          -0.07478014520768066,
          0.13939662687808962,
          -0.14229687473443375,
          0.023340408928093664,
          -0.19787686186932144,
          -0.004186001281934345,
          -0.21533750415982145
        ],
        [
          0.18847161701140444,
          0.24141442240805172,
          0.10980136179925812,
          -0.10418773971735901,
          0.1561974232960646,
          -0.1394081199261412,
          -0.1287377118908584,
          0.2904723982751005,
          -0.09476148329260961,
          -0.028952363545297146,
          -0.24495125134999332,
          0.008197342117376825,
          0.1468813565359898,
          0.07684473546868588,
          0.21539150670314627,
          -0.23457320801860748,
          0.07860708167891599,
          -0.2829825954783315,
          0.04537120114460965,
          -0.049314870896133005,
          0.04379066587011187,
          0.043694926208690615,
          -0.14781431686531332,
          -0.012232451328974946,
          -0.3472840962168533,
          0.02158836572839739,
          0.0807478650583492,
          0.14786865315345252,
          -0.10047508160955708,
          -0.11527025011718424,
          -0.06809528522010176,
          0.11122562572099964,
          -0.05125736664412881,
          0.1656674468880903,
          0.005152466048129146,
          0.10827491854343488,
          -0.11828162856729853,
          0.02166240312013253,
          0.01358732302107863,
          -0.21493120833438464,
          0.19657725473567744,
          -0.02331391752594015,
          0.18201501172250117,
          0.05779041424661622,
          0.08034879230705198,
          -0.0093450129111419,
          0.004721910809217999,
          -0.2540483994123083,
          0.2603499917721254,
          -0.2599969415181503,
          -0.011398030454619264,
          0.2897507485328074,
          -0.2820084735703317,
          0.25255895163770004,
          0.34109256144959527
        ],
        [
          -0.15603659728680047,
          0.1037371964705659,
          -0.04918348731706608,
          0.2022073293606141,
          0.09584740437958128,
          0.01783062542101418,
          0.2476187484772782,
          0.0316337297133085,
          -0.09921087375487807,
          0.18810002193713668,
          0.1271535602548292,
          -0.1454345359868971,
          -0.21393023041580947,
          -0.21032203098063695,
          -0.04045518193199585,
          0.18351258444332696,
          -0.11991487578243859,
          0.047381628355903996,
          0.25450256743970084,
          -0.25306142386936564,
          -0.013158029378282421,
          -0.23875698799196143,
          -0.017461152905374453,
          -0.1252906192779391,
          -0.18673547229986706,
          0.040278745201612336,
          0.02901347882898168,
          0.11802849056264102,
          0.05761394380136375,
          0.23987211178566856,
          0.21620743990549768,
          -0.0841334496101733,
          -0.027840903188438598,
          -0.10058992374068329,
          -0.22701941512373136,
          0.007779361898918732,
          -0.159636800784748,
          -0.14851125071670723,
          -0.18232369910919968,
          0.08725962072787755,
          0.23443932441883472,
          0.1467537058824586,
          -0.1604275728142132,
          -0.007859852643716653,
          -0.21643740584369628,
          -0.022227232971323934,
          0.02889664861089643,
          -0.16382641577003346,
          0.15775951896674326,
          0.19819006680699625,
          0.23460598384650727,
          0.008007007446553437,
          0.02031795042536837,
          0.19386500586797104,
          0.22559015473669108
        ],
        [
          0.06596299058809957,
          -0.09121374765121716,
          0.3233581571790691,
          -0.15479018758917512,
          -0.23045181072036972,
          0.033888451361143136,
          0.047563371552343754,
          0.1719848030567898,
          0.2100739392414646,
          -0.08021524994625337,
          0.25229657416464024,
          0.32677846594576715,
          -0.09894253909762064,
          0.003278073191573486,
          -0.3294977600215896,
          0.206126999683185,
          -0.19844143066819556,
          -0.11103827061714959,
          0.18261372184330202,
          0.01020314206666402,
          0.22255975756116367,
          0.15801339197265496,
          -0.29597778700930505,
          -0.15902116293849164,
          -0.2834880699261694,
          -0.03846571175824213,
          -0.40529703408882084,
          -0.3557037275742468,
          -0.2598360211120112,
          0.41687204715992016,
          -0.030391308671616383,
          -0.3583104268514928,
          -0.02543745738903964,
          -0.37016817012862463,
          0.07432864296932662,
          -0.29181843879525177,
          -0.18130982124417738,
          0.1853050763143002,
          0.035327399211032,
          -0.18150396260248264,
          0.021934334507881906,
          -0.23473817880553752,
          -0.3595930302446512,
          -0.04107042522316273,
          0.04859168553712433,
          -0.35095097635752454,
          -0.0923484430596594,
          0.4055928648460477,
          -0.25582224822036714,
          0.04567897143881986,
          0.03614562921846245,
          0.22032072208391595,
          -0.1404050119008583,
          -0.22966721229288004,
          0.017649224911016538
        ],
        [
          0.2573643746455221,
          0.2348097997330609,
          -0.14030917443930266,
          0.11398862070400939,
          0.11844842874605968,
          0.16293835259409828,
          0.1713881953565952,
          -0.08798437979719634,
          -0.04218566959557027,
          0.215354292714066,
          -0.06582240475459693,
          0.20341606596327919,
          0.19587675339942298,
          -0.07575298724913451,
          0.09022133314745741,
          0.12543792602652357,
          0.07065199077385573,
          0.03025180361313756,
          -0.16441478622143663,
          0.11214190392545242,
          0.2549983549089134,
          -0.09798585452982318,
          -0.03313757931274701,
          -0.0339212532570859,
          -0.2582710754598475,
          0.16197298032917998,
          0.04502558404732552,
          -0.201147101670016,
          0.1663466128540632,
          -0.2664474702580838,
          0.1891754293435356,
          0.1867417103130049,
          0.1244262056606365,
          0.18341263268173594,
          0.16875337536676518,
          0.008033805372050515,
          0.010461802211017507,
          -0.26267427111886377,
          -0.028816368903093213,
          -0.16771011071187122,
          -0.040095210803929526,
          -0.08348251834108814,
          -0.16914799178971657,
          -0.14460201223074498,
          -0.1420619522843636,
          -0.03465405802493081,
          -0.2367257956657045,
          -0.12037862092548024,
          0.01556520886170128,
          0.06503322118717457,
          -0.2453453462698444,
          -0.25805782835402197,
          0.21152806811275496,
          -0.04078654806143118,
          0.04981337469872043
        ],
        [
          -0.04165610747508363,
          0.044199974780803765,
          -0.10211201336189142,
          -0.13083515958740885,
