{
  "layers": [
    {
      "activation": 2,
      "biases": [
        -0.6597644388173404,
        -0.7425279110255949,
        -0.02085160952853285,
        0.27148642233666875,
        0.24717608530333626,
        0.0,
        0.0,
        -0.3380354699217006,
        0.17657269885573837,
        0.3549117960379108,
        -0.3361691779410265,
        0.0,
        -0.09166833059509101,
        0.314132395142798
      ],
      "cols": 14,
      "rows": 4,
      "weights": [
        [
          0.7728418668133149,
          -0.9657878198735579,
          0.3366886402676371,
          -0.12180640528491216,
          -0.060697585110436554,
          -0.27770494844646043,
          -0.32854052051638494,
          -2.3757819206376487,
          1.1048227661236947,
          -0.5773686516319823,
          1.766581732809342,
          -0.41125962069335464,
          0.6153252883078059,
          0.3633551826449636
        ],
        [
          0.9591599434473596,
          3.312967488296139,
          -0.24010118059761493,
          -0.3466282069308941,
          -0.5021471806676492,
          -0.08749241072604703,
          -0.002553789301180451,
          3.289809122559527,
          -1.1740199553678985,
          0.22124162023300178,
          0.4661080155184334,
          -0.0030222550113447335,
          -1.280627335950811,
          -0.13287174006450542
        ],
        [
          0.5529123542545022,
          0.6196705331973835,
          0.02226844520162516,
          -0.3571255124274978,
          -0.036272937130043786,
          -0.5511617158857932,
          -0.19761686490714322,
          -0.3887767616207444,
          0.21937967138408232,
          -0.7252777367318349,
          0.3708682364284009,
          0.011783713016215286,
          0.7854248522137285,
          0.11049428544232338
        ],
        [
          -0.21745875190132144,
          0.1319066338765892,
          -0.27091174966867226,
          0.5020482831925251,
          0.4995532027668412,
          -0.3672400141701443,
          -0.4279001156286981,
          0.6023386565733383,
          -0.09543698918292784,
          0.18732386293267564,
          -0.6215166520717034,
          -0.5596279377012775,
          0.25716059589083146,
          0.248287743066706
        ]
      ]
    },
    {
      "activation": 2,
      "biases": [
        0.15130781549167704,
        0.022611097010816223,
        -0.28841143824774335,
        0.006108467643151597,
        -0.269476148409992,
        -0.16690351542083678,
        -0.05053915857145364,
        0.5661734700666491,
        -0.032676614426071705,
        -0.09478445947209409,
        -0.02109624107107982,
        -0.07040008898584034,
        -0.020698812530751714,
        0.0707464716921539,
        -0.053714240485622705,
        0.030405351312966625,
        0.7073839326690874,
        0.2246009569654157,
        0.0952525243325802,
        -0.04434155357590285,
        1.1068517329185315,
        0.5404092563391552,
        -0.10954025472946384,
        -0.02819045241662307,
        0.0
      ],
      "cols": 25,
      "rows": 14,
      "weights": [
        [
          0.30509578504216694,
          0.06465379395007709,
          0.10616187870014211,
          0.03581309799026052,
          0.588922949221229,
          0.7331884489944847,
          0.1758650211800948,
          -0.2943567944383489,
          -0.31703590149678346,
          -0.03011830285126007,
          -0.08131663893581179,
          -0.2879083878324175,
          -0.11684518820034492,
          -0.3156948501132674,
          -0.07920157975173961,
          0.34519062368597125,
          0.3470682575716629,
          0.01584929189024694,
          0.10998942528485774,
          -0.21213648877968966,
          -0.6900395511050872,
          -0.3877367047922897,
          -0.18968979771247263,
          -0.1259954574033893,
          -0.1330664075005974
        ],
        [
          0.04205082311036836,
          0.5853313778073718,
          0.400338173853022,
          0.6791877181702681,
          0.1666958077443839,
          0.7999454697240158,
          -0.13392129964158847,
          -0.4124884037925428,
          -0.052228447758792776,
          0.7987884229945977,
          0.09856153179423226,
          0.18856047324794034,
          0.4360236174158441,
          -0.3861168812859983,
          0.33690777205781725,
          -0.19432734559112086,
          -0.7564530733898932,
          -0.22537707706838034,
          -0.3041677092511001,
          0.1663882312281125,
          -0.5981184351585923,
          -0.1294408214844641,
          -0.32568855309382555,
          0.07766019507248188,
          0.061294253310746984
        ],
        [
          -0.23683541312437564,
          -0.38234822562406623,
          -0.2272483118507991,
          0.2046306714575916,
          0.2290846932363659,
          0.1297648117321675,
          -0.21516623053003853,
          -0.024864907897425178,
          0.01229939648186137,
          0.03413759691773531,
          -0.23927343244330135,
          -0.09429801203877278,
          0.17304033080945017,
          -0.3583239138496769,
          0.24828280593793411,
          -0.21470308640767552,
          0.041526427412387816,
          -0.050505119489410194,
          0.06132244858741277,
          0.04282610673065503,
          0.14569884112692402,
          -0.2513459593697288,
          -0.15517124468204715,
          0.17197624473128564,
          0.17057364798134053
        ],
        [
          -0.36558434579921156,
          0.13431383682116052,
          -0.21907657334131234,
          0.06256745316031671,
          0.27776500001193644,
          -0.2801468194196022,
          0.0726378030076154,
          0.12692459955907023,
          -0.389299606913635,
          -0.11579486646894188,
          -0.30383963920735785,
          -0.26103978445613285,
          0.39130120502869514,
          0.003441952794830437,
          -0.2110058228692159,
          0.1933036554310077,
          0.2185822848251256,
          -0.06077628913986406,
          -0.1161312411933003,
          -0.35937808033308216,
          0.4764098715320833,
          0.3321546913256226,
          0.34005694134322506,
          -0.34991560088257057,
          -0.3865940978606514
        ],
        [
          0.30556008941817714,
          0.260377052971113,
          0.28604563230006996,
          -0.21344076454638586,
          0.19175490791154096,
          -0.16309476892060631,
          -0.21415848148701178,
          0.0010423063569812872,
          0.08250738604199938,
          -0.1492135557817254,
          -0.07101273004876943,
          -0.10658631203670704,
          0.09350217404750742,
          -0.20340967241391747,
          -0.18353408414041977,
          0.04757391745927196,
          0.12654374231227186,
          -0.11009060373390367,
          0.2137705291395675,
          -0.37531829543363054,
          0.5431315255553165,
          0.32082572727164393,
          0.21382132624550398,
          -0.2106895337334926,
          0.23278665434565915
        ],
        [
          -0.06827347469154284,
          0.1234362723081005,
          -0.25001635230215197,
          -0.08119418661510303,
          0.21526591728044925,
          -0.35055343441257925,
          -0.3564458859592173,
          0.025153226586353772,
          0.094892877034265,
          -0.1566278663364066,
          0.07748050502726854,
          -0.2657626137765476,
          0.20177161147573583,
          -0.17128474502316915,
          0.3739071000684601,
          -0.30934101019618887,
          -0.30643751843130096,
          -0.040953317897757656,
          -0.24040735854435133,
          0.16365533365838758,
          0.16831819132660203,
          -0.08019099878092038,
          -0.2695652088414959,
          0.21336794648742702,
          0.32063585099760894
        ],
        [
          0.19933368789262715,
          -0.3152810797423058,
          0.3517105987402937,
          0.3376061217240154,
          0.023810703291591045,
          0.36159191938232205,
          0.1696908846815463,
          -0.07610812107699275,
          0.04817337117847634,
          0.2184485789964533,
          0.0037106757598362934,
          0.06884416484458547,
          -0.06473473678633215,
          0.202154224138067,
          -0.0888035173611945,
          0.33661641618912896,
          -0.2856635461620941,
          -0.32701184286331564,
          0.2503733322306145,
          0.22251361862627142,
          0.1447083930341472,
          -0.06003584132807817,
          -0.29974330696907675,
          0.2876617476294365,
          -0.34464588048434897
        ],
        [
          -0.5206820925150007,
          0.6498627736394355,
          0.13402419200772098,
          0.639788063972452,
          0.3361880561967116,
          0.2602586186435559,
          -0.3217886381990498,
          0.5818223116139271,
          0.08239794521787465,
          0.6160922592291921,
          -0.3935255452272374,
          -0.031668750599023125,
          0.3168133378982448,
          0.11708090578553053,
          0.5611360815996961,
          -0.2254668025863778,
          -1.245137072084479,
          -0.5243424082614279,
          0.060262178259752296,
          0.2626279411720294,
          0.30417842046068544,
          -0.2191954463152039,
          0.02107968803083339,
          0.02541375923974576,
          0.022854140951002636
        ],
        [
          0.2902451944905161,
          -0.3810464125228481,
          0.49720112612673195,
          -0.3540633010679579,
          -0.33281841846173355,
          -0.2746795838109245,
          -0.03497514883266859,
          -0.44657722625784063,
          0.2570587445947801,
          0.013372004532234378,
          -0.010791683606278767,
          0.1730690889210257,
          -0.06515315327282302,
          -0.15798530342444259,
          0.14934873630060305,
          0.1812941720529755,
          0.5314759430259969,
          0.3269045797545679,
          0.3774761075610468,
          0.008809582311961765,
          -0.12983848104137188,
          0.04925599153020802,
          0.17340243516473522,
          -0.0736457220138405,
          -0.27807790733876897
        ],
        [
          0.24626136837366613,
          0.535830420872822,
          -0.12361869095320671,
          -0.04157861952948363,
          -0.2543837207344948,
          -0.03461333658019631,
          0.1558047987524683,
          0.4591629977846553,
          -0.29118439594193596,
          0.2169179212025996,
          -0.264119088500149,
          -0.3410892290725102,
          -0.2597116644133834,
          0.18687676676618603,
          0.09283316433870135,
          -0.2816675608897236,
          -0.15140222707835538,
          -0.2126700673212586,
          -0.16443505154822424,
          -0.130212869484435,
          0.6623313419379208,
          0.1358635296682955,
          -0.2361654564668388,
          0.11345520670275293,
          0.184343970512733
        ],
        [
          0.14067867760308808,
          -0.2651507627685996,
          0.6267507382330734,
          -0.26302767334064536,
          0.6094056920772358,
          0.8353804037657889,
          -0.2036844206786902,
          -0.11117935978493487,
          -0.08272723544199186,
          0.04031390587187627,
          -0.03320213264624752,
          0.2564731566796598,
          0.08890719443038779,
          0.37666768733504097,
          0.40516935911667773,
          0.6303695479032037,
          0.7786067652330294,
          0.6479128395305985,
          0.4222284641208005,
          0.07927733526263803,
          -0.29965503308257885,
          -0.44543978456327077,
          -0.3674626258553994,
          -0.11634656578363575,
          -0.3658227758049862
        ],
        [
          -0.023017508807724282,
          -0.15880678423959113,
          -0.2762255530951919,
          0.08048558709360304,
          -0.2538187336696609,
          0.1066592958469869,
          0.34836689792171394,
          -0.025451600448716936,
          0.21607266200843916,
          0.18003425535144352,
          -0.09429201535986176,
          -0.18987083943912267,
          0.21722602946233532,
          -0.10749781062624203,
          0.08513296904897245,
          -0.22577475259903623,
          -0.29988434472192704,
          0.24854059577725657,
          0.020984529086702352,
          -0.3245456849170009,
          -0.2743338821757381,
          0.01284907597573459,
          -0.2851600936252233,
          0.13886434414014961,
          0.24967589794369752
        ],
        [
          -0.07225864674866206,
          -0.5952366232410664,
          0.027145388924927696,
          0.19380651080794994,
          -0.04815255669755011,
          0.16834263012588704,
          -0.2398043888659815,
          -0.42891014176399583,
          0.2366323737818171,
          0.0007529268732424321,
          -0.14837892951400458,
          0.03192982684228721,
          -0.010189951868610051,
          -0.08757410857216408,
          -0.14836867357870212,
          -0.09009075762028065,
          0.6260276374279926,
          0.11163431315520334,
          -0.30390759296570097,
          -0.2550240924245584,
          0.3960774252406591,
          0.44098289682572833,
          -0.42073132542497826,
          0.10711860139071068,
          0.20198932313920417
        ],
        [
          0.1589920921623539,
          -0.07388318779944109,
          -0.262209082816327,
          -0.14745790262295158,
          0.36746169253785715,
          0.2603224822785948,
          0.18052673382032106,
          0.1506087681277861,
          0.13711938414591815,
          0.27726675159881725,
          0.1423649932772124,
          -0.28719151792331904,
          0.40411645440945765,
          -0.032414541528018204,
          0.1008204025947007,
          0.08241110073895712,
          0.5147311748282868,
          0.37967753567817847,
          -0.04730399791283448,
          -0.17696127091301492,
          0.31386696463899066,
          0.4762725236761702,
          0.2907407557720265,
          -0.2783334281275611,
          -0.32797751163717476
        ]
      ]
    },
    {
      "activation": 2,
      "biases": [
        0.27343881376072926,
        0.11577281493961288,
        0.0,
        -0.7259064231120658,
        0.2819020161000428,
        0.01165711682590687,
        -0.027142276067487574,
        0.39990526128448123,
        0.3968220402399769,
        -0.025429882773139418,
        -0.21049594041958156,
        -0.005853855414866625,
        -0.005606116988958701,
        0.0848125540240744,
        -0.4374883092855526,
        0.40766674701139816,
        0.0,
        -0.03564414290702237,
        0.04732922087586387,
        0.1041710261479245,
        -0.09983984697735719,
        0.31904091917083766,
        -0.2311542720490234,
        0.301698422867522,
        -0.10012385699828613,
        0.0,
        -0.009868780220880847,
        0.3540042034231544,
        -0.7264810982120288,
        0.2232688385031548,
        0.0,
        0.22529565075698155,
        0.0024594598397176424,
        0.3108567302085287,
        0.47976561325062567,
        -0.005788981077583175
      ],
      "cols": 36,
      "rows": 25,
      "weights": [
        [
          0.16170597667722136,
          -0.04811532713121156,
          -0.16316658348583427,
          -0.2926294117493528,
          0.20585137166583797,
          0.2931883371806571,
          0.022936782512936044,
          -0.381451535756822,
          0.18081466803742868,
          0.09570523295056514,
          -0.30577994125196134,
          -0.04625754489146717,
          -0.2503893846895054,
          -0.2895054599868594,
          0.02751737964986957,
          0.039190867742634784,
          -0.2511574463198074,
          0.002971372587512676,
          -0.31211808443601147,
          -0.26347776953878804,
          0.08154486450679459,
          0.0688934403699529,
          0.048017052553118625,
          -0.20258617104095925,
          0.06726241718294218,
          -0.1342658219664703,
          -0.27996298661362445,
          -0.17936628082010633,
          -0.1407815828672737,
          -0.03748874057847039,
          0.1782104006153615,
          -0.19647599807963115,
          -0.01696289837316534,
          -0.14467138568779692,
          0.18417924490004367,
          -0.0965076349477602
        ],
        [
          -0.35013506686468,
          -0.10303474207293992,
          -0.003557972065365334,
          -0.032919488358276905,
          -0.469449342869768,
          -0.056029893403006736,
          -0.4146875000764414,
          0.3375071381967428,
          -0.27283761152671454,
          -0.14716873785424184,
          0.18368047916334293,
          -0.2713791985900442,
          -0.08268660535189667,
          0.24077819176468332,
          0.22354352324701007,
          -0.4880898061125335,
          0.18962400271867005,
          -0.2827373274774419,
          0.2476155328123282,
          0.3121048842832566,
          0.16308283453044645,
          -0.023609213635100428,
          -0.032982491065678084,
          -0.2917473160749858,
          -0.12140813927297833,
          0.2400035870073836,
          0.2670367481641405,
          0.18485997827654968,
          0.37525646682074915,
          0.007596869646211461,
          0.06322304859612204,
          0.439310542260509,
          0.30417950876554595,
          0.06822426194343356,
          0.3997024107917133,
          -0.01177937752381631
        ],
        [
          0.10859620069774245,
          -0.045900474575933214,
          -0.2100819248130661,
          0.1772799076641659,
          -0.13383378933862744,
          -0.022031752477122118,
          0.4472973373106738,
          -0.24465564711285245,
          -0.2542249017479898,
          0.08148924456608006,
          -0.06820062461260556,
          0.21088881852479102,
          0.08409461272762249,
          0.2510890182876544,
          0.21314907264516164,
          0.16243298975443432,
          -0.04688114637346866,
          0.043502748166751266,
          -0.11660125758531649,
          -0.1464937723722924,
          0.02905244336004251,
          -0.013874234084217778,
          0.13708060917927048,
          -0.08820458893656834,
          0.2771501709312792,
          -0.10477305865796953,
          -0.25661770132816003,
          -0.37653236220633746,
          -0.12368475099357283,
          0.2693747427854408,
          0.028196125939955997,
          -0.32208369719622,
          -0.07171338638259521,
          -0.11687540333293858,
          -0.4340722954825722,
          -0.18129975257279635
        ],
        [
          -0.3260728646405135,
          0.10838816943979447,
          -0.05638908756552644,
          0.24176433657841007,
          -0.122171418767341,
          0.0926500410480969,
          -0.37055943726466695,
          -0.10658089482888886,
          -0.3768002653300577,
          -0.22914779301182595,
          0.354807222310861,
          -0.06815361774304562,
          0.10575202501763631,
          0.20849487720843857,
          0.3757014899489328,
          -0.4311243856620924,
          -0.10536657578961174,
          -0.2772459919459278,
          0.1836403489448079,
          0.1075873204126473,
          -0.0423746159967318,
          -0.29612654055698434,
          -0.034868130997758845,
          -0.030657310673008687,
          -0.015002799594285243,
          -0.22991160307937528,
          0.26593549639083686,
          0.3937853499491968,
          0.5364744581468733,
          0.2409746848950085,
          -0.30874775666735665,
          -0.08880552566141607,
          -0.29136005764696193,
          0.31724901268893524,
          0.11817541007408876,
          0.07664033084575135
        ],
        [
          -0.3264419110817846,
          -0.34774914761914116,
          0.04342809702625745,
          0.157007964868847,
          -0.3389107980756015,
          0.1732794986410172,
          -0.07724443208622016,
          0.042071441470979014,
          -0.3323412359575045,
          -0.22110912813950087,
          -0.02585594221228543,
          0.14314926005088133,
          -0.1762925179746769,
          0.0874129806675771,
          0.08666928253952838,
          -0.3906524396098264,
          -0.1691532635956541,
          0.20502495409582072,
          -0.2550161732113322,
          0.17782336776249993,
          0.008239893282089754,
          0.43550493356024256,
          0.4200015185324308,
          -0.25701053073739855,
          0.3017938921213172,
          -0.264016122031354,
          -0.01800904305804004,
          0.019877503372248084,
          0.3560607175301135,
          0.03264352250741365,
          0.1161023442768834,
          0.0014856874535713212,
          -0.08989837478668665,
          -0.22010388127881375,
          -0.2686921672472172,
          -0.09829623647906925
        ],
        [
          -0.023084758820372454,
          -0.32570523575114124,
          -0.22302936956898287,
          0.3466187162360848,
          -0.6107441566417138,
          -0.01847409151328035,
          0.2969175293689305,
          -0.05369082229087275,
          -0.7887141726207426,
          0.033866951653661305,
          0.2815572500833889,
          0.08099247370190255,
          -0.06427347217088542,
          -0.06567502470484377,
          0.16330371890345555,
          -0.5789995781982059,
          -0.26168286785899714,
          -0.09436680063962558,
          -0.1108305337518447,
          -0.2421641375633202,
          -0.1997698096379692,
          -0.017572228283423887,
          0.5449241688488117,
          -0.4822168504352244,
          0.08953919935973323,
          -0.15212210485513225,
          -0.2091579393140714,
          0.33118918960897237,
          0.44109589077044736,
          0.022943936996922768,
          -0.04279964873792509,
          -0.20601867553988745,
          -0.05144839156605906,
          -0.12412285749280852,
          -0.33195429160764367,
          -0.2739541595767481
        ],
        [
          0.23786453096788066,
          0.28054889448665604,
          -0.008326379307244829,
          0.1422473397840579,
          -0.2556717543498514,
          0.20727677492039429,
          0.13833605713342206,
          0.2795436437619689,
          -0.09034917644948043,
          0.12174342073426694,
          -0.19887104270650907,
          0.30394529248237967,
          0.2765417956776991,
          0.24172108730846517,
          -0.04236690191028749,
          -0.13897631070112318,
          0.17337778234128817,
          0.19592311677716348,
          0.05903673129834206,
          -0.15795424625861937,
          0.1383173606264089,
          -0.2401538334535958,
          -0.05616983929461248,
          0.3119137267454447,
          0.0905386146434391,
          -0.04501988926208321,
          -0.05928260983648396,
          -0.08926207261668465,
          -0.10716348195957819,
          0.0022906893855686875,
          0.12210893238872418,
          0.23271503862055737,
          -0.22297700496341485,
          0.19524286459919898,
          -0.1572270146488078,
          -0.07941996234193166
        ],
        [
          -0.06172318700593092,
          0.28418634751298455,
          -0.06469627112261996,
          0.12466428846432215,
          0.2257200360794149,
          0.10424306536478495,
          -0.3379537340218523,
          0.44021256787365814,
          0.085616426111177,
          -0.27725996769516004,
          0.1585263126887873,
          0.0843118171625473,
          -0.0863931212598262,
          0.10151323502278359,
          -0.17984752643736085,
          -0.09064381784731039,
          -0.24333606760823787,
          -0.18376961687839002,
          -0.06099744000173666,
          0.35606723153776365,
          0.07610790414843993,
          -0.27682246451615056,
          -0.23804196563285981,
          0.07038106907758505,
          -0.043119048356790896,
          -0.18572071409355825,
          -0.29836155029866684,
          0.4139612287681737,
          -0.4656472940609136,
          -0.2857170827798212,
          -0.07733101116608088,
          0.2980631154308021,
          0.24692959409123444,
          0.047806947405882524,
          0.3581887254212445,
          0.15243437679731653
        ],
        [
          0.11717265720179915,
          -0.2094742694808563,
          0.3013547986967154,
          0.03699054673263647,
          -0.11214685243943316,
          0.05105741401894597,
          -0.09683604452942707,
          0.04065873900374047,
          0.05807429797387654,
          -0.25245202866009137,
          0.06695486371546196,
          0.29105095160186156,
          0.12809968125743004,
          -0.14889311120639473,
          -0.18058098864437944,
          -0.09554372321869754,
          -0.07897411124009135,
          0.28684139584116736,
          -0.013983923110934035,
          -0.2730065968821231,
          -0.24243736595029386,
          0.27681551621026,
          -0.17386794657133284,
          -0.17317517189426943,
          0.06628066189755763,
          -0.21180199102564462,
          0.19153597736230274,
          -0.03972955956439343,
          0.2500201598630342,
          0.11418808996070279,
          -0.0402048244842605,
          0.25389926690486314,
          -0.17033601149593414,
          -0.14838109754489898,
          0.13170691985632824,
          0.15092661937364193
        ],
        [
          -0.3757383066810932,
          -0.08992127098084451,
          -0.17403741578252652,
          0.3422157913904534,
          -0.32199714459940293,
          -0.2206195307901464,
          0.00426526182713912,
          0.1852073362716655,
          -0.39389934917847175,
          -0.06496007887560133,
          0.2037587814640244,
          -0.2281724032251291,
          0.2369644165036679,
          0.2894144125949762,
          0.29098058225304413,
          -0.16330750146050294,
          -0.056785648142652426,
          -0.10530601869274693,
          0.22489604464053264,
          -0.16829760709520739,
          0.02130732805987913,
          0.22703923951627877,
          0.19097758403371395,
          -0.3456524610391162,
          0.14943449771264575,
          -0.11203970576230116,
          0.06781273690617814,
          0.508327387897736,
          0.58155620959618,
          0.09532445366632661,
          -0.17418320937354628,
          0.27435025727385387,
          -0.06845312624473375,
          0.2397277423037653,
          -0.2255918722243267,
          0.02434008549824248
        ],
        [
          0.26632022874986805,
          -0.12965299115418696,
          -0.17987236010241942,
          0.06622054212786703,
          0.252962275032202,
          -0.024788337000340308,
          -0.13925658166374782,
          -0.00020987187009710104,
          0.2004566339551741,
          0.2532441247204198,
          -0.04415982546712055,
          0.028470148366302107,
          -0.22207336983350873,
          0.22713993119180334,
          0.23467319652049193,
          -0.15783862200685783,
          0.2781850073285865,
          0.19612838352330225,
          0.0337012078277606,
          -0.29267824029304523,
          -0.2625502764305147,
          0.2415179528304661,
          -0.008471725715760917,
          -0.21246509474142167,
          0.2887972757776299,
          -0.046690089081208,
          -0.09156568972572152,
          0.1272325897426611,
          0.2924345634398949,
          0.04111888120730915,
          -0.12122505162356877,
          -0.17916024405284278,
          -0.25034177436881805,
          -0.19782429401719112,
          -0.22117364982521842,
          0.24410357778004907
        ],
        [
          -0.043749886689281654,
          -0.011154926156776318,
          0.23047602084470195,
          0.213325925689235,
          0.035867576608677884,
          -0.2910857506135176,
          -0.12201630845699128,
          0.24004650421348056,
          0.1124875752919177,
          0.26617224896164193,
          0.24947696971055883,
          0.19906462260060925,
          -0.24965953796686713,
          -0.12690102940035353,
          0.22145425584415082,
          -0.14908200959554177,
          -0.06644101568683357,
          -0.03449570063994275,
          0.009786182130230463,
          0.24721525096588748,
          0.021593029150994907,
          -0.07044054264260907,
          0.014162224962705996,
          0.03367701054187459,
          -0.29958187045748663,
          -0.0305169057006472,
          -0.3007369853622081,
          0.27074994966893773,
          0.07989007226829785,
          0.29024180249486287,
          -0.121286125359338,
          0.27975782739702015,
          0.09898954150156597,
          0.09345721198862546,
          -0.183969418708244,
          -0.19373344305971163
        ],
        [
          0.24576621300192472,
          0.031652489700498936,
          -0.28581526711773564,
          0.2335362767271524,
          -0.06292796298737537,
          0.08549666300764125,
          0.029568039182008066,
          0.33094079295009293,
          -0.27379512314556603,
          -0.24533772394990913,
          0.12518139275173235,
          -0.31626075405556925,
          -0.008642010494389575,
          0.22944692277176001,
          -0.16633010438457552,
          0.06842960058600374,
          -0.16906487543151275,
          -0.07767147019412421,
          0.06268293468800183,
          0.14323835129658516,
          -0.3071540525020216,
          0.3903245624687229,
          -0.09551560458779572,
          0.18697111991927717,
          0.14896687396727268,
          0.19290530633589678,
          -0.15593986856268544,
          0.32303627941348456,
          0.512680121519143,
          -0.05835255127078261,
          0.10674769394096284,
          0.29086878940790345,
          -0.04286616863477706,
          0.032796532746312744,
          0.24937139807217443,
          -0.023516443373288246
        ],
        [
          -0.12476947506338538,
          0.0754807174994994,
          -0.2163254303581532,
          0.1829132375360801,
          0.16154649802108692,
          0.27888902613984634,
          -0.31711912699238487,
          -0.13527669656757144,
          -0.15274479683576953,
          0.018214641057538943,
          -0.1378283128239916,
          0.007987598580090155,
          -0.006761966927069693,
          0.2484371095893147,
          0.12739638389613556,
          0.19286310035951054,
          -0.030643089509518485,
          -0.12036144365649983,
          -0.1279617996169062,
          -0.31083933455447527,
          0.14733407791565295,
          -0.0023207908187603023,
          -0.14678056699399997,
          0.04086008658454495,
          0.2883099720517059,
          -0.09601549211663138,
          -0.13420920517196747,
          0.10241694924816228,
          0.08803803279902664,
          0.012393527903259377,
          0.17335425042745833,
          -0.08199310610532481,
          -0.24522861327099632,
          -0.22202255762918832,
          -0.0372054754069086,
          0.20520629078811153
        ],
        [
          -0.3146693038801541,
          -0.34953553185586667,
          -0.24022873658515562,
          0.1865839636187024,
          -0.33910710925186266,
          -0.06351959251388371,
          0.04491659062253393,
          -0.13195800244525296,
          -0.5355798949038726,
          0.24539181564585452,
          0.11077648287361644,
          0.08813780584437313,
          -0.12418548199155086,
          0.02959608605773591,
          -0.05777643242985288,
          -0.10006856975760493,
          -0.04611582480254279,
          -0.128992365838353,
          -0.2912679741185346,
          -0.14483007142944831,
          -0.1910666807470866,
          -0.09288937102341925,
          0.006769479804780826,
          -0.07689487362423011,
          -0.0008951437233605542,
          0.18199798139041073,
          -0.08282725879700092,
          0.26315979590802013,
          0.2163765105350414,
          -0.2279038261571138,
          -0.011586895159222699,
          -0.16405407703185473,
          0.10271254874307242,
          0.18718227751378877,
          0.1753808161922404,
          0.1111490032759172
        ],
        [
          0.3294498732201714,
          -0.13381939385069286,
          0.08418439416748513,
          0.12613555492255382,
          -0.09099873956287716,
          0.18648734014895488,
          0.2859355077053792,
          -0.3297114110215982,
          0.13587221828902227,
          -0.14887197720540948,
          -0.09123253475245115,
          -0.02143687586606992,
          -0.24421523614890603,
          -0.18657350949465124,
          0.07542540554629008,
          -0.09574451753779449,
          0.2123921030179406,
          0.06200435026872338,
          -0.1649751572669315,
          0.2067460712486597,
          -0.30839240826421965,
          0.2930834601703333,
          0.23723572257272618,
          -0.3095204766291136,
          0.0033778227725777513,
          -0.25841178024398126,
          -0.25612691538584725,
          -0.3287439932866199,
          0.06751548265630955,
          0.3421112409328048,
          -0.2934320030299874,
          0.11529394090928388,
          -0.30229790370867626,
          -0.35403240650344153,
          -0.1285169796303222,
          -0.15820948864593976
        ],
        [
          0.44148904234650826,
          0.23432711885877813,
          -0.188995937355169,
          -0.3254124726677148,
          0.25679712986522035,
          0.2152917140468801,
          0.6090642269078343,
          -0.08907329659861901,
          0.6558481357298452,
          0.323006792294909,
          -0.3269638101405063,
          -0.13367481824667665,
          0.19884138224286257,
          -0.41847871003500775,
          -0.0033085595578396516,
          0.5442698501164667,
          -0.005948810713358492,
          -0.0315297751286176,
          -0.2896143826185104,
          0.19723830004945445,
          0.15766843348528486,
          0.5340710516272019,
          0.37794657439594,
          -0.022494666377163738,
          -0.32569313439636866,
          -0.0474569125586803,
          0.09201381868180222,
          -0.7630118740000758,
          -0.5671542799616895,
          0.5056739731094184,
          -0.27179607738926576,
          -0.3656195016327731,
          0.004522684436073459,
          -0.3277422084625495,
          -0.21959155606235342,
          -0.11501935840565666
        ],
        [
          0.12053623499139318,
          -0.1014447045498567,
          -0.06047510844587322,
          -0.3524991779994905,
          -0.17279567521949196,
          0.33065822224250274,
          0.40095168207025705,
          -0.34607310027549454,
          0.26279621375153456,
          0.25013030806704,
          -0.0071420429780465495,
          0.2581155861143165,
          -0.06114538550332156,
          -0.24891682500556017,
          -0.15705661425917009,
          -0.020658012766743672,
          -0.2489039976546568,
          0.05287026480511076,
          0.3011108327613787,
          0.11612248932404437,
          0.11638175237964087,
          0.0722051179568566,
          0.38587548329268756,
          0.22951516759867926,
          -0.2450272322744113,
          0.25373192035314857,
          0.3048818036514223,
          -0.41707583022782296,
          -0.3489135947079169,
          0.12157038551971004,
          0.1854282658417989,
          0.10429208534254032,
          0.1155014864382546,
          0.05355302844176793,
          -0.27659594381685254,
          -0.31061316414952533
        ],
        [
          0.07651330636329268,
          -0.02575813236970494,
          -0.2600695865592804,
          0.1341076026176023,
          0.2539805385637743,
          -0.24490733044882873,
          0.14054814695819645,
          -0.32955036745637334,
          -0.1168068438020765,
          -0.13367622226812978,
          -0.23777435221387605,
          -0.019966325446271495,
          -0.23491522372439763,
          -0.17427637553523653,
          -0.2872450614729693,
          -0.28687512253690683,
          -0.19891722151339167,
          0.3055104737430085,
          -0.12698042357643438,
          0.20614487088596736,
          0.027287883491914224,
          -0.1718227019100256,
          0.1445522169921412,
          0.10657289591053772,
          0.2591904427622463,
          -0.20069224926874246,
          0.1428303283813998,
          -0.25397056405894025,
          -0.14569999315120793,
          0.3295981696065526,
          -0.3126254389834048,
          -0.33055621146810094,
          -0.10541657157719231,
          -0.1122542744176454,
          -0.28142252637294896,
          0.18499848222729112
        ],
        [
          -0.044676131127536725,
          -0.22449539684735462,
          -0.3112055335551329,
          0.14873098467381404,
          -0.10527517260179062,
          0.05393552082941919,
          -0.2812581477844087,
          -0.10018475223192404,
          0.2770105079387832,
          0.2984737036612696,
          -0.04392451595359602,
          -0.2560642325479457,
          -0.31007275643654036,
          -0.11656115948660113,
          0.2030145091386951,
          -0.0763527162091763,
          0.04101486209505531,
          -0.19168634648153143,
          0.023808634564046038,
          0.12169478763818073,
          0.019741792928328807,
          0.2274587625845334,
          0.2241558059367628,
          -0.24526366517790835,
          -0.03390221374793077,
          -0.31112435728802346,
          0.05816076585172964,
          -0.14427129934600139,
          -0.031747038404355235,
          -0.21285996827053352,
          0.1779006699232199,
          -0.06850716006455002,
          0.24483990543646805,
          -0.008841410118449166,
          0.10483009940730836,
          -0.00890759503306949
        ],
        [
          0.2959781632480325,
          -0.022085210441182418,
          0.20674937177486769,
          -0.36234952256578834,
          0.4543460001716315,
          -0.35182785627127033,
          -0.36470619797520526,
          0.5826835514175598,
          0.8252489158574327,
          -0.12021078820207179,
          -0.49078977248234085,
          -0.1127585440249352,
          -0.2976449145674829,
          0.5022915354534097,
          -0.06255165288176272,
          0.49479555741005593,
          -0.011015726116588683,
          -0.13504802316169234,
          -0.03958569897141015,
          0.03267920192623269,
          -0.11965847291892359,
          0.27982931811884265,
          -0.4706290634218212,
          0.22682298707502838,
          0.02119601072803818,
          -0.31067125147748054,
          -0.22952060296327775,
          0.5277320065296718,
          -0.6123901073064374,
          -0.08522649766943269,
          -0.12442030873063749,
          0.456562627252251,
          -0.29617403653211805,
          0.5409688192420682,
          0.6327521124369204,
          -0.06937736374012675
        ],
        [
          0.4654996479695492,
          0.40024324382454,
          -0.12857553677532058,
          -0.010518346929256508,
          0.48638419331554555,
          -0.15717467870431173,
          -0.2586287465181138,
          -0.03710900458194756,
          0.2766732354199582,
          0.2091314001258267,
          -0.25176303608574374,
          0.013877259379397036,
          -0.19894484292421816,
          -0.07822448956522443,
          0.011126221175660905,
          0.461230309067665,
          -0.10254462628803131,
          0.025953763713098103,
          0.19097136490869943,
          0.0004231520550108919,
          0.012693559462645125,
          0.055025633508106554,
          0.0364197582966842,
          0.2687169043088974,
          -0.2866853330359761,
          -0.22232247192904422,
          0.05243266644058156,
          0.1722104936693705,
          -0.19049845717749145,
          0.11630230571442184,
          0.11953182023404355,
          0.2948309513774596,
          -0.109411713032103,
          0.3429866039453497,
          0.004779208177017881,
          -0.019687185190276894
        ],
        [
          0.030773952181851066,
          -0.015853385508929587,
          -0.09263057797789781,
          0.2605820525716006,
          0.29185601861604665,
          0.2673083577688072,
          -0.08590298206483316,
          0.010886876010030916,
          -0.1018495477947266,
          -0.042232712934774486,
          0.2761747696751256,
          0.09551330883709644,
          0.20403185852210004,
          0.07649190969839591,
          -0.19124539028294985,
          0.28397795215988214,
          0.21559839542863257,
          -0.2841198001014686,
          -0.0786838093703889,
          -0.02889980800670564,
          -0.1481825071848931,
          0.062177997884300784,
          -0.10683974335045804,
          -0.11907067954296148,
          0.036136963470835386,
          -0.04524866041497562,
          -0.050492836133098275,
          0.2781036634488027,
          -0.17588399732182744,
          -0.21368253517827723,
          -0.11060166996780024,
          0.07360433571490792,
          0.242292791680272,
          -0.057321438071371564,
          -0.29129870727223517,
          -0.28586983229971763
        ],
        [
          0.298806532961818,
          0.2566041384506943,
          -0.007504473947541458,
          -0.04080705053955145,
          0.11795477308695305,
          0.2936140036096294,
          0.2261871196123539,
          0.026999496688258195,
          0.16594247539624907,
          0.01636733254986291,
          0.02352091695722503,
          0.15930831408592683,
          -0.012567258377553816,
          0.03572482959410569,
          -0.2296433968628782,
          0.07664652996328969,
          -0.06129640831116373,
          0.05313654361852165,
          -0.11910022311348341,
          0.2917988959529798,
          0.14589430857488114,
          -0.1438732896039501,
          -0.29738676458145585,
          -0.08530977256747274,
          0.1768278617179692,
          -0.2671771916328542,
          0.03537248188316558,
          0.006263978192137807,
          -0.15567528280344242,
          0.013969403304408476,
          0.2868756779826209,
          -0.26387094797019134,
          0.10763693915878872,
          0.0370441977479865,
          0.19138805989589208,
          0.12109765244458079
        ],
        [
          0.2775137027123613,
          -0.22557639423018988,
          -0.0504339507061283,
          0.1701246244293747,
          -0.2715310472564316,
          0.19442957849649786,
          -0.2356227376659335,
          0.3060058048656133,
          0.24146974455614037,
          -0.2770129886257335,
          0.018097910647836096,
          -0.2356208688992894,
          0.16535468753277258,
          -0.28531155856476903,
          -0.07389383085478321,
          -0.1733698834578313,
          -0.26415536237941856,
          -0.13818002205071378,
          0.1316150623550926,
          0.1857131178112648,
          0.1252058543407066,
          -0.007209115350230068,
          0.17364450540495527,
          0.09226261437905549,
          0.09508531308139279,
          0.03603519864117348,
          0.2885603792907027,
          0.08210237986857377,
          -0.13335284271125752,
          0.20490158713323223,
          -0.15160056094286226,
          -0.04071796069914837,
          0.0648974699351448,
          0.027482957212200967,
          -0.2509132191406974,
          -0.13816173132923498
        ]
      ]
    },
    {
      "activation": 1,
      "biases": [
        -0.39037422565496144,
        -0.09053250540772091,
        -0.08899734735895205,
        0.023185834125968093,
        -0.28350553417659663,
        -0.2929010721928189,
        0.2888299926039781,
        -0.5980111414968704,
        0.14441365474259696,
        -0.0951709271573141,
        0.08999884816707548,
        -0.05292394191989364,
        -0.11349913089624204,
        -0.5773567579512083,
        0.060074971732387766,
        -0.35662692871714197,
        -0.2196053192293354,
        -0.08367524222205594,
        -0.035406851859006286,
        0.04733162258338815,
        -0.07114615008073834,
        0.0776605374346208,
        -0.1356082209507405,
        0.12772832655566194,
        0.2653231171639316,
        -0.05088608715521365,
        0.15392601058886085,
        0.042711990080597576,
        -0.7175111746686335,
        -0.14077132458970235,
        0.018102658449727027,
        -0.18423323941963535,
        0.5487419038590284,
        0.24898904058985777,
        0.21135847064520172,
        0.013239704995602014,
        -0.0076971816680132055,
        0.06650669116884747,
        -0.17300586265264625,
        -0.12983507496546393,
        0.1343673727314439,
        0.3417777056062098,
        -0.2685435081143971,
        -0.06058912730256123,
        0.11585046350204524,
        0.31187934383288096,
        0.05224073222528226,
        -0.11169218745056207,
        -0.12855564912964412,
        0.33435042584151076,
        -0.24281652099832762,
        0.14588592254071134,
        -0.3247353257598412,
        -0.2919436906925284,
        -0.16500128289711513
      ],
      "cols": 55,
      "rows": 36,
      "weights": [
        [
          0.03839194089485288,
          -0.25260926708437575,
          0.05082970733414383,
          -0.1758782401135996,
          0.12070339675881292,
          0.16840174114284698,
          -0.0059281221165281,
          -0.04897545366458646,
          -0.18435837838319108,
          0.3860930849448618,
          0.24418704496939267,
          -0.23691423823594876,
          -0.10190788941803322,
          0.3715569229778068,
          0.007294437300102007,
          0.20336694586259935,
          0.18751355541086556,
          -0.09835946362225936,
          0.09860916901755666,
          0.010666256598225033,
          0.1859300841852603,
          -0.03153174000758232,
          0.11312065941778028,
          -0.24645981529266084,
          0.03624077848471309,
          -0.12469525817986014,
          -0.019013096687475896,
          0.10724666353942877,
          0.031761427170086835,
          -0.42592204864823807,
          -0.05307641106259166,
          -0.18132960700530953,
          0.1497381294315682,
          -0.34112530429906174,
          -0.011842641854757346,
          0.09354541751173497,
          0.16709822897339652,
          -0.095039326131006,
          0.30820913336057937,
          -0.10412872806963956,
          -0.32247702232311776,
          0.025143784510934308,
          0.12394224945218757,
          0.16255582542646918,
          -0.02348969717107139,
          -0.35837762525953853,
          0.26998905275882873,
          -0.0508145839657003,
          -0.08713943301224066,
          -0.02337017393743144,
          -0.15246171077720438,
          -0.35011192032456073,
          -0.08757978780459405,
          0.2587381030021275,
          0.08045188658701811
        ],
        [
          0.15574832320489018,
          0.1280240405280728,
          0.25893517273075534,
          -0.205839012336423,
          0.3498026110472723,
          0.2596920245373245,
          0.25753021504960727,
          -0.009776530977887686,
          -0.021176557587474665,
          0.15679275736202875,
          0.16352904434157237,
          0.04952973805902047,
          -0.22018152553222547,
          -0.02334728502464195,
          -0.0027200002218612765,
          0.2112193343220892,
          0.10449172628838457,
          -0.009319002162738938,
          0.003324617906096405,
          0.08662627557055559,
          -0.23950514512951987,
          0.111656398365007,
          -0.012388039602530532,
          0.156034409322686,
          0.0852624132802729,
          -0.06289445847029612,
          0.20958145464049202,
          0.17385853446060875,
          0.15159464121287708,
          -0.002893114292733627,
          -0.059659996685769816,
          0.18228504260316283,
          -0.03783121994853667,
          0.07175478895396925,
          0.2735862142201574,
          0.10932903554219746,
          0.063529931609396,
          -0.2835730116154831,
          -0.028877504349335056,
          -0.04862060103455315,
          -0.1256901832141413,
          0.14483137034860247,
          0.1373144909830205,
          0.20023769407355127,
          -0.09176600951064941,
          -0.21543851243779916,
          -0.1063610384048984,
          0.1502230755595071,
          -0.16450054515492998,
          0.011637367182303697,
          0.12485686942804668,
          -0.08033652443137568,
          0.22241940814366173,
          0.2557081453029645,
          0.2179329293932087
        ],
        [
          -0.21033497523503686,
          0.13302700827538783,
          -0.25104951563574984,
          -0.18853423485610066,
          -0.02849894615143568,
          -0.19366176208605296,
          0.11243604033277729,
          0.2032998523636985,
          -0.09583112218727655,
          0.06203722304908465,
          0.11304420530130868,
          0.22407469553493942,
          0.1234817364899964,
          -0.16152554944059036,
          -0.012115452046725352,
          0.06716399291771406,
          0.21974728048639028,
          0.04373840496516979,
          -0.01810372819222268,
          -0.12091786035891597,
          -0.19950825670044178,
          0.19308871409915038,
          -0.19320908146006058,
          -0.043678487090559444,
          0.22264853633565884,
          -0.21198982192173235,
          0.07131247340227775,
          -0.2102908988148348,
          0.22467162730693807,
          0.06912177767673634,
          -0.10096156550942051,
          -0.0477202492187923,
          -0.12133158649865426,
          -0.013711928343850087,
          0.20810578560988738,
          0.0386078210277881,
          -0.1287470604352305,
          0.2221535926999195,
          -0.14744968817578435,
          0.21962044099828013,
          0.1503682270247893,
          -0.05641472898666173,
          0.11220747002472722,
          -0.12134959696701847,
          -0.16997187607628358,
          -0.2528559163734336,
          -0.15520873224899007,
          0.0054953858987693135,
          -0.06414615316616784,
          -0.23534824553209266,
          0.11684696576661183,
          -0.052885610795928094,
          0.22056587017962576,
          0.000603519285001626,
          -0.20631498790247588
        ],
        [
          0.19323745079426652,
          -0.19816153952870655,
          -0.009467300756590604,
          -0.10763213922760531,
          0.19922002080422485,
          0.14459232936355704,
          -0.12466318172743927,
          0.3183957033134685,
          -0.2282321717760471,
          0.2521491339581939,
          -0.3698018171744153,
          0.0006900524443604086,
          -0.3152241805254131,
          0.13337338703570314,
          0.11118074030006199,
          0.11478685719473526,
          -0.23354787322167883,
          0.1324057022926438,
          -0.022215964454747963,
          -0.09291502672595245,
          -0.07112591591697799,
          0.008473836767646679,
          -0.031129588911341412,
          -0.23067563908291724,
          -0.22284628759673064,
          0.10595842291420111,
          -0.09841901000796136,
          -0.09816452695569232,
          -0.0018844677038499554,
          -0.05549738392794523,
          -0.023520893633783204,
          0.09536403895072953,
          -0.15692858122389078,
          0.03661707361721349,
          -0.1857574527622181,
          -0.2601839058188851,
          -0.43683375317925494,
          0.07071259152435404,
          0.12031218355269105,
          -0.4412672473812035,
          -0.14821115363749698,
          -0.3042599597378507,
          0.11888210869597594,
          -0.18852405533624214,
          0.19157316776764963,
          -0.18094988525955788,
          0.44140396336011367,
          -0.1301019535784823,
          -0.36692827164056696,
          -0.03838373681175407,
          0.10977627488798644,
          -0.09850463937726157,
          0.517880961961135,
          0.02566939472002026,
          -0.0042649678063666095
        ],
        [
          -0.34324598287148084,
          0.0833066342342166,
          0.18361971853578657,
          0.2518660308740506,
          0.4865323324896533,
          -0.2063092740885284,
          0.21421323173891768,
          0.0419569685662571,
          -0.32866309997680965,
          0.028150900475085512,
          -0.18314227702176636,
          -0.332598957673078,
          -0.08979249727779338,
          -0.13722456788445245,
          -0.05836508393667946,
          0.037254759920939184,
          -0.33438367606378855,
          -0.28394964944622486,
          -0.08564175168566572,
          0.047335284484620335,
          -0.2505605764980351,
          0.11295509136796958,
          -0.0117911929120098,
          0.4178504603370544,
          -0.26320343526849665,
          -0.4150381608213972,
          0.32662077783428245,
          0.005971444852971194,
          -0.3466239381012814,
          -0.400123122401648,
          0.060061078719276885,
          0.2497183699988017,
          0.09679156421204872,
          -0.11033445038388916,
          0.2041810573783096,
          -0.18127642593053253,
          -0.4436664959994529,
          0.08320771915193773,
          -0.008015700010930263,
          -0.12792697882820958,
          -0.29212766989182914,
          -0.3073401464936303,
          -0.04630357683071961,
          -0.22279869052571685,
          -0.1239065287968092,
          -0.23582430396005769,
          -0.0696553045576701,
          0.08267715779265998,
          -0.21899918171115867,
          -0.1130399845389282,
          0.07853818122231751,
          -0.19284592382331645,
          -0.0018458517020821272,
          -0.13794425646415068,
          -0.08403332065718466
        ],
        [
          0.19000273486231506,
          -0.2652530541378317,
          -0.006751754864456888,
          -0.1553968573454977,
          0.10669806132239211,
          -0.049523827562271173,
          0.1031698235633708,
          -0.00246331482152833,
          -0.1880360939337943,
          0.0986803599982474,
          0.10674173211974866,
          0.0898379216128549,
          0.06526250083383019,
          0.1414826054823202,
          0.2999795735035419,
          -0.17274493237871594,
          -0.14663814985613902,
          0.27095873830146516,
          0.10885617659780637,
          0.06298055744927238,
          -0.02562721878730831,
          -0.09272222727252054,
          -0.2526496239125029,
          -0.1970209089018928,
          0.06429318943037421,
          0.07363452188917446,
          0.24073524117284364,
          -0.21290121926882055,
          -0.13942692508645557,
          0.07954691049777435,
          0.04798560016639049,
          0.19459034743945935,
          0.2915773210755884,
          -0.13273445932021788,
          0.008665112321605582,
          -0.303242046014527,
          0.006826542654223199,
          0.024674488880589925,
          -0.030724138740721885,
          0.11809698903888025,
          0.007013559599008018,
          0.05013136331405726,
          -0.2652192085699137,
          0.27041631732747007,
          -0.13340994650271995,
          0.06756088260645501,
          0.20331542292551696,
          0.028775671413776186,
          -0.03511171897386733,
          0.033991245201986695,
          -0.0556503450498807,
          0.10781644456754405,
          0.0004195016596292749,
          -0.007882399919107292,
          -0.09718566946697249
        ],
        [
          0.12264121636932529,
          -0.3396574031582335,
          0.18885203397774242,
          -0.12285853436369777,
          -0.14951823035085515,
          -0.306035426968598,
          -0.3298827964139995,
          -0.11617189923011288,
          -0.10151028018456398,
          -0.06087152386876062,
          0.052122128490323466,
          0.19169932467087383,
          -0.17967178642222287,
          -0.44795817649556646,
          0.38259417931027395,
          -0.15703816080547972,
          0.319696456467141,
          0.22590430230421232,
          -0.19074427383161732,
          -0.054868803770935684,
          -0.24616203924911478,
          0.0451056519522878,
          -0.06018638017134665,
          -0.0969275082075795,
          0.12327574558482542,
          -0.2078500262307515,
          0.03946616707324584,
          0.1348441979611022,
          -0.18917203491274018,
          -0.2355885067575664,
          0.04680012702255281,
          0.1496432354726353,
          0.06559026556095694,
          -0.19963739047694398,
          0.13339965344996177,
          0.07935512005158643,
          0.14704853946425062,
          0.014340947078262554,
          0.2474731361605812,
          0.19788361344843455,
          -0.014285525830893432,
          0.34598733634431844,
          0.046460886722038464,
          0.17214575119971146,
          -0.008663587084228706,
          0.17107803862416676,
          0.08636913906306308,
          0.43262278613159877,
          0.30370135877201987,
          0.20534880049032478,
          -0.03258928318661921,
          -0.07487983884126437,
          -0.3472951821730536,
          0.2677835517498111,
          0.12788888894043374
        ],
        [
          -0.11540358520282532,
          0.1948370747103848,
          0.03216571802983839,
          0.15008796463440757,
          0.1316581334355017,
          -0.13093234224536085,
          -0.01209670401694448,
          -0.4186727550382449,
          -0.06308535072027836,
          0.03972722720547561,
          -0.14319542171689206,
          0.24226916181613295,
          -0.06260832159135185,
          -0.321752208126115,
          -0.07436809276518451,
          -0.24659122206598125,
          -0.01699375200662902,
          -0.4055938405080642,
          0.131327301327651,
          -0.11829146369612292,
          -0.1458735657038356,
          0.3091456614005135,
          0.06348536136829698,
          0.21704522404912835,
          0.2423531724419432,
          0.3415970808235013,
          0.280679780626466,
          -0.04393465210645644,
          -0.2154324170586563,
          0.13520923556772174,
          0.19675592659084631,
          -0.09973836507420752,
          0.4361565389916508,
          0.16995529209977903,
          0.0832225363481271,
          0.13122702389149318,
          -0.2259495497161215,
          -0.08910635507416838,
          -0.2367583636953876,
          0.1050991002285945,
          0.30471330785469697,
          0.16489434317490329,
          0.012361256371021041,
          0.0432024800065749,
          -0.1466674917235643,
          0.1496861924822106,
          -0.04302211395841911,
          0.017398434107083666,
          -0.24453026362651722,
          0.29657186765038474,
          -0.16639268770822713,
          0.09543521082729249,
          -0.0819588400324118,
          -0.22148206326602582,
          -0.4721400174905942
        ],
        [
          -0.006293509506515342,
          -0.08656122088685157,
          0.32340340664201644,
          0.07653266239722169,
          0.157605085453435,
          0.12136004582015995,
          -0.05107808624684641,
          0.14795467968358292,
          -0.3501745194229391,
          0.46340275098672723,
          -0.3501201991056017,
          -0.0909485165015649,
          -0.323131545594957,
          0.2710694954736429,
          -0.07082686386556172,
          0.13101612736991028,
          -0.21738552708766035,
          -0.2526808860148908,
          0.18130620212424794,
          0.1936097310137635,
          -0.1624458062981121,
          0.10167241397726873,
          -0.06678564213240372,
          0.26100820264658087,
          -0.3690720271958827,
          -0.00857705273634947,
          0.04603485217529599,
          -0.10526710512538658,
          -0.09643243332959335,
          -0.2337065066256603,
          0.060661255348459356,
          0.1843681248755832,
          -0.6029784194320249,
          -0.48112231410051853,
          -0.014039764709272418,
          -0.15848096527732283,
          -0.2193841002513015,
          -0.14986102500599843,
          -0.1323828619752737,
          -0.16470319364341876,
          -0.25401494572674954,
          -0.28680583006364463,
          -0.05380674973372531,
          -0.036618957552059815,
          -0.03529897644563983,
          -0.35410306341865744,
          0.05280907994575989,
          -0.12050341875063401,
          -0.4423509081983772,
          0.09757762900212674,
          0.0007757294770500776,
          -0.4635544301266054,
          0.33252338168147016,
          0.11975658928321362,
          0.2812996513421229
        ],
        [
          -0.10574727747682375,
          0.18434285700937345,
          0.0788988381378887,
          0.0823426784268834,
          -0.15297317024636092,
          0.08571672317535281,
          -0.026429802240949114,
          -0.1672016364590025,
          0.13089798188636484,
          -0.17563635560730026,
          0.021120396030713254,
          -0.17101362597455833,
          0.004259203264667983,
          0.2270183683259829,
          0.017948860956216818,
          -0.27498494522364225,
          0.08696088871827334,
          0.2824906505014086,
          -0.02551599614575079,
          -0.01845844605786606,
          -0.039000411361586586,
          0.04935475657485804,
          -0.08320165898670488,
          -0.10666262496790184,
          0.2284837522094662,
          -0.2995700053090563,
          -0.2381837995947122,
          -0.24760859730040558,
          -0.1334698424258501,
          -0.2788559633924188,
          -0.15043572675469286,
          -0.1301793081012775,
          -0.20889015152846369,
          0.23866076068781364,
          -0.14475258619462456,
          0.049349231074673594,
          0.13752422636658096,
          -0.10592828812591791,
          0.22629843029354643,
          -0.09916262442296084,
          -0.04354819222630502,
          -0.1650580831123156,
          -0.0026278259496450023,
          0.24555758875728428,
          -0.11630637690834095,
          -0.14222533466715317,
          -0.04405011585836051,
          -0.13702322710400758,
          -0.222477004347518,
          0.10315879335995386,
          -0.04738595277520151,
          -0.05122473143922682,
          0.13221924375317592,
          -0.2093782908730795,
          0.1626092450642013
        ],
        [
          0.07437352094869448,
          -0.22095861966284855,
          0.2448797468209584,
          -0.006081956189198975,
          0.11605014451520948,
          -0.23049961324034846,
          -0.17946303098987004,
          0.09555686094000125,
          -0.236323799876282,
          0.2687608041113423,
          -0.01624691401302431,
          0.04127773931929803,
          -0.20725459814031666,
          -0.10364528329527702,
          0.08982570168641169,
          -0.006959776649708764,
          -0.19285129298682796,
          0.1330677699598784,
          0.13774006582238904,
          -0.11908628131995692,
          -0.23595632357477078,
          -0.2133827126205208,
          -0.1005697899547066,
          0.03208664681693778,
          0.06598049287880084,
          0.023512579947314295,
          -0.046593796399298316,
          -0.19710776995492893,
          0.1608605506033826,
          -0.243681755370073,
          0.1055077665340507,
          0.25929970851765116,
          -0.18969164033699104,
          -0.31836279928600747,
          -0.2308561786085947,
          -0.19739893582686002,
          0.023812142116633808,
          -0.22164502989062795,
          -0.15917809060438537,
          0.050079329196410616,
          0.014177976125213557,
          0.2062228031759814,
          0.09767779836407482,
          0.19724938836994454,
          0.04200086583377144,
          0.02409627210665397,
          0.064562564285702,
          0.10254840230663483,
          -0.1171222466076546,
          -0.11895172979111877,
          -0.06454147521456326,
          -0.3622550780712693,
          -0.11483012570224534,
          0.05685042167918429,
          0.2817684297655051
        ],
        [
          0.20489740244606403,
          0.1040000955305424,
          0.10132921962035595,
          -0.06661816681681317,
          0.20685536333484825,
          0.1984012619134645,
          0.10658526900468548,
          -0.1896881711899524,
          -0.19655507137434944,
          0.0416501852387888,
          0.22782821546546672,
          -0.2053745978431708,
          -0.07128100904616581,
          -0.20997242088555496,
          -0.23944786314884453,
          0.12476534766471527,
          0.14362205105222214,
          -0.18106243296536959,
          0.24137751983222897,
          -0.0028411717236515497,
          -0.23199755956558946,
          0.1754815312489341,
          -0.14239407320206746,
          -0.11051454579147497,
          0.05663390425037752,
          -0.026670288485681485,
          -0.08067815097559217,
          0.09573047288662538,
          0.12511138031863975,
          0.019631068752225343,
          -0.11445627012265866,
          0.14143880084057894,
          0.15105852436387787,
          -0.10170725833963035,
          0.25540373737608274,
          0.20648022696925333,
          -0.2225758725782687,
          0.04090721420447989,
          -0.11209124238188607,
          -0.06601532200999671,
          0.23939550601955362,
          0.16218562160994868,
          0.04910726096935787,
          0.22209137203890314,
          -0.017294625361816616,
          0.0523400860973549,
          -0.09009918985191474,
          -0.10304824281418756,
          0.1938214513512281,
          -0.0940438762479333,
          -0.03304447793153538,
          -0.0011017112402393803,
          -0.015862746853765677,
          -0.06531675619858857,
          0.11920041689100695
        ],
        [
          -0.0389108594669011,
          -0.08403177681676698,
          -0.13557797943326388,
          -0.18578837064285095,
          -0.00696717638298035,
          -0.1741816075818933,
          -0.15644214090801986,
          -0.06396844635364148,
          -0.15135031776671376,
          0.029973697106246748,
          0.045580914575736445,
          -0.21569522051885198,
          -0.2448931631894546,
          0.026988120131581292,
          0.009402201626149123,
          -0.07015782286518926,
          0.09433660468488252,
          0.17113504452418335,
          -0.13907539312815584,
          0.12251324223835348,
          0.14982345944954195,
          -0.0725263294209911,
          0.11875264266872348,
          -0.1486148477611917,
          0.004900415901240152,
          -0.22709173662185753,
          0.23177177886969208,
          0.054735998853381686,
          -0.18278229481257866,
          -0.023747779157113767,
          0.042449198554347874,
          0.22371286817148076,
          -0.206431724357442,
          0.1530420185851458,
          -0.06841448278515068,
          0.05714151017742438,
          0.18850880639854153,
          0.016937260430577156,
          -0.04531923752448618,
          -0.13087690623442721,
          0.053596765690497,
          -0.22556380453673924,
          -0.051943256154052736,
          0.036941989600219036,
          0.05445295159730977,
          0.11516997753336748,
          0.08033035354365337,
          0.027285680007949658,
          0.049376805863330056,
          0.0696374795632614,
          0.13515482814537483,
          -0.19007689742517958,
          -0.13040045097495626,
          -0.2147262342516214,
          -0.16833123346482667
        ],
        [
          -0.1545109128984753,
          0.001785942308720424,
          -0.19297248695592775,
          0.06743580165171059,
          -0.14809175183123474,
          0.03298889584781956,
          0.3269385079882366,
          -0.36266503947516726,
          0.18391033061667586,
          -0.0947967050815359,
          -0.12066970606910608,
          -0.18489536893990705,
          0.25910049810636365,
          0.004154773100816217,
          0.13459332833081886,
          -0.13041485436772413,
          0.0069459685307419056,
          -0.20027206758413774,
          0.24310486469074075,
          -0.17835552931750148,
          -0.037169530048651894,
          0.005226670458708322,
          -0.323563631133111,
          0.023983983023829092,
          0.32774957699453633,
          0.22931457941594308,
          -0.1683962784092419,
          0.20307570133159256,
          -0.13325417329088135,
          -0.10709909777300028,
          0.10310828121179529,
          0.012114691630337265,
          0.17705802887497202,
          0.29267685258370535,
          0.08270838136623565,
          -0.04975470942949815,
          -0.005960110048752528,
          0.0583994991077751,
          -0.32951699186364286,
          -0.25411994115491676,
          0.0677049417841103,
          0.16410069477447933,
          -0.16266167066902812,
          0.21159188200218465,
          -0.1199980205613093,
          0.2645866697506428,
          -0.03544960569877326,
          0.05262055648361329,
          0.10798323978455662,
          0.1341471876825366,
          -0.030482815357589742,
          -0.048437730780314096,
          0.14509428419041365,
          -0.18592460990899987,
          -0.2486754697213866
        ],
        [
          0.14086970168585577,
          -0.08838470571705995,
          0.03879616393016249,
          -0.16326247821030873,
          0.24274715128315136,
          0.16341160207879027,
          -0.08895163654418263,
          0.1827957450528444,
          -0.008945523781343535,
          0.32683300648632757,
          0.10369435343676735,
          -0.10238028962850834,
          -0.03403082086545905,
          0.277311076172449,
          0.14625928511670222,
          0.012005259401898005,
          0.05469611831113589,
          -0.2629237295452719,
          0.17572375997389755,
          0.09941666662491253,
          -0.046712174259901915,
          0.17438673474231642,
          0.12536777558677487,
          0.13890068120975949,
          -0.08456402879991429,
          0.01673432654715913,
          0.12484338849415237,
          0.23932558760541403,
          0.03983683174512382,
          -0.16326590790074452,
          -0.02934677183134871,
          -0.1977456840649509,
          0.08805826680349865,
          -0.11031785566413414,
          0.20968277356960785,
          -0.053575566522914356,
          -0.08457018133253681,
          0.13082709696549838,
          -0.02835398382851013,
          0.053458886315666594,
          0.05534960076811428,
          -0.1920153083085295,
          0.09341230158273447,
          -0.19204345515156585,
          -0.01260305338082709,
          -0.16568093659876282,
          0.14959150601726337,
          -0.07280692842090263,
          0.018229286771408542,
          0.0031508707889056306,
          0.2770440799115605,
          -0.19782970679281803,
          0.2093955342086376,
          0.16463972378041516,
          0.010619679632329179
        ],
        [
          -0.15095155607316288,
          0.021127504865341266,
          0.327006723441345,
          0.04937097975957392,
          0.3422382965338832,
          -0.12569957060237005,
          -0.007311728538491161,
          0.11113092154333894,
          -0.43797176022244905,
          0.04041584693613326,
          -0.05129000129988557,
          -0.2750935475564545,
          -0.5755526705296514,
          -0.1543867206280543,
          -0.20538844436141723,
          0.09720116937817999,
          -0.178108888441494,
          0.19576425301329778,
          -0.1667141748441623,
          0.06017950790949354,
          -0.13426536480473217,
          -0.08898407150590322,
          0.2834920894209272,
          0.24405729626510467,
          -0.19767644859574315,
          -0.40508222054436,
          0.10983427317546444,
          0.09313812477494132,
          -0.30391927842671695,
          -0.37849114767651243,
          0.39125627787546263,
          -0.12617432754963287,
          -0.17695682386363953,
          -0.26613866719542467,
          -0.015350200553879244,
          -0.21042534582531408,
          -0.032221839195051796,
          -0.21972593476287797,
          -0.038939783763929266,
          -0.12856218086097723,
          0.06960980914838624,
          -0.17957707494072614,
          0.22911054221166469,
          0.10411856447475407,
          0.24271814816172982,
          0.032646514189637973,
          0.10851387081646964,
          0.15760765651467984,
          -0.26703518393524955,
          -0.14414210113896225,
          0.17914266804740928,
          -0.15034562336418883,
          0.057123997247823056,
          0.08552816019007828,
          0.1682031776183137
        ],
        [
          -0.21454661061437705,
          -0.1439830744147821,
          0.03028081957408341,
          0.15254628124914674,
          -0.22616952658302591,
          0.11640743338277071,
          -0.07857545035269173,
          -0.045575451933004246,
          -0.22810401441034217,
          0.05199053956616058,
          -0.11862830733842847,
          0.0903645811848517,
          0.06373753580759169,
          -0.057603111645228314,
          0.11833430598622667,
          -0.1634466953210912,
          0.18831187218468431,
          -0.1400090058490071,
          -0.10547750206798374,
          0.09102829132455523,
          -0.10269345930243923,
          -0.19131716752652023,
          0.08092190088987737,
          0.2327468963967269,
          -0.0879615803645141,
          0.2281582859135618,
          0.1842337067323674,
          -0.2041402752031467,
          0.0730375528565231,
          -0.08429526426896675,
          -0.04460451878248853,
          -0.10889641617499715,
          -0.10211971278303772,
          -0.22754448892213336,
          -0.038018718750488206,
          -0.125160689602581,
          -0.06603094187690586,
          0.019447353421210394,
          -0.14217017811402546,
          0.25273025920119974,
          0.15399969325983115,
          0.05827750447759181,
          -0.0017385308083247865,
          0.03686808100016141,
          0.053782804167905686,
          0.0629294329500779,
          -0.15452210326038804,
          -0.0008284749683611219,
          0.015357634800952412,
          0.14101490460454372,
          -0.2319118614166423,
          0.05061058682096351,
          -0.06343815137885757,
          -0.09916541103104837,
          0.1635836031471918
        ],
        [
          -0.2262395008959962,
          -0.06486415747240817,
          -0.0022929042369636203,
          0.1911911271787523,
          0.08139762293752506,
          -0.17649740759208,
          0.23820713686270178,
          0.233674747516188,
          -0.07056290976816255,
          0.24741842462142113,
          -0.17458981966155712,
          0.18658375551998735,
          -0.033125712224467245,
          -0.09021911169294049,
          -0.14193138488607615,
          -0.05732070689932998,
          -0.06846725189717102,
          -0.034070378866023876,
          0.02223921361955568,
          0.03864082147108089,
          0.083104824554692,
          -0.11317209412814766,
          0.16527496224226154,
          0.04866536986051902,
          0.14705087978523318,
          -0.03945756831972881,
          0.20564668420684504,
          0.05797403334930793,
          0.15168329904241382,
          0.14085123317233456,
          0.11656940846315442,
          0.08008487744616342,
          -0.029826780820424247,
          0.09072385560487242,
          -0.1202053937866752,
          -0.06559185182597464,
          0.008065224527720492,
          0.23394900918271494,
          0.10166090304792297,
          0.04336057327294854,
          -0.029603253776566873,
          0.12585597675586754,
          0.05146342359235285,
          -0.21682677325516805,
          0.07334176566796047,
          0.25327813025322177,
          -0.020315243364812025,
          -0.05823949483736792,
          -0.19837687304059817,
          -0.008234113571799699,
          0.12229275793266456,
          0.17398032246375142,
          -0.07460006753615832,
          -0.1996124959503185,
          -0.2112205175473527
        ],
        [
          -0.16808090591836472,
          -0.23428146219180027,
          0.037546777446526944,
          -0.12091365382284253,
          0.12850463547666663,
          -0.07653145665864441,
          -0.18311415692287036,
          -0.0040581127796577455,
          -0.170876815408404,
          -0.2601976543065098,
          0.12886289850586385,
          -0.08361260359463198,
          0.14763222705204423,
          -0.14405060512380954,
          -0.0812035301435936,
          -0.07270576286688832,
          -0.06115794640870488,
          0.1507191510184287,
          0.07879925086976765,
          -0.028994878321738245,
          0.15162969588360697,
          -0.043637663650865625,
          -0.2280403729496193,
          0.11466299747876864,
          0.22613230757340191,
          -0.02751904607222748,
          -0.23687914449458808,
          0.12500878635295523,
          -0.13205494960762115,
          -0.23243915698810222,
          -0.22152687949056102,
          0.23102525232328797,
          -0.11777197782937657,
          -0.03331313935188985,
          0.028439534595772035,
          -0.12692573802135473,
          0.12445873522305759,
          -0.05160027621090174,
          -0.10897616952016657,
          -0.2361345208565352,
          -0.1214093316725472,
          0.15996865389276735,
          -0.07177275309611134,
          0.20845447424239383,
          0.2524220646106582,
          0.06980234172557696,
          0.023536301013568274,
          0.19053532534091644,
          -0.06733130243663431,
          -0.10115941138664383,
          -0.1783758669296288,
          0.13734516571542932,
          -0.19943580378295006,
          0.16096170487249117,
          0.049969621715599315
        ],
        [
          -0.141218649595979,
          -0.2522885764956849,
          -0.2516107641129812,
          0.24205596657498074,
          0.13513537445547982,
          0.19616746115274136,
          0.04735558812095861,
          0.08905694442201555,
          0.03829833781657606,
          -0.15586923645418385,
          0.26743082950979385,
          0.27733838612010364,
          0.23799008644500266,
          0.07487311045149857,
          0.06455870232928283,
          0.09723733792707727,
          -0.19830725484881392,
          0.18707568446816403,
          0.0888323304061987,
          -0.06336189220597864,
          -0.20267979980891782,
          -0.12384134185644748,
          -0.012216635838572397,
          -0.0778927681028372,
          0.0004352728146252265,
          0.11117201112221457,
          0.15647123844450103,
          -0.0015285422758915355,
          -0.07222919576852016,
          -0.22135582419898586,
          0.03333967088354025,
          0.08898072390171873,
          0.011356639699622802,
          -0.11161271562791929,
          -0.15009318654293588,
          -0.16366119227843062,
          -0.03834175673661989,
          -0.1469896753936857,
          0.08039387294956966,
          0.18043998927410704,
          0.029537825526719567,
          -0.07988346507351254,
          -0.052917943077019906,
          -0.21094580173303434,
          0.1332198970843927,
          0.25314839050538634,
          -0.2543697418454573,
          0.12160005279748237,
          0.16031943673440016,
          -0.1496257856408395,
          0.18103281206110286,
          0.15600637444224713,
          -0.200310583712829,
          0.12389812124838723,
          -0.2348105181803373
        ],
        [
          0.10323519473127664,
          0.2184119129377681,
          -0.10346710817508008,
          0.016939963657575885,
          -0.11169236686944833,
          0.11715682658741479,
          0.14351011228662652,
          -0.13342642409514383,
          0.1370976942396227,
          0.061631273051264986,
          -0.17127085780481083,
          -0.0009488840893419326,
          0.1895382326892472,
          0.20129469489786891,
          0.24853922569563527,
          -0.23407858884728103,
          -0.23706681248442926,
          0.193939321138341,
          0.19646471641089996,
          0.07936948720808758,
          0.10364283435382103,
          -0.08623599611832206,
          0.22232949556563134,
          0.22280197687127662,
          -0.19292465691712996,
          0.08591860612607723,
          -0.03279608411071704,
          0.03181134434645017,
          -0.11293919109193666,
          0.2204258995851812,
          -0.2092936639974459,
          0.2070368893929638,
          -0.036723651671157806,
          0.22948499336866066,
          0.07188884931529198,
          0.08941709626708408,
          0.010412144798485618,
          -0.03315321483451299,
          0.1427585025884861,
          0.23553001709079566,
          0.0840386880257415,
          0.062488770346963755,
          0.20112273012873572,
          0.07999004360475062,
          0.20012949937329577,
          0.05078565583724433,
          -0.24018747482302585,
          -0.2501710259214084,
          0.24914676200431085,
          0.043577365520749874,
          0.007911534548478202,
          -0.16767956947143492,
          -0.15804921569158273,
          -0.08212190702207232,
          0.1446088031894073
        ],
        [
          -0.29954285941106307,
          -0.035582192703575655,
          0.08466231360120456,
          0.22440067834519672,
          -0.38949769014569113,
          0.007711981481383499,
          -0.052085737724221134,
          -0.20163513597129207,
          -0.04783623288397529,
          -0.08679720852710275,
          0.2682886002580785,
          0.06930596493160852,
          -0.4972311342190948,
          -0.14693313828687984,
          0.134046286205114,
          -0.468464442178766,
          -0.12968976583914654,
          -0.07502424111715673,
          0.05966313705728154,
          -0.0234344970179932,
          -0.09401410113422111,
          -0.13596140544411675,
          0.01600516061597392,
          -0.12808905856353883,
          0.20173228573985866,
          -0.07551102752181275,
          0.06580041266594448,
          0.17419313696720606,
          -0.5339226331028235,
          -0.4006763725152337,
          0.13072860542607714,
          -0.2819040437819832,
          0.19146816732339034,
          -0.04731286165486857,
          0.07561456831731113,
          -0.20855007605257633,
          -0.04530118170131639,
          0.06906701185026848,
          -0.16516856834181168,
          -0.10858948066693035,
          0.12647312686116144,
          0.12000438056481334,
          -0.2469146913518543,
          -0.2288574834056246,
          0.24614114782423832,
          0.2142210694013531,
          0.0861436625136657,
          0.1910936668575221,
          -0.27868394240938166,
          0.16674952271437143,
          -0.13529740835804466,
          -0.1234155052317433,
          -0.44129385191650145,
          -0.13757426760061733,
          0.060669931418759024
        ],
        [
          0.17612048352440865,
          -0.21609677633835306,
          0.2609508501813664,
          0.05141854317174006,
          -0.18436082062695286,
          -0.25821652342947504,
          -0.3082190359081403,
          -0.02012235740966285,
          -0.19308294847392796,
          -0.061481683532091345,
          0.2777280181059987,
          0.20446232173629866,
          -0.4842329734482776,
          -0.04524479384516595,
          0.08074096086283859,
          -0.016112012213829758,
          -0.0159737762800055,
          0.1936279288085574,
          0.10665270202714462,
          -0.11163518714100157,
          0.19121649912477998,
          -0.032342601971795004,
          -0.02581675407101171,
          -0.17772998641653656,
          0.0883646237370176,
          -0.39006381695315934,
          0.1362029607723603,
          -0.08180074640245888,
          0.07176683834449583,
          -0.27272767451119834,
          0.1235486656487024,
          -0.2825405779204216,
          0.3429052899829414,
          -0.029047990897478646,
          0.07877101192518365,
          -0.12549676296269682,
          0.3362203523531601,
          -0.102497087006409,
          0.013938134712637603,
          -0.28349760584215755,
          -0.07222477264173419,
          -0.03681108497555609,
          -0.012126574237147048,
          0.3133515032225222,
          0.023884210057958495,
          0.00815759574922279,
          -0.05140044521245515,
          0.06587588920734921,
          0.05143276600864193,
          0.20625707916016053,
          -0.007892076113497268,
          -0.0395208432193614,
          -0.24634950261150643,
          -0.05057149827231937,
          0.34343591355284286
        ],
        [
          -0.35433740571438993,
          -0.0587164070548939,
          0.23416896222610606,
          0.04538472384089472,
          0.348682346615039,
          -0.005068805329254017,
          0.05975728419291053,
          0.18835402558436365,
          0.06077009837422376,
          0.08567569286071564,
          0.10374364444194809,
          -0.085008170910585,
          0.0022905802699929316,
          -0.23942007154067962,
          -0.30373145584449546,
          0.1480823395810216,
          -0.09163706135386523,
          -0.2921509062994677,
          -0.1692108717531211,
          -0.0021925040775152625,
          -0.27382098695786855,
          -0.1721139268383871,
          -0.024862085318205527,
          0.11872605237537531,
          -0.023424185969687792,
          0.1311642870634329,
          -0.17746907519333194,
          0.02360352603514412,
          -0.03414970443051815,
          0.17390814566486437,
          0.1488713195908265,
          0.05303366685684843,
          -0.28121172213377005,
          -0.1931016113728085,
          -0.1314294649584476,
          0.2377820239843335,
          -0.501591596543994,
          -0.12666053466282193,
          -0.17414678804640152,
          -0.1334248018930117,
          0.28058355657708317,
          -0.15057374393719397,
          -0.02677512692330189,
          -0.39843730076104494,
          -0.21113583155746593,
          -0.195554707424457,
          -0.22770355525791164,
          -0.36428579486503304,
          -0.3210019715062181,
          0.16160159298322918,
          -0.11998731434212259,
          -0.1631789265777186,
          -0.07253476469693514,
          0.15728522514210297,
          -0.2513190017617562
        ],
        [
          -0.0014696431836844516,
          -0.0705572746093911,
          0.06816076280868691,
          0.1216560069594334,
          0.010411103852203667,
          0.2121643161422849,
          0.20394700879464422,
          0.1519797176316066,
          -0.21013159987339963,
          0.03825550692216975,
          -0.15987056609730543,
          0.057251827390340064,
          -0.2686845591051648,
          0.16699678477381255,
          -0.06530000874246088,
          -0.05474993069618167,
          0.24818893953432794,
          -0.1181107977376559,
          -0.04123613495668021,
          -0.07460463985292974,
          0.0016023046493766587,
          0.0322502230100021,
          -0.0418784121055638,
          -0.0699659022369441,
          -0.22224061293688183,
          -0.03967821547883582,
          -0.09002510061085615,
          -0.10812409605634433,
          -0.09155707835874397,
          0.001716125242832556,
          0.15659901907270166,
          0.16694289568351964,
          -0.18080512691300915,
          0.16968610140887982,
          0.24152513622202437,
          -0.2222598755907854,
          0.13168444403554225,
          -0.003357173411271701,
          0.22910357763384318,
          -0.21385551287945861,
          0.13370027893902706,
          -0.034006979149499926,
          0.24637107368038139,
          -0.06712619422187621,
          0.1168744928133476,
          0.12758074472400624,
          -0.08946678459317652,
          -0.2084500644712338,
          -0.18483774192335956,
          0.0705392156971873,
          0.17349430620057193,
          -0.13952679192227838,
          -0.017481477698885504,
          -0.06945905630378929,
          0.09271880632164807
        ],
        [
          0.20436653468629531,
          -0.12190881754973736,
          0.17611438131026758,
          0.15488363866762672,
          0.07490050315993409,
          -0.005040410470360053,
          -0.2277342472722996,
          -0.14173875238995193,
          -0.13860082459483844,
          -0.11121941577331168,
          0.03574500383642715,
          0.15603347385887564,
          -0.13826204542023693,
          -0.0949169617215643,
          -0.05588897506966101,
          -0.09972640771813888,
          0.10108871946868303,
          -0.2499473564234753,
          0.23509612121515874,
          0.019741367447914906,
          0.13449136507788273,
          0.18532038894197225,
          0.22417321253144457,
          -0.03056824142452448,
          0.1381021685255102,
          -0.08519010185742945,
          -0.10451874050548515,
          0.13966999327224228,
          -0.09396022114439555,
          0.0402845740380139,
          0.22469123834976834,
          0.15948034002721645,
          -0.1209949103349379,
          -0.24996672354191357,
          0.04146760351274327,
          -0.050101622315517874,
          0.1902877728734991,
          0.08137093412878527,
          -0.04067174015944984,
          -0.035766908007683354,
          0.04222741579747156,
          -0.11853892387555277,
          -0.1919701074477526,
          0.08550280120998259,
          0.16613458978728976,
          -0.23443389638368897,
          -0.012991384299103525,
          -0.2203841034621364,
          0.1383622376033751,
          0.08504894902948418,
          -0.20130429997798815,
          -0.2087867242250515,
          0.13894000194013859,
          -0.12412582936918912,
          0.17904575727825323
        ],
        [
          0.147740907746009,
          0.15290184187307915,
          -0.16303722460015346,
          -0.06902530881147051,
          0.13574276328753113,
          0.021621283296614918,
          -0.02212489691169313,
          0.16629593078060056,
          0.009873525739292044,
          0.06631848511614906,
          -0.09008660022012141,
          0.2552679043258859,
          0.05510582666395599,
          -0.17557005610619442,
          -0.038457792895683234,
          0.13354056559305244,
          0.16617612976165108,
          -0.005013339865332058,
          -0.013142285554452281,
          0.03884508178202942,
          0.2508450463311441,
          -0.01722706340241062,
          -0.2556124853181126,
          -0.2070726453671196,
          -0.17481298470958753,
          -0.006216411994862681,
          0.21779140358973592,
          -0.01485649416205056,
          -0.016634570218723103,
          0.2006679146456877,
          0.23340065385269554,
          0.15490060648101364,
          0.10765706374723091,
          0.18281591159275756,
          0.054816862690529905,
          0.16877720881440283,
          -0.23870493509044363,
          0.011227476202296374,
          -0.03143485879255744,
          0.23571211636996428,
          -0.012976375247237442,
          -0.21313316158492687,
          0.20939553260609023,
          0.12488924675833225,
          0.03918700983314793,
          -0.15499604873693537,
          -0.08639782630061499,
          -0.2541058887041117,
          0.08791134443308812,
          0.20068432697756614,
          -0.037226526969192604,
          0.02561630930343722,
          0.0409870313148065,
          -0.13193114391623476,
          -0.19561944867778128
        ],
        [
          0.017227084351103684,
          0.3316273900912038,
          -0.0855576676879904,
          -0.004371957979648563,
          -0.39580795945896224,
          -0.10866134240804876,
          -0.0653259774185334,
          -0.20102557562913406,
          0.4654009536041065,
          -0.22819853596615264,
          0.009283928139742222,
          -0.16308262847121538,
          0.2191738495865252,
          -0.15309213233118724,
          0.045228718020856956,
          -0.11319709255736297,
          -0.019837444286540662,
          -0.34302586225030357,
          0.24220061704615764,
          -0.11456171873179334,
          0.2170622864059008,
          -0.025136891971558436,
          -0.10695920961656741,
          -0.09382724078431796,
          0.29110635555053976,
          0.14108456017429966,
          -0.11332132841055692,
          -0.13533290248758437,
          -0.05724820841702697,
          0.46163220988162784,
          -0.22170104940482324,
          -0.17212664732613045,
          0.34379952078352133,
          0.2853186723354344,
          -0.11549318011574676,
          0.283993952560999,
          0.1854061745378359,
          0.1849096574315339,
          -0.22258222810270573,
          0.09412411301560444,
          0.13582347688774346,
          0.007796063255693453,
          -0.29045765596201795,
          0.07553670959086126,
          -0.15152468778361242,
          0.20836087406914205,
          0.0746127864352125,
          -0.03922776803289097,
          0.12078547990585148,
          0.2922850909108764,
          0.0902517174084482,
          0.4097668747500114,
          0.27779756070241385,
          -0.30461650415011593,
          -0.35164677426538
        ],
        [
          0.17249265225276503,
          0.18644862637968793,
          0.18378424422289635,
          0.12237160008467836,
          0.11012007612754808,
          0.40777343391592247,
          0.26429903705977204,
          0.4326249904228594,
          -0.024665799270632664,
          0.13869211944107268,
          -0.26398783516257585,
          -0.09775509394353595,
          -0.4578477268019704,
          0.5085104829869267,
          -0.24723771033487257,
          0.22299017814083266,
          -0.18273255930296398,
          -0.08073757985377729,
          0.14382708450667617,
          0.13749176508756916,
          0.12281381532647065,
          0.0732501867880287,
          0.07181927925996771,
          0.02840416209578921,
          -0.220370237755974,
          -0.1244336620675867,
          -0.020777034226634284,
          0.08319011616866431,
          0.35210676334129704,
          -0.12486273103757305,
          0.039841628359537334,
          0.09227287541434405,
          -0.5877166682678209,
          -0.2803529425032419,
          0.1734891695704994,
          0.0355837863523823,
          -0.21285912280918248,
          -0.18707508081747615,
          -0.23752482740337583,
          -0.04118577955111493,
          -0.39847889567826345,
          -0.4564258459820888,
          -0.1798313969158079,
          0.0044670185728409775,
          -0.2259613502421361,
          -0.22656030584344708,
          0.14059596492180335,
          0.04214221033756653,
          -0.4371930638175331,
          -0.03849574462504838,
          0.20468462285801245,
          -0.04573733474880648,
          0.40111279866502164,
          0.30610257971999977,
          0.08740148304806092
        ],
        [
          -0.2799088068867842,
          -0.2553454491875678,
          -0.18845908033589184,
          0.061504088000430765,
          0.05066395012988148,
          -0.054846939582316616,
          0.26780684758464696,
          -0.30095455774756247,
          0.15819664352282736,
          0.2532881240063233,
          0.07046159253622251,
          -0.22751120681678194,
          -0.39854156185884404,
          0.03453862499459163,
          0.01996352307076374,
          -0.09412073287057543,
          -0.07403366134234131,
          0.11868654349269872,
          -0.04260460974545071,
          0.06540516050349356,
          0.019064150806816248,
          0.010540495797364576,
          0.034791912758915966,
          0.12706482027982302,
          0.03926302480991974,
          0.09263376593640622,
          0.16959136197451227,
          -0.19979807164680374,
          -0.10383407775509901,
          -0.3125350063622581,
          -0.02295972128377174,
          -0.1032006973931715,
          -0.11793680678841606,
          -0.12302349694933558,
          -0.10698542892881716,
          0.16753038474163032,
          0.017972282354567177,
          0.21173360421624002,
          0.29977686028228784,
          -0.05666687660888731,
          0.09864422068404086,
          0.343419879778395,
          -0.05703480932277354,
          0.1769031454809189,
          0.1867665069821907,
          -0.2483438039154325,
          -0.13291485090956695,
          -0.07871533782353717,
          -0.034041304687002026,
          0.22593196697185094,
          0.04893907911905693,
          0.030057176878191483,
          -0.38169884957199623,
          -0.017422640414164043,
          0.18774834323153664
        ],
        [
          -0.12502387312855667,
          -0.20762643065592662,
          -0.24502431172872577,
          0.13960909970006413,
          0.11457479211990979,
          0.21914500366136747,
          -0.08841789426823882,
          -0.05871641604994128,
          0.025375948442242488,
          -0.18334329684990186,
          0.1322271911946706,
          -0.009297544205622505,
          0.08113658353007044,
          -0.23666588635651475,
          -0.16119093730768477,
          -0.24303224220070604,
          0.14144382053793728,
          -0.01632815447570963,
          0.005272364153211584,
          -0.034180004786376735,
          0.1353083484572547,
          -0.24261786918304595,
          -0.1092749626780177,
          0.02232636001795055,
          -0.015779682110438346,
          -0.07751209831546983,
          -0.0664319028792733,
          0.11011145187793321,
          -0.0636167657322932,
          0.16427264340015074,
          0.16251896094124962,
          -0.020524528558067915,
          0.2025840466698365,
          0.14416264748673474,
          0.16386293244721734,
          -0.1381953048368986,
          -0.13560815688397604,
          -0.09325584163430582,
          -0.21579597078380963,
          -0.037276846865646786,
          0.2523483403238896,
          -0.11136986451200614,
          0.18141782083316066,
          -0.10493515483550776,
          -0.024230088501157827,
          -0.1518090271878433,
          -0.014077229991528906,
          -0.05127004884998206,
          0.10291533795133666,
          0.18209808076457543,
          -0.04046297770773449,
          0.12828636426240517,
          0.059888432577515346,
          -0.21932625455051033,
          -0.049918369094086965
        ],
        [
