{
  "layers": [
    {
      "activation": 2,
      "biases": [
        0.681729042270218,
        0.9289794969110883,
        0.27882265721354826,
        0.002701347189127657,
        0.0007757416684784702,
        0.0711687756007483,
        -0.02373734071996738,
        -5.08008559082011e-05,
        0.2840110538406026
      ],
      "cols": 9,
      "rows": 3,
      "weights": [
        [
          0.5064523404444754,
          0.13993072538371257,
          1.556278389410671,
          -0.24117540690656383,
          -0.18895238489056368,
          0.879827307450945,
          0.022944105353925486,
          1.282406250254467,
          -0.5162562467536902
        ],
        [
          -0.6624434329244853,
          -1.069543896015482,
          0.05012949147112895,
          0.21455779094867444,
          0.9225890195043208,
          1.3084554658042091,
          -0.3134629531509169,
          0.8161824473020027,
          0.9106079479990645
        ],
        [
          0.1232745001383245,
          0.6722038062384956,
          -0.42112594916106083,
          1.894034725363999,
          0.8076023993624192,
          -0.2938062399575012,
          -0.42633376768068953,
          -0.04238723548443377,
          -0.6759340188493057
        ]
      ]
    },
    {
      "activation": 2,
      "biases": [
        -0.2864745878095703,
        -0.01781289442524556,
        0.24383343266006074,
        -0.02659000618894521,
        0.36398361569303617,
        -0.2954531452130571,
        0.1901275868134975,
        -0.10766001021829236,
        0.00938462497072058,
        0.04513996085644826,
        -0.4690693379663173,
        1.2670315439472812,
        -0.07331228685927405,
        -0.027619895490180662,
        0.0
      ],
      "cols": 15,
      "rows": 9,
      "weights": [
        [
          -0.207572595735139,
          0.31322346758503616,
          -0.2683122875553203,
          -0.3963177497015883,
          0.19743569169182368,
          0.5946418234004459,
          0.1464275601124872,
          -0.399226140676785,
          0.24271763815688427,
          -0.4125591819423713,
          0.6012862380754544,
          0.8222539427042135,
          0.09319613078755773,
          0.3463012016400009,
          0.10191323217093629
        ],
        [
          -0.043294283428195614,
          -0.02605070813552781,
          0.240274280298508,
          0.08758076540547455,
          -0.17227915538418967,
          0.8690431583353819,
          -0.5168225404894449,
          -0.6098738460376936,
          -0.10961128516745726,
          -0.0010015725061837386,
          -0.00967191270530267,
          1.0740009974324538,
          -0.6282428117920433,
          -0.32293766789385037,
          -0.14430690307370708
        ],
        [
          0.8579880582147892,
          0.5025167444453985,
          -0.4982885242930288,
          -0.03007583018861515,
          0.028883746008025075,
          -0.540146466457105,
          -0.18453977854645182,
          0.21078662468259712,
          -0.499423839151591,
          0.39368733324365,
          1.1087585910356705,
          0.3180646160470052,
          0.5951500679880751,
          -0.16527227430561717,
          -0.3661199597949721
        ],
        [
          -0.4375553855158676,
          -0.19657426069055653,
          1.081370068259424,
          -0.49770696767487693,
          -0.9870613055296005,
          0.8374857921513581,
          0.7416505261595889,
          -0.04298877392885693,
          0.20191208478353023,
          0.3495398732028657,
          0.11778666209030943,
          -0.23627353563300713,
          -0.7713515715428301,
          0.44465466388743285,
          -0.37816427409563413
        ],
        [
          0.3487149204578406,
          -0.7427791920111564,
          0.38733427449055147,
          0.3550955839155536,
          0.18631144688092527,
          0.23391781414600774,
          0.7133081587160247,
          -0.5259370254605371,
          -0.3132796305619462,
          0.23971641391311208,
          -0.18814740800512575,
          -0.32759912492424464,
          0.03600822429519965,
          -0.4076971764049322,
          0.19304527467724186
        ],
        [
          0.22989848116185976,
          0.20711315498556152,
          -0.09360744827305072,
          -0.05818781322632509,
          0.5932647921955885,
          -0.6251636288140968,
          0.598969262640802,
          0.3144692858100688,
          -0.05726937416813771,
          0.5340331183729127,
          0.5661142798135506,
          -0.5179179792275052,
          0.4677695002085483,
          0.08886167561552795,
          -0.48806849959682136
        ],
        [
          0.10162046311847824,
          -0.35071277714163224,
          -0.3623827886126855,
          0.296638545951172,
          -0.054927819328361924,
          0.05352860584611391,
          -0.2775566975674196,
          0.12662387575331324,
          0.4736283561092002,
          -0.4009836457310506,
          -0.3697302624017378,
          -0.17736943336013622,
          -0.4241478064776954,
          0.4510374585869896,
          0.032727276223118995
        ],
        [
          0.9600027922442804,
          0.09805610464354482,
          0.5312817499974819,
          -0.39595819865165194,
          0.6013892969969645,
          0.19164343122252214,
          0.34181805462294035,
          0.427393700871917,
          0.27178112732795123,
          0.6480552734132645,
          0.6096565255305478,
          -0.2662646897330206,
          0.014769925835067576,
          -0.4118012054156042,
          0.047331481961222166
        ],
        [
          -0.6430769459670558,
          0.34368904314218535,
          -0.517805143593381,
          0.13055526168577147,
          0.7302374381066447,
          0.15522598472775156,
          0.561563314637773,
          -0.1968521505199226,
          -0.1745929991242443,
          0.48213653825404407,
          -0.3926651626757454,
          -0.44307751760811315,
          0.16325611283399422,
          0.4214575255042502,
          -0.49978267773975743
        ]
      ]
    },
    {
      "activation": 2,
      "biases": [
        -0.22927202741726438,
        -0.09295057370240142,
        0.35856428201442964,
        0.6368518161131237,
        -0.5286968511497036,
        0.32798335907489606,
        0.0,
        0.8328354415413373,
        -0.2400324970590148,
        0.01367686231887603,
        0.35348580473723584,
        0.17191680066810536,
        0.018956525914096457,
        -0.06879806991183628,
        0.6039949474744652,
        0.10829824999036157,
        0.011153856111217093,
        0.2554393553582922,
        0.0,
        0.3003783705325043,
        -0.26827290289606004
      ],
      "cols": 21,
      "rows": 15,
      "weights": [
        [
          0.13929889570064702,
          0.5102387401011297,
          -0.5444423303316618,
          -0.43626501002007934,
          0.5870017449558804,
          -0.5681459836378207,
          -0.31273012748069506,
          -0.5009319866520557,
          0.3000870184056408,
          0.4152390798364047,
          -0.30007409846298566,
          -0.18004887872145575,
          0.04683953670639597,
          0.5418437188530079,
          -0.48290966519299977,
          0.12759484743350805,
          0.2520649441367285,
          0.5082306570433555,
          -0.3196131993062483,
          0.2301748707328719,
          0.44764017045221366
        ],
        [
          -0.3425655871428821,
          0.36138962021809123,
          0.170992705554324,
          -0.10601391674197719,
          0.60882215421132,
          0.10477104347222144,
          -0.26676113626877856,
          0.13233369113136506,
          -0.2254260923241646,
          -0.31369313871005655,
          -0.2601073875882082,
          0.1378414968614059,
          0.172118226217545,
          -0.008052802246964298,
          0.1450680818402621,
          -0.4029440226707174,
          -0.3651973899099899,
          -0.2298966800980224,
          -0.008034816605338151,
          0.3069441568837523,
          -0.3527444081574231
        ],
        [
          0.2644842663735818,
          0.03506671268771128,
          0.857122292067251,
          -0.37188171075283705,
          -0.5963373395195961,
          0.4764292300820182,
          -0.07169139521807771,
          -0.5057001354378393,
          0.1560587662519862,
          -0.36795232054720295,
          -0.3156010939006654,
          -0.14521455713722797,
          -0.24248802264456165,
          -0.014816232264919,
          -0.33702970101426727,
          0.05855708030394646,
          -0.32496258161701747,
          0.20160296821991516,
          -0.3192268328434666,
          -0.24924936547971505,
          0.4221415406822537
        ],
        [
          -0.2589534489678091,
          0.041269579983771,
          -0.0010701751046333354,
          0.12300437538415586,
          -0.08545153933288999,
          0.1307250110277909,
          0.2316740190919185,
          0.08415048004868766,
          -0.40309164097194794,
          0.11988023101760199,
          0.3136746936661996,
          -0.1712008558090086,
          0.1763047381900444,
          0.16534670455828726,
          -0.14416776177863616,
          -0.08640364176195206,
          -0.1716694824098439,
          0.32310495208492723,
          -0.04634632405502815,
          -0.39384111710635805,
          -0.2419257225405595
        ],
        [
          -0.30977592379200686,
          -0.3718904335715109,
          -0.20908501320553333,
          0.06758394809481452,
          0.5698187971959289,
          0.1505311359391681,
          -0.1269555664504978,
          0.40428425603202855,
          -0.49734957511110284,
          0.5147030846961416,
          0.014183951936334042,
          0.07137159861625836,
          0.11900287045707371,
          0.5900149080248646,
          0.677352779364684,
          -0.28313360266495846,
          0.35108843924575245,
          0.5189527840282565,
          -0.004930187807244434,
          -0.05298309291071587,
          -0.18738912608929842
        ],
        [
          -0.1857036065992382,
          -0.6570290448431416,
          0.733339299048073,
          -0.40819725237542026,
          0.33488525609479775,
          -0.32967758821127074,
          -0.2366393693688072,
          -0.5317891801700119,
          0.3055108210964965,
          -0.4249801916024622,
          -0.033113557510406594,
          -0.3979579852572562,
          0.05991986708638029,
          -0.0797692567576041,
          -0.1375572676349699,
          0.6563162710471835,
          -0.49286298582016097,
          -0.07588413406774958,
          -0.3955118026570922,
          0.43769956463369286,
          -0.339093819888181
        ],
        [
          0.016904772624750767,
          -0.6085648980544812,
          0.44598996876389546,
          -0.20083798697457977,
          -0.4166203640072059,
          0.29998801936590924,
          -0.043035282589047937,
          -0.5087892301450263,
          0.43926772857883806,
          0.2779625920728553,
          -0.2341673801277687,
          -0.12243198263973658,
          -0.3786778617574653,
          -0.2741735638027938,
          0.7855635941542509,
          -0.4509221414565657,
          0.43903155856799475,
          0.12329925330769549,
          -0.2682019251303977,
          0.3650349897449771,
          0.3191174758943052
        ],
        [
          -0.1052260267454569,
          -0.46066124757122967,
          0.19657413036334154,
          -0.10955221726951173,
          0.49272739222802886,
          -0.09727830018858767,
          0.12197622783625867,
          -0.403632304424937,
          0.06778446469336868,
          -0.349835866000318,
          0.021005510961084037,
          -0.3573296867197201,
          -0.2392777313098727,
          0.3827891764924438,
          -0.26734271912279706,
          -0.008796197192938381,
          0.19956422670424714,
          -0.02034109118241591,
          0.20786763538097744,
          -0.35532512687045714,
          -0.11686282398699235
        ],
        [
          0.3447984204457042,
          0.4003637877463596,
          -0.2592688831257441,
          0.34063590379396524,
          0.23221102547333808,
          -0.13452685051127372,
          -0.16845346552054444,
          0.09765530706444936,
          -0.08823618164666591,
          0.19714336368562824,
          -0.3164140408682112,
          -0.07152837427256763,
          0.0932916442584241,
          0.09588134589931832,
          0.2797003837541665,
          0.20048056805306705,
          -0.11956934716027298,
          0.10159009498301916,
          -0.15752194165175382,
          0.06367583446369829,
          0.354291985619783
        ],
        [
          -0.04141854250611045,
          0.032324208677922454,
          -0.3648661605341023,
          -0.13996176726195128,
          -0.45236576088290176,
          0.13140004701224006,
          -0.40374892736409496,
          -0.1106659965958721,
          0.170993237661515,
          0.34081594773425467,
          0.52319057907562,
          -0.44072378684973496,
          0.28985476535036087,
          -0.11397768554253065,
          0.07923314071453096,
          -0.2869580715752672,
          0.19567495892688044,
          -0.48320825896841874,
          -0.3893579733391241,
          0.546947527580636,
          0.09085768746310562
        ],
        [
          0.6121191330192486,
          0.33472197340601717,
          -0.820253904791819,
          -0.4480775351801507,
          0.7147124916482205,
          -0.3165647516938762,
          0.09486188198700454,
          -0.07953469583396124,
          0.5737141742338919,
          0.2501058023246579,
          0.16566295571479608,
          -0.2886027281715294,
          -0.1564437332444201,
          0.3662377369271934,
          -0.5724375188429772,
          -0.11064686862473405,
          0.3686817485070531,
          -0.08356369878161408,
          0.2806382250654516,
          0.38048730512140366,
          0.2474664743144566
        ],
        [
          0.15092527658285187,
          0.22078811294647135,
          -0.26838793647162157,
          0.7700095091127326,
          0.27704015376285085,
          -0.4432314530241816,
          -0.27417199626371414,
          0.9524891025455412,
          -0.6554849798081559,
          -0.02911484517194009,
          0.2943992725451947,
          0.6857590611182316,
          0.18053363677605816,
          -0.3242290977402131,
          -0.2502949529824566,
          0.6350643637838385,
          -0.78365461979741,
          0.39906377242294994,
          -0.2140993444278062,
          -0.12446499568877321,
          -0.5429412813986649
        ],
        [
          -0.38714004064523544,
          -0.02384757719968234,
          0.13779778613911525,
          -0.01505749855606143,
          0.7476478894297005,
          0.43354917316321934,
          0.2979615518424725,
          -0.1278909447472332,
          0.2898795504970598,
          0.3794357584595808,
          -0.17488492958143045,
          -0.4608879122192332,
          -0.10714511847666698,
          0.23051989785297813,
          0.45862377729385584,
          -0.24117840887768435,
          -0.10405394436856621,
          -0.030320303272826137,
          -0.06724964965059826,
          -0.4294924449846994,
          -0.4499583881357043
        ],
        [
          0.14546705470267438,
          -0.21568171506479344,
          -0.2834596996221742,
          0.22356845588105592,
          0.3627814999109739,
          0.4039085577887651,
          0.26627098669219545,
          -0.17958932208903075,
          0.0361345298484765,
          -0.09526541143348209,
          -0.31059455586047363,
          -0.044892053729443084,
          0.14193608340256406,
          -0.24455853172710687,
          0.18342940173274042,
          -0.36361144517887284,
          -0.13879214662552317,
          0.21537132373108048,
          -0.23359367363254013,
          0.26257065327122947,
          -0.3494783712533016
        ],
        [
          -0.13780115696422135,
          0.28223422512074775,
          -0.3161775365104582,
          -0.30258616209910816,
          0.399795664528836,
          -0.328375862475039,
          -0.0012867291364987768,
          0.311418420202357,
          -0.2621240197366824,
          0.23360982042688122,
          0.0683004117595911,
          -0.33617777198978505,
          -0.28325572392152604,
          -0.05145434731242186,
          -0.1278977163876944,
          0.008353277030253597,
          0.3295954496073729,
          -0.20425246857972668,
          -0.29331164159551387,
          0.3204986088575852,
          0.39582845593984173
        ]
      ]
    },
    {
      "activation": 1,
      "biases": [
        -0.028448025488488165,
        0.14734403724681241,
        -0.34106864039733137,
        0.1647072718563803,
        -0.11843789517275456,
        0.03599908854644343,
        -0.5352507941086536,
        -0.37152644812547514,
        0.11205579772946153,
        -0.3114185952109303,
        -0.31862796362872126,
        0.7740539994291302,
        -0.010398706020785645,
        0.5594162586687329,
        -0.07731758666433677,
        -0.4467485976820973,
        -0.3953878409687008,
        0.10779647231332999,
        -0.2971437102632334,
        -0.07020465567402726,
        0.20967091821432068,
        -0.622978202364835,
        -0.0680419451742466,
        0.059938456950791884,
        0.0152597542466524,
        -0.06488165607887061,
        -0.6696019998654947,
        -0.20842722348232257,
        -0.1499534506801202,
        -0.28233553018293367,
        -0.210798796687408
      ],
      "cols": 31,
      "rows": 21,
      "weights": [
        [
          -0.19713774228122774,
          0.5476993196897206,
          -0.41845357153569446,
          0.1620835897686236,
          -0.23209460458435704,
          -0.2344701215250345,
          -0.1619247772252792,
          -0.03465901076356969,
          0.07821311117960333,
          0.28062685977115254,
          -0.250925339137397,
          -0.15214139950223363,
          0.07441937195500627,
          -0.24092647182670637,
          -0.059827127527549546,
          0.029799829098773507,
          -0.3339017636142067,
          0.23226046940671463,
          0.15493044339300735,
          0.2537001489005857,
          -0.251781765353778,
          -0.17990169860630795,
          -0.18399868102180061,
          -0.3081312280890508,
          0.09601495914697765,
          -0.21961089614635512,
          -0.187318249489613,
          -0.24426553259434322,
          -0.11731003637196342,
          0.2627177900747361,
          -0.4485646689303037
        ],
        [
          0.012517481891068945,
          -0.04291544909395315,
          0.03595193307725036,
          -0.3345147751921404,
          -0.1976914999518327,
          -0.020006178989264444,
          0.08333552975765504,
          -0.16922789031118624,
          0.6216721908770613,
          -0.1928618615512487,
          -0.23048824155515488,
          0.24431921377919208,
          0.17557707961138627,
          -0.2899638814141352,
          0.23695177338124102,
          -0.12983641566430806,
          -0.03190699479713801,
          -0.5369095907471975,
          -0.15283883334055454,
          0.005577201365140475,
          -0.3703902086771919,
          -0.6799490198241129,
          -0.04056638323069453,
          -0.2345902503797491,
          0.08362605902312742,
          -0.4631243096356746,
          0.13252872407819424,
          -0.08010472714945054,
          0.33227709890481383,
          -0.23665747808279566,
          -0.10815491612271079
        ],
        [
          -0.12047838314080137,
          -0.5772259290453182,
          -0.042460685317162024,
          -0.17688347884097494,
          -0.09071890140502835,
          0.1634765388449942,
          -0.049082193767228534,
          0.39877710915061554,
          -0.10507412342678625,
          -0.7939241534999768,
          0.11504459685708107,
          0.4731380896693728,
          0.36799689119400764,
          0.5694042015975069,
          0.31115810208252676,
          0.35286328889259483,
          0.1274462706967895,
          -0.7054884470985212,
          0.07727553637616202,
          -0.18224981765722106,
          0.12651289567671428,
          -0.33389658945412337,
          -0.48825706532949603,
          0.13259442952805733,
          0.38924328770755506,
          -0.2327467348816325,
          0.4331985905148239,
          0.1909967706611968,
          -0.12651017794065048,
          0.17551502140033182,
          0.33375902421247594
        ],
        [
          -0.024691994225430045,
          -0.1441834701579013,
          0.027185970035198345,
          0.14507436588376182,
          -0.1409070112709551,
          0.08363414944869117,
          0.337218796085721,
          -0.5207328712946044,
          -0.5488135767487822,
          -0.28190839192881345,
          0.25155010461289423,
          0.11603970524200562,
          -0.09120956951350566,
          0.4696160514630613,
          -0.090491104361787,
          -0.04403853605515801,
          -0.08291013366104798,
          0.39358044929897035,
          -0.4405790793016208,
          0.06870267617613367,
          -0.06864644644552088,
          0.517494101518553,
          0.2861242811697499,
          -0.12025478764934833,
          0.3152446383568362,
          -0.042156327201035494,
          -0.34745365362198943,
          -0.07572302763151577,
          0.0046843786993625725,
          0.021365532166967034,
          -0.39310868382787817
        ],
        [
          -0.02154012582332818,
          -0.15025222014414993,
          0.2497546488939394,
          -1.3466101960729826,
          -0.2014018962321193,
          0.14349459159483618,
          -0.10478299549423778,
          -0.11287066697281856,
          -0.48691517601327905,
          0.19609300503959165,
          0.18268327669377438,
          -0.2776548842633846,
          -0.15355518290510664,
          0.16997777330771235,
          0.2176970270921956,
          0.3958774817382597,
          -0.14946042625994319,
          -0.19152253543581574,
          0.3361560115163445,
          0.04948633825572959,
          0.1655076952981477,
          0.38133657264457965,
          0.02654031386047089,
          0.533672794899272,
          -0.509873710561022,
          0.30167447968427047,
          0.815751997037992,
          0.14233875792754358,
          -0.24613001511514776,
          0.1383918098739075,
          0.39946922612006136
        ],
        [
          -0.020950263658568,
          -0.3111814171551814,
          0.13412756698282313,
          -0.15589878004504362,
          -0.2055851536569942,
          0.10943558483552641,
          -0.4080496191992004,
          -0.017550803764492983,
          0.3382391980835797,
          0.05858830083944664,
          0.17463126561425044,
          0.19189085893629976,
          -0.2061299717316807,
          -0.0013821779116616106,
          0.2907395500501709,
          0.18545889144546798,
          -0.19202662032485276,
          0.2292862311150139,
          0.23694877893176033,
          0.2072606964181767,
          -0.1317575056201696,
          -0.4021422512112336,
          -0.39537359017403684,
          -0.2812296632174054,
          0.1247583852430751,
          0.17399898174367573,
          -0.11878169554940858,
          -0.37157700402427857,
          0.1803743645678891,
          0.6104853851862594,
          0.03845091755999949
        ],
        [
          -0.31770339061374114,
          -0.3062702375636351,
          0.11832488330469533,
          0.014462414100450878,
          0.14898513037852185,
          -0.22568938249695952,
          0.04165660133118036,
          -0.1761820939367727,
          -0.0313003523828684,
          -0.14182556347676353,
          -0.30494132258097034,
          0.2390540705137374,
          -0.1601322071735736,
          0.06729878604571965,
          0.33281140794893976,
          -0.18945940324536262,
          -0.10741213570206519,
          0.17209303233514453,
          -0.31988354292603716,
          -0.247301511111274,
          -0.2734248903923673,
          0.14573529380794745,
          -0.3217334242527931,
          -0.06436597311394887,
          -0.20775420642411524,
          0.03727562072233368,
          0.19255519381552527,
          0.17771603830260066,
          -0.07892365343237888,
          -0.141131113043356,
          0.10208102374981823
        ],
        [
          0.1136148292915456,
          0.14041944399221862,
          0.00422895620106015,
          -0.3823320335298341,
          -0.34956517101070744,
          -0.05248754524374075,
          0.009145639361835814,
          -0.13023031059226145,
          -0.48276888976341054,
          -0.46909282437417554,
          0.289144675257426,
          0.3309472512541116,
          0.3404972462094286,
          -0.10952642798743772,
          0.40895313872641365,
          -0.6365330874469629,
          -0.49023670369578143,
          0.26906128625457326,
          -0.10718087827598745,
          -0.20214229589685698,
          -0.402596802805975,
          0.4060826423170904,
          -0.5725060165451841,
          -0.27640759372606094,
          0.6377306839996097,
          -0.04163056831943788,
          -0.326045792232395,
          -0.536710382318609,
          0.34883472450984016,
          -0.3467128859659855,
          -0.3888253515627113
        ],
        [
          -0.0937220179052357,
          -0.20425676266820134,
          0.06931920490716821,
          -0.11180098304377997,
          -0.1971241112778891,
          -0.2689187813162841,
          0.5514886930298013,
          0.03341558534359399,
          -0.3977988680793278,
          -0.1422378123093518,
          -0.24092045778792157,
          -0.2861753240627474,
          -0.0009016655673204935,
          -0.4614284420672531,
          -0.32982598351394876,
          -0.025806880601869774,
          -0.033587869154899024,
          0.2667489783928192,
          0.21220430569466192,
          0.011136418120999839,
          0.3915361989071027,
          0.06206956323486575,
          0.5132669974497813,
          -0.035994338328603145,
          -0.5149254047416282,
          0.548486605523238,
          -0.5122323264791927,
          -0.11209519734556082,
          -0.11187483060798947,
          -0.15555080005994956,
          -0.2113580614177579
        ],
        [
          -0.1519426887879203,
          -0.054060711764782686,
          -0.08621303856092759,
          0.4914693580743501,
          0.3070506441040835,
          0.09902252670632596,
          -0.040510921152053056,
          0.3128273541505116,
          0.3789319417211845,
          -0.1000655801325307,
          -0.04364492054943998,
          0.025197540806368855,
          -0.040615943161299066,
          -0.10145347794091969,
          -0.10271629771511934,
          -0.062343134364863634,
          0.3528974334238933,
          -0.3839722075833517,
          -0.4033522079283101,
          -0.29684181483649,
          -0.33486773595262725,
          0.10682376596796415,
          -0.0891876141796364,
          0.277202613874728,
          0.23882847364645063,
          -0.17600316430097837,
          0.47973338228721724,
          0.17258786781442126,
          0.19493257441058442,
          -0.1817712774936115,
          0.6250682200958434
        ],
        [
          -0.2910939810958239,
          0.2289196023852071,
          -0.08596323232738312,
          -0.27461024606575596,
          0.17371819617453635,
          0.18584437526707087,
          -0.23331519103984039,
          -0.3370638868830247,
          0.14009065505044715,
          0.3298910188493104,
          -0.17402737520231448,
          0.20676695597839162,
          0.0030017014598781146,
          0.0966101656828662,
          -0.4168657422667977,
          -0.26592712544615177,
          0.30935196572371365,
          -0.08020553854792552,
          -0.011558946256607163,
          -0.1120294887918041,
          0.24851831480254605,
          -0.03594636211760584,
          0.026387589180885587,
          -0.16620480675143492,
          0.04921171481686728,
          0.01933858236607379,
          -0.3596151132404585,
          0.1872451603383469,
          -0.26585652403900456,
          -0.051461410233425285,
          -0.13571595989543744
        ],
        [
          0.11203585760971681,
          -0.2566320829024561,
          0.01590470180909453,
          -0.3279787576088043,
          -0.15453077239364488,
          -0.31054075145520627,
          0.1754178710118992,
          -0.15127914948615917,
          -0.2801443307312617,
          0.0917511466854222,
          -0.18996848492589097,
          0.09218010036482813,
          0.2617163594854029,
          0.017964176481138926,
          0.19233508153113685,
          0.2955834724147557,
          0.0032891199688391045,
          0.12718254338477056,
          0.032983736613767994,
          -0.20474831123619963,
          0.4207068157926711,
          0.44903563012171777,
          0.0747242399587824,
          -0.2394620278415994,
          -0.01395743959995911,
          0.37736171638129906,
          -0.013051343735005905,
          0.1988972873759594,
          -0.4528355880737325,
          0.0792478964731402,
          -0.02117622382548032
        ],
        [
          0.25711298596421456,
          0.15791792323817774,
          0.3122968267432708,
          -0.1783277139441526,
          0.17158947973187877,
          -0.0035789900119974887,
          -0.10212945335576609,
          0.02600321949059983,
          -0.04347847731011918,
          -0.09187938308660833,
          0.17723423469174726,
          -0.22342978160164176,
          0.25195697974580794,
          -0.09362749278946031,
          -0.19005685147501777,
          0.05253748109736482,
          0.07719632002359869,
          0.3569886984780863,
          -0.27978048427128943,
          -0.16456191133782513,
          0.32353464615567734,
          -0.29046505500881203,
          0.08602229778989881,
          -0.289912103890796,
          -0.129515834136468,
          -0.036564889373775424,
          0.26858700288668147,
          0.19680721738403942,
          -0.3693342731064635,
          0.3131692421674594,
          0.16217361045759793
        ],
        [
          0.19377141949813928,
          -0.0260009596838127,
          -0.11319759730651169,
          -0.42166775469650414,
          0.13353058288875613,
          -0.11772258184025548,
          -0.00688790395852471,
          0.2849447694176109,
          0.1112786593048569,
          -0.0971474552762798,
          0.34259259765301014,
          -0.1430224813666282,
          0.4030315890672521,
          0.13893057181451535,
          -0.15273842749796168,
          0.3924011015553202,
          -0.009642065150073516,
          0.016992999212196103,
          -0.11350890355921905,
          0.14021585655960483,
          0.033983857878695886,
          0.3913090248686671,
          -0.20387196827525436,
          0.21114082114144836,
          0.3331371031030881,
          -0.10493057378344638,
          0.24526748983419674,
          0.2208173915629122,
          -0.15095108772746393,
          -0.245678933623683,
          0.3273122320288878
        ],
        [
          0.07375545058736349,
          0.19390989841422202,
          0.13646099804533735,
          -0.25011299958839406,
          0.1507773170958282,
          0.010045944934274117,
          -0.41817719112961943,
          -0.38949917503198594,
          0.2006139155977569,
          0.19233520086236539,
          -0.5634704596057839,
          0.5468646855546562,
          -0.14086419237586048,
          0.2966997411265234,
          0.07075150422461972,
          0.22020748798680115,
          -0.46629882403469386,
          0.4189955416528814,
          0.1437345199701646,
          0.1823370825751988,
          -0.048764277096160255,
          -0.35324882817290365,
          -0.43134727631961894,
          0.3328960606307668,
          -0.14190516016461474,
          -0.010300055678980156,
          -0.7890353576172788,
          -0.28250963043496685,
          -0.16870249912842225,
          0.3432987693034846,
          0.01568602463872369
        ],
        [
          0.400298351789763,
          0.3513615894774903,
          0.2359817335587452,
          0.33364331589556717,
          0.43860596483868597,
          0.14774560887535057,
          0.019858035998781207,
          0.42513118716968523,
          -0.23825216005613845,
          0.5826805118597503,
          -0.04715061894292245,
          0.11439547453299091,
          0.15526627985363992,
          0.2114865614007345,
          -0.6100767268222507,
          -0.05418885040155353,
          0.29717321522749673,
          0.5275734937462916,
          -0.19803305374849295,
          0.06109738798442625,
          -0.015311824884383984,
          -0.15988943990888485,
          0.3226429488576821,
          -0.1179722793556648,
          -0.00812486698701567,
          0.1254964910556314,
          -0.07769780640837466,
          0.15132956630712724,
          0.00761967500193226,
          -0.0927452267447492,
          0.3045620730254743
        ],
        [
          0.009996258009203023,
          0.2501841314925465,
          0.023798969080916645,
          0.9196572627574102,
          -0.04788063600840347,
          -0.058915407399693046,
          0.17005221211503505,
          -0.18370808936391855,
          -0.24427723511564847,
          0.0467441179746772,
          -0.038854194349731225,
          0.1406941001169079,
          0.05016712647063585,
          0.10039253935249476,
          0.14807005431182144,
          -0.25450142079280397,
          0.28093686703808973,
          0.29798319597648576,
          -0.10722434783306962,
          -0.04027554784055742,
          0.07988558853060704,
          0.23604245304303317,
          0.4642754674814927,
          0.3414108180413233,
          0.19331531020397655,
          0.2347222963621863,
          0.1878227594490479,
          -0.1559247807592456,
          -0.2573161413235648,
          -0.7411702855470098,
          0.36712734011486947
        ],
        [
          0.14593502975984687,
          0.2574325612673433,
          0.10643703578103182,
          0.09002905621297438,
          -0.26351015480543566,
          -0.13032530699415532,
          0.09367389612683999,
          -0.1637868312161765,
          0.20788770250642846,
          0.12067505448748703,
          -0.27142595399516667,
          0.23347436049555703,
          -0.2537580448298218,
          0.15343326509626273,
          -0.3674248840797367,
          -0.03496372987929172,
          -0.09825824071493018,
          -0.36230733363782214,
          -0.13729936813648366,
          -0.1846105885127413,
          -0.6493100929440134,
          0.07144918039023097,
          -0.29876454963039223,
          0.2295438338087151,
          0.16747322265952902,
          -0.09717611357873283,
          -0.09809667117373956,
          0.3428624969155926,
          0.2865022498159546,
          -0.5124211442577111,
          0.020686207563395443
        ],
        [
          0.032554120189625134,
          0.2381935734864588,
          0.14560690447780864,
          0.012600386024434139,
          -0.20578090253363876,
          -0.1605550428674223,
          0.24146884749360378,
          -0.2935305256741283,
          0.05300563032869787,
          -0.17134690949877798,
          -0.015906332503225422,
          0.12171155017748315,
          0.021267925216262067,
          -0.006620367305062074,
          0.2357168030364745,
          0.01641203916929424,
          -0.325824630738263,
          -0.11316859963224313,
          0.29244950231975253,
          -0.17390231936253597,
          0.08348466413886847,
          0.2247746373079846,
          0.2114900195766052,
          0.29775904300437145,
          0.016069040291186967,
          -0.254956249123558,
          0.14569035501156244,
          -0.1299100785655002,
          -0.2228330957305755,
          0.2637127990966918,
          -0.270100166056615
        ],
        [
          0.02154062154523644,
          -0.028225075338497916,
          -0.16574196721182452,
          0.05172524076169495,
          0.1446667408594638,
          -0.09219346362859078,
          -0.31059833161822825,
          -0.02975293423848003,
          0.3292876319916686,
          0.2512267495719923,
          0.06902620585271663,
          -0.11327373986957012,
          -0.12538515985548976,
          -0.07083107663196243,
          0.2690051779760358,
          -0.16882747799880074,
          0.16646119082968316,
          0.15280959479834233,
          0.19940818594724893,
          0.019962758438396892,
          0.3989077341871337,
          -0.7233840286000355,
          0.4683262241845966,
          0.0914982541987546,
          -0.6829266485457949,
          -0.19535679281324728,
          -0.10786865391022564,
          -0.02832609584456169,
          0.1995919374685114,
          0.019409041829460825,
          -0.2151175958650771
        ],
        [
          0.019613506123018293,
          -0.06704819741369124,
          -0.2283481762345183,
          -0.17441620659972276,
          -0.4922618359719473,
          0.1644335504789079,
          0.5151671143827726,
          -0.09744189210922782,
          0.026544028780187523,
          -0.2921699481444407,
          0.5449205076819862,
          0.133972049368726,
          -0.006104077059135185,
          -0.16410850124358733,
          -0.16193534292526207,
          -0.6060566768601005,
          -0.33289890441570474,
          -0.31158796427773666,
          -0.4150728876285707,
          -0.07043495777170995,
          0.03703186555583668,
          0.2567071258195937,
          0.3856741833239519,
          -0.3015934052456761,
          0.3716377594713396,
          -0.41684047282490594,
          0.1471962837745919,
          -0.19691787769037225,
          -0.06269187725578432,
          0.12835424686003585,
          -0.09966312731625605
        ]
      ]
    }
  ]
}
