{
  "layers": [
    {
      "activation": 2,
      "biases": [
        0.8047438143999641,
        0.0,
        0.8538556569603094,
        0.9114425284501908,
        -0.22932246005432708,
        -0.04193978279369674,
        -0.3839647544041992,
        0.5679791755721701,
        0.28420053487386854
      ],
      "cols": 9,
      "rows": 3,
      "weights": [
        [
          0.8877594627581711,
          -0.38045670836970863,
          0.23107448848063025,
          -1.6247380722226563,
          -0.6539538975843082,
          1.043691279626087,
          1.4877807177746383,
          0.4180890509796852,
          0.5766548677014909
        ],
        [
          -1.2922676613507562,
          -0.6763820809291102,
          0.8137514284937363,
          1.0589252920683405,
          0.10481689704296492,
          -0.9301105492663776,
          0.8060424226427605,
          -0.9450508753393642,
          -0.42467177882020224
        ],
        [
          1.09616039802462,
          -0.5050198206178436,
          -1.5037070464390343,
          0.7116231942154946,
          0.12015036930948017,
          0.006365361475492088,
          1.185502217746411,
          -0.2088311516332907,
          -0.7225800204076268
        ]
      ]
    },
    {
      "activation": 2,
      "biases": [
        0.22190489055394913,
        -0.31374757186942015,
        0.04102421122322778,
        0.07831397962308062,
        0.6169279403175514,
        -0.0863986152360652,
        -0.08266252447207545,
        -0.2634060781262433,
        0.24798339410895484,
        -0.21112228013124065,
        0.12934542415939493,
        0.7425132050156283,
        -0.3091553853024479,
        0.14295356901257797,
        0.09050910191766295
      ],
      "cols": 15,
      "rows": 9,
      "weights": [
        [
          -0.5673654716989961,
          0.7707648911562545,
          -0.4412201311627905,
          -1.1376320001436486,
          0.7910602330857335,
          0.1880830873607803,
          -0.13794111477420923,
          0.5391470730790577,
          -0.3788938688674739,
          0.8191768426543374,
          -0.2721848046045885,
          0.3119352661684056,
          0.9492850065224708,
          0.3296463090559168,
          0.2004662687088327
        ],
        [
          -0.18550340444105834,
          -0.039956087963635145,
          -0.010796973253971442,
          -0.21811497803689678,
          0.36414509632817704,
          0.29225307041418414,
          0.049176318361040305,
          -0.44049478971422407,
          -0.43163755672594417,
          -0.4894675398196408,
          -0.11401543655154084,
          0.27740498901224,
          -0.29888676749490517,
          0.10159832872524777,
          -0.04191178108654536
        ],
        [
          0.7840751124168177,
          0.025326603262175718,
          -0.4902825799607568,
          0.5199154724894831,
          0.22325041481207952,
          -0.06693759423218167,
          -0.8627118232752301,
          -0.6066097519939829,
          0.8939594839950784,
          -0.6363370778389872,
          0.0021289235995849334,
          0.6777401255287581,
          -0.7532522296530717,
          -0.513168341205168,
          -0.7913540307167962
        ],
        [
          -0.37220262169043816,
          -0.043429125954310865,
          0.3213187219058913,
          1.3057758359676028,
          -0.28832065279592783,
          -0.36609281219202544,
          -0.2444960073885212,
          -0.9258216331453024,
          -0.4437684742620994,
          -0.6373442656793454,
          0.1909556252567618,
          1.2135068576896517,
          -0.29900500297997573,
          0.42313914015651194,
          0.5976185084984184
        ],
        [
          0.2340836056387289,
          -0.06540967530419609,
          -0.4390925352104849,
          -0.0018145256372325857,
          0.1785717860838562,
          0.012465940356191548,
          -0.4250507634143102,
          0.2956545155767741,
          0.025820029616809667,
          -0.240177776736621,
          -0.4293332110638222,
          -0.259989216376506,
          -0.0939931446889479,
          -0.4772986653155175,
          0.33264038221453884
        ],
        [
          -0.34930931472397503,
          0.045642241573425425,
          0.1676824875650873,
          0.135290319915405,
          -0.38286752442464017,
          0.018685011855638325,
          0.44160342356325144,
          0.15955434321209952,
          0.35081085568383685,
          0.7733366318823354,
          0.5154894912197083,
          0.2011639637721608,
          0.7310438401726735,
          0.0026127744071996004,
          -0.9229530573130867
        ],
        [
          0.25298951941850817,
          0.6659635064353828,
          0.022237598716415934,
          -0.04602640442416668,
          -0.3059504746597924,
          0.01927070213672237,
          1.1064238689083346,
          0.6005121490640712,
          0.8101139463288966,
          0.5911506135138688,
          0.5690150617949133,
          -0.9344367958552202,
          -0.2136319545670097,
          -0.285118765946308,
          0.9571405037532441
        ],
        [
          -0.34509170743216694,
          -0.48626373961086156,
          -0.03237893462725271,
          0.005191811617261692,
          0.7306757250545223,
          0.7294807785178407,
          -0.4182199447727698,
          0.0720569239250196,
          -0.14336479264420268,
          0.20867341746958312,
          0.10319904901024814,
          0.3737232584573499,
          0.579102867092185,
          -0.056311032109958206,
          -0.6591994369971806
        ],
        [
          0.25384888747220646,
          -0.030954226263917306,
          -0.1904824207026895,
          -0.2539919518414431,
          0.5562517410858938,
          0.6204968741349033,
          -0.00461278777897684,
          -0.2861375792404295,
          0.2892741544104162,
          0.38428593067131883,
          0.23471570006978376,
          0.3685893153045247,
          0.4640955136872958,
          0.12081740336094646,
          -0.07905051237923161
        ]
      ]
    },
    {
      "activation": 2,
      "biases": [
        0.005179376446237737,
        0.15143910341313596,
        0.15343022613694948,
        -0.050334637538365826,
        -0.054537727854254855,
        0.8587989154327642,
        0.06092168133992837,
        -0.19177932316220114,
        -0.002846388582063823,
        0.8533575030686178,
        -0.08908291786269407,
        0.0,
        0.0100253895467564,
        0.42199430096524176,
        0.06399493952709558,
        -0.28653188589598716,
        0.2082798495605532,
        -0.2538796640565925,
        -0.14910348173300544,
        -0.02901276823292002,
        0.0
      ],
      "cols": 21,
      "rows": 15,
      "weights": [
        [
          -0.29031383821685086,
          -0.1460649961258308,
          -0.3086562793139418,
          -0.15102109682436352,
          -0.2848058404319314,
          -0.5997441409851029,
          -0.45085416156353375,
          -0.10775661756848309,
          0.019468153398719854,
          0.44719491824026847,
          -0.13675575896523784,
          -0.06044393932651835,
          -0.014617254628777911,
          -0.44179663402994984,
          0.6635540928453046,
          -0.1363493047894764,
          0.08747867109557504,
          -0.21092225429468203,
          0.019440644327729885,
          0.10482519613175609,
          0.0626465574269694
        ],
        [
          0.03129127989259627,
          0.37493491747456653,
          0.6087408955671121,
          -0.3408296117209568,
          -0.4305300164832767,
          -0.22705268646202798,
          -0.033968161378002605,
          -0.3719757251768935,
          -0.2138932553851096,
          -0.012534606557018206,
          -0.2887073026021277,
          -0.1595415867029567,
          -0.2577925564250115,
          -0.2025104101777433,
          0.3509718677148455,
          0.1966744519324967,
          -0.5318918710835666,
          -0.11993941460850867,
          -0.2518969078575094,
          -0.02502775424402832,
          -0.37989872169131517
        ],
        [
          -0.36600830156163894,
          0.10884227053161993,
          0.15396933033694332,
          -0.2325975436115574,
          0.31930872343329003,
          -0.2515474066869171,
          0.5549520147330539,
          0.13610938845433526,
          -0.3754737380993307,
          0.3164766612991446,
          0.22164555222232307,
          -0.04067594994122245,
          -0.3629666324999598,
          0.3671448303800303,
          -0.20671881747671184,
          0.11733832829632022,
          -0.1653986213560585,
          -0.3755995090939778,
          0.1554760733359422,
          0.23136931887784407,
          0.04544738888294415
        ],
        [
          -0.015708136635420825,
          -0.30578119003183024,
          -1.0378859453003602,
          0.38063506069671643,
          0.2779781694821058,
          0.04092479783800081,
          0.596238932305954,
          0.040400480222434455,
          0.11495775494290093,
          -0.4113381104464978,
          0.4434525839485664,
          -0.23305242561888764,
          0.9812602796198182,
          0.5197343387666034,
          0.3140733938828855,
          0.4759645417978053,
          -0.17194831089987242,
          -0.28333681622942125,
          0.4849079672937062,
          -0.3524254837651043,
          -0.40653479270922643
        ],
        [
          -0.15242083850855728,
          0.5742303021879983,
          0.20434807907282032,
          0.2790772057987734,
          0.14364381094273615,
          0.43878246067921656,
          -0.33032430059149953,
          0.5118254184042587,
          0.2640533590348458,
          0.4537641303299992,
          -0.5289091175084434,
          -0.17801866634336222,
          -0.7470016915760683,
          0.18478925007329855,
          0.37239208180575417,
          -0.08776486679766526,
          0.5250099290652459,
          0.3342843128176533,
          -0.16314331766078455,
          -0.33662526453779634,
          -0.18687186075701862
        ],
        [
          0.09737247751111638,
          0.057444217218566754,
          -0.5562616854389075,
          0.050998831181074934,
          0.08078014754617875,
          0.05013465527233723,
          0.5308405601082423,
          -0.22792987862786065,
          -0.13579033660682688,
          -0.48253572037507786,
          -0.08254908245719735,
          -0.31625271370060326,
          -0.06430817247373846,
          -0.20873350083257303,
          0.19392973398977179,
          0.037079764733449566,
          0.06007630788459666,
          -0.2841356221525057,
          -0.02374702879323835,
          0.28694116490156646,
          0.3069830857502156
        ],
        [
          0.30740835728813504,
          -0.3857479700661905,
          -0.28130858393997077,
          -0.4006985732845043,
          -0.11395663873126419,
          -0.3483060294867792,
          -0.4204903630256547,
          -0.24545843084209087,
          -0.12024365794500781,
          -0.5198994437639024,
          -0.3400902915246264,
          0.13338267345691363,
          -0.5110273653799836,
          0.8443750099895195,
          -0.21459536178720606,
          0.11763787965387014,
          -0.212072400950916,
          -0.41035092175595617,
          0.03999496434429452,
          -0.12168528517154928,
          0.022827321573772607
        ],
        [
          -0.17789118860754183,
          -0.758994493663936,
          -0.1903783197417662,
          -0.07712170077984239,
          -0.3251534455226652,
          -0.33977202811109036,
          -0.04572332123069858,
          0.3750480699442521,
          -0.10612128562428706,
          -0.7085240388570709,
          0.11835603768527393,
          -0.33701843718776325,
          0.24896516368203617,
          0.6383767500964981,
          -0.14931215928907685,
          0.5602878215948923,
          0.334601579262523,
          0.004240873615820267,
          0.16302353452537788,
          0.15805484780451542,
          -0.09459934563525567
        ],
        [
          -0.10298667313388249,
          0.37401445241440096,
          -0.3457059446786567,
          -0.40919939960090396,
          0.029446641385620927,
          -0.15049545584945656,
          -0.21578430571178867,
          -0.4387727315249861,
          -0.35191474123885474,
          0.23134966500675128,
          0.4828944459020016,
          -0.2320919191018949,
          0.09700470001126613,
          0.4066011118076974,
          0.6459912923982655,
          -0.36621680509255916,
          -0.3680689747445489,
          -0.30188679564841425,
          -0.38924154566370023,
          0.03920922353781139,
          -0.21235902545923913
        ],
        [
          -0.3046525047527579,
          0.17630977697322597,
          0.5542780272001461,
          -0.2275187808617793,
          -0.22443368676330056,
          0.15971089343357484,
          0.3088606608825077,
          -0.12612682607285186,
          0.07015536330023138,
          -1.113706269255102,
          -0.3027099308240767,
          -0.3647172538002103,
          0.031055002051683434,
          0.13727493104574806,
          -0.3401096499269242,
          0.46296237491361475,
          -0.21434837132706724,
          0.20416352404121652,
          0.6417405200928747,
          -0.28189117363044147,
          -0.2115856583419794
        ],
        [
          -0.16888165599511243,
          0.4700169715779484,
          -0.2363878388999023,
          -0.1917940429494278,
          0.1683955471385263,
          0.11569054642872478,
          0.5609289984297567,
          -0.21403142312732248,
          -0.3855103083640495,
          0.26668445100766247,
          -0.2126253577718529,
          -0.3630515956954552,
          0.02779519638587566,
          0.2983261423014042,
          0.21281337998033426,
          0.3710842931242633,
          -0.2531100931469658,
          0.06142222215216132,
          -0.0999969453844712,
          -0.1324065232720099,
          -0.27754981340070606
        ],
        [
          -0.15788891431954294,
          0.32233772901217256,
          0.00720745542078366,
          -0.16529011427428147,
          0.2421138570070051,
          1.0793389413127321,
          0.39173761321758493,
          0.4810473577709512,
          -0.3713920265026971,
          0.8909272262116186,
          0.2675741241732359,
          -0.12921958061865627,
          0.23612216421565918,
          0.24256829527395282,
          -0.6666366436119476,
          -0.44483209906804844,
          0.6653162803285295,
          0.27114752982733376,
          0.5835453709199268,
          -0.3397587338824152,
          -0.1347469855677054
        ],
        [
          -0.025094953448160512,
          -0.16692885771960916,
          -0.3388764861775469,
          0.3239783685184358,
          0.08763403014783627,
          0.10714700449653229,
          0.005810977582910147,
          -0.019949105542945753,
          0.282057982773203,
          -0.29848935219883255,
          0.2712103201028206,
          0.08741380999584257,
          -0.04790085196188358,
          -0.8345307343846027,
          0.6670985610635557,
          0.4722289085552866,
          -0.606729817753366,
          0.49133156740630746,
          0.7888727974816714,
          0.252046646764478,
          0.2689290570875594
        ],
        [
          0.3578497364004951,
          -0.13709596884195777,
          0.4875426457170029,
          0.3288612608345192,
          0.025334424641464796,
          -0.11795725990060763,
          0.2514888244635791,
          0.20346828277569975,
          0.01117518902535892,
          0.08317365433492646,
          -0.5020774700846039,
          0.2865555111463719,
          -0.33251438731888733,
          -0.40389803506749294,
          0.18681339802956037,
          0.1985272213813652,
          0.29823902567975513,
          0.07426207444020069,
          -0.04404221044566235,
          0.16373031753898212,
          -0.23440954528104635
        ],
        [
          0.06861456823613007,
          0.4342031615443908,
          0.6979427298082891,
          -0.2531795104954099,
          -0.40633396618530554,
          -0.41128550857069807,
          0.4749608379328233,
          -0.44747467892283377,
          0.027185753449194112,
          0.6538555321235686,
          -0.2636262058905567,
          -0.3748550555837219,
          -0.5336004443253818,
          0.012053063130429045,
          -0.49945001965233765,
          0.24288540376439066,
          -0.457305326051719,
          0.2383843704450413,
          -0.7409220369919183,
          0.21136584713644768,
          -0.12522456226752368
        ]
      ]
    },
    {
      "activation": 1,
      "biases": [
        0.1510792623247348,
        0.5934981325444423,
        -0.04406785119547492,
        -0.3430791774392728,
        0.35159891375852353,
        0.4192610893434176,
        0.09239600927737138,
        -0.04291029550533444,
        0.30549371924801727,
        0.03719130661112749,
        -0.39313815831611904,
        -0.08024649244134431,
        -0.06797547126233762,
        -0.3228413789319249,
        -0.3554683047323051,
        0.5443626669453815,
        -0.1470441312530275,
        -0.2163383364689072,
        0.28033215164972514,
        -0.25743801978819136,
        0.5326038120259553,
        0.11711382843123777,
        -0.5124396314501464,
        -0.1319065347309164,
        0.2094965881633185,
        0.36793569157174183,
        -0.29003147315006517,
        0.16596792145330502,
        -0.2450343197848217,
        -0.21172090075251537,
        -0.8108514376508524
      ],
      "cols": 31,
      "rows": 21,
      "weights": [
        [
          0.23305476269238337,
          0.309988414657954,
          0.17520969987057322,
          0.13450629750242343,
          -0.012580399514565986,
          0.2936024063030435,
          0.05127953449374377,
          0.033965974524343134,
          -0.23317768490656388,
          -0.3145048564683493,
          0.23179219135123985,
          -0.10305389482730783,
          -0.19563916865433906,
          -0.16978512625432268,
          -0.13000212167053302,
          -0.27760993348551954,
          0.2679438966130037,
          -0.1681500789140349,
          -0.30015303687471556,
          0.008668859035075058,
          -0.0020283320964251017,
          -0.3197422457427972,
          0.2666729330873544,
          -0.21432360355736912,
          0.09442540755387024,
          0.3164804677623754,
          0.046503365996012444,
          0.2353777448115373,
          -0.29039002231430033,
          0.24630818901612303,
          -0.1995938958853377
        ],
        [
          -0.01106615897798151,
          -0.056737052252721826,
          0.01878070525626249,
          0.24248560108548564,
          -0.4812800202544373,
          -0.04979163948463213,
          -0.008882341831448752,
          -0.3725755369501937,
          0.01592811791257011,
          0.20760073120740527,
          -0.619224511308106,
          0.15704933712341954,
          0.7577382437941971,
          0.2522251534825241,
          -0.44779524856961195,
          0.17489552243347675,
          -0.2197477979534739,
          0.07422871438509188,
          -0.5961284538243233,
          0.04151125536497664,
          -0.37923108189164767,
          -0.7344905310520528,
          0.05531818846679189,
          0.07462066427501274,
          0.196674856281547,
          -0.3717127955333652,
          0.48105099377183536,
          -0.08431713890281257,
          0.20503494688962415,
          -0.007714549829804455,
          -0.33503373894924343
        ],
        [
          0.031195446708099914,
          -0.282521909798002,
          -0.09829467642013573,
          0.11573920152186769,
          0.05645470599447761,
          -0.021335077611112894,
          -0.13586110010463423,
          -0.48096694932695655,
          0.9222531188223273,
          0.1942265447162835,
          -0.1452953627162681,
          -0.19870856420987926,
          0.22721568948726356,
          -0.5140143034403591,
          0.44006150295488644,
          -0.37280710567518144,
          0.07298496137229586,
          0.7320065521010077,
          -0.3783939470618299,
          0.41831076460218175,
          0.1457003175281897,
          -0.11019764557421298,
          0.24428592077940087,
          0.23029457743985085,
          0.2993527628139104,
          0.3696047466340914,
          -0.09744742100225394,
          -0.6092815890332193,
          -0.08115725772678799,
          -0.1469985606484312,
          -0.07232880607617471
        ],
        [
          0.18190602618395188,
          0.003553478308731433,
          0.22545965850310362,
          0.13263858095550035,
          -0.17379082289916306,
          -0.31201919239950315,
          0.2236957560382534,
          -0.2626166650977317,
          0.20935206479235363,
          -0.029638236096274043,
          -0.18296730450475218,
          -0.11605968637718075,
          -0.026499525143495097,
          0.1754416898504253,
          0.11752764700178457,
          -0.025407802771285702,
          0.24781790245310578,
          0.020655730307795574,
          -0.08487596630504429,
          0.3250389493783446,
          -0.0875987384402556,
          -0.3251038458253223,
          0.03866897906277311,
          0.33159510009234733,
          -0.2749329796031107,
          -0.052901980196618216,
          0.14725680039068056,
          0.21402443556759115,
          0.2390250976340042,
          0.013416165098056343,
          0.15583739135484376
        ],
        [
          0.4225171197369324,
          0.14519606747235717,
          -0.20377347480159824,
          -0.07601669649330407,
          0.13769506932354583,
          -0.08351394825697206,
          0.1831554372728893,
          0.04402936289539952,
          0.23996239659365937,
          -0.0379991423544427,
          -0.2655545253848975,
          -0.4178350895491896,
          -0.2282767067298176,
          0.08656357267324648,
          0.06279981137421699,
          0.10437556925936473,
          -0.019886543674840374,
          0.23981845111945496,
          -0.29269755979579515,
          0.09346334528033916,
          -0.07177320646231834,
          0.3301086651719379,
          0.07123112912360492,
          0.27129412341410886,
          0.12852385929786045,
          -0.194304706267443,
          -0.20239345011876295,
          -0.05777103684104079,
          0.38417622631645787,
          -0.22216180524087917,
          0.2725212381623114
        ],
        [
          -0.30872896674639216,
          -0.26165859344264386,
          0.2222538841295083,
          0.025401712191781032,
          0.06580293571317948,
          0.536433876805864,
          -0.4400600664174187,
          -0.13532094961360408,
          0.6808965590652978,
          -0.46685663725941073,
          -0.1048372610865409,
          0.1261285137787813,
          -0.10230882553261356,
          -0.24359152274823603,
          -0.38416781031930913,
          -0.3926419762877516,
          -0.09200951635191594,
          0.13771502227525773,
          0.7072038525282472,
          -0.453268026973905,
          0.5554570482188792,
          -0.9159987128199797,
          0.038197564735796975,
          0.22243955817565195,
          0.06944503655265749,
          -0.13758867523697152,
          -0.11425479611503428,
          0.3841962555785391,
          -0.26372774961846784,
          0.1818365932066357,
          -0.8121117691508875
        ],
        [
          -0.4591285871883888,
          -0.3550632801954601,
          0.32656397629496436,
          -0.06917383254888326,
          -0.3427150242414,
          0.11919619792941276,
          -0.2673907872880007,
          0.14851743674318377,
          -0.7935996113903138,
          0.06325392990790833,
          0.28323677204650693,
          0.5476741211819239,
          0.08732020616914146,
          0.07048183062352893,
          0.07479701121832398,
          0.07470534683071507,
          0.43448674405927723,
          0.5343488994067348,
          0.2432115252240506,
          -0.0074993364550022,
          -0.1432123077641703,
          -0.10563267512864948,
          -0.240761926519953,
          0.08669286538789595,
          -0.31155532651756995,
          -0.19663483126420322,
          -0.16804527872721575,
          -0.012746080026827662,
          0.2832977773018621,
          -0.25162753929913767,
          0.0005105113675877133
        ],
        [
          0.28720292401124115,
          0.05060804398188794,
          0.051351610671191955,
          0.08903982629139914,
          -0.1413015203648619,
          -0.5524565970370079,
          -0.3556391351045545,
          0.11706509198874021,
          0.06622929836036634,
          -0.025451606712619278,
          -0.21522812771270283,
          -0.18429458678561497,
          0.16111164611937603,
          0.14248635812271038,
          -0.14523769879317575,
          -0.08826421831542762,
          -0.07484656959956469,
          -0.5466010124103784,
          -0.16294655807864603,
          -0.42032112387666476,
          0.27223915985256997,
          -0.0038386805112686226,
          -0.19645391749381852,
          -0.2566906158333936,
          0.21396821815002656,
          -0.06329654079149417,
          0.1929281266328371,
          0.2825478485018793,
          0.127150301148147,
          0.4536288367013537,
          0.33689150063044027
        ],
        [
          -0.2179425461214842,
          -0.24871818266966153,
          -0.10337846176771893,
          -0.31739951456896026,
          -0.21969169983365047,
          -0.008635405581299794,
          -0.0045989133456804596,
          0.0661426382185316,
          0.2690306997948143,
          -0.2736449586087153,
          0.09759491083865035,
          0.12250986817680727,
          -0.25804554024086135,
          0.08983387662550546,
          0.3313059414861738,
          -0.05788473498839569,
          0.1649023371085496,
          0.0824460598915709,
          -0.1119798126822327,
          0.2719232270609132,
          -0.14355301659460418,
          0.15053439051205844,
          -0.18557715319914966,
          -0.036261301522231615,
          -0.09998068743401592,
          0.2738296825323504,
          -0.11782451630749587,
          0.2564536541550778,
          -0.1803215413336676,
          -0.13141060126891335,
          -0.21394068702558747
        ],
        [
          0.4251862388243212,
          0.5292316668431183,
          -0.37611401253219284,
          0.1719052393619336,
          0.5550820003753014,
          0.08509003512478001,
          0.5282652455976051,
          0.33814790898603736,
          -0.24076021561154579,
          0.37706432688165287,
          0.6220708808744697,
          -0.05256565507313588,
          -0.2436882167700698,
          -0.04474990636066603,
          0.4898340149880985,
          0.6606739386723715,
          -0.1296002188854616,
          -0.45721659883135374,
          0.005231509142236917,
          0.5554829760203978,
          0.6463533875780141,
          0.5956205282094584,
          -0.2340261344442188,
          -0.17415744312841677,
          -0.004004294521642976,
          1.0183176613914218,
          0.09532603367428817,
          -0.04643297068504407,
          -0.522596995379888,
          -0.16183884753241468,
          0.41135436305649675
        ],
        [
          -0.07929517505479446,
          -0.10756588606028133,
          -0.21800292457829204,
          0.10464986229956508,
          -0.26413800277619,
          0.10958819788492147,
          -0.2082698784918274,
          -0.20692214595157168,
          0.34873374437464405,
          -0.035380110907795706,
          0.08377435612234804,
          0.13094341480030278,
          -0.4043311565258904,
          -0.1661431710479869,
          0.16345199522203782,
          -0.2886207747815299,
          0.4260437192921462,
          0.47728252508105756,
          -0.3579668403319245,
          0.3675232549812618,
          -0.3211343142793148,
          0.40041365230716214,
          0.10680052346714299,
          0.28930048948490766,
          0.24967196981880696,
          -0.10973378433949205,
          0.15319389894790522,
          0.0256651676413485,
          -0.30770217760774604,
          -0.2503712383694758,
          -0.18904215209290134
        ],
        [
          -0.07318850104274437,
          0.17320127578397407,
          0.30761672224523845,
          0.23070494027728275,
          -0.27207846803261004,
          0.3284990882986844,
          -0.2820631572977825,
          -0.06890352676334416,
          0.21815009934272667,
          -0.18212017922797463,
          -0.33238059758962163,
          0.006079943258084285,
          0.14108509136535002,
          0.05272326997417534,
          0.09932178538476479,
          -0.26228440199715153,
          -0.07829211231550841,
          0.26016909730571397,
          0.09988772026256852,
          0.08714279453374071,
          -0.2458809656152837,
          -0.3394726139372554,
          -0.17991607381465163,
          -0.14131398938287562,
          0.24665102352046792,
          -0.2875333643344587,
          -0.1004982731532446,
          -0.020027177613675756,
          -0.21648410415921057,
          -0.27421215766865886,
          0.2159839893761486
        ],
        [
          0.19249853471080172,
          -0.33259716762652797,
          0.32413690434701814,
          0.13968458433587022,
          0.06002238231808763,
          0.07024439560013347,
          0.015079874318386461,
          -0.014130895161889315,
          0.32196664113140777,
          0.5580839725929122,
          -0.017322637240550203,
          0.4947193299007186,
          0.027683171923907117,
          0.1260198576515132,
          0.5582518046208261,
          0.17000031034945343,
          0.21164010746787487,
          0.8512584509110271,
          -0.2817514113173467,
          0.035426563672414174,
          -0.1740609462515159,
          0.06343954118970153,
          0.05456688073799597,
          -0.07115827931850495,
          -0.1283766215921468,
          0.006320067313155406,
          -0.2588499417722573,
          -0.6148470053813276,
          -0.29435260923186196,
          -0.037978303872647924,
          0.059412718793478765
        ],
        [
          -0.07596920863220792,
          -0.05124910652623143,
          0.42202831679537905,
          -0.49110895866112725,
          0.14354010702158115,
          0.21664209194054293,
          -0.44580699555628284,
          -0.2021941902379756,
          0.0036192042827253475,
          -0.41529772035175155,
          -0.17126445558042788,
          -0.18145342712982557,
          -0.34849631864722985,
          -0.06422509389392421,
          -0.07608329133872678,
          0.08239281941265308,
          -0.09693830345026745,
          -0.8074015965807624,
          0.2024784643524929,
          -0.7564008503298227,
          -0.3741564921239442,
          0.38447598101550984,
          0.09341757674189123,
          -0.20277498246806291,
          0.2216896434208467,
          -0.6017198746481763,
          -0.39827794756170054,
          -0.058371365448031634,
          0.2459625073090611,
          0.2874377003154464,
          -0.005633666922810863
        ],
        [
          -0.2589449677642113,
          0.0922626343486646,
          -0.13197416186030228,
          -0.44118910542728046,
          0.0017591179014453404,
          -0.21225527168371655,
          0.1571151821022227,
          -0.07007660595132476,
          0.1777800063092099,
          0.5764694876356116,
          -0.44100979887032704,
          0.0895522921482983,
          -0.23114889438340488,
          0.5381778607387122,
          -0.3648562408239484,
          0.30644240407958023,
          0.36567680486608295,
          -0.4382208428445731,
          0.1468104647576228,
          -0.07193483306533058,
          -0.32768881476666617,
          0.18153655118583936,
          -0.2358210593908483,
          -0.6031403417113859,
          0.10255486405707966,
          0.04674275288378599,
          0.033979868755938065,
          0.3481535095655059,
          -0.24070834224389753,
          -0.44956094921414547,
          0.07348620714104533
        ],
        [
          0.03987269291411247,
          0.4378422154689172,
          -0.07506350093462892,
          0.4871892801269828,
          0.04401337974683846,
          -0.5975354287326302,
          0.18045421692902477,
          0.45328762631059916,
          -0.617621696217804,
          -0.31723839880608057,
          0.39263458597329576,
          -0.20279903813962571,
          -0.1999861557332188,
          -0.30396821465243007,
          0.23394810162558874,
          -0.020355851736010535,
          -0.287217470416091,
          -0.08667247977618088,
          -0.04067176177847759,
          0.08255010669570492,
          0.024129792173641484,
          0.21546573466427663,
          0.12772896646923043,
          0.3613994784087042,
          -0.2313813008599354,
          0.24735570640543428,
          0.05485360837549786,
          0.23851307636720154,
          0.20381493076490068,
          0.26475943696273363,
          0.25640017501339607
        ],
        [
          -0.033653922875081003,
          0.2589654314938202,
          -0.5833028469890886,
          0.04099724636701852,
          0.22337239941212786,
          -0.19677874359897563,
          0.22657842861971134,
          0.09537343941493288,
          0.13857056688078462,
          -0.2387851662420049,
          0.08242410861165346,
          -0.5363904095698615,
          -0.407582050576231,
          -0.26819986828332815,
          -0.277119981534104,
          -0.5278002664825888,
          -0.23130245867495908,
          -0.15193089443280838,
          -0.2475527147007337,
          0.11409831358484848,
          -0.13650758322462417,
          0.13765903342837485,
          0.17435397643940473,
          0.23366200849865584,
          0.403259715884059,
          -0.009899037339870381,
          -0.15655993366405555,
          0.10374053608344853,
          0.3464602979331163,
          0.30836399243900736,
          0.3308289845761306
        ],
        [
          0.4738707997826028,
          -0.02718301593870385,
          -0.17403502489283948,
          0.4081008275370681,
          -0.2662221650023288,
          -0.08637964056378587,
          0.3709580904810087,
          0.2349174183032308,
          0.02729773883157175,
          0.10420302500916927,
          0.21268857839302127,
          0.10470513578098502,
          0.3827912480870196,
          0.03203595744715877,
          0.5663615400801032,
          -0.2122178097201044,
          -0.28578007966174496,
          0.1817270339563762,
          -0.09360577852905116,
          0.39209725922735494,
          0.16891582192462426,
          -0.12838645541832738,
          0.24874465509315732,
          0.1286775501842045,
          -0.2486861763723637,
          0.04960536802990032,
          0.3496890499516505,
          -0.171602708162515,
          -0.12734698735451044,
          0.1172649916292476,
          0.4204076978086085
        ],
        [
          0.001778183663159056,
          0.22808864335187096,
          0.07531981627811996,
          -0.15360522922407446,
          -0.6440860852106354,
          -0.43960542264982805,
          0.3248217382451744,
          0.4560653041383441,
          -0.14107946419091033,
          -0.07232553702484844,
          0.3549911053242304,
          -0.3972568407588111,
          0.17156505600689584,
          -0.21259688337581364,
          0.21163647877344738,
          -0.4143265338776625,
          0.34014176029817594,
          0.7347440891771966,
          0.24937744599363348,
          0.329470621705242,
          0.19314449480983925,
          0.44438485988245663,
          0.3312888772748049,
          -0.39444053050832883,
          -0.672776750265904,
          0.5651794318244828,
          -0.1999156588176157,
          0.014613368196667519,
          -0.057056728041514584,
          -0.035392944929652746,
          -0.059205501726862605
        ],
        [
          0.02255096771920332,
          0.10631515708863648,
          0.10991022954059729,
          0.09943096911554251,
          0.20573323728017318,
          -0.11890471366666322,
          -0.21025956416732577,
          0.28997226625248634,
          0.140422039825374,
          0.2125123622956972,
          -0.24240180146814475,
          -0.042140121013191645,
          -0.1665306571920115,
          -0.27685163110470706,
          -0.1768087990643238,
          -0.11392716468774634,
          -0.12143855665269275,
          0.16336007615322184,
          0.3289066932977388,
          -0.07510924628723283,
          -0.3164310823467325,
          0.12617020782115576,
          -0.29658849047600616,
          0.24286272810088266,
          0.32990292896652285,
          0.15546513791613223,
          0.035475520453203804,
          0.22131125049347716,
          0.11349546497810992,
          0.09969879095887987,
          0.21969800472416293
        ],
        [
          0.308597117962917,
          0.33381214526411473,
          0.15017433971247793,
          0.3035656168623912,
          -0.1427516724374907,
          0.2785889048209318,
          0.23234555053908337,
          0.012395636615046751,
          -0.3314356019459686,
          0.326216238758232,
          0.30719824623342856,
          -0.020262865865239652,
          0.13794890674825241,
          -0.09511983772402277,
          0.06332410622751264,
          0.025036917317489544,
          -0.003445802870442515,
          -0.30875825916315225,
          0.06475598417615487,
          0.08302585893280612,
          0.29344194228781806,
          0.2865648043895194,
          0.27101423076695524,
          -0.2976996145369363,
          0.2626380961898492,
          0.25595251793072926,
          0.20115199581385731,
          0.1857200798227977,
          0.16343929411051375,
          0.04186494168105267,
          -0.129812101979923
        ]
      ]
    }
  ]
}
