{
  "layers": [
    {
      "activation": 2,
      "biases": [
        -0.39406985836539804,
        -0.051669046633426786,
        0.4278405960101971,
        1.4274609205119524,
        0.15967273743428176,
        -0.04035968137280514,
        0.9418456430302339,
        0.7925862894520584,
        0.40893269921685554
      ],
      "cols": 9,
      "rows": 3,
      "weights": [
        [
          1.8677199894658854,
          0.7155816200673624,
          -0.5668727801604355,
          -1.0158135332261522,
          -0.6579511114857707,
          -0.05773117421592961,
          -0.024853621541779634,
          -0.7473704709601363,
          -0.2987563792347974
        ],
        [
          -0.40358774298865907,
          0.5701079501446904,
          0.8620790280642772,
          -1.2773277000979006,
          1.3527860224581922,
          -0.3804121696875239,
          0.9503042568730676,
          1.1038866976117385,
          -1.255047169923864
        ],
        [
          1.3646426368896312,
          -1.1687099999424801,
          0.8327099777947518,
          0.8419050833218105,
          0.16134999129832628,
          0.034004996861009516,
          -1.5012757644766757,
          0.09536272366665667,
          0.9308946165778804
        ]
      ]
    },
    {
      "activation": 2,
      "biases": [
        -0.016933519526569418,
        1.0893289453076451,
        0.38163763368714,
        -0.26052997254344745,
        0.47540714235508746,
        0.45873040695807055,
        0.25341845256634504,
        0.22468851106459745,
        -0.025948939056786875,
        -0.0829234322164519,
        0.2182528468266294,
        0.0,
        0.2928014067134724,
        -0.23684948159877658,
        0.36725628919656383
      ],
      "cols": 15,
      "rows": 9,
      "weights": [
        [
          0.8643904618802334,
          -0.5483258000763366,
          -0.4263975445869653,
          -0.6666576230120705,
          -0.047258089791095775,
          1.5456164907332266,
          1.0262813857070328,
          0.48042030640404676,
          -0.4429614074259492,
          0.651816080221219,
          0.6946084139178585,
          -0.43480656060148337,
          -0.19830254087134006,
          -0.48991838706285046,
          -0.0074650461453010285
        ],
        [
          0.32200043246289123,
          -0.43140934007644544,
          -0.16332600547153692,
          0.689271659351076,
          0.9899146902485342,
          -0.4228461636612771,
          -0.6493488130400035,
          0.07999502940819612,
          0.09030766034381152,
          -0.20026640321765618,
          -0.5581048704503061,
          0.2061359708691649,
          0.7092396555673801,
          -0.19029626148778414,
          -0.1939137967400425
        ],
        [
          -0.1804723680207504,
          -0.6618749885853608,
          -0.4678420609790986,
          -0.16263424464666504,
          -0.4465118651858535,
          -0.5940644939156675,
          0.6968185798992177,
          -0.03979259919988307,
          -0.015759853776331365,
          -0.14454131773175816,
          -0.5658228988056386,
          -0.47273760194552017,
          -0.19082186460398917,
          0.7204720916408504,
          0.05775065958586401
        ],
        [
          0.7002033964333516,
          1.1238156347943744,
          0.3638957218185456,
          -0.6324722824118552,
          0.37133894588209837,
          -1.1382327199443572,
          -0.4772363871370324,
          0.23467445122643116,
          0.43098115986908836,
          -0.3977944726224466,
          -0.23388797575536274,
          -0.30087589835788864,
          -0.06274552755273878,
          0.013292725224890986,
          1.161437687822611
        ],
        [
          0.02711481684234167,
          -0.409836475225777,
          -0.3505257672327988,
          0.5260332537576831,
          -0.2435164112727137,
          0.18479845076549126,
          0.38043022882224087,
          -0.046987678718227205,
          -0.2688630360969014,
          0.06710838621233355,
          -0.2733937998867275,
          0.17877629896568892,
          0.08709383633028286,
          1.18189936792646,
          0.21283406497162163
        ],
        [
          -0.3746127295958957,
          -0.22464287238041836,
          0.08003433975085195,
          -0.04257323881259107,
          -0.26317935440818613,
          -0.138109009095987,
          0.08968649349386755,
          -0.21450161995314831,
          -0.3762159016338251,
          0.41476361951774005,
          -0.33136272679249423,
          -0.3067432836660851,
          -0.2406114743745939,
          0.1618629385590741,
          0.3106245310053727
        ],
        [
          -0.8321904499187606,
          1.1822754089317171,
          0.3083400681437041,
          1.074883102275252,
          0.6732016335645803,
          -0.12364227312511882,
          -0.43026012636767846,
          -0.1845877896679808,
          -0.064920713516677,
          -0.5740586459565865,
          -0.22257249072428859,
          -0.4343685758925828,
          0.45919060835647074,
          0.4455793716145815,
          -0.22289857746363745
        ],
        [
          -0.3303473508875376,
          0.33451394483954106,
          0.2842968124593893,
          -0.22236890659812758,
          -0.5856538585652127,
          -0.7562427161762048,
          0.39585093217124057,
          -0.3113689859359177,
          -0.5091647775068607,
          0.12573178992566936,
          0.16982302038135927,
          -0.4326550266391854,
          -0.1555700189769799,
          1.1127947225708494,
          0.05248132946648646
        ],
        [
          0.582155360662509,
          0.33530707547701544,
          -0.34400476481630454,
          0.24656098593026132,
          -0.11898633873415035,
          -0.28324438769016264,
          -0.6963808863228059,
          0.702886638206008,
          -0.24953472737358542,
          -0.06656555064877587,
          -0.2838636524768689,
          0.3669672752111066,
          -0.4467186894827431,
          -0.6260721727550708,
          1.038594821321385
        ]
      ]
    },
    {
      "activation": 2,
      "biases": [
        0.3137250475263707,
        -0.13594122772943965,
        0.11125699066980194,
        0.4588023111138545,
        0.5116014098836238,
        0.1481055620769841,
        0.1770681677158774,
        -0.013197638302805702,
        0.15051194741717794,
        0.27352605533977176,
        -0.1736928214461858,
        0.0,
        0.17277561026956592,
        0.27782205738245,
        0.1879817061383967,
        -0.021804080613772658,
        -0.1646567196657752,
        0.23318653220133218,
        0.20286432580960326,
        0.8625600256855155,
        -0.15731930362413366
      ],
      "cols": 21,
      "rows": 15,
      "weights": [
        [
          0.22203973619110948,
          -0.564600822476026,
          -0.2119700890730507,
          -0.6342929053215971,
          -0.28733683639591295,
          -0.36402933997535114,
          0.5972015587419353,
          -0.281674451713682,
          0.2762207561552425,
          -0.16238218438197283,
          0.261106448844506,
          -0.40395395074153867,
          -0.29767827213155706,
          0.0025530770257756728,
          -0.10723669924256689,
          -0.018088844400037378,
          -0.2910483600836549,
          0.3159769980407205,
          0.6144381061305297,
          -0.7196225333514841,
          -0.4391915801361216
        ],
        [
          0.2630195064751843,
          -0.3110749748501269,
          -0.4320177571920587,
          1.1850487912340428,
          -0.15301756634673863,
          0.37538038952643205,
          0.2891063629101235,
          -0.05533373289842889,
          -0.8170726583335219,
          0.9343191185099228,
          -0.18092609124358836,
          -0.08497969899905268,
          -0.42035120901433126,
          -0.1395706737293363,
          0.32507852984125846,
          -0.21045780353093196,
          -0.18960979405361872,
          -0.14778084698053615,
          0.5863146673597498,
          0.8848977827484582,
          -0.5848210174934585
        ],
        [
          0.0603075419794053,
          -0.19723555995032502,
          0.14737085892631918,
          0.23449853197666007,
          -0.35816187611532574,
          0.34399152315766907,
          -0.2834856695301232,
          -0.004443147214774716,
          -0.09901132066918504,
          -0.1939743420347433,
          0.32457544021881274,
          -0.20128103448587997,
          0.3572864828766688,
          -0.11423713658093337,
          -0.2145339101154577,
          0.3340156547047126,
          -0.03880043349341658,
          0.12063661319775032,
          0.06763504841624507,
          0.5290163541122285,
          0.042748592320046686
        ],
        [
          -0.5032245923249761,
          0.773544693733588,
          0.08220036041010216,
          0.22810439330406762,
          -0.4485910077588286,
          0.09281525064235631,
          0.3870377486197752,
          -0.3748451055535735,
          -0.0503436180506313,
          0.46689435373204613,
          0.125766579447724,
          -0.18501182061606533,
          -0.4059796557294465,
          0.39494758270447095,
          -0.3828345123981046,
          -0.2838643386029387,
          0.6054867934731916,
          -0.25903465690584704,
          0.5549206440618484,
          -0.3468989635409251,
          -0.5123813869328058
        ],
        [
          0.19541393023389605,
          0.7820458702824865,
          0.05064931203244612,
          0.17355030968063553,
          0.10343685828864285,
          -0.011937084732939203,
          0.40330707317202785,
          0.23629007381796505,
          -0.36871634062819525,
          -0.2224132848973696,
          -0.1557735877323145,
          -0.2746889214289258,
          0.12759254402539869,
          0.9118652866877557,
          -0.22747465046490092,
          -0.35064630764339383,
          -0.18148263201762868,
          -0.4612129334797656,
          0.2627500101869171,
          0.8907417558133451,
          0.12388532857312777
        ],
        [
          0.44872155276868836,
          0.03507324886994528,
          -0.39015504421512914,
          -0.5864410947576537,
          0.4489325848206667,
          -0.3417421684278976,
          -0.9468949905078009,
          -0.1778463433802091,
          0.6651622090770941,
          -0.8207665004106977,
          -0.03839260571107885,
          -0.22503389059263654,
          -0.46943696564925474,
          0.45596109141842517,
          -0.630388238584008,
          0.09028364198068276,
          -0.8329447032841402,
          -0.6235574281244923,
          -0.17820121400689956,
          0.5875132079725706,
          -0.24610276873764256
        ],
        [
          0.32628951176113385,
          -0.26983091425098565,
          0.0072142008709413005,
          -0.14730708993948063,
          0.800181935473326,
          0.5558952442279205,
          -1.0149099127701335,
          0.12828791068569195,
          1.0945951170434152,
          0.15339435475030455,
          -0.4111979195481017,
          -0.13243633321594875,
          0.017852350488871148,
          -0.3323151273412148,
          0.4298406309385721,
          -0.11270555015407005,
          0.019365897329517025,
          -0.16326601448853895,
          -0.2987874798394439,
          0.1792866627515259,
          -0.02524595477756846
        ],
        [
          0.17728853146260698,
          -0.31948194959537435,
          -0.23574792111991955,
          -0.6026468223902939,
          0.2992096083252622,
          0.11721496575970307,
          0.36261312439124366,
          0.028642595943237616,
          -0.37814269548163465,
          0.11536865615456113,
          -0.3503535410946838,
          -0.08777275146986535,
          0.04552547160834353,
          0.3244145117434967,
          -0.27854728744582496,
          0.35033664794250574,
          -0.2911491640367387,
          0.09164511259283255,
          0.0680047537125442,
          -0.47111590458079133,
          -0.2525383927030302
        ],
        [
          0.26479032874218905,
          0.1786099733330677,
          0.302658098752186,
          -0.3360756588058545,
          0.05309412864699576,
          -0.292563421868658,
          -0.43512854243446114,
          -0.3368727293642604,
          0.28892163093806533,
          0.042489341959157496,
          -0.39964787429051246,
          0.21268778237416006,
          -0.004512071073539167,
          -0.1890887354447999,
          0.031886986556066484,
          -0.24143720672999516,
          0.21543056229665192,
          0.23407768943271987,
          0.18924730268251636,
          -0.35952649759854355,
          -0.2506215545275545
        ],
        [
          -0.03301157479109733,
          0.0750783595223546,
          -0.01023662465657576,
          -0.14664508734789633,
          -0.16372904588126483,
          -0.2410379755307487,
          -0.39667349549501635,
          -0.23295297961593678,
          0.39311512461459613,
          0.18474724645920323,
          -0.391424175088661,
          0.021527060923258522,
          -0.35182730150048386,
          0.01641265945736014,
          -0.39324781464190334,
          0.14481940137289429,
          0.17026551212779492,
          -0.4659398559350134,
          0.34845908398669406,
          0.25524850340382566,
          0.01758148576220474
        ],
        [
          0.3645319373475563,
          -0.5747455373439639,
          -0.08686964909580754,
          -0.2694199488566254,
          -0.12337966996052065,
          -0.3835786391531263,
          -0.35919629882699794,
          -0.2873241532235134,
          0.2298019306579162,
          -0.4677962258739463,
          0.35016442735027764,
          0.09732758622409232,
          -0.12726869519294395,
          -0.27562164764450686,
          0.3481094238881465,
          -0.17567783266670495,
          -0.08502305288727094,
          -0.4440237204573042,
          0.1430779517449785,
          0.09723854433657991,
          -0.332003274993414
        ],
        [
          0.32679223676203883,
          -0.319322760420914,
          0.11749859226567527,
          0.014178185942635715,
          -0.22934497594138928,
          -0.16069693949359445,
          0.0574302972658876,
          0.3489493285442258,
          0.17464899750507812,
          -0.25406813773935344,
          -0.14084053131491067,
          0.3420900700845755,
          0.4069433243238801,
          -0.3532552985362143,
          0.18085980484068653,
          0.3036673977274482,
          -0.3385214460339998,
          0.39980223761399586,
          -0.12854105975918897,
          0.14812949837308972,
          -0.13510695285059915
        ],
        [
          -0.3527822978765203,
          0.28449536756647753,
          -0.32081249572793474,
          -0.0012443375149832905,
          0.054915570565380975,
          0.041204201927872025,
          0.12879948816552383,
          -0.10357596105307124,
          -0.08210377449032093,
          0.20339209907974942,
          -0.0832217002260009,
          -0.2611149815860627,
          -0.358682450887989,
          0.610936242355552,
          -0.12633982679244798,
          -0.18217377399336612,
          -0.16108025668008322,
          -0.34601248910944676,
          0.2232136798354891,
          0.14414515823756122,
          -0.19865818711921002
        ],
        [
          -0.6107670865221901,
          -0.3102138809871792,
          0.3255796184983911,
          0.060846819096261086,
          0.35553727184878786,
          -0.0961124593969442,
          -0.12358825053295942,
          -0.03225725938891052,
          -0.03666392190479256,
          0.5443649776749542,
          -0.04847536114051536,
          0.10962696957089711,
          0.5887418426079474,
          0.474985353353528,
          0.7726739471042028,
          0.05558182026909468,
          0.9742824941743832,
          0.3632778522904241,
          -0.8163546158073247,
          -0.3504122200143007,
          0.497812047834094
        ],
        [
          0.5591115550921345,
          -0.7185106317245314,
          0.05838610992167841,
          -0.22788738576069725,
          0.04258974767070862,
          0.04337254079563187,
          0.7621640642766745,
          -0.11404997668306464,
          -0.6168259141893454,
          -0.23604587175853134,
          0.09916006847237063,
          -0.3323055758107243,
          0.2153942431030318,
          -0.4784102522571532,
          0.09325480497970577,
          -0.2870865242106292,
          0.14966499563579683,
          0.8257998286727951,
          0.516382802848235,
          -0.3181741599488122,
          0.30971312198074324
        ]
      ]
    },
    {
      "activation": 1,
      "biases": [
        -0.17401470421666929,
        -0.6807484233843897,
        0.030065431855404355,
        -0.4527730951505011,
        0.1696792459806902,
        0.057869811569547715,
        -0.34497661136112306,
        -0.47453677171820163,
        0.18011484422447077,
        0.30159816936677697,
        -0.4645386620513114,
        -0.43304057055035755,
        0.3284468435714103,
        -0.03089851961750499,
        -0.32107040332072534,
        0.3195177180042528,
        0.31193612072302435,
        -0.5557525016673707,
        -0.25708890519167077,
        -0.1855167898364912,
        0.2520102054129119,
        0.31235731639853864,
        0.19352043028661592,
        -0.03247058718648086,
        -0.12597143883860842,
        0.5455213610951343,
        -0.21026140354300232,
        -0.09492898755669052,
        0.1798367607390469,
        -0.36121690200842904,
        0.03118821061917916
      ],
      "cols": 31,
      "rows": 21,
      "weights": [
        [
          0.06226380930988268,
          0.32296061151867633,
          0.10465113042666029,
          0.04778129067918831,
          -0.21929295135102705,
          0.28564073586926897,
          -0.22334863813388997,
          -0.2922985100918911,
          -0.13765722735427963,
          0.3331941805341192,
          -0.3201160575206567,
          -0.326551756850307,
          -0.03384879800408817,
          -0.3270050423803532,
          -0.07883192372206556,
          -0.0012836155193685778,
          -0.3807441690673267,
          -0.006065237646225384,
          0.07727100810333491,
          -0.6474650037512623,
          0.2854809437464535,
          0.35715299708146947,
          0.20922468603880762,
          -0.5053576743275328,
          0.5663044893761049,
          0.37385794741448586,
          0.5316682452408648,
          -0.31310729386905223,
          0.19915593049069968,
          0.19537578436469408,
          0.6493375298832351
        ],
        [
          0.40163594506043065,
          0.02003643785315103,
          -0.19854297331598125,
          0.11623251345717225,
          0.06054173030355966,
          0.06778971860153116,
          -0.016462543210681208,
          0.07399715100717508,
          0.49712407583350526,
          -0.5279234954915768,
          0.3353444016805286,
          -0.23725532262051174,
          0.006817608943627962,
          0.6352314592705733,
          -0.22398231805828375,
          0.20437840723455525,
          0.3583150871418545,
          0.2248038074990126,
          -0.1935710109138432,
          0.028040462265080966,
          0.5073519166074464,
          0.09975476530488821,
          0.5027973625989712,
          0.3710409449333464,
          -0.02969002895166194,
          0.14591493631860497,
          0.13965026968277558,
          -0.2358609037215829,
          -0.9160301482365294,
          -0.19926921137000947,
          -0.32675074068572085
        ],
        [
          -0.28414689707788887,
          0.07384466796068054,
          0.29713592445124226,
          0.1824406558253281,
          -0.017977091498801,
          0.2528777571192815,
          -0.42332367315029196,
          0.4456352961819082,
          -0.03975919680819589,
          0.11887452863315545,
          -0.14846061095672952,
          0.14202983523914697,
          -0.2283409816215678,
          -0.1252457793056847,
          -0.0814278399443453,
          -0.027065285201154816,
          -0.0929843186112142,
          -0.3387811179292724,
          -0.4043925724649327,
          -0.0763841612329078,
          -0.30887792075092674,
          0.27896825917599816,
          0.09937936007763076,
          0.07944992220462158,
          0.25989395564496703,
          0.0037869998550518528,
          0.24731235640487853,
          -0.07296989110847854,
          -0.22757956670965027,
          -0.08727811577539919,
          -0.17547131425773296
        ],
        [
          0.3676338340427146,
          1.0748070869496162,
          0.3448946699011724,
          -0.2022219724401872,
          0.03662850633676217,
          -0.457672601400505,
          -0.28683187224921647,
          0.20664907227467735,
          0.4710660668980917,
          -0.3456045061582034,
          0.24569458076091247,
          -0.16762636729109007,
          0.07746812289605047,
          -0.4511469006221499,
          0.353918921129267,
          -0.6932145243071597,
          -0.07272080295607478,
          0.4584978260348005,
          -0.008222384784221043,
          -0.1220560126760921,
          -0.2519816637409082,
          0.14980566635508,
          -0.10306382168139323,
          0.05406999529645191,
          -0.12289244956156728,
          -0.13496239973927962,
          0.2673192998990285,
          0.00283946527631009,
          -0.20211201567188017,
          0.1404540103886743,
          -0.08209353915730538
        ],
        [
          -0.18205032948101346,
          -0.34983784836735043,
          -0.28302832734826927,
          0.0504025065291411,
          0.09423995320062269,
          0.18947700630999367,
          0.028477217098437646,
          0.13870364004530242,
          -0.025097814463341656,
          0.11277200173246092,
          0.49077510420535786,
          -0.19662879404259956,
          0.007287212353273499,
          0.7725510654662847,
          0.5742359458485388,
          -0.009303351651494632,
          0.36629410960766406,
          0.3707119386320794,
          -0.2250889450155548,
          -0.3110620551607157,
          0.19099935266858512,
          -0.22914687282644858,
          -0.20458165434737946,
          -0.08135744150353971,
          -0.0010790252789493388,
          0.07599012886691738,
          -0.3400039975118999,
          0.030728123233689977,
          -0.4616268887516963,
          0.22682539890242182,
          0.32291079290952795
        ],
        [
          0.32303092036345604,
          0.03577642722530152,
          0.015803959331285884,
          0.184834429482119,
          0.37543817850183125,
          -0.12193448265771217,
          -0.22454323106292456,
          -0.1541768708814483,
          -0.16065808981832655,
          0.0006639275843272457,
          -0.31090175925376956,
          -0.17735228216669643,
          0.050394865433157014,
          0.19689505677031718,
          -0.16593027446311395,
          -0.46650669469169637,
          0.4362096260353161,
          0.32418866239272837,
          0.2015996460837068,
          -0.1973664672280368,
          -0.355324406822157,
          0.0484290480820246,
          -0.19562168505876731,
          0.11761502703394335,
          -0.27744899742841855,
          -0.19339483108222003,
          -0.23929658208509974,
          -0.2757945889417174,
          0.22558553229744516,
          0.11668940158681015,
          0.3232253795628249
        ],
        [
          -0.21284605232817122,
          -0.4933255531555909,
          0.12875673589336356,
          -0.6036575297889405,
          -0.20524978791851387,
          0.28935085870290755,
          0.5016349010479489,
          -0.28093598558356,
          -0.4515756122067842,
          -0.4604439894615514,
          0.39218782808069136,
          0.9681277535494621,
          -0.2458955836791963,
          -0.1680007226104887,
          0.33418987424539826,
          0.15022805436860143,
          0.11480002704583753,
          0.4270230680050214,
          0.26759627700571664,
          0.6513503992282781,
          0.10761269329962678,
          -0.3837516294241899,
          0.04715763285061137,
          -0.09698051112808052,
          -0.2878819576014389,
          0.30890906617495845,
          -0.033024082297856916,
          0.5006797254294524,
          0.24152055553165394,
          -0.4066511389992425,
          -0.26559278333585784
        ],
        [
          0.04793801742959796,
          0.28476991571733634,
          -0.271515092249935,
          0.054178920096450936,
          -0.1892375720989744,
          -0.19743499646647425,
          0.1315096615123788,
          0.017678558895209355,
          0.2695821510169699,
          0.16559592607694737,
          -0.32994497010078633,
          -0.06549888221977213,
          -0.3095044761651035,
          -0.09221063083390418,
          0.26174341416294417,
          0.17542689733116346,
          -0.26883915684316895,
          0.21910316306265307,
          0.3249756044005218,
          0.00011052846618587911,
          0.131122296657899,
          -0.0625147716057281,
          -0.09371581276798734,
          -0.12473535167997334,
          -0.17533685573132154,
          0.13202115796805353,
          -0.32001376110611346,
          -0.2826957552972654,
          -0.27474176765500635,
          0.2889033942361987,
          -0.031091505005175574
        ],
        [
          -0.03837064073767471,
          0.6707774684713885,
          0.14994946711262228,
          -0.08440299438185629,
          -5.442960109910299e-05,
          -0.13427979204190132,
          0.38193175156990217,
          -0.3652152873089653,
          0.12408904800784379,
          -0.7358990610549866,
          0.19606576205900483,
          0.5892642617973388,
          -0.07308307495199523,
          -0.5375259311404911,
          -0.08327803705080916,
          -0.16310097838985246,
          0.5208859124978155,
          0.5226337444930117,
          0.03104004563821428,
          0.3416475752556878,
          -0.1251010738796595,
          0.042549464683207035,
          0.13723036899731708,
          0.057437798918764674,
          -0.353403022556339,
          -0.23450407313711866,
          0.010973919951949513,
          0.06525797375698102,
          0.08341550101203087,
          -0.21972134404373772,
          -0.8376921398583591
        ],
        [
          -0.5546836668724441,
          0.6274506404773857,
          -0.17249000142285176,
          0.16666488107281474,
          -0.10239337915601734,
          0.11023109228064998,
          0.25167267005884114,
          0.18214957235531373,
          0.35616177759920825,
          0.049456215447631784,
          0.31121642511692466,
          0.29801760326572474,
          0.2494313057520408,
          0.17152141931606693,
          0.26206717179380695,
          -0.22683812835952694,
          0.15852894836611148,
          0.275852764245644,
          0.07010946400733888,
          0.5209326407727306,
          -0.034943007418086765,
          0.07075999262012744,
          0.6812129736145079,
          -0.9437354080644442,
          -0.0860899446559429,
          0.028701125611317182,
          0.16613936830802806,
          -0.24681283231214288,
          -0.08886526877159368,
          -0.26326041772293196,
          0.278267612457045
        ],
        [
          0.2979352150931054,
          0.23194807329606315,
          -0.220392166140759,
          -0.02576965605008248,
          0.29439687974945544,
          0.23916289680476083,
          -0.022272030505229277,
          0.02647893182798157,
          -0.25933795316992475,
          -0.15261726714639,
          0.329723138047002,
          0.11854764722333862,
          0.07570980713926267,
          0.16599503411268554,
          -0.3384416609093997,
          0.22886673872026467,
          0.12906618906418113,
          0.2102309917883613,
          0.1359728574608674,
          -0.12100759541476074,
          0.2574976337109349,
          -0.012174515451170926,
          -0.0880050503176723,
          -0.04663437123807915,
          0.2862892962707745,
          -0.31420692537732914,
          -0.22831655312853025,
          0.20069981375985302,
          0.00024074869594230475,
          0.07198518538304467,
          0.04405148636281447
        ],
        [
          -0.19357888676583437,
          0.13839855665366863,
          -0.19374774258809985,
          -0.015339795286360484,
          -0.2807189965566956,
          -0.29867223267802934,
          0.08662269784830455,
          -0.16712465029422177,
          0.25185121467347554,
          -0.17535026116246386,
          -0.04435061055178938,
          -0.030286826435052917,
          0.10984211351800788,
          -0.16888935220961393,
          -0.006067107804970425,
          0.30623794187679826,
          -0.04405281399340629,
          0.24976434519431417,
          0.056392453480632806,
          -0.0028037432811745715,
          0.08653957917047257,
          -0.0634826251648918,
          0.06186671428449911,
          -0.19860869853306884,
          -0.08333254283953237,
          -0.18861886376115802,
          -0.08718090323541425,
          0.1130953483691469,
          -0.3212639756142865,
          -0.20224394383987138,
          -0.335935464481695
        ],
        [
          -0.030406282966639508,
          -0.11707419457120698,
          -0.1980565906532721,
          -0.1804752262379708,
          0.4229467917998757,
          -0.012257849624877828,
          -0.17854467692236248,
          0.7235278669082821,
          0.11621666345062936,
          -0.07635925281380922,
          -0.06289201414546876,
          -0.5649424374683293,
          0.28611743980805526,
          0.20163446793132,
          -0.16978042227225054,
          -0.15868937102848493,
          0.23831229982115296,
          -0.22679471158304262,
          -0.045865424668472696,
          -0.10098072244621834,
          -0.1496779514351102,
          0.06378088426825729,
          -0.24724871015131702,
          -0.08947731247602544,
          0.037330359220845634,
          -0.19133180358150573,
          -0.1691787591809759,
          -0.21338337098898197,
          -0.04605368484163354,
          -0.40425236048620444,
          -0.052736563114187514
        ],
        [
          0.08577210563486391,
          -0.4347029175908731,
          -0.12318095599727898,
          -0.195346555175463,
          -0.05785008549707167,
          0.46462997375212384,
          0.19246699691682814,
          -0.37277013919231133,
          -0.4857685175870811,
          0.3849601134658436,
          0.2961956987944365,
          -0.03620344495347686,
          -0.13123928080665692,
          0.3301297274326939,
          -0.3292201950325361,
          0.701352862775709,
          -0.37860334907030513,
          -0.4436144725242724,
          0.19314068315165397,
          -0.05234045862298753,
          0.5026473923547148,
          -0.10818008566528581,
          -0.11380947889873838,
          0.04925503943061557,
          0.28001980685820094,
          0.18110332117693187,
          -0.03369409073451659,
          0.18297275729439305,
          -0.0024415566363039346,
          0.012385183850499514,
          -0.059882820879146974
        ],
        [
          -0.05777760883283126,
          -0.27193499982536085,
          -0.011406484272497956,
          0.5688112938334242,
          0.16537975593627027,
          0.12392918666280364,
          -0.038404336595627524,
          0.5034968038310819,
          0.28453041232134746,
          0.4675197056029883,
          -0.31033413318505376,
          -0.41219052706684955,
          -0.03420694065181799,
          0.1698802932242668,
          0.04192417676944673,
          -0.39907066009952347,
          -0.3159367877533354,
          -0.16786728510559812,
          -0.13052850965244736,
          0.018675321295227,
          0.08618400983107838,
          0.16698789728416927,
          -0.047244128939807055,
          0.10342126386573061,
          -0.07451532894774254,
          0.2795549405367926,
          0.07690142211721458,
          -0.22678607988805358,
          -0.1437849547328259,
          0.17486292181550786,
          0.4372526785909498
        ],
        [
          -0.27832230377117395,
          -0.19611144236954262,
          -0.14341151947292435,
          -0.06664456355258014,
          0.22759107651892968,
          -0.04029062575803105,
          0.03662753698083433,
          -0.22722540405964733,
          -0.17807067799642184,
          0.034757784247131704,
          0.3343580033446923,
          -0.07328552593638743,
          0.013059305113690422,
          -0.207192840150862,
          -0.06992841165586734,
          -0.2180470994779136,
          0.19713359823237575,
          -0.040773708019313036,
          0.002059172196709662,
          -0.24873849543194843,
          -0.15168932403762467,
          -0.25573317105850835,
          0.21867617949009785,
          -0.3325792097158153,
          0.31898649914789406,
          0.05045272025710852,
          -0.0007749089861146472,
          -0.14980745398138973,
          -0.3190685112157796,
          -0.11647619256229805,
          0.07761447356992861
        ],
        [
          0.1103458504564769,
          -0.5265780259257103,
          -0.018210508964429505,
          -0.10410504305967483,
          -0.059180654625971135,
          0.16683714925667342,
          -0.0026172528780590556,
          -0.18491744519842868,
          -0.32288994607642907,
          0.7878517657677649,
          -0.1101876134309997,
          -0.24083068085198994,
          -0.10628226029522071,
          0.6189016086433786,
          -0.36368391275666107,
          -0.021691736364485254,
          -0.6977525813830542,
          -0.34638884525899877,
          0.14560354772443382,
          -0.3624437248320599,
          -0.16838145121917816,
          -0.006332157245520274,
          -0.3029507108122781,
          -0.29234565035173526,
          0.3403354132861772,
          -0.17776196380645054,
          -0.24546824100632517,
          0.07659033088507275,
          0.15182061454427928,
          0.3534311815488142,
          0.3755523338958511
        ],
        [
          -0.5205014750625596,
          -0.6567713750192922,
          -0.08364836160861011,
          0.09059022387038586,
          0.10241701381507008,
          0.019485156078415094,
          0.47131935293453253,
          -0.277127824712101,
          0.08333223127184952,
          0.00995808366605119,
          -0.2918159443897116,
          0.2722315104505809,
          -0.3642280213470248,
          0.05538664263999991,
          -0.11946902784454683,
          -0.24668934417022548,
          0.19139064232465397,
          -0.15218860963600495,
          -0.0035891585701757858,
          0.5186443300811174,
          0.17371566045695325,
          -0.16534771855708183,
          0.1282207978727621,
          0.023100451635410274,
          -0.3424036024733349,
          0.29695779321857013,
          -0.7216898132870389,
          -0.2182413617556677,
          -0.22996183665582948,
          -0.11657805199968378,
          -0.16365316463853294
        ],
        [
          0.14587729379789452,
          0.04550875332879719,
          0.04051788525046707,
          0.10286948244506551,
          0.17732219521894535,
          -0.1000270033990198,
          -0.6593640371274432,
          0.4174786821651191,
          0.5404132339389669,
          -0.11696016064885759,
          -0.11832571320652267,
          -0.3191905429579509,
          0.3485484253665817,
          -0.2566218145219435,
          -0.5378207940934491,
          0.2719207816107641,
          -0.2099771220464665,
          -0.6585031752629767,
          -0.2851665320270659,
          -0.10281302818163277,
          -0.21544796364109903,
          0.202879623279224,
          0.08034122906042285,
          0.5834933882061364,
          -0.42671308141116826,
          -0.34755609344343413,
          0.11691843178490945,
          0.14107372938720744,
          -0.156914667055434,
          -0.1404290781109818,
          -0.4950586004868642
        ],
        [
          0.4223952124604746,
          -0.48594291269484224,
          0.13600579963874976,
          -0.38288197010729635,
          0.1877210174581708,
          -0.8200569389126066,
          0.27343617022966377,
          -0.14821814721655643,
          -0.5268090777669365,
          -0.15020996384815447,
          -0.4984818453275791,
          0.3440323226010739,
          0.1528436064319719,
          -0.1911886550984639,
          0.013033736520628766,
          -0.36298475712729833,
          0.3674732044901351,
          0.26703861882948854,
          0.20122768857744744,
          0.14760192651092624,
          -0.4921530936080627,
          -0.11384926163792158,
          -0.6335811305865624,
          0.7006440026872569,
          0.2705267676948012,
          -0.4368489932299392,
          -0.4843008108743643,
          0.6436752016169601,
          0.7944504432254934,
          0.09733101578202695,
          -0.08909068724393227
        ],
        [
          0.13166428725428583,
          -0.3064007189663119,
          0.23227682898471513,
          -0.021976992342991174,
          0.10286437189244281,
          -0.15049426629519444,
          -0.24903825277008992,
          0.5962737798059564,
          0.5327696050331199,
          -0.33718454802111525,
          -0.061041020228011576,
          -0.028387669362428328,
          0.0859845205890197,
          0.32843548394484307,
          -0.19663212736494312,
          0.04326353297748775,
          0.20658494973632374,
          -0.38953735663124056,
          -0.3518121898971217,
          0.040462837216691555,
          0.002021712346570412,
          -0.11915996293207085,
          0.16076630344847065,
          0.021599361202732578,
          -0.08833859654936212,
          -0.22137697155386532,
          0.1295109683779277,
          -0.22882849750161385,
          -0.1198232359729709,
          -0.19061800576011434,
          -0.27239462285198524
        ]
      ]
    }
  ]
}
