{
  "layers": [
    {
      "activation": 2,
      "biases": [
        0.6279058161753179,
        0.2838349715865325,
        0.5918805417903301,
        0.44134847452535914,
        0.5353732100335004,
        -0.002291509939250184,
        0.3183936898339603,
        -0.014477821420966675,
        0.5219254595856521
      ],
      "cols": 9,
      "rows": 3,
      "weights": [
        [
          0.6826060779720665,
          0.3720246717184981,
          1.056859168810741,
          -0.13147162884045838,
          -0.5454895674629481,
          0.8148016958729898,
          0.08552112603249393,
          0.9088588483968137,
          1.7977111076997072
        ],
        [
          0.4580063662201971,
          1.4125258392981863,
          -0.7250739988919407,
          -0.28718220118908105,
          1.109605398813361,
          0.11805392000039644,
          -0.13655001020259322,
          0.7711646762787205,
          -0.6731733821262934
        ],
        [
          -0.6563092641784147,
          -0.2883336298056397,
          -0.7415834313377647,
          0.9272306536283267,
          -0.5736177219718991,
          -0.5824125038155117,
          1.533181176298186,
          -0.690560457926218,
          0.13190771953043837
        ]
      ]
    },
    {
      "activation": 2,
      "biases": [
        -0.42911475909436037,
        0.18278527436506722,
        -0.8329844354335141,
        -0.21544723468913718,
        -0.14395616055234453,
        -0.032909793392226924,
        0.5617207127509777,
        0.6281721465648157,
        -0.12234008114475806,
        0.24606373564560782,
        -0.011969447541103339,
        0.6326959456422483,
        0.24290311877307297,
        0.5976346359668522,
        -0.3849710143187256
      ],
      "cols": 15,
      "rows": 9,
      "weights": [
        [
          -0.6857677523203045,
          0.3264319115591951,
          0.39938085178793536,
          0.18929652194238866,
          0.3009297476398288,
          -0.16722699274389727,
          0.7033243220339834,
          0.17377839749891763,
          -0.3022751679038648,
          -0.7085005076960665,
          0.0028727758180513174,
          -0.008822483244175843,
          -0.2952451028768483,
          -0.18677157768904784,
          0.6750848500888097
        ],
        [
          -0.6649581107650273,
          0.022320730122596343,
          0.35998484999263963,
          -0.184952210419272,
          0.7368401811043472,
          0.4281661390621703,
          0.7630880540325201,
          -0.5637220383169534,
          0.39290070876637206,
          0.5221073116601895,
          0.28535203994915503,
          -0.6883839000032018,
          -0.20805609728356125,
          0.130917297126467,
          0.49743379697519174
        ],
        [
          0.44427662250337374,
          -0.3000750015705574,
          0.7176959254047307,
          0.2974045520938849,
          0.39212226705887554,
          -0.56816910659693,
          0.7199655340138075,
          0.5407114560685973,
          0.45491314910115355,
          -0.5690925162487291,
          -0.12667414586732978,
          -0.6256739220892259,
          -0.46042604800129433,
          0.5036497936613068,
          -0.076768607860055
        ],
        [
          0.5505349781046084,
          -0.3166233699326862,
          -0.18902540262766232,
          0.015085215859257557,
          0.07294011446517644,
          0.5215208877459705,
          0.05070743579495724,
          0.21734067179462513,
          -0.2747318038659547,
          0.5684256375601856,
          -0.4265751457778906,
          0.3606004824310939,
          0.6735537328245974,
          0.4067344834558222,
          -0.5366321516356192
        ],
        [
          -0.12570472124747148,
          0.5458888634741852,
          -0.5097880135195949,
          -0.452055825994362,
          0.7533251603003311,
          0.04562911888093666,
          0.439655889310849,
          -0.4817746821953472,
          -0.015178261969045485,
          0.722163370900424,
          0.27532551232021374,
          0.14410681333302391,
          0.07668007853665701,
          0.5963926323384192,
          0.11280570653519584
        ],
        [
          0.12096693815058518,
          0.030106827538642755,
          0.5428330024354655,
          0.007203335604673514,
          -0.05430051989656834,
          0.2199256866010219,
          0.31791750856973,
          -0.0425663698213256,
          -0.4136400874462786,
          0.24711407290310136,
          0.20620984631396344,
          -0.46322778488528554,
          0.175765926249321,
          -0.2817767325782224,
          0.29465764329336674
        ],
        [
          0.6500276705088184,
          -0.35649070001094635,
          0.24542540531839163,
          0.22615131409106395,
          -0.7566603185897399,
          0.3108530264573935,
          -0.30976604843450384,
          0.2292947497007064,
          -0.35238051052357366,
          0.9850631659416339,
          0.4099319229154947,
          0.8172478921449287,
          0.2920867869489943,
          0.4343357896002413,
          -0.1286172515770478
        ],
        [
          -0.335868739377094,
          0.06817436989783147,
          0.34534663062537724,
          -0.6125374019336393,
          0.3936296170925587,
          0.24814089668168993,
          -0.042711870785250336,
          -0.5112676947987653,
          -0.2923718462105192,
          -0.6369743174270209,
          0.07581544480295056,
          0.14840983734764576,
          -0.45691077771620026,
          -0.37837850101207526,
          0.813640149146606
        ],
        [
          0.7660781616912106,
          -0.7723677590837357,
          0.6089380504206339,
          0.7909940344938328,
          -0.7447360990705474,
          0.5801561708428046,
          -0.14755086429642802,
          0.5968976442834193,
          -0.012003294180614752,
          -1.077290105947385,
          -0.20150076627475233,
          0.4892567939938986,
          -0.38007565158403545,
          -0.050604448764596396,
          0.1376750101260644
        ]
      ]
    },
    {
      "activation": 2,
      "biases": [
        0.4910438273599389,
        0.2009758288489196,
        0.7382870439792248,
        0.0,
        -0.08063076697249019,
        -0.027652480084069196,
        0.11967736372532102,
        0.09098292174248016,
        -0.19452632221980085,
        -0.1947946065859142,
        0.0334002446450568,
        0.5004191625758906,
        -0.237583800658249,
        -0.0988176712454414,
        0.459690859636878,
        -0.04385720930988557,
        -0.1699233730698087,
        0.03687290938623148,
        -0.013494251567110638,
        -0.29356160450271096,
        -0.32191052121116787
      ],
      "cols": 21,
      "rows": 15,
      "weights": [
        [
          0.6138148650109115,
          -0.39702676810328325,
          -0.19532244163556484,
          -0.3712476051616543,
          0.09351953128919631,
          -0.36051640070526797,
          0.12884072456081638,
          0.4356442383612274,
          0.06695326965752693,
          -0.2160258526774638,
          -0.4045916401231374,
          -0.6735808368647077,
          -0.3098373425935523,
          -0.07889967802266411,
          -0.3954228375412203,
          -0.5028128026915337,
          0.05852902001477249,
          0.20631298789480043,
          0.16863022115869633,
          -0.057592447531360766,
          0.6019319959622126
        ],
        [
          -0.3932259609642958,
          -0.37468894862748425,
          -0.3345092092184342,
          0.10837149775841103,
          -0.16512605594424817,
          0.06728554901636526,
          0.27074045529481094,
          0.0809790133654336,
          -0.18909008293896512,
          0.17515807008264092,
          -0.24221911503676552,
          -0.4586602452768063,
          0.13921524239085126,
          -0.38532081362575527,
          0.20510865024273472,
          -0.48020790671457136,
          -0.1365986842140054,
          -0.08210984596166973,
          -0.012535099815361087,
          0.6547176378476379,
          0.674043870089816
        ],
        [
          -0.37571444211152233,
          0.08762670215817096,
          -0.7006426574599705,
          -0.2041092241423154,
          0.4229970437193069,
          -0.047412294276126477,
          0.2675724343916111,
          0.03808624067330772,
          0.3062003001615287,
          0.7329013289450251,
          0.6873619582541701,
          -0.1095198807034294,
          0.5631666037276817,
          0.5447076902287912,
          -0.34680355249315636,
          0.5686627577508028,
          0.0930643838947144,
          -0.1930793609380906,
          -0.05077878570618814,
          0.4203895090281587,
          -0.053229249035181864
        ],
        [
          0.40208656469844195,
          -0.22022129586252015,
          -0.31448152087937153,
          -0.3615936825174019,
          -0.05598127708789341,
          -0.32002665223830645,
          0.4493816818378344,
          0.47168719023647776,
          -0.16917463067012842,
          0.12635212071060573,
          0.04478146862432024,
          0.15732071575025527,
          -0.4370924734059231,
          -0.22707625294148562,
          -0.5323895049373403,
          -0.45710709286688034,
          0.30648164109390913,
          -0.5346464453117884,
          0.46498343128914754,
          0.5197696839893456,
          0.17516765738673418
        ],
        [
          0.015026727301729883,
          -0.042738678535184746,
          -0.5606529014660545,
          -0.12097022490884766,
          0.1815149078982896,
          -0.09194356064810774,
          -0.31644262229945375,
          -0.21892498661894894,
          0.13567190334686688,
          -0.9141214566060567,
          -0.4521788464850314,
          -0.15397139998374945,
          0.2048432354783276,
          0.38943735313051864,
          -0.10340651953653618,
          -0.07086248469973111,
          -0.31938707390040955,
          0.7304072462902562,
          -0.3619411546298592,
          -0.0024197227535053944,
          0.4442636501059548
        ],
        [
          0.0973613473160388,
          0.5828503272099999,
          0.05778181705197599,
          -0.07008353296449947,
          -0.21256355798890078,
          0.2111934625996641,
          -0.06240322937988519,
          0.1567062430773668,
          -0.023213578276827417,
          0.6573557129595485,
          -0.4151749642708404,
          0.034866123679456566,
          0.30942013755261344,
          0.10244584031933333,
          -0.0026519950998663546,
          0.0854339414598083,
          -0.455410633722527,
          -0.22173335429367924,
          -0.1404002933948619,
          0.09078847081510265,
          0.4716231595622879
        ],
        [
          -0.3221993954160587,
          0.43785565643082014,
          -0.5926422480073166,
          0.3106277443664012,
          0.5589925178508534,
          -0.03557626142670396,
          0.5266677587553756,
          -0.2851193875215136,
          -0.21946736621412985,
          -0.255360123482218,
          0.23152387147668987,
          0.3919147630614323,
          0.10474652742458376,
          -0.25340270082132005,
          0.6612508154070388,
          0.1922333531606701,
          0.3432404098856343,
          0.4189208488444204,
          -0.2339168577377254,
          0.6661013547757602,
          -0.3377872047579414
        ],
        [
          0.668676651960487,
          -0.27751990822503736,
          0.41203652825162473,
          0.041361114224856645,
          -0.20703870518866027,
          -0.015478362726667532,
          0.7120653146250105,
          -0.0009543168095918423,
          -0.16915451629498612,
          0.15897085922624937,
          0.0763364718876396,
          -0.24197347696785562,
          -0.5305745264405614,
          -0.5009192480643251,
          0.3950858929472961,
          -0.5017849418897374,
          0.0391580706496673,
          -0.5308045945320374,
          0.3497458421868785,
          -0.073585825987521,
          -0.07071504416039154
        ],
        [
          -0.08902374325791598,
          -0.3664540534864804,
          0.14562727765444317,
          0.3176564076709375,
          0.14296098113871686,
          0.045747327336344075,
          0.21448276577735056,
          0.4037200505245547,
          0.24965979412795683,
          -0.07604998656434239,
          0.12907953511707698,
          -0.1378823268074184,
          0.2959604336508844,
          0.35657207777289596,
          0.31527779656231486,
          -0.00045007305618478366,
          0.03200612551694075,
          0.10045533178555202,
          0.339609312159338,
          -0.07993146492705981,
          0.258331553067709
        ],
        [
          -0.24997850891178744,
          -0.4386732731215711,
          0.6063877486105426,
          -0.21989896095408218,
          -0.29420733796816145,
          -0.2646786583405204,
          -0.5783962665289688,
          0.6982984925314689,
          -0.21133577300845013,
          0.2529868527323439,
          1.2404995145100022,
          -0.34429099300092236,
          -0.6657343947705239,
          0.5950977991270402,
          -0.3453423909257989,
          -0.5361583037283825,
          -0.149198299628193,
          0.5801084824649978,
          -0.4016775305351633,
          0.15198245186619058,
          -0.07955437553676016
        ],
        [
          -0.23544797995505812,
          0.06727199992296116,
          -0.18894370242986325,
          -0.3783114763710313,
          -0.21521881351317096,
          -0.3982761735422895,
          -0.2295719407718274,
          0.25867331692868006,
          0.3503417073654776,
          0.08624548283229169,
          -0.033243906128603624,
          0.13388935244324968,
          -0.36369048578969304,
          0.3966652000648383,
          -0.46583849326919236,
          -0.23302258776659246,
          -0.1989294327263758,
          0.2962216155179211,
          -0.12791289312401677,
          -0.2789522815722481,
          0.23525230329805763
        ],
        [
          0.005268199602121657,
          0.08491612628745895,
          0.7652943220305274,
          -0.22210768371992692,
          -0.23084362033876815,
          -0.19337796615262273,
          -0.11381003728103699,
          -0.059874909231900024,
          -0.28521120527265403,
          0.5594573461128831,
          -0.7712028569278999,
          0.45807880067070916,
          -0.2731443402211402,
          0.014013164610518176,
          0.32515400281905704,
          0.22651764333749372,
          -0.24644408558554137,
          -0.19619085880006906,
          0.21550036726859387,
          -0.6514816711841557,
          0.34971133485637457
        ],
        [
          0.23180786311687454,
          -0.10306994163283466,
          0.2761793515768868,
          0.05852772075134038,
          -0.25722340920832737,
          0.15687236472338775,
          -0.667157613703239,
          -0.010313522246438332,
          0.3705959723326799,
          0.4193031064238793,
          0.3248410690401612,
          -0.4272352165579615,
          -0.35023110904641763,
          0.1110214370841128,
          0.3331894721509441,
          0.24381882277526676,
          -0.05226217641807412,
          0.13468845686451378,
          -0.22598600477887792,
          0.2714129867556546,
          -0.31264940866609525
        ],
        [
          0.30278151826764144,
          0.558547692507416,
          0.22021315871016467,
          -0.20297735013203336,
          -0.3051507613184593,
          0.08369589303644738,
          0.339954287157319,
          0.2068594439052551,
          0.07084190236954047,
          0.022179136687829466,
          0.2037842019529308,
          0.5417786451550399,
          -0.39199327160935704,
          -0.3561030238039237,
          0.41766145085786754,
          -0.11666688761647316,
          0.15340350477311188,
          0.0540043027613257,
          -0.3191423196911812,
          -0.28747249976414996,
          0.2633654714529431
        ],
        [
          -0.2230825582285494,
          -0.36495604852997376,
          -0.22506569027045567,
          -0.11760855304535335,
          0.38297385524004685,
          -0.04472014720662176,
          -0.49527786942313806,
          -0.24278871683633665,
          0.29200038971555353,
          -0.05211125638894085,
          -0.1242001250953397,
          0.0709508097969503,
          0.35876217816013267,
          0.14433774931468737,
          0.03697141868752069,
          0.3686367820750766,
          0.04585577030744132,
          0.25180208235889107,
          -0.3749649129297339,
          0.5889489119151685,
          0.7997442437369071
        ]
      ]
    },
    {
      "activation": 1,
      "biases": [
        0.21485653622785675,
        0.5421775569632283,
        0.509191741372662,
        -0.720682621712541,
        0.19828287170513306,
        0.2778502886561012,
        -0.17360468162637632,
        0.06322483965133975,
        -0.07678396048510377,
        -0.08065356830574784,
        -0.3449144947795797,
        -0.4937950837006914,
        0.5580464777880161,
        0.6138142174798036,
        0.09828126506196955,
        0.08378092294792402,
        -0.15489495282469834,
        -0.10668073805734307,
        0.6843260695146307,
        -0.043148572762413025,
        0.17352213431371416,
        -0.3079192554894407,
        -0.22801087970862638,
        -0.6487398905347036,
        0.02451631998909753,
        0.05507931458341775,
        0.12392056890380622,
        -0.31663454142228903,
        -0.602632882811664,
        0.359963220182041,
        -0.1327559216647884
      ],
      "cols": 31,
      "rows": 21,
      "weights": [
        [
          0.09394772853855979,
          0.08026963656575223,
          -0.018237850043087245,
          -0.2386867128812058,
          0.24678152653633587,
          0.30517232706021874,
          0.0003129843697355846,
          -0.5355664344996728,
          0.1451881584218244,
          -0.10721035126924974,
          -0.1629651714530106,
          0.10251655446596762,
          0.4133127528508872,
          -0.4763303686306284,
          0.03748097484853209,
          0.04784439318244138,
          0.23464377519189974,
          -0.12660133850040348,
          0.08689167245034085,
          0.3072360444306037,
          0.40461202888797104,
          -0.03635878163222626,
          0.5998199006024341,
          -0.018552296744184515,
          -0.5061433057282385,
          0.41564390827825487,
          -0.11992248048000459,
          0.2814141327358824,
          0.06273891239818093,
          -0.2725671064371664,
          0.11624988152733695
        ],
        [
          0.0759684303567389,
          0.20886882815228816,
          0.31455234391337844,
          -0.048431756229053644,
          0.4724314510398517,
          0.24091781198953421,
          -0.2132599316646193,
          -0.10530622353640362,
          0.22886169643776322,
          0.2964909461198457,
          0.2935439545618664,
          -0.246841384685982,
          -0.22751564141574201,
          0.4957836791317182,
          0.24392556734825335,
          -0.1729676891163172,
          0.37439514184308303,
          0.26812520753353686,
          0.004040406489853105,
          -0.15307279768251505,
          -0.3669773656524867,
          -0.23724614142722128,
          0.06412500022021214,
          0.11869121797154535,
          0.11589491221266215,
          -0.29839793216998206,
          0.4749810180835686,
          0.07616213558524867,
          -0.07191251247291203,
          0.1871848746500151,
          0.10727951316606377
        ],
        [
          -0.008706463224297946,
          0.2107620917597757,
          0.06967886480201618,
          0.016944171748179856,
          0.028368780006902745,
          0.5306454808217217,
          0.3825615359660393,
          0.07850322526543754,
          -0.1404612581573686,
          -0.6066145939231543,
          -0.5391555672649194,
          0.06300327361270122,
          0.26477789947501773,
          0.10690438193303538,
          0.2090618948532121,
          -0.0017286139130578604,
          -0.44104309153693483,
          0.11701470547348732,
          0.11913653542267916,
          0.12964692761549534,
          0.20170700656752008,
          -0.2547961098275515,
          -0.9346506746307164,
          -0.09049828219296033,
          -0.5217525321535356,
          -0.06846469064005768,
          -0.6447494274951874,
          0.2061913423526723,
          -0.5691039811980277,
          0.034299751452320996,
          0.4897269178036787
        ],
        [
          -0.31110723408048613,
          -0.14141114249756193,
          -0.2817110686044207,
          0.2844950791124283,
          -0.30065217716684245,
          -0.019963742199523772,
          -0.021099548038429103,
          -0.2854953055150067,
          0.12396357254891474,
          0.16519142694332234,
          0.20789817906297992,
          0.26809254782092495,
          0.25087105242545416,
          -0.20736236873074373,
          0.29572104429228374,
          0.010590805125122463,
          0.02488826864203709,
          -0.2138307344766665,
          -0.12430101782291555,
          -0.11723018267775101,
          -0.17304359866604968,
          0.3322805529943581,
          0.2659827995807847,
          0.08472745823903177,
          -0.19074756606774296,
          0.2530250377875898,
          -0.2220984458082805,
          0.23611762235184472,
          0.16908070716739956,
          -0.11024027640423072,
          -0.23532992957868476
        ],
        [
          0.39781456325043535,
          -0.35746906354403546,
          -0.12123000986491393,
          -0.16477819759359924,
          -0.17855223577859677,
          0.21388245979925097,
          0.19721855569947547,
          -0.02613181015465656,
          -0.020361062301496514,
          -0.3381639443412032,
          0.03267476418421124,
          0.24345720668339096,
          0.25217881159139216,
          -0.24911455186433268,
          -0.0511984401402735,
          0.007943562709562115,
          -0.2766436621021747,
          0.10721603624856843,
          0.19832926567911421,
          -0.0219786511984352,
          0.3146681943152906,
          0.05635822255242703,
          -0.14584796122644486,
          0.07720031068789536,
          -0.0036824596375052373,
          -0.34612672960384677,
          0.22549282431915726,
          0.27657619729125377,
          -0.051194419625843285,
          -0.10737152018042329,
          0.38155508929052107
        ],
        [
          0.007756357413091781,
          -0.24391320454544507,
          -0.33264417281797953,
          -0.2409010347794057,
          0.1762382980586125,
          -0.30695501926340335,
          0.147282557535004,
          -0.06129820199412482,
          -0.0164642656416969,
          -0.1894199463421609,
          -0.1594940138028802,
          0.20201773267626655,
          -0.01723311179829223,
          0.034334911402510424,
          -0.2579037970512898,
          0.21030981262487464,
          -0.22527414749116612,
          0.2211501447664225,
          -0.08525700797429384,
          -0.1753219050377816,
          -0.2220029342927698,
          0.09074145737467487,
          0.14038236829893858,
          0.2974290871786233,
          0.13687656252223446,
          -0.3261245886477658,
          -0.30767573045775637,
          0.1551445204049787,
          -0.32432423148062706,
          0.004023968184988303,
          0.24962592991095195
        ],
        [
          -0.4265392998131394,
          0.12007332821384677,
          0.322747608546797,
          0.011120764847994956,
          0.15851104673201918,
          0.23230797493139088,
          -0.0963259686349131,
          0.3470829981308975,
          -0.003151421938674351,
          0.28997347971632753,
          -0.11353191371865058,
          -0.19665780249520715,
          -0.06637964608514205,
          0.08364061206567464,
          -0.35390591105372615,
          0.47767706514549924,
          0.5313703727774732,
          -0.06766547542832113,
          0.08185529459195133,
          -0.5257104065421496,
          -0.22122210156369976,
          0.5198065439270961,
          0.31207303514669377,
          -0.08084480535855781,
          0.5524249128087411,
          0.34925833439125464,
          0.19999299624793787,
          0.20304745000678084,
          0.1357806522695471,
          -0.30458697685569747,
          -0.24771862005077538
        ],
        [
          0.1577751553069475,
          -0.22054673219860274,
          0.1732061995283609,
          0.2649497276729163,
          -0.2952165400835658,
          -0.2616920981346302,
          0.13803309702260774,
          0.0041544246483566135,
          0.1591460271842367,
          0.13863645100156807,
          0.006369306124033287,
          0.14375650948121665,
          -0.3462008491809035,
          -0.477182938856938,
          -0.1813043872414818,
          -0.33874459473092505,
          -0.10609549382752283,
          0.22549193347780783,
          0.10354806434610025,
          -0.3036328179009366,
          0.24414088776719298,
          0.17610112597687777,
          -0.2670901645556238,
          -0.08150661186416285,
          0.034284931873489265,
          -0.008487303600251425,
          0.14035738960618752,
          0.2698063632176376,
          0.3444057803195125,
          0.2974918321369781,
          0.2896262044413045
        ],
        [
          0.41183229767587026,
          0.267735363457265,
          -0.06709377001505927,
          0.2941875625981205,
          0.28335231053275806,
          -0.08542728818535407,
          -0.12642528076114956,
          0.31721285972785296,
          0.18359299600765516,
          0.23636800892419602,
          -0.14110635909875432,
          -0.35045192532896147,
          0.16326611593363952,
          -0.013371715637417321,
          -0.15041253990732906,
          -0.15532138995070008,
          0.22343329659006023,
          0.13857059811181924,
          0.21777007474411816,
          -0.30601541733998,
          -0.08396819445271701,
          -0.38629101079993794,
          -0.051405852653320865,
          -0.026169902982936644,
          -0.28782243347076747,
          -0.04969064338614782,
          0.031439973238151515,
          0.3064686068368802,
          0.10076282875667784,
          0.04019880311738791,
          -0.20664318438532522
        ],
        [
          -0.1564037529312233,
          -0.22126862164420627,
          -0.4808237012829731,
          0.5684477915385144,
          -0.12146924640046818,
          -0.5801283759217424,
          0.07192903225047681,
          -0.14325557558892965,
          -0.3960719416731877,
          -0.02173916226935437,
          0.03227466748057406,
          0.32011544754507176,
          0.07410231184466136,
          0.5166722302189353,
          -0.08896602888326155,
          -0.1969067842723713,
          -0.19963940145580705,
          -0.24038546913544384,
          -0.24129282168546334,
          0.3037735575359624,
          -0.18904148990756953,
          -0.18855183404450968,
          -0.3357665769133315,
          0.16564304176936645,
          0.1811506270830856,
          -0.5671606153149088,
          0.01680168320810273,
          -0.37330252415859283,
          0.07321341019087889,
          0.07108749493114422,
          0.34510197152399935
        ],
        [
          -0.47927920856814654,
          0.10108482291863839,
          -0.3512751365609747,
          0.3901137491119285,
          -0.09736971365618799,
          -0.054131473023587735,
          0.39487656921503206,
          0.022036282730406018,
          -0.3952172244238683,
          0.25291868332966694,
          -0.5900630772700396,
          -0.33563105371539914,
          0.02541870861444518,
          -0.09407341188480414,
          -0.43515807972394654,
          0.15671697725150632,
          0.21170255570662153,
          -0.07908230303734727,
          0.5062754365283892,
          -0.33638210139235425,
          0.12422070997518347,
          0.3394703589708845,
          -0.7076448190632876,
          0.3465650615702558,
          0.33177787004996057,
          0.04076165540437685,
          -0.20834478903826936,
          0.44525987409125845,
          0.15391786303453792,
          0.5037515930574843,
          0.42382754842907533
        ],
        [
          0.1087824931803614,
          0.19895260879835633,
          0.5882829395687748,
          0.06584174982028106,
          0.27630616101849376,
          0.406252870034108,
          0.14999885982568004,
          0.33435304381143366,
          0.15625588695330203,
          0.43857496314500316,
          0.050526297413130736,
          -0.34274656598102887,
          -0.034106437772848636,
          -0.1300241089054519,
          -0.04755755420767342,
          0.07101211885480382,
          0.20077458316649044,
          -0.04287270830698157,
          -0.21413615174416498,
          0.09118925153296391,
          -0.1654894253486512,
          -0.31510167723760873,
          -0.15799660571799481,
          -0.3937694915223618,
          -0.2963680064557762,
          0.2663007445249569,
          0.443032615351294,
          -0.2775256595760771,
          -0.3828797902197006,
          -0.2267949775274501,
          -0.24291781222129014
        ],
        [
          0.12828418329317187,
          0.30440487139165945,
          0.759011673402472,
          0.15205840746687949,
          0.33763974968588334,
          0.14862921525045397,
          0.15957433959248596,
          -0.25205598726918405,
          0.2301120241235423,
          -0.17599252530769485,
          -0.08293782840385244,
          0.10658067144051708,
          -0.0019427305504218927,
          -0.4047215893760385,
          -0.2907590576414636,
          -0.13987807559649182,
          0.4051667608378015,
          0.033468466102880845,
          0.511375175800774,
          -0.2918357773992336,
          0.040990166319867606,
          0.10727388420106343,
          0.004408604294603964,
          -0.11800256130722041,
          0.007970424903226067,
          0.15434587412044695,
          0.24171992635461775,
          0.40038629332839476,
          0.1462520537028566,
          -0.4407023915376073,
          0.4807303958356615
        ],
        [
          -0.042920046905674886,
          -0.004663884400303353,
          0.3370701458956832,
          -0.021841442657699116,
          -0.11145401168856382,
          -0.13172012412327397,
          -0.03768870455311416,
          0.3125187945515317,
          -0.1776480020238143,
          0.23340804526844072,
          0.2855498635433411,
          -0.5035955342485869,
          -0.48847168781024347,
          -0.07093501517481722,
          -0.2710802540113102,
          0.3575577149154254,
          0.1503131644758745,
          0.2685843957122527,
          0.07886812967633532,
          0.05188357301603288,
          0.34064770955001356,
          0.0015033270512815184,
          -0.19417121272824417,
          0.0019834183111784635,
          0.466254700430722,
          -0.17205553625392417,
          0.13731767738983963,
          0.15947222530768718,
          -0.05619230192109339,
          0.05544649498821217,
          0.3112924179628051
        ],
        [
          -0.08465978096097876,
          0.2658706419236407,
          0.12765167451190243,
          -0.6445950653202929,
          0.448686472555362,
          -0.11881433213594668,
          -0.0810241419652118,
          0.13290835416526606,
          0.1768392971378863,
          -0.25922418145021586,
          0.15471836218167836,
          -0.5470869106433858,
          0.4835303901674695,
          0.19985262392508235,
          -0.04787147205831995,
          -0.1690788734741426,
          -0.4124435216710323,
          0.1038148546661889,
          0.4978473775481474,
          -0.10657530468716579,
          0.1922111673208388,
          -0.3273367388080339,
          -0.20940265256170584,
          -0.03308741324063763,
          0.15644473058083855,
          -0.11043936939825522,
          0.057579482931392666,
          -0.1550728266143432,
          0.045686964330985284,
          0.01540897624873746,
          -0.4947904778625933
        ],
        [
          0.10570149619069755,
          0.40047384659321766,
          0.18837488862081567,
          0.14405114798218732,
          0.1843204252241955,
          -0.22157996471279348,
          0.259709141446829,
          -0.21848848583663485,
          0.29993320784808125,
          0.3750404933966781,
          0.053876138888799927,
          0.11189397057301549,
          -0.37062005468683396,
          -0.356924031038891,
          -0.16656359627050926,
          -0.36280049504995066,
          -0.2683554580946993,
          0.3300730465985292,
          -0.03411191282177566,
          0.338716074589915,
          0.050960928022359894,
          -0.542999577036232,
          -0.14739277347885255,
          0.1448933849187748,
          -0.48268610072930224,
          -0.138640534466696,
          -0.05958890391052072,
          -0.022329231691656033,
          -0.0522927954868852,
          0.09514404168865151,
          0.4962499586033547
        ],
        [
          -0.04522970702453083,
          0.2363321942676651,
          0.06018341940370596,
          0.018628428320926035,
          -0.03705024775091756,
          0.31960992861551113,
          -0.2199562542053196,
          -0.009938972329730969,
          -0.01169241802650254,
          -0.006628086552679259,
          -0.17558012904100467,
          0.33611427339014505,
          0.0524434168565302,
          -0.13065428964574802,
          0.13890269055616228,
          -0.06418339855229495,
          0.006852690704467494,
          -0.32815253095017893,
          -0.12284331899795707,
          0.12107920550027049,
          -0.28380438716527,
          0.13051404953238455,
          -0.31581464341906584,
          0.18359062326987907,
          -0.15422663035629747,
          -0.1942050636965984,
          -0.3246612421154373,
          -0.16690499938833214,
          -0.167011778817882,
          0.3371896966868861,
          -0.040815649253400074
        ],
        [
          0.5332317080969422,
          -0.15886263017738572,
          0.15172179173431755,
          -0.06240202545023996,
          -0.2649529239660867,
          -0.4406615202173414,
          -0.3308278735829412,
          0.28383459011146794,
          -0.3683567018360869,
          0.17110526429650885,
          0.11794137532267651,
          0.14422837071485844,
          -0.4693028248915202,
          0.23581484739429162,
          0.05749382797491342,
          0.4748459324948485,
          0.049167335238265025,
          0.1842811224158479,
          0.3300474993677222,
          -0.16105493606996318,
          -0.22073459374352647,
          0.7017014966908287,
          0.3317414338926496,
          -0.08389689732538155,
          0.19703729232794975,
          0.3246011407915619,
          -0.1284173051398156,
          0.4662751777426205,
          0.3220204954858604,
          0.0897933690296471,
          -0.0027479122854115047
        ],
        [
          0.2616499221364007,
          -0.08153508971398751,
          0.27554858676948085,
          0.11569800587779258,
          0.42779516383873245,
          -0.23414589230831626,
          -0.1405900826569424,
          0.2938680868841933,
          -0.03857790670519285,
          0.04593931266474064,
          0.3543861027096678,
          0.0012863937466673254,
          -0.3627726830500994,
          -0.42218533663475044,
          -0.19963981066156655,
          -0.14727753243687408,
          0.035440467182993055,
          0.46889167134362497,
          0.19450735121383475,
          0.06998169455445628,
          -0.008105989726380916,
          -0.16258697217740192,
          0.24649345378119825,
          -0.1450681756158813,
          0.2192870360248801,
          0.09671009893618318,
          0.07380348539428017,
          0.16661812966364725,
          0.06340987518020189,
          0.033743601626162904,
          -0.13980917742406435
        ],
        [
          -0.2949035273919323,
          -0.4152603224737406,
          -0.4960068780715727,
          -0.3577835797586842,
          -0.34707953388459173,
          -0.18465823687282365,
          0.2989845413883245,
          -0.22407670676165192,
          -0.10062897950294523,
          -0.28449680960304535,
          -0.15190033567170735,
          0.17343769477135282,
          0.46659181533311933,
          0.11471330333880891,
          0.19578118139440176,
          -0.2752706097986636,
          -0.2015628959516216,
          -0.5140763764873003,
          -0.17610303454801896,
          0.22637794923103263,
          -0.029376852180583696,
          -0.042340589362636454,
          -0.05270299262077863,
          0.40057070051177335,
          0.021634104600986248,
          -0.04075210166995577,
          -0.359979930771669,
          -0.22710845906938792,
          0.09262068610703346,
          0.5142732641613869,
          0.05320945587570087
        ],
        [
          0.021429159636367174,
          -0.3736635428691528,
          -0.2466094235376272,
          0.1321462305768248,
          -0.3512686108962995,
          -0.17399929134923475,
          -0.38373539242269666,
          -0.3215390259628598,
          0.016260351588880548,
          -0.10365650634461551,
          0.47448935195149444,
          0.3102065705265892,
          -0.34867079635706644,
          -0.07573114539417394,
          0.1178221459747583,
          0.3077444134933891,
          0.09927644472083272,
          0.08231818919310932,
          -0.49653225642080506,
          0.5621636703057329,
          0.28876463607530134,
          0.04271625372626544,
          0.39865174241568674,
          -0.08991435672679034,
          -0.10950967053277615,
          -0.1448753794881905,
          -0.09125719791286899,
          -0.5223710862038706,
          0.05074433908165903,
          -0.250922688226318,
          -0.2361705986743672
        ]
      ]
    }
  ]
}
