{
  "layers": [
    {
      "activation": 2,
      "biases": [
        -0.7941213599154201,
        -0.04532745028908315,
        -0.16411932344188926,
        0.9833525577870308,
        -0.2905477018284943,
        0.5856481516643754,
        0.6658894929991647,
        -0.2323122547883562,
        0.3612883586703795
      ],
      "cols": 9,
      "rows": 3,
      "weights": [
        [
          0.05519504176491746,
          1.9052002109218371,
          -0.5418702715983413,
          0.8035804690850823,
          0.20868225443627364,
          -0.8044295652496827,
          -0.7520491247190586,
          0.538706521829671,
          1.1042174511491256
        ],
        [
          1.4805652530460407,
          0.36932315444066544,
          0.12225392934322253,
          -0.1936480500053055,
          1.627020638958124,
          -0.04491313456818658,
          1.0090555610200582,
          1.2158659038342203,
          -0.4594003731659958
        ],
        [
          0.8945983896962464,
          0.37941737129286707,
          0.04109865314105868,
          -1.1231581040567267,
          0.06705105999774791,
          1.7153080147063917,
          -0.13781020653943765,
          -1.194610005038775,
          -0.42038431068793425
        ]
      ]
    },
    {
      "activation": 2,
      "biases": [
        0.4470755474713979,
        -0.2550312697225747,
        0.3743904264758118,
        -0.22210296986596992,
        0.06006966152901585,
        -0.2366313500197402,
        -0.08335666585339871,
        -0.8907211157926663,
        -0.7572527012909968,
        -0.06795510777007047,
        -0.28554516391321333,
        0.7532400201215387,
        -0.10725083278008728,
        0.7771370743266577,
        -0.40568426358082305
      ],
      "cols": 15,
      "rows": 9,
      "weights": [
        [
          -0.21603101106649777,
          0.4127909133090477,
          -0.20218145752331598,
          0.4883248070467263,
          -0.45637904543975083,
          -0.2339968578317475,
          -0.48582183529947126,
          0.8940898108549586,
          1.4947513747432124,
          0.04530726197931924,
          -0.061451430091219984,
          -0.4392804259261828,
          0.3126113245290593,
          -0.08610919751795426,
          -0.2048530699831557
        ],
        [
          0.19952181434300634,
          0.7509967333716393,
          -0.6490514289998972,
          -0.4739046599721159,
          0.6502516100877448,
          0.13616276411721878,
          0.2468158260379184,
          0.3172396016662714,
          0.27307646487346715,
          0.38304292095512116,
          1.4976141720445677,
          -0.4889412057883778,
          0.5901453657703003,
          -0.21710860697276585,
          0.3229920596903941
        ],
        [
          0.0571607713716111,
          -0.13076874997861865,
          -0.44068973010451856,
          -0.11895183613895903,
          -0.353756301910387,
          -0.3300144984419091,
          -0.49776613479376125,
          -0.20100590929654683,
          0.1468622103965741,
          0.4763359607825625,
          0.07533181581245958,
          0.2377603738024942,
          -0.37962888294075764,
          -0.3273487862985378,
          -0.024856520672447313
        ],
        [
          0.6193792295146647,
          0.6381775973922014,
          0.6844768566556204,
          -0.5494008406853245,
          -0.0627266760723595,
          -0.35399215448948423,
          -0.017780273755819028,
          -0.10185858480092257,
          -0.7131420905068483,
          0.19338937287146601,
          0.32245805249464404,
          0.9320292189282694,
          -0.8892100737726896,
          -0.15444578273106147,
          0.36381676070826097
        ],
        [
          0.2736636780807049,
          0.6255008565490789,
          0.4178942455864195,
          -0.2885184405250779,
          -0.9303518476434051,
          -0.0666965495870459,
          0.02183177323543103,
          0.8481872272442015,
          0.7834851456188305,
          -0.47469868932938675,
          -0.33303749870918314,
          -0.8200778339705366,
          -0.11298261374364198,
          -0.2103424212656049,
          0.6842858223182984
        ],
        [
          -0.15204221762772768,
          -1.012798500254881,
          0.49301595484953786,
          0.3602623769464094,
          0.02734172762774108,
          0.11605498267827036,
          0.07549715800609491,
          -0.06578148909909745,
          0.21678655791381463,
          0.9435488161531569,
          -0.15687898244756382,
          -0.11648264236037721,
          0.8007157193458498,
          0.8463737101500675,
          -0.7174252504533579
        ],
        [
          0.03062734743147884,
          -0.3064156277197967,
          0.39324447368634374,
          -0.2687764202131471,
          -0.5916535050937336,
          -0.4001071807414853,
          -0.26483798427077315,
          0.02053872683170343,
          -0.27419698424197514,
          -1.162295123165201,
          -0.05708807561522959,
          -0.19770268025691926,
          0.7120110700601273,
          -0.2873977543277189,
          -0.25962545056217967
        ],
        [
          -0.6370432541802673,
          0.5462575518947649,
          -0.8096526314289254,
          0.2677851531513748,
          -0.1235402691528777,
          -0.2194030949750881,
          -0.38822697446720533,
          0.6100770762160121,
          -0.5628223300101958,
          -0.6120468465671491,
          -0.12804816338413402,
          0.3120356793680071,
          -1.0016709767682825,
          0.07723057953490842,
          0.5883035854426583
        ],
        [
          0.6041803651012913,
          0.303700263729988,
          0.25579210056779633,
          -0.021626689999242,
          0.7627863960998295,
          -0.008678053561997932,
          0.15255766779465896,
          0.07349589801032345,
          -0.07680325336934243,
          0.2615891927066948,
          0.27285211557956535,
          -0.04305407905680875,
          -0.0010346111426058637,
          -0.7923064651400358,
          -0.1039640611986683
        ]
      ]
    },
    {
      "activation": 2,
      "biases": [
        0.11166827826768394,
        0.8263619734086322,
        0.20111380780496024,
        -1.0346453972855922,
        0.0,
        -0.008792164162422103,
        0.0,
        0.0039892009540126875,
        0.9139711324037103,
        -0.851694395284901,
        -0.495058152869454,
        -0.22189242543859086,
        -0.3383394784181016,
        -0.13594393007978123,
        -0.005292952442639373,
        -0.5088587810958879,
        -0.5015016128734242,
        0.521319596202349,
        -0.25411535163212096,
        -0.12168460702003549,
        0.3152680556968077
      ],
      "cols": 21,
      "rows": 15,
      "weights": [
        [
          -0.0012215699886986872,
          0.3757138946958601,
          0.24608631813136816,
          -0.28910916210646337,
          -0.23708607149123803,
          -0.37644045001753024,
          -0.27833459939039784,
          -0.2476615978085777,
          0.29194580627503997,
          -0.400723394607879,
          -0.058795674507815934,
          -0.4424415708843145,
          -0.46094654776488414,
          0.5849349528555994,
          -0.34674601517072773,
          0.49877850458466844,
          0.1122629058454091,
          -0.2406476534399956,
          0.008934909701380559,
          -0.25826573237991657,
          -0.30475987605340815
        ],
        [
          0.4384795934170488,
          -0.12068916303494966,
          -0.3421800940555247,
          0.611259845911013,
          -0.2022886259342187,
          -0.39159964063699304,
          -0.260699819474411,
          -0.1596603284407132,
          -0.9446564139701186,
          -1.0169394979083242,
          -0.8390086334370715,
          0.022185270129973754,
          -0.46699666256299727,
          -0.12171596065609322,
          0.04547081406547711,
          0.37251807275337595,
          0.26138997631469374,
          -0.5229957035479684,
          0.11925544637947885,
          -0.31734592112615173,
          0.16235176623013448
        ],
        [
          -0.12439007739290607,
          -0.0063820541005948144,
          -0.013518348695137532,
          -0.5064385836709465,
          0.026826906637414133,
          -0.3467851664898996,
          -0.2612126482479341,
          -0.2505479346852639,
          0.593182668778705,
          0.08761669243167687,
          0.22908057419609076,
          -0.46437410810726726,
          -0.7344897530557978,
          0.09674289938392512,
          -0.29620748254854656,
          -0.5431583777809922,
          -0.11201457650469447,
          0.2960114270306089,
          0.04374355710551172,
          0.5721540697193989,
          0.09060672247795139
        ],
        [
          0.23470189349849596,
          -0.17939866690914663,
          -0.2276880527297802,
          0.11872703848741464,
          0.17370718291385048,
          -0.2668694463100117,
          0.10113654535451429,
          -0.38827845716294734,
          -0.3415936405433598,
          0.33634832690468314,
          0.2430185877516148,
          0.09347783901377113,
          -0.05851268498557901,
          -0.5079945149416242,
          -0.1793614136187232,
          0.4148126959196925,
          0.04636832007419248,
          0.344861903782496,
          -0.04272633663177839,
          0.04555212935241881,
          -0.19352298794631106
        ],
        [
          -0.042559932560840924,
          -0.23279127639049335,
          -0.19073090386147093,
          -0.33642562441484525,
          -0.2951501644638821,
          -0.17545368487124613,
          -0.14396371820455064,
          -0.3502899982658089,
          -0.22117950007904588,
          -0.48157897264140836,
          0.07670591684667578,
          0.37178777528063944,
          0.6737283923141675,
          0.3250613743768788,
          0.009674713524010232,
          0.4445080181866955,
          -0.7157569410471664,
          0.04696193538015367,
          -0.12023260201939293,
          -0.37830298164189513,
          -0.5681602979568403
        ],
        [
          -0.24241014486863321,
          0.28961959569845735,
          -0.36953743357819113,
          0.29478657207388964,
          -0.3720850085307578,
          0.3355686799126347,
          -0.31884257503005414,
          0.20296235727761947,
          0.14099755057061258,
          -0.13167403255630708,
          0.17500620874114423,
          -0.0846627771736617,
          0.2112640645623684,
          0.07282419158583714,
          0.12009059342178509,
          -0.34035172885297205,
          0.34414201689137197,
          -0.16703392890233731,
          -0.3006026763044718,
          0.02243785079402735,
          -0.34647716190541616
        ],
        [
          -0.013644318929175421,
          -0.05245939658709244,
          -0.36421629728082766,
          -0.2787125719887745,
          -0.08542505099275825,
          0.3609188238488335,
          -0.12009790145451624,
          -0.13437635108922832,
          -0.08595837632618056,
          0.3016866765817196,
          0.21776628947572674,
          -0.2147825482017353,
          0.288144629751862,
          -0.34519025516931356,
          -0.016944413397409347,
          -0.2815209528682277,
          -0.26151724257937414,
          -0.26809728296302465,
          0.24215820962399173,
          -0.11771582843839534,
          -0.0052167003372146645
        ],
        [
          -0.4756962768749917,
          -0.10553860784401341,
          -0.40858785200118575,
          0.5565455358552701,
          -0.3378427643453433,
          0.2037885068858827,
          -0.10588169271601831,
          -0.01984688703821117,
          -0.9097653080052367,
          0.3062095118783077,
          0.5828586328076721,
          0.044025254212245186,
          -0.4725077116363477,
          -0.2794957819958329,
          0.16716009447057192,
          0.39526868215115796,
          0.6020762846517861,
          -0.9694908500924474,
          0.22193142675209757,
          -0.0499964559077349,
          0.15577087260666628
        ],
        [
          -1.005858258165507,
          -0.13662892530827275,
          -0.6281426099199592,
          0.7098526962671904,
          -0.2061165807788742,
          -0.07860546574901377,
          -0.40755963660505545,
          0.3963004741057072,
          0.2734096905206813,
          0.8839591981673323,
          0.2903315098564566,
          0.5869477587311567,
          -0.22049682036931603,
          -0.1780612784220181,
          -0.13526344734412382,
          0.7105704845620125,
          -0.640826135393357,
          -0.7367833899038229,
          0.24588601200610932,
          0.18256259912582343,
          0.15341060593832337
        ],
        [
          0.3818471748124294,
          -0.31088118632459183,
          -0.05017450818763435,
          0.48367970043388947,
          0.19361972580251122,
          0.12417180653809058,
          -0.2649950184732544,
          -0.22057003977617753,
          0.2693068422791467,
          -0.15193450332629563,
          -0.3497271337184582,
          1.0171163800075989,
          0.49365653511973917,
          -0.25116492088323017,
          0.015792917465625188,
          0.19372177475471553,
          -0.8555807805796357,
          0.5804275905053909,
          0.18466735927286884,
          0.08561064321682015,
          0.07919058466494536
        ],
        [
          -0.22252852352999486,
          0.06390197795646096,
          0.14663874053727974,
          0.32570944403772334,
          -0.38864001510933033,
          -0.1879293651449991,
          0.2175734807594202,
          0.37781209763909346,
          -0.20570309256212313,
          -0.6553329812252382,
          -0.7032804265372167,
          0.044196251272538935,
          0.7265375047020306,
          0.9503863249665085,
          0.0699929803707176,
          0.3987571562469653,
          0.3565163809843333,
          -0.7795425594625606,
          -0.3333247340878231,
          -0.006740004839071272,
          -0.05696433941747376
        ],
        [
          -0.14820488941623208,
          0.27568784392458623,
          -0.4338832136437163,
          -0.4402576154863774,
          0.09991347929291082,
          -0.32056071150326465,
          -0.3306948517100846,
          -0.18110755479251262,
          0.787623768937555,
          0.1052060222128515,
          0.02072707215776699,
          -0.367350963664734,
          -0.11010309226962377,
          -0.5366998570968634,
          -0.40560749913074895,
          0.8174978039178181,
          -0.20123747490747462,
          0.19452757500532783,
          -0.08401097931882616,
          0.5420313202630077,
          -0.4013108097046756
        ],
        [
          0.876737536563207,
          -0.3875870836851834,
          0.7540565052564635,
          0.19703451285259302,
          -0.28762049238070064,
          -0.2529913997085396,
          -0.09614631636092334,
          0.04147596098102646,
          0.4664037412629972,
          0.7573314301441048,
          0.36067134762205444,
          0.3878008224548755,
          0.35507856734028265,
          0.891009672330782,
          -0.11692532233288583,
          -0.6050337490047928,
          -0.33396761059062297,
          -0.3742163442990895,
          0.26556218678735194,
          0.17348675034997016,
          0.44229930923862587
        ],
        [
          0.4863046803348527,
          0.5482032803761591,
          0.17278038409166144,
          -0.432753600281321,
          -0.377856350297027,
          0.15801666872564782,
          -0.08440542206893592,
          -0.022798915465803808,
          0.5934038492963704,
          -0.14974568533125676,
          -0.11702298375342336,
          0.3019010809871183,
          -0.04167741819292416,
          -0.6297436201191791,
          -0.02945777805852363,
          -0.44960844566341784,
          -0.20856018325652598,
          -0.29123983412733,
          -0.31580744745655526,
          0.18095878032733387,
          0.6797008550107331
        ],
        [
          -0.208470185487403,
          -0.398951410833636,
          -0.09909531392956476,
          0.5055459437375033,
          0.07872701371967719,
          0.18928454730341596,
          -0.3473676411461345,
          -0.2861104789179629,
          -0.27331179142371453,
          -0.033587019760298424,
          -0.14841534547100577,
          -0.07560346205654439,
          -0.29204153081773354,
          -0.19132434975391802,
          -0.36043849535624245,
          0.14895390810302409,
          0.4635458748184834,
          -0.26282051734530765,
          0.36299416424215414,
          -0.29859715541120924,
          -0.3731094588176605
        ]
      ]
    },
    {
      "activation": 1,
      "biases": [
        -0.243624145156012,
        0.13945131186866588,
        -0.49168424403884164,
        -0.15337489058470155,
        -0.6782326110066486,
        -0.6485224313558183,
        -0.4218519048728092,
        -0.026321674261605876,
        -0.18548167753134165,
        0.21622148896012022,
        -0.3356810889021435,
        0.4021823123100232,
        -0.5365836194710353,
        0.07385708873804603,
        -0.19530619487826253,
        -0.22615797749766267,
        0.11211510249389886,
        -0.03570512887106903,
        1.133769922189944,
        0.03989716162028334,
        0.2745858000849467,
        -0.3158341865890642,
        0.7451135975328042,
        -0.42094782602500985,
        -0.7783476861474662,
        0.23691026844033056,
        -0.931733989016487,
        0.6940839169827051,
        -0.8415424662378754,
        0.40980699685211447,
        0.3423674775976931
      ],
      "cols": 31,
      "rows": 21,
      "weights": [
        [
          -0.1309593520626045,
          -0.47259301327577696,
          0.46112997721561944,
          -0.3705575697994137,
          -0.5310344018131267,
          0.3532412233360688,
          0.18942927457762274,
          0.7401300928487644,
          -0.02227484709503922,
          -0.4084065553073327,
          -0.08729359017922836,
          -0.15924263136598243,
          0.06998523335346944,
          -0.10442080428133219,
          -0.021315830350802024,
          0.3915013944360865,
          -0.39108535950889795,
          -0.17007670369096906,
          -0.38222119653925024,
          0.13489323719924873,
          -0.12316469884738813,
          0.4772195735217414,
          -0.5439147112848121,
          -0.16616030756199762,
          -0.011353100468602472,
          0.15274838783704456,
          0.6596923476298902,
          -0.08739531062583722,
          0.3061560293539685,
          -0.6760038740903279,
          -0.37713510266378025
        ],
        [
          0.13284830301720305,
          0.917074813863884,
          0.17294969620526404,
          0.05708237755535735,
          -0.798846666998998,
          0.1690239658624505,
          -0.5037220692902368,
          0.17049285817376483,
          0.5524060003601398,
          0.39993428021238786,
          -0.8357793114516705,
          0.1613117892937052,
          -0.06564625987202352,
          -0.034351100786228515,
          0.14855963149116214,
          -0.5329062111991733,
          0.4091522050845384,
          0.24697258333873384,
          -0.02399940850302917,
          1.2284731161667024,
          0.345607471245646,
          0.19200294390879613,
          -0.01743721705177997,
          0.5264845322390848,
          -0.3085043914556021,
          0.09670607033303867,
          -0.38847767797337246,
          0.2960506167381699,
          -1.5801949981985839,
          -0.4318811963806595,
          0.5232329131148054
        ],
        [
          0.37670638573323606,
          0.03761375447104698,
          0.35295925535700434,
          -0.08169712349226677,
          0.12238801796408444,
          0.6985948243554866,
          0.4487497151371142,
          0.15666070808325208,
          0.07709338833672828,
          0.115820055922861,
          0.14809362452063765,
          0.15503195880202236,
          -0.2870995008651894,
          0.3400863059881704,
          0.3454921071213553,
          -0.22973087066640005,
          0.09274880220849355,
          0.21275260244212332,
          -0.29410038725374277,
          0.11226420631263215,
          -0.05890067976205213,
          -0.34012680254772587,
          -0.2586118076457431,
          -0.20686365507051982,
          -0.483920363514363,
          0.2725716013637275,
          -0.27540661866995764,
          0.03277864602134234,
          0.28533803932871926,
          -0.2794606428640424,
          0.0028687401183920165
        ],
        [
          0.33747118136845095,
          0.08470956716019863,
          0.17239008490337118,
          0.42829036738531007,
          1.005127233979279,
          0.09487187849313775,
          0.8946089488738018,
          -0.27528909980243843,
          0.34600002766322746,
          0.08855359635757339,
          -0.18186672005842755,
          -0.35957780383972854,
          -0.10562720307714805,
          0.19431648413761282,
          0.3951938759307579,
          -0.1164460294548305,
          -0.2947895919295445,
          -0.025832687977970507,
          -0.079050810106579,
          0.2631073219189268,
          0.07798943381308851,
          0.1646081521610277,
          -0.23017694145453474,
          0.14920181268310082,
          0.35420021244229233,
          0.30675461583261926,
          -0.5698544535953605,
          0.1954934053425937,
          -0.1468078280721973,
          0.06754073747237273,
          0.6090227850523685
        ],
        [
          0.1853629794406717,
          -0.06278695581740719,
          0.17911191162367426,
          0.3213034829194208,
          0.1349515065554169,
          0.21867228839714947,
          -0.08951651248941031,
          0.15485264361330245,
          -0.16489830167620875,
          -0.3340392852994119,
          0.12852008817361857,
          0.2092883159270177,
          -0.19663229721520378,
          0.12997286861637233,
          -0.03790060412575934,
          0.13086838672492684,
          0.018017106364813237,
          -0.3023645793482051,
          0.2529049730110516,
          -0.0739572565162507,
          -0.021991065527357776,
          0.01704301654235856,
          0.1026458235475004,
          -0.0505571821524158,
          0.11926289637074426,
          -0.17521688260473384,
          -0.2623068309019618,
          -0.02436205808858827,
          -0.3174226344931363,
          0.05393652162114124,
          0.01652681924309253
        ],
        [
          -0.1778038726493663,
          -0.20445186697119752,
          0.061996751575833814,
          -0.1345143523041294,
          -0.2740000788556788,
          -0.14627853593503426,
          0.29220192063478606,
          -0.04360568576812476,
          -0.3108641177882208,
          0.08418298991224801,
          0.3317945527568061,
          -0.24949053373927696,
          0.31754158995008114,
          0.29144640414309847,
          0.2501910020361343,
          -0.282752833933096,
          -0.183786718904643,
          -0.182156822832508,
          -0.22065213258703248,
          0.2406936007074041,
          -0.028676820229100168,
          -0.2505503262292547,
          0.2574776990244967,
          0.17256352577186423,
          0.32099060851239114,
          0.1825126955880377,
          -0.1835862022068805,
          0.20485384494918799,
          0.14058652246939782,
          0.23656321900027208,
          -0.09435633356310243
        ],
        [
          0.0650537838980834,
          -0.19749538613530174,
          0.12144482121757798,
          -0.11603370952699689,
          0.2851901337830244,
          -0.30246480363285244,
          -0.24409759909785902,
          0.09168887488729341,
          -0.3324625232944496,
          -0.33892490709220663,
          0.08502358760894205,
          -0.01333870660856036,
          0.17239505728842866,
          0.040016667751759875,
          0.220408006225123,
          -0.27148363954478866,
          0.16602733974224881,
          -0.26942240617285457,
          -0.3329958201897945,
          -0.2735998157930086,
          0.06950858710634164,
          0.12813641685657315,
          -0.060743933711436986,
          -0.31828459972187645,
          -0.015611334100827625,
          -0.048958774852860966,
          0.20064959378740657,
          -0.2497974827006058,
          0.06531430218548398,
          -0.11770247945626167,
          0.21876241337917665
        ],
        [
          0.1949771242295172,
          0.08531126576951889,
          0.31752544314814474,
          0.28745654067071635,
          0.31075472822867856,
          0.1418006774650042,
          0.11525089927424066,
          0.18122862017687366,
          0.08638431322996913,
          0.18101687621568255,
          0.2660660226525526,
          -0.03280370071280639,
          -0.046892856231913145,
          0.0061602658438301055,
          -0.19635729609795274,
          -0.22105351462338968,
          0.23976664226988414,
          -0.22784603947752105,
          -0.014434134970000989,
          0.22266744698596094,
          -0.27511953993325017,
          0.04458405136648083,
          0.2068384388331528,
          -0.12792139083579068,
          -0.05257064247974875,
          -0.15999991941542818,
          -0.10280183920039057,
          0.14812442956367056,
          -0.1507849878378927,
          0.06657744907051626,
          0.020851408767525986
        ],
        [
          0.27836508854159026,
          -0.45639186122835385,
          -0.14881111731203625,
          0.25230757450953506,
          0.9388992996315363,
          0.49819772887000485,
          0.3205440585391812,
          -0.42644242471432786,
          0.09453817040423827,
          0.23338360933962915,
          0.2160311715309302,
          -0.10319592520420146,
          -0.06506954000171501,
          -0.10282495845977713,
          0.43940019905012956,
          -0.21034370046680909,
          -0.16268692224493042,
          0.14373417703240285,
          0.38750629577884016,
          -0.2381371437248966,
          0.03288108919792379,
          -0.7075864535858523,
          -0.3170360775087307,
          0.020440846080584024,
          0.342163057823505,
          0.27643228221399585,
          -0.724759201209419,
          -0.10026478597513137,
          0.584972857729034,
          0.5386701736121939,
          0.5301891909963795
        ],
        [
          -0.03556966034195838,
          -0.03210862335104063,
          0.02050458077050904,
          0.14332300928541922,
          0.32877038719433965,
          0.6038504886802529,
          0.3159995982427359,
          -0.8358380510902726,
          -0.3634052361972603,
          -0.46213499015895904,
          1.3086820859290886,
          0.3778532129834503,
          0.03424972474414633,
          0.14971982763508979,
          0.3467492325766083,
          -0.02292098470967664,
          0.7203153862277953,
          -0.09821350388654815,
          0.14186397341957074,
          -0.27528399349331717,
          0.32940545618333844,
          -0.30181657956491836,
          0.4642561197135123,
          0.4970175816288354,
          0.28486703751893894,
          0.24524610851033757,
          0.6378083899316564,
          -0.12139648870689332,
          0.26197402000504727,
          -0.14211704377064918,
          0.013680803464336108
        ],
        [
          -0.3535529346399178,
          0.4955283307565575,
          -0.16162463833805096,
          -0.5146037879469763,
          -1.3262180739809821,
          -0.3198721027883163,
          -0.2177734819334587,
          0.04793500886534386,
          -0.5121155147743113,
          -0.639319579390953,
          -0.040250961238111185,
          0.660607151733185,
          -0.2218224484212254,
          -0.04645246374694836,
          -0.20799844608557552,
          0.26892495960011087,
          0.516721513829291,
          -0.02518583062200419,
          -0.29533611602326726,
          0.23581163910217717,
          -0.14257279836600237,
          0.2655208711959497,
          0.8475745463822106,
          0.16843558662215657,
          -0.703344892748811,
          0.1944197936482708,
          0.2846691706759335,
          -0.001982627166248962,
          -0.3528662705509185,
          -0.41227710394182676,
          -0.10866612022933769
        ],
        [
          -0.4873819176785022,
          -0.09666723917892985,
          0.11647715818493291,
          0.09711800436097527,
          0.4733410428731834,
          -0.5373527836332338,
          0.3334516206727836,
          -0.21446747739725697,
          -0.3989621926733283,
          -0.06435704456591751,
          -0.11623287082031072,
          -0.03973405839881912,
          -0.037075701202651884,
          0.13910530536664403,
          -0.5024980591398512,
          0.6175845718436085,
          -0.22256428552985547,
          -0.22609739341728685,
          0.5698139678728041,
          -0.18319641245890686,
          -0.9738185113907972,
          -0.019180958750465625,
          -0.29841913647473295,
          -0.45464957080547064,
          0.044482309796212094,
          -0.5109817263790669,
          0.08310545568516899,
          0.05723451170275079,
          0.13473564648661554,
          0.133580804891934,
          -0.06705607099054059
        ],
        [
          0.36901052054970285,
          0.340904557943623,
          -0.25366623259077087,
          -0.1625478579709808,
          -0.042456200462807445,
          -0.5694992548015455,
          -0.02307754269726033,
          -0.3397329083720224,
          -0.7449848153952735,
          -0.17253922393367802,
          -0.306404363795905,
          0.13991331208387353,
          -0.18493293113730438,
          -0.027876616217699397,
          -0.018637015440699376,
          -0.08230535561576861,
          0.3928653061912076,
          -0.20293807107227801,
          -0.09507178241581278,
          -0.016615233852648882,
          -0.21327907830789605,
          -0.2958355211861974,
          0.16494734937601685,
          0.05055290755493892,
          -0.8862451845160161,
          0.29391987805984576,
          -0.14601138125027077,
          0.1409677863433055,
          -0.4759225497206652,
          0.4270647654397598,
          0.290957452949382
        ],
        [
          0.19379631648032222,
          -0.18321586862262132,
          0.11808316264711645,
          0.31938490131508296,
          -0.44533669175926327,
          0.2265514427756267,
          -0.2675461803152793,
          0.0063642233712540115,
          0.4715094688639982,
          -0.06504858199750418,
          0.4782204608550902,
          -0.27117743430636626,
          -0.26427125567968485,
          0.2049032500710476,
          -0.25827864592977223,
          0.06601023323348781,
          0.1499594298609581,
          0.3181633639919735,
          -0.08647319412724877,
          -0.12574745478933758,
          0.7032010889359269,
          0.32349232786065685,
          0.5600508551169991,
          0.1507226610213466,
          0.052483579336733595,
          -0.0987130044974041,
          -0.1104426178074866,
          -0.6057876246456121,
          0.33811525774349677,
          0.30703307563517007,
          -0.3700880327441775
        ],
        [
          -0.30069147201055,
          -0.2840750204872453,
          -0.21195375385667098,
          0.11581365504279945,
          0.0736057134598979,
          -0.20924102094696198,
          -0.09021019706126586,
          0.2707804726999234,
          0.2721215847204523,
          0.2857122383356858,
          0.11306492036922272,
          0.32547749930963304,
          0.12599280789964654,
          0.24217544411699143,
          -0.031045951750329783,
          -0.13961078472203434,
          0.24625160431425114,
          0.11300825631320356,
          0.30691268305251107,
          -0.2765670875339261,
          -0.28226811921260075,
          -0.007480735027096854,
          0.009852688659374957,
          -0.168185228130179,
          -0.1327653805898578,
          0.2866748180732572,
          -0.31448523222920577,
          -0.11724875225048219,
          0.2243832589092955,
          0.31789853653663236,
          -0.05604503986514902
        ],
        [
          -0.15303195394221009,
          -0.19923161348941937,
          -0.3749102218880139,
          -0.43353960667481456,
          1.0335662329158275,
          -0.2214865313443399,
          -0.5282228398059109,
          0.17592180900844184,
          -0.016565912073066506,
          0.1775045480775501,
          0.003166874075216679,
          -0.019993864670326975,
          0.5894153428090352,
          -0.2897586512977139,
          -0.02012782533647364,
          -0.09078800534587003,
          -0.006901261217181651,
          -0.059349885558662496,
          0.04717412306727797,
          -0.2722120029982453,
          0.2745697871604592,
          -0.0853600057304694,
          -0.39774036574269217,
          -0.25547066442477484,
          0.40679985012651676,
          -0.09914777419280449,
          0.8197029971493631,
          0.18535581460114392,
          0.38061710931684656,
          -0.06608932153408144,
          -0.34066898742907514
        ],
        [
          0.12477894105963507,
          0.7266065393936998,
          -0.08459575283628025,
          0.13711806769833662,
          -1.2811534983786323,
          0.6258338768542975,
          0.4512174538205042,
          0.5186648076334788,
          -0.40695707620888266,
          -0.6138615891846878,
          -0.11225016677844332,
          -0.293180449615984,
          -0.18925719663482043,
          0.37122198555361835,
          0.10975256938475014,
          0.04945143245418673,
          0.482341874127865,
          -0.5811589778373923,
          -0.29112835259685443,
          0.7764867671555712,
          -0.8519495246137422,
          -0.28694970962300725,
          -0.43298522347632734,
          0.12421859043429324,
          -1.388641659281404,
          0.5252777606960897,
          0.5214058265213082,
          -0.0936300221289202,
          -0.06426065318396283,
          -0.19236604362247858,
          -0.2576021956974424
        ],
        [
          -0.01936423752537827,
          0.2353656742964698,
          -0.7482110939108344,
          -0.07514803212170992,
          0.1542793759213159,
          -0.39052601034851164,
          0.19424213217152675,
          0.2770070936632285,
          0.12390844509843492,
          0.2987879531812554,
          0.35135486058476834,
          -0.399742529953969,
          0.2782916736985214,
          -0.24890354584944877,
          0.30885268746664124,
          -0.47576995389120375,
          -0.8126950619625084,
          -0.14596628990748275,
          0.19135869322730215,
          -0.39505379240066185,
          -0.2754266694742621,
          0.15114193649075514,
          -0.5021768622873647,
          -0.46766726563741506,
          0.4790700662967383,
          -0.1542849910841407,
          0.02330949808835586,
          0.7273116764438778,
          -0.2397095040415384,
          -0.0864634030396804,
          0.028369561862234337
        ],
        [
          -0.5102675924903476,
          0.49439230713421833,
          -0.4372426474831153,
          0.3441284025579732,
          -0.5069462560406572,
          -0.17588261275393866,
          0.8766014046966721,
          0.09306311378523832,
          -0.4043523643769154,
          0.02011784793600585,
          0.055585272624683386,
          0.4699989261980991,
          -0.2107329112271932,
          0.2813450476043388,
          -0.1048361733581657,
          0.36175791387803524,
          0.3663064893209522,
          -0.525950472491953,
          -0.1681391056523602,
          -0.02203207721310102,
          -0.1854071644919745,
          0.46420123451274253,
          -0.04613179722133312,
          -0.11309792583806408,
          0.0173315908010949,
          0.15596063723025316,
          -0.1534371638828754,
          -0.17254911133173054,
          -0.41107419271014706,
          -0.6061081748056562,
          -0.22457069466401808
        ],
        [
          0.39306467520175636,
          -0.16006534674899925,
          0.06083390473543309,
          0.08378106333762654,
          0.5660228479583383,
          0.021981261240488686,
          -0.309761976179412,
          -0.38237780479625627,
          0.03873313174971441,
          0.07630999502582451,
          0.1710950367009514,
          -0.204949727810034,
          0.15741307592877912,
          -0.2037783283637114,
          -0.3569052967326516,
          -0.11991516377593754,
          0.14969688284435034,
          -0.11335534491277342,
          -0.1746252475440757,
          -0.36892231210027493,
          -0.18282398743081027,
          -0.2282172521745285,
          0.20356990719282128,
          0.3385324617923602,
          -0.4469422905048535,
          -0.0558222026547102,
          0.09149583289754071,
          -0.14452738567779524,
          0.1713469035753703,
          -0.07860370526354685,
          0.26363254573158346
        ],
        [
          -0.4161616031070307,
          0.04371483963313926,
          0.25448109636287364,
          -0.4772872577504214,
          -1.2671922719435338,
          -0.45474293906817964,
          -0.43852226579097864,
          0.6540131762058538,
          0.6739257699267289,
          0.02495007383672777,
          -0.8772916588683363,
          1.3925012794815068,
          0.30742671498573604,
          -0.547143880230801,
          -0.13131974591624934,
          0.22344342526935354,
          0.015029435680997986,
          -0.07821492115103022,
          -0.5778014769872563,
          0.26698011528293275,
          0.49171180796402725,
          0.8769557530628442,
          0.03675391935931354,
          -0.03787580855968356,
          0.4756879440891222,
          -0.3360664404201838,
          0.10774498584143034,
          0.32255506891669344,
          -0.7143942962443661,
          -0.5785192604949156,
          0.04261766888270744
        ]
      ]
    }
  ]
}
