{
  "layers": [
    {
      "activation": 2,
      "biases": [
        -0.07064248665605959,
        0.03165812533483349,
        0.9051568034421286,
        0.5571314115512139,
        0.2946457215237927,
        0.001303033037418946,
        0.38170573298450616,
        0.5005616436969333,
        -0.2498540528727433
      ],
      "cols": 9,
      "rows": 3,
      "weights": [
        [
          -0.5373739397714397,
          0.13909472799704586,
          2.2248887390309,
          -0.9519690310651863,
          -0.2388960824543672,
          0.6170512806056504,
          0.6686377703563822,
          0.16319714461789026,
          0.6174940364928546
        ],
        [
          -0.47599642399945635,
          -0.6102426365582,
          -0.6789379032224155,
          0.810289083578012,
          -0.5826350405859262,
          1.527387487045571,
          -1.050364588962503,
          0.8785774517076304,
          0.5583206966622323
        ],
        [
          0.06868408411696303,
          0.8652348814972297,
          -0.9050715979680964,
          0.6575387728163976,
          0.6015425677543816,
          -0.8982791063245957,
          0.8647132707979795,
          -1.0296855453408988,
          1.415049669403793
        ]
      ]
    },
    {
      "activation": 2,
      "biases": [
        0.0038243647321173947,
        0.09439205653740255,
        -0.011098233155272598,
        0.6386255635573673,
        -0.041998688287521554,
        -0.15329479772387478,
        0.2558693820963026,
        0.31870530175453954,
        0.7118560243345712,
        -0.06910154170549504,
        0.0,
        0.3068589789087591,
        -0.11493374465693441,
        -0.022542197662674214,
        0.8437058022635243
      ],
      "cols": 15,
      "rows": 9,
      "weights": [
        [
          -0.22974568473459644,
          -0.49166423587077834,
          0.2378172200855748,
          0.12923806215872158,
          -0.18502932632576174,
          -0.3515787778004983,
          0.3185179139888363,
          -0.06195756832059087,
          0.423912471919246,
          0.06525106190661306,
          -0.16938179390010505,
          -0.49963334599637144,
          0.05115583274532698,
          -0.3915035453929188,
          0.07230512645002168
        ],
        [
          -0.460087890006542,
          0.7722861424781648,
          -0.6377013234742965,
          -0.044541307788228,
          0.21211244292189946,
          -0.11319122316226653,
          0.29589105462567933,
          -0.37145110927953123,
          -0.23441812636614362,
          -0.5803727402758257,
          0.20018992093400556,
          0.14218856322494847,
          -0.3138027915401633,
          -0.3138661616448582,
          -0.31645401689687164
        ],
        [
          1.3357174832217933,
          -0.8412409806737693,
          -0.4919738057754196,
          0.006615813044933225,
          -0.026383334195078496,
          0.17846972359434463,
          -0.7479055212523069,
          -0.2983879870312591,
          0.8807466883482448,
          0.8505520016304592,
          -0.4079988621678198,
          0.6726823560903347,
          0.9136921142298057,
          0.8766414236108564,
          -0.4219520537933791
        ],
        [
          -0.42795942581907803,
          0.17553962673674642,
          1.1635250715262362,
          0.6034905965362436,
          0.11720265316398774,
          -0.42855792307283147,
          -0.04262834806587313,
          -0.2516847604862165,
          -0.473435173035121,
          0.09191215635799126,
          -0.23687645454745576,
          -0.4383140432718895,
          -0.6905807237632804,
          -0.1748867317571349,
          0.5464442852244192
        ],
        [
          -0.4888224764303046,
          0.6878180879923366,
          -0.04958775214684972,
          0.13361640832450686,
          -0.008571499264133864,
          0.10634275024224588,
          0.2329423644311749,
          0.041353679613027564,
          0.014251666328001268,
          -0.09199194666256606,
          -0.18257157908872307,
          0.06064695438333683,
          -0.006073841545813773,
          -0.04195112652969875,
          0.7060027093382985
        ],
        [
          -0.005069641053018674,
          0.21226503098864735,
          -0.46269832364686153,
          -0.515993095136589,
          -0.08633552151940099,
          0.596752158824231,
          0.7136735072554795,
          0.8107559873844485,
          -0.06828228937850901,
          -0.022113970799884128,
          -0.4805297441689902,
          -0.2959936550466927,
          0.571148054064242,
          -0.1384442158236301,
          1.2101005063534482
        ],
        [
          -0.3649730558776257,
          0.8244568876348707,
          -1.148756990253062,
          -0.3828973371791106,
          -0.38893952913998603,
          -0.559944099090598,
          -0.0018009611201271966,
          -0.0237613054013747,
          0.5461048749150673,
          -0.44707698020840303,
          -0.26341024821782966,
          0.3421086428238055,
          0.38145036641049335,
          -0.33641435022320343,
          -0.049492407378986955
        ],
        [
          0.1084761396691179,
          0.05512657572143395,
          -0.41864222719136684,
          0.5509483312864388,
          0.07377381380163231,
          -0.32623519730890727,
          0.4177008503875282,
          0.8639328778249555,
          -0.14448320022887529,
          0.4284371287467058,
          -0.13604179706240155,
          -0.17399061344321642,
          -0.16856227257121786,
          0.07284163386065393,
          0.7607154534596575
        ],
        [
          -0.4751396930491266,
          -0.05902047795317544,
          0.6760353061566621,
          -0.8366656906428221,
          -0.34016947547258314,
          0.0901532646545571,
          -0.6272375224302466,
          -0.13030400426816324,
          -0.5325572432200574,
          -0.3832423769955917,
          -0.4544832277831078,
          0.016907583110079092,
          0.9644021653930489,
          -0.32527944342496684,
          0.2832881764417444
        ]
      ]
    },
    {
      "activation": 2,
      "biases": [
        0.3042958235136344,
        0.6792072442629122,
        -0.1246360566312688,
        0.06648385389587798,
        -0.6517012866233071,
        -0.19684837691907556,
        0.14742869112871215,
        0.16670116607324317,
        0.4714094149007373,
        0.007754519538040771,
        -0.20651583765380477,
        0.0559802356241553,
        0.23402567981043518,
        -0.30239606428981375,
        -0.15291564070913044,
        0.5935814004614965,
        0.04334676607063522,
        -0.688493851927537,
        0.4093939080207816,
        0.22537646198253633,
        -0.11999704585091661
      ],
      "cols": 21,
      "rows": 15,
      "weights": [
        [
          0.6726627310774304,
          -0.05296427421836416,
          -0.03834429432831883,
          0.2799017781372177,
          0.8688911761508523,
          0.04996059357901721,
          0.3198756622304397,
          0.2270032482753439,
          -0.8896920502922091,
          0.21596239697931727,
          0.15194896525670418,
          -0.3323385002164932,
          0.023990849555136667,
          -0.28941284557707114,
          -0.4057245405770704,
          0.20309730792726816,
          -0.08138369620543612,
          0.5974985881076003,
          0.31622739784480497,
          -0.4387599153935722,
          0.10921180912486576
        ],
        [
          0.748247776313607,
          -0.1481957633265062,
          -0.36133203021372284,
          0.9154949301371369,
          0.14798197610918173,
          -0.03622625590502917,
          -0.21246969465429374,
          0.4991317218308444,
          0.378924503217961,
          0.44570954403593493,
          0.0640641196950146,
          -0.22059217615284077,
          0.1122740102364293,
          -0.38441482632807206,
          0.17117880653870934,
          0.4410325872656469,
          -0.008077399532943558,
          -0.043893880717975176,
          -0.41155195461770683,
          0.34664807246408774,
          0.048413789337653064
        ],
        [
          -0.01377311792350025,
          -0.6115189107926114,
          -0.4101066516144028,
          0.005423166522727554,
          -0.23348548494446836,
          -0.01760343867090296,
          -0.16868479323564195,
          -0.6060431311406782,
          -0.9512218925195347,
          0.13876341912731777,
          -0.09666740633858006,
          -0.12729774953773598,
          0.21085741224506815,
          -0.2800912486763411,
          0.4811722029908575,
          -0.3128071718865112,
          0.2544794504885332,
          -0.293373816908159,
          0.9655649014078275,
          0.8286837388546126,
          -0.3899908541127524
        ],
        [
          -0.4490058887272253,
          0.6799682400203908,
          0.1749571842128764,
          -0.5861045077267274,
          0.0011583704013156872,
          -0.2033426322955428,
          0.4651530904317911,
          -0.21952979395655667,
          0.2191064010866686,
          -0.023245733656956515,
          0.37427722469818386,
          -0.29643268732025085,
          -0.3358754867560049,
          0.18905868178724197,
          0.25527304721097765,
          0.44006650802912173,
          -0.3832831130821299,
          -0.6183533688136774,
          0.24090667896797965,
          -0.01953379820869133,
          -0.12301324188482103
        ],
        [
          -0.11408543605109969,
          -0.3577320845772996,
          -0.3605234168665935,
          0.25141803347411623,
          0.3608679336843456,
          -0.2502162223871963,
          -0.37132705288005685,
          -0.05660527108196992,
          -0.09647412973662045,
          -0.2869100737320452,
          0.009000464152415835,
          -0.25238114086795,
          0.2986512303695185,
          -0.145745813102754,
          -0.13531248951268926,
          0.08416790133979624,
          -0.21189327036874223,
          -0.08474748398325233,
          -0.10583176104523362,
          0.3718664693968609,
          0.16565266351437066
        ],
        [
          -0.3580611804408268,
          -0.4229053035150943,
          0.15446921892705576,
          -0.0800622174372704,
          -0.20904125059725648,
          0.3898386971085463,
          0.38829381169882593,
          0.200079025322669,
          -0.0004136629321423284,
          0.1311977446662186,
          -0.44532004020091853,
          -0.2967851173363103,
          -0.4515012327953301,
          -0.38466516901194386,
          -0.25403335605087457,
          0.45822865564049264,
          0.1673251518740244,
          0.5329536687984414,
          0.002931001148888635,
          -0.3919995502078402,
          -0.033528726749329774
        ],
        [
          -0.23655342543635785,
          0.2546550450776491,
          0.23194756419416143,
          -0.10969619788224891,
          0.3384744683277864,
          -0.36607964166389456,
          0.003632049627568757,
          0.05932987839128607,
          0.4527093090612953,
          -0.3170005550576125,
          0.8467086727792069,
          0.042827072615518026,
          0.19411920947650546,
          0.49279228435617434,
          -0.07997161383868791,
          -0.15032627375316093,
          -0.1494550165494913,
          -0.20961884580781456,
          -0.047029984624234834,
          0.3076699789618637,
          0.3576267876186041
        ],
        [
          -0.45747667753306,
          0.09631793644493125,
          -0.05683139680883967,
          0.32180111356128643,
          -0.5103503098675358,
          -0.3957192990362099,
          -0.36537058361827146,
          0.5099390941627906,
          0.15741937740728448,
          -0.4051056836214592,
          0.0551818694826343,
          0.5261782355485846,
          -0.20846774859065798,
          0.8288522697560174,
          -0.35392306228134174,
          -0.12256536889281298,
          -0.12631415951385636,
          0.2575839443689753,
          -0.044890665376379715,
          0.18320054279438003,
          0.3105765574018103
        ],
        [
          -0.34893630778836054,
          0.1444769484135035,
          -0.1393176768121621,
          -0.427877552743334,
          0.15227206883983407,
          -0.011526184599154525,
          -0.17199492344615355,
          -0.4097638710823828,
          -0.6146599404618553,
          -0.10263924546961067,
          0.56850295718919,
          -0.33260124706207367,
          0.42959497586050005,
          -0.4321988948499458,
          0.22737378822426585,
          0.5187120345345458,
          -0.35670064311444066,
          0.2600640905923038,
          0.4145139307661518,
          -0.5465069025377614,
          -0.3918210920890926
        ],
        [
          0.10602922362236057,
          -0.2056010930178089,
          0.3692503504412781,
          0.27342786929749024,
          0.5149864961686201,
          -0.3136401557047156,
          0.3983492608295234,
          -0.2707896024562809,
          -0.5433460626946642,
          -0.245352156899472,
          0.46151744928914135,
          0.35303867184358956,
          -0.31416550773933494,
          0.027471447029854518,
          -0.22163268077589615,
          0.3359007187641317,
          -0.3417964479492091,
          0.5125461528710106,
          0.14484976839169025,
          0.1388650786683418,
          -0.020062799033431767
        ],
        [
          -0.30037104114509416,
          -0.21257402747041845,
          0.11459303882650143,
          -0.23265968340037688,
          0.12437135429384341,
          0.3888921093503186,
          0.2659673746415713,
          -0.2099315932462252,
          0.09802254816109787,
          -0.12344406717895033,
          -0.1450610401737067,
          -0.3376421533148038,
          0.2226041459372382,
          -0.1919915435603119,
          0.290453775341671,
          -0.3071580549808787,
          0.30728882774201677,
          -0.28895823915946334,
          0.3727128526069874,
          0.04431223289261243,
          -0.061188124500685385
        ],
        [
          0.3331801542059837,
          0.40076290237614365,
          -0.15058504203013826,
          -0.25939237472656956,
          0.027880926460290043,
          0.05914742381701757,
          -0.15121330343726933,
          -0.18222814201487217,
          -0.24636012455646314,
          0.024853092065980454,
          0.0640634785867465,
          -0.14421113875156938,
          0.5267432886832335,
          -0.23547996243120045,
          -0.2540338085636145,
          0.40748284653893097,
          0.33713628385926814,
          -0.20598479560626595,
          -0.00416460130039115,
          -0.0023166947095406842,
          0.39143315571677423
        ],
        [
          0.04661328827732987,
          -0.328800457700021,
          -0.32476473275551815,
          -0.6085786330401906,
          -0.05185291710411186,
          -0.05928111997758755,
          -0.20402842004936586,
          0.5657205569211525,
          0.3201343755840012,
          -0.29624078183294317,
          -0.036173974869312314,
          -0.25746189716784373,
          0.7263864866888364,
          -0.31818961409382873,
          -0.17114047226230933,
          -0.3641992301944854,
          0.9086188153928154,
          0.31811148828803487,
          0.2602290209466046,
          0.15971446673337594,
          -0.3471578248937991
        ],
        [
          0.592062203161664,
          0.3532093825098985,
          -0.24356535622375378,
          0.3616643725093162,
          0.7263154004069926,
          -0.40465964298912854,
          0.009435038934131905,
          0.2903221138516671,
          0.06904401158600915,
          0.21734282204568442,
          0.3573289738095332,
          0.2877751422284944,
          -0.4302675565564145,
          -0.37398577060336685,
          0.2936711214480991,
          0.2768469666467883,
          -0.34534571311504464,
          0.31294546709177246,
          0.2392463345473999,
          -0.04125044001739116,
          0.33919235808120435
        ],
        [
          -0.24201845339607064,
          0.49412317540225076,
          -0.04269376691137408,
          0.6833653873083658,
          -0.6184551176296905,
          0.2526613567934611,
          0.012852416438375652,
          0.3660038564901944,
          0.7871048480827264,
          -0.04116300961802703,
          0.025120106252103383,
          0.39473091493419304,
          -0.8744079321576229,
          0.7253718519601668,
          0.03772374331812687,
          0.23014782643569434,
          -0.2183371134186016,
          -0.007844637234770385,
          0.45323942725873273,
          0.5027493557503423,
          -0.27142482334904344
        ]
      ]
    },
    {
      "activation": 1,
      "biases": [
        -0.02480359916602262,
        -0.5649389783261606,
        0.3860736536162079,
        -0.5069588647177588,
        -1.283916133703848,
        0.25182212933103987,
        0.5895851526508952,
        0.20230201758578048,
        0.5582141905036392,
        0.08200476532656445,
        0.44229611709237976,
        -0.3778831226303802,
        -0.11422243600540326,
        -0.2679576263804366,
        -0.4007552943443315,
        0.3859864365438688,
        -0.30827336472720235,
        -0.27625170045030284,
        -0.17548842459089006,
        0.32819413065013137,
        -0.388135114975524,
        -0.48339543973913696,
        0.12598994812973272,
        -0.5535011092191022,
        0.1273235592532877,
        -0.1884063921735274,
        -0.2756167828305678,
        0.044844292968041134,
        -0.22340501751954953,
        0.16992265139315826,
        0.22077621250138832
      ],
      "cols": 31,
      "rows": 21,
      "weights": [
        [
          0.7021475592701407,
          0.43751308943334166,
          -0.2180447822484266,
          -0.05223193201070387,
          0.3592199439064134,
          -0.21033515849571793,
          0.01134873408641173,
          0.3563411610124067,
          -0.3732821934826869,
          -0.17681778379431476,
          0.15974290737273808,
          -0.08641318716735844,
          -0.31785951461908424,
          0.4041731505159507,
          -0.22470706905533058,
          -0.12620302232481453,
          -0.16482678217044505,
          0.19612085033453786,
          -0.32511588316087076,
          -0.3513198453256184,
          0.587633497844067,
          -0.10794284721246987,
          -0.3372723537008322,
          0.11330674565602585,
          -0.36658420799542574,
          0.16672735585003295,
          0.38993650655153833,
          -0.15793290204480437,
          0.4192188161585499,
          0.10106954136338615,
          -0.05269035429967566
        ],
        [
          -0.1575180678891633,
          0.19580137162464487,
          0.0908577222898678,
          -0.1428950526744867,
          -0.35786481224411526,
          0.7373151781905694,
          0.5377472446651662,
          -0.376493294294544,
          0.12618646709728956,
          -0.11760791482893712,
          -0.03135262669425582,
          -0.41029754833208576,
          -0.06615043803090624,
          0.3726662277167504,
          -0.40521299544763517,
          -0.23658285230722512,
          0.12334682225177224,
          0.06882132045051492,
          0.2784856466998404,
          0.36418122288635274,
          0.12505171235713328,
          0.18265266353623655,
          0.27927706574883954,
          -0.5409881758154198,
          -0.3716586059749971,
          0.2237392345701747,
          -0.21161084045750453,
          -0.12861698950971787,
          0.37436399610747984,
          0.29376420752245114,
          -0.01770599026907199
        ],
        [
          0.22693292212112393,
          -0.14763274334696933,
          0.0735447096404166,
          -0.28953940948362517,
          -0.21567444442474829,
          -0.06870554531126835,
          -0.0008915232105216627,
          -0.3346100951106409,
          -0.14127359442348264,
          0.3038874795996501,
          0.07974671498120421,
          0.15664098069681107,
          -0.16670465594317593,
          -0.21697734953574188,
          0.002847107752224269,
          -0.15722537679358142,
          0.21394765680288186,
          -0.29072479612316876,
          -0.1942010170814295,
          0.2284837758903396,
          0.21705283839048897,
          -0.312420569452887,
          0.12321606471491106,
          0.06434184126542909,
          0.08306904688910714,
          -0.2817280750471811,
          0.05986064329679591,
          0.009106097053003415,
          -0.07378722829747583,
          0.3269156594779653,
          0.17192903571959176
        ],
        [
          0.2006965319708021,
          0.09305758093930706,
          -0.4036969004051313,
          0.03979059626844448,
          0.1882685532124548,
          -0.13579201560309093,
          -0.2856876711444668,
          0.05939837344918711,
          0.37847876997968916,
          -0.9485630017004526,
          0.5528525323505434,
          0.08723968436549893,
          -0.18346758452925993,
          -0.49260480512697646,
          -0.10600674855595627,
          0.10389260354054723,
          -0.011996026628804116,
          0.2331263125732807,
          -0.01854767122486024,
          -0.09604185418782714,
          0.3215453821527701,
          -0.17614646666618533,
          0.18180731552438384,
          -0.019809738305648125,
          -0.2292816707091743,
          -0.31047774183212984,
          0.2650446801260348,
          0.7502764187445848,
          -0.12130860237137708,
          0.1519439840630471,
          -0.06488718547156225
        ],
        [
          0.31437611506256047,
          0.24390596744951135,
          -0.19351677907088344,
          0.6310020583525267,
          0.5121917053493343,
          0.34948343431995377,
          -0.5608961067226936,
          -0.09979354111849345,
          0.0935154776059302,
          0.18749074360496124,
          -0.239333750656007,
          -0.30452222572614,
          0.705466799196594,
          -0.09676959516304565,
          0.3479189541403973,
          -0.16405796772477935,
          0.21195878325573697,
          0.04050056412568651,
          0.10356133364951074,
          0.134201739674659,
          0.3532763996188344,
          -0.12645556920911455,
          -0.9580627659141067,
          0.4557868718620823,
          -0.34765716808716873,
          0.02176429755797999,
          0.008024247581068317,
          -0.2769370989298704,
          0.2954273394401603,
          -0.15276507957435131,
          0.11322024374019514
        ],
        [
          -0.07624072257052818,
          0.10963569465918174,
          0.15539102149083664,
          0.20583990921617704,
          -0.22284430835836522,
          0.026982663329399373,
          0.1913561687567164,
          0.09668579887184005,
          -0.18864707628523125,
          -0.181272641951968,
          -0.2307332522052651,
          0.10573962940206101,
          -0.10647213805135684,
          0.3298105317988311,
          0.15833025222072244,
          -0.04824422432786358,
          0.2282301686958203,
          0.33596292703062125,
          0.10767687031533275,
          0.2053799980252283,
          -0.28179923709609395,
          0.31667860508927725,
          0.25682082454178057,
          0.03912188066294994,
          -0.32666508841037856,
          0.07472499867596226,
          -0.15141619730142933,
          -0.13309145946481613,
          0.17908547269273845,
          0.08693278135072889,
          -0.20097295859470324
        ],
        [
          -0.32299459383171836,
          0.05773492449404686,
          0.21520001169024713,
          0.17815085985244844,
          0.19900704070569247,
          0.3771610855648845,
          -0.025014627570535637,
          0.15492522164953137,
          -0.009891594536652195,
          0.0526843659703341,
          0.1938182183379098,
          -0.36806916319899663,
          0.016021685660383537,
          0.36105661029759356,
          -0.11113814067669475,
          -0.05428494632654986,
          -0.3374876664775969,
          0.28220209977466293,
          0.2319447679920073,
          0.1244052396275429,
          -0.27215927222926817,
          -0.147488724440049,
          -0.0609137774572757,
          -0.28033567541800275,
          -0.3047076887880397,
          -0.20379277376472432,
          -0.15586767563370033,
          -0.00368354453739297,
          -0.13030058424616245,
          0.07089131149075581,
          0.15767819773914774
        ],
        [
          0.09428796275730726,
          0.5284531925904715,
          -0.09880780393105434,
          -0.24473187718067593,
          -0.05364473743876296,
          0.058869292030863524,
          -0.02496414862294296,
          -0.14990074592143923,
          -0.01139854026677197,
          0.021669100349803763,
          -0.07207705739520999,
          -0.1856326507485205,
          -0.3214366763125621,
          -0.04301080492371946,
          0.607845636596082,
          -0.07552174231277388,
          0.3524943056228579,
          -0.31158662602040765,
          0.008979239641362111,
          -0.14738469365516094,
          0.17217191639558116,
          0.20010739007558936,
          0.3735985257664545,
          0.12693860128209883,
          0.3946663347232875,
          -0.8393167655697324,
          0.29464894556062043,
          0.13527551370431998,
          0.1694999448907216,
          0.49535457339672806,
          -0.22437401381942026
        ],
        [
          0.5326352047016575,
          0.3004941446926922,
          0.6097339476440603,
          -0.1956194532692239,
          0.38817554530367615,
          0.4102948643402569,
          0.0965178603095836,
          0.20834914192833182,
          -0.1667679735257159,
          0.36711849941814684,
          -0.7969210507462963,
          -0.24175301356667162,
          0.3288388610861455,
          -0.0061419558434824655,
          0.4230463161485733,
          -0.06354424986443417,
          0.3529455953274865,
          -0.3246136336917243,
          -0.27415347213592467,
          -0.03834165594196131,
          0.4496601204518989,
          -0.8433836402682888,
          -0.492669300193964,
          -0.010816699441208496,
          0.06245352865016418,
          0.052691103170844945,
          0.4301321212049623,
          0.1131488779744901,
          0.16301571831475203,
          0.4729869570298719,
          0.17499917032052567
        ],
        [
          -0.026518290892190047,
          0.3536430147986552,
          -0.27112345413444644,
          -0.24009116658638663,
          -0.22988838729432806,
          -0.3528823544407206,
          -0.35331650197301256,
          0.23120528597843096,
          -0.010231950173378078,
          -0.4614343427146672,
          -0.16903802189358613,
          0.1726455555914689,
          0.01801564156313066,
          -0.11794687244280247,
          0.09721380516660472,
          0.22980670642792134,
          -0.12848125107972774,
          -0.13391219745133945,
          -0.09943155297804518,
          0.08415442678496753,
          0.027238182810433945,
          0.11447546751979193,
          0.0970571295414198,
          0.31694757757633174,
          -0.042228174313186664,
          -0.016838449761588575,
          0.17474066858316945,
          -0.15564422726460372,
          0.30081330179475524,
          0.12120832294708851,
          -0.12793629445942817
        ],
        [
          -0.4470979910690694,
          0.05358137549502833,
          0.019018081961510922,
          -0.10292838905405637,
          0.33987287332532173,
          0.3880212011945927,
          -0.5043871887243984,
          -0.06416940521016601,
          -0.22523782623403144,
          -0.26814595688968457,
          -0.3447280484674846,
          -0.1992660441737316,
          0.01070007801240712,
          -0.011594034025796323,
          0.07936413308739801,
          -0.13044893921971942,
          0.1629306402963964,
          0.13135806599923042,
          0.10043991306136628,
          -0.25248930474574116,
          0.5212765790174186,
          0.35846512675365555,
          -0.23566878338639619,
          -0.026020661556823848,
          -0.11224943310942376,
          0.2825914255774738,
          -0.6002202510487143,
          -0.09104569775759808,
          -0.09049516277714292,
          -0.14554391183486085,
          -0.34514161145132394
        ],
        [
          -0.26066391555798624,
          -0.29730475325987354,
          0.16344207799596738,
          0.16766396096379266,
          0.3441656813823294,
          -0.014466601492368367,
          -0.12124629640854333,
          -0.006767607389733514,
          -0.318922343328504,
          0.1422054147441453,
          -0.03120566578129314,
          -0.05226179733816677,
          -0.106049695285072,
          0.12524903456594655,
          -0.08920997069374029,
          0.23968081192345753,
          -0.03563580572479135,
          -0.11690293592501944,
          0.10514322504416429,
          -0.13058738182168186,
          0.09692442784299027,
          0.33693345287298193,
          0.42975901661088894,
          0.09732936028317545,
          -0.36975856695111486,
          -0.053892816071913804,
          0.0971422915545021,
          0.016849527401711046,
          -0.12698895735439586,
          -0.14685080730400596,
          -0.3633983766912443
        ],
        [
          -0.078917086953397,
          -0.5361220096838638,
          0.3447245335424133,
          -0.32633509753633483,
          0.36810290813685487,
          -0.1578232843945035,
          0.11130251940150923,
          0.5668808271733754,
          -0.07278309914359131,
          -0.012133619038839876,
          0.2669046193975179,
          0.5435905668455384,
          -0.568350292947961,
          0.054816997192442346,
          0.1239575308685032,
          -0.06949929812281055,
          -0.09978542450663808,
          0.028994169390389544,
          0.3648054037001696,
          0.22703163466608603,
          -0.11628976383280154,
          0.37484524899744626,
          0.057290271424355575,
          -0.2640528771983748,
          0.03675778693579708,
          0.21094023530417033,
          0.2611073394337853,
          0.5959104773085938,
          0.15555564335112285,
          -0.33039979651839024,
          -0.40747975911230494
        ],
        [
          -0.3694729398508572,
          -0.14715665274499928,
          -0.1519561146819443,
          -0.021792294514984042,
          0.21687940089430505,
          0.37827342316215234,
          -0.045151565489989234,
          0.0611635170550453,
          -0.3692595693548923,
          0.132126245810864,
          -0.06456384429146664,
          0.6316744558008254,
          -0.21472291868235618,
          -0.03807713752600873,
          0.6049440338726454,
          -0.30275974197061734,
          -0.225488320842054,
          -0.07798111432100417,
          0.227860529190539,
          -0.09190538470128527,
          0.44958960928631736,
          0.6401214631379234,
          0.5052010879134462,
          0.3229221928646369,
          -0.378486105534794,
          0.698500612889729,
          -0.25928859055813114,
          0.41300247463893874,
          0.1709479703876186,
          -0.41892536514960915,
          -0.13813123691638846
        ],
        [
          -0.31762247886178635,
          0.0021734514525733276,
          -0.43576373255941053,
          0.14612317254983687,
          0.11804051273932918,
          -0.09724788646197723,
          -0.3267499353979442,
          -0.034911667254587594,
          0.2578994022219183,
          -0.15289861462245183,
          0.2371106966304993,
          -0.0192367360718302,
          -0.1169945768036724,
          0.15592661531924829,
          0.13116121397101377,
          -0.09795531591692125,
          0.019176629148854905,
          -0.1820185441238727,
          0.11243781633163934,
          0.17699816316768138,
          -0.19447367799237247,
          -0.3446824762275558,
          -0.263126114767866,
          -0.18894862060690604,
          0.035618147004072634,
          -0.3077074867644035,
          -0.4130814261417951,
          -0.27092389866382327,
          -0.4168761770240204,
          -0.2462932903040593,
          0.0692864073188047
        ],
        [
          -0.17581257001888148,
          0.1765891804958677,
          0.2912660188575357,
          0.04145304954840249,
          -0.25330946119243225,
          0.4639376017828287,
          0.013572938803492892,
          -0.36106280023178516,
          0.28092357391458506,
          -0.11347987666073739,
          0.35912264479911954,
          -0.14134775903254113,
          0.025687405104729184,
          0.022757163085218725,
          -0.6461797775967622,
          -0.10675787837513367,
          0.37963237777234216,
          0.26697455704593887,
          -0.08673816627934917,
          -0.5235354290441188,
          -0.009503229570019022,
          0.032255292979716604,
          0.41011462877154226,
          0.1696889532672203,
          -0.4183394155674893,
          0.06471273417393641,
          0.1021216181991884,
          -0.5152540249757059,
          -0.21076460230477986,
          -0.18075509279890467,
          0.12659894722300138
        ],
        [
          -0.2268677491682593,
          -0.43484057623697564,
          0.19077917502153027,
          0.08771874227393374,
          -0.19256064917104562,
          -0.17898086936469665,
          0.3314989803058834,
          -0.15626557163764823,
          -0.20068848953022206,
          0.3114101095123834,
          0.02999152170600417,
          0.16395812056400758,
          -0.1780156273254366,
          0.4135547257814325,
          0.4398694583750656,
          0.22665193423634256,
          -0.33127833973076504,
          -0.131445022570646,
          0.2745475522062112,
          0.1269677021238242,
          -0.3743812766695956,
          0.5676666545453625,
          0.05552836329122962,
          -0.22659219386121776,
          -0.2205648158006338,
          0.040915711214671815,
          0.11651546731592956,
          0.11156289237086546,
          -0.02893829386097725,
          0.12472910645428587,
          0.07805849877557591
        ],
        [
          0.20421804665382237,
          0.5331610795202045,
          -0.01936200928174706,
          0.1823586509291542,
          0.4272145016130159,
          -0.47556523765609526,
          -0.34783355013884676,
          -0.27111025577999454,
          0.059571335156896506,
          -0.044928088603769054,
          0.09220093315330931,
          0.4935002053893892,
          0.23438155723255877,
          -0.24285991650377095,
          0.3483091246602956,
          0.07114568596215108,
          -0.05452705073115816,
          -0.07924259588912726,
          -0.22716596256766744,
          0.07013633692177819,
          -0.12307559808863888,
          -0.24067146846505427,
          -0.12058658237525785,
          0.04663274858697029,
          0.4416716399423122,
          -0.44510596346603803,
          0.569983661695926,
          0.588583808664251,
          -0.12285161374024048,
          0.2055582052937816,
          0.32718209376086216
        ],
        [
          -0.31315860382953886,
          -0.6000069820218582,
          -0.1125039092899482,
          0.197704998641344,
          -0.6263689914123111,
          -0.3699105575338533,
          -0.008239869982686861,
          0.1637457273056263,
          -0.03817141520666175,
          0.27845203079684194,
          -0.2137476474500829,
          -0.1454827042596344,
          0.12522699064715995,
          -0.2461006493726309,
          -0.115712539585187,
          0.19788453258725405,
          -0.1726213250080315,
          -0.029894931047920084,
          -0.09386062005829311,
          0.013083356148987672,
          -0.6042241189775736,
          -0.1708514547645099,
          -0.016709315841182713,
          0.1306089823445291,
          0.29144654828957756,
          0.10648180852250831,
          -0.769291657264285,
          -0.43530669294890195,
          -0.09210458557397573,
          -0.25055753210700094,
          0.13917506409642805
        ],
        [
          0.3643864908164455,
          -0.44496288179168875,
          0.013205376716400584,
          -0.015209948851396383,
          0.1979113630246508,
          -0.30701915179522044,
          0.06402844138532729,
          0.13098054399733908,
          0.08412334652811386,
          0.4259771320521015,
          0.19985067771349674,
          0.37191017504221463,
          0.3986902712314567,
          0.11464126198516905,
          -0.0946692787744312,
          0.0305736854570411,
          -0.49732032695787254,
          0.03467226992831099,
          0.06898338960444798,
          0.33951880581719485,
          -0.12513994737713474,
          -0.42737930618182235,
          -0.6786730333636434,
          -0.19225346032948223,
          0.4597821760323907,
          0.4121201904960517,
          0.268424890219242,
          0.12480546858867692,
          -0.3634344166620996,
          -0.10538916246266282,
          0.08498511702576238
        ],
        [
          -0.01781217229241959,
          0.23185020227343084,
          -0.21982211262973453,
          0.31782539143524474,
          -0.338019577991563,
          -0.018233323057918357,
          0.1719407420612498,
          0.00033516567442124694,
          0.10581245164450814,
          0.09639676523944826,
          0.21870512609790438,
          -0.24099267365241625,
          0.29653717997166873,
          -0.0823176397384015,
          0.22814950881234747,
          -0.036462941115860695,
          0.21366510231934002,
          -0.07697770532962847,
          -0.14696254341521628,
          -0.013288713145264633,
          0.29852896540757673,
          -0.20570567667932058,
          -0.31428988240398603,
          -0.29554494332906744,
          -0.02172613208431524,
          -0.18167783388589218,
          0.01041720902187945,
          0.3289868702779871,
          0.26293033631763746,
          -0.03697578952484335,
          -0.33846541341889336
        ]
      ]
    }
  ]
}
