{
  "layers": [
    {
      "activation": 2,
      "biases": [
        0.0,
        -0.007052080069905257,
        -0.08084740215309245,
        0.5408042554701121,
        1.1145095374468341,
        0.503996496039025,
        -0.7280565911916713,
        -0.09335623344353915,
        0.0
      ],
      "cols": 9,
      "rows": 3,
      "weights": [
        [
          -0.05430512872095338,
          -0.7945375387375017,
          0.07875935366717847,
          -0.7777561697666249,
          -0.5154870738768236,
          -0.5997086267048989,
          1.6472062756077124,
          -0.4193104030013335,
          -0.39127552253044356
        ],
        [
          -0.5385506824165898,
          1.3715054626846395,
          -0.25238275046809105,
          -1.5988787710933885,
          0.2576662761342502,
          1.8220644678923612,
          1.4645128499223825,
          0.7885560963355055,
          -0.0746421342727298
        ],
        [
          -0.4545201878148109,
          0.800730707353075,
          -0.5704135602942273,
          1.9276546262040242,
          -0.6186825520929652,
          -1.395006165893609,
          0.7296543499636635,
          -0.29159505637981675,
          -0.10292089683489257
        ]
      ]
    },
    {
      "activation": 2,
      "biases": [
        0.1077876436898331,
        -0.23846641938313978,
        0.48670567433656814,
        -0.37124195403136256,
        0.0,
        -0.7673495568403822,
        -0.015279847396854547,
        0.40843906777894673,
        0.28985147615196166,
        -0.24682008434404465,
        0.08273426745272366,
        0.19574198757705635,
        0.24212841624359954,
        0.8755856320660966,
        0.04619550232229933
      ],
      "cols": 15,
      "rows": 9,
      "weights": [
        [
          -0.14730895480481393,
          -0.12946734094501816,
          0.27989356814878696,
          0.005146356069085312,
          -0.3825212227564869,
          0.16387162435048797,
          -0.19135887533955226,
          0.28455206881489237,
          -0.06885826055372984,
          -0.311962848441658,
          -0.10288565168291591,
          -0.2685055624546975,
          0.2883896398303982,
          -0.19349363338830583,
          0.3720837490968796
        ],
        [
          1.0848916298837639,
          0.2819922483073636,
          -0.006970047590242023,
          1.0347881952891151,
          -0.03419086827626028,
          0.41147247985459373,
          -0.3657218146135699,
          0.691277805336036,
          -0.44986869757417114,
          -0.16968513145840722,
          -0.03935170872758205,
          0.4254902735948998,
          0.10661696134493012,
          -0.4906823670262617,
          -0.34314534078946785
        ],
        [
          0.29979983788665976,
          -0.3701017927129563,
          0.35763301710283324,
          0.21374331222077503,
          0.3540768808937058,
          -0.11978163601385958,
          0.02855943132749274,
          0.4839683193263969,
          -0.29896643933293376,
          -0.2923066070267496,
          -0.07152658623629675,
          0.3803444046114066,
          0.32011205089283734,
          -0.2712764068372904,
          -0.32934349845297206
        ],
        [
          -0.3864360266483093,
          -0.5879460869236788,
          -0.5602000366819913,
          -0.27979616016108305,
          -0.02986281948623376,
          0.32108675682886084,
          0.01405322313451604,
          0.8237575619952596,
          1.4874721188633522,
          0.08595362699389811,
          -0.44015217780883414,
          0.6619702304053229,
          0.8347501382130479,
          -0.39308738818056776,
          -1.1991519564972208
        ],
        [
          -0.03301661073513308,
          -0.1063484472818294,
          0.7611206969486035,
          0.6551513414581315,
          0.09559289486873568,
          -0.5263750675317272,
          -0.22727846865726098,
          0.3520822913632985,
          0.43330633057486617,
          0.3009781994933949,
          0.22614477055919788,
          -0.500500029598418,
          0.4507804684426633,
          0.7111334010822525,
          0.24300602450928332
        ],
        [
          -0.9204444750165363,
          -0.8810061856535533,
          0.8084273543211389,
          0.993800844748687,
          -0.3702159411600865,
          0.3081826205484386,
          0.9250753628492114,
          0.6048653380087721,
          -0.2718671660520066,
          -0.2756648627368656,
          -0.8297975244148177,
          -0.7156061873507441,
          -0.34626318353233376,
          -0.4607380000680602,
          -0.20743698259885976
        ],
        [
          0.9066978502066032,
          0.6604668851162665,
          -0.010051987901222024,
          0.15562202443545978,
          -0.21932307757405706,
          0.8549424381088417,
          0.9254601597149236,
          -1.1076675656260846,
          -0.383917061880894,
          -0.2924106233550162,
          0.48297157583384565,
          1.2433449210769678,
          -0.5763809867923786,
          -0.16739041187095952,
          1.0693370503535617
        ],
        [
          -0.5694700706337281,
          -0.0224096139200289,
          0.3651748349422123,
          0.4917359567560004,
          -0.16296478717725948,
          0.2476082267653413,
          0.36607875202554135,
          0.13508458233378973,
          -0.4753598484507785,
          0.09740470752104953,
          -0.24386092347174051,
          -0.10121393041823606,
          -0.5574840890514801,
          -0.19069998942080849,
          -0.2600605505614978
        ],
        [
          0.40053968778836524,
          -0.16902005750174637,
          -0.42773813611256806,
          0.21381671201149777,
          0.0508219118001042,
          -0.06135487349766999,
          0.07314122401789824,
          -0.14149276243592274,
          -0.10580781596051891,
          -0.004052054837370311,
          -0.1395411736516008,
          -0.4724645451514351,
          0.13284979510719408,
          0.17744821108758835,
          -0.18958234074040425
        ]
      ]
    },
    {
      "activation": 2,
      "biases": [
        -0.047771862092020924,
        0.03868597321743686,
        0.06615831583857747,
        0.10705015212158146,
        -0.007799075867194272,
        -0.019943512068860237,
        -0.13814376797813097,
        -0.19519546322638295,
        -0.06713603792063357,
        0.4054019588939428,
        -0.7830730206120881,
        -0.20887882416817585,
        0.18148401195342936,
        0.0,
        -0.2717000569020287,
        -0.04036163105380711,
        0.6503590351356406,
        0.0,
        -0.29480638393747827,
        0.6155494681142832,
        -0.11710577946570438
      ],
      "cols": 21,
      "rows": 15,
      "weights": [
        [
          -0.26727562161701124,
          0.20473386921007142,
          0.7304186444660656,
          -0.2710200432159572,
          -0.38116556796962925,
          -0.05645132882255376,
          0.2523834211616023,
          0.42088164224687685,
          -0.5703480254403896,
          0.585577478267309,
          0.5841814501908852,
          -0.04149093866434151,
          -0.7852112473716281,
          0.12789450588728432,
          -0.0713495125874811,
          -0.2914053137075517,
          -0.44973299941247674,
          -0.0375179224304221,
          0.88545611878149,
          0.43843542507171696,
          -0.7928633465748078
        ],
        [
          0.07615330333945626,
          -0.22510719829545564,
          -0.6822983859333793,
          -0.16411223974281933,
          -0.13815783877341398,
          0.3354892911269138,
          -0.10878575230298138,
          0.3839999224615297,
          -0.2194875355926546,
          0.20133962624350382,
          0.07161164184040462,
          -0.01834550445377589,
          0.17418437584027055,
          -0.31253713511515047,
          0.2522954095727071,
          -0.40979186979686044,
          -0.3555211006378598,
          -0.22836181189947494,
          0.12728974090838205,
          -0.14119867427091012,
          -0.4620452620989038
        ],
        [
          -0.05572042564310458,
          -0.20867894922410288,
          -0.3275756959995174,
          0.14726182612079944,
          0.3478169980051487,
          -0.16115198265791777,
          0.08023705823672099,
          0.0009221253093772187,
          0.32441125651605374,
          -0.08793002982056708,
          -0.10614445238049128,
          0.3969072523303072,
          -0.23296629030547053,
          -0.2891247722718058,
          0.23068489363280678,
          0.5213405098480411,
          1.0376102374501401,
          0.27345434676512986,
          -0.6151564598480294,
          0.5689026718441664,
          0.18804692263422285
        ],
        [
          0.22357245834372022,
          -0.14386038297440004,
          0.376342777225036,
          -0.2705404263059308,
          -0.14288532668802228,
          -0.08362221684965618,
          -0.8012833971447977,
          0.856481952476639,
          0.6207220570397355,
          -0.6701586103180892,
          -0.23479470320191462,
          0.8388286809994788,
          -0.5703886283946302,
          -0.34889447134270185,
          0.1580272178313704,
          0.25882934576703165,
          0.33310577884092246,
          -0.11204796063191583,
          0.39712500051971833,
          -0.25698184948657904,
          -0.5664726742646489
        ],
        [
          0.39894078895037144,
          0.09883557203034408,
          -0.3787646215465115,
          -0.22048032083210747,
          0.27009605839798206,
          0.0019960679863426562,
          0.08505131779586075,
          -0.2051053701034626,
          -0.21490007455945648,
          -0.39862892290242335,
          -0.39372384783165876,
          -0.37311424386189435,
          0.10074005805913945,
          0.20906436613811566,
          -0.2870015334518044,
          -0.1541363891250363,
          0.23988919878913098,
          -0.3489587212730428,
          0.05704649000233138,
          0.08060739133895065,
          0.04704898792320456
        ],
        [
          -0.10720889949121115,
          0.08005168672438798,
          0.839458970659854,
          -0.4466691514791671,
          -0.21653646327262357,
          0.06468598436194853,
          -0.08599219604856685,
          0.6295781000858514,
          0.0804103809160128,
          -0.6213719496690653,
          0.5549080577883997,
          -0.21525707147263748,
          -0.5786549989465284,
          0.36001395130412933,
          0.20092977742104348,
          0.11616924391552644,
          -0.4892933244490618,
          -0.05428763217444649,
          0.0933591749621,
          0.11062762864708914,
          0.76937530562496
        ],
        [
          0.14477637289108933,
          -0.9302773709597126,
          0.12709282517337878,
          0.3356645152232249,
          -0.20835939837897607,
          -0.08393414920705144,
          0.28176150057060295,
          0.2941773424167797,
          0.17257212098578378,
          -0.09858282028969606,
          0.26311548423333947,
          0.5037823972644826,
          -0.1483113121283353,
          -0.30168168687474145,
          0.3530932173113943,
          0.837227261032291,
          0.281036842980885,
          -0.38555305965213693,
          -0.4955847590972882,
          0.4117331909314199,
          0.6983134437044574
        ],
        [
          -0.34580982942789185,
          0.708868507161971,
          -0.7396209959467338,
          -0.18742202388821358,
          -0.1599031550537362,
          0.3977961237874448,
          -0.7237317907027225,
          0.10121725518138677,
          -0.051673288665870704,
          -0.40115941659391896,
          -0.2897359925144236,
          0.32893330140455734,
          0.4546821319622719,
          0.07965625739959988,
          -0.669275309085921,
          -0.3058451522358691,
          0.5878778807268473,
          -0.2734073310321585,
          0.45018173334276423,
          -0.3304281241748756,
          0.01828500383981796
        ],
        [
          -0.21454688301410513,
          0.293049122543363,
          -0.06748201546299039,
          -0.3549651823833968,
          -0.4036246549445562,
          -0.2606074404398845,
          0.6577604699032499,
          -0.4871135644685816,
          -0.4025049607749797,
          -0.2873272533906275,
          -0.6581600809221767,
          -0.4317792308774144,
          0.9191955134824384,
          -0.27167460639509206,
          -0.6915977605142389,
          -0.6803514429184547,
          -0.13741135190304551,
          0.08574480375434994,
          0.06929020507046757,
          -0.08098301984814145,
          0.3826279231949785
        ],
        [
          -0.24056144122684658,
          0.07017832590728243,
          0.21488561965198227,
          0.19813320015006416,
          0.39784229174948066,
          -0.09164359914737885,
          0.32210230715564037,
          -0.04622207296356532,
          0.11825489981560873,
          -0.03488274567091714,
          -0.05992770641614011,
          0.16879656505968701,
          0.029818720326121442,
          -0.1862291344677322,
          -0.3750328315308733,
          -0.3556667399052404,
          -0.08213466950319227,
          -0.0035486380771855065,
          0.2028184137748971,
          0.01970562292143702,
          0.003417798991773347
        ],
        [
          0.17439893691604805,
          -0.21192774507449108,
          -0.5238817333497756,
          0.44892733754072806,
          0.23984245064119925,
          -0.17562361706857987,
          -0.24617639696920837,
          0.02983629386659154,
          -0.025718933995231088,
          0.2749832186513937,
          -0.07098329744842652,
          -0.1741005182466771,
          0.05250076632585354,
          -0.3216683032014523,
          0.18904434820588642,
          -0.48600866911116036,
          -0.14796480654663943,
          -0.03770975553308764,
          -0.2904295208368329,
          -0.01962889696722477,
          -0.33019685254695363
        ],
        [
          -0.23127304235501062,
          0.008055338148180179,
          1.0142671240264778,
          0.2753918548734322,
          0.0034504382300190725,
          -0.07227347724719023,
          0.6179865592531955,
          -0.0031979928660661326,
          -0.6944860884599331,
          0.6007150115878707,
          -0.15875195251421564,
          -0.256395173665996,
          -0.7704877276200911,
          -0.25530958433403655,
          0.23313240145577907,
          -0.6974772744687145,
          -1.2156995248611677,
          -0.18651444468892256,
          0.06426118054366799,
          0.08923106130799698,
          0.1990439597279151
        ],
        [
          0.4014622381813158,
          0.6575300586479442,
          0.18583774727813235,
          -0.07764160819001496,
          -0.3517984942402523,
          -0.2613399835227851,
          0.15456524794921261,
          -0.6828135160911767,
          -0.19654172899662464,
          -0.2703701026052748,
          -0.36283592528170744,
          -0.3639757361305604,
          0.704790215059868,
          -0.29865112695216756,
          -0.31342028677866623,
          -0.12814397980553802,
          0.13829638573329736,
          -0.21789770518080853,
          0.4017360494002119,
          -0.3081121340251608,
          0.14137057208132692
        ],
        [
          -0.15023005723214533,
          -0.050160376513452176,
          -0.16399084790153173,
          0.5487023833545575,
          0.3239047822041605,
          -0.4059842078160382,
          0.08553277942776803,
          -0.3159966135922645,
          0.14612899815638689,
          0.21245863531356163,
          -0.31283358291213553,
          -0.4590187225246237,
          0.5793676308104391,
          0.39148885857951243,
          -0.3138720395111117,
          -0.14590912564670327,
          0.6048257991309821,
          -0.21956551299770466,
          -0.24477699158873786,
          0.8188377139693741,
          0.05437213598967524
        ],
        [
          0.06003375141357493,
          -0.2780690421088897,
          -0.8229735237445504,
          -0.17018313182961153,
          -0.1796770357830093,
          -0.08351044542177323,
          0.07275069165414218,
          -0.5079180267235239,
          -0.31889262208448,
          0.5532929048428677,
          0.556297178491511,
          -0.5434421367786905,
          -0.24972921229997205,
          -0.3926995506790308,
          0.6057399513364775,
          0.6053284560167834,
          -0.06823124375309429,
          0.3269688408993532,
          0.25575095826045025,
          0.05276265713769932,
          -0.32863967858597937
        ]
      ]
    },
    {
      "activation": 1,
      "biases": [
        0.47363452997368793,
        0.47925667103783864,
        0.042922386508501074,
        0.4288831076379572,
        0.4106477176687647,
        0.07263642320879815,
        -0.6265021439372154,
        -0.4730219432138418,
        0.3217598475378126,
        0.4257859877480889,
        -0.9470363535054838,
        0.6370612770588298,
        0.20472196958702574,
        -0.44486531694965314,
        0.48932636508006566,
        -0.5263665444389098,
        1.1748245346117423,
        -0.4176420439078893,
        0.5347144500320764,
        -0.470533892592884,
        0.33845453625878624,
        -0.6728856055881813,
        -1.1081024878944412,
        0.8420215743605137,
        0.501582169819894,
        -0.31294756867330087,
        -0.8056071674253671,
        -0.2766473070133427,
        0.9479689178224089,
        -0.13021271189978914,
        0.3784621945661456
      ],
      "cols": 31,
      "rows": 21,
      "weights": [
        [
          -0.20147896833051895,
          -0.16025908772439157,
          0.3168605154599334,
          0.025727778462695645,
          0.15549958219519477,
          0.2966752259902038,
          0.31306491082200477,
          -0.008477906060215805,
          0.3257570017091588,
          -0.004620863771516157,
          0.09298737331815538,
          0.18542727260791805,
          0.021272054743537334,
          0.19615284581013037,
          0.04883497749569338,
          -0.08561675238567405,
          -0.054439332664221185,
          0.008802623008048715,
          0.2518428989886208,
          0.12475078687253255,
          0.02688288487153105,
          -0.29784875695957774,
          -0.057603303709316565,
          0.3128786464939669,
          0.3114634235803785,
          -0.27235578702448443,
          0.07495434356508662,
          -0.009159839859450089,
          0.044869771397818975,
          0.15274283531956218,
          0.32156951686584145
        ],
        [
          -0.14375452304557987,
          0.4337617756704987,
          0.09247555175243821,
          -0.5694229250925388,
          -0.008471640963076626,
          -0.10194800334856581,
          -0.1699503526987678,
          0.0886870523097511,
          0.19190488722857243,
          -0.7238544306860175,
          -0.43767884463039497,
          -0.1939207605159305,
          0.31089194538942194,
          -0.17328946650039337,
          -0.10221272533109582,
          -0.060211492228592615,
          0.3240161536055494,
          0.19473489374904776,
          0.3401600467185688,
          -0.13137312617363076,
          0.3277091937581278,
          -0.11146759778429487,
          0.16200403354343787,
          0.49197588893140787,
          -0.21177264182083505,
          -0.11097870390407087,
          -0.34798600209688424,
          0.6756819241954783,
          0.1544604109264614,
          0.48270445267307543,
          0.04020890463809053
        ],
        [
          -0.23828635800150663,
          0.1622221389801972,
          -0.04387637959596509,
          0.6221957665333584,
          -0.08329127763847749,
          0.3530980272934697,
          0.2881078622095156,
          -0.2613204581398349,
          -0.34182284429430865,
          -0.22960790751538607,
          -0.22271707372619767,
          0.23420683109249169,
          -0.19004996883703934,
          0.44004877987063473,
          0.018660577102475668,
          -0.07830776429243883,
          0.18625972220596793,
          -0.2550211427569279,
          -0.5018201726300578,
          0.27102775101449045,
          0.15477736677843434,
          0.2920133602008221,
          0.06542587844457676,
          -0.08957708731256621,
          -0.7166577589287301,
          0.64068381391973,
          0.42808319418675733,
          -0.7519041494655676,
          0.18199980290422313,
          -0.24411412836726834,
          0.18023119879240665
        ],
        [
          0.001723199223377118,
          0.14540150099353108,
          -0.103720812293924,
          0.31006987233660815,
          0.35107384112009454,
          -0.33005990161454135,
          0.07154506038774003,
          -0.22753735066953434,
          0.21099205509310692,
          -0.164930568298556,
          0.2187984785487826,
          -0.40115274664555167,
          -0.01803598349606442,
          -0.11695343335886545,
          0.0786570495298819,
          0.008125367904469102,
          0.16674535476166605,
          0.059395056807745775,
          -0.1434051569986868,
          -0.30820742100884957,
          0.39619496059650355,
          0.06874759008423831,
          -0.35008210513549876,
          0.06149518843611743,
          0.08596261572090344,
          0.023628425141007495,
          -0.15546787813300786,
          0.1496133615473891,
          0.03806375758853388,
          -0.11078010969387105,
          -0.18464767033923887
        ],
        [
          0.2719656950684347,
          -0.31021893768438175,
          -0.3187233477144953,
          0.16601708991970754,
          0.09114017895292824,
          0.11995439840994704,
          0.3025798028581104,
          -0.10757095143086906,
          0.15839733559873237,
          -0.3086048465549855,
          0.0209627677150596,
          -0.26324507422513377,
          -0.2146366130275286,
          -0.1330085565610735,
          -0.30882535407527323,
          -0.1215771626452488,
          0.28143521276463723,
          0.2672906790651869,
          -0.2651125575965158,
          0.2006182618708883,
          0.195655575394307,
          -0.30178456855815433,
          -0.2817266142214851,
          0.3250517494178105,
          -0.1221697642817112,
          0.12389703252933344,
          -0.29650466606332104,
          0.009548693549475495,
          0.1824944850603392,
          0.33897582969110657,
          -0.11994981000336183
        ],
        [
          -0.1591901641331963,
          -0.13109910492907753,
          -0.007826920681250857,
          -0.2847833940550708,
          -0.16251873650108195,
          -0.011753194422573863,
          -0.26890897382238077,
          0.3081515751157987,
          -0.16365355354756445,
          -0.16548755352528496,
          0.2857891397907226,
          -0.11998986467423033,
          -0.09369097250598038,
          0.29614103529295605,
          0.11061335280127081,
          0.29054188001847253,
          0.19153305375238103,
          0.1667362294624316,
          -0.3030357379355897,
          -0.04306541133265418,
          -0.2928405833048107,
          0.08900165717840418,
          -0.14475670673949304,
          -0.22951989781871576,
          -0.21326294370499566,
          0.17065448004245584,
          -0.09443157938220823,
          0.0239936767625862,
          -0.20349497009716314,
          -0.324080358444414,
          0.16517950690940728
        ],
        [
          0.171388691430353,
          -0.6153615434851221,
          -0.05949198689032001,
          0.04031686416639438,
          -0.0518643401755578,
          0.3915621026044551,
          -0.35314536497711935,
          -0.25136676529181,
          0.5793345323428468,
          0.2096558500170714,
          0.2041200043579288,
          0.4528224409789757,
          -0.37830136633611566,
          0.258796847103876,
          -0.21008321579529673,
          0.33243819577380956,
          -0.21262572148246084,
          -0.1454507427901734,
          -0.036451186867005145,
          0.09798063194232504,
          0.3375486397234408,
          -0.08642079405216706,
          0.3344055244058012,
          -0.23647408641613968,
          -0.014916314569919974,
          -0.45227817815203714,
          0.06237605250565127,
          0.5072647843794632,
          0.10243378654849725,
          -0.015491172052826525,
          -0.5231555577102937
        ],
        [
          -0.003274230388259903,
          -0.23378319304930717,
          0.2744969671979823,
          -0.5192650429342486,
          0.10244480294788068,
          -0.39072568841032906,
          0.010662004256320431,
          0.4815587600278223,
          -0.1982567230006189,
          0.0032262481063892725,
          0.10906675558242582,
          -0.13008254168292185,
          0.4193624152195731,
          -0.49880933612125133,
          0.07605523781995706,
          -0.027273564301702434,
          -0.2911270585192588,
          0.05968882751604163,
          0.2115692879129557,
          -0.06120398647803421,
          -0.4694558332443045,
          -0.0347602776123807,
          -0.3138890745934341,
          -0.23989664573853406,
          0.4464641172551253,
          -0.037041961481193805,
          0.04811245573993197,
          0.2567205116029758,
          -0.6869802895058044,
          -0.17265222793749754,
          0.1150339694217187
        ],
        [
          0.0031468390164702794,
          0.05287820529595395,
          0.1328493019462879,
          -0.36732817676059953,
          0.37618741885689144,
          -0.46286844019611706,
          0.05156473207553032,
          -0.11711029906314481,
          0.42162493478892316,
          0.029222887005087784,
          -0.07839543997331942,
          -0.36053902161582396,
          0.2914313190717498,
          0.06598021511601067,
          -0.2813639018867566,
          0.45123946066117177,
          0.007296246056876289,
          0.3436576407965695,
          -0.4022159145151092,
          0.008795021717031481,
          -0.027271626838274485,
          0.058984228517799844,
          0.11358220616324922,
          0.051301179152334744,
          0.16267007097187997,
          -0.3650462499213175,
          0.22745233480910645,
          0.3105809147963888,
          0.3291432055784388,
          0.2813798579863855,
          -0.07005133447179614
        ],
        [
          0.6454854304378697,
          -0.3701753355422285,
          0.003984244141529267,
          0.06464840013604495,
          0.02054967472290571,
          -0.046821614578818456,
          0.07117637530355646,
          0.3826662961291896,
          0.08082821436631128,
          0.18489589398176653,
          -0.10959221400109487,
          -0.3927999343196228,
          0.453547592939524,
          -0.010225861090241465,
          -0.08061322402742538,
          -0.1992325050037231,
          -0.3647502416921809,
          0.11181127113432977,
          0.11541419656671134,
          -0.33144558493755594,
          -0.42007312429559196,
          -0.21399705730497331,
          -0.2752978565303681,
          -0.3571833556605556,
          0.6917909683967903,
          -0.38091164823589074,
          -0.2488304040963943,
          0.34747872431245924,
          -0.3218626235621681,
          -0.11090137257196499,
          0.035440204935343916
        ],
        [
          0.49725048266010197,
          0.24420095959243027,
          -0.04216472865519668,
          -0.42226872824224254,
          0.6024762351424663,
          -0.0729491914311086,
          0.4657249832896818,
          0.24824723890974168,
          0.027349364041690073,
          -0.6550750831313994,
          -0.1224250697885802,
          -0.07888266085521704,
          -0.12758404728169412,
          -0.36537546279748995,
          -0.3928944335240623,
          0.44374115718161694,
          -0.6822435150056275,
          -0.2612106508919187,
          0.22278451414323303,
          0.3838009623890324,
          -0.04247965135617224,
          0.16472255669892547,
          0.513546057526025,
          0.3255078153406385,
          -0.45745345458789366,
          -0.022628120309010683,
          0.17728534152646988,
          -0.31735115205409203,
          0.09738425170468863,
          0.12823348392532322,
          -0.018563696890531545
        ],
        [
          -0.04381806240646132,
          -0.23325022834733394,
          -0.21548440662868865,
          0.30846037580382996,
          -0.3782170180442505,
          0.042731929896375455,
          -0.18525116878056488,
          -0.2369391717245796,
          -0.054076257122282534,
          0.3584214537975126,
          0.3846471139873207,
          -0.5345068615858299,
          -0.5077673185022542,
          -0.22955951179363554,
          0.12178710521728292,
          -0.25840929369644006,
          -0.31021356675076966,
          -0.13026800718617934,
          -0.3920831436982549,
          0.10410252254913975,
          -0.4712720646932328,
          0.27779010241097696,
          -0.00708254341286619,
          -0.28077498402485923,
          0.5402339210450428,
          -0.45503313334677514,
          0.07692307594364742,
          0.5433834636466788,
          -0.5358105278184564,
          -0.003004979646942755,
          0.17980597382552319
        ],
        [
          -0.014501383562815943,
          -0.4085896767505641,
          -0.15655395948176112,
          0.08383832571211931,
          -0.352094773836967,
          0.10373757344775218,
          0.23339525618665502,
          0.14434144338474955,
          -0.4102856856118531,
          0.7601207541077536,
          0.38362524508353113,
          0.2989406947116346,
          -0.237342593608662,
          -0.3944593726532957,
          0.2565209771597972,
          -0.08827415484642269,
          -0.30090395804946474,
          -0.3162369873977234,
          0.006851303468261789,
          0.24393837710802702,
          -0.5859428358578481,
          0.2760321501888974,
          -0.5383345957979928,
          -0.5712181740324997,
          0.15273325064825463,
          0.23992351215480326,
          0.07493799610713271,
          -0.4117897506528656,
          -0.537916828250865,
          -0.6503109528700578,
          -0.06254639826496096
        ],
        [
          -0.14174878517680126,
          0.09829173275895844,
          0.24368280260580782,
          0.1868202356675838,
          0.09191450907493767,
          -0.09024503399138335,
          -0.13121746815194643,
          0.050928057244311396,
          0.22537677833120456,
          0.17694265329662526,
          0.07253047282490996,
          -0.18773656737462163,
          -0.3089993061444205,
          -0.1208537117938338,
          -0.022738841632597054,
          -0.17822939220718084,
          -0.32055336452510125,
          0.10526429679246081,
          0.07022919373385496,
          -0.3205925513630775,
          0.11365033326694843,
          -0.2721396845359558,
          0.3006631224015265,
          0.14207594196816165,
          0.20779104053331107,
          0.06086837208961414,
          -0.004048208682419943,
          0.1091142813525969,
          0.021913735505062145,
          0.19418387055103106,
          0.1864160338893763
        ],
        [
          0.2559822204464328,
          0.24886264329056781,
          -0.2255251170704357,
          -0.4350996557675444,
          0.1930692626464601,
          0.14981534598216759,
          0.0806360810947741,
          0.21061708165315265,
          0.060376905429435926,
          -0.19856584294241672,
          0.259109871657582,
          -0.45398453739099665,
          -0.1984647889081119,
          -0.07727002720211903,
          0.08227415108246183,
          0.23241226672893936,
          -0.3203152248878174,
          0.17973164193008165,
          0.7659390880663502,
          0.05035619201678518,
          -0.15246830995932112,
          0.2571413185139312,
          0.2472254495354356,
          0.22740101690456965,
          -0.3190733249952097,
          -0.21719545865455264,
          -0.1786915189803963,
          0.4097880195275114,
          0.25987293606853007,
          0.4358920780563708,
          -0.15914997299407693
        ],
        [
          0.13138330543116117,
          0.1459570241723707,
          -0.1634387651550699,
          0.01703230126573178,
          -0.5917866930636807,
          0.28165778319805207,
          -0.17134540697144537,
          -0.04504018939542449,
          0.3984515589848902,
          0.01862015325273143,
          -0.035076167969544395,
          0.3696714841763815,
          -0.503292034527804,
          0.1882078900067543,
          -0.14553251672770193,
          -0.1943055492914099,
          0.2619741961176343,
          0.047685590846662684,
          -0.3592028639071365,
          0.27895389148808253,
          0.5974959535463797,
          0.4312564288790434,
          0.4586309174824877,
          0.08853024883658189,
          -0.7518539808756732,
          -0.21886896946619072,
          0.47775139582433246,
          0.3426775061239775,
          -0.24325190950832137,
          0.5626219421211142,
          -0.1909996421676018
        ],
        [
          -0.26467207898890166,
          0.433645817369793,
          0.46176826987830816,
          0.04519227191061683,
          0.38755489018499917,
          0.19999435415074843,
          -0.20941552306533343,
          0.13519724299213146,
          0.09387577481338741,
          -0.48589915609445294,
          -0.6438686644056987,
          0.06765961945698276,
          0.3177027170355049,
          0.1710993193150236,
          -0.19439547466463972,
          0.588050916116539,
          0.046806199586084604,
          -0.23186547902869878,
          0.12640603014010168,
          0.06404011091238757,
          0.38223916967571303,
          -0.035379069147834535,
          0.38896335743146093,
          0.03171986461846697,
          -0.4185135387416027,
          0.7142456033972749,
          0.2495751538812898,
          -0.6348958771813838,
          1.3412096269712075,
          -0.0724149921959204,
          -0.18233353382195638
        ],
        [
          0.21472555850334063,
          0.2045210436363969,
          -0.12260621128156454,
          -0.09790304026251241,
          0.25555850245264283,
          -0.03925500969255887,
          -0.2275560353601271,
          0.21172774167156422,
          -0.04490069448491885,
          -0.28816928316557733,
          0.06145416707329081,
          0.30088356584373177,
          0.30965220941856225,
          -0.04993273750078696,
          -0.1896320989791431,
          0.11606219250881,
          -0.04760876313439158,
          0.24473177892802217,
          -0.19956484725634444,
          -0.04206605712573646,
          -0.22588374661921456,
          0.07196366607396938,
          -0.25953777257535493,
          -0.0793087755513857,
          -0.1330844092141081,
          -0.0030032880255229295,
          0.2864723500889484,
          -0.31225517559624305,
          0.1516360628656209,
          -0.2877046484942418,
          0.0023328637710431518
        ],
        [
          0.10594634997900154,
          0.47728012632489636,
          -0.10919694527505681,
          0.06442427685656178,
          0.6428070478338296,
          -0.2664216576461983,
          0.30967884132098444,
          0.15265322404847842,
          0.004560648046803428,
          -0.38809208808870604,
          -0.07529301183871084,
          -0.4059672603194428,
          -0.0760053436268649,
          0.14760312794076838,
          -0.45826048715119366,
          0.4026841759322464,
          -0.12078761205865457,
          0.3984690863259854,
          -0.04211350202158921,
          0.14518316693850375,
          0.3640164844895661,
          -0.09251955739305115,
          0.2454967300163019,
          0.46924549975393726,
          -0.3570637183560158,
          -0.022666781827590552,
          0.046487292727771655,
          -0.032412763008312175,
          0.3739792371305522,
          0.6018280707139397,
          -0.19451053530647058
        ],
        [
          0.2831854632889423,
          -0.22401134595387132,
          -0.00961648501796923,
          0.2724560920017015,
          -0.29877009989157155,
          -0.09066995239716281,
          -0.1296908787261356,
          -0.30642739160162064,
          0.006566875863240171,
          0.26245849742016647,
          0.018146671643535423,
          0.4514962004426319,
          -0.29928713408545143,
          0.0927008092402138,
          0.14174945051674936,
          -0.5778624344047317,
          0.47368287278836263,
          0.10271868104395325,
          -0.2669466942215424,
          -0.3596672241602061,
          -0.18994981715577905,
          -0.25163264292381066,
          -0.24980447843472153,
          0.3728304595041524,
          0.4420913866271877,
          -0.5329395723261006,
          -0.24143768217711328,
          -0.5209884194369288,
          -0.260757008790432,
          -0.03513059257950609,
          0.26105482157387183
        ],
        [
          -0.27692195001409325,
          0.22307438599565602,
          -0.3084390784488341,
          -0.12305063336482534,
          0.16263702614172268,
          0.028058161069245798,
          0.47420825886534296,
          0.4149267205824245,
          -0.7525153989616027,
          0.2859940141066975,
          -0.02711397737173697,
          0.049482891697070555,
          -0.5463889886665595,
          -0.4120360751675445,
          -0.05883721506710625,
          -0.030807704092203788,
          -0.4575216482342062,
          -0.11037459000461787,
          0.1632264529355939,
          0.4554085637472355,
          -0.22411138331268715,
          -0.04108657308074156,
          -0.4651226614970497,
          -0.04317402831428022,
          0.1031770639407174,
          -0.01354046561328087,
          -0.21603655556904797,
          0.11786883420252119,
          -0.992873771076457,
          0.022948949853426055,
          -0.17234084467356542
        ]
      ]
    }
  ]
}
