{
  "layers": [
    {
      "activation": 2,
      "biases": [
        0.08414884337380568,
        0.31331751812915243,
        1.690492768074468e-05,
        -0.006732803302441799,
        -0.23018660114870942,
        0.2753657582673458,
        -0.008248186930364016,
        -0.0008161793238074867,
        0.40909777864311236
      ],
      "cols": 9,
      "rows": 3,
      "weights": [
        [
          -0.7964992323380898,
          0.8187581978621826,
          1.2903464203600994,
          1.103208673503115,
          0.5879023558877496,
          -0.9346266520719297,
          -0.09396346685028302,
          1.1980817914682786,
          -0.9424606384269084
        ],
        [
          0.5247430867204883,
          -1.10021073968579,
          -0.8482790100982205,
          1.2507879638536235,
          1.24630743224147,
          0.23199489186455816,
          0.38810063847324294,
          -0.4180275412923653,
          0.6760481531533521
        ],
        [
          1.3884053830416632,
          0.7501582629985347,
          0.9585436938207018,
          -1.2813431379637357,
          0.20412029598385303,
          0.6265414594865494,
          -0.39615791349220686,
          -0.9941559935665001,
          0.5180194962871942
        ]
      ]
    },
    {
      "activation": 2,
      "biases": [
        0.008731510428484312,
        -0.2137896476140993,
        0.1529397735462021,
        0.42829578854845485,
        0.09987195178619257,
        1.0047515075320406,
        0.002650109431688244,
        -0.007207109719880394,
        -0.0570764533998458,
        0.06664358270084596,
        0.19228697653513638,
        -0.17277675355610136,
        -0.16112489448505074,
        0.025896851817951635,
        -0.13008983332985494
      ],
      "cols": 15,
      "rows": 9,
      "weights": [
        [
          0.6494604129370929,
          -0.28019408066140133,
          0.5929491020718964,
          0.7689598650425918,
          -0.4771703322930363,
          -0.44510117395328097,
          -0.29414340053265625,
          0.06542800504317113,
          0.2040376264889174,
          -0.3184600338140583,
          -0.4349606348629024,
          0.7641777439710551,
          0.07895066227508221,
          -0.5159624683042997,
          0.8304907920980312
        ],
        [
          -0.27917199290948697,
          0.6404143615926373,
          -0.6578544293603906,
          0.6812005521475168,
          -0.4885959544863597,
          -0.026662176153022486,
          -0.45647401697343354,
          -0.10585952205856308,
          0.5147374477338169,
          0.11624910864034857,
          -0.04348492307342254,
          -0.46786413359178564,
          0.24444409491663163,
          -0.5687230538237705,
          -0.07867809857706048
        ],
        [
          0.04380588531303853,
          0.6664551880913702,
          -0.7303529195117167,
          0.46170867711999525,
          0.42722776817678293,
          -0.6008497765895148,
          0.1549922543777137,
          -0.180987238269759,
          0.8300827988304368,
          0.06653742888863967,
          0.4835899574619661,
          -0.2044803976108039,
          0.8263510103186561,
          -0.6079520688801247,
          0.031327923939775654
        ],
        [
          0.30314239599773146,
          -0.5510941133955674,
          -0.14081693804768897,
          -0.1801247330276419,
          1.0624628630251252,
          -0.5189854892276818,
          -0.4383391596614778,
          0.1425336163127689,
          0.5662734559054348,
          0.26412537147094045,
          0.7971804025699106,
          -0.5726109408616386,
          -0.16634556631206385,
          1.20335995713223,
          0.6298034650310811
        ],
        [
          -0.4191291122181921,
          0.09465423010687633,
          0.48880646256208277,
          0.027475006029243597,
          0.8585838807060746,
          0.3205649654118691,
          -0.22141287759907755,
          -0.1998401042774326,
          0.1285290915576926,
          -0.43750679803781917,
          -0.3100209184191341,
          0.06620539974446508,
          -0.7173392088102917,
          0.31764518164490824,
          -0.8108783604733848
        ],
        [
          0.2612428494718372,
          0.0882929611661333,
          0.28195413022259624,
          0.4737019569203801,
          0.0014800592548644288,
          0.3946306331410373,
          -0.1771690634438624,
          -0.39049281454202384,
          -0.10294913688257036,
          -0.3865595268070991,
          -0.13461338220930585,
          0.32316903471107655,
          0.6044384107941223,
          0.2531179718150474,
          0.8040519923213106
        ],
        [
          0.06100850498652326,
          0.10830334229781446,
          -0.26702305838650287,
          -0.44022631121311,
          -0.18030596780661792,
          -0.4389242710600117,
          0.3196448915430515,
          -0.015231561801347403,
          -0.48085075199387217,
          -0.17123320019836322,
          0.3768944746633652,
          -0.3474605694765511,
          0.1680992084884476,
          -0.013471738680728677,
          0.1643800129799169
        ],
        [
          0.8250955736780162,
          0.28787409829382793,
          -0.3453619259821452,
          -0.2789356918592599,
          0.32262106893292297,
          -0.20536159711348645,
          -0.3114076957143346,
          -0.020469006393323164,
          0.3752086915894515,
          0.06427004919198556,
          0.9135388581401321,
          0.22270009150084483,
          -0.6507694753924033,
          0.0481416662505394,
          0.27257482179071285
        ],
        [
          -0.09714457677646708,
          -0.8575753204127667,
          0.3778797640495185,
          0.37693089716995043,
          0.2007979228587999,
          0.3280754544428878,
          0.26925532406298197,
          -0.025059552923592777,
          -0.6362211472148834,
          -0.24522530635094278,
          -0.6467818237286402,
          0.4095200156876452,
          0.02046562802153563,
          0.24242994694119283,
          0.5796641505475649
        ]
      ]
    },
    {
      "activation": 2,
      "biases": [
        0.30892817881763,
        -0.25937764174006706,
        -0.03574518663560684,
        -0.4751246877408392,
        0.09601616499039016,
        0.2209159311680203,
        -0.2337026780819048,
        -0.16763059668572325,
        -0.19415993346451765,
        -0.3902367009763538,
        0.4307293498014503,
        0.31774516285920823,
        1.125875987794742,
        -0.050199453486086364,
        -0.11804630865048617,
        0.0073011882567605435,
        -0.17876956454564685,
        -0.27633255563702896,
        -0.09942252654825974,
        0.2801084091541055,
        0.12743172540427108
      ],
      "cols": 21,
      "rows": 15,
      "weights": [
        [
          0.03429647563197386,
          0.1824332173118591,
          -0.3449113345268576,
          0.42126366419340994,
          -0.23840751727785692,
          0.04133207267634101,
          0.286394575233788,
          0.31726517227210854,
          -0.154141758299839,
          -0.3679909576420232,
          0.07244252152175015,
          0.48294818529858,
          -0.4846767723154001,
          -0.3573697218714662,
          0.01994404378323632,
          -0.0973744846658413,
          0.489407948178416,
          0.14128908668965182,
          0.39270334721340805,
          0.37381380002931297,
          -0.15137767964908186
        ],
        [
          -0.3665201529252364,
          -0.2958124033743454,
          0.36501294686786634,
          0.018664691188353497,
          -0.5322542009342318,
          0.02466021843974116,
          0.008794327571297215,
          0.23567185039835906,
          -0.3047709561883396,
          0.6969802809331717,
          -0.3926260800386124,
          0.27188608364399347,
          -0.01610837040285787,
          0.6598250579467246,
          -0.2378784282328906,
          -0.4530015930049578,
          -0.2681083458322813,
          -0.3467871999530889,
          0.2154686442843926,
          0.48782631348228667,
          -0.3822640218796272
        ],
        [
          0.3712784665244162,
          -0.2665185511134486,
          0.16534837324542567,
          0.30235925562594285,
          -0.35094354374873504,
          0.23837189815048543,
          -0.16884645141103177,
          0.08958885283721625,
          0.5768832990911795,
          0.10736227153315467,
          0.02160435360526279,
          0.4578033386310457,
          0.14981629912135386,
          0.7653304541416515,
          0.08204656415524415,
          0.03453899966639572,
          -0.4057381523282144,
          0.4515736954780311,
          -0.02563834970101245,
          -0.08525745531919467,
          -0.43464592819075737
        ],
        [
          -0.25639193901024077,
          -0.2670251175966494,
          -0.34852892263406954,
          0.17109912257490434,
          -0.6956635373287047,
          0.17249024928566356,
          0.42815899299238164,
          0.11752193006926108,
          -0.07315387970081978,
          0.5686022270626181,
          -0.22176594125156487,
          0.02402241039126991,
          0.8807056751446326,
          0.22766154845270123,
          0.2757992471019099,
          0.13317957757960713,
          0.46125548857320786,
          0.44879531736009604,
          -0.16258419838573115,
          -0.4394811984259685,
          0.3085134975948822
        ],
        [
          0.7739743964512729,
          -0.0681676040724117,
          -0.15434140185657627,
          0.19400224803370456,
          0.5262383858883086,
          0.10960573900477079,
          0.28148927598039325,
          -0.10494407756528447,
          0.14307178943408627,
          -0.8010652412960394,
          -0.2571983707491777,
          -0.39407414839009564,
          -0.681965149777623,
          -0.10159458870970373,
          0.025022294664672734,
          0.3738364466646412,
          0.47557850802581725,
          -0.13167210740045968,
          -0.3013795049367235,
          0.05694888424567224,
          -0.3885887346874606
        ],
        [
          0.3198075213750788,
          0.34522933225686014,
          -0.006303396091484193,
          0.23004747615686588,
          -0.47648994268913625,
          0.4399859102867795,
          -0.13036452233229917,
          -0.3280897043009765,
          0.12134200452129533,
          -0.2590959711437329,
          0.10800224071458024,
          0.6919040330904644,
          0.8389112236210535,
          0.3924251719423701,
          -0.30855894579183146,
          -0.2480603165949388,
          -0.15462642936449755,
          -0.47858433240496534,
          -0.23489044392549366,
          0.2337865766111381,
          -0.048024662321553196
        ],
        [
          -0.3390502734177918,
          0.2606197972574154,
          0.20337741102917917,
          0.06973464084343016,
          0.20108853997166326,
          -0.3207873208147317,
          0.32209574207000224,
          0.19242327918105978,
          -0.04192541668235092,
          0.1441670261609873,
          0.26686060130779277,
          -0.3466061624769229,
          0.2500953886808894,
          0.11159106809830652,
          0.10541534851131915,
          0.2966036960897843,
          0.16656563714633082,
          0.10761192312110594,
          -0.043616269100019374,
          -0.09256607390183245,
          0.2560122045327348
        ],
        [
          -0.2254689571156486,
          -0.2671863432650609,
          0.30945940395336785,
          0.3575013122006358,
          -0.07239458361531617,
          0.12879816455277987,
          0.08203970479247037,
          0.2316058197540862,
          -0.24457504124259796,
          -0.1562744645327926,
          0.3723742828302612,
          -0.3339810954442734,
          0.34759053101158993,
          0.018438274670875936,
          -0.21032721320417958,
          -0.20816413976998796,
          -0.30605316849004044,
          0.21458838873145084,
          0.1553051990144588,
          -0.18989803156152565,
          0.3457254424309818
        ],
        [
          -0.03114611510905382,
          0.13656405033418675,
          -0.015372905906682029,
          0.13345964265565965,
          -0.04191203788853608,
          -0.5690121529206162,
          -0.04164713280517106,
          -0.12009840149818371,
          -0.5358494168534601,
          0.39730797822681896,
          -0.03453859789801707,
          0.0850619182984843,
          -0.07301666146149252,
          0.6424334607799392,
          -0.37342467798434237,
          0.21830883980407645,
          0.5936591139689419,
          0.2247848739694721,
          -0.31167721459779435,
          0.0765349794510897,
          -0.37271635271443104
        ],
        [
          -0.14945662565297493,
          0.35345642799002,
          0.1700824629348044,
          -0.0016871440560335595,
          -0.2233620412310716,
          -0.22217745620098836,
          -0.2630531169048508,
          -0.41458440057591645,
          0.17560366401255448,
          -0.3201091755398044,
          -0.18296031057657236,
          -0.25965847857065305,
          0.16891901318981142,
          0.08901723374172307,
          0.10488434414186668,
          -0.20408684088253107,
          0.221796131848855,
          0.10340663724697281,
          0.17377591584617175,
          -0.0778205567834211,
          -0.03246751328341936
        ],
        [
          -0.44908904851498316,
          0.07237653443704321,
          0.011599004238668012,
          0.18114116808600653,
          0.4157489699929782,
          -0.5578304704967062,
          -0.48492723362978424,
          0.1404963223726042,
          0.2240869158259298,
          0.3856689441528225,
          0.27010244677192957,
          0.351443825083685,
          -0.40493464788009265,
          -0.13895309912584033,
          -0.13653416593454537,
          -0.2117089644531155,
          0.37150571580559505,
          -0.2520504540282744,
          0.2846904027358806,
          0.8530507856872515,
          -0.26162682139964977
        ],
        [
          0.1072928354586925,
          -0.2513457151369302,
          0.010231265784762059,
          0.44618204360194436,
          -0.12365268663530732,
          -0.18977067998199368,
          -0.01713446126354398,
          0.4507534930834696,
          0.3861370623145427,
          0.3242906568224075,
          -0.2347006169033882,
          0.6931985450011741,
          -0.31198800207420063,
          0.17499700748312322,
          -0.2781579250992711,
          -0.3453363353894825,
          -0.13935371899600882,
          0.4273816203047906,
          0.11984139294413589,
          0.2741662380760447,
          0.3271419996381448
        ],
        [
          0.011451558571656563,
          0.18296378955971843,
          -0.3237815664302075,
          -0.019989529190581678,
          0.11686860029686463,
          0.4584613854159585,
          0.12958872527960355,
          0.6541456774363923,
          -0.09354172933647782,
          0.7565621946417345,
          -0.2891291138858388,
          -0.5441702999941471,
          -0.08831606249392696,
          -0.2195570620199203,
          0.5009415383374684,
          -0.18444995571152642,
          0.042815448481043794,
          -0.20670929668264706,
          -0.2328636654734566,
          0.29917763438819817,
          0.3158252622230402
        ],
        [
          0.38119604127892326,
          -0.008390605507813323,
          -0.11268175766941033,
          0.1597310033050817,
          0.7786105198078778,
          0.46590302151724394,
          0.36571448060359585,
          0.6176962157904877,
          0.011617702212304442,
          -0.1382689911835284,
          -0.2249440138494944,
          -0.5644254058758835,
          -0.7001749789952109,
          0.29164456071092126,
          0.2331704816761507,
          -0.28932661366324486,
          -0.492284464501412,
          -0.49831664584880864,
          0.08503559294211153,
          0.21021159956535138,
          -0.15688058885270062
        ],
        [
          0.180270990273354,
          -0.002161181151913895,
          -0.38672997838234846,
          -0.11829090962699429,
          -0.3824934881724391,
          0.6893393350541731,
          0.28214276600543026,
          0.19751087290193323,
          0.27681181749931066,
          0.09379507336805577,
          0.15961178971892556,
          0.06815295547069138,
          -0.06836910627295444,
          -0.4170444915883546,
          0.6524249773174825,
          -0.11386208606672046,
          0.573694867295291,
          0.8309292215032558,
          0.1443968950319967,
          0.4231267428966312,
          0.048669509444576105
        ]
      ]
    },
    {
      "activation": 1,
      "biases": [
        0.05338776006938101,
        -0.8325136307938121,
        0.14076883597553932,
        -0.30460602244757273,
        -0.4742639141639203,
        -0.4703237865894498,
        -0.6886213655771082,
        0.47652866930954446,
        0.2823155250668443,
        0.2880000591704756,
        0.4103350817053631,
        -0.3969483183786852,
        -0.16815080057326037,
        0.42982902620851504,
        -0.20224713462735502,
        1.0416907018467259,
        0.027736299331840655,
        -0.2232968241474557,
        -0.32395878472522427,
        -0.2344318616579323,
        -0.5030793909233084,
        0.031338246349658996,
        -0.4146050229976348,
        0.011797728851437653,
        0.17764848114193524,
        -0.061040246021551156,
        0.6853748925283948,
        0.18756346556568113,
        -0.4935890289344816,
        -1.0769543603368286,
        0.44028781467374495
      ],
      "cols": 31,
      "rows": 21,
      "weights": [
        [
          0.10083998647013145,
          -0.013788743881934174,
          0.058043780741160046,
          -0.6093067948758569,
          0.11203947044396692,
          -0.19744418451216206,
          0.10216788272952326,
          -0.18988040181233898,
          0.16267457878713476,
          0.07608801831288695,
          0.4126781577367658,
          -0.042708972094023134,
          0.7486427046437589,
          0.19634244304433257,
          0.1710683765706533,
          0.36684241542144147,
          -0.08975227024702864,
          0.07154227420936249,
          0.4992024562688461,
          0.1923947710044516,
          -0.20363632317562877,
          0.4335954407435814,
          -0.13346410425040575,
          0.4533730279452854,
          -0.01988789698172121,
          -0.3917517880704435,
          0.3899205144129964,
          0.037945833710839066,
          -0.05175828651876711,
          -0.1677350096819984,
          0.1158076428506796
        ],
        [
          -0.15717070208663275,
          0.12563075599560974,
          -0.24491904397484485,
          -0.2796604633457129,
          0.034133251109033896,
          -0.3107808318407452,
          0.15789510636507223,
          0.05114800525647774,
          0.029198446062921678,
          0.2974507469567885,
          0.20626118927048143,
          0.10314394920748086,
          0.30134669224355776,
          0.07784618865353116,
          0.31502111642058767,
          -0.25284986398732473,
          -0.03236410500912102,
          0.3189301938645752,
          0.3402022440892639,
          -0.030258842828155105,
          -0.13837642397861433,
          -0.2965001502427952,
          -0.25184515302258786,
          -0.3353198905669618,
          0.15609325877401678,
          -0.049309255623893565,
          0.22930518686663542,
          0.3211369336499402,
          -0.08310166755958188,
          0.03587897496759718,
          -0.3161983241229319
        ],
        [
          0.22748950490671255,
          0.22737264647972794,
          -0.18569292722743458,
          -0.0006503010652909986,
          0.21946606674934868,
          0.02754988374306829,
          -0.1573719480884872,
          -0.11516587556596761,
          0.10227756695607816,
          -0.11248202429165663,
          -0.2673073842287995,
          0.24966302791850792,
          -0.28587811604022334,
          0.1773759993076944,
          -0.24743127360602984,
          -0.292596518271641,
          0.065663405833582,
          -0.2776606727455191,
          -0.11700335078985696,
          -0.32952750855412516,
          -0.2884343794770649,
          0.03717819642605307,
          0.1913766532783896,
          -0.22226851319831295,
          -0.2122088961864083,
          0.1318202793672807,
          -0.31304584374096905,
          0.23350151702897975,
          0.3113674904838943,
          0.2752039790596566,
          -0.14923503674880773
        ],
        [
          0.43349225220736404,
          0.2758626516263444,
          0.17495291692969142,
          -0.11629041812199653,
          -0.1284917743277379,
          0.2060593135346902,
          0.15488455546272537,
          0.26377822841444504,
          0.1985531726289398,
          0.12470975219618263,
          0.06052175120839128,
          -0.027283358383144694,
          -0.13441395124654323,
          0.00733589015344685,
          0.032765327709333936,
          -0.38940943476647494,
          0.10746312294663796,
          -0.24921265600263273,
          0.24522286770496113,
          0.2021476401694476,
          0.21226398018127127,
          -0.13416354884271042,
          0.42936230255445695,
          -0.11246784545533599,
          0.20552440376513773,
          0.1438783123446582,
          -0.5151636465235582,
          0.04333862868331273,
          -0.0011443197798108786,
          0.05105205106568101,
          0.09707023338968253
        ],
        [
          -0.25544446763005735,
          -0.5779934482812789,
          0.20823441439785645,
          0.2573217963986434,
          0.24311672420796554,
          0.4032919708970036,
          0.06371650805994855,
          -0.6477994291404908,
          -0.0185792482465552,
          -0.37271287947960297,
          -0.17344058035921875,
          0.1679795689767076,
          0.5247312384197342,
          -0.3409469263258289,
          -0.5329174295532637,
          -0.4398158865544084,
          0.13741511801095335,
          -0.1896262786009338,
          0.5960033200701521,
          0.27806819885925854,
          -0.3754755613661992,
          0.053739236409483276,
          0.11577299435507415,
          0.055987079684326306,
          -0.263059965899768,
          0.023514591718675936,
          -0.0018540771694858498,
          0.13858582212585907,
          -0.08528622566082439,
          -0.15862008471103864,
          -0.13264545377927736
        ],
        [
          -0.15958651090134457,
          0.29807774462555786,
          -0.019645765651757956,
          -0.33914679310460577,
          -0.46587381746449685,
          -0.15707244788782282,
          -0.42047049465774977,
          -0.3406759412593938,
          0.11459258609063545,
          -0.04897147259922216,
          -0.182351216846031,
          0.1697890236276741,
          -0.14376263149106033,
          0.312550771540978,
          0.10873639602279148,
          0.19015504416639148,
          -0.26191766278790274,
          0.19842337348458147,
          -0.44575018872026745,
          -0.48433031438937524,
          0.37161367076446306,
          0.02649260905997887,
          -0.5735438524422646,
          -0.2720179241606957,
          0.09626643758797483,
          0.16720677751360216,
          0.03552758467172463,
          0.26791438781118093,
          -0.08717344349000655,
          -0.2610188084838981,
          -0.35520032321862327
        ],
        [
          0.019278736762309998,
          0.047056796762141556,
          0.25603396657061683,
          0.31031674986374896,
          -0.1308881188528584,
          -0.09457421403071194,
          0.34365782028633984,
          -0.03106588336130918,
          -0.2706781892886371,
          -0.33277475737394585,
          -0.02332937204447833,
          -0.17730812378193228,
          0.2322287826305818,
          0.055941091201563625,
          -0.24876045488753737,
          -0.23138555881184275,
          -0.1909114942325524,
          -0.11243447602237118,
          0.19164909726043336,
          0.3977743007249125,
          0.09375404371671364,
          0.02329198285483624,
          -0.40805079107723075,
          -0.059535717300329846,
          -0.19771664784926762,
          0.210266283896199,
          0.6047761257678946,
          0.2551957341396839,
          0.276908646369407,
          -0.1224451108704378,
          -0.49054945849529447
        ],
        [
          -0.057004416290662795,
          -0.06043698256929335,
          0.05028278113674781,
          -0.2553904928100657,
          -0.2374542335199128,
          -0.06420044606361545,
          -0.10355397556504344,
          -0.4669348450118392,
          0.17710452317963474,
          -0.026630449458688536,
          -0.17523083605148596,
          0.18513141293086627,
          0.46740765613202917,
          -0.06852298345557273,
          -0.49857344769523626,
          -0.5096212284335785,
          0.05142723976920624,
          0.02590734719872285,
          0.061815751103087936,
          -0.2389326300752688,
          -0.2114138987471262,
          -0.08283629918329427,
          0.34227228288547906,
          -0.03986602895419691,
          0.20717647354339486,
          0.11670960527623282,
          -0.5069151019356471,
          -0.23970240739903909,
          0.11215486168980492,
          0.34297286708748276,
          -0.3374885052204097
        ],
        [
          0.39645527178077705,
          0.4122228260009967,
          0.3627813700669754,
          0.22239263405890122,
          -0.11119575536470451,
          -0.22141799663016964,
          -0.4089426778509198,
          0.06792592327403188,
          -0.12157606258557417,
          0.06849754023515518,
          0.15556166954299191,
          -0.1360196924752765,
          -0.19192777305813655,
          -0.12682516367476532,
          0.5661019403974787,
          0.14098329167319,
          0.26046115152396276,
          0.28683585223331615,
          -0.1707060986238325,
          0.45387287756811606,
          0.021702416009547604,
          0.32110661281462033,
          0.3672248300455991,
          -0.22348388483942902,
          -0.0032068668827413137,
          -0.25351833442543537,
          -0.0848143339444329,
          0.13876348408850372,
          0.024322111671159632,
          0.022067681537094798,
          -0.34474018744140317
        ],
        [
          -0.15886132049633078,
          0.44421983748231425,
          0.04739933119474038,
          -0.30657197153825116,
          -0.14954535302458666,
          -0.039992425783508825,
          -0.23530758897998943,
          -0.8312873419224491,
          0.6107863629667121,
          0.3732713221664848,
          0.25808461189892334,
          -0.10922786924692962,
          0.08963446122320289,
          -0.409255178323722,
          -0.13045308285581686,
          -0.3259488610994908,
          -0.12390908424978793,
          0.5452176649359727,
          -0.13516079370423703,
          0.2966611205664834,
          0.07388618741458876,
          0.17244673473599278,
          0.0878251834722434,
          0.04007313746698559,
          -0.1196185613177456,
          -0.5622761181106652,
          -0.2005513951920488,
          -0.3446553196240619,
          0.1823350748287514,
          0.625228666102869,
          -0.37276583088604515
        ],
        [
          -0.1099834758657878,
          -0.24835102341714607,
          -0.00980238192727192,
          -0.30979378642869937,
          0.13552289775376453,
          0.25540327373445276,
          0.19660869754454482,
          -0.12066370082317229,
          -0.22979793772717097,
          0.06100461767400565,
          0.25118308459686517,
          -0.019438092985315857,
          -0.07748613017219999,
          0.29425064086335584,
          0.17199174935580716,
          -0.05396154500274568,
          0.0008045246975539571,
          -0.03173371450125635,
          -0.2627947295734437,
          -0.04164312023298638,
          -0.005289805304338615,
          -0.23357234917874553,
          0.2351075636994879,
          -0.13996179472865086,
          0.11610349893485307,
          -0.351445608167255,
          0.24395705593416053,
          0.14682702467948483,
          -0.3213856421355,
          -0.12384620512667606,
          -0.0742136109311907
        ],
        [
          -0.2747933977668474,
          -0.5393426962985162,
          -0.1606031195749714,
          0.4344219066331136,
          -0.006680895544204041,
          -0.008093738929138485,
          0.15685964312318196,
          -0.3494812419802094,
          0.1411449982622646,
          0.2904054073393665,
          -0.31790493025910704,
          -0.17391833302604565,
          -0.05656218651314248,
          0.33727237734238064,
          -0.11745494339336292,
          0.0995471207764919,
          0.6027194202656604,
          0.0182685181436647,
          0.05441362985450286,
          -0.1937703107390958,
          0.16303131349122077,
          -0.1743192738567319,
          0.5639393759888296,
          -0.11687310437472656,
          -0.2465805121013495,
          0.0027057582220100427,
          -0.542853887085916,
          -0.18037240213043526,
          -0.5656553612231912,
          -0.15596214133850717,
          0.3535294817829979
        ],
        [
          -0.12551087061968524,
          -0.6585548885680123,
          -0.15484000715971383,
          -0.43063091971147327,
          0.439031685194768,
          0.39347310434738814,
          0.03309006500826597,
          0.3788976153849902,
          -0.0751950302182303,
          -0.2217344064031954,
          -0.21040343828694763,
          0.34757911341734554,
          -0.3792068493399471,
          0.04992535003443972,
          -0.15913695431256702,
          -0.12776234637632336,
          0.36604533362065256,
          -0.0769597178480594,
          0.05659212140158622,
          -0.05558989716796422,
          -0.9188069760979555,
          -0.19366566476002092,
          0.16335756069748714,
          -0.10467833734587553,
          -0.0033589320185037153,
          -0.682597427489245,
          0.36498520999311757,
          0.1314827953240268,
          0.3072518113333475,
          -0.5544860542549077,
          0.9054185698563453
        ],
        [
          0.5936450206152304,
          0.012729077921680047,
          -0.16972808625056912,
          -0.4021150367325352,
          -0.19033277770734697,
          -0.5059293690097708,
          0.0964543327816221,
          0.21702670463825155,
          0.1735793876839874,
          0.03368263393065391,
          -0.04134362678135989,
          0.17238402533685557,
          0.32328195351419614,
          -0.12197084856010466,
          0.529959320215893,
          0.4290946845069217,
          0.22198900175539635,
          0.4421409965629147,
          -0.16195098409304287,
          0.5134267505644197,
          -0.08120544865979837,
          0.19098760107448529,
          0.33725858214244064,
          0.061596947176297566,
          -0.05960841794994155,
          -0.25225752281712716,
          -0.044437305326358714,
          -0.039045648789710494,
          -0.16128819093156677,
          -0.04161805781106444,
          0.28975090050847646
        ],
        [
          -0.2749526194813953,
          0.4032722934269144,
          -0.24054913483168483,
          0.2034375411833558,
          -0.18423258664137807,
          -0.06695706003366662,
          0.1408583461507149,
          0.06432424477601485,
          0.18042577200307683,
          -0.054836972546979765,
          0.12386532331448259,
          -0.12910821434964134,
          0.1666715028940477,
          -0.4132759979737615,
          0.010291765621418014,
          -0.3394393214608856,
          -0.4962953578044644,
          -0.18031092592451164,
          -0.22977498287693102,
          -0.1715755572058241,
          0.34291739120789133,
          0.42863098267091104,
          -0.04311842523135423,
          -0.08539444835233274,
          -0.12335063913951176,
          0.18793701106225416,
          0.2490521360873176,
          -0.17071893508522554,
          -0.20527358315457336,
          0.1191764969902487,
          -0.3258173202110391
        ],
        [
          0.5998574094311397,
          0.060374156366143704,
          0.06873250819852225,
          -0.024827153484537023,
          0.26686055135765263,
          -0.0521821729238779,
          0.006309642176060862,
          0.23161109035655464,
          0.2081471594229461,
          -0.3906102844474558,
          -0.13929956744815256,
          -0.25684273723077516,
          0.08143508910861377,
          0.17623411347285486,
          0.04485169209974667,
          -0.0485330311552707,
          -0.25190099675450706,
          -0.040951417548304454,
          0.042234068588236064,
          0.19996483399021825,
          -0.23705926621533566,
          0.027891954632812337,
          0.32262838387035725,
          0.3613846087009071,
          0.23324027805937547,
          0.4407609601794223,
          0.2449969938210386,
          -0.2079522748276861,
          0.1293779505787742,
          -0.21590247471354276,
          0.2225042476178781
        ],
        [
          0.016578490317500236,
          -0.29892381946755336,
          0.07699010719746271,
          0.7915663330385502,
          0.248482262334658,
          -0.031549343757532745,
          -0.22777974624063949,
          0.4409017534852715,
          -0.5241144899978949,
          -0.06720677410060913,
          0.12472930137720056,
          -0.31431065824979326,
          -0.0786349343385874,
          -0.1889015065357481,
          -0.09932754149333024,
          0.2101377003191279,
          -0.4035801079345659,
          -0.4302298290286017,
          -0.37094375689798365,
          -0.43777328259563425,
          0.10624132247705387,
          -0.4258160183150777,
          -0.26918522907240017,
          0.008952702180229168,
          0.00498652152527857,
          0.4279724628340259,
          -0.030504291404877096,
          0.07330222079626228,
          0.11364833427325409,
          0.20924493386759585,
          -0.16174271612746635
        ],
        [
          0.15258354978322028,
          0.7064371817676495,
          -0.1532689908779915,
          0.4434374003273393,
          0.4063806852349355,
          0.1981026285835768,
          0.005323230749862441,
          0.42373947007061946,
          -0.2679169963125278,
          -0.40789524819541434,
          0.04012104203573313,
          0.11139207530691936,
          -0.12394481219978852,
          0.3701733466453109,
          0.0680844769685244,
          -0.24374959292251155,
          0.0705334882908067,
          -0.35542018786474383,
          0.5118142612989246,
          0.010693219765447867,
          0.3884317791538154,
          0.2494367997956416,
          -0.2589915894586485,
          0.16279286232907236,
          0.12214813868860344,
          0.48581682079672833,
          -0.20296088050148942,
          -0.2482097153092017,
          0.25559405862919143,
          0.0431814766860459,
          -0.44419682933728516
        ],
        [
          -0.19416077621634897,
          0.0485705100155322,
          0.233425795298019,
          0.18717654971244793,
          0.08108946734958355,
          0.06656414065080683,
          0.26933298028935626,
          0.13219079714515303,
          -0.27970923192646185,
          0.028518217780094963,
          0.23567015299233052,
          -0.01425371039350027,
          0.27134393213726227,
          -0.19966796733890893,
          -0.040476430054193324,
          0.09037175354474368,
          -0.24803450760293722,
          -0.004850998894726162,
          0.09100193632727781,
          0.277074488376029,
          0.3433217047378122,
          0.19416172539327617,
          0.29744292393825644,
          0.26127476998328775,
          -0.3053120711003761,
          0.10633586569715482,
          0.1339013928827156,
          -0.018888201682886904,
          -0.1332086329121313,
          -0.1938718017453107,
          -0.08023797998201902
        ],
        [
          -0.357767379575038,
          0.07957236152099281,
          0.044956249579254065,
          -0.07652646855333015,
          -0.5811992619927621,
          0.10776065536459668,
          0.09598732009046466,
          -0.3743878452495614,
          0.23299216910061926,
          0.21356059133173882,
          -0.1074479034269806,
          -0.2909597407351204,
          -0.421574893564749,
          0.2580938649996772,
          -0.23346565005889997,
          0.20807416646506807,
          0.38444924651177576,
          0.2657665359543515,
          0.002223780290025054,
          -0.174456564383971,
          0.36501920797300874,
          0.13188771657866738,
          0.01139160341485477,
          0.037744838856336324,
          -0.09240667583085277,
          0.009684352664081687,
          -0.448487595314476,
          -0.04777288191666675,
          -0.47982254450223477,
          -0.1821658401934318,
          -0.012756255417571517
        ],
        [
          -0.3457548111922892,
          -0.2980471836336426,
          0.1493683841661854,
          0.01639528696377766,
          -0.0106781121048497,
          0.27275569604242916,
          -0.09401224878025949,
          0.2145175433864405,
          -0.3841586700140319,
          0.3645990786904016,
          0.1526415887654303,
          0.08114661325690291,
          0.15907228410853386,
          0.07100483401056167,
          -0.11899583503713426,
          0.04680619125245322,
          -0.07073450028953454,
          -0.03634471166025657,
          0.25407781058658435,
          -0.45357869982124827,
          0.07956702083066049,
          -0.237810873072212,
          -0.35831177730746083,
          0.07857229459440455,
          0.259164546202572,
          0.05156945717767005,
          -0.10040202993861712,
          -0.09014028607301279,
          0.0374869608701577,
          0.03481037911591363,
          0.26536045172905337
        ]
      ]
    }
  ]
}
